%YAML:1.0
_0218: !!opencv-ml-svm
   svm_type: C_SVC
   kernel: { type:LINEAR }
   C: 100.
   term_criteria: { epsilon:9.9999999747524271e-007,
       iterations:2147483647 }
   var_all: 576
   var_count: 576
   class_count: 2
   class_labels: !!opencv-matrix
      rows: 1
      cols: 2
      dt: i
      data: [ -1, 10 ]
   sv_total: 62
   support_vectors:
      - [ 0., 1.14092674e+001, 0., 0., 0., 0., 0., 0., 0.,
          1.07148581e+001, 4.74852829e+001, 3.06677284e+001,
          2.61203885e-001, 0., 0., 0., 0., 0., 1.36459799e+001,
          8.75770798e+001, 5.12849922e+001, 1.49195015e+000, 1., 0., 0.,
          0., 4.14213568e-001, 1.77263355e+001, 1.54699295e+002,
          4.82375450e+001, 9.22610760e-001, 0., 0., 7.85166836e+000,
          1.33096552e+000, 0., 0., 0., 0., 0., 0., 1.85368004e+001,
          3.13725262e+001, 2.32902336e+001, 3.82842708e+000, 0., 0., 0.,
          0., 3., 3.98284264e+001, 4.73431473e+001, 4.29222641e+001,
          7.90616369e+000, 0., 0., 0., 2., 1.84033394e+001,
          5.59356003e+001, 1.04952164e+002, 3.17088928e+001, 0., 0., 0.,
          0., 0., 0., 0., 0., 0., 0., 0., 1.83031826e+001,
          1.19042289e+000, 0., 0., 0., 0., 0., 0., 3.29770164e+001,
          2.56230373e+001, 1.11715727e+001, 2., 2., 0., 3.20377231e-001,
          0., 4.04722214e+001, 3.07678871e+001, 1.66862907e+001,
          1.84142132e+001, 6., 3., 3., 0., 0., 0., 0., 0., 0., 0., 0.,
          0., 0., 0., 0., 0., 0., 0., 0., 0., 0., 0., 0., 0., 0., 0., 0.,
          0., 0., 0., 0., 0., 0., 0., 0., 0., 0., 0., 0., 0., 0., 0., 0.,
          0., 0., 0., 0., 0., 0., 0., 0., 0., 0., 0., 0., 0., 0., 0., 0.,
          0., 0., 0., 0., 0., 0., 0., 0., 0., 0., 0., 0., 0., 0., 0., 0.,
          0., 0., 0., 0., 0., 0., 0., 0., 0., 0., 0., 0., 0., 0., 0., 0.,
          0., 0., 0., 0., 0., 0., 0., 0., 0., 0., 0., 0., 0., 0., 0., 0.,
          0., 1.56988931e+000, 0., 0., 0., 0., 0., 0., 0.,
          2.08525486e+001, 1.01917064e+000, 0., 0., 0., 0., 0., 0.,
          2.90145378e+001, 1.23026247e+001, 0., 0., 0., 0., 0., 0.,
          1.92010319e+000, 0., 0., 0., 0., 0., 0., 0., 3.21438599e+001,
          2.39705620e+001, 7.51471853e+000, 0., 0., 0., 0., 0.,
          2.36648998e+001, 6.73847733e+001, 4.47867966e+001,
          9.07106781e+000, 1., 1., 1., 0., 1.76862907e+001,
          5.30416298e+001, 5.71299438e+001, 7.48445282e+001,
          9.88339520e+000, 0., 0., 1.39991693e+001, 3.00083065e+000, 0.,
          0., 0., 9.27112770e+000, 7.15451050e+001, 1.11837664e+001, 0.,
          0., 1.30601943e+000, 9.18706055e+001, 3.14802303e+001,
          2.34314585e+000, 0., 5.22407770e-001, 2.63943310e+001,
          2.89949493e+001, 6.93480759e+001, 2.07402382e+001,
          9.83573151e+000, 2.16426826e+000, 0., 0., 0., 2.18364239e+001,
          4.82224503e+001, 9.94112587e+000, 0., 0., 1.82842708e+000,
          6.51766205e+001, 3.35513000e+001, 6.44365072e+000, 0.,
          5.22407770e-001, 6.33821373e+001, 4.43208504e+001,
          4.23866425e+001, 2.38796115e+000, 0., 0., 0., 0., 0.,
          1.94739838e+001, 4.52601576e+000, 0., 0., 0., 3.57947960e+001,
          3.25067215e+001, 9.94112587e+000, 1.75735927e+000, 0.,
          3.18140392e+001, 4.66884880e+001, 1.90538235e+001,
          7.44365072e+000, 0., 0., 0., 0., 0., 0., 0., 0., 0., 0., 0.,
          0., 0., 0., 0., 0., 0., 0., 0., 0., 0., 0., 0., 0., 0., 0., 0.,
          0., 0., 0., 0., 0., 0., 0., 0., 0., 0., 0., 0., 0., 0., 0., 0.,
          0., 0., 0., 0., 0., 0., 0., 0., 0., 0., 0., 0., 0., 0., 0., 0.,
          0., 0., 0., 0., 0., 0., 0., 2.05291152e+000, 1.94708848e+000,
          0., 0., 0., 2.14737034e+001, 1.21120825e+001, 4.14213568e-001,
          0., 0., 2.49499454e+001, 2.41505585e+001, 2.89949489e+000, 0.,
          0., 2.49999070e+000, 1.50000942e+000, 0., 0., 0.,
          2.62695732e+001, 5.47598648e+001, 4.97056293e+000, 0., 0.,
          4.75735950e+000, 1.05590836e+002, 3.18944435e+001,
          1.75735927e+000, 0., 1.04481554e+000, 1.00533829e+002,
          4.80487747e+001, 9.37258339e+000, 0., 1.64487915e+001,
          2.55120802e+000, 0., 0., 0., 5.70822954e+000, 9.73542118e+000,
          1.82253971e+001, 2.80697479e+001, 2.61203885e-001, 0.,
          5.85786462e-001, 2.52670269e+001, 1.13456390e+002,
          1.06907959e+001, 0., 0., 8.28427136e-001, 1.22413902e+002,
          9.87576675e+001, 1.14404707e+001, 2.55952954e+000, 0., 0., 0.,
          2.16726685e+001, 7.08469057e+000, 1.07695522e+001,
          2.24730873e+001, 0., 0., 1.75735927e+000, 2.77523079e+001,
          7.24640808e+001, 3.02625227e+000, 0., 1.17157292e+000,
          2.60954552e+001, 1.38845566e+002, 3.38874092e+001, 0., 0., 0.,
          0., 0., 2.11148796e+001, 4.88512039e+000, 0., 0., 0.,
          3.62771225e+001, 1.10660219e+001, 7.45584393e+000,
          1.02010098e+001, 0., 3.29824486e+001, 1.60469875e+001,
          2.23675327e+001, 2.66030312e+001, 0., 0., 0., 0., 0., 0., 0.,
          0., 0., 0., 0., 0., 0., 0., 0., 0., 0., 0., 0., 0., 0., 0., 0.,
          0., 0., 0., 0., 0., 0., 0., 0., 0., 0., 0., 0., 0., 0., 0., 0.,
          0., 0., 0., 0., 0., 0., 0., 0., 0., 0., 0., 0., 0., 0., 0., 0.,
          0., 0., 0., 0., 0., 0., 0., 0., 0., 0., 0., 4.81709528e+000,
          2.18290448e+000, 0., 0., 0., 2.73389473e+001, 9.83262539e+000,
          8.28427136e-001, 0., 0., 3.08733139e+001, 1.60556183e+001,
          2.07106781e+000, 0., 0., 4.69797850e+000, 1.30202150e+000, 0.,
          0., 0., 3.74317055e+001, 1.95266628e+001, 1.20121937e+001,
          7.02943707e+000, 0., 3.85876012e+000, 1.89574738e+001,
          3.31370850e+001, 4.10466805e+001, 0., 0., 1.44730883e+001,
          3.47939377e+001, 1.12590836e+002, 8.14213562e+000 ]
      - [ 2.17326745e-001, 5.54000187e+000, 8.45921803e+000,
          1.27838850e+001, 5.00316620e+000, 9.96402204e-001, 0., 0.,
          4.58987045e+000, 5.10134888e+000, 1.56210327e+001,
          1.33139896e+001, 2.16695995e+001, 1.90638466e+001,
          1.19394684e+001, 4.70084476e+000, 0., 0., 0., 0.,
          1.05917511e+001, 1.61529980e+001, 4.25525093e+000, 0., 0., 0.,
          0., 0., 0., 0., 0., 0., 0., 4., 2.73180223e+000,
          1.27970800e+001, 6.47111797e+000, 2., 2., 0., 0., 1.,
          9.54824734e+000, 1.05555468e+001, 1.78315678e+001,
          1.24788513e+001, 1.15857868e+001, 1., 0., 1.58578646e+000,
          8.32777405e+000, 1.38457088e+001, 4.10965729e+001,
          4.49532890e+001, 1.71908722e+001, 0., 0., 4., 1.,
          5.42908525e+000, 4.08940506e+001, 4.80026131e+001,
          2.79701157e+001, 1.57818699e+001, 0., 1.70689430e+001,
          4.69040298e+000, 0., 0., 0., 0., 0., 0., 2.11600914e+001,
          1.35415783e+001, 6.58578634e+000, 3., 4., 8.41421318e+000,
          6.17157269e+000, 0., 1.58103018e+001, 1.28256388e+001, 4., 8.,
          1.41715727e+001, 1.16568546e+001, 3.20412292e+001, 0.,
          1.58578646e+000, 9.82842731e+000, 6.17157269e+000,
          2.30349445e+001, 2.56318474e+001, 6.03480644e+001,
          7.23384399e+001, 0., 9.07966328e+000, 1.46370230e+001,
          5.28331375e+000, 0., 0., 0., 0., 0., 2.45099392e+001,
          2.60074883e+001, 8.97057056e+000, 7.38796115e-001,
          2.73879623e+000, 5.52661324e+000, 5.54085827e+000, 0.,
          2.78427429e+001, 1.02117882e+001, 3.68629146e+000,
          5.41421366e+000, 2.41421366e+000, 5.67541742e+000,
          9.57959557e+000, 0., 1.58026934e+001, 3.52377534e+000, 0., 0.,
          0., 0., 6.09032202e+000, 0., 1.97697258e+000, 4.02302742e+000,
          0., 0., 0., 0., 0., 0., 3.68488574e+000, 1.26971254e+001,
          4.61798906e+000, 0., 0., 0., 0., 0., 1., 0., 0., 0., 0., 0.,
          0., 0., 0., 0., 0., 0., 0., 0., 0., 0., 1., 0., 0., 0., 0., 0.,
          0., 0., 0., 0., 0., 0., 0., 0., 0., 0., 0., 0., 0., 0., 0., 0.,
          0., 0., 0., 0., 0., 0., 0., 0., 0., 1.50444776e-001,
          2.55167222e+000, 2.29788303e+000, 0., 0., 0., 0., 0., 0., 0.,
          0., 0., 0., 0., 0., 0., 0., 0., 1., 0., 0., 0., 0., 0., 0., 0.,
          1., 0., 0., 0., 0., 0., 0., 2.63911772e+000, 1.08752728e+001,
          3.92108083e+000, 0., 0., 0., 1.27706552e+000, 0.,
          3.20495758e+001, 0., 0., 5., 5., 1.09318285e+001,
          1.71754513e+001, 0., 3.10601578e+001, 1.17404919e+001,
          2.54378891e+000, 3.04209538e+001, 3.96165085e+001,
          8.41874695e+000, 4., 0., 1.06682959e+001, 1.87917538e+001,
          1.29992695e+001, 2.51386757e+001, 2.39539928e+001,
          5.63633347e+000, 4.32037735e+000, 1.92838650e+001,
          1.03019209e+001, 1.24264073e+000, 1.75735927e+000,
          4.14213568e-001, 3.13423042e+001, 1.12434826e+001,
          2.07106781e+000, 1.33682299e+001, 2.99749165e+001, 0., 0., 0.,
          4.37727118e+000, 1.96227283e+001, 0., 0., 0., 0., 0.,
          5.33124065e+000, 1.35976915e+001, 3.72792196e+000,
          2.34314585e+000, 0., 2.48846626e+000, 1.53693981e+001,
          1.11837664e+001, 1.93192406e+001, 4.63912916e+000,
          1.70753841e+001, 8.26776218e+000, 8.69848442e+000,
          5.12657509e+001, 2.56926174e+001, 1.12637644e+001,
          8.66516781e+000, 1.11837664e+001, 7.35937195e+001,
          2.82935791e+001, 1.05607042e+001, 1.37824421e+001,
          1.65685427e+000, 0., 0., 2.13444638e+000, 3.35102158e+001,
          1.73969688e+001, 1.19583693e+001, 0., 3.26438880e+000,
          2.52087002e+001, 2.65096684e+001, 4.36369705e+001,
          3.38027215e+000, 0., 1.27867966e+001, 2.07106781e+001,
          8.84285889e+001, 6.80739365e+001, 2.50937099e+001,
          3.49207735e+000, 4.14213568e-001, 0., 0., 2.23309059e+001,
          3.62843170e+001, 7.45584393e+000, 1.12086992e+001,
          1.72023296e+000, 3.36260452e+001, 2.07465382e+001,
          1.28406200e+001, 1.50273409e+001, 3.75945592e+000,
          1.55642748e+001, 9.95044327e+000, 4.14213562e+000,
          6.78065157e+000, 7.56249428e+000, 4.38320446e+000,
          1.61679566e+000, 0., 0., 0., 1.76859570e+001, 3.31404352e+000,
          0., 0., 0., 5.85786462e-001, 4.14213568e-001, 0., 0., 0., 0.,
          0., 0., 0., 0., 5.85786462e-001, 4.14213568e-001, 0., 0., 0.,
          0., 0., 0., 0., 0., 0., 0., 0., 0., 0., 0., 0., 0., 0., 0.,
          3.91078258e+000, 1.08921742e+000, 0., 0., 0., 0., 0., 0., 0.,
          0., 5.85786462e-001, 4.14213568e-001, 0., 0., 0.,
          5.85786462e-001, 4.14213568e-001, 0., 0., 0., 1.59971666e+001,
          2.00283337e+000, 0., 5.56858599e-001, 1.44314134e+000,
          3.07319965e+001, 8.43957710e+000, 4.55634928e+000,
          1.92103405e+001, 1.70617390e+001, 3.38047981e+001,
          1.60530682e+001, 1.20121937e+001, 2.88523903e+001,
          3.32775536e+001, 4.35722733e+001, 8.01351261e+000,
          2.89949489e+000, 1.58108778e+001, 2.77038403e+001,
          4.82626390e+000, 4.34530878e+000, 8.28427136e-001,
          8.10617256e+000, 1.38938274e+001, 1.56982698e+001,
          9.05908871e+000, 2.48528147e+000, 1.71989594e+001,
          4.55583992e+001, 0., 0., 0., 4.61315727e+000, 2.43868427e+001,
          0., 0., 0., 0., 0., 1.49962854e+000, 2.67194438e+000,
          3.31370854e+000, 1.58841171e+001, 3.63060188e+000, 0.,
          7.02943707e+000, 9.94112587e+000, 2.61102238e+001,
          1.19192142e+001, 0., 2.34314585e+000, 5.38477612e+000,
          5.48189888e+001, 5.34530869e+001, 1.35083485e+000,
          2.61222534e+001, 1.73969688e+001, 4.98888092e+001,
          4.92411308e+001, 1.10644684e+001, 1.65213184e+001,
          4.14213568e-001, 0., 0., 4.32458258e+000, 3.68053589e+001,
          1.36690474e+001, 8.20100975e+000, 0., 1.43688002e+001,
          5.48910828e+001, 2.40243874e+001, 1.81933212e+001,
          5.22407770e-001, 3.98087654e+001, 6.19363976e+001,
          2.81665230e+001, 4.92829514e+001, 6.80535984e+000,
          1.15832834e+001, 6.00250292e+000, 1.24264073e+000,
          3.11729932e+000, 8.05427361e+000, 1.17957983e+001,
          3.26062241e+001, 1.24264069e+001, 5.68860865e+000,
          1.04829645e+001, 5.20741234e+001, 3.19553146e+001,
          7.45584393e+000, 8.99231052e+000, 5.22407770e-001,
          4.55609818e+001, 1.86105900e+001, 8.28427136e-001, 0., 0.,
          1.49403906e+000, 5.05960941e-001, 0., 0., 0., 5.82691574e+000,
          1.17308450e+000, 0., 1.58116162e+000, 6.41883850e+000,
          5.85786462e-001, 4.14213568e-001, 0., 0., 0., 0., 0., 0., 0.,
          0., 5.85786462e-001, 4.14213568e-001, 0., 0., 0., 0., 0., 0.,
          0., 0., 0., 0., 0., 0., 0., 0., 0., 0., 0., 0.,
          2.41674352e+000, 5.83256423e-001, 0., 0., 0., 0., 0., 0., 0.,
          0., 5.85786462e-001, 4.14213568e-001, 0., 0., 0.,
          5.85786462e-001, 4.14213568e-001, 0., 0., 0., 7.13772345e+000,
          1.86227655e+000, 4.14213568e-001, 2.34395361e+000,
          6.24183273e+000, 4.98425713e+001, 2.12579346e+001,
          7.04163074e+000, 5.85786438e+000, 0., 3.31622238e+001,
          1.81098537e+001, 9.52691174e+000, 2.77260456e+001,
          4.24749641e+001, 1.57009687e+001, 1.18848171e+001,
          4.14213568e-001, 1.37905188e+001, 5.72094803e+001 ]
      - [ 0., 0., 0., 0., 0., 0., 0., 0., 0., 0., 0., 0., 0., 0., 0., 0.,
          0., 3.36994019e+001, 1.47705431e+001, 4.02973604e+000,
          2.52661300e+000, 1., 0., 0., 0., 4.64297447e+001,
          5.38784637e+001, 2.90935326e+001, 2.26162434e+001,
          7.89180565e+000, 9.26120377e+000, 7., 0., 0., 0., 0., 0., 0.,
          0., 0., 0., 0., 0., 0., 0., 0., 0., 0., 0., 4.58459435e+001,
          2.53694019e+001, 6.48467398e+000, 3.32458258e+000, 0., 0., 0.,
          0., 1.77794704e+001, 1.07532539e+001, 6.98281097e+001,
          1.00616783e+002, 9.24427032e+000, 0., 3.08061600e-001, 0., 0.,
          0., 0., 0., 0., 0., 0., 0., 0., 0., 0., 0., 0., 0., 0., 0., 0.,
          0., 0., 0., 0., 0., 0., 0., 8.17071056e+000, 3.45389414e+000,
          0., 0., 0., 0., 3.93270612e-001, 0., 0., 0., 0., 0., 0., 0.,
          0., 0., 0., 0., 0., 0., 0., 0., 0., 0., 0., 0., 0., 0., 0., 0.,
          0., 0., 0., 0., 0., 0., 0., 0., 0., 0., 0., 0., 0., 0., 0., 0.,
          0., 0., 0., 0., 0., 0., 0., 0., 0., 0., 0., 0., 0., 0., 0., 0.,
          0., 0., 0., 0., 0., 0., 0., 0., 0., 0., 0., 0., 0., 0., 0., 0.,
          0., 0., 0., 0., 0., 0., 0., 0., 0., 0., 0., 0., 0., 0., 0., 0.,
          0., 0., 0., 0., 0., 0., 0., 0., 0., 0., 0., 0., 0., 0., 0., 0.,
          0., 0., 0., 0., 0., 0., 0., 0., 0., 0., 0., 0., 0., 0., 0., 0.,
          0., 0., 0., 0., 0., 0., 0., 0., 0., 0., 0., 0., 0., 0., 0., 0.,
          0., 0., 0., 0., 0., 0., 0., 0., 0., 0., 0., 0., 0., 0., 0., 0.,
          0., 0., 5.94255447e+000, 1.90743566e-001, 0., 0., 0., 0., 0.,
          0., 0., 0., 0., 0., 0., 0., 0., 0., 0., 4.04344978e+001,
          1.67370758e+001, 1.24264073e+000, 5.85786462e-001, 0.,
          4.17527428e+001, 8.74360733e+001, 2.69238815e+001,
          1.73648930e+001, 5.22407770e-001, 0., 0., 0., 0., 0., 0., 0.,
          0., 0., 0., 6.01499786e+001, 1.93647385e+001, 2.48528147e+000,
          0., 0., 2.76583710e+001, 9.29740982e+001, 2.94091625e+001,
          1.31170168e+001, 8.41352940e-001, 0., 0., 0., 0., 0., 0., 0.,
          0., 0., 0., 0., 0., 0., 0., 0., 1.25101109e+001,
          3.48988891e+000, 0., 2.39121154e-001, 7.60878861e-001, 0., 0.,
          0., 0., 0., 0., 0., 0., 0., 0., 0., 0., 0., 0., 0., 0., 0., 0.,
          0., 0., 0., 0., 0., 0., 0., 0., 0., 0., 0., 0., 0., 0., 0., 0.,
          0., 0., 0., 0., 0., 0., 0., 0., 0., 0., 0., 0., 0., 0., 0., 0.,
          0., 0., 0., 0., 0., 0., 0., 0., 0., 0., 0., 0., 0., 0., 0., 0.,
          0., 0., 0., 0., 0., 0., 0., 0., 0., 0., 0., 0., 0., 0., 0., 0.,
          0., 0., 0., 0., 0., 0., 0., 0., 0., 0., 0., 0., 0.,
          5.27341032e+000, 2.72658968e+000, 0., 0., 0., 0., 0., 0., 0.,
          0., 0., 0., 0., 0., 0., 3.70735664e+001, 1.25122185e+001,
          1.65685427e+000, 6.23495150e+000, 1.52240777e+000,
          3.70837326e+001, 4.05609283e+001, 2.52670269e+001,
          4.58456726e+001, 6.24264050e+000, 0., 0., 0., 0., 0., 0., 0.,
          0., 0., 0., 5.00040092e+001, 1.45817776e+001, 1.65685427e+000,
          8.26889324e+000, 2.48846626e+000, 2.49379749e+001,
          6.06202459e+000, 1.07695522e+001, 1.27842178e+002,
          4.73882675e+001, 0., 0., 0., 0., 0., 0., 0., 0., 0., 0., 0.,
          0., 0., 0., 0., 1.89651375e+001, 4.03486252e+000, 0., 0., 0.,
          0., 0., 0., 0., 0., 0., 0., 0., 0., 0., 0., 0., 0., 0., 0., 0.,
          0., 0., 0., 0., 0., 0., 0., 0., 0., 0., 0., 0., 0., 0., 0., 0.,
          0., 0., 0., 0., 0., 0., 0., 0., 0., 0., 0., 0., 0., 0., 0., 0.,
          0., 0., 0., 0., 0., 0., 0., 0., 0., 0., 0., 0., 0., 0., 0., 0.,
          0., 0., 0., 0., 0., 0., 0., 0., 0., 0., 0., 0., 0., 0., 0., 0.,
          0., 0., 0., 0., 0., 0., 0., 0., 0., 0., 0., 0., 0., 0., 0.,
          6.09219599e+000, 2.90780401e+000, 0., 0., 0. ]
      - [ 0., 2.28482485e+000, 4.04125786e+000, 4.15579844e+000,
          9.71642494e+000, 4.45514774e+000, 2., 3., 0., 4.68258142e+000,
          8.90580368e+000, 7.88430071e+000, 2.87387009e+001,
          5.70158052e+000, 5.46712494e+000, 6.75446844e+000, 0., 0., 0.,
          1.64831758e+000, 3.52548523e+001, 5.09683180e+000, 0., 0., 0.,
          0., 0., 0., 0., 0., 0., 0., 0., 0., 5.50384474e+000,
          1.05146065e+001, 1.06384039e+001, 3.34314585e+000, 0., 0., 0.,
          3.06450214e+001, 2.39556293e+001, 1.09103689e+001,
          9.76925373e+000, 3., 2., 1., 0., 1.31524019e+001,
          1.69180584e+001, 2.10623436e+001, 5.41019630e+001,
          2.19176350e+001, 6.82842731e+000, 5.17157269e+000, 0.,
          6.58578634e+000, 3.58578634e+000, 5.38694811e+000,
          6.38162193e+001, 3.93826180e+001, 6.24264050e+000,
          4.34314585e+000, 0., 0., 1.08963096e+000, 8.83930111e+000,
          1.00710678e+001, 7.58578634e+000, 2.41421366e+000, 1., 0.,
          1.58578646e+000, 2.34852810e+001, 3.46152229e+001,
          2.34852810e+001, 7.41421366e+000, 4.14213568e-001, 0., 0.,
          6.79857874e+000, 4.34929695e+001, 5.93725815e+001,
          2.83137093e+001, 4.58578634e+000, 2.41421366e+000,
          1.21822822e+000, 0., 2.63078642e+000, 2.34142132e+001,
          2.53431454e+001, 3.64852829e+001, 8.89777851e+000,
          7.23207760e+000, 2.11622066e+001, 0., 2.58578634e+000,
          4.17926216e+000, 1.47035255e+001, 7.11721230e+000,
          4.14213568e-001, 0., 0., 0., 6.27266073e+000, 2.44046593e+000,
          1.63456097e+001, 3.27930412e+001, 1.86743965e+001,
          6.74648523e+000, 1.32037723e+000, 0., 1.32646999e+001, 1., 1.,
          8., 4.58578634e+000, 2.41421366e+000, 4.37906551e+000, 0., 0.,
          0., 0., 0., 0., 0., 9.46962059e-001, 0., 0., 5.85786462e-001,
          2.93662143e+000, 8.77803421e+000, 1.32212706e+001,
          5.47828770e+000, 0., 0., 3.15889130e+001, 1.13819790e+000,
          5.80626774e+000, 8.53748608e+000, 8.08401585e+000,
          6.72524023e+000, 8.46990287e-001, 0., 0., 0., 0., 0., 0., 0.,
          0., 0., 0., 0., 0., 0., 0., 0., 0., 0., 0., 4.14213568e-001,
          1.97013664e+000, 6.55227089e+000, 1.01437922e+001,
          6.65838289e+000, 3.26120377e+000, 0., 2.17072182e+001,
          8.56854630e+000, 7.37415552e+000, 8.31132698e+000,
          6.58578634e+000, 1.00118942e+001, 9.29412460e+000, 0.,
          1.64626865e+001, 1.30370226e+001, 0., 0., 0., 0., 0., 0., 0.,
          0., 0., 0., 0., 0., 0., 4.57624149e+000, 5.85786462e-001, 0.,
          0., 0., 1.91745067e+000, 8.53870201e+000, 1.63818188e+001, 0.,
          0., 0., 0., 7.01917076e+000, 1.97984962e+001, 2.98966179e+001,
          2.86545048e+001, 0., 1.72843113e+001, 1.62228146e+001, 9.,
          2.50197792e+001, 2.79363136e+001, 2.07007618e+001,
          1.26909246e+001, 0., 2.49901924e+001, 2.60843105e+001,
          2.56692276e+001, 3.37556305e+001, 2.84878712e+001,
          1.14098663e+001, 4.53321409e+000, 1.90758038e+000, 0., 0., 0.,
          1.26120389e+000, 3.49967504e+000, 1.21526165e+001,
          1.01789236e+001, 0., 0., 2., 1.43982601e+001, 3.77434349e+001,
          1.76675625e+001, 4.12307644e+000, 4.14015198e+000, 0., 0., 0.,
          0., 1.64488430e+001, 1.85511570e+001, 0., 0., 0., 0., 0., 0.,
          3.02221370e+000, 3.41325760e+000, 2.56452870e+000, 0.,
          3.54388285e+000, 7.79926300e+000, 4.14213562e+000,
          9.75735950e+000, 1.75735927e+000, 9.96865654e+000,
          2.26465664e+001, 1.44974747e+001, 1.77694149e+001,
          4.11788750e+000, 3.78226829e+000, 4.21773148e+000,
          1.65685427e+000, 8.23880100e+000, 6.10434437e+000, 0., 0., 0.,
          0., 0., 2.61203885e-001, 1.64250870e+001, 5.38477612e+000,
          2.92893219e+000, 0., 1.33485718e+001, 5.07813721e+001,
          9.94112587e+000, 3.92893219e+000, 0., 1.19782519e+000,
          4.04052048e+001, 2.65096684e+001, 2.72937241e+001,
          1.75935783e+001, 7.83611596e-001, 1.24173985e+001,
          1.49116879e+001, 4.78527069e+001, 3.00345936e+001,
          2.61203885e-001, 8.42508793e+000, 7.04163074e+000,
          9.27207756e+000, 0., 1.56722319e+000, 4.79353027e+001,
          1.86396103e+001, 7.85786438e+000, 0., 2.08963108e+000,
          8.26727753e+001, 3.39655113e+001, 7.92543364e+000,
          1.34664428e+000, 1.04481554e+000, 3.89724274e+001,
          2.19533195e+001, 2.03501568e+001, 3.86792793e+001,
          2.24264073e+000, 1.77867966e+001, 5.38477612e+000,
          5.85786462e-001, 0., 8.61370945e+000, 2.13446598e+001,
          1.53259020e+001, 2.35179043e+001, 1.19782519e+000,
          1.91332645e+001, 1.53814545e+001, 7.87005758e+000,
          1.49693985e+001, 7.64582491e+000, 0., 0., 0., 5.72860599e-001,
          1.42713940e+000, 5.22407770e-001, 4.23495150e+000,
          4.55634928e+000, 1.27569523e+001, 4.92933893e+000,
          3.50825348e+001, 1.91895409e+001, 5.38477612e+000,
          1.21453209e+001, 4.19782495e+000, 0., 0., 0., 0., 0., 0., 0.,
          0., 0., 0., 0., 4.34314585e+000, 2.07106781e+000,
          1.07802525e+001, 9.80553436e+000, 2.52037125e+001,
          2.27252197e+001, 4.97056293e+000, 2.29660587e+001,
          2.13444638e+000, 2.51955585e+001, 4.80444098e+000, 0., 0., 0.,
          0., 0., 0., 0., 0., 0., 5.85786462e-001, 2.48528147e+000,
          2.22317657e+001, 6.69716549e+000, 0., 0., 1.03553391e+001,
          6.56446609e+001, 9., 2.10293198e+001, 2.39290504e+001,
          2.31959591e+001, 4.77570114e+001, 1.40886612e+001,
          2.65162544e+001, 5.50573387e+001, 2.15391045e+001,
          2.75940456e+001, 2.62932549e+001, 0., 0., 2.07106781e+000,
          1.50992851e+001, 1.08296471e+001, 1.89126987e+001,
          1.18446598e+001, 8.69848442e+000, 2.65737057e+001,
          9.97044945e+000, 0., 0., 0., 5.35225153e+000, 2.36477489e+001,
          0., 0., 0., 2.13279533e+000, 4.86720467e+000, 1.83303928e+000,
          5.92432022e+000, 1.65685427e+000, 1.19144764e+001,
          6.67130947e+000, 1.50536461e+001, 1.66326447e+001,
          6.62741709e+000, 1.48724661e+001, 2.58138256e+001, 0., 0.,
          8.28427136e-001, 5.67803907e+000, 3.54935341e+001, 0., 0., 0.,
          0., 0., 0., 0., 2.07106781e+000, 2.16229134e+001,
          2.30601931e+000, 8.95836926e+000, 3.27573586e+001,
          1.28406200e+001, 1.80556889e+001, 2.38796115e+000,
          6.75417423e-001, 2.01113796e+001, 1.69827557e+001,
          5.25950775e+001, 3.56353683e+001, 2.61203885e-001,
          1.31824465e+001, 9.52691174e+000, 4.59859314e+001,
          5.80435066e+001, 0., 5.85786462e-001, 6.21320343e+000,
          2.16786022e+001, 5.22407770e-001, 0., 1.17157292e+000,
          1.82253971e+001, 5.30991859e+001, 2.50384450e+000,
          4.19292021e+000, 1.20791578e+001, 3.64507942e+001,
          6.64935150e+001, 7.83611596e-001, 5.45455093e+001,
          1.17976351e+001, 2.48528137e+001, 5.17592239e+001,
          1.04481554e+000, 0., 1.75735927e+000, 4.55634928e+000,
          1.83617096e+001, 3.32458258e+000, 1.01680317e+001,
          3.41775513e+000, 1.03553391e+001, 5.67637291e+001,
          6.29514551e+000, 6.05499573e+001, 1.06216173e+001,
          4.14213562e+000, 1.01638842e+001, 5.22407770e-001,
          4.09572983e+000, 9.04270232e-001, 0., 0., 0., 0., 0.,
          2.89949489e+000, 1.87804260e+001, 6.32007837e+000,
          4.30558319e+001, 1.01157408e+001, 2.07106781e+000,
          1.88098640e+001, 4.94749546e+000, 1.42713940e+000,
          5.72860599e-001, 0., 0., 0., 0., 0., 0., 0., 0., 0.,
          3.92893219e+000, 3.72792196e+000, 1.14467115e+001,
          9.89643383e+000, 2.99259682e+001, 2.12750416e+001,
          1.11837664e+001, 1.72639828e+001, 2.35124183e+000,
          2.13492641e+001, 6.65073633e+000, 0., 0., 0., 0., 0., 0., 0.,
          0., 4.83611631e+000, 1.85070286e+001, 2.89949489e+000,
          2.49615550e+000, 2.61203885e-001, 1.98143685e+000,
          3.12490101e+001, 1.44974747e+001, 2.13725834e+001,
          4.89949512e+000, 2.97378216e+001, 1.76347618e+001,
          2.02964649e+001, 4.29549294e+001, 1.33760242e+001,
          3.84561539e+001, 2.37448578e+001, 1.32548342e+001,
          5.76222534e+001, 3.29219017e+001, 3.17157292e+000,
          1.19289322e+001, 4.55634928e+000, 4.04513979e+000,
          1.29800618e+000, 3.50727463e+000, 8.66429806e+000,
          2.48528147e+000, 2.14545364e+001, 4.68886108e+001, 0., 0., 0.,
          5.63307667e+000, 2.93669224e+001, 0., 0., 0., 1.77934217e+000,
          5.22065783e+000 ]
      - [ 0., 5.85786462e-001, 4.76925373e+000, 9.64495945e+000, 0., 0.,
          1.11876726e+001, 3.81232738e+000, 0., 1.60926170e+001,
          2.80300484e+001, 1.87940903e+001, 1.00832443e+001,
          3.34314585e+000, 4.01917076e+000, 6.80925655e+000, 0.,
          1.79909821e+001, 2.45584812e+001, 2.73218021e+001,
          4.72196808e+001, 2.55540123e+001, 3.26120377e+000,
          2.58578634e+000, 0., 0., 0., 1.95295028e-002, 4.10198746e+001,
          1.88551693e+001, 1.05426498e-001, 0., 0., 0., 5.24264050e+000,
          1.07573595e+001, 2., 7.34590828e-001, 3.26540923e+000, 5., 0.,
          1.54250879e+001, 2.64219036e+001, 6.91036892e+000, 5., 0.,
          7.41421366e+000, 6.75735950e+000, 0., 1.21715727e+001,
          2.24142132e+001, 1.68207378e+001, 2.59187775e+001,
          1.36036301e+001, 1.16568546e+001, 8.10050488e+000, 0.,
          6.66772842e+000, 7.24264050e+000, 3.47234297e+000,
          6.85105286e+001, 8.05596695e+001, 1.98716698e+001,
          3.58578634e+000, 0., 0., 4.14213568e-001, 9.39564991e+000,
          1.47759228e+001, 4.41421366e+000, 3., 0., 0., 2.,
          2.15038452e+001, 1.47454653e+001, 3.10871677e+001,
          8.42088223e+000, 1.22426405e+001, 1., 0., 1.90291119e+000,
          1.48284273e+001, 1.39289322e+001, 2.02426414e+001,
          5.16807413e+000, 1.19957457e+001, 3.41906548e+001, 0.,
          1.78793411e+001, 1.23899341e-001, 5.85786462e-001,
          8.28427136e-001, 2.75735927e+000, 7.96180201e+000,
          2.12365665e+001, 0., 0., 0., 5.49195004e+000, 1.51159954e+001,
          5.39205408e+000, 2., 0., 0., 7.97985315e-001, 3.58578634e+000,
          8.47759247e+000, 2.28182755e+001, 1.73127766e+001,
          8.89940739e+000, 1.41772633e+001, 0., 2.29437542e+000,
          3.09811234e+000, 0., 1., 6.17772639e-001, 4.45507145e+000,
          1.62575703e+001, 0., 0., 0., 0., 0., 0., 0., 0., 0., 0., 0.,
          2., 7.69398069e+000, 1.15959387e+001, 6.97128439e+000,
          2.73879623e+000, 0., 7.73124456e+000, 1.36789370e+001,
          1.78207378e+001, 1.66754169e+001, 4.15300989e+000,
          8.20203018e+000, 1.16337891e+001, 0., 2.21979828e+001,
          3.80877447e+000, 0., 0., 0., 0., 6.45053768e+000, 0., 0., 0.,
          0., 0., 0., 0., 0., 0., 0., 0., 1.41421354e+000,
          1.33300648e+001, 9.16188526e+000, 5.67962265e+000,
          4.14213568e-001, 0., 3., 1.02612038e+001, 1.71858177e+001,
          3.17508030e+001, 1.23879614e+001, 8.41421318e+000, 0., 0.,
          4.59680748e+001, 2.96085796e+001, 1.31490946e+001,
          9.34314537e+000, 2.58578634e+000, 3.41421366e+000,
          3.89160991e+000, 0., 7.74647093e+000, 1.08325434e+001, 0., 0.,
          0., 0., 2.88389492e+000, 0., 0., 0., 6.05496788e+000,
          1.55654812e+001, 7.37955046e+000, 1., 1., 0., 1.,
          7.03045750e+000, 2.17675114e+001, 2.85747013e+001,
          2.40530739e+001, 6.57425499e+000, 2.85119557e+000, 0.,
          3.93688965e+000, 2.48306751e+001, 2.76392498e+001,
          4.04496689e+001, 1.83800869e+001, 1.86174793e+001,
          1.71231804e+001, 1.06606216e+001, 1.05174952e+001,
          3.02382927e+001, 4.46235313e+001, 5.38205032e+001,
          1.63912239e+001, 5.32546091e+000, 1.04228735e+001, 0., 0.,
          4.52240753e+000, 1.15409708e+001, 5.35083485e+000,
          2.58578634e+000, 4.41421366e+000, 5.85786462e-001, 0.,
          1.11818380e+001, 1.17589884e+001, 1.10472794e+001,
          1.16975765e+001, 4.71243143e+000, 1.44114246e+001,
          1.32310715e+001, 0., 9.98410892e+000, 8.19426346e+000,
          1.62408638e+001, 4.07057724e+001, 2.26426010e+001,
          1.99338570e+001, 1.39622402e+001, 0., 1.46040516e+001,
          3.09087296e+001, 1.94100647e+001, 6.70446396e+001,
          2.61732349e+001, 1.41421354e+000, 3.34096456e+000,
          2.54866004e+000, 1.16229124e+001, 2.89949489e+000,
          1.00294371e+001, 2.89949489e+000, 1.35183105e+001,
          4.79253387e+001, 6.21320343e+000, 1.14699030e+001,
          1.87324262e+000, 6.53328180e+000, 5.89692421e+001,
          1.94680367e+001, 2.54804764e+001, 2.25489616e+001, 0.,
          5.85786462e-001, 1.24264073e+000, 8.99682331e+000,
          3.01747494e+001, 0., 1.35147190e+001, 3.31370854e+000,
          7.23495150e+000, 9.36621308e-001, 4.73110723e+000,
          3.49135551e+001, 1.61543293e+001, 9.20100975e+000, 0., 0.,
          3.57035370e+001, 3.18944435e+001, 2.71408157e+001,
          2.61203885e-001, 2.72513986e+000, 1.24758701e+001,
          2.40243874e+001, 9.57207260e+001, 3.20538788e+001, 0.,
          9.68629169e+000, 4.97056293e+000, 6.08194208e+000,
          2.61203885e-001, 1.04481554e+000, 3.24282722e+001,
          1.57401152e+001, 1.75255928e+001, 2.61203885e-001,
          1.03712642e+000, 2.37080402e+001, 1.90538235e+001,
          2.13184299e+001, 4.18825798e+001, 1.71103725e+001,
          1.32327728e+001, 4.14213562e+000, 1.70652409e+001,
          2.04494781e+001, 0., 6.85786438e+000, 7.45584393e+000,
          7.42508745e+000, 2.61203885e-001, 1.19782519e+000,
          1.32458258e+001, 1.44974747e+001, 3.43302879e+001,
          1.37285881e+001, 5.16121244e+000, 1.83878744e+000,
          8.28427136e-001, 7.45277023e+000, 3.07188034e+001, 0., 0., 0.,
          0., 0., 0., 2., 1.24264073e+000, 1.77573586e+001, 4.,
          5.18397713e+000, 2.94606838e+001, 1.53259020e+001,
          2.12909660e+001, 4.73847198e+000, 2.82443829e+001,
          8.51297665e+000, 1.24264073e+000, 5.62728548e+000,
          1.23727140e+001, 0., 0., 0., 0., 0., 0., 1.58578646e+000,
          3.72792196e+000, 1.65518456e+001, 2.13444638e+000,
          1.45902908e+000, 2.51856327e+001, 1.94680367e+001,
          1.78873024e+001, 0., 5.92588921e+001, 4.01136894e+001,
          1.07695522e+001, 8.59666061e+000, 2.61203885e-001,
          1.91887302e+001, 2.81127024e+000, 4.14213568e-001,
          2.37542796e+000, 6.21035862e+000, 0., 6.68629169e+000,
          8.28427124e+000, 9.02943707e+000, 0., 2.28745627e+000,
          2.74993401e+001, 1.20121937e+001, 2.89289322e+001,
          9.27207756e+000, 2.88324738e+001, 3.44690399e+001,
          2.02964649e+001, 4.54330406e+001, 1.19689808e+001,
          8.21409073e+001, 2.87880230e+001, 7.45584393e+000,
          3.15739136e+001, 1.80413094e+001, 1.98143685e+000,
          1.47759228e+001, 2.89949489e+000, 6.08194208e+000,
          2.61203885e-001, 5.22448444e+000, 2.67338848e+001,
          1.32548342e+001, 2.70185623e+001, 4.76823330e+000,
          2.52592731e+000, 3.71187325e+001, 2.19533195e+001,
          5.15070305e+001, 7.89499092e+000, 4.19236755e+001,
          3.11768284e+001, 8.69848442e+000, 3.41530724e+001,
          3.60479393e+001, 0., 5.10050488e+000, 6.21320343e+000,
          1.04250879e+001, 2.61203885e-001, 2.91805816e+000,
          2.84545250e+001, 1.61543293e+001, 3.03459244e+001,
          3.12716413e+000, 1.87324262e+000, 2.30851269e+001,
          1.94680367e+001, 4.87492294e+001, 4.28243637e+001, 0., 0., 0.,
          6.65922976e+000, 5.33407707e+001, 0., 5.51471853e+000,
          6.62741709e+000, 1.18578644e+001, 0., 0., 3.21593781e+001,
          1.82253971e+001, 8.61522388e+000, 0., 2.61203885e-001,
          3.07266026e+001, 2.44386005e+001, 4.15550308e+001,
          4.01856327e+000, 2.61203885e-001, 1.25966606e+001,
          2.02964649e+001, 8.31589813e+001, 6.06866875e+001, 0., 0.,
          4.97056293e+000, 2.32010098e+001, 1.82842708e+000,
          8.09256434e-001, 2.53388929e+000, 1.44974747e+001,
          4.65473404e+001, 1.61203873e+000, 5.19392128e+001,
          1.39897203e+001, 1.28406200e+001, 2.94468365e+001,
          7.83611596e-001, 4.81695862e+001, 1.83451309e+001,
          3.31370854e+000, 3.91036892e+000, 2.61203885e-001, 0.,
          5.85786462e-001, 1.24264073e+000, 1.93508358e+001,
          5.82073784e+000, 2.02853680e+001, 1.14719915e+001,
          9.11269855e+000, 3.88162346e+001, 5.31370831e+000,
          4.36138763e+001, 5.38612318e+000, 0., 6.08157456e-001,
          1.39184248e+000, 0., 0., 0., 0., 0., 0., 2.75735927e+000,
          4.97056293e+000, 2.04436512e+001, 1.82842708e+000,
          1.00867386e+001, 2.17711258e+001, 1.15979795e+001,
          3.19769325e+001, 1.56722319e+000, 5.86132355e+001,
          6.38676262e+000, 0., 0., 0., 0., 0., 0., 0., 0., 0.,
          5.85786462e-001, 2.89949489e+000, 1.60621586e+001,
          8.45256042e+000, 0., 3.51471853e+000, 1.15979795e+001,
          4.81670685e+001, 7.72023296e+000, 6.31328049e+001,
          2.33819141e+001, 7.87005758e+000, 2.53354568e+001,
          3.27976704e+000, 2.98916740e+001, 4.10832644e+000, 0., 0., 0.,
          0., 5.85786462e-001, 2.07106781e+000, 2.12163887e+001,
          6.12675714e+000, 1.19013608e+000, 5.98143673e+000,
          7.45584393e+000, 5.50128403e+001, 1.83597450e+001,
          5.84135294e+000, 3.31170158e+001, 1.40832615e+001,
          6.02299728e+001, 3.47283936e+001, 3.04762726e+001,
          1.31095133e+001, 2.89949489e+000, 3.82285309e+001,
          8.42861862e+001, 0., 5.85786462e-001, 2.48528147e+000,
          1.88841171e+001, 1.04481554e+000, 6.24582577e+000,
          3.13693981e+001, 1.28406200e+001, 2.41747570e+001,
          1.36939812e+000, 1.57577152e+001, 3.02717209e+001,
          1.57401152e+001, 6.39434776e+001, 1.32869682e+001,
          1.92519798e+001, 2.28485260e+001, 5.79898977e+000,
          3.03517208e+001, 8.67487869e+001 ]
      - [ 0., 8., 1.46713247e+001, 4.23904419e+000, 2.41421366e+000, 0.,
          0., 0., 0., 9.23074627e+000, 1.60896301e+001, 1.00861578e+001,
          2.15173512e+001, 1.21538496e+001, 9.24264050e+000,
          1.58578646e+000, 0., 0., 0., 0., 3.38200455e+001,
          1.71799545e+001, 0., 0., 0., 0., 0., 0., 0., 0., 0., 0., 0.,
          1.26862917e+001, 5.24264050e+000, 3.58578634e+000, 0., 0., 0.,
          0., 0., 1.58578646e+000, 3., 1., 9.67541790e+000,
          1.94775925e+001, 1.64327774e+001, 6., 0., 0., 1., 4.,
          5.10148087e+001, 5.82380981e+001, 2.27470932e+001, 0., 0., 0.,
          0., 2., 6.29837494e+001, 4.60162506e+001, 1., 0., 0.,
          6.58578634e+000, 10., 4., 1., 0., 0., 0., 0., 4.16807413e+000,
          9., 7., 7., 5., 12., 9.01791477e+000, 0., 3.27590275e+000,
          6.07106781e+000, 3.92893219e+000, 7., 4., 1.42426405e+001,
          2.42040768e+001, 0., 1.56291533e+001, 4., 7., 8.41421318e+000,
          7.58578634e+000, 8., 5.39144325e+000, 0., 1., 5.,
          1.15857868e+001, 8.41421318e+000, 0., 0., 0., 0.,
          2.19046831e-001, 2., 1.41715727e+001, 9.82842731e+000, 2., 1.,
          1.68568592e+001, 0., 0., 0., 0., 0., 0., 0., 5.55127561e-001,
          0., 0., 0., 0., 0., 0., 0., 0., 0., 0., 5., 2., 7., 3., 4., 0.,
          0., 7.75515676e-001, 4.26120377e+000, 1.00710678e+001,
          2.44961548e+001, 6.34314585e+000, 6.24264050e+000,
          1.36818447e+001, 0., 6.17218924e+000, 0., 0., 1.41421354e+000,
          4.58578634e+000, 0., 1.00994291e+001, 0., 0., 0., 0., 0., 0.,
          0., 0., 0., 1., 8.33227158e+000, 1.29923105e+001,
          5.67541742e+000, 0., 0., 0., 0., 8.75735950e+000,
          9.58578682e+000, 1.75319519e+001, 2.53106384e+001,
          8.57162285e+000, 2., 0., 0., 2.02001057e+001, 2.21232872e+001,
          6.55612516e+000, 1.63088093e+001, 3.60827751e+001,
          2.70865974e+001, 8.88789368e+000, 0., 3.96476898e+001,
          2.38878479e+001, 4.51745182e-001, 3.26540923e+000,
          1.32037723e+000, 2.73879623e+000, 2.81288087e-001, 0.,
          3.90616369e+000, 6.18767262e+000, 3.90616369e+000,
          8.41421318e+000, 3.58578634e+000, 2., 0., 0., 7.73879623e+000,
          1.58361855e+001, 7.10362053e+000, 1.77651615e+001,
          1.32716570e+001, 7.28457975e+000, 5.49195004e+000, 0.,
          1.24432716e+001, 1.68483124e+001, 1.13458691e+001,
          2.03150806e+001, 3.14479389e+001, 2.97173119e+001,
          1.67356873e+001, 0., 9.93313599e+000, 3.91200447e+001,
          3.70977859e+001, 3.42130470e+001, 3.56888199e+001,
          1.56721344e+001, 1.35164948e+001, 0., 6.64495993e+000,
          6.22120142e+000, 3.71962547e+000, 5., 4.73879623e+000,
          1.26120389e+000, 0., 0., 3.20794373e+001, 1.38816528e+001,
          9.06163692e-001, 1.41421354e+000, 3.17157292e+000,
          4.41421366e+000, 2.58578634e+000, 0., 2.34125271e+001,
          2.27329922e+000, 1.30517411e+000, 4.95877075e+001,
          1.43117247e+001, 1., 5.85786462e-001, 0., 0., 1.92192078e+000,
          7.50367689e+000, 1.54457216e+001, 6.12868023e+000, 0., 0.,
          4.16388369e+000, 2.29366207e+001, 2.89949489e+000, 0., 0.,
          2.61203885e-001, 2.65550308e+001, 1.86396103e+001,
          1.97698383e+001, 5.77431726e+000, 0., 0., 0., 9.37766171e+000,
          3.06223392e+001, 0., 0., 0., 0., 0., 0., 1.69583702e+001,
          7.04163074e+000, 0., 0., 0., 3.51471853e+000, 1.20121937e+001,
          3.13386421e+001, 3.13444638e+000, 0., 2.92893219e+000,
          2.11248913e+001, 6.24953804e+001, 2.54507942e+001, 0.,
          1.75735927e+000, 1.40832615e+001, 4.47085495e+001,
          2.64508286e+001, 2.61203885e-001, 1.41113787e+001,
          6.62741709e+000, 0., 0., 0., 1.23015156e+001, 1.78111839e+001,
          1.56042728e+001, 5.28302908e+000, 4.98113823e+000,
          1.32909393e+001, 1.44974747e+001, 2.94983425e+001,
          1.77321053e+001, 2.22684498e+001, 1.43467741e+001,
          1.44974747e+001, 1.48873014e+001, 0., 0., 1.09583693e+001,
          7.04163074e+000, 0., 0., 0., 1.19583693e+001, 1.03553391e+001,
          1.66647968e+001, 2.30214958e+001, 0., 0., 0., 1.78692877e-001,
          8.21307123e-001, 0., 0., 0., 0., 0., 0., 4.51471853e+000,
          5.38477612e+000, 4.10050488e+000, 0., 2.61203885e-001,
          1.42829523e+001, 1.53259020e+001, 2.67703075e+001,
          1.43596344e+001, 6.99628544e+000, 4.17528772e+000,
          3.31370854e+000, 1.04511585e+001, 1.50635595e+001, 0., 0., 0.,
          0., 0., 5.22407770e-001, 1.87496700e+001, 3.72792196e+000, 0.,
          0., 1.30601943e+000, 2.95102139e+001, 1.57401152e+001,
          9.24582577e+000, 1.19782519e+000, 3.13009262e+001,
          2.17285118e+001, 1.20121937e+001, 4.90115166e+001,
          2.79468536e+001, 5.48602371e+001, 1.34829073e+001,
          3.31370854e+000, 3.82842708e+000, 5.14718652e-001,
          1.76504838e+000, 1.07496700e+001, 3.72792196e+000,
          4.49615526e+000, 2.61203885e-001, 3.94010353e+000,
          2.01898384e+001, 1.57401152e+001, 2.37791080e+001,
          1.35083485e+000, 6.72599745e+000, 3.28181572e+001,
          2.36101723e+001, 6.72497253e+001, 9.59594822e+000,
          6.94490509e+001, 3.28230247e+001, 1.20121937e+001,
          5.00447960e+001, 3.66709328e+001, 2.44046593e+000,
          1.34884663e+001, 2.89949489e+000, 4.91036892e+000,
          2.61203885e-001, 4.79130077e+000, 5.60249329e+001,
          1.44974747e+001, 7.68629169e+000, 0., 1.24712372e+001,
          2.45582008e+001, 8.28427124e+000, 1.43884621e+001,
          2.72978287e+001, 1.07779617e+001, 2.22203827e+000, 0.,
          1.54102814e+000, 7.45897198e+000, 1.67541742e+000,
          8.83930111e+000, 4.97056293e+000, 6.83930111e+000,
          6.75417423e-001, 1.61203873e+000, 1.56600389e+001,
          1.20121937e+001, 2.22751770e+001, 1.44405527e+001, 0., 0., 0.,
          5.73761511e+000, 4.52623863e+001, 0., 0., 0., 0., 0., 0.,
          1.46862917e+001, 4.55634928e+000, 2.75735927e+000, 0.,
          2.61203885e-001, 1.91113796e+001, 1.65685425e+001,
          2.30140591e+001, 1.04481554e+000, 0., 0., 1.78111839e+001,
          5.79816360e+001, 4.32071800e+001, 0., 0., 8.69848442e+000,
          5.33674469e+001, 4.89340668e+001, 0., 9.27207756e+000,
          5.79898977e+000, 2.92893219e+000, 0., 7.94628811e+000,
          1.30120811e+001, 1.49116879e+001, 1.11299419e+001, 0.,
          4.40858269e+001, 1.76299000e+001, 1.53259020e+001,
          9.95836926e+000, 0., 3.44145126e+001, 1.26149254e+001,
          1.40832615e+001, 1.38873014e+001, 0., 0., 5.85786462e-001,
          7.87005758e+000, 1.25441561e+001, 0., 4.50820045e+001,
          9.67535496e+000, 1.11837664e+001, 1.60588741e+001, 0.,
          2.76458645e+000, 1.23541343e+000, 0., 0., 0., 0., 0., 0., 0.,
          0., 0., 0., 3.72792196e+000, 8.27207756e+000, 0.,
          2.88248158e+001, 1.25183296e+001, 9.11269855e+000,
          3.15332813e+001, 3.01087403e+000, 4.15905037e+001,
          7.58107090e+000, 2.07106781e+000, 4.75735950e+000, 0., 0., 0.,
          0., 0., 0., 0., 1.58578646e+000, 5.38477612e+000,
          1.67682343e+001, 2.61203885e-001, 0., 1.04436512e+001,
          1.44974747e+001, 3.57071419e+001, 8.35173130e+000,
          3.76265259e+001, 1.89886990e+001, 1.15979795e+001,
          5.19512215e+001, 1.58355761e+001, 4.92913055e+001,
          1.44660540e+001, 2.48528147e+000, 5.08194208e+000,
          6.75417423e-001, 2.61203885e-001, 4.66772842e+000,
          6.62741709e+000, 1.29212427e+001, 5.22407770e-001,
          1.35083485e+000, 1.86075344e+001, 1.36690474e+001,
          2.81278744e+001, 7.24470854e+000, 1.03146563e+001,
          3.62294998e+001, 1.82253971e+001, 4.92902451e+001,
          1.29402037e+001, 3.00679531e+001, 2.25472698e+001,
          1.07695522e+001, 5.28100052e+001, 8.18052216e+001,
          1.08963096e+000, 7.25351477e+000, 3.31370854e+000,
          1.21453209e+001, 1.19782519e+000, 2.01851273e+001,
          4.68443108e+001, 7.04163074e+000, 4.51471853e+000,
          4.14213568e-001, 1.94020462e+001, 2.56984596e+001,
          2.89949489e+000, 7.28499317e+000, 5.87150078e+001, 0., 0., 0.,
          3.97229934e+000, 2.60277004e+001 ]
      - [ 0., 0., 0., 0., 0., 0., 0., 0., 6.41573966e-001,
          2.65152359e+000, 2.14402943e+001, 8.30067158e+000,
          2.61939025e+000, 3.46546203e-001, 0., 0., 0., 1.53900175e+001,
          3.75922050e+001, 1.88668423e+001, 2.87111187e+001,
          1.09713078e+001, 4.43277693e+000, 7.89250255e-001, 0.,
          1.36551056e+001, 3.98059502e+001, 3.81089020e+001,
          4.32409630e+001, 2.14531937e+001, 9.69808674e+000,
          4.32458258e+000, 0., 2.73892134e-001, 1.27819061e+001,
          1.94420207e+000, 0., 0., 0., 0., 0., 5.83565998e+000,
          2.85650101e+001, 3.04108562e+001, 1.14192209e+001,
          1.98143685e+000, 1.20829237e+000, 4.84490442e+000, 0.,
          8.84925938e+000, 9.88533211e+000, 1.99669952e+001,
          6.56625061e+001, 3.69170113e+001, 9.11394119e+000, 4., 0.,
          3.75735927e+000, 2.82842708e+000, 5.39504290e+000,
          1.98732986e+001, 6.00463486e+001, 5.55668983e+001,
          2.38182144e+001, 0., 4.05791193e-001, 1.02403011e+001,
          9.26042747e+000, 9.34800953e-002, 0., 0., 0., 0.,
          7.28172302e+000, 1.74880981e+001, 1.51028128e+001,
          1.18219528e+001, 9.30541229e+000, 1.16120386e+001,
          8.29833031e+000, 0., 2.28118248e+001, 1.93075733e+001,
          7.17494440e+000, 3.74392748e+000, 6.25014353e+000,
          1.14549284e+001, 3.24258156e+001, 0., 3.37511139e+001,
          2.66536522e+001, 9.04504204e+000, 1.79055786e+001,
          3.13534107e+001, 2.16731358e+001, 1.50105457e+001, 0.,
          1.10578619e-001, 7.83107853e+000, 1.05834270e+000, 0., 0., 0.,
          0., 0., 1.32500591e+001, 2.73534145e+001, 6.92559052e+000,
          2.84699035e+000, 3.73879623e+000, 6.75417423e-001,
          1.46114349e+000, 0., 1.43599164e+000, 0., 0., 0., 0., 0.,
          1.61031508e+000, 0., 0., 1., 0., 0., 0., 0., 0., 0., 0., 0.,
          0., 0., 0., 0., 0., 0., 0., 0., 0., 0., 0., 0., 0., 0., 0., 0.,
          0., 0., 0., 0., 0., 0., 0., 0., 0., 0., 0., 0., 0., 0., 0., 0.,
          0., 0., 0., 0., 0., 0., 0., 0., 0., 0., 0., 0., 0., 0., 0., 0.,
          0., 0., 0., 0., 0., 0., 0., 0., 0., 0., 0., 0., 0., 0., 0., 0.,
          0., 0., 0., 0., 0., 0., 0., 0., 0., 0., 0., 0., 0., 0., 0., 0.,
          0., 0., 0., 0., 0., 0., 0., 0., 0., 0., 0., 0., 0., 0., 0., 0.,
          0., 0., 0., 0., 0., 0., 0., 0., 0., 0., 0., 0., 0., 0., 0., 0.,
          0., 0., 0., 0., 0., 0., 0., 0., 0., 0., 0., 0., 0., 0., 0., 0.,
          0., 0., 3.10720978e+001, 3.92790246e+000, 0., 7.38796115e-001,
          2.61203885e-001, 5.64836617e+001, 2.13742027e+001,
          7.04163074e+000, 2.27048550e+001, 2.39565039e+000,
          4.88834267e+001, 4.93470192e+001, 2.02964649e+001,
          3.66327667e+001, 4.84032154e+000, 1.35630274e+001,
          1.43697309e+000, 0., 0., 0., 2.77230358e+001, 3.88921890e+001,
          7.87005758e+000, 9.54129505e+000, 1.97342360e+000,
          5.66772842e+000, 4.16337852e+001, 2.36101723e+001,
          5.43463326e+001, 8.74198151e+000, 1.71254385e+000,
          9.80217457e+000, 3.72792196e+000, 3.84146233e+001,
          1.15342735e+002, 1.86981812e+001, 1.30181897e+000, 0., 0., 0.,
          9.92347908e+000, 2.86917458e+001, 9.52691174e+000,
          2.34250050e+001, 4.43285942e+000, 1.20810385e+001,
          4.26346893e+001, 1.57401152e+001, 3.12327042e+001,
          3.13114510e+001, 4.85621758e+001, 3.41241150e+001,
          6.62741709e+000, 3.02135429e+001, 5.04727478e+001,
          8.17464447e+000, 8.25355053e-001, 0., 0., 0., 4.08475380e+001,
          8.49560928e+000, 3.72792196e+000, 7.72690153e+000,
          1.20203054e+000, 4.07997894e+000, 2.50580740e+000,
          1.65685427e+000, 3.33945990e+000, 4.41789913e+000,
          6.38697922e-001, 3.61302108e-001, 0., 0., 0., 0., 0., 0., 0.,
          0., 0., 0., 0., 0., 0., 0., 0., 0., 0., 0., 0., 0., 0., 0., 0.,
          0., 0., 0., 0., 0., 0., 0., 0., 0., 0., 0., 0., 0., 0., 0., 0.,
          0., 0., 0., 0., 0., 0., 0., 0., 0., 0., 0., 0., 0., 0., 0., 0.,
          0., 0., 0., 0., 0., 0., 0., 0., 0., 0., 0., 0., 0., 0., 0., 0.,
          0., 0., 0., 0., 0., 0., 0., 0., 0., 0., 0., 0., 0., 0., 0., 0.,
          0., 3.73890901e+000, 2.43266392e+000, 1.24264073e+000,
          3.55885029e+000, 1.50269365e+001, 2.55125084e+001,
          7.65906525e+000, 5.38477612e+000, 3.52744827e+001,
          3.31691704e+001, 1.78839436e+001, 1.46307745e+001,
          7.04163074e+000, 6.88248825e+001, 4.56187706e+001,
          1.41821671e+000, 5.81783295e-001, 0., 1.79512322e+000,
          5.20487690e+000, 1.13092499e+001, 1.22765360e+001,
          5.38477612e+000, 3.99136200e+001, 1.41158171e+001,
          1.87324262e+000, 1.44699030e+001, 6.21320343e+000,
          8.40258484e+001, 4.04178047e+001, 2.84366341e+001,
          1.86638718e+001, 6.21320343e+000, 4.04549637e+001,
          7.32313309e+001, 1.16309142e+000, 1.42269504e+000,
          4.14213568e-001, 1.55985630e+000, 1.24401436e+001,
          5.51190042e+000, 2.57601776e+001, 1.15979795e+001,
          3.07639294e+001, 4.36601257e+000, 5.44350586e+001,
          5.35233116e+001, 1.49116879e+001, 1.73796501e+001,
          1.75029182e+000, 7.12799606e+001, 2.42347603e+001,
          7.45584393e+000, 2.94478207e+001, 3.75816154e+001,
          6.79622769e-001, 3.20377231e-001, 0., 9.59262013e-001,
          3.04073811e+000, 2.64957352e+001, 7.09005117e+000,
          1.24264073e+000, 1.16697178e+001, 7.50185442e+000,
          2.78668556e+001, 2.13314462e+000, 0., 0., 0., 6.38697922e-001,
          3.61302108e-001, 0., 0., 0., 0., 0., 0., 0., 0., 0., 0., 0.,
          0., 0., 0., 0., 0., 0., 0., 0., 0., 0., 0., 0., 0., 0., 0., 0.,
          0., 0., 0., 0., 0., 0., 0., 0., 0., 0., 0., 0., 0., 0., 0., 0.,
          0., 0., 0., 0., 0., 0., 0., 0., 0., 0., 0., 0., 0., 0., 0., 0.,
          0., 0., 0., 0., 0., 0., 0., 0., 0., 0., 0., 0., 0., 0., 0., 0.,
          0., 0., 0., 0., 0., 0., 0., 0. ]
      - [ 0., 4., 2., 0., 3., 5., 10., 2., 1.44187438e+000,
          3.21317339e+000, 9.56634521e+000, 7.67047119e+000,
          1.98686523e+001, 1.89837818e+001, 2.50826797e+001,
          4.17302227e+000, 0., 8.13377380e+000, 6.40544891e+000,
          2.98256454e+001, 4.74742012e+001, 3.02715549e+001,
          2.06451569e+001, 6.77362156e+000, 0., 2.83672428e+001,
          1.97690411e+001, 6.92296886e+000, 7.80796356e+001,
          6.57410049e+001, 4.76397610e+000, 2.53400111e+000, 0., 1., 1.,
          1., 6.35901022e+000, 6.06099081e+000, 5.99821568e+000,
          2.98798203e+000, 0., 1.15069771e+001, 1.35098572e+001,
          8.28238869e+000, 1.31552067e+001, 6.49195004e+000,
          1.25451765e+001, 1.04590292e+001, 0., 1., 11., 1.91673679e+001,
          4.00752716e+001, 2.76677284e+001, 2.65934753e+001,
          6.23495150e+000, 0., 5.17157269e+000, 1.04142132e+001, 9.,
          6.15052719e+001, 6.24236603e+001, 2.50710678e+001, 4., 0., 2.,
          1., 0., 1.16851377e+000, 2.15914989e+000, 9.72845745e+000,
          9.05756855e+000, 0., 1.44047632e+001, 1.89569511e+001,
          1.51403046e+001, 1.97729988e+001, 4.45177269e+000,
          2.09383631e+000, 6.73459101e+000, 0., 2.09639282e+001,
          1.03814869e+001, 1.01715727e+001, 8.67541790e+000,
          7.32458258e+000, 2.47383003e+001, 2.00740261e+001, 0.,
          1.64124222e+001, 5.82842731e+000, 0., 2., 1.07387962e+001,
          2.46687489e+001, 6.86595459e+001, 0., 1., 0., 0., 0., 1.,
          1.05952196e+001, 3.40478039e+000, 0., 7.32458258e+000,
          2.41421366e+000, 3., 9.37619686e+000, 8.01456165e+000,
          2.61288853e+001, 1.95580921e+001, 0., 1.81236973e+001,
          1.01385393e+001, 3.91036892e+000, 5., 1.22048116e+000,
          1.99082718e+001, 4.52864838e+001, 0., 1.23421135e+001,
          7.14949036e+000, 5.85786462e-001, 0., 0., 6.75429773e+000,
          3.19468765e+001, 0., 0., 1., 1., 4., 1., 8.41421318e+000,
          3.75735927e+000, 0., 1.47759228e+001, 1.02426405e+001,
          2.58578634e+000, 1.41421354e+000, 3.17157292e+000,
          1.19180584e+001, 1.20819416e+001, 0., 3.84514503e+001,
          2.88039513e+001, 5.60403681e+000, 2., 3.34314585e+000,
          1.27464857e+001, 2.25919704e+001, 0., 2.68627949e+001,
          1.91906548e+001, 0., 0., 0., 1.07042587e+000, 9.30601311e+000,
          0., 1., 5., 1., 5., 1., 2., 1., 0., 1.10305099e+001,
          3.14708252e+001, 1.34275980e+001, 5., 4., 4., 5., 0.,
          1.69640121e+001, 4.63020630e+001, 1.84154701e+001,
          3.35756135e+000, 0., 2., 4.14213568e-001, 0., 1., 2., 0., 0.,
          0., 0., 0., 0., 3.17157292e+000, 7.82842731e+000,
          2.17157292e+000, 4.41421366e+000, 2., 5., 2., 0.,
          1.02834911e+001, 2.27324295e+001, 1.14952049e+001,
          6.44358730e+000, 4.55521631e+000, 1.77969227e+001,
          1.53602924e+001, 0., 2.09719315e+001, 3.80968170e+001,
          1.92096424e+000, 4.56649160e+000, 4.94249487e+000,
          9.94100380e+000, 5.37541533e+000, 0., 1.87326412e+001,
          1.76555347e+001, 1.68335056e+001, 2.57259083e+001,
          3.92441463e+000, 5.40302229e+000, 9.55540180e+000, 0.,
          2.58578634e+000, 2.41421366e+000, 2., 6., 2., 2., 2., 0.,
          3.32037735e+000, 1.47237501e+001, 1.90563202e+001,
          2.99161453e+001, 8.04258156e+000, 9.94082642e+000, 1., 0.,
          8.16459846e+000, 3.56124916e+001, 3.35067482e+001,
          2.35884991e+001, 2.38625450e+001, 1.00935450e+001,
          1.17157292e+000, 0., 5.92418623e+000, 1.11495333e+001,
          1.99365273e+001, 1.93310566e+001, 3.62895751e+000,
          3.06490690e-001, 0., 0., 3.51471853e+000, 8.69848442e+000,
          1.07867966e+001, 0., 3.87442946e+000, 1.17407942e+001,
          1.53259020e+001, 3.80049934e+001, 7.05388165e+000,
          1.41963959e+001, 3.44482651e+001, 2.07106781e+001,
          3.62449150e+001, 2.53997459e+001, 3.61187439e+001,
          3.00822639e+001, 9.52691174e+000, 5.14459000e+001,
          7.38261795e+001, 0., 1.75735927e+000, 3.31370854e+000,
          6.68507385e+000, 9.24385834e+000, 8.91453552e+000,
          2.14580479e+001, 1.24264069e+001, 2.23354568e+001,
          3.86555362e+000, 7.83611596e-001, 2.36894760e+001,
          2.65096684e+001, 4.30140572e+001, 3.00318503e+000, 0.,
          1.54730883e+001, 4.39066391e+001, 7.18366623e+001,
          7.83611596e-001, 0., 1.75735927e+000, 2.89949489e+000,
          1.23106623e+001, 1.10324831e+001, 1.30284986e+001,
          3.70303764e+001, 1.49116879e+001, 1.11005049e+001,
          9.28932190e-001, 1.87324262e+000, 3.24577103e+001,
          2.73380947e+001, 3.72409134e+001, 5.09003782e+000,
          6.75417423e-001, 1.80403118e+001, 4.26639977e+001,
          8.41209717e+001, 8.49930000e+000, 0., 5.85786462e-001,
          4.97056293e+000, 7.62989902e+000, 2.81375194e+000, 0.,
          1.04436512e+001, 1.36690474e+001, 3.97640724e+001,
          9.12322998e+000, 1.19975653e+001, 2.46176586e+001,
          1.69827557e+001, 4.55492325e+001, 2.38527870e+001,
          1.35065289e+001, 1.28366175e+001, 4.55634928e+000,
          2.36017284e+001, 4.24987755e+001, 0., 1.17157292e+000,
          4.55634928e+000, 1.02720776e+001, 0., 0., 2.10588741e+001,
          1.69827557e+001, 2.19135532e+001, 1.04481554e+000,
          3.30534744e+001, 4.07627602e+001, 2.19533195e+001,
          3.89878082e+001, 2.24264073e+000, 4.52042503e+001,
          1.19673233e+001, 1.24264073e+000, 7.81299162e+000,
          1.37727947e+001, 0., 4.10050488e+000, 4.55634928e+000,
          2.34314585e+000, 0., 1.85461121e+001, 3.15838299e+001,
          1.36690474e+001, 8.20100975e+000, 0., 6.28089333e+001,
          2.35342102e+001, 2.89949489e+000, 1.75735927e+000, 0.,
          2.03647637e+000, 9.63523686e-001, 0., 0., 0., 0.,
          9.85786438e+000, 7.45584393e+000, 5.68629169e+000, 0.,
          2.50770969e+001, 2.01949806e+001, 8.28427124e+000,
          3.00076885e+001, 5.43596172e+000, 5.08399467e+001,
          1.89174118e+001, 2.89949489e+000, 1.20114241e+001,
          1.23317213e+001, 5.02179756e+001, 1.72967415e+001,
          2.89949489e+000, 7.88325119e+000, 2.07025356e+001, 0.,
          4.92893219e+000, 4.55634928e+000, 3.51471853e+000, 0.,
          1.10447931e+001, 2.74993629e+001, 1.28406200e+001,
          1.42535143e+001, 2.36170888e+000, 5.52933960e+001,
          2.55644684e+001, 6.62741709e+000, 1.55279922e+001,
          2.69867268e+001, 3.57759056e+001, 1.18098803e+001,
          4.14213568e-001, 1.72051060e+000, 5.27948952e+000, 0.,
          3.51471853e+000, 5.79898977e+000, 4.68629169e+000, 0.,
          2.82308936e+000, 7.10584259e+000, 1.32548342e+001,
          3.45682068e+001, 6.24802542e+000, 4.29629040e+000,
          1.55615740e+001, 1.73969688e+001, 6.95820770e+001,
          4.01630859e+001, 3.51860390e+001, 1.77428951e+001,
          5.38477612e+000, 4.20337830e+001, 1.10652512e+002,
          3.93806791e+000, 2.81929135e+000, 5.38477612e+000,
          8.52656364e+000, 3.33130026e+000, 7.33838177e+000,
          2.32768421e+001, 1.36690474e+001, 2.04230366e+001,
          3.29269290e+000, 5.22407770e-001, 1.23354568e+001,
          3.02375908e+001, 6.21023712e+001, 2.80217481e+000, 0.,
          9.78679657e+000, 3.60365791e+001, 9.79869995e+001,
          8.18962669e+000, 5.71872902e+000, 1.11391354e+001,
          4.97056293e+000, 1.99079072e+000, 3.18078208e+000,
          9.76541233e+000, 2.46782379e+001, 1.36690474e+001,
          2.60238113e+001, 8.86348915e+000, 8.36621284e+000,
          5.83789520e+001, 2.40243874e+001, 1.69692440e+001,
          2.61203885e-001, 1.80880222e+001, 1.19703827e+002,
          4.10071411e+001, 9.20100975e+000, 0., 0., 8.20100975e+000,
          6.21320343e+000, 5.85786462e-001, 0., 2.13444638e+000,
          3.53386421e+001, 1.57401152e+001, 1.63702316e+001,
          2.41656494e+000, 4.03036041e+001, 7.03704910e+001,
          1.90538235e+001, 8.27207756e+000, 0., 7.80749054e+001,
          3.00255985e+001, 3.31370854e+000, 5.85786462e-001, 0., 0.,
          7.85786438e+000, 6.62741709e+000, 3.51471853e+000, 0.,
          2.23495150e+000, 4.26107178e+001, 1.86396103e+001,
          5.51471853e+000, 0., 3.22375603e+001, 7.29218216e+001,
          1.61543293e+001, 1.09877949e+001, 4.69849682e+000,
          7.17528305e+001, 1.62471714e+001, 0., 0., 0., 0.,
          1.75735927e+000, 4.14213562e+000, 4.10050488e+000, 0.,
          3.92042947e+000, 2.72805805e+001, 1.44974747e+001,
          1.99047203e+001, 3.39679432e+000, 2.22208500e+001,
          1.11222963e+001, 4.55634928e+000, 1.50306921e+001,
          1.80698128e+001, 2.03647637e+000, 9.63523686e-001, 0., 0., 0.,
          0., 5.68629169e+000, 6.62741709e+000, 5.68629169e+000, 0.,
          1.15839138e+001, 2.85460281e+001, 1.36690474e+001,
          1.93685703e+001, 5.83243942e+000, 4.33089027e+001,
          1.64484577e+001, 4.55634928e+000, 1.02382984e+001,
          6.44799328e+000, 4.31328011e+001, 1.20387735e+001,
          1.65685427e+000, 8.45312119e+000, 4.07184525e+001, 0.,
          3.51471853e+000, 6.62741709e+000, 5.85786438e+000, 0., 0.,
          4.68629169e+000, 1.11837664e+001, 3.96719208e+001,
          1.64580212e+001, 7.71118927e+000, 8.80352974e+000,
          6.62741709e+000, 3.59731865e+001, 6.18846779e+001,
          9.72522926e+000, 4.27477074e+000, 0., 7.41265249e+000,
          3.75873489e+001 ]
      - [ 0., 0., 3.41421366e+000, 7.57913160e+000, 9.08094978e+000,
          5.01954126e+000, 9.06163692e-001, 2.41421366e+000, 0., 0.,
          5.22407770e-001, 2.00100880e+001, 3.98827324e+001,
          5.84773004e-001, 0., 0., 0., 0., 0., 0., 2., 0., 0., 0., 0.,
          0., 0., 0., 0., 0., 0., 0., 0., 0., 8.02625275e+000,
          8.29833031e+000, 9.36621308e-001, 3.32458258e+000,
          4.41421366e+000, 1., 0., 2.48528147e+000, 1.32124081e+001,
          1.60961380e+001, 3.08240299e+001, 1.21209393e+001,
          8.26120377e+000, 4., 0., 2.73879623e+000, 1., 6.62493753e+000,
          5.62508545e+001, 4.25670395e+001, 1.39713850e+001,
          5.49615526e+000, 0., 0., 0., 1.98126006e+000, 7.05904007e+001,
          2.89955597e+001, 1.35409708e+001, 9.47759247e+000, 0., 3., 5.,
          2., 4.67541742e+000, 9.06337833e+000, 1.26120389e+000, 0., 0.,
          1.25147190e+001, 1.12426405e+001, 8.17157269e+000,
          1.18284273e+001, 1.23431454e+001, 5.82842731e+000, 2., 0., 1.,
          6.41421366e+000, 2.75735927e+000, 1.08284273e+001,
          1.17573595e+001, 2.91423664e+001, 4.40011368e+001, 0.,
          2.17922497e+000, 2., 0., 0., 3.31687880e+000, 1.68564510e+001,
          2.57577400e+001, 0., 5.15300989e+000, 10., 3., 1.26120389e+000,
          3.15300965e+000, 3.58578634e+000, 1., 0., 1.37044239e+001,
          4.08963108e+000, 5.17157269e+000, 7.41421366e+000,
          1.58578646e+000, 9., 1.15495796e+001, 0., 2.94810057e+000, 0.,
          0., 0., 0., 1.23899341e-001, 1.35138340e+001, 0., 0., 0., 0.,
          0., 0., 0., 0., 0., 1.61676967e+000, 5.79744387e+000,
          4.35820913e+000, 5.01107740e+000, 5.48190928e+000,
          7.73459101e+000, 0., 0., 2.48284531e+001, 8.91471291e+000, 0.,
          3., 3.58578634e+000, 1.64142132e+001, 4.30620384e+000, 0.,
          3.46546203e-001, 0., 0., 0., 0., 0., 0., 0., 0., 0., 0., 0.,
          0., 0., 0., 1.59928530e-001, 1.57768834e+000, 2.82239556e+000,
          4.39987421e-001, 2.24870586e+000, 1.12062130e+001,
          1.10661221e+001, 4.78960097e-001, 0., 2.38349304e+001,
          2.78270645e+001, 1.75221753e+000, 6., 1.17157292e+000,
          1.41421354e+000, 1.17157292e+000, 0., 1.54922903e-001, 0., 0.,
          0., 0., 1., 2.60209370e+000, 0., 3.18726969e+000, 0., 0., 0.,
          0., 0., 1.57601857e+000, 0., 4.13153553e+000, 3.55245256e+000,
          1., 4.11424994e-001, 7.14482164e+000, 7.99282026e+000,
          3.60391712e+000, 6.43622112e+000, 8.18692589e+000,
          2.10526013e+000, 9.79450226e+000, 2.44448872e+001,
          3.17791729e+001, 8.17218018e+000, 2.08084941e+000, 0.,
          7.00593901e+000, 2.41421366e+000, 3.54682040e+000,
          3.81986656e+001, 3.25451350e+000, 3.53858638e+000,
          1.30551767e+001, 0., 8.49726200e+000, 8.81592655e+000,
          1.18898497e+001, 3.59719276e+001, 4.53698063e+000,
          4.93662119e+000, 6.10471630e+000, 0., 1.32037723e+000,
          4.62044954e+000, 8.17950535e+000, 8.87966824e+000,
          1.32037723e+000, 2.67962265e+000, 0., 0., 0., 0.,
          3.26166123e-001, 3.46800690e+001, 6.31414366e+000,
          6.79622769e-001, 0., 0., 0., 0., 0., 0., 0., 0., 0., 0., 0.,
          0., 0., 0., 0., 0., 0., 1.86555350e+000, 9.89180565e+000,
          4.55634928e+000, 9.13444614e+000, 1.55184495e+000,
          1.98377266e+001, 1.25054188e+001, 2.89949489e+000,
          4.97374773e+000, 7.83611596e-001, 0., 0., 0., 0., 0., 0., 0.,
          0., 0., 0., 1.04481554e+000, 1.34699030e+001, 4.97056293e+000,
          6.25351477e+000, 2.61203885e-001, 5.34314585e+000,
          2.60294380e+001, 1.40832615e+001, 2.24993401e+001,
          1.04481554e+000, 7.53630066e+000, 1.03926315e+001,
          1.28406200e+001, 5.60358696e+001, 1.91945763e+001,
          2.27421832e+000, 3.65471387e+000, 2.31959591e+001,
          5.33320122e+001, 6.54309607e+000, 0., 5.85786438e+000,
          7.87005758e+000, 7.01087427e+000, 2.61203885e-001,
          5.22407770e-001, 2.32938251e+001, 1.82253971e+001,
          1.39583693e+001, 0., 0., 7.27207804e+000, 1.65685425e+001,
          4.89501228e+001, 4.02092590e+001, 2.30837083e+000,
          6.20634794e+000, 4.55634928e+000, 2.32245636e+001,
          3.27043686e+001, 0., 1.19583693e+001, 9.52691174e+000,
          5.25351477e+000, 2.61203885e-001, 6.44788265e+000,
          1.90252056e+001, 1.98822517e+001, 1.62304478e+001,
          4.14213568e-001, 2.77085423e+000, 6.57229137e+000,
          3.72792196e+000, 8.88170719e+000, 1.60472260e+001, 0., 0., 0.,
          0., 0., 7.20474672e+000, 3.96682596e+000, 3.31370854e+000,
          8.80851841e+000, 4.70620060e+000, 3.52173691e+001,
          1.11257772e+001, 5.79898977e+000, 2.13092041e+001,
          2.54866004e+000, 5.85786462e-001, 4.14213568e-001, 0., 0., 0.,
          0., 0., 0., 0., 0., 4.43350077e+000, 5.66499293e-001, 0.,
          1.09132166e+001, 1.30867834e+001, 4.20993996e+001,
          1.10721731e+001, 2.48528147e+000, 3.34314585e+000, 0.,
          6.38697922e-001, 3.61302108e-001, 0., 2.17785454e+000,
          3.82214546e+000, 5.54550219e+000, 2.45449781e+000,
          4.14213568e-001, 1.38176620e+000, 2.20402026e+000,
          4.30017567e+000, 5.87139702e+000, 1.24264073e+000,
          1.02970371e+001, 9.28874969e+000, 2.22265625e+001,
          8.53079700e+000, 9.11269855e+000, 3.99398079e+001,
          6.19013596e+000, 1.07199411e+001, 2.14100018e+001,
          1.36690474e+001, 1.66453457e+001, 1.45556650e+001,
          2.78183193e+001, 2.29684772e+001, 8.69848442e+000,
          1.27414436e+001, 8.77327442e+000, 2.72023296e+000,
          1.47944860e+001, 2.48528147e+000, 3.32458258e+000,
          6.75417423e-001, 7.75922477e-001, 4.98143673e+000,
          2.89949489e+000, 1.09386082e+001, 9.40453815e+000, 0., 0., 0.,
          0., 0., 0., 0., 0., 0., 0., 5.22407770e-001, 2.64916515e+000,
          2.48528147e+000, 1.34895363e+001, 8.85361004e+000, 0.,
          5.85786462e-001, 8.28427136e-001, 1.42710400e+001,
          4.63147469e+001, 0., 0., 0., 2.59150803e-001, 1.74084926e+000,
          0., 0., 0., 0., 0., 0., 1.58578646e+000, 3.31370854e+000,
          1.13168936e+001, 7.83611596e-001, 0., 7.27207804e+000,
          1.20121937e+001, 4.21009140e+001, 1.66148167e+001,
          1.04481554e+000, 1.10556898e+001, 9.11269855e+000,
          5.39153633e+001, 5.28714333e+001, 0., 9.85786438e+000,
          1.24264069e+001, 4.97597160e+001, 4.49560127e+001, 0.,
          1.75735927e+000, 6.62741709e+000, 1.03540201e+001,
          2.61203885e-001, 2.61203885e-001, 2.16260986e+001,
          2.15391045e+001, 2.15735931e+001, 0., 4.67933731e+001,
          2.96086464e+001, 2.07106781e+001, 1.86260986e+001,
          2.61203885e-001, 4.44623985e+001, 1.60523205e+001,
          4.97056293e+000, 5.51471853e+000, 0., 5.22407770e-001,
          5.40652466e+000, 4.55634928e+000, 5.25351477e+000,
          2.61203885e-001, 1.49043188e+001, 3.02256241e+001,
          1.32548342e+001, 9.61522388e+000, 0., 4.57342834e+001,
          9.60886192e+000, 1.65685427e+000, 0., 0., 0., 0., 0., 0., 0.,
          1.95109165e+000, 3.63469481e+000, 2.89949489e+000,
          7.66593170e+000, 6.84878683e+000, 4.50488091e+001,
          1.30516958e+001, 5.38477612e+000, 4.51471853e+000, 0.,
          2.22274494e+000, 7.77255058e-001, 0., 0., 0., 0., 0., 0., 0.,
          0., 3.33272362e+000, 6.67276382e-001, 2.07106781e+000,
          1.25050783e+001, 8.42385387e+000, 3.20743065e+001,
          1.12688398e+001, 3.72792196e+000, 8.14532089e+000,
          7.83611596e-001, 9.16430569e+000, 1.83569443e+000, 0., 0., 0.,
          1.65562553e+001, 3.44374418e+000, 0., 0., 0., 6.09900904e+000,
          7.82992315e+000, 3.31370854e+000, 7.34765005e+000,
          3.40970945e+000, 1.34128580e+001, 4.17292833e+000,
          6.62741709e+000, 4.11785088e+001, 2.36082878e+001,
          3.05996361e+001, 1.83292961e+001, 2.89949489e+000,
          6.41644621e+000, 3.77551270e+001, 2.72091370e+001,
          7.96243572e+000, 2.89949489e+000, 1.60023384e+001,
          4.09265938e+001, 0., 1.17157292e+000, 2.89949489e+000,
          1.20440512e+001, 6.88488054e+000, 0., 0., 4.14213568e-001,
          5.63186550e+000, 3.59539223e+001, 0., 0., 0., 0., 0., 0., 0.,
          0., 0., 0. ]
      - [ 1.21815908e+000, 1.53578568e+000, 7.77331829e+000,
          7.15096235e+000, 7.32177448e+000, 2.58578634e+000,
          2.24264073e+000, 1.17157292e+000, 0., 2.74392748e+000,
          5.30539942e+000, 1.49113913e+001, 1.02233715e+001,
          1.91555653e+001, 2.12410851e+001, 1.16121588e+001, 0., 0.,
          2.09415865e+000, 3.04202480e+001, 4.10433693e+001,
          1.01768160e+001, 6.26540899e+000, 1., 0., 0., 0.,
          5.71166229e+000, 2.86323452e+001, 6.55991554e-001, 0., 0., 0.,
          0., 0., 2.73879623e+000, 1.26120389e+000, 4.36231661e+000,
          1.17346687e+001, 8.90301514e+000, 1.89295912e+000,
          4.87765360e+000, 2.05200443e+001, 2.42289581e+001,
          1.73820152e+001, 2.35213947e+000, 5.62847900e+000,
          2.11774945e+000, 0., 3., 6., 2.14919510e+001, 6.68791885e+001,
          3.06288605e+001, 4., 0., 0., 6.17157269e+000, 9.65685463e+000,
          2.88971081e+001, 8.35752258e+001, 4.76915474e+001,
          1.35934753e+001, 1., 0., 0., 7.13151336e-001, 4.28684855e+000,
          7.87036610e+000, 6.07046032e+000, 1.16713247e+001,
          1.38784873e+000, 0., 2.17940044e+001, 7.43651485e+000,
          4.58578634e+000, 1.04142132e+001, 6.75735950e+000,
          5.82842731e+000, 3.57675028e+000, 0., 2.93612213e+001,
          1.76250668e+001, 5., 9., 0., 1., 1.06177235e+001, 0.,
          3.68183851e+000, 8., 5., 14., 5., 1.34142132e+001,
          2.00163708e+001, 0., 0., 4., 0., 0., 1.17157292e+000,
          9.82842731e+000, 3., 0., 8.92162800e+000, 2., 0., 2., 0.,
          6.65482235e+000, 2.19755459e+001, 0., 0., 0., 0., 0., 0., 0.,
          0., 0., 0., 0., 0., 0., 0., 0., 0., 0., 9.23737240e+000,
          1.31911888e+001, 5.71439266e-001, 0., 5.85786462e-001,
          2.09383631e+000, 3.90616369e+000, 4.68046188e-001,
          1.67775478e+001, 3.75440550e+000, 0., 0., 0., 0., 0., 0., 0.,
          0., 0., 0., 0., 0., 0., 0., 0., 0., 0., 0., 0., 0., 0., 0.,
          3.45318794e+000, 1.40950079e+001, 4.51804519e-001,
          4.14213568e-001, 1., 5.85786462e-001, 0., 0., 1.39627159e-001,
          0., 0., 0., 0., 0., 1.65977323e+000, 0., 4.37733269e+000,
          1.29788303e+000, 0., 0., 0., 0., 2.84290767e+000, 0., 0., 0.,
          0., 0., 0., 0., 0., 0., 4.83853197e+000, 4.95779371e+000,
          1.98426604e+000, 0., 0., 1., 4.56309938e+000, 0.,
          3.35475135e+000, 1.65232773e+001, 1.53419752e+001,
          1.70259514e+001, 3.53407049e+000, 4.45952463e+000,
          1.10868912e+001, 0., 1.79926815e+001, 1.02191811e+001,
          1.04900084e+001, 1.57159920e+001, 3.39611202e-001, 0.,
          1.67224121e+000, 0., 9.76523042e-001, 6.54786921e+000,
          1.47560751e+000, 0., 0., 0., 0., 0., 3.73879623e+000,
          2.41421366e+000, 1.80626762e+000, 4.88974237e+000,
          4.03437948e+000, 5.20194340e+000, 1.30676663e+000, 0.,
          6.07712269e+000, 9.83855915e+000, 1.42272615e+000,
          3.20373878e+001, 1.19626131e+001, 2.33109236e+000,
          6.42850018e+000, 3.59881449e+000, 6.94697809e+000,
          2.45420718e+000, 1.93783009e+000, 2.15236740e+001,
          2.25384960e+001, 0., 0., 0., 0., 0., 3.37665272e+000,
          6.76107788e+000, 8.62269223e-001, 0., 0., 9.31481838e+000,
          7.19989967e+000, 4.14213562e+000, 5.34314585e+000, 0.,
          1.91909103e+001, 8.15223503e+000, 9.52691174e+000,
          3.93400726e+001, 1.17898712e+001, 3.10194435e+001,
          1.50810623e+001, 7.87005758e+000, 1.71561947e+001,
          1.87324262e+000, 1.09675102e+001, 4.61827612e+000,
          4.14213568e-001, 4.07106781e+000, 9.28932190e-001,
          2.61203885e-001, 2.73879623e+000, 1.65685427e+000,
          1.43691216e+001, 8.97402382e+000, 1.91894798e+001,
          3.00115299e+001, 5.79898977e+000, 2.62745905e+000,
          8.37254143e+000, 0., 2.20883121e+001, 3.06518040e+001,
          3.02598839e+001, 0., 5.85398579e+000, 3.83348312e+001,
          4.01787148e+001, 5.48674202e+001, 2.76504850e+000,
          1.45902908e+000, 4.12675714e+000, 2.48528147e+000,
          1.39257469e+001, 5.00318480e+000, 1.24809465e+001,
          1.76489964e+001, 1.24264069e+001, 1.22169971e+001,
          4.22665358e+000, 2.48694992e+001, 2.51183071e+001,
          1.61543293e+001, 7.97158480e+000, 5.88627958e+000,
          3.42617726e+000, 1.42895517e+001, 2.36101723e+001,
          3.21064873e+001, 1.45676098e+001, 0., 2.34314585e+000,
          5.79898977e+000, 9.85786438e+000, 0., 6.86962318e+000,
          5.64509535e+000, 3.31370854e+000, 9.00092602e+000,
          2.91706467e+001, 0., 0., 0., 0., 0., 0., 0., 0., 0., 0.,
          1.55744877e+001, 6.18287134e+000, 3.31370854e+000,
          4.51471853e+000, 4.14213568e-001, 1.73348675e+001,
          3.66513300e+000, 0., 0., 0., 0., 0., 0., 0., 0., 0., 0., 0.,
          0., 0., 1.55293159e+001, 2.05647016e+000, 8.28427136e-001,
          1.32458258e+000, 2.61203885e-001, 6.38697922e-001,
          3.61302108e-001, 4.14213568e-001, 1.76647758e+000,
          3.81930876e+000, 5.96443367e+000, 1.03556645e+000,
          4.14213568e-001, 2.06382990e+000, 5.52195644e+000, 0., 0., 0.,
          0., 0., 8.22195816e+000, 6.94961500e+000, 2.89949489e+000,
          9.09240913e+000, 2.83652306e+000, 3.71841431e+001,
          8.98743057e+000, 3.72792196e+000, 2.41350861e+001,
          1.39654198e+001, 4.60179024e+001, 7.56788492e+000,
          1.24264073e+000, 2.72535777e+000, 3.44621515e+000,
          7.76283693e+000, 1.23716331e+000, 0., 0., 0., 2.61203885e-001,
          7.25351477e+000, 3.31370854e+000, 4.90147877e+000,
          9.27009392e+000, 1.15699110e+001, 7.53059387e+000,
          8.28427124e+000, 1.74116211e+001, 1.82036018e+001,
          8.65688992e+000, 5.10046911e+000, 1.24264073e+000,
          8.53924274e+000, 3.04607582e+001, 4.19045496e+000,
          8.09544981e-001, 0., 3.20318967e-001, 1.67968106e+000,
          2.66987467e+000, 1.50169826e+000, 4.97056293e+000,
          1.14088364e+001, 5.44902849e+000, 8.14789963e+000,
          1.17099648e+001, 8.28427124e+000, 2.58656559e+001,
          2.49922085e+001, 0., 2.17157292e+000, 9.94112587e+000,
          2.66131420e+001, 4.72741585e+001, 0., 0., 0., 4.71919775e+000,
          3.02808018e+001, 2.17926192e+000, 1.10928164e+001,
          5.79898977e+000, 7.40652466e+000, 5.22407770e-001,
          5.84495020e+000, 5.32662249e+000, 1.03553391e+001,
          3.53728676e+001, 1.31002216e+001, 0., 2.34314585e+000,
          2.31959591e+001, 8.46926651e+001, 1.27682333e+001, 0.,
          8.02943707e+000, 2.81665230e+001, 1.12853966e+002,
          2.89500751e+001, 0., 2.34314585e+000, 3.31370854e+000,
          1.60262527e+001, 3.31689334e+000, 2.41225891e+001,
          1.87647133e+001, 1.61543293e+001, 1.56971655e+001,
          2.61203885e-001, 4.21124153e+001, 2.67748871e+001,
          1.49116879e+001, 8.20100975e+000, 0., 4.64001160e+001,
          3.63866806e+001, 1.53259020e+001, 1.48873014e+001, 0., 0.,
          4.68629169e+000, 4.14213562e+000, 1.17157292e+000, 0.,
          4.46284485e+001, 8.71469784e+000, 2.48528147e+000,
          1.17157292e+000, 0., 0., 0., 0., 0., 0., 0., 0., 0., 0., 0.,
          1.16030397e+001, 8.66903877e+000, 4.55634928e+000,
          2.17157292e+000, 0., 1.58306885e+001, 3.16931152e+000, 0., 0.,
          0., 0., 0., 0., 0., 0., 0., 0., 0., 0., 0., 8.21682072e+000,
          2.78317952e+000, 8.28427136e-001, 4.08194208e+000,
          1.08963096e+000, 1.43491650e+001, 1.65083492e+000, 0., 0., 0.,
          1.70434780e+001, 1.95652127e+000, 0., 0., 0., 0., 0., 0., 0.,
          0., 1.68684082e+001, 8.30316448e+000, 1.65685427e+000,
          2.49615550e+000, 6.75417423e-001, 2.75194302e+001,
          8.82371616e+000, 3.72792196e+000, 1.10349903e+001,
          3.58939400e+001, 3.20104980e+001, 3.98950315e+000, 0.,
          2.77832174e+000, 2.52216778e+001, 1.69740784e+000,
          3.02592218e-001, 0., 3.79392326e-001, 2.62060761e+000,
          3.17258382e+000, 5.58477545e+000, 2.89949489e+000,
          8.00145054e+000, 6.34169531e+000, 1.57659817e+001,
          1.11629505e+001, 7.04163074e+000, 1.22184000e+001,
          3.28110352e+001, 8.09722996e+000, 3.48855686e+000,
          8.28427136e-001, 6.46770334e+000, 3.91180840e+001, 0., 0., 0.,
          1.64383686e+000, 9.35616302e+000 ]
      - [ 0., 1., 1.34417987e+000, 2.14110160e+000, 5.14718652e-001,
          3.64495969e+000, 8.39576244e+000, 7.45543289e+000, 0., 1.,
          2.35296297e+000, 3.16206741e+001, 2.71379089e+001,
          8.47423935e+000, 2.82842708e+000, 1.58578646e+000, 0., 0., 0.,
          9.79401588e+000, 2.69053116e+001, 1.30067325e+000, 0., 0., 0.,
          0., 0., 0., 0., 0., 0., 0., 8.28427136e-001, 0., 1.,
          6.17157269e+000, 1.32426405e+001, 4.58578634e+000,
          1.67962277e+000, 1.49195015e+000, 0., 1.08207378e+001,
          1.28284273e+001, 5.41421366e+000, 1.25038443e+001,
          1.04065247e+001, 1.00896311e+001, 6.17157269e+000, 0.,
          5.17157269e+000, 5.41421366e+000, 8., 5.43335915e+001,
          2.23299313e+001, 1.13364773e+001, 1.45147190e+001, 0.,
          2.34314585e+000, 5.65685415e+000, 5.53180695e+000,
          6.77459183e+001, 4.44233360e+001, 1.81273651e+001,
          6.75735950e+000, 0., 0., 0., 7.75735950e+000, 1.32426405e+001,
          3., 2., 0., 0., 0., 2., 1., 2.95749130e+001, 3.70108757e+001,
          4.14213568e-001, 0., 0., 2.18829796e-001, 2., 7.,
          3.07279224e+001, 4.02010117e+001, 3.05940838e+001,
          1.72749538e+001, 0., 8.79413509e+000, 7.41421366e+000, 6.,
          2.14142132e+001, 2.39289322e+001, 1.87183857e+001,
          4.80104332e+001, 0., 0., 2., 3., 7.41421366e+000,
          2.58578634e+000, 1., 0., 0., 2.35116348e+001, 9.10203648e+000,
          1., 7.41421366e+000, 1.58578646e+000, 3., 0., 0.,
          2.62513237e+001, 1.19243097e+000, 0., 0., 0., 0.,
          8.82445717e+000, 0., 0., 0., 0., 0., 0., 0., 2.09612989e+000,
          0., 1.11369200e+001, 7.37791920e+000, 9.06163692e-001, 1., 1.,
          3., 1., 0., 7.05717325e+000, 2.53090119e+000, 0., 0., 0., 0.,
          0., 0., 0., 0., 0., 0., 0., 0., 0., 0., 0., 0., 0., 0., 0., 0.,
          0., 0., 6.25406504e+000, 3.41421366e+000, 2., 0., 0., 2.,
          1.62210798e+000, 0., 1.34427357e+001, 1.35357037e+001,
          1.68074355e-001, 0., 0., 1.66728103e+000, 1.56434441e+001, 0.,
          0., 3., 0., 0., 0., 0., 0., 0., 0., 0., 0., 0., 0., 0., 0., 0.,
          6.91036892e+000, 2.41421366e+000, 3.91036892e+000,
          6.75417423e-001, 1., 2., 3.47759223e+000, 0., 1.87187843e+001,
          1.19172325e+001, 3.36130214e+000, 4.82633829e+000,
          6.34523487e+000, 9.46712494e+000, 9.36130238e+000, 0.,
          3.12970314e+001, 2.23442631e+001, 5.84097099e+000,
          2.48364773e+001, 9.51501846e+000, 7.56722307e+000,
          4.26460361e+000, 0., 1.78225040e+001, 2.72574177e+001,
          1.09620628e+001, 2.13520603e+001, 1.08333683e+000, 0.,
          3.49996328e+000, 1.26120389e+000, 2.73879623e+000, 0.,
          2.78605819e+000, 1.04852772e+001, 7.27372885e+000,
          3.19373226e+000, 2.26120377e+000, 0., 0., 1.06001720e-002,
          5.02931356e+000, 1.28107605e+001, 2.53156757e+001,
          1.83364964e+000, 0., 0., 0., 0., 4.33758944e-001,
          1.12075472e+000, 2.86647415e+001, 5.78074551e+000, 0., 0., 0.,
          0., 2.38666439e+000, 7.61823940e+000, 9.95096326e-001, 0., 0.,
          1.42297125e+000, 3.16281509e+000, 3.72792196e+000,
          1.51267576e+001, 2.55953407e+000, 3.30112953e+001,
          9.91763687e+000, 5.79898977e+000, 1.03209867e+001,
          1.95109165e+000, 1.39760370e+001, 5.02396297e+000,
          4.14213568e-001, 2.57818556e+000, 4.00760078e+000, 0., 0., 0.,
          0., 0., 0., 5.51471853e+000, 6.62741709e+000, 6.44365072e+000,
          4.14213568e-001, 2.61203885e-001, 2.22118835e+001,
          1.73969688e+001, 2.13463306e+001, 7.83611596e-001, 0.,
          1.27157288e+001, 2.94091625e+001, 4.45759468e+001,
          7.29916191e+000, 0., 1.26152239e+001, 1.82253971e+001,
          7.09000320e+001, 2.52593441e+001, 0., 5.27207804e+000,
          5.38477612e+000, 3.34314585e+000, 0., 0., 1.75735927e+000,
          1.36690474e+001, 2.93123894e+001, 2.61203885e-001,
          2.61203885e-001, 6.59666061e+000, 2.77523079e+001,
          6.83635712e+001, 2.02625227e+000, 2.61203885e-001,
          1.62118835e+001, 3.06518040e+001, 6.14343834e+001,
          3.34407272e+001, 0., 2.92893219e+000, 3.72792196e+000,
          2.34314585e+000, 0., 3.16423721e+001, 1.04581337e+001,
          4.55634928e+000, 3.34314585e+000, 0., 2.86819992e+001,
          1.24895735e+001, 4.55634928e+000, 8.18665504e+000,
          4.08542252e+000, 0., 0., 0., 1.43522394e+000, 4.56477594e+000,
          1.67837467e+001, 4.80204010e+000, 1.65685427e+000,
          3.75735927e+000, 0., 9.45806694e+000, 1.54193330e+000, 0., 0.,
          0., 0., 0., 0., 0., 0., 0., 0., 0., 0., 0., 1.05666673e+000,
          1.38011980e+001, 4.55634928e+000, 2.77175975e+000,
          3.81402683e+000, 2.70149632e+001, 5.15660906e+000,
          3.72792196e+000, 1.36166267e+001, 1.34838791e+001,
          2.02135181e+000, 9.78648245e-001, 0., 0., 0., 0., 0., 0., 0.,
          0., 5.22407770e-001, 1.17496700e+001, 4.97056293e+000,
          5.49615526e+000, 2.61203885e-001, 1.09015274e+001,
          2.20568428e+001, 1.24264069e+001, 1.90318089e+001,
          2.58341527e+000, 4.86222458e+001, 3.09219093e+001,
          1.15979795e+001, 2.33190212e+001, 2.05388432e+001,
          5.44040756e+001, 9.76749706e+000, 2.48528147e+000,
          7.45899487e+000, 2.88415074e+000, 3.61592317e+000,
          3.14143634e+000, 4.97056293e+000, 1.17018003e+001,
          4.57027721e+000, 4.02022982e+000, 1.56555641e+000,
          4.14213568e-001, 5.19390488e+000, 2.98060951e+001,
          7.95462847e-001, 2.04537153e-001, 0., 4.45502663e+000,
          3.05449734e+001, 4.23486185e+000, 7.65138268e-001, 0.,
          2.86774069e-001, 1.71322596e+000, 2.61203885e-001,
          1.38393011e+001, 4.55634928e+000, 5.66204643e+000,
          1.68109930e+000, 0., 2.34314585e+000, 7.04163074e+000,
          2.03712292e+001, 4.32439957e+001, 0., 0., 0., 6.32403564e+000,
          3.16759644e+001, 0., 0., 0., 0., 0., 0., 2.58578634e+000,
          3.72792196e+000, 1.99026794e+001, 7.83611596e-001,
          7.83611596e-001, 2.64468365e+001, 1.53259020e+001,
          2.33988361e+001, 1.04481554e+000, 2.61203885e-001,
          2.39692440e+001, 2.36101723e+001, 4.92011375e+001,
          2.49582424e+001, 0., 1.25441561e+001, 1.49116879e+001,
          5.77649994e+001, 5.77791557e+001, 0., 0., 7.04163074e+000,
          1.69583702e+001, 0., 0., 0., 1.78111839e+001, 4.89909935e+001,
          1.19782519e+000, 3.49090719e+000, 2.64674625e+001,
          3.02375908e+001, 5.68040390e+001, 0., 5.28128395e+001,
          4.23465424e+001, 3.14802303e+001, 3.50991859e+001,
          2.61203885e-001, 0., 0., 4.97056293e+000, 8.02943707e+000, 0.,
          3.53029900e+001, 1.22117290e+001, 5.38477612e+000,
          7.10050488e+000, 0., 4.44599266e+001, 2.00547924e+001,
          2.48528147e+000, 0., 0., 9.74052143e+000, 1.25947845e+000, 0.,
          0., 0., 1.65053406e+001, 4.66623163e+000, 2.07106781e+000,
          2.75735927e+000, 0., 1.10092955e+001, 1.99070477e+000, 0., 0.,
          0., 0., 0., 0., 0., 0., 0., 0., 0., 0., 0., 1.22739992e+001,
          9.31178665e+000, 1.65685427e+000, 1.75735927e+000, 0.,
          4.94125710e+001, 1.81021461e+001, 2.89949489e+000,
          5.85786462e-001, 0., 0., 0., 0., 0., 0., 0., 0., 0., 0., 0.,
          2.65685415e+000, 1.41005049e+001, 2.89949489e+000,
          4.08194208e+000, 2.61203885e-001, 1.13490810e+001,
          4.17097931e+001, 1.32548342e+001, 1.09061632e+001,
          1.78012776e+000, 6.64668808e+001, 3.12194138e+001,
          4.14213562e+000, 9.11007214e+000, 3.20615005e+001,
          2.83672409e+001, 1.23901186e+001, 1.24264073e+000,
          3.95825171e+000, 3.30417480e+001, 5.22407770e-001,
          5.40652466e+000, 3.31370854e+000, 8.15415287e+000,
          1.26032066e+001, 0., 0., 0., 5.83548832e+000, 3.81645126e+001,
          0., 0., 4.14213568e-001, 5.27029514e+000, 2.93154907e+001, 0.,
          0., 0., 1.31531799e+000, 9.68468189e+000 ]
      - [ 0., 0., 0., 5.05949974e+000, 2.01340027e+001, 7.80649853e+000,
          0., 0., 0., 0., 0., 0., 1.50068607e+001, 4.99313927e+000, 0.,
          0., 0., 0., 0., 0., 0., 0., 0., 0., 0., 0., 0., 0., 0., 0., 0.,
          0., 0., 0., 0., 3.41421366e+000, 1.29675264e+001,
          9.78983307e+000, 2.82842708e+000, 0., 0., 0., 0.,
          3.15875912e+000, 4.19254189e+001, 2.15016098e+001,
          2.41421366e+000, 1., 0., 0., 1.72041168e+001, 4.18312187e+001,
          2.22916622e+001, 4.67300081e+000, 0., 0., 0., 0.,
          1.14761705e+001, 4.63237648e+001, 4.82000618e+001,
          3.47759223e+000, 1.23174362e+001, 5.20497179e+000,
          2.36260891e+000, 2.75399590e+000, 2.88339520e+000,
          2.82842708e+000, 7.58578634e+000, 6.17157269e+000,
          1.41421354e+000, 0., 0., 1.38765030e+001, 2.01107240e+000,
          4.47059822e+000, 1.61649036e+001, 1.51005049e+001,
          4.41421366e+000, 4.25419474e+000, 0., 3.36893730e+001,
          1.96379375e+001, 1.47969341e+001, 2.31858311e+001,
          1.33603802e+001, 4.82842731e+000, 9.58578682e+000, 0.,
          2.98443260e+001, 1.63851757e+001, 9.24089909e+000,
          2.25702934e+001, 3.11751842e+001, 2.76862526e+001,
          1.56369829e+001, 0., 8.64665222e+000, 8.12103003e-002, 0., 1.,
          0., 0., 1.06219995e+000, 0., 4.85702157e-002, 0., 0., 0., 0.,
          0., 0., 0., 0., 0., 0., 0., 0., 0., 0., 0., 0., 0., 0., 0., 0.,
          0., 0., 0., 7.67701960e+000, 0., 0., 1., 0., 0., 0., 0., 0.,
          0., 0., 0., 0., 0., 0., 0., 0., 0., 0., 0., 0., 0., 0., 0., 0.,
          0., 0., 0., 0., 0., 0., 0., 3.58031178e+000, 1., 0., 1., 3.,
          0., 1.06898233e-001, 0., 6.20419788e+000, 0., 0., 0., 0., 0.,
          2.03459904e-001, 0., 3.77296638e+000, 0., 0., 0., 0., 0.,
          3.43247056e-002, 0., 1.30603611e+000, 0., 0., 0., 0., 0., 0.,
          0., 0., 0., 2.17157292e+000, 1.68994942e+001, 9.10050488e+000,
          8.28427136e-001, 0., 0., 2.87459254e+000, 3., 1.01715727e+001,
          4.12597008e+001, 1.11545115e+001, 3.82842708e+000,
          5.22511292e+000, 0., 6.29047346e+000, 7.07106781e+000,
          1.09531593e+001, 7.10952911e+001, 2.64662704e+001,
          7.24264050e+000, 2.14253616e+000, 0., 1.09300413e+001,
          2.41421366e+000, 1.23263493e+001, 6.72472000e+001,
          2.40122356e+001, 1., 3.21117377e+000, 0., 0., 0.,
          1.13579643e+000, 1.21916075e+001, 1.26015282e+001,
          3.65685415e+000, 4.14213568e-001, 0., 0., 1., 1.33338869e+000,
          3.65029106e+001, 1.21637001e+001, 0., 0., 0., 0., 0., 0.,
          3.62262940e+000, 3.77370477e-001, 0., 0., 0., 0., 0., 0., 0.,
          0., 0., 0., 2.61203885e-001, 7.83930111e+000, 4.55634928e+000,
          7.30896759e+000, 7.03417826e+000, 0., 0., 0., 2.55389524e+000,
          1.04461050e+001, 0., 0., 0., 0., 0., 0., 0., 0., 0., 0., 0.,
          3.51471853e+000, 6.21320343e+000, 1.14250879e+001,
          8.46990287e-001, 2.61203885e-001, 6.83930111e+000,
          5.38477612e+000, 1.79699326e+001, 2.85447865e+001,
          4.61821442e+001, 2.19894295e+001, 8.28427136e-001,
          9.18859386e+000, 4.81140661e+000, 2.96497765e+001,
          4.26517372e+001, 1.03553391e+001, 1.26151161e+001,
          6.72803020e+000, 1.48814225e+000, 8.61236286e+000,
          5.79898977e+000, 5.10050488e+000, 0., 1.95066128e+001,
          1.05938921e+001, 1.28406200e+001, 2.01430836e+001,
          4.91579103e+000, 3.49895592e+001, 3.60693130e+001,
          1.98822517e+001, 2.53834572e+001, 6.75417423e-001,
          3.01485691e+001, 3.24960938e+001, 2.40243874e+001,
          5.77899933e+001, 1.45409584e+001, 1.28232460e+001,
          4.17675400e+000, 8.28427136e-001, 2.17157292e+000, 0., 0.,
          1.58578646e+000, 4.14213568e-001, 0., 0., 0., 0., 0., 0., 0.,
          0., 0., 0., 0., 0., 1.12130842e+001, 3.37270212e+000,
          4.14213568e-001, 0., 0., 0., 0., 0., 0., 0., 0., 0., 0., 0.,
          0., 0., 0., 0., 0., 0., 6.00630808e+000, 6.16526461e+000,
          2.89949489e+000, 2.92893219e+000, 0., 1.22677164e+001,
          6.31806993e+000, 8.28427136e-001, 2.32458258e+000,
          2.61203885e-001, 9.15924644e+000, 2.84075379e+000,
          8.28427136e-001, 1.17157292e+000, 0., 2.37954712e+000,
          6.20452881e-001, 0., 0., 0., 0., 1.75735927e+000,
          4.97056293e+000, 8.27207756e+000, 0., 0., 1.35441561e+001,
          1.53259020e+001, 1.67698345e+001, 3.36010718e+000,
          6.33708096e+000, 2.59644337e+001, 2.15391045e+001,
          3.98664627e+001, 1.12929153e+001, 1.68575020e+001,
          2.77871590e+001, 2.15391045e+001, 3.18859806e+001,
          9.93025303e+000, 0., 1.58578646e+000, 5.38477612e+000,
          1.50886106e+001, 9.40826654e-001, 0., 2.75735927e+000,
          2.07106781e+000, 1.00782385e+001, 2.70933342e+001, 0., 0., 0.,
          1.29575402e-001, 8.70424628e-001, 0., 0., 0., 0., 0., 0., 0.,
          1.65685427e+000, 1.50916100e+001, 1.62515354e+001, 0., 0., 0.,
          2.22219157e+000, 1.77778091e+001, 0., 0., 0., 0., 0., 0., 0.,
          0., 0., 0., 0., 5.85786462e-001, 4.55634928e+000,
          2.00819530e+001, 3.77591205e+000, 0., 5.85786462e-001,
          1.65685427e+000, 1.93372765e+001, 4.74200821e+001, 0., 0.,
          1.65685427e+000, 2.78861179e+001, 5.44570274e+001,
          1.85786438e+000, 4.89949512e+000, 9.94112587e+000,
          4.98143387e+001, 4.54871750e+001, 2.94582105e+000,
          2.22575164e+000, 5.38477612e+000, 1.16600389e+001,
          7.83611596e-001, 3.62027702e+001, 9.14037704e+000,
          8.28427124e+000, 2.67867966e+001, 3.58578634e+000,
          3.47022667e+001, 2.56703167e+001, 1.49116879e+001,
          3.80319023e+001, 7.68382788e+000, 4.35297279e+001,
          3.64286423e+001, 1.94680367e+001, 5.24359627e+001,
          1.01376314e+001, 2.27192516e+001, 3.86653495e+000,
          4.14213568e-001, 1., 0., 5.54618692e+000, 4.53813255e-001, 0.,
          0., 0., 0., 0., 0., 0., 0., 0., 0., 0., 0., 0.,
          1.58494749e+001, 3.15052533e+000, 4.14213568e-001,
          5.85786462e-001, 0., 0., 0., 0., 0., 0., 0., 0., 0., 0., 0.,
          0., 0., 0., 0., 0., 2.07400188e+001, 2.25998044e+000,
          1.65685427e+000, 2.34314585e+000, 0., 3.50001450e+001,
          2.99985600e+000, 0., 0., 0., 2.03350468e+001, 1.66495371e+000,
          0., 0., 0., 8.49791813e+000, 1.50208151e+000, 0., 0., 0., 0.,
          1.58578646e+000, 5.79898977e+000, 2.36152229e+001, 0.,
          2.15577745e+000, 1.12878733e+001, 1.15979795e+001,
          4.63891373e+001, 9.56923103e+000, 1.64615898e+001,
          8.05312824e+000, 1.24264069e+001, 5.99759941e+001,
          4.10828819e+001, 2.93807068e+001, 1.22050800e+001,
          1.07695522e+001, 4.95089302e+001, 4.41357307e+001, 0.,
          5.85786462e-001, 4.97056293e+000, 1.81564941e+001,
          5.28715706e+000, 0., 0., 4.14213568e-001, 6.90468168e+000,
          4.26811028e+001, 0., 0., 0., 6.28923416e-001, 3.37107658e+000,
          0., 0., 0., 0., 0. ]
      - [ 0., 0., 0., 5.12010145e+000, 1.08798981e+001, 0., 0., 0., 0.,
          0., 0., 0., 0., 0., 0., 0., 0., 0., 0., 0., 0., 0., 0., 0., 0.,
          0., 0., 0., 0., 0., 0., 0., 5.56949437e-001, 0., 0.,
          3.21519756e+000, 2.02374382e+001, 3.54736400e+000,
          7.56766140e-001, 6.86284423e-001, 7.03346443e+000,
          7.98202991e-001, 0., 1.71221781e+000, 3.29031372e+001,
          2.38464594e+000, 0., 1.16833282e+000, 0., 8.74460638e-001,
          1.00300550e+000, 5.28132820e+000, 1.92760181e+001,
          3.75360918e+000, 2.42970586e+000, 8.91587639e+000, 0.,
          5.16570759e+000, 2.18001614e+001, 1.11320419e+001,
          1.29457035e+001, 8.17623734e-001, 1.07720882e-001,
          3.35734987e+000, 6.67333975e-002, 0., 1.53811288e+000,
          1.46188712e+000, 2.67962265e+000, 1.51112080e+000,
          1.03563919e+001, 1.23861313e+001, 0., 1.85670090e+000, 0., 0.,
          0., 0., 2., 3.20658684e+000, 0., 0., 0., 0., 0., 0., 0.,
          1.78893614e+000, 0., 1.40921950e+000, 6.17656708e+000,
          4.14213568e-001, 0., 0., 0., 0., 2.61203885e-001,
          2.96226621e+000, 1.19074357e+000, 6.39144516e+000,
          9.19434166e+000, 2.94856310e-001, 8.70514393e+000, 0., 0.,
          1.19782519e+000, 5.80217505e+000, 2.80925632e+000,
          1.19074357e+000, 1.47030210e+000, 4.32194443e+001,
          6.31025362e+000, 0., 1.70214379e+000, 4.14213568e-001, 0., 0.,
          0., 8.28844643e+000, 8.33772087e+000, 0., 0., 0., 0., 0., 0.,
          0., 0., 6.58802462e+000, 6.86754036e+000, 9.60065186e-001,
          2.87591863e+000, 6.94412231e+000, 5.15937138e+000,
          1.87036633e+000, 7.34590828e-001, 0., 6.71282005e+000,
          2.93065605e+001, 1.34146986e+001, 7.76530027e-001, 1., 0.,
          1.13918900e-001, 0., 1.21906118e+001, 2.81004953e+000, 0., 0.,
          0., 0., 0., 0., 0., 0., 0., 0., 0., 0., 0., 2.40248156e+000,
          3.59751844e+000, 4.92456675e-001, 1.28861885e+001,
          1.05520792e+001, 6.92759231e-002, 0., 0., 0., 9.33750153e+000,
          7.35023594e+000, 6.18560362e+000, 1.65570581e+000, 0., 0., 0.,
          0., 0., 0., 0., 0., 0., 0., 0., 0., 0., 0., 0., 0., 0., 0., 0.,
          0., 0., 0., 8.92125797e+000, 1.30787420e+001, 0., 0., 0., 0.,
          0., 1., 1., 1., 0., 0., 0., 0., 0., 0., 0., 0., 0., 0., 0., 0.,
          0., 0., 0., 0., 0., 0., 0., 0., 0., 0., 3.68781328e+000,
          4.31218672e+000, 0., 0., 0., 0., 0., 0., 0., 0., 0., 0., 0.,
          0., 0., 0., 0., 0., 0., 0., 0., 0., 0., 0., 0., 0., 0., 0., 0.,
          8.52287579e+000, 2.06291056e+000, 4.14213568e-001, 0., 0., 0.,
          0., 0., 0., 0., 0., 0., 0., 0., 0., 0., 0., 0., 0., 0.,
          4.92078733e+000, 5.25078535e+000, 2.07106781e+000,
          5.00244904e+000, 7.75491047e+000, 4.21004105e+000,
          4.54731798e+000, 2.89949489e+000, 1.36048946e+001,
          5.73825073e+000, 1.10411177e+001, 1.95888269e+000,
          4.14213568e-001, 6.05466175e+000, 2.05311241e+001,
          4.23686447e+001, 1.12171412e+001, 4.14213568e-001,
          2.10189986e+000, 6.89810038e+000, 1., 1.58578646e+000,
          1.24264073e+000, 3.61433482e+000, 2.05572376e+001,
          3.65416527e+000, 3.45834792e-001, 4.14213568e-001,
          3.04412913e+000, 8.54165745e+000, 0., 0., 0., 7.48734593e-001,
          3.25126529e+000, 7.14564848e+000, 8.54351580e-001, 0., 0., 0.,
          9.36621308e-001, 1.05070295e+001, 4.55634928e+000,
          4.41214144e-001, 8.55878544e+000, 4.16706848e+000,
          5.41871786e+000, 8.28427136e-001, 7.62453413e+000,
          4.29612541e+001, 3.12835765e+000, 8.71642292e-001, 0.,
          1.80000627e+000, 1.71999931e+001, 0., 0., 0., 0., 0.,
          1.12627144e+001, 6.90885830e+000, 3.31370854e+000,
          7.90267992e+000, 1.61203873e+000, 4.55733414e+001,
          7.01244354e+000, 1.24264073e+000, 1.17157292e+000, 0.,
          1.54300156e+001, 1.56998444e+000, 0., 0., 0., 0., 0., 0., 0.,
          0., 1.24879093e+001, 1.20978765e+001, 8.28427136e-001,
          5.85786462e-001, 0., 2.46632652e+001, 2.33673453e+000, 0., 0.,
          0., 0., 0., 0., 0., 0., 0., 0., 0., 0., 0., 1.56866903e+001,
          3.31330991e+000, 0., 0., 0., 1.60679328e+000, 3.93206745e-001,
          0., 0., 0., 0., 0., 0., 0., 0., 0., 0., 0., 0., 0.,
          6.06629753e+000, 9.33702588e-001, 0., 0., 0., 0., 0., 0., 0.,
          0., 0., 0., 0., 0., 0., 0., 0., 0., 0., 0., 0., 0., 0.,
          1.29413402e+000, 1.47058659e+001, 0., 0., 0., 0., 0., 0., 0.,
          0., 0., 0., 0., 0., 0., 0., 0., 1.47741830e+000,
          5.22581756e-001, 0., 2.99929333e+000, 2.40007076e+001,
          8.70191479e+000, 2.98085064e-001, 0., 3.75635624e+000,
          3.32436447e+001, 1.87101231e+001, 1.28987718e+000, 0.,
          2.98385501e+000, 2.80161457e+001, 2.96846695e+001,
          6.07269096e+000, 1.24264073e+000, 3.45337796e+000,
          2.55466213e+001, 1.54555607e+001, 3.13022518e+000,
          1.24264073e+000, 5.41421366e+000, 1.75735927e+000,
          2.05604954e+001, 1.43950379e+000, 0., 0., 0., 8.81908226e+000,
          1.18091798e+000, 0., 0., 0., 2.45178485e+000, 5.48215032e-001,
          0., 1.13918900e-001, 8.86081100e-001, 5.22407770e-001,
          2.64916515e+000, 3.31370854e+000, 1.57496700e+001,
          2.76504850e+000, 1.27299528e+001, 1.38852711e+001,
          7.45584393e+000, 8.73110676e+000, 1.19782519e+000,
          1.96752033e+001, 3.32479668e+000, 0., 0., 0., 0., 0., 0., 0.,
          0., 1.29353352e+001, 2.06466484e+000, 4.14213568e-001,
          9.33996105e+000, 6.24582577e+000, 1.58499489e+001,
          3.15005112e+000, 4.14213568e-001, 8.85619259e+000,
          1.87295952e+001, 1.64351692e+001, 1.56483078e+000, 0., 0., 0.,
          0., 0., 0., 0., 0., 4.92718410e+000, 1.07281590e+000, 0.,
          8.10080338e+000, 1.58991966e+001, 1.54174509e+001,
          1.58254862e+000, 0., 7.97496438e-001, 8.20250320e+000, 0., 0.,
          0., 0., 0., 0., 0., 0., 0., 0., 0., 0., 0., 1.59318006e+000,
          2.04068203e+001, 0., 0., 0., 3.93206745e-001, 1.60679328e+000,
          0., 0., 0., 0., 0., 0., 0., 0., 0., 0., 0., 0., 0.,
          6.48912311e-001, 7.35108757e+000, 0., 0., 0., 0., 0., 0., 0.,
          0., 0., 0., 0., 0., 0., 0., 0. ]
      - [ 0., 2.63619018e+000, 5.22419405e+000, 1.89600277e+001,
          3.17958879e+000, 0., 0., 0., 1.57965466e-001, 7.66621876e+000,
          1.74259930e+001, 4.24800873e+000, 1.41134977e+001,
          1.52426281e+001, 1.45688474e-001, 0., 0., 0., 0., 0., 0., 0.,
          0., 0., 0., 0., 0., 0., 0., 0., 0., 0., 0., 3.78183508e+000,
          9.84427452e+000, 1.37389052e+000, 2.30878711e+000,
          4.27699947e+000, 3.73037767e+000, 1.68383598e+000,
          1.03321924e+001, 1.35640526e+001, 8.74181938e+000,
          5.28150892e+000, 1.75183697e+001, 1.55132923e+001,
          4.10877609e+000, 1.29399881e+001, 2.61203885e-001, 0., 0., 0.,
          2.31660223e+000, 2.27595177e+001, 7.92388010e+000,
          7.38796115e-001, 0., 0., 0., 0., 0., 0., 0., 0.,
          2.00199032e+000, 2.32415509e+000, 6.13687992e+000,
          1.70703948e+000, 0., 4.85281378e-001, 4.05686045e+000,
          1.52877932e+001, 0., 1.21051092e+001, 3.78190446e+000, 0., 0.,
          0., 2.21513510e+000, 4.78486490e+000, 4.43494129e+000,
          3.67294426e+001, 7.34716558e+000, 1.68074355e-001,
          1.98733926e+000, 2.18568077e+001, 6.90718365e+000,
          5.69046617e-001, 1.83214641e+000, 3.62954330e+001,
          8.80135441e+000, 5.85786462e-001, 4.91257811e+000,
          3.08177719e+001, 1.09083481e+001, 8.46583486e-001, 0.,
          8.86081100e-001, 4.92959118e+000, 3.18432784e+000, 0., 0., 0.,
          1.38886127e+001, 0., 0., 0., 0., 0., 0., 0., 0., 0., 0., 0.,
          0., 0., 0., 0., 0., 0., 0., 0., 0., 0., 0., 0., 0., 0.,
          4.13484621e+000, 1.37836561e+001, 5.62770510e+000, 0., 0., 0.,
          0., 0., 0., 0., 0., 0., 0., 0., 0., 0., 0., 0., 0., 0., 0., 0.,
          0., 0., 0., 0., 0., 0., 0., 0., 0., 0., 0., 2.40473008e+000,
          5.95269859e-001, 0., 0., 0., 0., 0., 0., 0., 0., 0., 0., 0.,
          0., 0., 0., 0., 0., 0., 0., 0., 0., 0., 0., 0., 0., 0., 0., 0.,
          0., 0., 0., 2., 0., 0., 0., 0., 0., 0., 0., 0., 0., 0., 0., 0.,
          0., 0., 0., 0., 0., 0., 0., 0., 0., 0., 0., 0., 0., 0., 0., 0.,
          0., 0., 1.14296007e+000, 4.88283157e+000, 1.97420859e+000, 0.,
