%YAML:1.0
_0218: !!opencv-ml-svm
   svm_type: C_SVC
   kernel: { type:LINEAR }
   C: 100.
   term_criteria: { epsilon:9.9999999747524271e-007,
       iterations:2147483647 }
   var_all: 576
   var_count: 576
   class_count: 2
   class_labels: !!opencv-matrix
      rows: 1
      cols: 2
      dt: i
      data: [ -1, 1 ]
   sv_total: 54
   support_vectors:
      - [ 0., 1.58578646e+000, 0., 0., 0., 0., 5.67541742e+000,
          1.12349520e+001, 0., 7.92893219e+000, 4.24264050e+000,
          2.58578634e+000, 1.19180584e+001, 2.53126888e+001,
          1.84261074e+001, 1.35147190e+001, 0., 7., 1.18284273e+001,
          1.01715727e+001, 3.18665733e+001, 4.04580078e+001,
          2.37464848e+001, 8.51471901e+000, 0., 1.81010361e+001,
          1.88750973e+001, 2.15131264e+001, 2.17622204e+001,
          3.33568535e+001, 5.66095200e+001, 1.44413853e+001, 0., 0., 2.,
          0., 8., 4., 5.41421366e+000, 5.58578634e+000, 0.,
          3.75735927e+000, 6.82842731e+000, 3.17157292e+000,
          1.38284273e+001, 5., 2.00710678e+001, 1.29289322e+001, 0.,
          1.33708608e+000, 8.05793858e+000, 3.82844543e+000,
          3.19074368e+000, 3.11198177e+001, 8.03730011e+001,
          1.53807516e+001, 0., 9.18935871e+000, 2.58406544e+001,
          3.61537170e+001, 3.68269539e+001, 2.14688473e+001,
          3.46133003e+001, 7.70828342e+000, 0., 1., 1., 1., 8., 3., 3.,
          2., 0., 8., 3., 0., 3., 2.09289322e+001, 2.22426414e+001,
          5.41421366e+000, 0., 2.72485566e+000, 2.91384220e+000,
          9.94897842e-001, 8.07823467e+000, 3.60202789e+001,
          9.48446732e+001, 1.08121252e+001, 0., 1., 2.42426414e+001,
          2.75147190e+001, 4.42426414e+001, 5.90727692e+001,
          4.42154083e+001, 1.71182227e+000, 0., 1.76731758e+001,
          3.32682490e+000, 0., 2., 2., 2., 1., 0., 1.75368366e+001,
          3.27835388e+001, 1., 2., 1., 0., 7.74648523e+000, 0.,
          3.12548904e+001, 4.75136414e+001, 0., 3.67962265e+000,
          3.49195004e+000, 2.65685415e+000, 7.90616369e+000, 0.,
          4.40565834e+001, 4.38472519e+001, 3.99411345e+000,
          2.96993709e+000, 4.44857407e+000, 1.56639118e+001,
          1.92421589e+001, 0., 1.04781361e+001, 2.30274629e-002, 0., 0.,
          0., 0., 5.85786462e-001, 0., 0., 0., 0., 0., 0., 0., 0., 0.,
          0., 0., 0., 0., 0., 0., 0., 0., 0., 0., 0., 0., 0., 0., 0., 0.,
          1.26423550e+001, 1.38351440e+000, 0., 0., 0., 0., 0., 0., 0.,
          0., 0., 0., 0., 0., 0., 0., 0., 0., 0., 0., 0., 0., 0., 0., 0.,
          0., 0., 0., 0., 0., 0., 0., 1.05002489e+001, 1.10704727e+001,
          1.68074355e-001, 0., 0., 2., 1.32037723e+000, 0.,
          4.26212358e+000, 1.86468315e+001, 9.10450965e-002, 0., 0., 0.,
          0., 0., 0., 0., 0., 0., 0., 0., 0., 0., 0., 0., 0., 0., 0., 0.,
          0., 0., 0., 4., 2., 1., 1.58578646e+000, 9.24264050e+000,
          4.17157269e+000, 0., 6.87836790e+000, 3.73015671e+001,
          1.74058514e+001, 1.14142132e+001, 1.58578646e+000,
          6.41421366e+000, 0., 0., 2.17685604e+000, 4.17547836e+001,
          3.67766991e+001, 1.69670792e+001, 9.32458210e+000, 1., 0., 0.,
          1.17157292e+000, 1.09477577e+001, 2.79132042e+001,
          5.55325174e+000, 0., 0., 0., 0., 1.17157292e+000,
          5.38477612e+000, 1.31824465e+001, 2.61203885e-001, 0.,
          1.10294371e+001, 1.90538235e+001, 4.58904877e+001,
          3.02625227e+000, 0., 1.96446609e+001, 3.02375908e+001,
          5.88751068e+001, 2.24264073e+000, 1.93512001e+001,
          3.65361023e+001, 2.52670269e+001, 6.02533722e+001,
          3.25922966e+001, 0., 1.17157292e+000, 4.14213562e+000,
          1.16862917e+001, 0., 0., 1.04436512e+001, 1.57401152e+001,
          2.68162346e+001, 0., 7.68702316e+000, 5.89876318e+000,
          1.24264069e+001, 6.56490860e+001, 5.03387222e+001,
          1.05207748e+001, 4.50111885e+001, 2.98233757e+001,
          3.02201767e+001, 2.44244843e+001, 0., 1.75735927e+000,
          4.55634928e+000, 4.68629169e+000, 0., 0., 6.44365072e+000,
          1.65685425e+001, 3.59429893e+001, 1.04481554e+000,
          3.12256670e+000, 4.46321964e+000, 6.62741709e+000,
          6.36125259e+001, 7.51742706e+001, 0., 3.45319633e+001,
          2.73380947e+001, 4.89487267e+001, 4.81812134e+001,
          1.57256813e+001, 4.44589186e+000, 2.89949489e+000,
          2.92893219e+000, 0., 3.44226913e+001, 1.38493881e+001,
          6.62741709e+000, 7.83930111e+000, 2.61203885e-001,
          4.20200691e+001, 3.87667274e+001, 1.11837664e+001,
          1.20294371e+001, 0., 4.62589035e+001, 4.90426102e+001,
          1.94680367e+001, 2.97331123e+001, 7.49733448e+000,
          1.15237083e+001, 2.47629142e+000, 4.14213568e-001,
          5.85786462e-001, 0., 0., 0., 0., 0., 0., 0., 0., 0., 0., 0.,
          0., 0., 0., 0., 0., 1.39346981e+001, 4.65108871e+000,
          4.14213568e-001, 0., 0., 0., 0., 0., 0., 0., 0., 0., 0., 0.,
          0., 0., 0., 0., 0., 0., 1.76722374e+001, 3.49933505e+000,
          2.48528147e+000, 2.34314585e+000, 0., 1.99378948e+001,
          3.06210542e+000, 0., 0., 0., 0., 0., 0., 0., 0., 0., 0., 0.,
          0., 0., 0., 4.75735950e+000, 5.38477612e+000, 1.08578644e+001,
          0., 2.59010830e+001, 2.86430740e+001, 1.03553391e+001,
          5.10050488e+000, 0., 5.05715485e+001, 2.88010330e+001,
          1.07695522e+001, 6.85786438e+000, 0., 3.26435318e+001,
          1.02853994e+001, 2.07106781e+000, 0., 0., 2.61203885e-001,
          1.59398060e+001, 5.79898977e+000, 0., 0., 0., 2.32304478e+001,
          2.27817459e+001, 3.19429913e+001, 1.04481554e+000, 0.,
          1.37157288e+001, 3.06518040e+001, 6.41286240e+001,
          2.50384450e+000, 4.13905859e+000, 4.27776794e+001,
          3.52081528e+001, 5.32595100e+001, 3.16156006e+001, 0.,
          5.92893219e+000, 6.21320343e+000, 7.85786438e+000, 0., 0.,
          1.70588741e+001, 1.78111839e+001, 1.41299419e+001, 0.,
          1.67837276e+001, 2.10030689e+001, 2.40243874e+001,
          3.77638397e+001, 6.42497587e+000, 3.69964886e+000,
          2.07734394e+001, 4.10071411e+001, 6.80576324e+001,
          1.34621401e+001, 0., 4.10050488e+000, 7.87005758e+000,
          7.02943707e+000, 0., 0., 1.64730873e+001, 2.07106781e+001,
          1.58162336e+001, 0., 5.34922266e+000, 2.01238651e+001,
          2.52670269e+001, 5.36026802e+001, 2.26572037e+001, 0.,
          3.92893219e+000, 3.72792206e+001, 9.45085373e+001,
          2.92833099e+001, 1.49075451e+001, 5.26402760e+000,
          2.48528147e+000, 2.34314585e+000, 0., 2.44113350e+001,
          2.51328220e+001, 9.11269855e+000, 2.34314585e+000, 0.,
          1.66365528e+001, 6.45938950e+001, 1.28406200e+001,
          5.51471853e+000, 4.14213568e-001, 2.66835957e+001,
          8.92331390e+001, 1.82253971e+001, 9.76838875e+000,
          9.08947563e+000, 1.35952530e+001, 3.40474725e+000, 0., 0., 0.,
          0., 0., 0., 0., 0., 0., 0., 0., 0., 0., 0., 0., 0., 0., 0.,
          1.54719515e+001, 3.52804828e+000, 0., 0., 0., 0., 0., 0., 0.,
          0., 0., 0., 0., 0., 0., 0., 0., 0., 0., 0., 1.55366430e+001,
          5.63493013e+000, 1.24264073e+000, 5.85786462e-001, 0.,
          8.92709827e+000, 3.07290196e+000, 1.24264073e+000,
          1.75735927e+000, 0., 0., 0., 0., 0., 0., 0., 0., 0., 0., 0.,
          0., 4.10050488e+000, 4.97056293e+000, 2.92893219e+000, 0.,
          1.02203465e+001, 5.29437256e+000, 1.49116879e+001,
          2.28268909e+001, 2.74670315e+000, 4.05470276e+000,
          3.53108382e+000, 1.28406200e+001, 4.13473892e+001,
          2.82262058e+001, 0., 2.17157292e+000, 1.24264073e+000,
          9.15585613e+000, 3.04299297e+001 ]
      - [ 0., 1.58578646e+000, 1.34142132e+001, 9., 5., 0., 1., 1., 0.,
          4., 2.27477226e+001, 2.76473198e+001, 1.46049576e+001, 3., 4.,
          1., 0., 2., 2.69995975e+001, 4.00259285e+001, 4.38029022e+001,
          1.07573595e+001, 6.41421366e+000, 1., 0., 6.12726068e+000,
          2.81338005e+001, 4.47362709e+001, 6.54001007e+001,
          1.10091743e+001, 4.80978060e+000, 9.95518494e+000, 0.,
          5.85786462e-001, 7.41421366e+000, 1., 5., 1., 1., 5., 0., 0.,
          7.41421366e+000, 6.17157269e+000, 2.44142132e+001, 7., 4., 5.,
          0., 9.32458210e+000, 2.33322716e+001, 2.83540192e+001,
          2.44929714e+001, 1.08393011e+001, 1.37464857e+001,
          1.13245821e+001, 0., 1.12307463e+001, 2.57811489e+001,
          1.53126879e+001, 1.89678001e+001, 1.86579189e+001,
          7.41079559e+001, 2.41658211e+001, 0., 3.41421366e+000,
          9.58578682e+000, 1., 3., 0., 2., 0., 0., 3.58999181e+000,
          9.95794654e-001, 0., 0., 2.50032496e+000, 9.78468132e+000,
          4.10299225e+001, 0., 5.20868778e+000, 5.95103455e+000,
          1.03997078e+001, 2.14493599e+001, 8.95375729e+000,
          3.05334988e+001, 3.87235489e+001, 4.04749298e+000,
          4.70598340e-001, 6.79622769e-001, 1., 7.25556660e+000,
          6.95534182e+000, 8.73309021e+001, 3.22604752e+001, 0.,
          5.88339520e+000, 1.94082665e+000, 2.05917335e+000, 1., 0., 0.,
          1., 0., 1.27229147e+001, 1.67541742e+000, 1.11248291e+000,
          2.85311985e+000, 9.60868740e+000, 1.74014702e+001,
          2.28729668e+001, 0., 3.58578634e+000, 4.14213568e-001, 1.,
          7.24264050e+000, 3.96565247e+001, 5.99833298e+001,
          1.88748608e+001, 0., 9.92893219e+000, 6.65685415e+000,
          2.17157292e+000, 6.58578634e+000, 4.49506454e+001,
          8.22011871e+001, 3.16055260e+001, 0., 1.61859303e+001,
          9.07947826e+000, 4.05917358e+000, 0., 0., 0., 0., 0.,
          2.60201893e+001, 3.82087097e+001, 3.19618917e+000, 1., 0., 0.,
          3.90616369e+000, 0., 2.25430927e+001, 4.08710365e+001,
          9.39512539e+000, 2.61203885e-001, 2.73879623e+000,
          1.84699035e+000, 5.81653261e+000, 0., 3.15663147e+001,
          4.19099197e+001, 6.71390009e+000, 2.41421366e+000, 0., 1.,
          3.49195004e+000, 0., 3.74628448e+000, 1.59525967e+001,
          6.30111933e+000, 0., 0., 0., 1., 0., 6.29950538e-002,
          1.12758875e+001, 6.61117554e-001, 0., 0., 0., 0., 0., 0., 0.,
          0., 0., 0., 0., 0., 0., 0., 0., 0., 0., 0., 0., 0.,
          4.14213568e-001, 5.85786462e-001, 1.16794548e+001,
          9.32054520e+000, 0., 0., 2., 0., 0., 0., 0., 0., 0., 0., 0.,
          0., 0., 0., 0., 0., 0., 0., 0., 0., 0., 0., 0., 0., 0., 0., 0.,
          0., 0., 1.96427810e+000, 1.80689907e+001, 6.96673107e+000, 0.,
          0., 0., 0., 0., 0., 6.03101540e+000, 9.96898460e+000, 0., 0.,
          0., 0., 0., 0., 0., 0., 0., 0., 0., 0., 0., 0., 0., 0., 0., 0.,
          0., 0., 1.04481554e+000, 1.92272625e+001, 4.55634928e+000,
          1.17157292e+000, 0., 2.59186382e+001, 1.91402359e+001,
          1.32548342e+001, 4.68629169e+000, 0., 4.60320320e+001,
          2.50979118e+001, 1.53259020e+001, 1.15441561e+001, 0.,
          5.28333244e+001, 4.78113365e+001, 1.78111839e+001,
          2.40809116e+001, 6.46324444e+000, 0., 6.51471853e+000,
          5.38477612e+000, 4.10050488e+000, 0., 2.61203885e-001,
          8.76823330e+000, 1.15979795e+001, 9.37258339e+000, 0.,
          1.82842708e+000, 4.94314575e+001, 2.60954552e+001,
          2.83834572e+001, 2.61203885e-001, 5.42190266e+000,
          4.39506798e+001, 1.24264069e+001, 4.62839775e+001,
          6.99170303e+001, 2.61203885e-001, 1.08393011e+001,
          3.72792196e+000, 1.17157292e+000, 0., 1., 3.17157292e+000,
          1.03553391e+001, 4.07129326e+001, 2.17601547e+001,
          3.87753081e+000, 1.62524109e+001, 2.77523079e+001,
          5.49273720e+001, 2.71903782e+001, 1.26540923e+000,
          1.90616369e+000, 4.97056293e+000, 4.17586021e+001,
          8.50992661e+001, 6.75417423e-001, 9.76823330e+000,
          4.97056293e+000, 5.85786462e-001, 0., 2.82842708e+000,
          1.42720776e+001, 5.79898977e+000, 2.83275146e+001,
          2.87729912e+001, 0., 3.92893219e+000, 1.98822517e+001,
          6.03135643e+001, 4.38752518e+001, 0., 1.37867966e+001,
          2.89949493e+001, 9.08849564e+001, 4.93332939e+001,
          4.11588335e+000, 2.35704079e+001, 3.31370854e+000, 0., 0.,
          3.20116158e+001, 3.08756866e+001, 1.11837664e+001,
          2.92893219e+000, 0., 3.86310310e+001, 3.00846977e+001,
          1.15979795e+001, 9.16388416e+000, 5.22407770e-001,
          3.87218857e+001, 3.79938431e+001, 9.94112587e+000,
          4.34314585e+000, 0., 1.87172432e+001, 6.21168947e+000,
          2.48528147e+000, 5.85786462e-001, 0., 1.07121267e+001,
          1.28787303e+000, 0., 0., 0., 0., 0., 0., 0., 0., 0., 0., 0.,
          0., 0., 1.68122540e+001, 4.35931826e+000, 1.24264073e+000,
          1.58578646e+000, 0., 0., 0., 0., 0., 0., 0., 0., 0., 0., 0.,
          0., 0., 0., 0., 0., 2.01457272e+001, 6.02584648e+000,
          8.28427136e-001, 0., 0., 1.34519787e+001, 2.54802084e+000, 0.,
          0., 0., 0., 0., 0., 0., 0., 0., 0., 0., 0., 0., 0.,
          2.75735927e+000, 8.69848442e+000, 1.05441561e+001, 0., 0.,
          5.27207804e+000, 1.57401152e+001, 2.53416634e+001,
          1.96461430e+001, 0., 5.27207804e+000, 1.98822517e+001,
          5.63150826e+001, 3.75305862e+001, 3.12716413e+000,
          1.69022732e+001, 1.32548342e+001, 5.90728836e+001,
          6.96428452e+001, 0., 5.85786438e+000, 6.62741709e+000,
          4.51471853e+000, 0., 0., 1.03725834e+001, 1.94680367e+001,
          2.51593800e+001, 0., 2.61203885e-001, 2.44839630e+001,
          3.06518040e+001, 5.00358086e+001, 1.56722319e+000,
          2.81793480e+001, 3.62937393e+001, 2.27817459e+001,
          5.35283813e+001, 1.32167835e+001, 0., 8.61522388e+000,
          7.04163074e+000, 2.34314585e+000, 0., 3.07290554e+001,
          4.64719543e+001, 7.04163074e+000, 2.75735927e+000, 0.,
          3.96405525e+001, 3.26609650e+001, 1.86396103e+001,
          2.40866776e+001, 6.97219610e+000, 3.77187195e+001,
          3.90680771e+001, 1.28406200e+001, 1.54864149e+001,
          1.88616848e+000, 5.60434961e+000, 1.47387962e+001,
          2.89949489e+000, 2.75735927e+000, 0., 2.10946407e+001,
          3.92779427e+001, 8.69848442e+000, 9.31782532e+000,
          9.61110687e+000, 5.22407770e-001, 3.28085442e+001,
          2.65096684e+001, 4.99304886e+001, 1.42288895e+001,
          5.50595474e+000, 5.24402199e+001, 3.56223679e+001,
          5.56021080e+001, 1.28293486e+001, 1.45902908e+000,
          1.80556889e+001, 3.31370854e+000, 3.91036892e+000,
          2.61203885e-001, 5.42328405e+000, 4.62213783e+001,
          1.15979795e+001, 4.75356388e+000, 6.00379515e+000,
          4.83226538e+000, 4.18123970e+001, 1.24264069e+001,
          1.16005640e+001, 1.63283691e+001, 1.02885876e+001,
          5.53560753e+001, 1.20121937e+001, 1.05917854e+001,
          6.75135994e+000, 6.75417423e-001, 6.66772842e+000,
          2.07106781e+000, 5.37103033e+000, 1.02147560e+001, 0.,
          1.58578646e+000, 4.14213568e-001, 9.23282743e-001,
          2.07671738e+000, 0., 0., 0., 0., 0., 0., 0., 0., 0., 0., 0.,
          1., 4.14213568e-001, 3.79088163e+000, 1.27949047e+001, 0., 0.,
          0., 0., 0., 0., 0., 0., 0., 0., 0., 0., 0., 0., 0., 0.,
          4.10050488e+000, 2.89949489e+000, 3.49535179e+000,
          1.35046482e+001, 0., 0., 0., 2.15541673e+000, 1.08445835e+001,
          0., 0., 0., 0., 0., 0., 0., 0., 0., 0. ]
      - [ 0., 0., 3., 1., 4.08963108e+000, 1.01110706e+001,
          7.53809452e+000, 2.26120377e+000, 0., 1.58578646e+000,
          4.17157269e+000, 1.82842708e+000, 1.21259654e+000,
          1.62224922e+001, 5.07478714e+001, 1.08947773e+001, 0.,
          3.75735927e+000, 2.93442936e+001, 1.73775330e+001,
          1.99718704e+001, 1.28127251e+001, 3.53417320e+001,
          2.85761566e+001, 0., 1.59628735e+001, 2.48917217e+001,
          3.45450363e+001, 3.04296932e+001, 2.79460487e+001,
          4.55359993e+001, 1.74366627e+001, 0., 3.75735927e+000,
          4.14213568e-001, 0., 0., 4.32169390e+000, 1.47040634e+001,
          2.97424269e+000, 0., 0., 3., 3.41421366e+000, 1.58809814e+001,
          4.04189758e+001, 2.57938766e+001, 3.49195004e+000, 0.,
          1.00591736e+001, 2.28630905e+001, 1.49839001e+001,
          3.11767979e+001, 3.63246956e+001, 2.92491951e+001,
          6.75735950e+000, 0., 1.79473820e+001, 1.23627291e+001,
          7.66352320e+000, 4.44871407e+001, 4.95941162e+001,
          1.92206707e+001, 2.62442722e+001, 0., 1.73879611e+000, 0., 0.,
          0., 2.43277669e+000, 1.49103689e+001, 1.12426405e+001, 0.,
          8.08194160e+000, 6.75069046e+000, 1.63870316e+001,
          1.95412617e+001, 2.06636639e+001, 8.48577881e+000,
          3.17157292e+000, 0., 10., 9.85119534e+000, 6.25788879e+000,
          4.82786255e+001, 4.08430367e+001, 1.01834669e+001,
          3.17157292e+000, 0., 5., 1.75976810e+001, 1.65860577e+001,
          6.26527176e+001, 4.97493286e+001, 2.94852810e+001,
          1.25147190e+001, 0., 3.58578634e+000, 0., 1., 0., 0.,
          7.82842731e+000, 6.75735950e+000, 0., 2.95347958e+001,
          3.63397598e+000, 1.17157292e+000, 5.41421366e+000,
          8.20797729e+000, 9.62044907e+000, 5.52491426e+000, 0.,
          3.53043900e+001, 3.18346739e+000, 0., 1., 1., 0.,
          1.32037723e+000, 0., 2.95961418e+001, 4.08340931e+000, 0., 0.,
          0., 0., 1., 3.26120377e+000, 1.76150074e+001, 8.70957565e+000,
          0., 0., 0., 0., 2.41421366e+000, 0., 9.64465237e+000,
          3.35534739e+000, 0., 0., 0., 0., 0., 0., 0., 0., 0., 0., 0.,
          0., 0., 0., 0., 0., 0., 0., 0., 0., 0., 0., 1.93101158e+001,
          5.80436647e-001, 0., 0., 0., 0., 1., 1.23899341e-001,
          4.02098513e+000, 1.85511553e+000, 0., 0., 0., 0., 0., 0., 0.,
          0., 0., 0., 0., 0., 0., 0., 0., 0., 0., 0., 0., 0., 0.,
          2.33368850e+000, 1.08110065e+001, 1.42695189e+001, 2., 1., 0.,
          1., 5.85786462e-001, 0., 4.01864128e+001, 1.45983486e+001,
          5.80217505e+000, 2., 1., 2.94082665e+000, 2.64495969e+000, 0.,
          2.35860271e+001, 4.34276276e+001, 5.82599831e+000,
          4.14213568e-001, 0., 0., 0., 0., 2.38726869e-001,
          1.79528790e+001, 8.08393240e-001, 0., 0., 0., 0., 0.,
          3.75735927e+000, 5.24264050e+000, 3.17157292e+000,
          1.41421354e+000, 5.85786462e-001, 4., 4.41421366e+000, 0.,
          7.66772842e+000, 2.15976810e+001, 1.16449594e+001,
          1.27692537e+001, 1.19467735e+001, 8.69818592e+000,
          3.58578634e+000, 0., 1.89778385e+001, 5.62875710e+001,
          1.84919510e+001, 8.01917076e+000, 6.89396191e+000,
          1.50987616e+001, 8.57389164e+000, 0., 9.53152752e+000,
          6.37981720e+001, 5.27545090e+001, 2.25134697e+001,
          1.84023190e+001, 1.36568546e+001, 1.39289322e+001, 0.,
          2.34314585e+000, 3.31370854e+000, 1.43241758e+001,
          5.01897001e+000, 7.83611596e-001, 5.14532042e+000,
          4.55634928e+000, 3.05142841e+001, 4.70004349e+001,
          5.50150919e+000, 3.87289391e+001, 1.69827557e+001,
          3.34344177e+001, 4.33523788e+001, 1.11352510e+001,
          5.94677811e+001, 2.52670269e+001, 4.84854851e+001,
          4.26444588e+001, 0., 3.34314585e+000, 2.07106781e+000,
          1.12242184e+001, 1.03615675e+001, 2.61203885e-001,
          5.49615526e+000, 8.28427124e+000, 3.75397186e+001,
          3.34186478e+001, 6.11906815e+000, 3.76971664e+001,
          2.44386005e+001, 5.95844688e+001, 8.16069889e+000,
          4.45943594e+000, 3.20136528e+001, 3.02375908e+001,
          8.62728195e+001, 1.70164986e+001, 0., 1.58578646e+000,
          1.24264073e+000, 2.05269127e+001, 7.64466095e+000,
          2.26258779e+000, 2.50389271e+001, 1.28406200e+001,
          2.26035843e+001, 1.72542801e+001, 1.45902908e+000,
          2.09135532e+001, 1.90538235e+001, 5.68202553e+001,
          1.67533379e+001, 2.02625227e+000, 3.11331272e+001,
          3.72792206e+001, 8.44877701e+001, 1.60736294e+001, 0.,
          2.92893219e+000, 5.38477612e+000, 1.14884663e+001,
          1.19782519e+000, 2.94373341e+001, 1.54915972e+001,
          6.21320343e+000, 2.14173985e+001, 2.44046593e+000,
          3.16618271e+001, 2.00955334e+001, 2.48528147e+000,
          1.75735927e+000, 0., 2.90834904e+001, 1.16738682e+001,
          1.65685427e+000, 5.85786462e-001, 0., 1.83790112e+001,
          8.20677567e+000, 2.07106781e+000, 3.34314585e+000, 0.,
          1.03205595e+001, 2.67944074e+000, 0., 0., 0., 0., 0., 0., 0.,
          0., 0., 0., 0., 0., 0., 1.73886814e+001, 8.19710445e+000,
          4.14213568e-001, 1., 0., 4.24723864e+000, 1.75276136e+000, 0.,
          0., 0., 0., 0., 0., 0., 0., 0., 0., 0., 0., 0.,
          7.38545847e+000, 1.95434742e+001, 2.89949489e+000,
          1.17157292e+000, 0., 3.96626778e+001, 2.95088940e+001,
          2.07106781e+000, 4.82073784e+000, 9.36621308e-001,
          4.77906151e+001, 2.71383190e+001, 2.07106781e+000, 0., 0.,
          1.66506348e+001, 2.34936547e+000, 0., 0., 0., 2.61203885e-001,
          9.83930111e+000, 5.38477612e+000, 5.73879623e+000,
          7.75922477e-001, 2.54866004e+000, 3.24097099e+001,
          1.49116879e+001, 1.96786022e+001, 1.45133996e+000,
          1.40919037e+001, 6.40969162e+001, 2.31959591e+001,
          2.17759228e+001, 5.83930111e+000, 4.77110596e+001,
          7.28625336e+001, 2.44386005e+001, 3.98981743e+001,
          2.08963108e+000, 0., 5.75735950e+000, 4.97056293e+000,
          1.45518446e+001, 1.72023296e+000, 4.89394045e+000,
          2.21354961e+001, 1.07695522e+001, 2.20379162e+001,
          1.21630945e+001, 1.46150208e+001, 3.17575626e+001,
          1.94680367e+001, 4.55541229e+001, 1.06052561e+001,
          1.54201946e+001, 3.49818268e+001, 3.06518040e+001,
          7.17454834e+001, 2.52006893e+001, 0., 9.02943707e+000,
          5.38477612e+000, 6.05112076e+000, 2.53466582e+000, 0.,
          2.92893219e+000, 6.21320343e+000, 4.99382973e+001,
          2.39195690e+001, 5.22407770e-001, 1.97791080e+001,
          2.77523079e+001, 7.52630692e+001, 5.68310642e+000,
          1.45486603e+001, 6.37528534e+001, 1.78111839e+001,
          7.89906311e+001, 2.38966694e+001, 1.19782519e+000,
          1.40742531e+001, 4.97056293e+000, 3.49615550e+000,
          2.61203885e-001, 7.83611596e-001, 1.60742531e+001,
          1.32548342e+001, 2.75263958e+001, 2.53609047e+001, 0.,
          1.33015156e+001, 1.94680367e+001, 4.64446335e+001,
          4.17858162e+001, 0., 1.92304478e+001, 2.73380947e+001,
          6.77838516e+001, 4.76476059e+001, 5.22407770e-001,
          1.63354568e+001, 4.55634928e+000, 5.85786462e-001, 0.,
          3.71913681e+001, 1.95659924e+001, 4.55634928e+000,
          1.31638842e+001, 5.22407770e-001, 3.95126457e+001,
          1.80020733e+001, 2.89949489e+000, 1.58578646e+000, 0.,
          3.31520462e+001, 1.10195274e+001, 8.28427136e-001, 0., 0.,
          1.77219677e+001, 1.04496050e+001, 8.28427136e-001, 0., 0.,
          9.26278877e+000, 2.73721170e+000, 0., 0., 0., 0., 0., 0., 0.,
          0., 0., 0., 0., 0., 0., 2.02635574e+001, 8.73644161e+000, 0.,
          0., 0., 3.61833477e+000, 1.38166523e+000, 0., 0., 0., 0., 0.,
          0., 0., 0., 0., 0., 0., 0., 0., 4.60299969e+000,
          1.21543598e+001, 3.31370854e+000, 2.92893219e+000, 0.,
          3.88148003e+001, 2.36999187e+001, 5.79898977e+000,
          8.68629169e+000, 0., 2.70159073e+001, 1.92561703e+001,
          6.62741709e+000, 7.10050488e+000, 0., 0., 3.92893219e+000,
          2.07106781e+000, 9.03095424e-001, 2.09690452e+000, 0.,
          1.16152239e+001, 7.45584393e+000, 3.92893219e+000, 0.,
          2.61203885e-001, 1.39398060e+001, 1.53259020e+001,
          3.07528553e+001, 1.72023296e+000, 9.36621308e-001,
          3.59090500e+001, 2.77523079e+001, 3.09429913e+001,
          1.45902908e+000, 2.49615550e+000, 3.31485062e+001,
          2.98233757e+001, 8.82395096e+001, 1.92924519e+001 ]
      - [ 0., 0., 6., 4.58578634e+000, 1.02426405e+001, 2.75735927e+000,
          4.14213568e-001, 0., 0., 0., 0., 2.01720977e+000,
          4.21606026e+001, 4.82218790e+000, 0., 0., 0., 4.65838356e+001,
          2.66302013e+001, 1.70955791e+001, 7.54517603e+000,
          2.80565858e+000, 1., 3.04016089e+000, 0., 1.21715727e+001,
          8.01312637e+001, 8.77189102e+001, 2.98444138e+001,
          5.33813810e+000, 7.95700729e-001, 0., 0., 1., 10., 10., 4., 0.,
          0., 0., 0., 4., 7., 9.02132130e+000, 4.99902878e+001,
          7.98839140e+000, 0., 2., 0., 6.38447237e+000, 1.69098721e+001,
          3.45873680e+001, 7.55403442e+001, 1.29025288e+001,
          4.67541742e+000, 1., 0., 1.58578646e+000, 1.24404659e+001,
          5.89192734e+001, 1.17363815e+002, 1.96906548e+001, 2., 0., 0.,
          9., 9., 0., 2., 2., 1., 0., 0., 6.58578634e+000,
          2.72426414e+001, 1.07573595e+001, 1.14142132e+001, 1., 1.,
          5.58578634e+000, 0., 2.66188469e+001, 2.76312103e+001,
          1.84023190e+001, 14., 3.58578634e+000, 7.24264050e+000,
          5.37103319e+000, 0., 2.43393898e+001, 2.24100075e+001,
          9.17157269e+000, 2.34142132e+001, 5.58578634e+000,
          1.44142132e+001, 4.14409399e+000, 0., 1., 1., 3.58578634e+000,
          4.82842731e+000, 3.58578634e+000, 6.58578634e+000, 3., 0.,
          1.78104305e+001, 8.65685463e+000, 2.17157292e+000,
          4.14213568e-001, 0., 0., 3.77896047e+000, 0., 4.68966913e+000,
          0., 0., 0., 0., 0., 5.41780233e-001, 0., 0., 0., 0., 0., 0.,
          0., 0., 0., 3.10784721e+000, 1.12839727e+001, 7.64495993e+000,
          1.58578646e+000, 0., 2., 1.82842708e+000, 0., 1.40279255e+001,
          0., 0., 0., 0., 0., 0., 0., 0., 0., 0., 0., 0., 0., 0., 0., 0.,
          0., 0., 0., 0., 0., 0., 0., 5., 12., 2., 0., 0., 0., 2., 0.,
          2.44096127e+001, 6.33227158e+000, 3.91036892e+000,
          1.67541742e+000, 5.85786462e-001, 4.41421366e+000,
          2.80112839e+000, 0., 2.30847607e+001, 1.82842708e+000, 0., 0.,
          0., 0., 5.17498732e-001, 0., 1.12855930e+001, 1.50221109e-001,
          0., 0., 0., 0., 5.04440129e-001, 0., 2., 7.82842731e+000,
          8.17157269e+000, 1., 0., 0., 2., 0., 8.58578682e+000,
          2.48284264e+001, 1.69289322e+001, 2.09173546e+001,
          6.73949957e+000, 1., 0., 0., 1.47573595e+001, 2.82426414e+001,
          1.04036446e+001, 4.71155396e+001, 1.34808168e+001, 7., 4., 0.,
          1.02107563e+001, 16., 2.22516212e+001, 5.06619606e+001,
          2.40864201e+001, 5., 7.68173933e+000, 0., 1., 2.41421366e+000,
          8.17157269e+000, 6.41421366e+000, 3., 0., 5.85786462e-001, 0.,
          0., 2.26120377e+000, 5.73664236e+000, 5.06368408e+001,
          7.95109892e+000, 4.14213568e-001, 0., 0., 6.04359531e+000,
          2.43399715e+000, 0., 5.07448006e+000, 1.92552006e+000, 0., 0.,
          0., 2.41985264e+001, 1.98544617e+001, 3.00420523e+000,
          8.16878414e+000, 8.26678085e+000, 8.25638533e-001, 0., 0.,
          6.85786438e+000, 5.38477612e+000, 2.75735927e+000, 0., 0.,
          6.85786438e+000, 5.38477612e+000, 1.01714478e+001,
          8.58591175e+000, 4.90695572e+001, 5.43740921e+001,
          7.04163074e+000, 8.16388416e+000, 1.35083485e+000,
          4.96287346e+000, 1.44444199e+002, 4.14213562e+001,
          5.08194208e+000, 1.08963096e+000, 0., 1.27157288e+001,
          8.28427124e+000, 0., 0., 3.27415490e+000, 1.56131468e+001,
          1.65685425e+001, 1.05441561e+001, 0., 2.38290482e+001,
          3.99871864e+001, 2.11248913e+001, 2.27976704e+001,
          2.61203885e-001, 2.50384450e+000, 7.16433411e+001,
          3.89360733e+001, 2.49167385e+001, 0., 0., 1.13725834e+001,
          7.87005758e+000, 1.75735927e+000, 0., 0., 2.96740990e+001,
          1.82253971e+001, 5.10050488e+000, 0., 1.48251371e+001,
          5.36357574e+001, 2.65096684e+001, 1.27682333e+001,
          2.61203885e-001, 1.79227772e+001, 4.24081726e+001,
          2.36101723e+001, 1.91589718e+001, 8.99901807e-001, 0.,
          4.10050488e+000, 5.79898977e+000, 1.00556898e+001,
          1.04481554e+000, 2.22384644e+001, 2.48620396e+001,
          4.55634928e+000, 6.92893219e+000, 4.14213568e-001,
          8.78190899e+000, 3.80387712e+000, 4.14213568e-001,
          1.64495981e+000, 1.35504019e+000, 0., 0., 0., 0., 0.,
          3.32458258e+000, 1.77759228e+001, 4.14213562e+000,
          3.75735927e+000, 0., 2.20750446e+001, 6.92495632e+000, 0., 0.,
          0., 0., 0., 0., 0., 0., 0., 0., 0., 0., 0., 0.,
          1.23725834e+001, 7.45584393e+000, 1.17157292e+000, 0.,
          2.18783779e+001, 3.05652714e+001, 7.45584393e+000,
          8.10050488e+000, 0., 2.00554924e+001, 2.32165852e+001,
          3.72792196e+000, 2.58578634e+000, 4.14213568e-001,
          1.39944124e+001, 8.00558758e+000, 8.28427136e-001,
          2.17157292e+000, 0., 0., 1.17867966e+001, 7.04163074e+000,
          1.17157292e+000, 0., 0., 3.31177483e+001, 2.40243874e+001,
          6.06240129e+000, 7.95462847e-001, 0., 3.71177483e+001,
          2.69238815e+001, 1.88053799e+001, 1.41529894e+001,
          1.52240777e+000, 4.07669144e+001, 3.06518040e+001,
          2.71029148e+001, 2.09559593e+001, 0., 7.44365072e+000,
          6.21320343e+000, 2.34314585e+000, 0., 6.75417423e-001,
          1.16677284e+001, 7.04163074e+000, 1.79524612e+001,
          8.66276264e+000, 5.07009745e+000, 3.92990279e+000, 0.,
          1.01572621e+000, 2.98427367e+000, 2.70520134e+001,
          2.02911320e+001, 3.72792196e+000, 8.48528099e+000,
          2.44365072e+000, 0., 5.85786462e-001, 4.97056293e+000,
          1.31824465e+001, 2.61203885e-001, 0., 0., 0., 8.89654732e+000,
          4.01034546e+001, 5.31188698e+001, 2.83958473e+001,
          1.11837664e+001, 2.56523495e+001, 2.64916515e+000, 0.,
          9.37258339e+000, 4.39066391e+001, 1.01216934e+002,
          2.50384450e+000, 0., 5.85786462e-001, 6.21320343e+000,
          8.20100975e+000, 0., 0., 5.27207804e+000, 1.15979795e+001,
          3.77396965e+001, 2.13902435e+001, 6.10953093e+000,
          4.06204176e+000, 1.28406200e+001, 7.38067093e+001,
          4.41810989e+001, 0., 1.17157292e+000, 2.23675327e+001,
          1.42538940e+002, 3.69219589e+001, 0., 7.02943707e+000,
          6.62741709e+000, 2.34314585e+000, 0., 0., 1.17867966e+001,
          1.57401152e+001, 1.44730883e+001, 0., 2.49198322e+001,
          3.77248306e+001, 2.44386005e+001, 2.49167385e+001, 0.,
          4.14491119e+001, 2.62666168e+001, 2.23675327e+001,
          2.49167385e+001, 0., 0., 6.10050488e+000, 5.38477612e+000,
          9.25351429e+000, 2.61203885e-001, 4.09682159e+001,
          1.85465012e+001, 2.89949489e+000, 2.58578634e+000, 0.,
          1.91038704e+001, 3.89613032e+000, 0., 0., 0., 0., 0., 0., 0.,
          0., 2.31713843e+000, 6.85443449e+000, 3.72792196e+000,
          8.57809734e+000, 5.22407770e-001, 3.21497192e+001,
          5.85027885e+000, 0., 0., 0., 0., 0., 0., 0., 0., 0., 0., 0.,
          0., 0., 0., 7.85786438e+000, 4.97056293e+000, 1.17157292e+000,
          0., 3.55773544e+001, 2.56947231e+001, 4.97056293e+000,
          5.49615526e+000, 2.61203885e-001, 3.86684723e+001,
          1.68462486e+001, 2.48528147e+000, 0., 0., 2.95417900e+001,
          6.45820951e+000, 0., 0., 0., 0., 2.92893219e+000,
          6.21320343e+000, 5.85786438e+000, 0., 0., 6.44365072e+000,
          1.49116879e+001, 3.07549152e+001, 3.88974595e+000, 0.,
          2.33309517e+001, 2.31959591e+001, 3.04639511e+001,
          3.10091381e+001, 9.37802315e+000, 3.01661320e+001,
          1.82253971e+001, 5.09811058e+001, 3.52493401e+001, 0.,
          3.34314585e+000, 8.28427124e+000, 1.13725834e+001, 0., 0., 0.,
          2.07106781e+000, 1.90881786e+001, 4.38407555e+001,
          5.10789728e+000, 3.89210296e+000, 0., 1.23383653e+000,
          5.76616335e+000, 2.17920628e+001, 1.27937241e+001,
          2.89949489e+000, 1.38203316e+001, 4.69438744e+000 ]
      - [ 0., 0., 0., 2., 5.07106781e+000, 7.68629169e+000,
          8.77345943e+000, 4.64075470e+000, 0., 1., 3.41421366e+000,
          1.17157292e+000, 3.65685415e+000, 1.27573595e+001,
          3.63550415e+001, 2.37083378e+001, 0., 5.85786462e-001,
          5.85786462e-001, 2.87291908e+000, 5.65141106e+001,
          2.51987553e+001, 8.82842731e+000, 7.41421366e+000, 0., 0., 0.,
          0., 0., 0., 0., 0., 0., 0., 0., 0., 0., 4.64495993e+000,
          1.43963718e+001, 9.54445457e+000, 0., 3.49615550e+000,
          1.62545357e+001, 2.03904247e+001, 1.60118942e+001,
          8.75735950e+000, 3.82842708e+000, 5., 0., 1.10777369e+001,
          2.27506905e+001, 1.52016172e+001, 1.13192940e+001,
          4.35886803e+001, 1.78007793e+001, 8.43277645e+000, 0., 0., 1.,
          0., 4.29407310e+000, 2.71344967e+001, 7.57143021e+000, 0., 0.,
          1.58578646e+000, 4.14213568e-001, 0., 0., 3.17157292e+000,
          8.65685463e+000, 1.43431454e+001, 0., 1.69737473e+001,
          1.95685520e+001, 1.23123798e+001, 1.11453209e+001,
          9.15300941e+000, 8., 5.32458258e+000, 0., 1.62241879e+001,
          1.27506905e+001, 1.16635227e+001, 1.74852810e+001,
          1.46677284e+001, 1.80076885e+001, 2.84065247e+001, 0.,
          7.06304836e+000, 2.18097973e+000, 3.02302742e+000,
          2.79512901e+001, 2.52711811e+001, 2.46725597e+001,
          3.95078773e+001, 0., 0., 0., 0., 0., 1., 1.63711395e+001,
          1.16288605e+001, 0., 3.18429146e+001, 6.75376129e+000, 1.,
          9.05322647e+000, 6.53256035e+000, 1., 4.58955336e+000, 0.,
          2.01631660e+001, 2.61203885e-001, 0., 0., 0., 0.,
          1.10227585e-001, 0., 2.77775717e+000, 1.31886709e+000, 0., 0.,
          0., 0., 2.75059283e-001, 0., 1., 0., 2.58578634e+000, 6.,
          4.73879623e+000, 8.92226315e+000, 5.66352320e+000, 0.,
          1.30576382e+001, 1.00064611e+000, 0., 1., 0., 4.14213568e-001,
          4.14734650e+000, 0., 0., 0., 0., 0., 0., 0., 0., 0., 0., 0.,
          0., 0., 0., 0., 0., 0., 1.58578646e+000, 5., 5.,
          3.50804996e+000, 6.40231895e+000, 2.08963108e+000, 3.,
          1.23899341e-001, 1.88500919e+001, 2.98901558e+001,
          3.96427989e+000, 1.17157292e+000, 0., 0., 0., 0., 0., 0., 0.,
          0., 0., 0., 0., 0., 0., 0., 0., 0., 0., 0., 0., 0.,
          4.58578634e+000, 3.82842708e+000, 5.85786462e-001,
          4.14213568e-001, 6.75735950e+000, 5.82842731e+000, 2., 0.,
          3.14747000e+000, 3.64882317e+001, 9.53586960e+000,
          8.28427136e-001, 3.06337857e+000, 4.93662119e+000,
          1.58578646e+000, 0., 0., 0., 0., 0., 0., 0., 0., 0., 0., 0.,
          0., 0., 0., 0., 0., 0., 9.17157269e+000, 4.82842731e+000,
          1.17157292e+000, 6.24264050e+000, 5.32458258e+000,
          1.26120389e+000, 0., 0., 5.90339327e+000, 2.34964600e+001,
          1.60555038e+001, 8.89547729e+000, 6.40652466e+000,
          4.82842731e+000, 5., 0., 2.20481202e-001, 9.25440598e+000,
          2.28078461e+001, 1.75217667e+001, 1.95499808e-001, 0., 0., 0.,
          0., 0., 0., 0., 0., 0., 0., 0., 1.75735927e+000,
          5.38477612e+000, 1.82458248e+001, 1.61203873e+000, 0.,
          4.75735950e+000, 1.61543293e+001, 5.88008537e+001,
          3.28745627e+000, 4.97174454e+000, 3.78561497e+000,
          9.52691174e+000, 2.78478546e+001, 3.08678741e+001, 0., 0., 0.,
          0., 0., 0., 0., 4.55634928e+000, 2.00819416e+001,
          4.36170912e+000, 2.13444638e+000, 3.13386421e+001,
          1.57401152e+001, 1.17867966e+001, 0., 2.76504850e+000,
          4.12938271e+001, 1.40832615e+001, 2.11262684e+001,
          4.97315979e+001, 0., 1., 0., 7.71107340e+000, 2.82889271e+001,
          0., 1.58578646e+000, 4.14213562e+000, 2.24884663e+001,
          7.83611596e-001, 5.82073784e+000, 4.07234192e+001,
          1.40832615e+001, 1.88501759e+001, 5.22407770e-001,
          2.34869599e+000, 3.40533257e+001, 3.02375908e+001,
          4.59013596e+001, 1.45902908e+000, 1.19516301e+000,
          1.35916338e+001, 3.02375908e+001, 8.26553116e+001,
          2.83203049e+001, 0., 0., 3.31370854e+000, 2.22087002e+001,
          3.47759223e+000, 2.77866211e+001, 2.30712433e+001,
          6.62741709e+000, 1.49923105e+001, 5.22407770e-001,
          2.58277988e+001, 1.95153465e+001, 2.89949489e+000,
          2.75735927e+000, 0., 3.97235346e+000, 1.02764654e+000, 0.,
          2.39121154e-001, 7.60878861e-001, 0., 2.34314585e+000,
          4.55634928e+000, 1.67125435e+001, 2.38796115e+000,
          1.53880901e+001, 8.78348255e+000, 4.55634928e+000,
          1.29212427e+001, 1.35083485e+000, 0., 0., 0., 0., 0., 0., 0.,
          0., 0., 0., 2.61203885e-001, 9.42508793e+000, 5.79898977e+000,
          9.57809734e+000, 9.36621308e-001, 4.25396919e+001,
          1.02176666e+001, 1.24264073e+000, 0., 0., 0., 0., 0., 0., 0.,
          0., 0., 0., 0., 0., 0., 8.51471901e+000, 7.87005758e+000,
          9.61522388e+000, 0., 4.19425354e+001, 7.64324951e+000,
          1.65685427e+000, 7.71254396e+000, 1.04481554e+000, 0., 0., 0.,
          0., 0., 0., 0., 0., 0., 0., 0., 1.14436512e+001,
          5.79898977e+000, 5.23495150e+000, 5.22407770e-001,
          2.46002617e+001, 1.56007490e+001, 1.07695522e+001,
          1.30294371e+001, 0., 3.27565918e+001, 8.24340630e+000,
          4.14213568e-001, 1.58578646e+000, 0., 0., 0., 0., 0., 0., 0.,
          7.68629169e+000, 5.79898977e+000, 1.35780973e+001,
          9.36621308e-001, 1.30601943e+000, 2.77528553e+001,
          1.36690474e+001, 1.60108738e+001, 2.61203885e-001,
          7.83611596e-001, 1.90742531e+001, 6.62741709e+000,
          1.47259293e+001, 6.87887878e+001, 0., 0., 0., 0., 0., 0.,
          9.27207756e+000, 6.21320343e+000, 5.51471853e+000, 0.,
          2.61203885e-001, 1.16971655e+001, 2.23675327e+001,
          3.37374763e+001, 9.36621308e-001, 2.61203885e-001,
          2.74839630e+001, 1.82253971e+001, 3.00149136e+001,
          4.80145226e+001, 0., 0., 0., 7.14567709e+000, 2.78543224e+001,
          0., 1.62010098e+001, 7.04163074e+000, 2.75735927e+000, 0.,
          2.35083485e+000, 2.87791080e+001, 1.57401152e+001,
          2.85889721e+001, 3.54097104e+000, 7.72301435e+000,
          5.11226578e+001, 2.81665230e+001, 3.37899818e+001,
          1.19782519e+000, 5.13175774e+001, 4.75991631e+001,
          2.15391045e+001, 3.34152107e+001, 1.81289444e+001, 0.,
          1.17867966e+001, 7.04163074e+000, 1.17157292e+000, 0.,
          3.78030853e+001, 2.17116356e+001, 3.72792196e+000,
          1.29474955e+001, 2.80986404e+000, 5.02561417e+001,
          1.27438583e+001, 0., 0., 0., 7.25433588e+000, 1.74566424e+000,
          0., 0., 0., 2.61203885e-001, 8.66772842e+000, 4.55634928e+000,
          1.13168936e+001, 1.19782519e+000, 4.37601051e+001,
          1.08256826e+001, 4.14213568e-001, 1., 0., 0., 0., 0., 0., 0.,
          0., 0., 0., 0., 0., 0., 3.92893219e+000, 5.38477612e+000,
          1.40108738e+001, 6.75417423e-001, 2.20450268e+001,
          7.54076004e+000, 1.65685427e+000, 6.39466906e+000,
          5.36269045e+000, 0., 0., 0., 0., 0., 0., 0., 0., 0., 0.,
          7.83611596e-001, 8.73110676e+000, 5.79898977e+000,
          5.68629169e+000, 0., 3.42141223e+000, 1.00933065e+001,
          3.31370854e+000, 1.21630640e+001, 2.00085087e+001, 0., 0., 0.,
          0., 0., 0., 0., 0., 0., 0., 0., 6.85786438e+000,
          7.04163074e+000, 1.11005049e+001, 0., 5.22407770e-001,
          1.60217476e+001, 1.61543293e+001, 2.29798775e+001,
          1.33216381e+001, 0., 1.17157292e+000, 8.28427136e-001,
          6.85852098e+000, 3.81414795e+001, 0., 0., 0., 0., 0. ]
      - [ 0., 1.58578646e+000, 4.82842731e+000, 4.75735950e+000,
          5.48528147e+000, 7.92893219e+000, 5., 5.85786462e-001, 0.,
          8.28427136e-001, 2.73600745e+000, 6.63100910e+000,
          4.32253838e+001, 1.70644531e+001, 8.92893219e+000, 5., 0., 0.,
          0., 2.42899731e-001, 3.29540253e+001, 4.80307388e+000, 0., 0.,
          0., 0., 0., 0., 0., 0., 0., 0., 0., 1.41421354e+000,
          2.82842708e+000, 4.04829931e+000, 7.21710968e+000,
          1.32037723e+000, 3.58578634e+000, 1., 0., 2.17157292e+000,
          5.41421366e+000, 6.22654104e+000, 3.47390366e+001,
          2.50525799e+001, 2.56763005e+000, 6., 0., 1.73161716e+001,
          1.93301163e+001, 9.35443115e+000, 3.85051613e+001,
          1.88501244e+001, 1.33008490e+001, 6.49615526e+000, 0., 6., 9.,
          3.27838254e+000, 4.41239243e+001, 3.79031029e+001,
          1.36945877e+001, 2., 0., 2.13383889e+000, 4.58578634e+000,
          4.32037735e+000, 1.00938368e+001, 5.85786462e-001,
          3.41421366e+000, 2.17157292e+000, 0., 1.41715727e+001,
          8.08963108e+000, 6.98810577e+000, 1.59569263e+001,
          8.30427742e+000, 1.65431499e+001, 1.07783623e+001, 0., 2., 13.,
          9.17157269e+000, 3.07692547e+001, 2.14924469e+001,
          4.63809776e+001, 1.23573236e+001, 0., 1.20742378e+001,
          2.32426414e+001, 1.91715736e+001, 27., 2., 1.16986361e+001,
          3.19493237e+001, 0., 7.17157269e+000, 2.41421366e+000,
          5.85786462e-001, 5.50804996e+000, 3.38375592e+000,
          1.52240777e+000, 0., 0., 2.65967388e+001, 1.41421356e+001,
          1.05147190e+001, 0., 0., 2.61203885e-001, 9.81653309e+000, 0.,
          2.81044044e+001, 1.26585550e+001, 3.15022111e+000,
          4.58578634e+000, 0., 5.91805792e+000, 1.49531040e+001, 0.,
          1.16126323e+000, 0., 0., 0., 0., 0., 1.04269295e+001, 0.,
          9.96533680e+000, 4.14213568e-001, 0., 0., 1.58578646e+000,
          2.41421366e+000, 1., 0., 1.97182503e+001, 2.08428192e+001,
          2.16146827e+000, 1., 2., 1.15022111e+000, 4.22365332e+000, 0.,
          1.11045635e+000, 1., 0., 0., 0., 0., 1.13918900e-001, 0., 0.,
          0., 0., 0., 0., 0., 0., 0., 5.91036892e+000, 11., 0., 0., 0.,
          1., 0., 0., 2.21476841e+001, 5.50384474e+000, 1.58578646e+000,
          0., 1., 2., 8.47791958e+000, 0., 3.55185661e+001,
          6.09745216e+000, 0., 1., 5.85786462e-001, 2.41421366e+000,
          4.74876106e-001, 0., 1.18512535e+001, 6.85279369e-001, 0., 2.,
          0., 4.14213568e-001, 4.30282402e+000, 0., 1., 4.,
          2.17157292e+000, 7.82842731e+000, 0., 2., 0., 0., 6.,
          1.14142132e+001, 2.69289322e+001, 2.16568546e+001,
          8.58578682e+000, 2.41421366e+000, 1., 0., 6.34314585e+000, 11.,
          1.86342907e+001, 5.50468330e+001, 1.03188772e+001,
          4.41421366e+000, 7.17157269e+000, 0., 1.80406094e+001,
          9.26120377e+000, 1.51681328e+001, 5.80645905e+001,
          2.36433773e+001, 1.11238995e+001, 5.85786462e-001, 0., 0., 0.,
          1.24264073e+000, 1.24142132e+001, 1.39289322e+001,
          1.41421354e+000, 0., 0., 0., 4.68219233e+000, 1.02742844e+001,
          4.81135979e+001, 9.51571274e+000, 5.41421366e+000, 1., 0., 0.,
          0., 0., 1.23751650e+001, 4.62483549e+000, 0., 0., 0., 0., 0.,
          0., 0., 0., 0., 0., 2.61203885e-001, 8.83930111e+000,
          7.04163074e+000, 1.13354568e+001, 5.22407770e-001,
          1.07737026e+001, 8.74101543e+000, 1.57401152e+001,
          3.49492950e+001, 2.79586959e+000, 0., 2.92893219e+000,
          2.48528147e+000, 3.76810026e+000, 8.81768608e+000, 0., 0., 0.,
          0., 0., 0., 8.10050488e+000, 4.97056293e+000, 4.40652466e+000,
          5.22407770e-001, 0., 1.23725834e+001, 1.94680367e+001,
          3.23449020e+001, 4.81447601e+000, 3.99231076e+000,
          3.63386421e+001, 1.98822517e+001, 2.49656200e+001,
          2.28211765e+001, 3.64470887e+000, 1.32131557e+001,
          1.78111839e+001, 3.54940910e+001, 2.68368607e+001,
          7.83611596e-001, 1.03168936e+001, 4.14213562e+000,
          5.75735950e+000, 0., 5.22407770e-001, 2.21222534e+001,
          1.49116879e+001, 2.53793659e+001, 1.00642843e+001, 0.,
          1.46446609e+001, 2.36101723e+001, 5.56932564e+001,
          1.70519085e+001, 0., 3.57035370e+001, 2.69238815e+001,
          2.88087654e+001, 3.35638199e+001, 0., 7.27207804e+000,
          4.55634928e+000, 4.38796139e+000, 7.83611596e-001,
          6.48754168e+000, 4.66718369e+001, 1.61543293e+001,
          8.42508793e+000, 2.61203885e-001, 3.48548088e+001,
          2.24172707e+001, 9.52691174e+000, 2.02688904e+001,
          5.93212032e+000, 1.60784817e+000, 2.56372476e+000,
          1.65685427e+000, 6.06334257e+000, 1.61082306e+001, 0.,
          1.04436512e+001, 5.79898977e+000, 3.49615550e+000,
          2.61203885e-001, 3.56117821e+001, 1.82460804e+001,
          6.62741709e+000, 7.68547773e+000, 2.82924080e+000,
          2.55091333e+000, 1.44908655e+000, 0., 5.85786462e-001,
          4.14213568e-001, 0., 0., 0., 0., 0., 0., 1.19583693e+001,
          7.45584393e+000, 5.85786462e-001, 0., 4.13905859e+000,
          3.39908829e+001, 1.07695522e+001, 9.13486958e+000,
          7.96563578e+000, 3.57441864e+001, 2.53563194e+001,
          3.72792196e+000, 2.75386071e+000, 1.41771209e+000,
          1.72031021e+001, 8.96847057e+000, 2.07106781e+000,
          6.05462265e+000, 2.70273685e+000, 0., 4.68629169e+000,
          4.14213562e+000, 1.17157292e+000, 0., 0., 2.73603897e+001,
          2.36101723e+001, 8.02943707e+000, 0., 0., 2.58456707e+001,
          2.23675327e+001, 1.69922142e+001, 8.79458237e+000,
          3.47307754e+000, 3.41299515e+001, 2.65096684e+001,
          2.05734425e+001, 2.13138580e+001, 0., 1.75735927e+000,
          7.45584393e+000, 1.07867966e+001, 0., 1.38596201e+001,
          9.82667160e+000, 7.87005758e+000, 1.42603292e+001,
          1.11833210e+001, 0., 0., 0., 2.57533574e+000, 8.42466450e+000,
          0., 0., 0., 0., 0., 0., 3.17157292e+000, 6.21320343e+000,
          1.56152239e+001, 0., 6.75417423e-001, 9.93980598e+000,
          7.45584393e+000, 3.05392628e+001, 3.53896713e+001, 0., 0., 0.,
          4.52184582e+000, 3.34781532e+001, 0., 0., 0., 0., 0.,
          5.22407770e-001, 3.64916515e+000, 3.31370854e+000,
          9.24264050e+000, 2.27207804e+000, 0., 8.10050488e+000,
          8.28427124e+000, 4.56633224e+001, 1.79519005e+001,
          1.82842708e+000, 3.85025253e+001, 1.94680367e+001,
          3.21415405e+001, 3.70594711e+001, 0., 1.35441561e+001,
          1.44974747e+001, 3.08862438e+001, 5.00721245e+001,
          1.76504838e+000, 5.40652466e+000, 3.72792196e+000,
          1.13354568e+001, 1.76504838e+000, 2.54097104e+000,
          3.21747589e+001, 1.53259020e+001, 2.59321175e+001,
          2.02625227e+000, 1.98143685e+000, 2.23911457e+001,
          2.36101723e+001, 4.70358086e+001, 1.98143685e+000,
          4.43777237e+001, 2.82669392e+001, 3.02375908e+001,
          2.91177483e+001, 0., 0., 9.27207756e+000, 4.55634928e+000,
          8.34314537e+000, 8.28427136e-001, 1.37673120e+001,
          4.71910591e+001, 1.11837664e+001, 9.85786438e+000, 0.,
          5.49565430e+001, 3.00728931e+001, 6.62741709e+000,
          6.82073784e+000, 5.22407770e-001, 3.18277931e+001,
          6.17220592e+000, 0., 0., 0., 2.91805816e+000, 1.71824474e+001,
          3.72792196e+000, 1.17157292e+000, 0., 3.98426132e+001,
          1.69147453e+001, 3.31370854e+000, 6.94105101e+000,
          2.98788118e+000, 7.14148998e+000, 1.85850978e+000, 0., 0., 0.,
          0., 0., 0., 0., 0., 5.22407770e-001, 7.82073784e+000,
          1.65685427e+000, 0., 0., 3.08366432e+001, 4.06070061e+001,
          5.79898977e+000, 1.75735927e+000, 0., 5.55949020e+001,
          2.69198170e+001, 3.31370854e+000, 1.17157292e+000, 0.,
          3.99104919e+001, 1.22610798e+001, 1.65685427e+000,
          1.17157292e+000, 0., 0., 1.17157292e+000, 4.14213562e+000,
          6.68629169e+000, 0., 0., 7.02943707e+000, 2.27817459e+001,
          3.94128952e+001, 7.75922477e-001, 4.14213568e-001,
          1.67867966e+001, 2.60954552e+001, 3.89833908e+001,
          2.47201462e+001, 2.24264073e+000, 2.55441551e+001,
          2.11248913e+001, 4.25192680e+001, 3.95690460e+001, 0., 0.,
          5.79898977e+000, 2.14173985e+001, 7.83611596e-001, 0.,
          1.75735927e+000, 6.62741709e+000, 1.91761761e+001,
          4.64390488e+001, 0., 0., 0., 2.25650144e+000, 1.47434988e+001,
          0., 0., 0., 0., 0. ]
      - [ 0., 1., 3.39504290e+000, 6.92953968e+000, 1.93662131e+000,
          5.73879623e+000, 4.08963108e+000, 3.38796115e+000, 0., 0.,
          6.71220016e+000, 1.51607380e+001, 3.82251167e+001,
          9.07351971e+000, 9.82842731e+000, 3., 0., 0., 0.,
          4.33239841e+000, 2.63955727e+001, 2.72028655e-001, 2., 0., 0.,
          0., 0., 0., 0., 0., 0., 0., 4.14213568e-001, 4.32037735e+000,
          8.35924530e+000, 6.22654104e+000, 1.67962277e+000,
          2.07106781e+000, 3.34314585e+000, 1.58578646e+000, 0., 0.,
          5.41421366e+000, 1.76304893e+001, 4.93773117e+001,
          1.75779858e+001, 0., 0., 0., 1.58578646e+000, 3.67541742e+000,
          9.53286552e+000, 5.65876770e+001, 3.95410538e+001,
          2.28602180e+001, 5.56012821e+000, 0., 1.57573595e+001,
          2.64852810e+001, 1.23234215e+001, 5.99912605e+001,
          1.56142483e+001, 3.82842708e+000, 5.58578634e+000, 0.,
          9.75735950e+000, 8.82842731e+000, 2., 2., 3., 2.58578634e+000,
          4.14213568e-001, 0., 2.69923115e+001, 1.66568546e+001, 2., 0.,
          3., 1., 6., 0., 1.39289322e+001, 8.82842731e+000,
          2.58578634e+000, 8.41421318e+000, 7.26120377e+000,
          5.21719055e+001, 3.88018417e+001, 0., 1.19103689e+001,
          2.18284264e+001, 1.31715727e+001, 26., 1.80633793e+001,
          3.45605545e+001, 3.79529190e+001, 0., 7.75735950e+000, 9.,
          4.14213568e-001, 1., 0., 3., 2.58578634e+000, 0.,
          2.45199375e+001, 1.93971920e+001, 2.73879623e+000,
          3.67541742e+000, 5.85786462e-001, 5.65685415e+000,
          1.05451603e+001, 0., 1.96900501e+001, 3.64717841e+000,
          3.17157292e+000, 2., 0., 0., 4.16921520e+000, 0.,
          1.17908201e+001, 3.67829919e-001, 0., 0., 0., 0.,
          1.54243290e-001, 0., 7.73879623e+000, 3., 5.85786462e-001, 2.,
          0., 2.82842708e+000, 7.25351477e+000, 0., 1.37184086e+001,
          1.82842708e+000, 0., 0., 0., 1., 1.53483629e+001, 0., 0., 0.,
          0., 0., 0., 0., 0., 0., 0., 0., 0., 0., 0., 0., 0., 0., 1.,
          3.70825505e+000, 4.95612812e+000, 3.13491535e+000,
          5.78648806e+000, 2.41421366e+000, 1., 0., 1.85593834e+001,
          6.26121521e+000, 1.17157292e+000, 2.09383631e+000,
          9.06163692e-001, 3., 1.68092289e+001, 0., 1.99784222e+001,
          6.07106781e+000, 2.75735927e+000, 1., 0., 9.09383678e+000,
          1.47524700e+001, 0., 1.10340424e+001, 1.40710678e+001, 5., 4.,
          1., 3.41421366e+000, 6.09030151e+000, 0., 4.11895514e+000,
          2.71510029e+000, 2.62818003e+000, 3.46423030e+000,
          2.14994788e+000, 6.07716417e+000, 5.72293901e+000, 0.,
          1.01715727e+001, 9., 4., 1.88388824e+001, 4.97037363e+000,
          1.08661613e+001, 5.91036892e+000, 0., 1.05857868e+001,
          1.82426414e+001, 1.15179462e+001, 4.06530914e+001,
          1.30005341e+001, 1.14142132e+001, 3.58578634e+000, 0.,
          1.04142132e+001, 9., 1.34168034e+001, 5.34545174e+001,
          5.12867880e+000, 6., 9.58578682e+000, 0., 4.05190611e+000,
          5.30768013e+000, 1.06309450e+000, 4., 4.17157269e+000,
          4.82842731e+000, 1.41421354e+000, 0., 0., 1., 5.55174923e+000,
          4.30853996e+001, 5.36285019e+000, 1., 0., 0., 0., 0., 0.,
          3.62051988e+000, 3.79480094e-001, 0., 0., 0., 0., 0., 0., 0.,
          0., 0., 0., 1.16110563e+000, 9.59625340e+000, 3.72792196e+000,
          1.09923105e+001, 5.22407770e-001, 1.99119663e+001,
          8.25960732e+000, 9.11269855e+000, 2.26260986e+001,
          1.08963096e+000, 7.94264698e+000, 5.22892618e+000,
          3.31370854e+000, 5.51471853e+000, 0., 0., 0., 0., 0., 0.,
          1.08963096e+000, 1.49398060e+001, 6.62741709e+000,
          4.82842731e+000, 5.14718652e-001, 0., 2.06446609e+001,
          1.94680367e+001, 1.58873014e+001, 0., 7.83611596e-001,
          1.67605438e+001, 2.27817459e+001, 5.38268242e+001,
          1.78472729e+001, 9.36621308e-001, 4.58379822e+001,
          2.40243874e+001, 1.89159050e+001, 1.62851048e+001, 0.,
          1.35441561e+001, 9.52691174e+000, 3.66772842e+000,
          2.61203885e-001, 0., 3.52598839e+001, 1.98822517e+001,
          5.85786438e+000, 0., 6.75417423e-001, 1.92118835e+001,
          2.07106781e+001, 6.95659256e+001, 2.18360901e+001, 0.,
          3.16030312e+001, 3.06518040e+001, 6.56241837e+001,
          3.01209793e+001, 7.83611596e-001, 1.39026794e+001,
          5.79898977e+000, 3.51471853e+000, 0., 2.72667694e+001,
          2.19342403e+001, 9.94112587e+000, 1.70742531e+001,
          7.83611596e-001, 2.47754841e+001, 2.15676613e+001,
          4.55634928e+000, 7.60795021e+000, 3.49255490e+000,
          1.23545675e+001, 3.64543247e+000, 4.14213568e-001, 1.,
          5.85786462e-001, 2.61203885e-001, 9.25351429e+000,
          6.21320343e+000, 8.27207756e+000, 0., 1.28316936e+001,
          1.34403849e+001, 4.55634928e+000, 9.48161125e+000,
          1.76899605e+001, 0., 0., 0., 0., 0., 0., 0., 0., 0., 0.,
          3.22766924e+000, 6.94390345e+000, 3.72792196e+000,
          6.91036892e+000, 1.19013608e+000, 1.14886847e+001,
          1.93691788e+001, 1.28406200e+001, 1.67791080e+001,
          5.22407770e-001, 1.72317429e+001, 2.23834801e+001,
          1.07695522e+001, 2.51257362e+001, 4.48948669e+000,
          2.56629157e+000, 3.01494370e+001, 1.32548342e+001,
          1.12010098e+001, 8.28427136e-001, 3.82087183e+000,
          7.35070086e+000, 2.48528147e+000, 8.23643112e+000,
          7.10671473e+000, 1.19013608e+000, 1.56971655e+001,
          1.53259020e+001, 1.41576023e+001, 4.62919474e+000, 0.,
          3.13309517e+001, 2.36101723e+001, 1.88386211e+001,
          1.02202530e+001, 0., 2.68456707e+001, 2.56812401e+001,
          1.54730883e+001, 0., 3.60753465e+000, 6.49297047e+000,
          6.21320343e+000, 7.68629169e+000, 0., 6.96633768e+000,
          6.54838085e+000, 4.55634928e+000, 6.46013546e+000,
          1.04687967e+001, 0., 0., 0., 1.68074355e-001, 8.31925631e-001,
          0., 0., 0., 0., 0., 7.83611596e-001, 6.73110723e+000,
          5.38477612e+000, 1.19026794e+001, 1.19782519e+000, 0.,
          2.92893219e+000, 6.21320343e+000, 2.07312412e+001,
          4.31266212e+001, 0., 0., 0., 3.36030841e+000, 2.76396923e+001,
          0., 0., 0., 0., 0., 0., 5.10050488e+000, 5.38477612e+000,
          8.83930111e+000, 6.75417423e-001, 0., 0., 1.36690474e+001,
          6.12983284e+001, 1.00326223e+001, 5.22407770e-001,
          1.39212427e+001, 1.61543293e+001, 6.27160072e+001,
          4.16860161e+001, 2.61203885e-001, 2.36555347e+001,
          2.73380947e+001, 3.28338661e+001, 4.39113007e+001, 0.,
          8.02943707e+000, 7.87005758e+000, 4.10050488e+000, 0.,
          1.56722319e+000, 4.72784462e+001, 1.82253971e+001,
          2.92893219e+000, 0., 3.02625227e+000, 7.47777863e+001,
          3.06518040e+001, 1.45441561e+001, 0., 3.32237358e+001,
          4.28645744e+001, 3.27228699e+001, 4.28827972e+001,
          1.30601943e+000, 0., 1.20294371e+001, 5.79898977e+000,
          1.17157292e+000, 0., 2.91190224e+001, 3.56677742e+001,
          7.45584393e+000, 6.23495150e+000, 5.22407770e-001,
          5.48858299e+001, 1.66999550e+001, 1.65685427e+000,
          4.49615526e+000, 2.61203885e-001, 2.12223110e+001,
          3.77768922e+000, 0., 0., 0., 5.22407770e-001, 1.89212437e+001,
          5.79898977e+000, 1.75735927e+000, 0., 4.99615479e+001,
          1.57958136e+001, 1.24264073e+000, 0., 0., 9.28932190e-001,
          1.07106781e+000, 0., 0., 0., 0., 0., 0., 0., 0., 0.,
          5.34314585e+000, 2.89949489e+000, 1.08690376e+001,
          3.88832211e+000, 1.81450500e+001, 4.02569695e+001,
          1.24264069e+001, 3.75735927e+000, 4.14213568e-001,
          4.38850174e+001, 3.47596436e+001, 1.20121937e+001,
          3.34314585e+000, 0., 3.40934563e+001, 1.64507008e+001,
          1.07695522e+001, 7.68629169e+000, 0., 5.66634083e+000,
          1.05052319e+001, 1.65685427e+000, 3.66491342e+000,
          5.50665951e+000, 1.96605861e+000, 2.09923115e+001,
          1.32548342e+001, 1.58306971e+001, 6.95609903e+000, 0.,
          1.58873014e+001, 1.94680367e+001, 2.02723217e+001,
          3.53723412e+001, 1.04481554e+000, 2.77003498e+001,
          2.48528137e+001, 2.47087994e+001, 3.56932220e+001,
          4.55868578e+000, 4.61288691e+000, 4.97056293e+000,
          6.85786438e+000, 0., 0., 2.75735927e+000, 3.31370854e+000,
          8.68672371e+000, 4.32422066e+001, 0., 0., 0., 8.46094847e-001,
          3.15390515e+000, 0., 0., 0., 0., 0. ]
      - [ 0., 5.85786462e-001, 0., 6.47006083e+000, 5.94415283e+000,
          1.58578646e+000, 4., 5., 0., 0., 0., 2.28170185e+001,
          2.45854683e+001, 2.01172733e+000, 2.78012776e+000,
          1.80565858e+000, 0., 0., 0., 3.20377231e-001, 7.62295151e+000,
          5.66714518e-002, 0., 0., 0., 0., 0., 0., 0., 0., 0., 0., 0.,
          4.58578634e+000, 4.41421366e+000, 1., 1., 1., 3.,
          4.41421366e+000, 0., 1.15857868e+001, 2.34142132e+001,
          5.82340002e+000, 1.87914944e+001, 7.38510609e+000, 1., 1., 0.,
          0., 9., 2.39485168e+001, 7.19410019e+001, 3.18492775e+001,
          4.26120377e+000, 0., 0., 0., 0., 5.24673653e+000,
          9.29345016e+001, 3.79717751e+001, 8.46990287e-001, 0., 0., 2.,
          3.41421366e+000, 5.58578634e+000, 10., 0., 2., 0., 0., 4.,
          2.24142132e+001, 2.91022472e+001, 3.24835396e+001, 0., 0., 0.,
          0., 1.41421354e+000, 9.57491207e+000, 6.39321175e+001,
          2.74929714e+001, 1., 0., 1.13269882e+001, 0., 0., 0., 1.,
          1.34142132e+001, 1.51715727e+001, 1.53480673e+001,
          4.40350609e+001, 0., 0., 0., 5.58578634e+000, 1.40549679e+001,
          6.35924530e+000, 0., 0., 0., 1.00671043e+001, 0.,
          5.24264050e+000, 2.68157063e+001, 1.09416523e+001, 4.,
          1.89990789e-001, 0., 3.62949073e-001, 0., 0., 0., 1., 0.,
          2.28887156e-001, 0., 0., 0., 0., 0., 0., 0., 0., 0., 0.,
          1.90743566e-001, 4.25568104e+000, 1.31301870e+001,
          1.20091753e+001, 4.14213568e-001, 0., 0., 1.41158028e+001, 2.,
          0., 4.19373226e+000, 2.80626774e+000, 3., 1.35316804e-001, 0.,
          0., 0., 0., 0., 0., 0., 0., 0., 0., 0., 0., 0., 0., 0., 0., 0.,
          3.22488666e+000, 2.67700076e+000, 2.02384925e+000,
          3.56403232e+000, 3.66045213e+000, 4.18767262e+000,
          6.22654104e+000, 0., 3.22581863e+001, 1.24904327e+001,
          5.89821815e+000, 1.50055523e+001, 7.56092596e+000,
          8.85319948e-001, 1.80925643e+000, 0., 2.82250452e+000, 3., 0.,
          0., 0., 0., 0., 0., 0., 0., 0., 0., 0., 0., 0., 0., 0.,
          1.25351477e+000, 6.37438679e+000, 5.11089468e+000,
          1.26120389e+000, 6.26120377e+000, 8.05917358e+000, 0.,
          2.34317613e+000, 3.66630375e-001, 5.17960644e+000,
          2.89124088e+001, 3.48053474e+001, 7.36007571e-001, 0., 0.,
          1.74034557e+001, 2.22346997e+000, 3.53351140e+000,
          3.86587753e+001, 2.66042213e+001, 4.50242996e+000,
          1.89744318e+000, 0., 1.52083569e+001, 1.12465134e+001,
          8.83907795e+000, 2.40594597e+001, 2.15394630e+001,
          1.12112701e-001, 1.85585523e+000, 0., 1., 1., 8.29298782e+000,
          1.11820984e+001, 1.52491438e+000, 2.41421366e+000,
          2.32458258e+000, 0., 0., 0., 8.54201019e-001, 4.14579916e+000,
          0., 0., 0., 0., 0., 0., 0., 0., 0., 0., 0., 0., 0., 0., 0., 0.,
          0., 0., 0., 6.88027716e+000, 3.70550919e+000, 4.55634928e+000,
          1.05966606e+001, 2.61203885e-001, 2.79806519e+001,
          1.11909208e+001, 8.28427136e-001, 5.61203861e+000,
          2.38796115e+000, 4.14213568e-001, 5.85786462e-001,
          8.28427136e-001, 1.17157292e+000, 0., 0., 0., 0., 0., 0., 0.,
          7.10050488e+000, 4.97056293e+000, 6.92893219e+000, 0.,
          2.61203885e-001, 2.82413216e+001, 1.86396103e+001,
          8.85786438e+000, 0., 8.55461025e+000, 2.99479160e+001,
          2.56812401e+001, 3.64480209e+001, 9.36821175e+000, 1.,
          1.13725834e+001, 2.02964649e+001, 4.84579926e+001,
          1.48729582e+001, 0., 6.85786438e+000, 4.97056293e+000,
          1.17157292e+000, 0., 0., 4.39756126e+001, 2.40243874e+001, 0.,
          0., 7.83611596e-001, 6.25767784e+001, 1.98822517e+001,
          6.83950901e+000, 1.89178505e+001, 0., 5.85786462e-001,
          1.07695522e+001, 4.27154999e+001, 4.09291611e+001, 0.,
          3.92893219e+000, 3.72792196e+000, 8.88411713e+000,
          1.45902908e+000, 1.67422695e+001, 1.42871666e+001,
          1.36690474e+001, 1.85179043e+001, 7.83611596e-001,
          7.75922477e-001, 4.56722307e+000, 3.72792196e+000,
          3.92893219e+000, 0., 0., 0., 0., 0., 0., 8.28427136e-001,
          4.68629169e+000, 3.72792196e+000, 1.49474955e+001,
          2.80986404e+000, 2.28160992e+001, 8.52704716e+000,
          5.38477612e+000, 5.27207804e+000, 0., 0., 0., 0., 0., 0., 0.,
          0., 0., 0., 0., 3.22195554e+000, 5.53540373e+000,
          2.48528147e+000, 1.12163887e+001, 3.54097104e+000,
          4.94445610e+001, 1.38985844e+001, 3.72792196e+000,
          8.54852581e+000, 8.38040638e+000, 5.30620813e+000,
          2.69379187e+000, 0., 0., 0., 0., 0., 0., 0., 0.,
          6.05790472e+000, 5.11366844e+000, 2.89949489e+000,
          1.26862917e+001, 2.24264073e+000, 9.52678871e+000,
          9.81635666e+000, 3.31370854e+000, 2.24049129e+001,
          2.89382324e+001, 2.68382072e+001, 1.29191523e+001,
          3.31370854e+000, 2.75038109e+001, 2.84251213e+001,
          3.78013649e+001, 1.23702068e+001, 2.89949489e+000,
          1.55233688e+001, 2.54055634e+001, 1.35389948e+001,
          4.63257837e+000, 2.48528147e+000, 6.66772842e+000,
          6.75417423e-001, 1.02943730e+000, 9.70562756e-001, 0., 0., 0.,
          0., 0., 0., 0., 0., 0., 0., 0., 0., 0., 3.21638846e+000,
          1.09551849e+001, 1.65685427e+000, 5.24786043e+000,
          7.92371225e+000, 2.61203885e-001, 2.32458258e+000,
          1.24264073e+000, 1.01870251e+001, 3.89845467e+001, 0., 0., 0.,
          1.53832304e+000, 6.46167707e+000, 0., 0., 0., 0., 0.,
          2.61203885e-001, 1.25966606e+001, 5.38477612e+000,
          1.75735927e+000, 0., 0., 9.95836926e+000, 1.11837664e+001,
          2.52499943e+001, 3.60787082e+000, 0., 5.85786462e-001,
          1.49116879e+001, 6.56603012e+001, 4.88422241e+001, 0., 0.,
          1.65685427e+000, 7.35422516e+001, 6.18008919e+001, 0.,
          2.17157292e+000, 7.45584393e+000, 9.37258339e+000, 0., 0.,
          2.34314585e+000, 1.07695522e+001, 4.75812836e+001,
          5.30601931e+000, 3.04392452e+001, 6.90390062e+000,
          2.19533195e+001, 7.39832993e+001, 1.72023296e+000,
          5.00671844e+001, 1.86191082e+001, 1.15979795e+001,
          2.17157288e+001, 0., 0., 0., 2.89949489e+000, 1.72580185e+001,
          5.84248590e+000, 3.34140282e+001, 5.17175722e+000,
          2.07106781e+000, 3.03693981e+001, 1.09737473e+001,
          2.51035614e+001, 2.89643931e+000, 4.14213568e-001,
          5.85786462e-001, 0., 0., 0., 0., 0., 0., 0., 5.85786462e-001,
          2.07106781e+000, 1.60338326e+001, 1.23093119e+001,
          4.12444420e+001, 7.92713261e+000, 2.07106781e+000,
          4.64916515e+000, 1.10819423e+000, 0., 0., 0., 0., 0., 0., 0.,
          0., 0., 0., 2.01414633e+000, 1.22579317e+001, 4.55634928e+000,
          7.98769855e+000, 3.18387413e+000, 4.35200920e+001,
          1.06514797e+001, 1.65685427e+000, 9.81266499e+000,
          2.13589077e+001, 4.89562082e+000, 2.10437894e+000, 0., 0., 0.,
          0., 0., 0., 0., 0., 1.19782519e+000, 1.03168936e+001,
          4.14213562e+000, 4.68335342e+000, 7.65979242e+000,
          7.76855469e+000, 1.81723177e+000, 1.24264073e+000,
          1.95911388e+001, 4.95804329e+001, 3.23628197e+001,
          7.63718128e+000, 8.28427136e-001, 1.94084721e+001,
          5.07631035e+001, 4.13812599e+001, 8.61874104e+000, 0.,
          1.06985645e+001, 4.83014374e+001, 5.22407770e-001,
          4.64916515e+000, 8.28427136e-001, 2.83785558e+000,
          1.81621437e+001, 0., 0., 0., 1.82528055e+000, 3.17471933e+000,
          0., 0., 0., 0., 0., 0., 0., 0., 0., 0. ]
      - [ 0., 7.84210062e+000, 1.07116394e+001, 6.70660496e+000,
          2.88002014e+000, 8.59635234e-001, 0., 0., 0., 3.84976768e+000,
          2.05525818e+001, 1.26867676e+001, 6.03251934e+000,
          1.03660536e+001, 1.79386005e+001, 1.28026028e+001, 0., 0., 0.,
          2.05699325e+000, 1.11405849e+001, 6.03546238e+000,
          3.76695943e+000, 0., 0., 1.16337264e+000, 4.16121006e+000,
          4.14213568e-001, 1., 4.14213568e-001, 3.16120982e+000,
          1.16337264e+000, 0., 4.07773638e+000, 4.09383631e+000, 0.,
          4.85281378e-001, 3.07367849e+000, 1.07078857e+001,
          7.33153939e-001, 0., 1.19713306e+001, 2.18552742e+001,
          1.72193928e+001, 9.20682144e+000, 6.41424513e+000,
          1.37829266e+001, 4.87459278e+000, 0., 0., 1.00228810e+000,
          1.17890549e+001, 3.89625359e+001, 6.15391579e+001,
          2.34947796e+001, 3.21218300e+000, 0., 0., 1., 2.73276539e+001,
          6.27128677e+001, 1.77471828e+001, 1.07980824e+001,
          2.41421366e+000, 0., 2.47338700e+000, 3.11239958e+000,
          2.41421366e+000, 3.17510748e+000, 8.23910618e+000,
          5.58578634e+000, 2., 0., 1.83358517e+001, 6.41421366e+000,
          4.67753363e+000, 9.44787312e+000, 6.02760220e+000,
          1.32612038e+001, 1.14142132e+001, 0., 5.27321100e+000,
          3.24264073e+000, 8.34314537e+000, 6.07106781e+000,
          1.32426405e+001, 1.59420204e+001, 4.16920624e+001, 0.,
          2.53417104e-001, 0., 0., 4.42262411e+000, 9.12603569e+000,
          1.25137348e+001, 2.75770264e+001, 0., 1.44665699e+001,
          7.88587666e+000, 5.40858448e-001, 0., 0., 2.61203885e-001,
          7.38796115e-001, 0., 2.45620346e+001, 2.19442725e+000, 0., 0.,
          0., 0., 1.36899054e+000, 0., 9.71790671e-001, 0., 0., 0., 0.,
          0., 0., 0., 0., 0., 0., 0., 0., 0., 0., 0., 1.13339958e+001,
          0., 0., 0., 0., 0., 4.14213568e-001, 0., 0., 0., 0., 0., 0.,
          0., 0., 0., 0., 0., 0., 0., 0., 0., 0., 0., 0., 0., 0., 0., 0.,
          0., 0., 0., 1.46346521e+001, 1.10368109e+000, 0., 0., 0., 0.,
          8.28427136e-001, 0., 0., 2., 0., 0., 0., 0., 0., 0., 0., 0.,
          0., 0., 0., 0., 0., 0., 0., 0., 0., 0., 0., 0., 0., 0.,
          4.68620539e+000, 8.19762802e+000, 1.11616659e+000, 0.,
          1.17157292e+000, 4.59768105e+000, 7.81653261e+000, 0.,
          5.51038313e+000, 2.18845367e+001, 1.60508001e+000, 0., 0., 0.,
          0., 0., 0., 0., 0., 0., 0., 0., 0., 0., 0., 0., 0., 0., 0., 0.,
          0., 8.28427136e-001, 2.58578634e+000, 3.79970253e-001,
          2.53739119e+000, 4.80228519e+000, 5.58167315e+000,
          9.37226582e+000, 3.91220117e+000, 1.48765600e+000, 0.,
          1.08472576e+001, 1.86430035e+001, 1.30332184e+001,
          9.95154667e+000, 1.39138489e+001, 6.12346888e+000, 0., 0., 0.,
          0., 0., 0., 0., 0., 0., 0., 0., 0., 0., 0., 0., 0.,
          1.32047634e+001, 1.23099556e+001, 2.48528147e+000,
          1.58578646e+000, 4.14213568e-001, 3.49056816e+001,
          6.09431744e+000, 0., 9.07231617e+000, 3.39276848e+001,
          2.15733290e+000, 8.42667103e-001, 4.14213568e-001,
          3.00296640e+000, 8.58281994e+000, 4.90911913e+000,
          1.09088075e+000, 0., 9.40659642e-001, 4.05934048e+000,
          6.75417423e-001, 7.49615526e+000, 8.28427136e-001,
          1.81958139e+000, 1.31804190e+001, 3.72297859e+001,
          1.46991463e+001, 5.79898977e+000, 1.67203808e+001,
          1.05516977e+001, 1.29225769e+001, 8.24899578e+000,
          6.62741709e+000, 5.78071785e+001, 4.43938293e+001,
          6.99770689e+000, 2.84043140e+001, 1.78111839e+001,
          3.55518456e+001, 3.23495150e+000, 1.97374773e+000,
          5.19782495e+000, 4.14213562e+000, 1.24884663e+001,
          1.19782519e+000, 1.89990175e+000, 2.63305454e+001,
          1.94680367e+001, 2.41036892e+001, 1.19782519e+000,
          8.28427136e-001, 1.42010098e+001, 1.78111839e+001,
          4.79283066e+001, 3.62310753e+001, 8.46990287e-001,
          1.15300965e+000, 4.14213562e+000, 3.14072647e+001,
          3.14505997e+001, 1.77526989e+001, 8.41887379e+000,
          8.28427136e-001, 7.38796115e-001, 2.61203885e-001,
          2.83503170e+001, 9.64968204e+000, 4.14213568e-001,
          2.32458258e+000, 2.61203885e-001, 2.22747302e+000,
          1.77252686e+000, 0., 0., 0., 0., 0., 0., 0., 0.,
          1.20097733e+001, 5.57601309e+000, 8.28427136e-001,
          5.85786462e-001, 0., 0., 0., 0., 0., 0., 0., 0., 0., 0., 0.,
          0., 0., 0., 0., 0., 1.55043640e+001, 4.49563551e+000, 0.,
          1.58578646e+000, 4.14213568e-001, 1.35607159e+000,
          6.43928409e-001, 0., 0., 0., 0., 0., 0., 0., 0., 0., 0., 0.,
          0., 0., 1.14913435e+001, 2.50865650e+000, 2.07106781e+000,
          1.04250879e+001, 1.50384462e+000, 2.45621395e+001,
          4.43786049e+000, 0., 0., 0., 0., 0., 0., 0., 0., 0., 0., 0.,
          0., 0., 2.54257131e+000, 4.21478796e+000, 2.07106781e+000,
          7.23914194e+000, 1.19324312e+001, 2.62535000e+001,
          6.33228683e+000, 2.07106781e+000, 7.08449411e+000,
          2.52586517e+001, 0., 0., 0., 0., 0., 0., 0., 0., 0., 0.,
          1.45902908e+000, 1.06414757e+001, 3.31370854e+000,
          4.00567865e+000, 9.58010769e+000, 1.94052734e+001,
          1.27662992e+001, 1.24264073e+000, 1.01406956e+001,
          3.14450912e+001, 0., 0., 0., 4.62909031e+000, 1.63709106e+001,
          7.01682425e+000, 1.98317552e+000, 0., 5.59662104e-001,
          2.44033790e+000, 0., 1.30294371e+001, 4.97056293e+000,
          1.47069573e+000, 4.52930403e+000, 5.50967073e+000,
          2.34192619e+001, 4.55634928e+000, 1.70423298e+001,
          3.14723873e+001, 0., 4.17157269e+000, 5.79898977e+000,
          5.65465889e+001, 6.74828491e+001, 0., 1.75735927e+000,
          7.87005758e+000, 6.11835175e+001, 4.31890678e+001, 0.,
          6.10050488e+000, 6.62741709e+000, 1.06748486e+001,
          1.59722960e+000, 7.04620457e+000, 3.66695251e+001,
          1.40832615e+001, 1.26685095e+001, 2.53250098e+000,
          4.71534195e+001, 3.62486000e+001, 1.98822517e+001,
          2.34545250e+001, 2.61203885e-001, 4.05734291e+001,
          1.30123558e+001, 4.14213568e-001, 1.15224075e+001,
          3.47759223e+000, 1.44937935e+001, 9.02092552e+000,
          3.31370854e+000, 1.17157292e+000, 0., 3.53495789e+001,
          9.23620892e+000, 4.14213568e-001, 0., 0., 7.47271204e+000,
          1.52728784e+000, 0., 0., 0., 0., 0., 0., 0., 0.,
          1.69856358e+001, 6.01436329e+000, 0., 0., 0., 0., 0., 0., 0.,
          0., 0., 0., 0., 0., 0., 0., 0., 0., 0., 0., 1.91819134e+001,
          6.81808662e+000, 0., 0., 0., 0., 0., 0., 0., 0., 0., 0., 0.,
          0., 0., 0., 0., 0., 0., 0., 7.41428137e+000, 1.44435825e+001,
          4.55634928e+000, 3.32458258e+000, 2.61203885e-001,
          9.67537498e+000, 5.49619818e+000, 8.28427136e-001,
          4.22306597e-001, 2.57769346e+000, 0., 0., 0., 0., 0., 0., 0.,
          0., 0., 0., 0., 7.92893219e+000, 2.07106781e+000,
          4.90009165e+000, 1.30999079e+001, 6.36102819e+000,
          4.22475815e+000, 2.07106781e+000, 1.33487225e+001,
          4.19944229e+001, 0., 0., 0., 0., 0., 0., 0., 0., 0., 0. ]
      - [ 0., 5.41421366e+000, 23., 4.58578634e+000, 0., 0., 0., 0., 0.,
          1.12652969e+001, 4.73936844e+001, 1.65614986e+001, 1., 0.,
          1.41421354e+000, 5.85786462e-001, 0., 5.03725815e+001,
          6.03089600e+001, 3.03184586e+001, 1., 0., 0., 0., 0.,
          2.11005058e+001, 8.43931351e+001, 6.90163269e+001,
          1.70758209e+001, 1., 0., 0., 0., 2., 2.04142132e+001,
          7.58578634e+000, 0., 0., 0., 0., 4.75412607e+000,
          3.01693058e+001, 3.54115067e+001, 7.31851482e+000,
          1.48926365e+000, 7.47840500e+000, 5.67517662e+000,
          7.03700781e-001, 8.03434730e-001, 1.16411114e+001,
          1.89818249e+001, 3.11177025e+001, 1.46763639e+001,
          1.00013170e+001, 8.80519867e+000, 2.69730473e+001, 0.,
          4.96118927e+001, 3.42253036e+001, 3.80325661e+001,
          1.78459549e+001, 4.34358120e+000, 1.04131058e-001,
          1.32846813e+001, 0., 6., 1.58284273e+001, 4.17157269e+000, 0.,
          0., 0., 0., 0., 3.24049568e+001, 4.33798447e+001,
          9.34314537e+000, 4., 0., 0., 0., 0., 8.27676315e+001,
          4.39612122e+001, 9., 3., 0., 0., 0., 0., 1.04489693e+002,
          6.41044922e+001, 5.63965988e+000, 2., 0., 0., 4., 0.,
          1.03431454e+001, 1.46568546e+001, 2., 0., 0., 0., 0., 0.,
          2.92010098e+001, 4.24558449e+001, 1.33431454e+001, 2., 0., 0.,
          0., 0., 2.22720776e+001, 6.46274185e+001, 3.86862907e+001, 10.,
          0., 2., 0., 0., 4.10294380e+001, 5.89705620e+001,
          2.07573586e+001, 10., 3., 11., 3.58578634e+000, 0.,
          9.34314537e+000, 1.66568546e+001, 1.58578646e+000,
          4.14213568e-001, 0., 1., 0., 0., 1.69289322e+001,
          5.66568527e+001, 1.49289322e+001, 1.41421354e+000, 0., 0., 0.,
          0., 1.14981756e+001, 6.09280510e+001, 6.47453461e+001,
          1.08284273e+001, 3., 0., 0., 0., 1.33153133e+001,
          6.76027374e+001, 1.52535257e+001, 1.49183836e+001,
          1.39206095e+001, 6.98943472e+000, 0., 0., 3., 1.74142132e+001,
          8.58578682e+000, 0., 0., 0., 0., 0., 2.53431454e+001,
          4.36568527e+001, 5.85786462e-001, 6.75417423e-001,
          2.32458258e+000, 7.26120377e+000, 4.89180565e+000, 0.,
          1.87055969e+001, 3.58771172e+001, 1.41728449e+000, 3., 2.,
          2.82842708e+000, 3.17157292e+000, 0., 0., 0., 0., 0., 0.,
          6.61576509e+000, 1.54047318e+001, 0., 1.13431454e+001,
          1.22426405e+001, 4.58578634e+000, 0., 0., 0., 0., 0.,
          2.52720776e+001, 6.41421366e+000, 0., 0., 0., 2.,
          1.74436512e+001, 0., 8.17473888e+000, 4.46662045e+000,
          1.17157292e+000, 0., 0., 1.08554964e+001, 8.22662582e+001, 0.,
          5.75735950e+000, 0., 0., 0., 1., 2.47208405e+001,
          1.13348228e+002, 0., 1.29289322e+001, 1.06568546e+001, 3., 0.,
          0., 0., 0., 0., 2.17573586e+001, 1.68284264e+001, 0., 0., 0.,
          0., 2., 0., 13., 19., 3., 8., 1., 3.17419796e+001,
          2.37356129e+001, 0., 3., 9.48528099e+000, 3.38578644e+001,
          4.82489777e+001, 4.12680511e+001, 5.04459724e+001,
          1.02796392e+001, 5.22407770e-001, 2.37791080e+001,
          8.69848442e+000, 0., 0., 7.67382145e+000, 4.72012863e+001,
          2.15391045e+001, 1.58578646e+000, 0., 2.78295326e+001,
          8.25186615e+001, 3.06518040e+001, 0., 0., 2.29248047e+001,
          1.27352325e+002, 3.31370850e+001, 5.85786462e-001, 0., 0.,
          2.17157288e+001, 8.28427124e+000, 0., 0., 3.83927650e+001,
          3.48793144e+001, 3.72792196e+000, 2.82948089e+000,
          1.21705189e+001, 4.67255630e+001, 2.36175842e+001,
          1.65685427e+000, 9.56610012e+000, 3.84338989e+001,
          5.86439323e+001, 6.73733139e+001, 1.69827557e+001,
          5.20634699e+000, 1.97936535e+001, 0., 1.68873024e+001,
          9.11269855e+000, 0., 0., 7.44398546e+000, 6.40585403e+001,
          1.44974747e+001, 0., 0., 4.14597588e+001, 8.28001251e+001,
          1.57401152e+001, 0., 0., 5.64811134e+001, 1.01737144e+002,
          2.44386005e+001, 2.34314585e+000, 0., 0., 1.91299419e+001,
          7.87005758e+000, 0., 0., 0., 6.80172424e+001, 1.69827557e+001,
          0., 0., 2.61203885e-001, 9.01164322e+001, 3.64507942e+001,
          1.17157292e+000, 0., 0., 8.28212814e+001, 4.76345596e+001,
          1.05441561e+001, 0., 6.75417423e-001, 2.27682343e+001,
          4.97056293e+000, 5.85786462e-001, 0., 3.96287370e+000,
          6.75690918e+001, 1.94680367e+001, 0., 0., 1.19556398e+001,
          9.96352005e+001, 3.14802303e+001, 2.92893219e+000, 0.,
          2.67915554e+001, 5.33972626e+001, 2.15391045e+001,
          1.73399601e+001, 3.93211722e+000, 2.35083485e+000,
          2.45780964e+001, 2.07106781e+000, 0., 0., 2.61203885e+000,
          5.20620613e+001, 1.90538235e+001, 1.17496700e+001,
          5.22407770e-001, 2.08918762e+001, 3.30370560e+001,
          3.31370854e+000, 6.75735950e+000, 0., 0., 0., 1.65685427e+000,
          1.08091002e+001, 1.15340462e+001, 7.83611596e-001,
          2.07605438e+001, 7.45584393e+000, 0., 0., 0., 2.29167385e+001,
          2.36101723e+001, 1.44730883e+001, 0., 4.84493351e+000,
          1.26697845e+001, 1.32548342e+001, 6.81540222e+001,
          3.20764275e+001, 0., 5.10050488e+000, 3.76934357e+001,
          1.17298790e+002, 1.89072704e+001, 2.61203885e-001,
          2.01113796e+001, 6.62741709e+000, 0., 0., 0., 2.36740990e+001,
          1.61543293e+001, 1.17157292e+000, 0., 0., 2.05025253e+001,
          2.19533195e+001, 3.69586678e+001, 1.25854874e+001, 0.,
          3.32598839e+001, 3.35513000e+001, 6.04840240e+001,
          2.87047939e+001, 0., 3.51471853e+000, 4.97056293e+000,
          3.51471853e+000, 0., 1.81272483e+000, 9.21671200e+000,
          1.28406200e+001, 1.39135180e+001, 2.21642399e+000, 0.,
          3.89045448e+001, 2.94091625e+001, 1.65672874e+001,
          2.21190052e+001, 0., 2.07451668e+001, 3.43797264e+001,
          4.98413811e+001, 2.50337257e+001, 0., 1.17157292e+000,
          4.14213562e+000, 4.68629169e+000, 0., 2.17511940e+001,
          2.34498158e+001, 1.15979795e+001, 1.53760710e+001,
          1.18249397e+001, 3.32655525e+001, 1.42491665e+001,
          3.31370854e+000, 1.81769962e+001, 4.39945755e+001,
          4.41788177e+001, 3.60810661e+001, 1.82253971e+001,
          1.78353081e+001, 4.46794090e+001, 0., 4.68629169e+000,
          5.38477612e+000, 2.92893219e+000, 0., 4.88073111e+000,
          2.90065708e+001, 1.49116879e+001, 9.20100975e+000, 0.,
          3.72984810e+001, 5.97187614e+001, 2.19533195e+001,
          7.02943707e+000, 0., 3.52244415e+001, 1.03851677e+002,
          3.02375908e+001, 6.16388369e+000, 5.22407770e-001, 0.,
          7.61522388e+000, 6.21320343e+000, 1.17157292e+000, 0., 0.,
          2.23309517e+001, 1.98822517e+001, 1.07867966e+001, 0., 0.,
          1.95735931e+001, 3.27228699e+001, 3.17035351e+001, 0.,
          5.22407770e-001, 5.37963524e+001, 4.01787148e+001,
          2.05025253e+001, 0., 0., 7.44365072e+000, 4.97056293e+000,
          1.58578646e+000, 0., 0., 1.67157288e+001, 1.65685425e+001,
          1.37157288e+001, 0., 1.10819423e+000, 1.17496700e+001,
          3.39655113e+001, 6.28257904e+001, 2.35083485e+000,
          6.24488163e+000, 1.70271969e+001, 1.36690474e+001,
          3.88873024e+001, 5.17157269e+000, 0., 2.92893219e+000,
          7.04163074e+000, 9.02943707e+000, 0., 5.22407770e-001,
          2.42227573e+001, 1.44974747e+001, 3.49615550e+000,
          2.61203885e-001, 3.78679657e+000, 2.79289322e+001,
          1.20121937e+001, 5.27207804e+000, 0., 9.30085278e+000,
          1.30422935e+001, 1.65685427e+000, 0., 0., 0., 9.44365120e+000,
          7.87005758e+000, 4.68629169e+000, 0., 1.04481554e+000,
          6.77297897e+001, 1.82253971e+001, 0., 0., 4.66550102e+001,
          9.61317902e+001, 7.04163074e+000, 1.17157292e+000, 0.,
          3.42711754e+001, 1.32077026e+002, 3.10660172e+001,
          5.85786462e-001, 0., 0., 1.12010098e+001, 7.04163074e+000,
          2.75735927e+000, 0., 0., 2.62598839e+001, 1.57401152e+001, 0.,
          0., 2.24264073e+000, 4.27035370e+001, 2.40243874e+001,
          7.02943707e+000, 0., 0., 1.68873024e+001, 4.14213562e+001,
          1.04339691e+002, 8.35164833e+000 ]
      - [ 0., 2., 2.36382904e+001, 7.36170912e+000, 0., 0., 0., 0., 0.,
          1.57759228e+001, 5.62853241e+001, 1.75143585e+001,
          2.42439651e+000, 0., 0., 0., 0., 1.58102703e+001,
          6.00877190e+001, 5.33344994e+001, 1.52675495e+001,
          2.49995899e+000, 1., 0., 0., 5.00294380e+001, 7.69638977e+001,
          3.90327034e+001, 2.35597515e+001, 2., 1., 2., 0.,
          2.28706908e+000, 1.49504614e+001, 1.07624693e+001, 0., 0., 0.,
          0., 0., 2.26804566e+000, 1.42684689e+001, 6.20228148e+000,
          2.61203885e-001, 1.33611858e+000, 2.55913391e+001,
          2.30208893e+001, 0., 2.81231365e+001, 3.41330147e+001,
          2.36032162e+001, 1.56468811e+001, 7.45219326e+000,
          4.86248684e+000, 4.87779665e+000, 0., 1.95681610e+001,
          4.26692123e+001, 1.33920689e+001, 4.58202400e+001,
          3.22410431e+001, 1.26589298e+001, 1.28359909e+001, 0.,
          1.45273714e+001, 1.64726276e+001, 1., 0., 0., 0., 0., 0.,
          2.35991287e+001, 7.11167717e+000, 1.79796946e+000,
          1.18821774e+001, 2.32633457e+001, 4.59593487e+000,
          3.07436848e+000, 0., 5.75547943e+001, 2.86244144e+001,
          1.82578068e+001, 9.47514725e+000, 3.94441962e+000, 2., 2., 0.,
          8.52373428e+001, 3.63238525e+001, 9., 5., 0., 1.,
          4.09811258e+000, 0., 1.14023190e+001, 1.54261084e+001,
          3.17157292e+000, 0., 0., 0., 0., 1.90743566e-001,
          8.71962547e+000, 4.43322716e+001, 3.47573586e+001, 1., 0., 0.,
          0., 0., 15., 62., 18., 7., 1., 4., 0., 0., 4.29744682e+001,
          4.30710678e+001, 1.65857868e+001, 7., 4., 13., 6., 0.,
          1.35857868e+001, 1.32426405e+001, 3.75735927e+000, 0., 0., 0.,
          0., 0., 1., 3.10416298e+001, 5.91299438e+001, 2.82842708e+000,
          0., 0., 0., 0., 1.02983112e+001, 6.82282181e+001,
          3.49696274e+001, 1.28284273e+001, 5.47759247e+000,
          1.93662131e+000, 0., 0., 4.03496933e+001, 3.55432701e+001, 5.,
          1.13693981e+001, 7.63060188e+000, 2.58578634e+000, 0., 0.,
          9.51471901e+000, 1.81099358e+001, 2.37534523e+000, 0., 0., 0.,
          0., 0., 9.41421318e+000, 4.80871658e+001, 2.30844059e+001,
          6.41421366e+000, 0., 0., 0., 0., 7.63911152e+000,
          3.47261925e+001, 2.22048116e+000, 4.14213568e-001, 0., 0., 0.,
          0., 0., 0., 0., 0., 0., 1., 8.09256434e-001, 0.,
          2.58578634e+000, 2.50185623e+001, 4.39565039e+000, 0., 0., 0.,
          0., 0., 3.90294380e+001, 3.31421356e+001, 1., 2., 0., 0., 0.,
          0., 1.73491802e+001, 1.58211575e+001, 4.81685072e-001, 0., 0.,
          3.76504850e+000, 3.82969475e+001, 0., 1.61557388e+000, 0., 0.,
          0., 0., 1.71812744e+001, 1.13765503e+002, 0., 0.,
          2.00896301e+001, 9.08194160e+000, 8.28427136e-001, 0., 0., 0.,
          0., 3.46152229e+001, 2.44852810e+001, 1., 0., 0., 0., 0., 0.,
          2.23431454e+001, 1.64142132e+001, 3.58578634e+000, 0., 0.,
          2.15022111e+000, 2.61032944e+001, 0., 7., 15., 9., 6.,
          1.11026173e+001, 5.21130524e+001, 6.84853897e+001,
          1.62291276e+000, 2.47496700e+001, 6.62741709e+000, 0., 0.,
          2.43492680e+001, 5.48811798e+001, 1.07695522e+001, 0., 0.,
          3.35090714e+001, 8.07802505e+001, 2.15391045e+001,
          2.82492852e+000, 2.34664416e+000, 4.05413008e+000,
          1.21654457e+002, 5.09482689e+001, 3.18972921e+000,
          1.15341651e+000, 1.57665796e+001, 1.05765657e+001,
          1.65685427e+000, 0., 0., 1.68811264e+001, 5.70466089e+000,
          4.14213568e-001, 1.21895313e+001, 3.98104706e+001,
          6.70774002e+001, 4.70231094e+001, 4.97056293e+000,
          1.14890471e+001, 1.14398851e+001, 2.09139709e+001,
          4.94464188e+001, 3.27228699e+001, 4.32624702e+001,
          2.66542683e+001, 1.80409737e+001, 1.31305990e+001,
          8.28427136e-001, 0., 0., 2.33647327e+001, 1.83926258e+001,
          2.07106781e+000, 1.24538202e+001, 2.87177525e+001,
          5.22629929e+001, 6.38253174e+001, 1.69827557e+001,
          7.87602091e+000, 1.05291152e+000, 2.41411171e+001,
          1.02337021e+002, 4.05929298e+001, 3.92893219e+000, 0.,
          2.72023296e+000, 2.52087002e+001, 2.07106781e+000, 0., 0.,
          9.36621308e-001, 6.01394958e+001, 2.69238815e+001, 0., 0., 0.,
          6.02060623e+001, 3.64507942e+001, 3.34314585e+000, 0.,
          6.75417423e-001, 6.63174362e+001, 4.88772011e+001,
          1.51299419e+001, 0., 0., 2.06446609e+001, 1.03553391e+001, 0.,
          0., 5.22407770e-001, 6.74532089e+001, 2.40243874e+001, 0., 0.,
          1.77027149e+001, 7.57581787e+001, 2.36101723e+001,
          6.40652466e+000, 5.22407770e-001, 3.06442776e+001,
          5.03435287e+001, 1.36690474e+001, 9.82073784e+000,
          5.22407770e-001, 3.07106781e+000, 2.23725834e+001,
          4.55634928e+000, 0., 0., 3.37708712e+000, 6.10543709e+001,
          1.65685425e+001, 0., 0., 1.60000191e+001, 2.73431263e+001,
          1.65685427e+000, 0., 0., 0., 0., 4.14213568e-001,
          1.32458258e+000, 2.61203885e-001, 2.76504850e+000,
          2.79923115e+001, 1.24264073e+000, 0., 0., 6.75417423e-001,
          5.34423332e+001, 1.98822517e+001, 0., 0., 1.10607090e+001,
          2.22113686e+001, 1.44974747e+001, 3.80584679e+001,
          7.17197990e+000, 1.10819423e+000, 3.47759223e+000,
          1.57401152e+001, 1.03039154e+002, 4.56349449e+001,
          1.82842708e+000, 2.69289322e+001, 1.24264073e+000, 0., 0.,
          7.83611596e-001, 4.52336311e+001, 1.69827557e+001, 0., 0., 0.,
          2.84314575e+001, 2.73380947e+001, 2.04545250e+001,
          7.75922477e-001, 0., 1.85735931e+001, 2.65096684e+001,
          8.67326050e+001, 3.31841316e+001, 0., 1.17157292e+000,
          5.38477612e+000, 6.44365072e+000, 0., 7.75922477e-001,
          1.27682333e+001, 1.49116879e+001, 1.93303089e+001,
          8.21384716e+000, 5.14718652e-001, 9.85786438e+000,
          1.86396103e+001, 4.38778496e+001, 3.11099548e+001, 0.,
          3.73898277e+001, 4.18355713e+001, 4.26168633e+001,
          9.15774155e+000, 1.31411529e+000, 4.85745764e+000,
          2.89949489e+000, 8.81341934e+000, 8.11551285e+000,
          2.81155777e+001, 1.89849281e+001, 3.72792196e+000,
          6.46859646e+000, 9.70297623e+000, 5.15618019e+001,
          2.36392059e+001, 7.45584393e+000, 2.18805447e+001,
          3.54626007e+001, 7.83524847e+000, 3.37677803e+001,
          2.23675327e+001, 3.64116135e+001, 5.46178246e+001,
          9.79322338e+000, 1.44788542e+001, 4.14213562e+000,
          1.58578646e+000, 0., 2.70734558e+001, 1.44412632e+001,
          2.89949489e+000, 1.06348610e+001, 2.99509258e+001,
          3.17230740e+001, 5.45073738e+001, 1.15979795e+001,
          1.34061575e+001, 2.67654152e+001, 4.47127876e+001,
          8.10912552e+001, 2.89949493e+001, 8.20100975e+000, 0., 0.,
          1.30294371e+001, 6.62741709e+000, 2.34314585e+000, 0.,
          8.28427136e-001, 7.51471853e+000, 1.69827557e+001,
          2.16740990e+001, 0., 0., 1.40588741e+001, 2.07106781e+001,
          1.52304478e+001, 0., 1.55921006e+000, 5.16884804e+001,
          3.85218620e+001, 1.69692440e+001, 2.61203885e-001, 0.,
          1.04436512e+001, 6.62741709e+000, 2.92893219e+000, 0., 0.,
          5.85786462e-001, 2.69238815e+001, 4.44903336e+001, 0.,
          2.97128415e+000, 1.20581532e+001, 2.60954552e+001,
          4.33526993e+001, 5.22407770e-001, 2.90242405e+001,
          3.86914864e+001, 1.40832615e+001, 1.86337872e+001,
          1.56722319e+000, 0., 7.02943707e+000, 7.45584393e+000,
          3.51471853e+000, 0., 0., 6.44365072e+000, 1.90538235e+001,
          2.45025253e+001, 0., 1.30601943e+000, 1.39660587e+001,
          4.55634928e+000, 3.17157292e+000, 0., 4.14213568e-001,
          1.17157292e+000, 4.14213568e-001, 0., 0., 0., 2.92893219e+000,
          4.55634928e+000, 5.51471853e+000, 0., 2.61203885e-001,
          3.72707596e+001, 2.07106781e+001, 1.75735927e+000, 0.,
          2.33686314e+001, 7.21044540e+001, 1.03553391e+001,
          1.17157292e+000, 0., 6.35378571e+001, 1.09521019e+002,
          9.94112587e+000, 0., 0., 0., 0., 4.55634928e+000,
          1.04436512e+001, 0., 0., 5.00172424e+001, 1.73969688e+001,
          5.85786462e-001, 0., 1.45902908e+000, 7.07886658e+001,
          2.94091625e+001, 2.34314585e+000, 0., 1.39167385e+001,
          7.50294342e+001, 3.18944435e+001, 1.91593800e+001, 0. ]
      - [ 0., 4.11224782e-001, 2.08751011e+001, 1.17136745e+001, 0., 0.,
          0., 0., 0., 4.41421366e+000, 3.34733124e+001, 4.71202278e+001,
          1.09922447e+001, 0., 0., 0., 0., 2.59289322e+001,
          7.43847733e+001, 2.89564857e+001, 1.17298050e+001, 0., 0., 0.,
          0., 4.99289322e+001, 9.46274185e+001, 3.04436512e+001, 0., 0.,
          0., 0., 0., 0., 1.55666933e+001, 1.41721029e+001,
          2.61203885e-001, 0., 0., 0., 0., 0., 4.02625227e+000,
          3.69534416e+001, 3.32307472e+001, 5.78955889e+000, 2., 0., 0.,
          1., 3.24264073e+000, 2.12812309e+001, 7.27102432e+001,
          4.17529259e+001, 1.60129585e+001, 0., 0., 11., 21., 14.,
          3.05378361e+001, 5.60146751e+001, 3.86668282e+001,
          1.27806616e+001, 0., 3.28460073e+000, 2.27659149e+001,
          5.94948387e+000, 0., 0., 0., 0., 0., 2.67541742e+000,
          2.66568546e+001, 3.80108757e+001, 1.26568546e+001, 0., 3., 0.,
          0., 1., 6., 22., 3.30710678e+001, 1.04863491e+001,
          4.75587540e+001, 2.04696159e+001, 0., 9., 15., 2., 1.,
          2.26277142e+001, 8.43647690e+001, 5.37648735e+001, 0.,
          1.11751328e+001, 1.87669411e+001, 5.79258278e-002, 0., 0., 0.,
          0., 0., 3.24161682e+001, 4.24699860e+001, 9.18430805e+000,
          8.28427136e-001, 2., 0., 1.90743566e-001, 0., 4.29109840e+001,
          7.51296082e+001, 1.25522985e+001, 2.45194745e+000,
          1.73879611e+000, 2.82842708e+000, 3.75735927e+000, 0.,
          4.79156456e+001, 9.03239288e+001, 1.49839001e+001, 3.,
          1.58578646e+000, 1.84142132e+001, 1.27573595e+001,
          8.28427136e-001, 8.54547501e+000, 1.44916515e+001,
          4.13444662e+000, 1., 0., 0., 1., 0., 3.52255211e+001,
          4.51886940e+001, 3.75735927e+000, 1., 0., 0., 0., 0.,
          3.11027088e+001, 7.69527435e+001, 2.96641712e+001,
          8.86616135e+000, 3.58578634e+000, 2.41421366e+000, 0., 0.,
          1.31479092e+001, 7.43681030e+001, 3.92413483e+001,
          1.02426405e+001, 3.39144516e+000, 5.60855484e+000, 0., 0.,
          6.17157269e+000, 1.28284273e+001, 5.58578634e+000, 0., 0., 0.,
          1., 0., 2.39212437e+001, 9.57491207e+000, 0., 0., 0.,
          6.42190266e+000, 2.84053097e+001, 0., 2.19366455e+001,
          1.26583109e+001, 1.58578646e+000, 0., 0., 1.82573128e+001,
          5.02215767e+001, 0., 3.99649096e+000, 2.19074368e+000, 0., 2.,
          3., 2.84757748e+001, 5.08586922e+001, 0., 4., 17., 3., 1., 0.,
          0., 0., 0., 0., 1., 4., 5.41421366e+000, 1.76547050e+001,
          3.52563820e+001, 1.25473328e+001, 0., 0., 0., 3.,
          1.62503300e+001, 6.40498276e+001, 5.29207001e+001,
          1.87791424e+001, 0., 1., 1.16568546e+001, 1.93717499e+001,
          7.68390045e+001, 7.21999741e+001, 1.49324160e+001, 4., 0.,
          2.64075446e+000, 1.17734594e+001, 6.58578634e+000, 4., 0., 0.,
          0., 0., 3., 3.34142151e+001, 1.61715736e+001, 1.48284273e+001,
          2.58578634e+000, 0., 0., 0., 9.17157269e+000, 4.81421356e+001,
          5.18578644e+001, 2.50710678e+001, 7.75735950e+000, 0., 0., 0.,
          2.66862907e+001, 1.03798988e+002, 5.56632233e+001,
          2.46984844e+001, 5.15300989e+000, 0., 0., 2.04393559e+001,
          1.25606441e+001, 0., 0., 0., 3.24606247e+001, 5.36693192e+001,
          7.87005758e+000, 0., 0., 6.77775669e+000, 1.00327797e+002,
          3.18944435e+001, 0., 0., 5.22407770e-001, 1.23529327e+002,
          5.09482689e+001, 0., 0., 1.61269016e+001, 1.38730974e+001, 0.,
          0., 0., 3.35083485e+000, 3.50511856e+001, 1.65685425e+001,
          7.02943707e+000, 0., 1.04481554e+000, 2.68424854e+001,
          2.07106781e+001, 6.16463089e+001, 1.57557096e+001, 0.,
          2.90172443e+001, 3.10660172e+001, 5.44773788e+001,
          4.54393616e+001, 1.23124342e+001, 1.88591385e+001,
          8.28427136e-001, 0., 0., 2.14532065e+000, 4.73866425e+001,
          2.07106781e+001, 1.75735927e+000, 0., 0., 1.91593800e+001,
          3.06518040e+001, 5.12427902e+001, 1.19460268e+001,
          2.61203885e-001, 1.53834572e+001, 2.40243874e+001,
          6.88916931e+001, 7.94392624e+001, 2.28767262e+001,
          7.12327290e+000, 0., 0., 0., 3.89756927e+001, 4.18111038e+001,
          7.45584393e+000, 1.75735927e+000, 0., 4.52774162e+001,
          7.69530334e+001, 1.24264069e+001, 7.08194208e+000,
          2.61203885e-001, 4.21541786e+001, 9.77625580e+001,
          2.31959591e+001, 2.51036892e+001, 7.83611596e-001,
          6.26757383e+000, 1.92471447e+001, 2.89949489e+000,
          5.85786462e-001, 0., 8.98143673e+000, 6.52490082e+001,
          1.07695522e+001, 0., 0., 1.81358585e+001, 1.03224533e+002,
          1.90538235e+001, 5.32458258e+000, 2.61203885e-001,
          2.44148426e+001, 8.53597565e+001, 2.02964649e+001, 6.,
          9.28932190e-001, 1.04481554e+000, 1.73277683e+001,
          7.04163074e+000, 5.85786462e-001, 0., 5.22407770e-001,
          3.00928154e+001, 1.32548342e+001, 3.25627174e+001,
          1.56722319e+000, 1.56930065e+001, 2.17506447e+001,
          9.11269855e+000, 5.12257729e+001, 2.82178783e+001,
          6.75417423e-001, 6.08194208e+000, 1.69827557e+001,
          4.84394150e+001, 2.68204708e+001, 4.14213568e-001,
          1.53015156e+001, 8.28427124e+000, 0., 0., 0., 2.92893219e+000,
          1.36690474e+001, 4.76813812e+001, 7.72063971e+000, 0.,
          1.75735927e+000, 1.82253971e+001, 8.66338272e+001,
          3.83834152e+001, 0., 2.45735931e+001, 4.01787148e+001,
          7.93893127e+001, 1.38583794e+001, 1.61203873e+000,
          1.60742531e+001, 3.31370854e+000, 0., 0., 0., 3.27035370e+001,
          2.15391045e+001, 1.75735927e+000, 0., 5.22407770e-001,
          7.34410095e+001, 3.93502884e+001, 5.68629169e+000, 0.,
          5.37708712e+000, 1.44473633e+002, 4.59777069e+001,
          6.17157269e+000, 0., 0., 1.17157292e+000, 2.48528147e+000,
          1.68860817e+001, 6.45706463e+000, 0., 2.92893219e+000,
          9.11269855e+000, 3.53044701e+001, 2.86539001e+001, 0.,
          1.81593800e+001, 2.23675327e+001, 2.60866013e+001,
          1.13864870e+001, 0., 3.80761185e+001, 4.14213562e+001,
          2.05025253e+001, 0., 0., 0., 2.07106781e+000, 1.77365551e+001,
          8.19237709e+000, 0., 0., 1.07695522e+001, 5.47496719e+001,
          1.24807768e+001, 0., 5.85786462e-001, 1.36690474e+001,
          8.54026947e+001, 4.73424721e+001, 0., 2.35025253e+001,
          3.18944435e+001, 6.82532654e+001, 3.33497658e+001, 0.,
          5.10050488e+000, 6.21320343e+000, 1.04250879e+001,
          2.61203885e-001, 0., 3.92893219e+000, 1.98822517e+001,
          3.71888161e+001, 0., 2.05291152e+000, 2.35917492e+001,
          3.10660172e+001, 4.85690880e+001, 1.72023296e+000,
          2.40023594e+001, 6.04291000e+001, 2.52670269e+001,
          2.95301208e+001, 1.37713938e+001, 1.02491751e+001,
          1.26797571e+001, 2.48528147e+000, 5.85786462e-001, 0.,
          2.20148544e+001, 3.17719421e+001, 1.11837664e+001,
          1.16677284e+001, 1.36170888e+000, 1.90890217e+001,
          5.37566490e+001, 2.23675327e+001, 1.48238869e+001,
          1.96290934e+000, 2.28462296e+001, 6.70288773e+001,
          3.27228699e+001, 1.64020195e+001, 0., 0., 1.22720776e+001,
          6.21320343e+000, 5.51471853e+000, 0., 0., 4.21888161e+001,
          2.02964649e+001, 3.51471853e+000, 0., 3.64916515e+000,
          3.32675743e+001, 2.94091625e+001, 3.57374763e+001,
          9.36621308e-001, 2.93035936e+000, 1.42706509e+001,
          2.98233757e+001, 4.66247787e+001, 1.35083485e+000, 0.,
          7.68629169e+000, 6.62741709e+000, 4.68629169e+000, 0.,
          4.37708712e+000, 6.77822952e+001, 1.28406200e+001, 0., 0.,
          4.24232559e+001, 7.72924728e+001, 9.11269855e+000,
          1.17157292e+000, 0., 2.84426346e+001, 4.28883171e+001,
          1.57401152e+001, 2.92893219e+000, 0., 0., 4.68629169e+000,
          4.97056293e+000, 2.34314585e+000, 0., 1.19782519e+000,
          1.57605438e+001, 1.86396103e+001, 2.34020195e+001, 0.,
          3.46990323e+000, 2.23168926e+001, 1.98822517e+001,
          6.95192261e+001, 1.58117294e+001, 0., 4.10050488e+000,
          2.60954552e+001, 1.15543587e+002, 3.32604561e+001, 0.,
          2.92893219e+000, 7.45584393e+000, 7.61522388e+000, 0., 0.,
          2.92893219e+000, 1.32548342e+001, 2.28162346e+001, 0., 0.,
          5.85786438e+000, 3.68650055e+001, 5.52771301e+001, 0., 0.,
          2.01593800e+001, 3.23086586e+001, 6.74268417e+001,
          5.10511732e+000 ]
      - [ 2.01621115e-001, 4.31453562e+000, 1.89449043e+001,
          9.53893852e+000, 0., 0., 0., 0., 0., 3.99111557e+000,
          4.79315758e+001, 3.18346691e+001, 2.24264073e+000, 0., 0., 0.,
          0., 0., 1.10009508e+001, 7.64895325e+001, 6.39305840e+001,
          9.57893085e+000, 0., 0., 0., 1.51715727e+001, 8.62503281e+001,
          3.87609253e+001, 4.24762878e+001, 1.93408813e+001, 2., 0., 0.,
          1.90036368e+000, 1.20996361e+001, 15., 0., 0., 0., 0., 0., 2.,
          2.77279224e+001, 3.00294380e+001, 9.24264050e+000, 1., 1., 0.,
          9.33853626e-001, 0., 3.41421366e+000, 1.52121830e+001,
          2.27797699e+001, 3.31056900e+001, 4.13726387e+001,
          3.01816502e+001, 0., 1.01715727e+001, 8.82842731e+000,
          1.11715727e+001, 1.88618164e+001, 5.78417130e+001,
          3.98000984e+001, 1.49925251e+001, 0., 1.48071890e+001,
          1.50969162e+001, 1., 0., 0., 0., 0., 0., 3.19737473e+001,
          3.20262527e+001, 7.58578634e+000, 3., 0., 1., 1., 0.,
          8.17157269e+000, 6.41421366e+000, 0., 0., 2.65390511e+001,
          5.73177681e+001, 1.21431818e+001, 0., 1.11005049e+001,
          1.16568546e+001, 1., 8.59892464e+000, 3.05692425e+001,
          7.39505386e+001, 3.11083183e+001, 0., 1.95496826e+001,
          1.04503174e+001, 0., 0., 0., 0., 0., 1.15864706e+000,
          3.67161751e+001, 4.99757652e+001, 4.73519993e+000,
          4.14213568e-001, 0., 0., 0., 0., 6.28657684e+001,
          6.72872391e+001, 1.53431454e+001, 4., 0., 0., 1., 0.,
          9.05429230e+001, 6.40983887e+001, 7.20586014e+000,
          2.61203885e-001, 0., 0., 3., 3.77370477e-001, 6.78591204e+000,
          2.26651440e+001, 2.17157292e+000, 0., 0., 0., 0., 0.,
          3.58578634e+000, 4.95038452e+001, 2.84961548e+001,
          4.41421366e+000, 1., 0., 0., 0., 2.56254406e+001,
          5.93865433e+001, 2.74565010e+001, 9.79202271e+000,
          5.47338676e+000, 8., 5.85786462e-001, 0., 3.63479881e+001,
          1.26216421e+001, 1., 0., 1.41421354e+000, 1.58578646e+000,
          2.61203885e-001, 7.56627738e-001, 7.58405447e+000,
          1.52451038e+001, 4.15300989e+000, 1.26120389e+000, 0., 0., 0.,
          0., 2.14243431e+001, 2.94353733e+001, 1.97260704e+001,
          5.93662119e+000, 6.64916515e+000, 2.82842708e+000, 1., 0.,
