%YAML:1.0
_0218: !!opencv-ml-svm
   svm_type: C_SVC
   kernel: { type:LINEAR }
   C: 100.
   term_criteria: { epsilon:9.9999999747524271e-007,
       iterations:2147483647 }
   var_all: 576
   var_count: 576
   class_count: 2
   class_labels: !!opencv-matrix
      rows: 1
      cols: 2
      dt: i
      data: [ -1, 4 ]
   sv_total: 67
   support_vectors:
      - [ 0., 8.20210838e+000, 1.52426405e+001, 4.75735950e+000, 1., 0.,
          0., 0., 0., 6., 5.31421356e+001, 2.90294380e+001,
          6.82842731e+000, 0., 0., 0., 0., 0., 2.45269127e+001,
          8.87451630e+001, 3.87279205e+001, 2., 0., 0., 0., 0.,
          2.19705620e+001, 1.01431458e+002, 6.30121918e+001,
          1.43431454e+001, 9.65685463e+000, 2.17157292e+000, 0.,
          9.01251221e+000, 7.41421366e+000, 5.91036892e+000,
          1.67541742e+000, 0., 0., 4.14213568e-001, 0., 4.58578634e+000,
          5.78994942e+001, 2.45147190e+001, 1., 0., 0., 0., 0.,
          7.17157269e+000, 3.36568527e+001, 3.71715736e+001,
          6.16568527e+001, 1.33431454e+001, 1., 0., 0., 2.,
          1.20710678e+001, 5.62501907e+001, 8.89173737e+001,
          4.53167000e+001, 6.03045750e+000, 2.41421366e+000, 0.,
          1.35929117e+001, 0., 0., 0., 0., 0., 0., 0., 2.25222740e+001,
          5.50804996e+000, 0., 0., 0., 0., 3.20377231e-001, 0.,
          2.28666954e+001, 3.05731392e+001, 6.17157269e+000,
          2.82842708e+000, 1., 1., 5.85786462e-001, 0., 3.71784210e+001,
          3.63028336e+001, 2.85255928e+001, 2.24264073e+000, 0., 0.,
          5.85786462e-001, 0., 0., 0., 0., 0., 0., 0., 0., 0., 0., 0.,
          0., 0., 0., 0., 0., 0., 0., 0., 0., 0., 0., 0., 0., 0., 0., 0.,
          0., 0., 0., 0., 0., 0., 0., 0., 0., 0., 0., 0., 0., 0., 0., 0.,
          0., 0., 0., 0., 0., 0., 0., 0., 0., 0., 0., 0., 0., 0., 0., 0.,
          0., 0., 0., 0., 0., 0., 0., 0., 0., 0., 0., 0., 0., 0., 0., 0.,
          0., 0., 0., 0., 0., 0., 0., 0., 0., 0., 0., 0., 0., 0., 0., 0.,
          0., 0., 0., 0., 0., 0., 2.13383889e+000, 1.41421354e+000, 0.,
          0., 0., 0., 0., 0., 1., 2., 0., 0., 0., 0., 0., 0., 0., 0., 0.,
          0., 0., 0., 0., 0., 0., 0., 0., 0., 0., 0., 0.,
          3.93341517e+000, 2.09215240e+001, 2.14506125e+000,
          5.85786462e-001, 2.41421366e+000, 0., 0., 0., 0.,
          2.28794174e+001, 3.56688919e+001, 1.79555092e+001,
          6.50384474e+000, 4., 4.14213568e-001, 0., 0., 1.23195257e+001,
          5.86570168e+001, 5.21950302e+001, 4.82842731e+000, 2., 0., 0.,
          0., 1.28213863e+001, 5.22366791e+001, 7.09122009e+001,
          1.87695522e+001, 0., 0., 0., 7.39560413e+000, 2.13617554e+001,
          1.24264073e+000, 0., 0., 2.08963108e+000, 6.86849747e+001,
          1.82253971e+001, 0., 0., 0., 8.26202774e+001, 3.52081528e+001,
          1.17157292e+000, 0., 2.61203885e-001, 9.36605835e+001,
          5.05340538e+001, 1.90217476e+001, 5.22407770e-001,
          6.54668951e+000, 1.40685339e+001, 5.79898977e+000,
          5.85786462e-001, 0., 5.22407770e-001, 6.28674202e+001,
          2.36101723e+001, 0., 0., 0., 5.44192657e+001, 3.64507942e+001,
          1.11299419e+001, 0., 5.22407770e-001, 6.17252846e+001,
          4.18355713e+001, 5.39615555e+001, 3.95518446e+000,
          1.48132410e+001, 6.18675947e+000, 0., 0., 0., 2.26201572e+001,
          2.06519203e+001, 4.14213562e+000, 5.85786462e-001, 0.,
          2.55190105e+001, 4.16109314e+001, 9.11269855e+000,
          1.75735927e+000, 0., 2.80571976e+001, 7.11316223e+001,
          1.82253971e+001, 5.85786462e-001, 0., 0., 0., 0., 0., 0., 0.,
          0., 0., 0., 0., 0., 0., 0., 0., 0., 0., 0., 0., 0., 0., 0., 0.,
          0., 0., 0., 0., 0., 0., 0., 0., 0., 0., 0., 0., 0., 0., 0., 0.,
          0., 0., 0., 0., 0., 0., 0., 0., 0., 0., 0., 0., 0., 0., 0., 0.,
          0., 0., 0., 0., 0., 0., 1.26120389e+000, 2.73879623e+000, 0.,
          0., 0., 7.83611596e-001, 2.21638846e+000, 0., 0., 0., 0., 0.,
          0., 0., 0., 0., 0., 0., 0., 0., 1.78915882e+001,
          8.86577225e+000, 1.24264073e+000, 0., 0., 3.05270309e+001,
          4.26029129e+001, 8.69848442e+000, 4.17157269e+000, 0.,
          3.20953674e+001, 8.03066559e+001, 1.20121937e+001,
          1.58578646e+000, 0., 3.00722847e+001, 9.57317581e+001,
          2.31959591e+001, 0., 0., 6.95554256e+000, 4.21603012e+000,
          4.14213562e+000, 4.68629169e+000, 0., 0., 4.68629169e+000,
          1.82253971e+001, 2.80883121e+001, 0., 0., 0., 4.43208504e+001,
          9.46791458e+001, 0., 0., 3.34314585e+000, 5.09482689e+001,
          1.36186172e+002, 5.22407770e-001, 7.80832720e+000,
          4.53481865e+000, 4.14213562e+000, 5.25351477e+000,
          2.61203885e-001, 0., 2.92893219e+000, 1.44974747e+001,
          1.75735931e+001, 0., 0., 4.68629169e+000, 3.39655113e+001,
          7.92137527e+001, 3.13444638e+000, 0., 4.51471853e+000,
          2.89949493e+001, 1.45774597e+002, 2.47157288e+001,
          1.90929298e+001, 5.90707064e+000, 0., 0., 0., 3.24791756e+001,
          1.82071171e+001, 3.31370854e+000, 0., 0., 3.24665222e+001,
          1.32197704e+001, 7.04163074e+000, 8.27207756e+000, 0.,
          3.19139709e+001, 2.44586124e+001, 1.78111839e+001,
          2.58162346e+001, 0., 0., 0., 0., 0., 0., 0., 0., 0., 0., 0.,
          0., 0., 0., 0., 0., 0., 0., 0., 0., 0., 0., 0., 0., 0., 0., 0.,
          0., 0., 0., 0., 0., 0., 0., 0., 0., 0., 0., 0., 0., 0., 0., 0.,
          0., 0., 0., 0., 0., 0., 0., 0., 0., 0., 0., 0., 0., 0., 0., 0.,
          0., 0., 1.52240777e+000, 3.47759223e+000, 0., 0., 0.,
          5.22407770e-001, 1.47759223e+000, 0., 0., 0., 0., 0., 0., 0.,
          0., 0., 0., 0., 0., 0., 1.90614452e+001, 6.11012697e+000,
          8.28427136e-001, 3., 0., 2.06804600e+001, 1.65916176e+001,
          1.24264069e+001, 2.33648930e+001, 9.36621308e-001,
          1.41651697e+001, 1.08348303e+001, 2.65096684e+001,
          5.24903336e+001, 0., 1.09965830e+001, 1.57607765e+001,
          2.15391045e+001, 8.29199219e+001, 7.83611596e-001 ]
      - [ 0., 4.34314585e+000, 2.20710678e+001, 5.58578634e+000, 1., 0.,
          0., 0., 0., 8.41421318e+000, 5.48994942e+001, 2.16862907e+001,
          1., 0., 0., 0., 0., 3.03431454e+001, 6.14852829e+001,
          3.01715736e+001, 3., 0., 0., 1., 0., 34., 8.34142151e+001,
          3.11715736e+001, 1.54142132e+001, 1., 0., 0., 0.,
          7.92893219e+000, 1.10710678e+001, 1., 3., 0., 0., 1., 0.,
          1.59289322e+001, 3.12426414e+001, 20., 7., 0., 0., 0., 0., 12.,
          5.00710678e+001, 2.49289322e+001, 15., 1., 0., 1., 0., 16.,
          51., 25., 29., 0., 7., 5., 0., 4.58578634e+000,
          1.96568546e+001, 6.75735950e+000, 0., 0., 0., 0., 0., 3.,
          2.94852810e+001, 3.66862907e+001, 1.38284273e+001, 0., 0., 0.,
          0., 8.58578682e+000, 2.84142132e+001, 3.95147171e+001,
          2.84852810e+001, 5.58578634e+000, 1.24142132e+001, 5., 0., 3.,
          11., 3.17157292e+000, 1.89253349e+001, 2.77423935e+001,
          5.68886223e+001, 3.97867966e+001, 0., 2., 1.66568546e+001,
          1.09289322e+001, 4.14213568e-001, 0., 0., 0., 0., 3.,
          2.24744072e+001, 5.26260986e+001, 1.38994951e+001, 0., 0., 0.,
          0., 6.75735950e+000, 4.92359734e+001, 4.56033287e+001,
          2.88175526e+001, 5.17157269e+000, 3., 0., 0., 1.76862907e+001,
          6.53064270e+001, 5.61077843e+001, 3.99705620e+001,
          1.38578644e+001, 2.07106781e+000, 1., 0., 2.58578634e+000,
          1.53137083e+001, 1.32720776e+001, 8.28427136e-001, 0., 0., 0.,
          0., 3.15300965e+000, 3.02072563e+001, 5.37885399e+001,
          8.85119534e+000, 0., 0., 0., 0., 2.13121834e+001,
          5.85093651e+001, 3.75622101e+001, 1.69527206e+001,
          7.66352320e+000, 3., 0., 0., 3.25999756e+001, 4.86302299e+001,
          8.87712288e+000, 1.67541742e+000, 1., 0., 1.48528135e+000, 0.,
          1., 1.99222641e+001, 9.07773685e+000, 0., 0., 0., 0., 0.,
          9.56888866e+000, 3.83533745e+001, 2.22493095e+001,
          1.34142132e+001, 1.41421354e+000, 1., 0., 1.90743566e-001,
          1.67764339e+001, 3.51744690e+001, 1.17872965e+000,
          6.79622769e-001, 1., 0., 0., 0., 0., 0., 0., 0., 0., 0., 0.,
          0., 2.75735927e+000, 2.42426414e+001, 5., 0., 0., 0., 0., 0.,
          1.67573586e+001, 3.38284264e+001, 9.17157269e+000, 1., 1., 2.,
          5., 0., 2.53886795e+001, 1.59709549e+001, 3.20377231e-001, 1.,
          0., 9.50804996e+000, 2.84160671e+001, 0., 9.39266109e+000, 1.,
          0., 0., 0., 4.67368889e+000, 9.53294067e+001, 0., 1.,
          1.80118942e+001, 1.09881058e+001, 0., 0., 0., 0., 0.,
          3.87867966e+001, 2.59705620e+001, 0., 0., 0., 0., 0., 0., 24.,
          16., 0., 2., 0., 4., 2.33431454e+001, 0., 1.05857868e+001, 11.,
          13., 2.20896301e+001, 1.04961557e+001, 3.45529938e+001,
          5.48420486e+001, 5.22407770e-001, 2.81638832e+001,
          3.31370854e+000, 0., 0., 1.82842708e+000, 6.20466805e+001,
          2.11248913e+001, 0., 0., 0., 8.01644287e+001, 4.22497826e+001,
          5.85786462e-001, 0., 0., 9.10101013e+001, 5.84041138e+001,
          5.85786462e-001, 0., 2.61203885e-001, 1.55966606e+001,
          4.55634928e+000, 5.85786462e-001, 0., 0., 4.27329712e+001,
          2.52670269e+001, 0., 0., 0., 5.42771301e+001, 3.35513000e+001,
          1.17157292e+000, 0., 0., 5.63776321e+001, 4.01787148e+001,
          7.44365072e+000, 0., 2.61203885e-001, 2.49398060e+001,
          5.79898977e+000, 0., 0., 2.61203885e-001, 4.61286240e+001,
          2.36101723e+001, 0., 0., 0., 4.83481979e+001, 3.93502884e+001,
          1.43015156e+001, 0., 0., 1.05441561e+001, 3.97645035e+001,
          9.46017075e+001, 2.08963108e+000, 0., 2.37867966e+001,
          6.21320343e+000, 0., 0., 2.61203885e-001, 6.38565445e+001,
          1.98822517e+001, 0., 0., 1.93662131e+000, 7.81394958e+001,
          3.02375908e+001, 5.68629169e+000, 0., 2.04481554e+000,
          1.03090179e+002, 4.22497826e+001, 1.36152239e+001, 0., 0.,
          2.45441551e+001, 7.45584393e+000, 0., 0., 6.09732008e+000,
          7.29909897e+001, 1.49116879e+001, 0., 0., 3.55920029e+001,
          7.28100128e+001, 1.57401152e+001, 8.85786438e+000, 0.,
          4.17102470e+001, 4.90765495e+001, 7.04163074e+000,
          2.17157292e+000, 0., 2.24264073e+000, 2.19583702e+001,
          5.79898977e+000, 0., 0., 8.19381142e+000, 4.80660744e+001,
          1.69827557e+001, 1.75735927e+000, 0., 3.38389549e+001,
          1.80899773e+001, 2.07106781e+000, 1., 0., 0., 0., 0., 0., 0.,
          1.04481554e+000, 2.92983303e+001, 1.65685427e+000, 0., 0.,
          7.83611596e-001, 4.36478462e+001, 1.98822517e+001,
          4.68629169e+000, 0., 2.30582428e+001, 2.23854065e+001,
          1.78111839e+001, 3.62490120e+001, 2.49615550e+000,
          1.78361166e+000, 1.36600389e+001, 1.32548342e+001,
          9.08105927e+001, 3.34909210e+001, 2.24264073e+000,
          2.73431454e+001, 4.14213568e-001, 0., 0., 2.61203885e-001,
          4.95844688e+001, 1.61543293e+001, 0., 0., 0., 2.55025253e+001,
          2.65096684e+001, 1.69878063e+001, 0., 0., 2.09167385e+001,
          3.68650055e+001, 6.49738770e+001, 1.62443752e+001, 0.,
          3.51471853e+000, 5.38477612e+000, 5.10050488e+000, 0., 0.,
          5.85786438e+000, 1.53259020e+001, 1.58162336e+001, 0., 0.,
          2.28456707e+001, 2.98233757e+001, 2.03309517e+001, 0., 0.,
          2.16740990e+001, 3.47939377e+001, 2.85319633e+001, 0., 0.,
          9.37258339e+000, 8.28427124e+000, 2.34314585e+000, 0., 0.,
          1.37157288e+001, 1.94680367e+001, 1.58162336e+001, 0., 0.,
          1.17157288e+001, 2.60954552e+001, 2.51888161e+001, 0., 0.,
          2.67746029e+001, 4.05929298e+001, 3.16324673e+001, 0., 0.,
          3.51471853e+000, 6.21320343e+000, 5.27207804e+000, 0., 0.,
          1.75735927e+000, 2.23675327e+001, 3.28751068e+001, 0., 0.,
          1.17157288e+001, 3.47939377e+001, 4.74903336e+001, 0.,
          2.61203885e-001, 4.59570503e+001, 3.60365791e+001,
          3.85102158e+001, 2.23495150e+000, 0., 1.17157292e+000,
          5.79898977e+000, 8.02943707e+000, 0., 0., 1.75735927e+000,
          1.98822517e+001, 5.35767784e+001, 7.83611596e-001,
          4.14213568e-001, 9.02943707e+000, 2.69238815e+001,
          6.04346428e+001, 1.19782519e+000, 0., 1.38873014e+001,
          4.97056274e+001, 8.14070740e+001, 0., 0., 1.75735927e+000,
          7.45584393e+000, 1.07867966e+001, 0., 0., 3.92893219e+000,
          1.94680367e+001, 5.38085442e+001, 3.79448581e+000,
          1.59129438e+001, 1.87733479e+001, 2.44386005e+001,
          5.08488579e+001, 3.02625227e+000, 3.34936409e+001,
          2.26068649e+001, 6.21320343e+000, 1.14250879e+001,
          2.61203885e-001, 0., 1.17157292e+000, 5.79898977e+000,
          7.02943707e+000, 0., 1.24264073e+000, 9.61522388e+000,
          1.73969688e+001, 2.72227573e+001, 5.22407770e-001,
          1.61859589e+001, 2.01571865e+001, 2.48528147e+000,
          3.75735927e+000, 4.14213568e-001, 0., 0., 0., 0., 0., 0.,
          2.34314585e+000, 5.38477612e+000, 5.27207804e+000, 0., 0.,
          3.01593800e+001, 1.78111839e+001, 7.02943707e+000, 0.,
          2.75705185e+001, 7.83462219e+001, 1.49116879e+001,
          1.17157292e+000, 0., 6.91963959e+001, 9.25904007e+001,
          6.21320343e+000, 0., 0., 0., 5.85786462e-001, 6.21320343e+000,
          1.22010098e+001, 0., 0., 4.55614014e+001, 2.44386005e+001, 0.,
          0., 0., 7.56497116e+001, 4.01787148e+001, 1.17157292e+000, 0.,
          8.79448605e+000, 7.31100616e+001, 4.39066391e+001,
          2.79276123e+001, 2.61203885e-001 ]
      - [ 0., 1.15857868e+001, 1.54142132e+001, 0., 0., 0., 0., 0., 0.,
          3.91005058e+001, 2.54852810e+001, 5., 0., 0., 0., 1., 0.,
          2.65147190e+001, 4.98994942e+001, 2.07573586e+001,
          2.41421366e+000, 1., 5., 3., 0., 2.97682343e+001,
          4.85702553e+001, 4.64544983e+001, 2.51359463e+001, 1., 3., 16.,
          0., 1.21715727e+001, 7.41421366e+000, 1., 1., 0., 0., 1., 0.,
          2.71005058e+001, 2.56568546e+001, 2., 0., 0., 3., 6., 0.,
          2.15857868e+001, 2.12426414e+001, 1.21715727e+001, 6., 4., 10.,
          1.01715727e+001, 0., 7.22128868e+000, 5.52519655e+000,
          6.32458258e+000, 2.15611115e+001, 4.19054642e+001,
          4.12442360e+001, 3.95874329e+001, 0., 7.75735950e+000,
          1.18284273e+001, 0., 0., 0., 2., 0., 0., 1.49289322e+001,
          3.70710678e+001, 8., 5., 0., 2., 0., 0., 23., 47., 16., 10.,
          0., 0., 0., 0., 1.67573586e+001, 4.59180565e+001,
          1.66968384e+001, 2.55381126e+001, 1.41121254e+001,
          1.59775057e+001, 1.23431454e+001, 0., 3., 8., 2., 0., 0., 0.,
          0., 0., 10., 52., 13., 3., 0., 0., 0., 0., 2.18578644e+001,
          7.32132034e+001, 2.65147190e+001, 3.41421366e+000, 0., 0., 0.,
          0., 3.63431473e+001, 7.23137054e+001, 2.09289322e+001, 1., 0.,
          0., 1., 0., 6.75735950e+000, 2.16568546e+001, 1.58578646e+000,
          0., 0., 0., 0., 0., 1.41453209e+001, 4.76011658e+001,
          2.74250870e+001, 1.41421354e+000, 0., 0., 0., 0.,
          1.13431454e+001, 5.11277771e+001, 4.85732841e+001,
          2.01984329e+001, 6.91036892e+000, 3.84699035e+000, 0., 0.,
          6.70515347e+000, 2.44846592e+001, 4.94087334e+001,
          5.94033089e+001, 1.99789753e+001, 1.20191708e+001, 0.,
          4.14213568e-001, 9.31268787e+000, 1.79527206e+001,
          2.32037735e+000, 0., 0., 0., 0., 0., 1.92198486e+001,
          3.93702393e+001, 1.10095844e+001, 3.30649066e+000, 3., 1.,
          5.85786462e-001, 0., 4.38862944e+000, 5.12016373e+001,
          3.42119064e+001, 5.19782495e+000, 0., 0., 0., 0.,
          1.68074355e-001, 2.36189251e+001, 7.90212202e+000,
          5.42327738e+000, 2.67801118e+000, 2.09589288e-001, 0., 0.,
          1.29061632e+001, 1.55080500e+001, 1.58578646e+000, 0., 0., 0.,
          0., 3.45902896e+000, 2.66111412e+001, 4.91284676e+001,
          1.18234444e+001, 1.23912120e+000, 0., 1.41421354e+000,
          2.32458258e+000, 0., 0., 9.41804981e+000, 2.58195019e+000, 1.,
          0., 0., 0., 0., 0., 0., 0., 0., 0., 0., 0., 0.,
          1.56862917e+001, 1.03137083e+001, 0., 0., 0., 0., 0., 0.,
          3.79369049e+001, 3.24773102e+001, 9.17157269e+000, 1., 0., 0.,
          0., 1.24264073e+000, 1.27985783e+001, 4.88300972e+001,
          4.43940697e+001, 1.03203964e+001, 1., 1.41421354e+000, 0., 0.,
          0., 4.52470779e+000, 1.67336311e+001, 4.74166059e+000, 0., 0.,
          0., 0., 1.74730873e+001, 9.52691174e+000, 0., 0., 0.,
          4.84608955e+001, 2.19533195e+001, 5.85786462e-001, 0.,
          7.83611596e-001, 7.02925034e+001, 3.02375908e+001,
          5.42508745e+000, 2.61203885e-001, 2.80865345e+001,
          8.25753708e+001, 3.56223679e+001, 1.17157288e+001, 0., 0.,
          1.35441561e+001, 7.87005758e+000, 5.85786462e-001, 0., 0.,
          3.77746048e+001, 2.19533195e+001, 5.27207804e+000, 0., 0.,
          3.55319633e+001, 2.98233757e+001, 1.56446609e+001, 0.,
          1.23462749e+000, 1.25521688e+001, 1.98822517e+001,
          6.83762207e+001, 5.79547348e+001, 2.61203885e-001,
          1.43540201e+001, 6.21320343e+000, 1.17157292e+000, 0.,
          2.61203885e-001, 4.31702538e+001, 1.73969688e+001,
          1.17157292e+000, 0., 0., 5.28629150e+001, 3.31370850e+001, 0.,
          0., 1.29833031e+000, 5.36062164e+001, 4.22497826e+001,
          2.92294273e+001, 1.61624408e+000, 0., 8.02943707e+000,
          4.97056293e+000, 0., 0., 0., 4.97329712e+001, 2.52670269e+001,
          0., 0., 2.61203885e-001, 8.57022171e+001, 3.60365791e+001, 0.,
          0., 0., 8.48507233e+001, 4.55634918e+001, 5.85786462e-001, 0.,
          1.04481554e+000, 2.60556889e+001, 2.89949489e+000, 0., 0.,
          4.44046593e+000, 7.31331253e+001, 1.24264069e+001, 0., 0.,
          3.44046593e+000, 7.96650925e+001, 3.52081528e+001,
          7.90267992e+000, 7.83611596e-001, 1.31621122e+001,
          5.24703560e+001, 3.10660172e+001, 2.52406006e+001,
          4.06091547e+000, 2.28745627e+000, 2.31561947e+001,
          4.55634928e+000, 0., 0., 1.32539644e+001, 4.83906975e+001,
          1.24264069e+001, 2.92893219e+000, 0., 3.80922050e+001,
          5.07656593e+001, 4.14213562e+000, 0., 0., 2.08508911e+001,
          1.17348948e+001, 4.14213568e-001, 2.46319866e+000,
          1.53680134e+000, 1.19782519e+000, 2.17605438e+001,
          7.04163074e+000, 0., 0., 3.68522263e+001, 4.79345703e+001,
          7.04163074e+000, 3.17157292e+000, 0., 6.92285013e+000,
          4.66293621e+000, 4.14213568e-001, 0., 0., 0., 0., 0., 0., 0.,
          2.61203885e-001, 2.11824474e+001, 4.55634928e+000, 0., 0.,
          3.98143673e+000, 5.90358086e+001, 1.69827557e+001, 0., 0.,
          4.89022560e+001, 5.29850426e+001, 9.94112587e+000,
          2.17157292e+000, 0., 1.45892019e+001, 9.41079807e+000, 0., 0.,
          0., 0., 8.20100975e+000, 5.79898977e+000, 0., 0., 0.,
          4.00466805e+001, 2.40243874e+001, 2.92893219e+000, 0., 0.,
          4.09756126e+001, 3.39655113e+001, 1.56446609e+001,
          4.14213568e-001, 4.14213568e-001, 4.22182541e+001,
          3.35513000e+001, 3.45014114e+001, 3.23148232e+001, 0.,
          1.03725834e+001, 7.45584393e+000, 1.17157292e+000, 0., 0.,
          3.29461746e+001, 1.98822517e+001, 1.17157292e+000, 0.,
          2.61203885e-001, 3.75134010e+001, 2.77523079e+001,
          1.34730883e+001, 0., 2.29939404e+001, 5.17512245e+001,
          2.27817459e+001, 3.60505447e+001, 3.24225464e+001, 0.,
          1.02010098e+001, 5.79898977e+000, 0., 0., 0., 1.97451668e+001,
          1.86396103e+001, 7.61522388e+000, 0., 0., 2.50172443e+001,
          2.77523079e+001, 1.52304478e+001, 0., 0., 2.97746029e+001,
          3.56223679e+001, 3.81965065e+001, 4.40652466e+000, 0.,
          4.68629169e+000, 4.14213562e+000, 1.17157292e+000, 0., 0.,
          7.02943707e+000, 1.11837664e+001, 9.78679657e+000, 0., 0.,
          1.79878063e+001, 2.48528137e+001, 1.91593800e+001, 0., 0.,
          3.07035351e+001, 3.02375908e+001, 1.40588741e+001, 0., 0.,
          5.85786438e+000, 4.97056293e+000, 1.17157292e+000, 0., 0.,
          1.26152239e+001, 2.02964649e+001, 2.60883121e+001, 0., 0.,
          8.20100975e+000, 2.94091625e+001, 5.89307976e+001,
          1.45902908e+000, 0., 6.68629169e+000, 3.35513000e+001,
          8.94815598e+001, 1.82808495e+001, 0., 9.68629169e+000,
          4.97056293e+000, 2.34314585e+000, 0., 1.35083485e+000,
          2.41222534e+001, 1.61543293e+001, 1.16920261e+001,
          2.68055677e+000, 0., 6.10050488e+000, 9.52691174e+000,
          4.10183601e+001, 1.53542213e+001, 0., 5.85786462e-001,
          3.72792196e+000, 1.85017223e+001, 8.18456936e+000, 0.,
          1.05441561e+001, 8.28427124e+000, 1.17157292e+000, 0.,
          2.35083485e+000, 3.35364685e+001, 1.28406200e+001,
          1.69497395e+001, 9.32233810e+000, 0., 0., 4.14213568e-001,
          3.65685415e+000, 1.92893219e+000, 0., 0., 0., 0., 0., 0.,
          1.38873014e+001, 9.11269855e+000, 0., 0., 2.61203885e-001,
          3.48271065e+001, 1.94680367e+001, 7.44365072e+000, 0., 0.,
          1.40294371e+001, 1.03553391e+001, 3.44497871e+001,
          3.71654358e+001, 0., 0., 0., 9.26869965e+000, 1.47313004e+001 ]
      - [ 0., 1.15147190e+001, 9.48528099e+000, 1., 0., 0., 0., 0., 0.,
          2.74436512e+001, 2.27279224e+001, 5.15300989e+000,
          2.61203885e-001, 0., 0., 3., 0., 3.62720795e+001,
          3.14785652e+001, 2.45538845e+001, 5.86704445e+000, 1., 2., 5.,
          0., 1.28475981e+001, 2.98582592e+001, 5.06203690e+001,
          2.43306293e+001, 1., 8., 1.36635227e+001, 0., 8., 6., 0., 0.,
          0., 0., 5.85786462e-001, 0., 14., 11., 1., 2., 1., 12., 6., 0.,
          1.55857868e+001, 8.82842731e+000, 3., 8.41466141e+000,
          8.07554150e+000, 4.11472588e+001, 2.61198959e+001, 0.,
          3.08684978e+001, 1.06932487e+001, 5.52832985e+000,
          9.80563450e+000, 1.96531143e+001, 1.43857784e+001,
          4.60921326e+001, 0., 1.15857868e+001, 3.82842708e+000,
          2.58578634e+000, 0., 0., 0., 1.58578646e+000, 0.,
          3.27573586e+001, 2.12426414e+001, 0., 0., 1., 0., 0., 0.,
          1.61715736e+001, 3.52426414e+001, 6.17157269e+000, 11.,
          6.58578634e+000, 1.58284273e+001, 6.58578634e+000, 0.,
          1.84142132e+001, 33., 2.04548740e+001, 3.53044586e+001,
          3.00803032e+001, 1.88399868e+001, 2.32037735e+000, 0.,
          5.75735950e+000, 8.82842731e+000, 1.58578646e+000, 0., 0., 0.,
          5.85786462e-001, 0., 2.17573586e+001, 3.16568546e+001,
          1.17573595e+001, 2., 0., 0., 0., 0., 2.45857868e+001, 62., 8.,
          6., 3., 3., 1., 0., 1.77573586e+001, 8.34852829e+001,
          3.13431454e+001, 1.54142132e+001, 0., 7., 4., 0.,
          1.05857868e+001, 1.84142132e+001, 0., 0., 0., 0., 0., 0.,
          2.23431454e+001, 6.34852829e+001, 4.17157269e+000, 0., 0., 0.,
          0., 0., 2.61005058e+001, 8.82436600e+001, 3.15847664e+001,
          4.24264050e+000, 0., 0., 0., 8.28427136e-001, 1.94436512e+001,
          9.51548080e+001, 5.88157539e+001, 2.29408264e+001,
          4.81653261e+000, 0., 1., 0., 1.27573595e+001, 1.02426405e+001,
          5., 1., 0., 0., 0., 0., 2.92348728e+001, 5.12319374e+001,
          5.85777187e+000, 0., 0., 0., 0., 0., 8.43190479e+000,
          6.64557724e+001, 1.76981106e+001, 1., 0., 0., 0., 0., 1.,
          2.01230068e+001, 1.28769932e+001, 2., 1.58578646e+000,
          2.41421366e+000, 1., 0., 1.41005049e+001, 1.36568546e+001, 0.,
          0., 0., 0., 0., 0., 3.17621307e+001, 4.33776550e+001,
          1.22548723e+001, 4.23237123e-002, 0., 0., 2., 0.,
          8.61153543e-001, 1.81982288e+001, 9.45087051e+000,
          1.48974633e+000, 0., 0., 0., 0., 0., 0., 0., 0., 0., 0., 0.,
          1.24264073e+000, 1.24436512e+001, 1.33137083e+001, 2., 0., 0.,
          0., 0., 0., 1.63431454e+001, 4.99992714e+001, 1.82433701e+001,
          1.41421354e+000, 0., 1., 0., 0., 1.82842708e+000,
          1.59655895e+001, 5.73813972e+001, 4.82458448e+000, 0., 0., 0.,
          0., 0., 0., 0., 1., 0., 0., 0., 0., 1.62010098e+001,
          5.79898977e+000, 0., 0., 5.22407770e-001, 4.05659027e+001,
          1.61543293e+001, 1.75735927e+000, 0., 8.41065693e+000,
          6.29791718e+001, 2.69238815e+001, 4.68629169e+000, 0.,
          3.65006485e+001, 5.55165939e+001, 2.60954552e+001,
          1.54730883e+001, 4.14213568e-001, 0., 9.44365120e+000,
          4.97056293e+000, 5.85786462e-001, 0., 0., 1.52304478e+001,
          1.86396103e+001, 1.11299419e+001, 0., 0., 1.76446609e+001,
          2.65096684e+001, 4.43532600e+001, 1.74924107e+001,
          4.10795307e+000, 3.79803581e+001, 2.40243874e+001,
          4.38037567e+001, 4.30835419e+001, 0., 1.22010098e+001,
          6.62741709e+000, 1.17157292e+000, 0., 0., 3.49461746e+001,
          1.94680367e+001, 5.85786462e-001, 0., 0., 3.77035370e+001,
          3.10660172e+001, 1.82304478e+001, 0., 2.30253553e+000,
          4.62883034e+001, 4.05929298e+001, 3.84202690e+001,
          8.39596653e+000, 0., 1.16152239e+001, 5.79898977e+000,
          5.85786462e-001, 0., 0., 4.23898277e+001, 2.36101723e+001, 0.,
          0., 0., 6.35197678e+001, 3.43797264e+001, 4.10050488e+000, 0.,
          0., 9.19928589e+001, 4.55634918e+001, 6.44365072e+000, 0.,
          7.83611596e-001, 2.20031853e+001, 6.21320343e+000, 0., 0.,
          2.61203885e+000, 6.99909897e+001, 1.73969688e+001, 0., 0.,
          5.37708712e+000, 1.16941673e+002, 2.56812401e+001, 0., 0.,
          1.17417002e+001, 1.28322220e+002, 4.18355713e+001,
          6.10050488e+000, 0., 2.61203885e-001, 2.06971664e+001,
          7.04163074e+000, 0., 0., 1.48590965e+001, 6.44424210e+001,
          8.69848442e+000, 0., 0., 3.83134117e+001, 4.72307434e+001,
          7.45584393e+000, 0., 0., 1.55885134e+001, 1.59262047e+001,
          4.14213562e+000, 3.34314585e+000, 0., 1.04481554e+000,
          2.42272625e+001, 3.72792196e+000, 0., 0., 2.62985439e+001,
          5.23461151e+001, 1.11837664e+001, 1.17157292e+000, 0.,
          1.66293640e+001, 1.19564228e+001, 4.14213568e-001, 0., 0., 0.,
          0., 0., 0., 0., 0., 2.27867966e+001, 6.21320343e+000, 0., 0.,
          6.77927732e+000, 6.28948212e+001, 1.57401152e+001,
          5.85786462e-001, 0., 4.34023285e+001, 3.39408150e+001,
          1.65685427e+000, 0., 0., 0., 0., 0., 0., 0., 0.,
          1.25441561e+001, 7.87005758e+000, 5.85786462e-001, 0., 0.,
          3.27035370e+001, 2.27817459e+001, 4.25351477e+000,
          2.61203885e-001, 0., 4.35614014e+001, 3.10660172e+001,
          1.92086849e+001, 8.16389751e+000, 2.19013596e+000,
          4.07560387e+001, 2.73380947e+001, 3.03570690e+001,
          4.23586578e+001, 2.61203885e-001, 1.22829523e+001,
          7.45584393e+000, 0., 0., 0., 2.40883121e+001, 1.65685425e+001,
          2.34314585e+000, 0., 3.81415200e+000, 4.38893852e+001,
          2.52670269e+001, 1.13807592e+001, 5.64867830e+000,
          3.59459648e+001, 7.97575760e+001, 2.19533195e+001,
          1.61336308e+001, 2.22095146e+001, 0., 1.29583693e+001,
          8.28427124e+000, 1.75735927e+000, 0., 0., 2.40172443e+001,
          1.73969688e+001, 5.85786462e-001, 0., 0., 2.95319633e+001,
          2.98233757e+001, 1.46446609e+001, 0., 6.75417423e-001,
          2.30697479e+001, 3.35513000e+001, 5.19632416e+001,
          1.67402935e+001, 0., 1.28578644e+001, 4.97056293e+000,
          1.17157292e+000, 0., 0., 1.88162346e+001, 1.73969688e+001,
          8.78679657e+000, 0., 0., 2.15025253e+001, 2.15391045e+001,
          9.95836926e+000, 0., 0., 1.93309517e+001, 3.23086586e+001,
          2.93603897e+001, 0., 0., 8.78679657e+000, 6.21320343e+000, 0.,
          0., 0., 1.97451668e+001, 1.53259020e+001, 2.92893219e+000, 0.,
          0., 2.37451668e+001, 2.94091625e+001, 2.78456707e+001, 0., 0.,
          1.64730873e+001, 3.39655113e+001, 6.85420227e+001,
          7.01937675e+000, 0., 1.04436512e+001, 7.45584393e+000,
          4.10050488e+000, 0., 7.83611596e-001, 3.31331291e+001,
          1.57401152e+001, 6.46149254e+000, 2.88165331e+000, 0.,
          9.61522388e+000, 1.11837664e+001, 2.60075302e+001,
          9.19348049e+000, 0., 3.92893219e+000, 7.04163074e+000,
          2.03942223e+001, 4.63521433e+000, 0., 1.54436512e+001,
          4.55634928e+000, 0., 0., 2.76823330e+000, 3.53911476e+001,
          1.61543293e+001, 1.24234238e+001, 8.26286793e+000,
          4.14213568e-001, 1.58578646e+000, 4.14213568e-001,
          8.53895855e+000, 8.04682827e+000, 0., 0., 0., 0., 0., 0.,
          1.12010098e+001, 6.62741709e+000, 1.17157292e+000, 0., 0.,
          1.48873014e+001, 1.65685425e+001, 1.61170158e+001,
          3.42713928e+000, 0., 1.75735927e+000, 2.07106781e+000,
          2.61742611e+001, 4.09973106e+001, 0., 0., 0., 7.38796115e-001,
          2.61203885e-001 ]
      - [ 0., 4.58578634e+000, 5.58578634e+000, 2.41421366e+000, 0., 1.,
          5., 2., 0., 0., 0., 6.17157269e+000, 2.51421356e+001,
          2.82720776e+001, 1.74142132e+001, 7., 0., 0., 2.27251458e+000,
          8.83216667e+000, 6.11478233e+001, 7.81749649e+001,
          6.57252932e+000, 0., 0., 4.97240925e+000, 5.60987854e+001,
          3.78719025e+001, 1.38166237e+001, 7.24028063e+000, 0., 0., 0.,
          3.58578634e+000, 0., 0., 0., 0., 7.41421366e+000,
          9.10050488e+000, 0., 2.34314585e+000, 0., 0., 0.,
          2.58158112e+000, 3.71497345e+001, 3.62047005e+001, 0., 2., 4.,
          1.67541742e+000, 1.54852810e+001, 4.21853371e+001,
          6.35630302e+001, 1.15051489e+001, 0., 1.45857868e+001,
          3.28284264e+001, 4.94250870e+001, 5.35749130e+001,
          6.17157269e+000, 6.41421366e+000, 5., 0., 0., 0., 0., 0., 0.,
          1.95579195e+000, 1.85589275e+001, 0., 3.58578634e+000, 0., 0.,
          0., 1.17157292e+000, 1.17709351e+001, 5.74239769e+001, 0.,
          1.98799114e+001, 3., 0., 2., 3., 14., 2.71954765e+001, 0.,
          6.20217476e+001, 6.24744072e+001, 1.03431454e+001, 7., 0.,
          3.41421366e+000, 3.17157292e+000, 0., 1.58578646e+000, 0., 0.,
          0., 0., 0., 1.11715727e+001, 0., 5.79361868e+000, 0., 0., 0.,
          0., 4.14213568e-001, 3.42980347e+001, 0., 2.72504292e+001,
          1.58155861e+001, 0., 0., 0., 6.82842731e+000, 9.56661606e+000,
          0., 2.18749008e+001, 4.66923218e+001, 7.43277693e+000, 2., 2.,
          5., 2., 0., 0., 0., 0., 0., 0., 4.86616087e+000,
          1.98911991e+001, 0., 2.58578634e+000, 2., 2., 1., 1.,
          3.41786265e+000, 5.37528915e+001, 0., 1.15362949e+001,
          5.79598427e+000, 3.28450513e+000, 2.61203885e-001, 0.,
          1.00635414e+001, 4.66448441e+001, 0., 1.16903687e+001,
          2.06010962e+000, 3.91564941e+000, 4.25592327e+000,
          1.89180577e+000, 5.34662962e+000, 2.54484596e+001, 0., 3., 1.,
          0., 0., 1.58578646e+000, 2.41421366e+000, 7., 0.,
          8.97990608e+000, 1.26955919e+001, 5.56904650e+000, 4., 4., 15.,
          1.11960831e+001, 0., 7.78002834e+000, 1.13864517e+001,
          5.93804646e+000, 2.35482693e+000, 1.09074011e+001,
          3.33234406e+001, 5.20639915e+001, 0., 5.00598106e+001,
          3.71036644e+001, 1.53444424e+001, 1.47292531e+000, 0.,
          7.64180660e+000, 2.47519283e+001, 0., 4., 2.41421366e+000, 0.,
          3., 5., 5., 5.85786462e-001, 0., 2.04419250e+001,
          3.28037453e+000, 7.06337881e+000, 1.31428576e+001,
          8.55112362e+000, 5.82842731e+000, 7.58578634e+000, 0.,
          8.01162148e+000, 1.39484224e+001, 1.33912220e+001,
          1.58216639e+001, 2.60064869e+001, 3.96061363e+001,
          1.62963295e+001, 0., 4.17157269e+000, 3.17279224e+001,
          3.81154556e+001, 3.90461273e+001, 3.12009106e+001,
          2.49992161e+001, 9.32458210e+000, 0., 2.58578634e+000, 0.,
          4.14213568e-001, 5.85786462e-001, 0., 3.82842708e+000,
          1.23431454e+001, 0., 4.32037735e+000, 7.24405766e+000,
          1.63781605e+001, 2.80282764e+001, 1.10291290e+001,
          6.65685415e+000, 6.92893219e+000, 2.61203885e-001,
          1.17157292e+000, 9.59347534e+000, 2.23858719e+001,
          5.82033958e+001, 3.25560532e+001, 2.04404659e+001,
          6.38796139e+000, 0., 5.11120796e-001, 3.11162710e+000,
          3.23556137e+001, 8.68171768e+001, 8.52483940e+000, 0.,
          1.54506373e+000, 9.36621308e-001, 9.33545685e+000,
          6.62741709e+000, 5.10050488e+000, 0., 0., 4.51471853e+000,
          2.19533195e+001, 3.82707596e+001, 2.61203885e-001,
          3.93252850e+000, 1.01679764e+001, 1.20121937e+001,
          6.55695114e+001, 4.53177910e+001, 2.75289459e+001,
          6.41157150e+001, 1.15979795e+001, 6.58570766e+000,
          5.17165136e+000, 0., 2.75735927e+000, 6.62741709e+000,
          1.30928164e+001, 5.22407770e-001, 0., 2.34314585e+000,
          1.03553391e+001, 5.04698715e+001, 1.98316441e+001, 0.,
          5.68629169e+000, 2.40243874e+001, 7.49065628e+001,
          2.63827553e+001, 2.61203885e-001, 6.52169342e+001,
          4.55634918e+001, 1.09583693e+001, 0., 0., 0., 5.38477612e+000,
          1.66786022e+001, 9.36621308e-001, 0., 2.92893219e+000,
          7.87005758e+000, 4.88022728e+001, 2.03987370e+001,
          2.61203885e-001, 2.06260986e+001, 2.85807362e+001,
          3.30095558e+001, 5.22407770e-001, 1.55953407e+000,
          1.04232315e+002, 3.72792206e+001, 4.92893219e+000, 0., 0.,
          1.75735927e+000, 5.79898977e+000, 1.14436512e+001, 0.,
          3.31452227e+000, 1.27859831e+001, 7.87005758e+000,
          3.98116493e+001, 1.62177887e+001, 2.05988541e+001,
          2.26732254e+001, 7.87005758e+000, 1.25966606e+001,
          2.61203885e-001, 2.22229061e+001, 4.01080475e+001,
          1.69827557e+001, 5.68629169e+000, 0., 0., 0., 7.04163074e+000,
          1.80217476e+001, 9.36621308e-001, 0., 4.10050488e+000,
          1.24264069e+001, 5.03681335e+001, 2.21049557e+001,
          9.36103153e+000, 1.38399782e+001, 1.44974747e+001,
          4.70325699e+001, 3.02689476e+001, 1.50152769e+001,
          9.98472309e+000, 4.97056293e+000, 3.24369621e+001,
          1.45924749e+001, 0., 2.34314585e+000, 5.79898977e+000,
          6.85786438e+000, 0., 4.03278589e+000, 2.01682243e+001,
          1.57401152e+001, 2.50588741e+001, 0., 1.65306835e+001,
          8.56982136e+000, 1.82253971e+001, 5.65636368e+001,
          3.01104603e+001, 5.23572540e+001, 5.08021240e+001,
          2.31959591e+001, 2.46306572e+001, 1.10140038e+001, 0.,
          4.92893219e+000, 5.79898977e+000, 7.27207804e+000, 0.,
          2.13444638e+000, 3.16817875e+001, 2.02964649e+001,
          1.78873024e+001, 0., 7.61326981e+000, 2.99308853e+001,
          2.11248913e+001, 5.95999565e+001, 1.37309971e+001,
          2.83652306e+000, 5.64527969e+001, 3.18944435e+001,
          4.68815193e+001, 1.29347134e+001, 0., 2.92893219e+000,
          7.04163074e+000, 1.37682333e+001, 2.61203885e-001,
          3.73879623e+000, 2.58053589e+001, 1.44974747e+001,
          2.31747570e+001, 7.83611596e-001, 1.04481554e+000,
          2.85998459e+001, 2.73380947e+001, 5.34237671e+001,
          3.59347558e+000, 2.37228413e+001, 4.02355270e+001,
          1.03553391e+001, 2.41851597e+001, 8.50113106e+000,
          5.22407770e-001, 7.99231100e+000, 4.14213562e+000,
          2.34314585e+000, 0., 0., 5.10050488e+000, 1.73969688e+001,
          4.59801178e+001, 5.22407770e-001, 0., 0., 5.38477612e+000,
          7.72305374e+001, 7.23846893e+001, 0., 7.44365072e+000,
          1.90538235e+001, 4.85536880e+001, 1.69488354e+001, 0.,
          1.72010098e+001, 5.79898977e+000, 0., 0., 6.92574739e+000,
          4.69615555e+001, 1.11837664e+001, 2.92893219e+000, 0.,
          5.22407770e-001, 1.24359617e+001, 2.31959591e+001,
          6.01593781e+001, 7.68629169e+000, 0., 2.25025253e+001,
          4.72203445e+001, 7.54487000e+001, 1.82842708e+000,
          2.61203885e-001, 2.41113796e+001, 6.62741709e+000, 0., 0.,
          1.64007015e+001, 6.75576706e+001, 7.87005758e+000,
          1.17157292e+000, 0., 8.27658176e+000, 8.95985260e+001,
          2.31959591e+001, 2.92893219e+000, 0., 1.04481554e+000,
          7.83328171e+001, 4.34924240e+001, 1.11299419e+001, 0.,
          3.80217481e+000, 2.45409718e+001, 1.65685427e+000, 0., 0.,
          5.15852165e+001, 4.05863571e+001, 8.28427136e-001, 0., 0.,
          1.74251671e+001, 3.72905617e+001, 8.28427124e+000, 0., 0.,
          8.18816185e+000, 2.51133537e+001, 1.44974747e+001,
          8.20100975e+000, 0., 9.36621308e-001, 1.92643890e+001,
          5.79898977e+000, 0., 0., 3.42966270e+001, 4.99754486e+001,
          5.38477612e+000, 2.34314585e+000, 0., 5.58595085e+001,
          5.94125710e+001, 3.72792196e+000, 2.95354819e+000,
          4.04645157e+000, 4.31880074e+001, 2.90840683e+001,
          4.14213562e+000, 4.75143433e+000, 5.83435202e+000, 0.,
          1.39583693e+001, 7.87005758e+000, 1.17157292e+000, 0.,
          6.94154692e+000, 3.17741814e+001, 1.36690474e+001,
          1.03540201e+001, 2.61203885e-001, 2.43176155e+001,
          5.96285591e+001, 2.52670269e+001, 1.74133205e+001,
          9.37347603e+000, 6.03122635e+001, 8.04623413e+001,
          2.23675327e+001, 1.10535545e+001, 8.80430984e+000,
          5.22407770e-001, 6.99231100e+000, 4.97056293e+000,
          5.51471853e+000, 0., 9.02493286e+000, 3.64481544e+001,
          1.15979795e+001, 2.20601940e+001, 5.86873865e+000,
          7.89509916e+000, 2.79922028e+001, 2.31959591e+001,
          4.49516640e+001, 1.09650764e+001, 2.61203885e-001,
          1.67976704e+001, 3.89360733e+001, 7.48916245e+001,
          1.71134300e+001, 1.45902908e+000, 1.89846210e+001,
          4.55634928e+000, 7.38796115e-001, 2.61203885e-001, 0.,
          1.53725834e+001, 1.11837664e+001, 3.93577118e+001,
          1.30859404e+001, 2.61203885e-001, 8.42508793e+000,
          2.52670269e+001, 7.89759827e+001, 1.70706959e+001,
          1.58578646e+000, 3.58578634e+000, 2.07106781e+000,
          3.93491135e+001, 8.94082413e+001 ]
      - [ 0., 0., 4.82842731e+000, 7.34314585e+000, 9.82842731e+000, 0.,
          1., 1., 0., 2.58578634e+000, 2.80710678e+001, 2.99289322e+001,
          2.14142132e+001, 1., 0., 0., 0., 2.31715736e+001,
          9.08217621e+001, 2.33498154e+001, 7.48528147e+000,
          2.17157292e+000, 0., 0., 0., 7.02559814e+001, 9.54947128e+001,
          1.70066681e+001, 1., 0., 0., 1., 0., 2.49615550e+000,
          7.08963108e+000, 0., 0., 0., 4., 8., 0., 1.43431454e+001,
          2.56568546e+001, 1.75857868e+001, 11., 0., 2., 0., 0.,
          2.41005058e+001, 6.13847771e+001, 2.75147190e+001, 8., 4., 0.,
          1., 0., 2.78578644e+001, 8.16274185e+001, 2.36862907e+001,
          1.82426414e+001, 3.17157292e+000, 1.41421354e+000, 4., 0.,
          2.82842708e+000, 6.58578634e+000, 5.85786462e-001, 2., 1.,
          1.04142132e+001, 3.58578634e+000, 0., 1.63431454e+001,
          3.86568527e+001, 18., 2., 1., 0., 0., 0., 2.15857868e+001,
          7.58284302e+001, 1.45857868e+001, 6., 2., 0., 0., 0.,
          2.98578644e+001, 8.03847733e+001, 2.26862907e+001,
          8.41421318e+000, 3., 4., 3., 0., 0., 0., 0., 1., 4., 7., 7.,
          0., 2.48578644e+001, 2.74852810e+001, 6., 2., 1., 2.,
          3.58578634e+000, 0., 3.35441551e+001, 7.88886185e+001,
          1.39103689e+001, 4., 0., 1., 0., 0., 3.60108757e+001,
          1.05403343e+002, 3.79289322e+001, 8.24264050e+000, 0., 0., 0.,
          0., 5., 1., 0., 0., 0., 3., 7.17157269e+000, 0.,
          8.47338676e+000, 0., 0., 0., 1., 1.78284264e+001,
          2.47867966e+001, 0., 4.10713196e+001, 1.49808912e+001,
          1.56643236e+000, 2., 0., 3.41421366e+000, 2.38653355e+001, 0.,
          2.79338188e+001, 5.01492996e+001, 7.69341135e+000,
          5.58578634e+000, 1., 3.24264073e+000, 3.36231637e+000, 0., 0.,
          0., 0., 0., 1.17157292e+000, 7.94143391e+000, 1.50585661e+001,
          0., 1.58578646e+000, 4., 0., 0., 0., 1.43403072e+001,
          5.83359261e+001, 0., 6., 1., 0., 2., 2., 1.43346233e+001,
          8.22337723e+001, 0., 1.61188717e+001, 1.26568546e+001,
          1.58578646e+000, 1.26120389e+000, 6.15300989e+000,
          1.70683842e+001, 7.25024567e+001, 0., 1., 1.41421354e+000,
          2.58578634e+000, 2., 6.50472212e+000, 1.50727663e+001,
          3.42251182e+000, 0., 0., 0., 1., 6.92893219e+000,
          2.41693687e+001, 3.91950684e+001, 1.38782015e+001, 0.,
          1.58578646e+000, 2.41421366e+000, 1.02307463e+001,
          3.85996246e+001, 4.81242065e+001, 1.80454235e+001,
          1.35147190e+001, 0., 9.83437443e+000, 5.35083485e+000,
          2.42929649e+001, 8.05819321e+001, 3.80802841e+001,
          2.07650490e+001, 9.34314537e+000, 0., 0., 4.14213568e-001,
          1.17157292e+000, 8.24264050e+000, 3.17157292e+000,
          6.24264050e+000, 3.34314585e+000, 0., 0., 4.24264050e+000,
          1.22535143e+001, 3.63172188e+001, 2.94179726e+001,
          9.76865292e+000, 0., 0., 8.12060547e+000, 3.77491798e+001,
          5.40736313e+001, 2.32126522e+001, 1.95081234e+001,
          2.41968483e-001, 4.14213568e-001, 0., 1.48354149e+001,
          4.82460022e+001, 1.93989429e+001, 1.06442871e+001,
          6.46113920e+000, 1., 0., 0., 9.68629169e+000, 4.14213562e+000,
          1.17157292e+000, 0., 0., 4.11177483e+001, 2.02964649e+001,
          5.85786462e-001, 0., 5.37708712e+000, 1.05870605e+002,
          2.89949493e+001, 1.75735927e+000, 0., 7.92574739e+000,
          1.38795029e+002, 3.76934357e+001, 5.85786462e-001, 0.,
          2.61203885e-001, 6.83930111e+000, 7.87005758e+000,
          7.02943707e+000, 0., 0., 3.89461746e+001, 1.98822517e+001,
          1.17157292e+000, 0., 1.30601943e+000, 7.97995377e+001,
          3.39655113e+001, 2.92893219e+000, 0., 1.04481554e+000,
          9.02911911e+001, 4.59777069e+001, 5.68629169e+000, 0.,
          7.83611596e-001, 7.97374773e+000, 6.62741709e+000,
          9.61522388e+000, 0., 0., 4.60761185e+001, 2.73380947e+001,
          5.85786462e-001, 0., 2.61203885e-001, 7.44595718e+001,
          3.81076469e+001, 1.17157292e+000, 0., 5.22407770e-001,
          9.09851685e+001, 4.72203445e+001, 6.27207804e+000, 0., 0., 0.,
          7.45584393e+000, 1.05441561e+001, 0., 0., 4.05319633e+001,
          2.23675327e+001, 4.10050488e+000, 0., 3.96287370e+000,
          1.00426956e+002, 2.40243874e+001, 5.85786462e-001, 0.,
          5.89949512e+000, 1.36164429e+002, 3.89360733e+001, 0., 0., 0.,
          3.51471853e+000, 7.04163074e+000, 6.44365072e+000, 0., 0.,
          6.85786438e+000, 2.36101723e+001, 2.95319633e+001, 0.,
          1.71686382e+001, 3.84049530e+001, 2.27817459e+001,
          2.72076797e+001, 2.43698215e+000, 2.63235283e+001,
          4.65932121e+001, 1.65685425e+001, 6.51471853e+000, 0., 0., 0.,
          4.55634928e+000, 1.90928154e+001, 1.35083485e+000, 0.,
          4.34314585e+000, 9.11269855e+000, 5.20113792e+001,
          2.05327759e+001, 0., 5.68629169e+000, 2.56812401e+001,
          8.25563507e+001, 1.50761185e+001, 5.22407770e-001,
          2.25364666e+001, 3.02375908e+001, 8.34893188e+001,
          2.42142162e+001, 0., 3.34314585e+000, 2.89949489e+000,
          1.33955421e+001, 1.03618174e+001, 0., 5.85786462e-001,
          1.11837664e+001, 5.36828575e+001, 1.65475922e+001, 0.,
          1.27867966e+001, 3.14802303e+001, 6.81348877e+001,
          5.59808779e+000, 7.83611596e-001, 3.97483521e+001,
          3.93502884e+001, 6.18273468e+001, 1.72904034e+001, 0.,
          1.58578646e+000, 4.97056293e+000, 9.44365120e+000, 0., 0.,
          1.52010098e+001, 1.15979795e+001, 2.88258457e+001,
          1.43751650e+001, 2.44118328e+001, 7.17475510e+001,
          1.36690474e+001, 1.38795652e+001, 1.72920074e+001,
          2.59266205e+001, 5.04459610e+001, 7.87005758e+000,
          6.18687868e+000, 3.57048059e+000, 0., 1.75735927e+000,
          6.62741709e+000, 1.23540201e+001, 2.61203885e-001, 0.,
          1.75735927e+000, 2.07106781e+001, 3.45319633e+001, 0., 0.,
          1.81593800e+001, 2.69238815e+001, 2.79167385e+001, 0., 0.,
          6.54781418e+001, 4.84629860e+001, 1.50588741e+001, 0., 0.,
          1.12010098e+001, 5.79898977e+000, 0., 0., 0., 1.35441561e+001,
          1.73969688e+001, 1.90588741e+001, 0., 0., 2.68456707e+001,
          3.39655113e+001, 2.51888161e+001, 0., 0., 2.95319633e+001,
          3.76934357e+001, 2.97746029e+001, 0., 0., 5.27207804e+000,
          4.97056293e+000, 2.75735927e+000, 0., 0., 1.17157288e+001,
          1.69827557e+001, 1.23015156e+001, 0., 0., 1.81593800e+001,
          2.23675327e+001, 1.34730883e+001, 0., 0., 3.41177483e+001,
          3.47939377e+001, 2.20883121e+001, 0., 0., 8.44365120e+000,
          6.62741709e+000, 2.92893219e+000, 0., 2.61203885e-001,
          3.56555367e+001, 1.78111839e+001, 5.27207804e+000, 0., 0.,
          3.17746029e+001, 2.77523079e+001, 1.44730883e+001, 0., 0.,
          3.25319633e+001, 3.93502884e+001, 3.51177483e+001, 0., 0.,
          1.37867966e+001, 6.21320343e+000, 0., 0., 1.98143685e+000,
          5.58642349e+001, 1.65685425e+001, 5.85786462e-001, 0.,
          2.71713257e+001, 8.44611435e+001, 2.31959591e+001,
          3.91036892e+000, 2.61203885e-001, 1.51347151e+001,
          3.84388771e+001, 1.78111839e+001, 1.20928164e+001,
          5.22407770e-001, 2.61203885e-001, 1.55255928e+001,
          7.04163074e+000, 1.17157292e+000, 0., 1.63603897e+001,
          6.24264069e+001, 6.21320343e+000, 0., 0., 2.70083675e+001,
          9.77662354e+001, 1.98822517e+001, 2.34314585e+000, 0.,
          4.55348129e+001, 9.32692261e+001, 2.77523079e+001,
          7.18244696e+000, 2.61203885e-001, 2.61203885e-001,
          5.25351477e+000, 6.21320343e+000, 1.28130493e+001,
          1.45902908e+000, 1.35083485e+000, 1.50217485e+001,
          1.94680367e+001, 3.05812817e+001, 3.57809734e+000, 0.,
          1.98873024e+001, 2.11248913e+001, 7.30300064e+001,
          1.49577999e+001, 4.78361177e+000, 2.81747570e+001,
          2.11248913e+001, 8.31376724e+001, 4.77790642e+001, 0.,
          5.10050488e+000, 5.38477612e+000, 1.02535143e+001,
          2.61203885e-001, 0., 0., 7.45584393e+000, 6.11464882e+001,
          1.73976650e+001, 1.19782519e+000, 1.02458258e+001,
          1.73969688e+001, 5.68131714e+001, 4.13462067e+001,
          9.28932190e-001, 1.36152239e+001, 1.44974747e+001,
          2.79613419e+001, 1.39970274e+001 ]
      - [ 0., 3.15300965e+000, 6.35410070e+000, 8.45527744e+000,
          6.42320681e+000, 2.86636901e+000, 3.68494248e+000,
          6.48880959e-001, 0., 1.51481686e+001, 2.60351639e+001,
          1.15461092e+001, 8.39163303e+000, 7.12616062e+000,
          3.34788704e+000, 3.27759409e+000, 0., 1.28393106e+001,
          2.32052631e+001, 2.02201805e+001, 2.95391884e+001,
          2.19342480e+001, 1.84852810e+001, 1.47054625e+001, 0.,
          6.14192057e+000, 1.48347130e+001, 1.85500164e+001,
          5.99178276e+001, 6.11330757e+001, 1.02680759e+001,
          2.50873685e+000, 2.47532344e+000, 2.65263057e+000,
          2.47412682e+000, 4.59029049e-001, 0., 4.58104706e+000,
          1.08427515e+001, 6.51509094e+000, 0., 6.41450691e+000,
          1.96424694e+001, 4.84558201e+000, 8.91805840e+000,
          1.77508488e+001, 7.54790640e+000, 1.97399691e-001, 0., 0., 4.,
          3., 3.75013809e+001, 4.33564835e+001, 3.37989883e+001,
          1.03431454e+001, 0., 0., 0., 1., 1.24370623e+001,
          1.01831558e+002, 8.83882294e+001, 8.92893219e+000, 0., 0., 0.,
          0., 4.23237123e-002, 4.24942684e+000, 1.82479782e+001,
          6.04605675e+000, 0., 1.33670502e+001, 2.80178337e+001,
          2.35259295e+000, 3.02625227e+000, 1.37416220e+000,
          7.98714018e+000, 5.63869810e+000, 0., 6.75735950e+000, 4., 2.,
          7., 5., 3.20896301e+001, 4.48393021e+001, 0., 1.12307463e+001,
          5.93662119e+000, 1., 1., 1.17489433e+001, 7.63795547e+001,
          6.59171219e+001, 0., 0., 0., 0., 0., 2.58578634e+000,
          7.98143673e+000, 1.06043501e+001, 0., 8.97161198e+000,
          9.73050499e+000, 0., 2., 1.21952093e+000, 3.44360313e+001,
          2.42775860e+001, 0., 2.64841347e+001, 2.18950977e+001,
          2.04069252e+001, 1.38399687e+001, 1.88032424e+000,
          7.19887495e+000, 2.84460907e+001, 0., 2.08985405e+001,
          1.80352211e+000, 2., 1., 0., 6.28546333e+000, 3.24847641e+001,
          0., 6.34314585e+000, 1.82842708e+000, 1., 1., 1.75735927e+000,
          7.33647680e+000, 7.54384708e+000, 0., 2.02409725e+001,
          2.86185951e+001, 8.19685841e+000, 3.90188766e+000,
          7.38796115e-001, 5.95938969e+000, 1.33789434e+001, 0.,
          1.24582806e+001, 2.68547077e+001, 7.44062328e+000, 1., 0.,
          5.11482668e+000, 1.05327988e+001, 0., 0., 0., 0., 0., 0., 0.,
          0., 0., 6.36621571e+000, 7.73691750e+000, 1.17410612e+000,
          8.46990287e-001, 1.75796688e+000, 5.22347021e+000,
          1.97784054e+000, 0., 1.35928249e+001, 1.57670298e+001,
          1.11425238e+001, 3.73544717e+000, 0., 0., 0., 0., 0., 0., 0.,
          0., 0., 0., 0., 0., 0., 0., 0., 0., 0., 0., 0., 0.,
          1.90616369e+000, 2.09989595e+000, 3.40914297e+000,
          4.26233101e+000, 2.07562017e+000, 7.12818432e+000,
          5.77850389e+000, 0., 1.66455650e+001, 3.36136360e+001,
          1.01874685e+001, 3.60288358e+000, 6.38697922e-001,
          4.14213568e-001, 3.64662981e+000, 0., 3.03947240e-001,
          1.65825500e+001, 3.11350369e+000, 0., 0., 0., 0., 0., 0., 0.,
          0., 0., 0., 0., 0., 2.63608694e+000, 2.11777377e+000,
          2.30178571e+000, 1.48737395e+000, 9.75764847e+000,
          7.46719408e+000, 3.35603666e+000, 8.76100659e-001, 0.,
          3.93273997e+000, 8.92740440e+000, 5.01327991e+000,
          1.14753780e+001, 1.80169315e+001, 3.06735840e+001,
          1.05464678e+001, 0., 9.63860703e+000, 3.56038132e+001,
          1.82278481e+001, 1.12091188e+001, 1.28410702e+001,
          2.92547283e+001, 6.94554663e+000, 0., 4.49564791e+000,
          1.91313953e+001, 2.72078304e+001, 1.51160975e+001,
          3.16055012e+000, 1.29972696e+001, 2.05772591e+001,
          1.03211613e+001, 1.18504114e+001, 2.48528147e+000,
          4.04407406e+000, 3.29907203e+000, 4.23050537e+001,
          1.60380936e+001, 3.72792196e+000, 4.90838575e+000,
          8.02054691e+000, 3.69323463e+001, 2.29255180e+001,
          2.02964649e+001, 4.08059120e+001, 5.03975916e+000,
          3.29305496e+001, 1.86552372e+001, 8.28427124e+000,
          7.07874298e+001, 2.63425102e+001, 2.07466555e+000,
          3.51112080e+000, 1.65685427e+000, 7.90416813e+000,
          1.48531914e+001, 2.09061871e+001, 9.02274418e+000,
          1.11837664e+001, 1.61475868e+001, 1.73971486e+000, 0.,
          4.10050488e+000, 3.02375908e+001, 6.64007034e+001,
          2.61203885e-001, 0., 5.85786462e-001, 1.73969688e+001,
          1.51062164e+002, 3.89550781e+001, 0., 0., 2.48528147e+000,
          1.18879414e+001, 1.46267776e+001, 2.34119129e+001,
          1.76175251e+001, 9.52691174e+000, 7.33181572e+000,
          3.11183500e+000, 0., 9.61522388e+000, 3.64507942e+001,
          5.44115753e+001, 5.22407770e-001, 1.19782519e+000,
          1.44173985e+001, 3.97645035e+001, 1.10126610e+002,
          2.04936676e+001, 0., 0., 7.04163074e+000, 1.44436512e+001,
          5.14718652e-001, 1.07454681e+001, 8.35503674e+000,
          8.28427124e+000, 2.87545643e+001, 2.98606586e+001,
          4.50922432e+001, 3.65229797e+001, 1.11837664e+001,
          2.32620411e+001, 2.09389687e+001, 2.09216499e+001,
          1.68357086e+001, 3.31370854e+000, 2.39316654e+001,
          2.89972668e+001, 8.46990287e-001, 6.66772842e+000,
          5.38477612e+000, 1.41638842e+001, 9.36621308e-001,
          3.16636086e+001, 2.63658295e+001, 8.69848442e+000,
          1.52678728e+001, 5.00420523e+000, 3.41264572e+001,
          1.98024750e+001, 3.72792196e+000, 1.78642311e+001,
          9.47891521e+000, 0., 0., 0., 0., 0., 1.28601160e+001,
          4.13988447e+000, 1.65685427e+000, 6.75695229e+000,
          2.58619332e+000, 3.21514511e+001, 1.34343376e+001,
          4.14213568e-001, 0., 0., 0., 0., 0., 0., 0., 0., 0., 0., 0.,
          0., 2.04133177e+000, 7.30181408e+000, 3.31370854e+000,
          1.21164083e+001, 4.22673750e+000, 5.02405586e+001,
          1.79310131e+001, 2.89949489e+000, 5.97864819e+000,
          1.95028400e+000, 1.69451771e+001, 3.05482244e+000, 0., 0., 0.,
          0., 0., 0., 0., 0., 3.72649908e+000, 5.61664677e+000,
          2.48528147e+000, 8.98422909e+000, 9.18734360e+000,
          8.72160530e+000, 1.02073269e+001, 2.48528147e+000,
          1.66637135e+001, 4.69220734e+001, 4.95094032e+001,
          2.16621704e+001, 1.24264073e+000, 1.10156307e+001,
          3.95701561e+001, 4.47747536e+001, 1.42252474e+001,
          4.14213568e-001, 7.72163534e+000, 3.38641510e+001, 0.,
          5.34314585e+000, 2.89949489e+000, 9.15191460e+000,
          1.16054449e+001, 2.49597759e+001, 1.65549431e+001,
          4.14213562e+000, 9.38798714e+000, 1.99551582e+001,
          9.08354092e+000, 2.64606152e+001, 1.94680367e+001,
          4.14778252e+001, 2.95099831e+001, 1.15027657e+001,
          6.66880703e+000, 4.97056293e+000, 7.27386093e+001,
          7.31192551e+001, 3.93662143e+000, 1.30633783e+001,
          4.14213568e-001, 5.73859882e+000, 5.84718752e+000,
          6.03171444e+000, 1.04830036e+001, 1.15979795e+001,
          2.24592648e+001, 5.42803717e+000, 0., 9.37258339e+000,
          3.52081528e+001, 5.90684280e+001, 1.35083485e+000, 0.,
          1.12010098e+001, 3.18944435e+001, 1.17699028e+002,
          1.42055140e+001, 1.64115191e+000, 7.45935297e+000,
          3.72792196e+000, 3.62839818e+000, 4.54317474e+000,
          6.90157032e+000, 2.78435955e+001, 1.40832615e+001,
          3.42588258e+000, 4.74569035e+000, 1.04481554e+000,
          6.95165863e+001, 3.02375908e+001, 8.20100975e+000, 0.,
          1.14889078e+001, 8.51313705e+001, 4.01787148e+001,
          1.66337872e+001, 1.56722319e+000, 0., 9.61522388e+000,
          6.62741709e+000, 1.75735927e+000, 0., 1.72909489e+001,
          4.73242760e+001, 8.69848442e+000, 4.68629169e+000, 0.,
          4.79884033e+001, 4.92836761e+001, 5.79898977e+000,
          1.38094091e+001, 2.41195221e+001, 6.92980499e+001,
          3.34593124e+001, 2.89949489e+000, 2.34314585e+000, 0.,
          1.72023296e+000, 1.47234182e+001, 6.62741709e+000,
          2.92893219e+000, 0., 1.93266964e+001, 3.62885284e+001,
          7.45584393e+000, 1.07977295e+001, 7.13120270e+000,
          4.00402069e+001, 2.08887253e+001, 2.89949489e+000,
          7.07924795e+000, 9.09232521e+000, 1.16110563e+000,
          1.83889437e+000, 0., 0., 0., 8.14226818e+000, 8.02930450e+000,
          1.65685427e+000, 5.46606493e+000, 2.70550776e+000,
          2.00145435e+001, 8.98545647e+000, 0., 7.25245094e+000,
          1.17475491e+001, 0., 0., 0., 0., 0., 0., 0., 0., 0., 0.,
          4.38101339e+000, 9.79055977e+000, 2.07106781e+000,
          6.27864933e+000, 4.47871017e+000, 2.81995716e+001,
          1.87293606e+001, 3.31370854e+000, 1.07277193e+001,
          1.40296402e+001, 6.75417423e-001, 1.91036904e+000,
          4.14213568e-001, 3.61948681e+000, 4.38051319e+000, 0., 0., 0.,
          0., 0., 3.33414245e+000, 3.25164413e+000, 8.28427136e-001,
          5.25392246e+000, 1.43318644e+001, 9.90565586e+000,
          1.37806358e+001, 6.62741709e+000, 1.92380676e+001,
          2.84482231e+001, 2.32564125e+001, 1.53293734e+001,
          3.31370854e+000, 2.17660828e+001, 4.23344231e+001,
          3.27936211e+001, 9.20637989e+000, 4.14213568e-001,
          1.22876282e+001, 4.12981567e+001 ]
      - [ 0., 0., 0., 2.41421366e+000, 6.08722687e+000, 2.19745674e+001,
          2.52399254e+000, 0., 0., 3.17157292e+000, 3.68994942e+001,
          3.62720795e+001, 1.26760254e+001, 2.98082924e+000, 0., 0., 0.,
          2.70777359e+001, 1.00821762e+002, 1.51005049e+001, 1., 0., 1.,
          0., 0., 8.54467545e+001, 8.90041275e+001, 1.32802286e+001, 1.,
          0., 1., 0., 0., 0., 0., 0., 5.25821495e+000, 2.42649345e+001,
          4.76850599e-001, 0., 0., 7., 3.46568527e+001, 2.25147190e+001,
          1.08284273e+001, 3., 1., 0., 0., 2.67573586e+001,
          7.74852829e+001, 2.19289322e+001, 4.14213568e-001, 0., 0., 0.,
          0., 4.13431473e+001, 7.36568527e+001, 2.35857868e+001, 13., 0.,
          1., 2.17157292e+000, 0., 0., 0., 0., 2.65089321e+000,
          2.44533520e+001, 4.89575386e+000, 0., 0., 4., 3., 1.,
          1.12612038e+001, 1.90127354e+001, 3.37260590e+001, 3., 0.,
          3.15147190e+001, 7.38994980e+001, 1.31715727e+001, 6., 0., 3.,
          1., 0., 2.81715736e+001, 8.56568527e+001, 2.71715736e+001, 5.,
          1., 3., 1.58578646e+000, 0., 0., 0., 1., 9.50384426e+000,
          1.33354568e+001, 4.16069889e+000, 0., 0., 1., 0., 0., 1.,
          8.76103783e+000, 4.91417198e+001, 2.56830292e+001, 0.,
          3.56722331e+000, 11., 5., 1.41421354e+000, 3., 2.28437061e+001,
          6.10198746e+001, 0., 4.91299438e+001, 5.86274185e+001,
          1.19289322e+001, 3., 1., 2., 1.39689350e+001, 0., 0., 0., 0.,
          1., 1.60591736e+001, 1.29408264e+001, 0., 0., 3., 4., 0., 0.,
          4., 14., 1.35857868e+001, 0., 15., 7., 2., 2., 3.17157292e+000,
          1.30710678e+001, 4.93748817e+001, 0., 2.78914833e+001,
          2.63415947e+001, 3.90616369e+000, 3., 2., 9.01917076e+000,
          4.13880005e+001, 0., 0., 0., 1., 1.60710678e+001,
          1.01005049e+001, 2.82842708e+000, 0., 0., 7.17157269e+000,
          7.41421366e+000, 3., 12., 1.15857868e+001, 2.02426414e+001,
          6.17157269e+000, 0., 3.80514832e+001, 3.06873112e+001, 10.,
          7.82842731e+000, 4.17157269e+000, 8., 5., 0., 2.38393021e+001,
          2.94852810e+001, 1.07573595e+001, 2.03137093e+001,
          2.20294380e+001, 4.19705620e+001, 1.82720776e+001, 0., 0., 0.,
          4.17157269e+000, 9.70587540e+000, 1.23760672e+001,
          5.74648523e+000, 0., 0., 0., 1.26120389e+000, 1.10042057e+001,
          3.33514442e+001, 3.57804604e+001, 1.06026888e+001, 1., 0.,
          6.49615526e+000, 8.54157829e+000, 2.67851009e+001,
          6.05451927e+001, 2.92619648e+001, 8.10880184e+000,
          5.34314585e+000, 0., 5.92893219e+000, 1.14852810e+001,
          1.75542412e+001, 5.87157631e+001, 5.59004822e+001,
          2.78522835e+001, 1.35367661e+001, 0., 0., 0., 0.,
          4.99479818e+000, 1.88458481e+001, 6.15935421e+000, 0., 0., 0.,
          4., 8.01514816e+000, 2.50562706e+001, 4.71780205e+001,
          5.75056076e+000, 0., 0., 7.36231661e+000, 3.14728985e+001,
          2.68350849e+001, 2.99546814e+001, 1.11323767e+001, 0., 3., 0.,
          1., 1.87442474e+001, 1.68415394e+001, 4.14213568e-001, 0., 0.,
          0., 0., 1.75735927e+000, 1.65685427e+000, 1.26308565e+001,
          1.49549294e+001, 0., 5.72893219e+001, 2.11248913e+001, 3.,
          5.85786462e-001, 6.05250454e+000, 1.09609398e+002,
          2.77523079e+001, 5.85786462e-001, 0., 1.09615602e+001,
          1.37788651e+002, 4.26639977e+001, 5.85786462e-001, 0., 0., 0.,
          2.07106781e+000, 1.38992281e+001, 1.10297041e+001, 0.,
          4.57035370e+001, 2.19533195e+001, 2.34314585e+000, 0., 0.,
          8.59928589e+001, 4.10071411e+001, 0., 0., 0., 8.72233047e+001,
          5.34335480e+001, 2.34314585e+000, 0., 0., 0., 4.14213568e-001,
          1.55885334e+001, 1.59972534e+001, 0., 4.68629169e+000,
          1.11837664e+001, 2.93113213e+001, 1.88186226e+001, 0.,
          7.84070740e+001, 4.22497826e+001, 2.34314585e+000, 0., 0.,
          8.75664520e+001, 5.59188309e+001, 3.51471853e+000, 0., 0.,
          5.85786462e-001, 2.89949489e+000, 1.49026794e+001,
          1.61203873e+000, 0., 5.85786462e-001, 6.62741709e+000,
          4.36332703e+001, 3.41535263e+001, 0., 1.27157288e+001,
          1.69827557e+001, 5.38548355e+001, 3.24466782e+001, 0.,
          8.75492096e+001, 4.39066391e+001, 1.42829523e+001,
          2.61203885e-001, 0., 0., 6.21320343e+000, 2.10665646e+001,
          1.72023296e+000, 0., 4.10050488e+000, 1.28406200e+001,
          2.15364666e+001, 5.22407770e-001, 0., 1.44730883e+001,
          2.36101723e+001, 4.97686729e+001, 1.61480675e+001,
          1.74324493e+001, 3.94132195e+001, 2.73380947e+001,
          5.43756523e+001, 2.14405804e+001, 0., 5.85786462e-001,
          5.79898977e+000, 9.61522388e+000, 0., 0., 1.09583693e+001,
          1.61543293e+001, 2.79506798e+001, 9.36621308e-001,
          2.54866004e+000, 5.54980202e+001, 2.94091625e+001,
          1.05441561e+001, 0., 7.83611596e-001, 4.75767784e+001,
          4.34924240e+001, 6.09493599e+001, 1.19782519e+000, 0.,
          3.92893219e+000, 5.38477612e+000, 1.81638832e+001,
          5.22407770e-001, 5.22407770e-001, 1.23354568e+001,
          1.73969688e+001, 3.68456726e+001, 3.89949489e+000,
          3.27976704e+000, 4.06369705e+001, 2.60954552e+001,
          4.29611473e+001, 7.02665901e+000, 2.74198103e+000,
          3.11453209e+001, 2.27817459e+001, 7.11489716e+001,
          3.81819839e+001, 0., 0., 1.65685427e+000, 1.95113869e+001,
          8.83175850e+000, 1.95522022e+000, 8.31685734e+000,
          7.87005758e+000, 3.42498398e+001, 3.16080246e+001,
          3.10887680e+001, 3.56980286e+001, 7.87005758e+000,
          1.01188383e+001, 1.52243071e+001, 2.20253258e+001,
          1.37320347e+001, 1.24264073e+000, 0., 0., 0., 0.,
          1.24264073e+000, 1.53851023e+001, 1.63722572e+001, 0.,
          2.34314585e+000, 1.86396103e+001, 3.55091934e+001,
          1.50804985e+000, 0., 2.44314575e+001, 2.48528137e+001,
          1.17157288e+001, 0., 1.04481554e+000, 8.31612473e+001,
          4.10071411e+001, 1.17930584e+001, 1.99373806e+000, 0., 0.,
          1.24264073e+000, 1.66894169e+001, 1.20679436e+001, 0.,
          5.85786438e+000, 1.73969688e+001, 2.44839630e+001,
          2.61203885e-001, 0., 1.79878063e+001, 2.15391045e+001,
          1.44730883e+001, 0., 0., 3.79756126e+001, 3.89360733e+001,
          2.20883121e+001, 0., 0., 0., 4.14213568e-001, 1.63767300e+001,
          1.52090559e+001, 0., 7.02943707e+000, 1.65685425e+001,
          2.89692440e+001, 4.43277693e+000, 0., 2.26740990e+001,
          2.36101723e+001, 1.17157288e+001, 0., 0., 2.67746029e+001,
          3.23086586e+001, 1.99167385e+001, 0., 0., 0., 6.21320343e+000,
          2.12643890e+001, 5.22407770e-001, 9.67131996e+000,
          3.30444069e+001, 1.32548342e+001, 8.02943707e+000, 0.,
          3.06991520e+001, 5.91881485e+001, 1.28406200e+001,
          6.27207804e+000, 0., 4., 9.42476883e+001, 3.52081528e+001,
          1.05441561e+001, 0., 0., 0., 7.45584393e+000, 1.45441561e+001,
          0., 0., 2.19167385e+001, 1.65685425e+001, 3.51471853e+000, 0.,
          2.37522316e+001, 5.92944489e+001, 2.52670269e+001,
          4.68629169e+000, 0., 7.80029068e+001, 8.23280487e+001,
          1.73969688e+001, 6.27207804e+000, 0., 0., 0., 7.87005758e+000,
          1.98687382e+001, 2.61203885e-001, 0., 1.44730883e+001,
          1.98822517e+001, 1.66446609e+001, 0., 1.04481554e+000,
          4.75165825e+001, 3.27228699e+001, 1.37157288e+001, 0.,
          1.04481554e+000, 5.15165825e+001, 4.26639977e+001,
          3.77746048e+001, 0., 0., 0., 5.38477612e+000, 2.13431454e+001,
          3.27207804e+000, 0., 1.17157292e+000, 1.32548342e+001,
          6.59244308e+001, 6.64916515e+000, 5.22407770e-001,
          1.53354568e+001, 1.49116879e+001, 8.14751053e+001,
          3.07553444e+001, 3.42508769e+000, 2.65332813e+001,
          2.27817459e+001, 8.56952438e+001, 4.55646400e+001, 0., 0.,
          1.24264073e+000, 1.40610046e+001, 1.06963549e+001, 0., 0.,
          4.14213562e+000, 4.10335159e+001, 4.08243484e+001, 0.,
          1.08578644e+001, 8.69848442e+000, 3.58357201e+001,
          4.46079292e+001, 0., 2., 1.65685427e+000, 1.69140205e+001,
          1.14291248e+001 ]
      - [ 0., 0., 5., 2., 4., 3., 6., 2., 0., 5.17157269e+000,
          9.37720013e+000, 1.20859222e+001, 1.56093626e+001,
          2.92399526e+000, 1.80590725e+001, 9.60851192e+000, 0.,
          7.41000843e+000, 1.45266132e+001, 1.51967230e+001,
          1.92702808e+001, 3.79320030e+001, 3.18285103e+001,
          2.08423443e+001, 0., 6.20490694e+000, 1.09383631e+000,
          7.56609344e+000, 6.29051285e+001, 4.07780304e+001,
          2.24942055e+001, 1.25108776e+001, 0., 0., 8.82842731e+000,
          5.17157269e+000, 2., 1.58578646e+000, 3.65685415e+000,
          2.75735927e+000, 0., 2.41421366e+000, 6.41421366e+000,
          5.49207973e+000, 2.89261837e+001, 1.08124828e+001,
          1.05976810e+001, 1.12720776e+001, 0., 4.19580126e+000,
          1.03182249e+001, 8.52836037e+000, 2.71205673e+001,
          5.06579323e+001, 4.10864105e+001, 4.41728449e+000, 0., 0.,
          2.20639467e+000, 8.15628433e+000, 4.27258263e+001,
          1.04586823e+002, 4.19104576e+001, 4.14213568e-001, 0., 1.,
          8.41421318e+000, 4.58578634e+000, 3.41421366e+000,
          1.58578646e+000, 1., 0., 0., 3., 12., 1.23431454e+001,
          2.28994942e+001, 1.53431454e+001, 1.04142132e+001,
          6.17157269e+000, 0., 1.01715727e+001, 4.41421366e+000, 4.,
          3.99891243e+001, 3.88687401e+001, 3.11421356e+001, 3., 0., 1.,
          6., 1., 2.23399601e+001, 8.56642609e+001, 5.29957809e+001, 9.,
          0., 2., 3., 4., 0., 1., 2., 2., 0., 2.05147190e+001,
          1.26568546e+001, 2., 9., 4., 4., 3., 0., 3.73631554e+001,
          2.44142132e+001, 2., 1., 2., 5., 7., 0., 5.56474686e+001,
          1.90191708e+001, 0., 0., 1., 6., 5.67736149e+000, 0., 1.,
          5.58578634e+000, 3.41421366e+000, 1.82842708e+000,
          4.17157269e+000, 2., 4.58578634e+000, 0., 1.22307463e+001,
          2.05643463e+001, 1.25103188e+001, 6.60495710e+000, 2.,
          1.40896311e+001, 1.91036904e+000, 0., 7.21857529e+001,
          2.49875679e+001, 6.13884640e+000, 9.32037735e+000,
          3.94503188e+000, 4.73459101e+000, 7.64704895e+000, 0.,
          3.60501442e+001, 5.86456394e+000, 0., 0., 0., 3.98331881e-001,
          6.30451059e+000, 0., 2.38852167e+000, 6.50976563e+000,
          6.13450909e+000, 3.24280119e+000, 9.57420766e-001,
          3.34986186e+000, 4.87660646e+000, 0., 8.02040291e+000,
          1.97840023e+001, 1.03951721e+001, 6.67156267e+000,
          1.03333120e+001, 1.60591793e+001, 1.21983347e+001, 0.,
          1.70719070e+001, 6.27437172e+001, 1.55291328e+001,
          6.78807259e+000, 0., 9.77220178e-001, 1.05378695e+001, 0., 0.,
          2., 0., 0., 0., 0., 0., 0., 6.88913012e+000, 4., 3., 2., 0.,
          2., 2.39144516e+000, 0., 8.56362724e+000, 1.69223862e+001,
          1.23724594e+001, 1.63131008e+001, 4.75735950e+000,
          1.26568546e+001, 6.60434961e+000, 2.59377289e+000,
          2.40276985e+001, 6.80299835e+001, 1.93533115e+001,
          1.44356136e+001, 2.55961752e+000, 2., 1., 0., 0.,
          4.02464771e+000, 2.97535205e+000, 0., 0., 0., 0., 0., 0., 0.,
          3., 8., 4.17157269e+000, 4.82842731e+000, 1., 0.,
          1.01715727e+001, 1.14142132e+001, 1.05857868e+001,
          2.06568546e+001, 1.15147190e+001, 5.24264050e+000,
          2.17157292e+000, 0., 8.23074627e+000, 2.46045303e+001,
          4.20552025e+001, 2.46767426e+001, 1.81638832e+001,
          1.04219027e+001, 7.49615526e+000, 0., 3.12342763e+000,
          2.12825832e+001, 2.56221199e+001, 3.34403458e+001,
          6.11730766e+000, 8.28427136e-001, 1., 0., 4.10050488e+000,
          6.62741709e+000, 7.27207804e+000, 0., 1.78361166e+000,
          2.05889721e+001, 1.24264069e+001, 2.10808010e+001,
          7.12020874e+000, 4.84699011e+000, 3.21113777e+001,
          1.82253971e+001, 7.00384903e+001, 1.97777424e+001,
          9.06028271e+000, 1.56970768e+001, 4.55634928e+000,
          4.40908432e+001, 6.35954475e+001, 0., 9.44365120e+000,
          5.79898977e+000, 6.75735950e+000, 0., 1.64115191e+000,
          1.08024988e+001, 1.32548342e+001, 2.48731556e+001,
          4.42835999e+000, 5.52842855e+000, 1.69152222e+001,
          1.86396103e+001, 7.48702850e+001, 1.70464516e+001,
          4.78368711e+000, 1.28020992e+001, 5.79898977e+000,
          7.89057846e+001, 8.37094345e+001, 0., 9.02943707e+000,
          6.21320343e+000, 1.75735927e+000, 0., 2.61203885e-001,
          2.04545250e+001, 1.73969688e+001, 2.48424854e+001,
          1.04481554e+000, 0., 1.15441561e+001, 3.35513000e+001,
          5.29045448e+001, 0., 0., 4.68629169e+000, 3.39655113e+001,
          1.07248543e+002, 1.50996552e+001, 0., 5.27207804e+000,
          5.79898977e+000, 2.92893219e+000, 0., 2.61203885e-001,
          2.66260986e+001, 1.36690474e+001, 6.44365072e+000, 0., 0.,
          3.94903336e+001, 3.23086586e+001, 8.20100975e+000, 0.,
          3.22464333e+001, 5.16286774e+001, 2.65096684e+001,
          1.30928164e+001, 5.22407770e-001, 2.61203885e-001,
          8.08194160e+000, 6.62741709e+000, 7.02943707e+000, 0.,
          5.19013596e+000, 3.43540192e+001, 1.20121937e+001,
          1.29212427e+001, 5.22407770e-001, 4.36261215e+001,
          6.38469658e+001, 1.44974747e+001, 1.33536129e+001,
          1.67582428e+000, 3.77019005e+001, 1.78838844e+001,
          8.28427136e-001, 6.97764397e+000, 6.60814238e+000,
          8.29936886e+000, 8.87220478e+000, 1.24264073e+000,
          5.18286705e+000, 5.40291929e+000, 1.64094315e+001,
          2.45195007e+001, 4.14213562e+000, 2.45643005e+001,
          1.73646317e+001, 7.22111511e+001, 2.54751377e+001,
          4.14213562e+000, 5.19460249e+000, 9.97696972e+000,
          9.40826654e-001, 1.05917335e+000, 0., 0., 0., 1.52240777e+000,
          1.03354568e+001, 6.21320343e+000, 3.51471853e+000,
          4.14213568e-001, 4.11695051e+000, 2.97703514e+001,
          1.73969688e+001, 1.74545250e+001, 2.61203885e-001,
          7.74133987e+001, 4.18586769e+001, 4.97056293e+000,
          5.08194208e+000, 6.75417423e-001, 5.03115940e+000,
          1.96884072e+000, 0., 0., 0., 0., 1.75735927e+000,
          4.55634928e+000, 6.68629169e+000, 0., 2.61203885e-001,
          2.27976704e+001, 1.61543293e+001, 1.47867966e+001, 0.,
          2.73876743e+001, 5.26001320e+001, 2.02964649e+001,
          3.14097099e+001, 1.30601943e+000, 4.17341118e+001,
          2.00232468e+001, 2.07106781e+000, 7.74881124e+000,
          6.42276144e+000, 0., 2.34314585e+000, 4.97056293e+000,
          5.68629169e+000, 0., 4.38498259e+000, 2.01591740e+001,
          1.82253971e+001, 2.17766438e+001, 3.45380449e+000,
          7.17034101e+000, 3.05453873e+001, 2.15391045e+001,
          5.72250633e+001, 1.65201035e+001, 1.05587511e+001,
          1.87843952e+001, 2.89949489e+000, 3.08355923e+001,
          8.69217682e+001, 0., 2.34314585e+000, 5.38477612e+000,
          6.27207804e+000, 0., 6.75417423e-001, 1.85255928e+001,
          1.40832615e+001, 3.26854324e+001, 7.03029585e+000,
          2.19013596e+000, 1.14961557e+001, 2.27817459e+001,
          6.55042801e+001, 1.70276814e+001, 0., 5.85786462e-001,
          9.94112587e+000, 9.07844849e+001, 8.96885986e+001, 0.,
          5.85786462e-001, 3.31370854e+000, 7.10050488e+000, 0., 0.,
          1.00294371e+001, 1.78111839e+001, 4.23757668e+001,
          7.83611596e-001, 0., 1.31299419e+001, 3.52081528e+001,
          5.88782921e+001, 7.83611596e-001, 0., 9.95836926e+000,
          4.51492767e+001, 9.56574020e+001, 2.23495150e+000, 0.,
          2.34314585e+000, 3.72792196e+000, 2.92893219e+000, 0., 0.,
          2.49878063e+001, 1.82253971e+001, 8.78679657e+000, 0.,
          2.14210701e+000, 5.17208061e+001, 3.52081528e+001,
          2.92893219e+000, 0., 6.24997330e+001, 6.10616646e+001,
          2.48528137e+001, 5.85786462e-001, 0., 0., 4.51471853e+000,
          5.38477612e+000, 7.10050488e+000, 0., 2.61203885e-001,
          1.88687382e+001, 1.40832615e+001, 1.91113796e+001,
          6.75417423e-001, 4.75060577e+001, 6.40675354e+001,
          1.78111839e+001, 1.36781960e+001, 1.93702817e+000,
          6.30937195e+001, 1.99062824e+001, 0., 0., 0., 4.87652159e+000,
          8.05241013e+000, 3.72792196e+000, 5.84814739e+000,
          6.49499798e+000, 1.35121374e+001, 2.29315147e+001,
          1.07695522e+001, 2.39485741e+001, 8.83822250e+000,
          3.41365128e+001, 2.27213535e+001, 7.04163074e+000,
          1.55606165e+001, 2.05398884e+001, 0., 0., 0., 0., 0.,
          4.02180767e+000, 9.66448402e+000, 5.38477612e+000,
          2.92893219e+000, 0., 1.10050511e+000, 1.51005049e+001,
          1.61543293e+001, 2.50601292e+001, 3.58453083e+000,
          2.94544334e+001, 2.84034309e+001, 7.45584393e+000,
          1.96326866e+001, 2.40536041e+001, 0., 0., 0., 1.26928997e+000,
          2.73071003e+000, 0., 5.85786462e-001, 7.04163074e+000,
          9.37258339e+000, 0., 2.61203885e-001, 1.35255928e+001,
          1.98822517e+001, 3.13309517e+001, 0., 1.82842708e+000,
          2.84730873e+001, 2.11248913e+001, 5.41936493e+001,
          3.33799438e+001, 2.56722331e+000, 1.11901360e+001,
          2.48528147e+000, 1.84318008e+001, 5.33255577e+001 ]
      - [ 0., 2., 5., 3., 7., 0., 0., 0., 0., 1.52204809e+001,
          4.47795181e+001, 6., 5., 0., 0., 0., 0., 1.50529423e+001,
          5.25096054e+001, 9.59609699e+000, 1.91060848e+001,
          2.63106213e+001, 6.42464638e+000, 1., 0., 0., 2.,
          6.00173771e-001, 2.98969231e+001, 5.13771858e+001,
          1.25716537e-001, 0., 0., 0., 6., 8., 11., 0., 0., 0., 0., 6.,
          22., 3., 10., 3., 2., 4., 0., 2., 2., 2., 1.66027031e+001,
          4.90910492e+001, 4.51346741e+001, 6.17157269e+000, 0., 0., 0.,
          5.85786462e-001, 5.47171898e+001, 7.35909424e+001,
          1.11060810e+001, 0., 0., 0., 2., 10., 10., 0., 0., 0., 0.,
          7.58578634e+000, 3.41421366e+000, 2., 10., 4., 10.,
          2.01494141e+001, 0., 9.15867233e+000, 0., 0., 5.,
          4.17157269e+000, 1.46568546e+001, 3.48561935e+001, 0.,
          2.01173840e+001, 6.41421366e+000, 4., 7., 3., 11.,
          6.58228779e+000, 0., 1.58578646e+000, 3., 3., 9., 0., 0.,
          1.17157292e+000, 0., 7.93146229e+000, 7.65685415e+000, 0., 0.,
          0., 4.41421366e+000, 2.43938675e+001, 0., 0., 0., 0., 0., 0.,
          1., 8.66798210e+000, 0., 0., 0., 0., 0., 0., 0., 0., 0., 1.,
          3., 4., 7., 1., 0., 0., 0., 1.43498440e+001, 1.42881842e+001,
          3.49157500e+000, 8.07106781e+000, 6.51471853e+000,
          7.95518446e+000, 9.02652359e+000, 0., 4.05917358e+000,
          1.04525557e+001, 2.85733280e+001, 5.25869608e+000,
          6.15240240e+000, 7.27035332e+000, 5.48273315e+001, 0.,
          3.87837982e+000, 1.26950808e+001, 2.41005878e+001,
          3.14311409e+000, 1.80925643e+000, 2.99917150e+000,
          3.25010300e+001, 0., 0., 5., 7., 13., 0., 0., 0., 0.,
          1.85061741e+001, 1.65586338e+001, 1.07443323e+001,
          1.50999308e+001, 3.16807437e+000, 1.58578646e+000,
          5.24927950e+000, 0., 2.26002073e+000, 2.09383631e+000,
          2.01124592e+001, 2.59983292e+001, 2.38116217e+000,
          9.67541790e+000, 2.23206310e+001, 0., 6.14648771e+000,
          3.97005177e+000, 1.70971298e+001, 2.58845463e+001,
          3.87669897e+000, 6.41421366e+000, 2.37292824e+001, 0., 1., 3.,
          4.17157269e+000, 1.48284273e+001, 5., 0., 0., 0.,
          2.90616369e+000, 2.35080490e+001, 1.45857868e+001, 21., 3., 3.,
          2., 0., 2.58355923e+001, 1.64025555e+001, 1.62901230e+001,
          4.06701813e+001, 9.12400818e+000, 5.58578634e+000,
          7.65518856e+000, 0., 2.39623756e+001, 3.82842708e+000,
          9.29010582e+000, 6.87171783e+001, 9.16428566e+000,
          4.67541742e+000, 5.27167130e+000, 0., 3., 6., 2., 6., 0., 0.,
          0., 0., 6.58578634e+000, 1.72612038e+001, 1.47942114e+001,
          2.43781815e+001, 5.66403389e-001, 4., 0., 0., 3.14380188e+001,
          6.75872040e+000, 7.93805742e+000, 2.89482651e+001,
          1.74452853e+000, 0., 0., 0., 3.68058243e+001, 2.34295750e+001,
          1.19761312e+000, 1.37721081e+001, 1.73378277e+001,
          7.35750341e+000, 3.20602369e+000, 0., 5.85786438e+000,
          4.14213562e+000, 0., 0., 5.85786462e-001, 4.01471863e+001,
          2.52670269e+001, 0., 0., 7.44709110e+000, 4.73569489e+001,
          2.94091625e+001, 1.60531979e+001, 1.37335978e+001, 0.,
          3.75735927e+000, 1.65685427e+000, 1.33725281e+001,
          5.62132568e+001, 0., 8.20100975e+000, 5.79898977e+000, 0., 0.,
          0., 1.81593800e+001, 1.65685425e+001, 5.27207804e+000, 0., 0.,
          3.51471853e+000, 2.77523079e+001, 6.55264359e+001,
          1.22065353e+001, 0., 5.85786462e-001, 2.02964649e+001,
          5.32380867e+001, 4.38796616e+001, 0., 7.02943707e+000,
          4.97056293e+000, 0., 0., 0., 8.61522388e+000, 1.90538235e+001,
          2.23943310e+001, 9.36621308e-001, 4.14213568e-001,
          1.14436512e+001, 1.53259020e+001, 3.67669830e+001,
          3.10492516e+001, 1.72812176e+001, 3.01918697e+001,
          1.82253971e+001, 1.30403109e+001, 2.61203885e-001, 0.,
          4.68629169e+000, 4.14213562e+000, 1.17157292e+000, 0.,
          8.28427136e-001, 1.36152239e+001, 1.15979795e+001,
          2.71982250e+001, 1.87601452e+001, 0., 0., 0., 4.45921898e+000,
          1.45407810e+001, 0., 0., 0., 0., 0., 0., 4.68629169e+000,
          3.72792196e+000, 5.85786462e-001, 0., 1.53453722e+001,
          1.58556385e+001, 1.24264069e+001, 1.80575237e+001,
          4.31505966e+000, 3.12488403e+001, 1.22658787e+001,
          7.87005758e+000, 2.60359688e+001, 4.45792542e+001,
          3.54016457e+001, 9.18414116e+000, 1.65685427e+000,
          1.35712233e+001, 3.61861343e+001, 0., 7.02943707e+000,
          4.97056293e+000, 0., 0., 2.15748310e+001, 2.55551109e+001,
          1.07695522e+001, 8.17574120e+000, 2.92476416e+000,
          2.51585903e+001, 1.82850609e+001, 9.52691174e+000,
          3.05116653e+001, 2.75177708e+001, 2.86154900e+001,
          2.44139481e+001, 1.20121937e+001, 3.33440742e+001,
          3.36142921e+001, 0., 5.27207804e+000, 5.79898977e+000,
          2.92893219e+000, 0., 1.72832894e+000, 2.64310513e+001,
          1.61543293e+001, 4.68629169e+000, 0., 3.44292908e+001,
          3.98011551e+001, 1.90538235e+001, 2.28590870e+001,
          1.18566408e+001, 3.53147163e+001, 4.82294388e+001,
          1.03553391e+001, 1.97578564e+001, 1.13426495e+001, 0.,
          6.44365072e+000, 4.55634928e+000, 0., 0., 1.16976156e+001,
          2.24617634e+001, 1.57401152e+001, 4.83930111e+000,
          2.61203885e-001, 4.14146614e+001, 1.37569113e+001,
          1.65685427e+000, 3.17083573e+000, 4.00073719e+000,
          3.60052567e+001, 2.68526096e+001, 7.04163074e+000,
          1.43276443e+001, 2.17728615e+001, 0., 1.75735927e+000,
          4.97056293e+000, 6.27207804e+000, 0., 0., 1.28873014e+001,
          1.36690474e+001, 6.44365072e+000, 0., 1.29800618e+000,
          1.30035086e+001, 2.23675327e+001, 2.78072929e+001,
          1.75236607e+001, 0., 5.85786462e-001, 4.14213568e-001,
          1.22946444e+001, 6.97053528e+001, 0., 0., 7.87005758e+000,
          1.11299419e+001, 0., 0., 9.37258339e+000, 1.32548342e+001,
          9.37258339e+000, 0., 0., 8.20100975e+000, 2.65096684e+001,
          4.30736847e+001, 1.02156363e+001, 0., 0., 1.24264069e+001,
          5.98475723e+001, 5.77260208e+001, 0., 0., 8.28427124e+000,
          1.17157288e+001, 0., 1.11098278e+000, 3.48057556e+001,
          2.02964649e+001, 1.07867966e+001, 0., 4.89770393e+001,
          4.16676216e+001, 1.40832615e+001, 6.27207804e+000, 0.,
          3.91344986e+001, 2.79954453e+001, 1.36690474e+001,
          8.20100975e+000, 0., 9.36621308e-001, 8.40652466e+000,
          6.21320343e+000, 7.44365072e+000, 0., 3.18960381e+001,
          3.44054794e+001, 8.69848442e+000, 0., 0., 2.37156277e+001,
          4.28437328e+000, 0., 0., 0., 0., 0., 0., 0., 0.,
          2.61203885e-001, 7.66772842e+000, 7.04163074e+000,
          7.02943707e+000, 0., 1.50027342e+001, 3.01272087e+001,
          1.24264069e+001, 1.45621538e+001, 2.88149738e+000,
          4.93606415e+001, 2.23256512e+001, 6.62741709e+000,
          1.37964745e+001, 2.98898163e+001, 4.68119812e+001,
          1.39453773e+001, 1.65685427e+000, 6.81795549e+000,
          2.77678299e+001, 0., 0., 8.28427124e+000, 1.17157288e+001, 0.,
          1.82194462e+001, 2.12242050e+001, 1.36690474e+001,
          1.60810966e+001, 6.80620384e+000, 6.23677521e+001,
          2.09043255e+001, 6.62741709e+000, 1.46656513e+001,
          3.24348526e+001, 7.70969391e+001, 2.38319931e+001,
          3.72792196e+000, 1.04659548e+001, 3.48771896e+001, 0.,
          5.85786462e-001, 9.11269855e+000, 1.53015156e+001, 0., 0.,
          3.51471853e+000, 1.78111839e+001, 2.36740990e+001, 0.,
          2.54528809e+001, 3.70912743e+001, 1.07695522e+001,
          2.01441460e+001, 4.75421448e+001, 4.00797920e+001,
          3.66064987e+001, 5.38477612e+000, 1.42180023e+001,
          7.27109299e+001, 0., 2.34314585e+000, 4.97056293e+000,
          4.68629169e+000, 0., 0., 7.44365072e+000, 9.11269855e+000,
          1.05693760e+001, 2.48742752e+001, 3.08879814e+001,
          1.21120186e+001, 0., 4.84616470e+000, 3.51538353e+001,
          2.92064800e+001, 2.71661034e+001, 7.45584393e+000,
          7.98793602e+000, 2.51836376e+001 ]
      - [ 0., 6.69117880e+000, 0., 0., 1., 0., 0., 2.76632118e+000, 0.,
          5.78164482e+000, 2.53391790e+000, 7.17150831e+000,
          3.55783615e+001, 5.13042641e+000, 2.61203885e-001,
          7.11170530e+000, 0., 4.01114769e+001, 1.45147133e+001,
          1.95489883e+000, 2.00601501e+001, 1.99207067e+000,
          4.19074345e+000, 1.36788235e+001, 0., 2.73879623e+000,
          1.84699035e+000, 4.11647987e+000, 7.33574371e+001,
          2.16790943e+001, 0., 1.24264073e+000, 0., 9.62697864e-002, 0.,
          1.36689234e+000, 4.63310766e+000, 0., 0., 2.42100935e-002, 0.,
          6.42267323e+000, 1.14122319e+000, 9.85481071e+000,
          1.65632057e+001, 1.44076025e+000, 4.14213568e-001,
          1.26499443e+001, 0., 2.83138790e+001, 3.39172401e+001,
          1.08745432e+001, 2.45530872e+001, 8.10679436e+000,
          9.94082642e+000, 8.98217869e+000, 0., 2.05857868e+001,
          2.24142132e+001, 1.68142910e+001, 4.58263321e+001,
          1.09451637e+001, 19., 16., 0., 1., 0., 6.84585094e+000,
          1.50181379e+001, 1.45638824e+000, 6.79622769e-001,
          3.24591565e+000, 0., 4.42500544e+000, 0., 1.77342761e+000,
          6.22657251e+000, 4.14213568e-001, 5.86616087e+000,
          2.38457584e+001, 0., 1.09451904e+001, 9.44813061e+000,
          3.99293137e+001, 1.25331879e+001, 3.82576489e+000,
          6.49809456e+000, 3.72953262e+001, 0., 6.08194208e+000,
          1.01322851e+001, 7.69614172e+000, 9.58578682e+000,
          3.41421366e+000, 1.88053837e+001, 7.59033127e+001, 0.,
          3.61302108e-001, 0., 4.74674940e-001, 4.75977182e+000,
          7.65553117e-001, 0., 9.13665009e+000, 0., 1.97496742e-001, 0.,
          0., 0., 0., 1., 4.86187267e+000, 0., 7.88678360e+000,
          1.15629368e+001, 1.45831327e+001, 6.07309914e+000, 0.,
          1.19074357e+000, 1.39296236e+001, 0., 0., 0., 0., 0., 0., 0.,
          3.23886442e+000, 0., 4.66100121e+000, 1.56743705e+000,
          4.93463135e+000, 5.35564280e+000, 5.12326002e-001, 0.,
          4.46228409e+000, 0., 4.50645638e+000, 2.24234366e+000, 0., 0.,
          0., 0., 1.42734551e+000, 0., 0., 0., 0., 0., 0., 0., 0., 0.,
          0., 0., 0., 0., 0., 0., 0., 0., 2.57544786e-001,
          4.33587790e+000, 1.02545090e+001, 5.15206814e+000, 0., 0., 0.,
          0., 0., 2., 0., 0., 0., 0., 0., 0., 0., 0., 0., 0., 0., 0., 0.,
          0., 0., 0., 0., 0., 0., 0., 0., 0., 6.47069633e-001, 0., 0.,
          1., 0., 0., 0., 0., 4.84234715e+000, 1.08537903e+001,
          9.81124341e-002, 0., 0., 0., 1.88927993e-001, 0., 0., 0., 0.,
          0., 0., 0., 0., 0., 0., 0., 0., 0., 0., 0., 0., 0.,
          1.30413103e+000, 0., 0., 0., 0., 0., 2.17434978e+000, 0.,
          1.31667113e+000, 4.98163223e+000, 1.32610397e+001,
          3.00990467e+001, 4.08606589e-001, 0., 7.77691650e+000, 0.,
          1.32350445e+001, 7.84391880e+000, 1.28734899e+000,
          1.73459077e+000, 1.26540923e+000, 0., 2., 0., 0.,
          2.60506535e+000, 5.56692982e+000, 1.48280048e+001, 0., 0., 0.,
          1.01722488e+001, 4.82775068e+000, 0., 2.47725153e+000,
          4.52274847e+000, 1.15164509e+001, 1.60987720e+001,
          1.20121937e+001, 2.34109898e+001, 5.96159267e+000,
          4.12174644e+001, 3.89835434e+001, 1.32548342e+001,
          2.55305672e+001, 9.01358986e+000, 2.83513165e+000,
          1.18511600e+001, 4.97056293e+000, 2.08302555e+001,
          4.45128899e+001, 2.34583163e+000, 2.65416837e+000,
          4.14213568e-001, 5.85786462e-001, 0., 2.53433247e+001,
          1.39998207e+001, 7.45584393e+000, 2.06177483e+001,
          1.05832615e+001, 3.33029900e+001, 4.29274597e+001,
          1.78111839e+001, 2.50675850e+001, 7.89078379e+000,
          2.12537646e+000, 4.14360237e+001, 4.22497826e+001,
          2.84498100e+001, 6.73900604e+000, 1.09178200e+001,
          4.42532587e+000, 2.89949489e+000, 7.82073784e+000,
          9.36621308e-001, 8.29029655e+000, 7.22442198e+000,
          6.21320343e+000, 3.13149872e+001, 1.99570904e+001,
          5.18469887e+001, 2.06677284e+001, 5.79898977e+000,
          3.40962067e+001, 3.05900822e+001, 3.07106042e+000,
          1.77157364e+001, 1.61543293e+001, 5.11723518e+001,
          6.28865242e+001, 1.48814225e+000, 2.51185775e+000,
          1.24264073e+000, 1.37025194e+001, 1.00548401e+001,
          2.61203885e-001, 1.73879611e+000, 4.14213568e-001,
          3.12181091e+000, 7.46397543e+000, 3.44185944e+001,
          7.58140564e+000, 4.14213568e-001, 1.07001438e+001,
          1.68856430e+001, 0., 0., 0., 1.75630796e+000, 5.24369192e+000,
          1.37551346e+001, 2.24486566e+000, 2.07106781e+000,
          8.19012165e+000, 3.73881078e+000, 7.19887114e+000,
          1.80112910e+000, 0., 2.10950565e+000, 2.89049435e+000, 0., 0.,
          0., 0., 0., 0., 0., 0., 0., 0., 1.53635855e+001,
          2.63641405e+000, 0., 0., 0., 1.50290143e+000, 4.97098565e-001,
          0., 0., 0., 0., 0., 0., 0., 0., 0., 0., 0., 0., 0.,
          1.09383631e+000, 9.06163692e-001, 0., 0., 0., 1.59818573e+001,
          3.01814246e+000, 0., 1.15300965e+000, 8.46990287e-001, 0., 0.,
          0., 0., 0., 0., 0., 0., 0., 0., 3.65407777e+000,
          2.34592223e+000, 8.28427136e-001, 4.83038378e+000,
          5.34118891e+000, 1.86858063e+001, 8.82891273e+000,
          9.52691174e+000, 1.86600399e+001, 1.29833031e+000,
          2.41192989e+001, 5.88070107e+000, 4.14213568e-001,
          3.82073808e+000, 1.76504838e+000, 1.24573383e+001,
          5.54266167e+000, 0., 0., 0., 2.29715443e+001, 3.02845645e+000,
          0., 1.29575402e-001, 8.70424628e-001, 1.41097345e+001,
          1.96476250e+001, 1.24264073e+000, 6.19982243e+000,
          4.18001785e+001, 7.09062805e+001, 3.87089462e+001,
          6.62741709e+000, 7.17159128e+000, 1.75857677e+001,
          1.04481554e+000, 4.71254396e+000, 1.65685427e+000,
          1.38115788e+001, 8.57742081e+001, 8.07076836e+000,
          9.29231644e-001, 0., 1.11637402e+000, 4.88362598e+000,
          4.10212212e+001, 1.76650715e+001, 3.31370854e+000,
          3.09340668e+000, 2.59065933e+001, 2.39336128e+001,
          3.37110481e+001, 1.61543293e+001, 1.61885967e+001,
          2.70124130e+001, 0., 3.34608955e+001, 3.97645035e+001,
          3.66368294e+001, 1.91377735e+001, 2.43923116e+000,
          5.14655542e+000, 1.24264073e+000, 2.91129804e+000,
          2.02602749e+001, 4.42721443e+001, 2.52425728e+001,
          2.89949489e+000, 1.52744770e+000, 7.05833864e+000,
          5.41271591e+001, 2.81449184e+001, 5.38477612e+000,
          1.34647579e+001, 4.58783875e+001, 7.33112564e+001,
          4.66471176e+001, 1.24264069e+001, 1.74173985e+001,
          1.19782519e+000, 1.71961670e+001, 6.80383253e+000, 0.,
          5.49080372e-001, 5.45091963e+000, 1.68824368e+001,
          4.11756372e+000, 0., 0., 0., 3.71463394e+001, 8.43944645e+000,
          4.14213568e-001, 3.29092646e+000, 1.97090740e+001,
          9.53444004e+000, 2.46556020e+000, 0., 0., 0., 1.48017111e+001,
          5.19828892e+000, 0., 1.55746531e+000, 9.44253445e+000,
          1.48728399e+001, 3.12715983e+000, 0., 0., 0., 0., 0., 0., 0.,
          0., 0., 0., 0., 0., 0., 7.95462847e-001, 2.04537153e-001, 0.,
          2.25523353e+000, 1.47447662e+001, 0., 0., 0., 0., 0., 0., 0.,
          0., 0., 0., 0., 0., 0., 0., 0., 2.84955311e+000,
          1.15044677e+000, 0., 3.61302108e-001, 6.38697922e-001,
          1.40932341e+001, 3.90676618e+000, 0., 4.85281378e-001,
          5.14718652e-001, 0., 0., 0., 0., 0., 0., 0., 0., 0., 0.,
          2.05452709e+001, 3.45472908e+000, 0., 0., 0., 1.41470861e+001,
          1.58529139e+001, 0., 6.12137079e+000, 4.08786278e+001,
          2.47727985e+001, 6.22720146e+000, 0., 1.83870864e+000,
          4.16129112e+000, 0., 0., 0., 2.42583656e+000, 1.85741634e+001 ]
      - [ 0., 3.17157292e+000, 9.17157269e+000, 7.56722307e+000,
          3.67541742e+000, 0., 1., 3., 0., 2.17157292e+000,
          1.51740103e+001, 3.14668961e+001, 2.21318741e+001,
          4.64143276e+000, 9.41421318e+000, 3., 0., 1.88963628e+000,
          1.40133085e+001, 3.74228706e+001, 4.26266212e+001,
          2.20354652e+001, 2.00337315e+001, 9.01052094e+000, 0.,
          1.07575550e+001, 1.89783421e+001, 1.97421322e+001,
          7.21719437e+001, 4.13887863e+001, 1.80439644e+001,
          1.14724970e+001, 0., 1., 5.24264050e+000, 4.34314585e+000,
          2.41421366e+000, 0., 2., 0., 0., 0., 7., 2., 9., 8.,
          2.50556889e+001, 2.47464848e+001, 0., 5.75735950e+000,
          3.26120377e+000, 3.38375592e+000, 2.22925777e+001,
          3.74378090e+001, 5.51141396e+001, 1.50963001e+001, 0.,
          7.66882515e+000, 2.38999748e+000, 2.27376771e+000,
          2.79712639e+001, 7.66428604e+001, 6.96498108e+001,
          1.80487976e+001, 0., 0., 2., 1., 1., 2., 5., 5., 0., 0., 0.,
          0., 2., 9.10050488e+000, 4.45640373e+001, 3.30266685e+001, 0.,
          1.23188305e+001, 4., 0., 5., 22., 3.83153534e+001,
          1.72857819e+001, 0., 2.93705978e+001, 1.16888657e+001, 0.,
          9.65685463e+000, 2.89657516e+001, 6.64526672e+001,
          2.45594215e+001, 0., 7.04042530e+000, 6.54186249e+000,
          3.58578634e+000, 1., 0., 2.41421366e+000, 2.58578634e+000, 0.,
          2.02089958e+001, 3.46716309e+000, 0., 4.14213568e-001,
          2.58578634e+000, 1.41421354e+000, 5.26241398e+000, 0.,
          3.07442260e+000, 1.21821320e+000, 0., 0., 0., 0.,
          1.80351678e-002, 0., 0., 0., 0., 0., 0., 0., 0., 0.,
          1.19167519e+001, 9.95820141e+000, 5.85786462e-001,
          4.14213568e-001, 0., 0., 0., 0., 3.34887123e+000,
          2.66199541e+000, 0., 0., 0., 0., 0., 0., 0., 0., 0., 0., 0.,
          0., 0., 0., 0., 0., 0., 0., 0., 0., 0., 0., 1.25230761e+001,
          2.44134116e+000, 1., 0., 0., 0., 0., 0., 8.80311191e-001, 0.,
          0., 0., 0., 0., 2.19872856e+000, 0., 2.09369373e+000, 0., 0.,
          0., 0., 0., 3.07824039e+000, 0., 6.14824653e-001, 0.,
          4.14213568e-001, 1.58578646e+000, 0., 7.59749264e-002,
          1.12112074e+001, 0., 4.24783421e+000, 1.43000717e+001,
          6.96113157e+000, 4.14213568e-001, 0., 0., 1., 0.,
          4.04626083e+000, 3.33954787e+000, 9.94104290e+000,
          2.40418072e+001, 2.04002972e+001, 1.06915169e+001,
          3.37885094e+000, 0., 2.01732693e+001, 5.69933176e+000,
          1.28952875e+001, 4.80266609e+001, 1.21457434e+001,
          6.27598381e+000, 7.25230742e+000, 0., 2.04579163e+001,
          5.69183397e+000, 1.89276180e+001, 4.76954498e+001,
          2.34063683e+001, 8.46251297e+000, 4.46555328e+000, 0., 0.,
          3.18767262e+000, 1.06880331e+001, 1.08039169e+001,
          2.32037735e+000, 0., 0., 0., 2.80103874e+000, 1.26505575e+001,
          2.16432400e+001, 2.44909916e+001, 7.64652205e+000,
          8.41421318e+000, 8.17157269e+000, 0., 4.30741119e+000,
          3.34507847e+000, 1.12682943e+001, 5.79558067e+001,
          4.52512321e+001, 6.85500717e+000, 1.10637751e+001, 0.,
          5.75735950e+000, 1.68162308e+001, 4.30410309e+001,
          6.32502670e+001, 4.54333191e+001, 2.22875843e+001,
          5.85786462e-001, 1.98143685e+000, 1.52906408e+001,
          5.38477612e+000, 2.34314585e+000, 0., 1.26812506e+001,
          4.16913338e+001, 1.32548342e+001, 1.31113787e+001,
          2.61203885e-001, 3.09729538e+001, 3.18138428e+001,
          1.32548342e+001, 3.88470917e+001, 2.41112785e+001,
          9.20456696e+000, 3.94400940e+001, 2.77523079e+001,
          5.30997467e+001, 1.65032825e+001, 0., 8.10050488e+000,
          3.72792196e+000, 1.17157292e+000, 0., 0., 5.68629169e+000,
          1.40832615e+001, 4.35518456e+001, 4.67860222e+000,
          2.61203885e-001, 1.07682333e+001, 2.23675327e+001,
          8.57605438e+001, 1.18424864e+001, 5.40267324e+000,
          1.01120453e+001, 9.11269855e+000, 7.78914413e+001,
          9.74811401e+001, 0., 1.75735927e+000, 6.21320343e+000,
          7.02943707e+000, 0., 0., 0., 1.07695522e+001, 7.24839630e+001,
          4.74648523e+000, 1.12141113e+001, 8.05796623e+000,
          2.77523079e+001, 5.54231339e+001, 1.05524797e+001,
          3.37420425e+001, 1.06011028e+001, 2.11248913e+001,
          9.33078842e+001, 1.02240772e+001, 2.51678443e+000,
          9.68422604e+000, 7.87005758e+000, 3.92893219e+000, 0.,
          2.95101261e+001, 7.48987436e+000, 4.55634928e+000,
          1.20294371e+001, 4.14213568e-001, 4.83503103e+000,
          1.16496921e+000, 4.14213568e-001, 5.85786462e-001, 0., 0., 0.,
          0., 0., 0., 2.09812527e+001, 3.60453415e+000, 4.14213568e-001,
          0., 0., 5.78108215e+000, 1.21891773e+000, 0., 0., 0., 0., 0.,
          0., 0., 0., 0., 0., 0., 0., 0., 1.72574348e+001,
          4.49992371e+000, 1.24264073e+000, 0., 0., 1.68407869e+000,
          9.01707709e-001, 1.24264073e+000, 2.39226246e+000,
          4.77931023e+000, 3.00899506e+000, 1.57679141e+000,
          1.24264073e+000, 2.46517515e+000, 4.70639801e+000,
          1.98082936e+000, 1.60495710e+000, 4.14213568e-001,
          6.50654125e+000, 1.94934578e+001, 7.49817991e+000,
          1.86023254e+001, 3.31370854e+000, 5.85786462e-001, 0.,
          1.10815926e+001, 1.27762718e+001, 1.28406200e+001,
          3.70637741e+001, 4.23774004e+000, 5.03100929e+001,
          2.73761978e+001, 1.07695522e+001, 2.64177494e+001,
          6.12640572e+000, 5.35449562e+001, 2.43129063e+001,
          1.36690474e+001, 3.65999336e+001, 3.87315297e+000,
          2.01856327e+000, 1.24961557e+001, 4.14213562e+000,
          2.34314585e+000, 0., 7.80916262e+000, 2.87349930e+001,
          1.65685425e+001, 1.83648930e+001, 5.22407770e-001,
          6.93964577e+000, 1.68471508e+001, 2.44386005e+001,
          4.62953758e+001, 2.74792290e+001, 3.31667976e+001,
          4.06494331e+001, 1.98822517e+001, 4.90775261e+001,
          2.82239914e+001, 0., 6.27207804e+000, 7.87005758e+000,
          9.59666061e+000, 2.61203885e-001, 0., 5.27207804e+000,
          1.15979795e+001, 4.49137344e+001, 1.72162094e+001,
          9.63774967e+000, 1.34627562e+001, 1.20121937e+001,
          4.84058800e+001, 5.64814224e+001, 9.38848686e+000,
          2.51556702e+001, 3.14802303e+001, 8.93336182e+001,
          2.56419945e+001, 0., 2.75735927e+000, 4.14213562e+000,
          5.10050488e+000, 0., 1.30601943e+000, 2.56523495e+001,
          1.44974747e+001, 1.45441561e+001, 0., 2.61203885e-001,
          2.59692440e+001, 2.69238815e+001, 5.27279510e+001,
          6.11771822e+000, 1.12738152e+001, 2.70277004e+001,
          1.82253971e+001, 5.45782166e+001, 7.18948746e+001, 0.,
          5.27207804e+000, 5.38477612e+000, 2.34314585e+000, 0.,
          8.94573510e-001, 3.27084579e+001, 2.31959591e+001,
          8.20100975e+000, 0., 3.49832993e+001, 2.40755749e+001,
          2.11248913e+001, 1.68162346e+001, 0., 3.41754341e+001,
          3.00844498e+001, 2.56812401e+001, 3.30774384e+001,
          1.98143685e+000, 1.81125128e+000, 8.63239956e+000,
          6.62741709e+000, 2.92893219e+000, 0., 4.81102905e+001,
          1.19902153e+001, 3.72792196e+000, 2.17157292e+000, 0.,
          1.33255539e+001, 1.67444646e+000, 0., 0., 0., 0., 0., 0., 0.,
          0., 1.82508297e+001, 7.33495712e+000, 4.14213568e-001, 1., 0.,
          5.13831139e+000, 8.61688435e-001, 0., 0., 0., 0., 0., 0., 0.,
          0., 0., 0., 0., 0., 0., 1.91676025e+001, 2.83239794e+000,
          4.14213568e-001, 5.85786462e-001, 0., 1.91912766e+001,
          1.80872405e+000, 0., 0., 0., 1.87940426e+001, 2.20595813e+000,
          0., 0., 0., 3.35842514e+001, 3.41574931e+000, 0.,
          1.22407746e+000, 7.75922477e-001, 5.72019053e+000,
          3.03716898e+000, 4.97056293e+000, 8.27207756e+000, 0.,
          1.92974854e+001, 4.45987415e+000, 1.07695522e+001,
          3.58741951e+001, 1.35988932e+001, 5.01543045e+001,
          1.06030560e+001, 6.62741709e+000, 2.70954342e+001,
          4.25197868e+001, 4.76236267e+001, 1.11337328e+001,
          1.28406200e+001, 4.06182022e+001, 4.27838173e+001, 0.,
          5.85786462e-001, 3.72792196e+000, 1.93879604e+001,
          4.29833031e+000, 3.58987570e+000, 1.16111345e+001,
          1.69827557e+001, 4.09210510e+001, 5.89518213e+000,
          1.13013096e+001, 1.55565548e+001, 1.82253971e+001,
          5.82101326e+001, 4.57066078e+001, 1.31411529e+000,
          9.20060349e+000, 1.86396103e+001, 7.84410095e+001,
          7.24046555e+001 ]
      - [ 7.55760014e-001, 3.69410849e+000, 2.18882918e+000, 0., 0., 1.,
          4.24264050e+000, 1.71186619e+001, 0., 0., 0., 0.,
          5.24264050e+000, 3.46263962e+001, 3.53736038e+001,
          1.23431454e+001, 0., 3.70556045e+000, 3.61522365e+000,
          2.22407746e+000, 7.20416689e+000, 6.61518097e+001,
          5.13008804e+001, 9.86806011e+000, 0., 1.13153391e+001,
          7.64257526e+000, 3.17157292e+000, 1.25443821e+001,
          4.39543457e+001, 7.09406891e+001, 1.76267262e+001, 0.,
          1.75294876e+000, 2.14162469e+000, 0., 1., 1., 5., 2., 0., 1.,
          1., 0., 1.75528660e+001, 3.77902794e+001, 1.76568546e+001, 2.,
          0., 7.06670427e+000, 9.32466125e+000, 2., 2.13293228e+001,
          8.40777359e+001, 1.15929403e+001, 5.41841888e+000, 0.,
          5.06484680e+001, 5.97657433e+001, 2.43798656e+001,
          1.33436279e+001, 2.33914223e+001, 5.05665636e+000, 2., 0.,
          1.03963900e+001, 2.99844766e+000, 0., 0., 2., 1.,
          6.45194721e+000, 0., 3.06680927e+001, 2.14494967e+000, 1., 2.,
