%YAML:1.0
_0218: !!opencv-ml-svm
   svm_type: C_SVC
   kernel: { type:LINEAR }
   C: 100.
   term_criteria: { epsilon:9.9999999747524271e-007,
       iterations:2147483647 }
   var_all: 576
   var_count: 576
   class_count: 2
   class_labels: !!opencv-matrix
      rows: 1
      cols: 2
      dt: i
      data: [ -1, 5 ]
   sv_total: 59
   support_vectors:
      - [ 1.57010639e+000, 3.27688408e+000, 5.41421366e+000,
          1.45857868e+001, 2.82842708e+000, 1.58578646e+000, 0.,
          2.73879623e+000, 4.14213568e-001, 3.17157292e+000,
          4.20416298e+001, 4.01299438e+001, 8.24264050e+000, 0., 0., 0.,
          0., 0., 3.59891243e+001, 7.73757706e+001, 3.98777466e+001,
          3.75735927e+000, 0., 0., 0., 0., 1.73137093e+001,
          1.07315872e+002, 8.06130600e+001, 1.57573595e+001, 0., 0., 0.,
          3.66561198e+000, 1.94873981e+001, 5.84699011e+000, 0., 0., 0.,
          0., 0., 3., 3.89705620e+001, 3.15441551e+001, 5.48528147e+000,
          0., 0., 1., 0., 0., 2.16568546e+001, 4.62010117e+001,
          5.29705620e+001, 1.07573595e+001, 2.41421366e+000, 2., 0., 0.,
          7.82842731e+000, 1.69320030e+001, 9.53758926e+001,
          6.35254669e+001, 2.54960957e+001, 5.84211874e+000, 0.,
          1.57639408e+001, 5.35838604e+000, 3.02135181e+000,
          4.14213568e-001, 0., 0., 1., 0., 2.74773064e+001,
          2.03847771e+001, 1.24436512e+001, 4.14213568e-001, 0., 0.,
          1.22331846e+000, 0., 3.44822655e+001, 3.65267220e+001,
          1.78350964e+001, 3.82842708e+000, 0., 1., 2.58578634e+000, 0.,
          3.50375557e+001, 4.61703949e+001, 3.92010117e+001,
          1.02426405e+001, 1., 1., 7.38796115e-001, 0., 1.01664991e+001,
          1.43392169e+000, 0., 0., 0., 0., 0., 0., 1.31722844e+000, 0.,
          0., 0., 0., 0., 0., 0., 0., 0., 0., 0., 0., 0., 0., 0., 0., 0.,
          0., 0., 0., 0., 0., 0., 1.73879611e+000, 1.26120389e+000, 0.,
          0., 0., 0., 0., 0., 0., 0., 0., 0., 0., 0., 0., 0., 0., 0., 0.,
          0., 0., 0., 0., 0., 0., 0., 0., 0., 0., 0., 0., 0., 1., 0., 0.,
          0., 0., 0., 0., 0., 0., 0., 0., 0., 0., 0., 0., 0., 0., 0., 0.,
          0., 0., 0., 0., 0., 0., 0., 0., 0., 0., 0., 0.,
          4.22658384e-001, 1.03784456e+001, 2.19889641e+000, 0., 0., 0.,
          0., 0., 0., 1.83263242e+000, 3.16736746e+000, 0., 0., 0., 0.,
          0., 0., 0., 0., 0., 0., 0., 0., 0., 0., 0., 0., 0., 0., 0., 0.,
          0., 1.36944070e-001, 1.62133770e+001, 3.32930160e+000,
          2.90616369e+000, 5.82842731e+000, 1.32458258e+000,
          2.61203885e-001, 0., 0., 1.61967430e+001, 3.36603050e+001,
          1.78064728e+001, 1.61649036e+001, 5.17157269e+000, 0., 0., 0.,
          1.55129547e+001, 4.29866829e+001, 5.19574356e+001,
          2.06367626e+001, 1.90616369e+000, 0., 0., 0., 1.15135612e+001,
          6.82043304e+001, 6.41208038e+001, 1.41613064e+001, 0., 0., 0.,
          2.14377332e+000, 1.70572376e+001, 7.04163074e+000,
          3.75735927e+000, 0., 2.08963108e+000, 6.93418274e+001,
          1.65685425e+001, 0., 0., 2.39565039e+000, 9.31951904e+001,
          3.14802303e+001, 2.92893219e+000, 0., 5.22407770e-001,
          1.03499886e+002, 5.42619781e+001, 1.37157288e+001, 0.,
          2.23915696e+000, 2.30329208e+001, 3.72792196e+000, 0., 0., 0.,
          5.65319633e+001, 1.98822517e+001, 5.85786462e-001, 0.,
          2.61203885e-001, 4.94717674e+001, 3.10660172e+001,
          1.02010098e+001, 0., 2.61203885e-001, 2.21408157e+001,
          3.43797264e+001, 8.31974258e+001, 1.70208302e+001,
          1.34360399e+001, 1.22502518e+001, 3.72792196e+000,
          5.85786462e-001, 0., 1.77535305e+001, 4.73053436e+001,
          1.07695522e+001, 2.17157292e+000, 0., 2.57926579e+001,
          6.06388016e+001, 1.82253971e+001, 2.34314585e+000, 0.,
          2.86177654e+001, 8.86715546e+001, 2.15391045e+001,
          2.17157292e+000, 0., 9.92230892e+000, 4.07769108e+000, 0., 0.,
          0., 1.26120389e+000, 1.73879611e+000, 0., 0., 0., 0., 0., 0.,
          0., 0., 0., 0., 0., 0., 0., 1.87178564e+000, 1.12821436e+000,
          0., 0., 0., 0., 0., 0., 0., 0., 0., 0., 0., 0., 0., 0., 0., 0.,
          0., 0., 7.12219775e-001, 2.87780255e-001, 0., 0., 0., 0., 0.,
          0., 0., 0., 0., 0., 0., 0., 0., 0., 0., 0., 0., 0.,
          7.83868361e+000, 5.16131639e+000, 0., 0., 0., 2.05593467e+000,
          2.94406533e+000, 0., 0., 0., 0., 0., 0., 0., 0., 0., 0., 0.,
          0., 0., 1.47839298e+001, 7.55921555e+000, 2.07106781e+000,
          1.32458258e+000, 2.61203885e-001, 2.79269695e+001,
          3.42029724e+001, 1.07695522e+001, 4.10050488e+000, 0.,
          3.15430794e+001, 7.08883820e+001, 1.73969688e+001,
          2.17157292e+000, 0., 2.81734104e+001, 9.63879929e+001,
          2.44386005e+001, 0., 0., 2.81014013e+000, 4.36143255e+000,
          4.55634928e+000, 1.52720776e+001, 0., 0., 2.75735927e+000,
          2.07106781e+001, 3.82707596e+001, 2.61203885e-001, 0., 0.,
          2.65096684e+001, 1.02184311e+002, 1.30601943e+000, 0., 0.,
          3.68650055e+001, 1.60903229e+002, 1.02317667e+001,
          6.38697922e-001, 3.87602067e+000, 5.38477612e+000,
          5.10050488e+000, 0., 0., 4.68629169e+000, 1.61543293e+001,
          2.91593800e+001, 0., 0., 2.34314585e+000, 3.31370850e+001,
          8.04749527e+001, 1.04481554e+000, 1.70485473e+000,
          7.80986404e+000, 2.73380947e+001, 1.29992508e+002,
          3.01546841e+001, 1.33759642e+001, 1.09671812e+001,
          2.48528147e+000, 2.75735927e+000, 4.14213568e-001,
          3.00162659e+001, 2.09421024e+001, 1.40832615e+001,
          1.09583693e+001, 0., 3.25289459e+001, 2.51157150e+001,
          1.86396103e+001, 1.57157288e+001, 0., 3.35298958e+001,
          2.30142593e+001, 2.56812401e+001, 3.77746048e+001, 0.,
          1.09271975e+001, 4.07280254e+000, 0., 0., 0., 2.87042451e+000,
          2.12957549e+000, 0., 0., 0., 0., 0., 0., 0., 0., 0., 0., 0.,
          0., 0., 1.82320249e+000, 1.17679751e+000, 0., 0., 0., 0., 0.,
          0., 0., 0., 0., 0., 0., 0., 0., 0., 0., 0., 0., 0.,
          9.73423660e-001, 1.02657640e+000, 0., 0., 0., 0., 0., 0., 0.,
          0., 0., 0., 0., 0., 0., 0., 0., 0., 0., 0., 7.07514143e+000,
          4.92485857e+000, 0., 0., 0., 9.73423660e-001, 2.02657628e+000,
          0., 0., 0., 0., 0., 0., 0., 0., 0., 0., 0., 0., 0.,
          1.37316904e+001, 3.85409641e+000, 8.28427136e-001,
          9.23495197e+000, 1.35083485e+000, 1.78606472e+001,
          1.03109264e+001, 1.15979795e+001, 3.25550308e+001,
          6.75417423e-001, 1.60888824e+001, 1.36684771e+001,
          1.73969688e+001, 5.96030312e+001, 7.24264050e+000,
          8.73056698e+000, 1.51983652e+001, 2.85807362e+001,
          6.60761185e+001, 4.14213568e-001 ]
      - [ 0., 1.58578646e+000, 1.41421354e+000, 2., 5., 6.15667772e+000,
          5.76469040e+000, 5.15289068e+000, 0., 1.26181138e+000,
          8.45947647e+000, 2.62376900e+001, 4.02418289e+001,
          1.18583670e+001, 4.94082642e+000, 0., 0., 0., 0.,
          1.16965380e+001, 5.95531158e+001, 5.75034523e+000, 0., 0., 0.,
          0., 0., 0., 3.41421366e+000, 5.85786462e-001, 0., 0., 0.,
          1.36530519e+000, 2.97444987e+000, 1.07694340e+001,
          6.03563499e+000, 2.09658194e+000, 1.23899341e-001,
          4.14213568e-001, 0., 2.75735927e+000, 4.50384474e+000,
          1.89685154e+001, 2.86992130e+001, 1.24142132e+001,
          9.41421318e+000, 5.17157269e+000, 0., 0., 4.41421366e+000,
          1.35297832e+001, 7.25031509e+001, 4.00675735e+001,
          1.68994942e+001, 2.58578634e+000, 0., 1., 1.27594624e+001,
          1.83535995e+001, 5.17684479e+001, 7.07288589e+001,
          1.53896275e+001, 3., 0., 5., 5.49615526e+000, 5.30601931e+000,
          2.03712630e+000, 3.48528147e+000, 2.61203885e-001,
          1.32458258e+000, 0., 1.50430737e+001, 1.05038443e+001, 2., 6.,
          2., 1.64852810e+001, 1.25147190e+001, 0., 1.18021746e+001,
          8.93662167e+000, 4., 1., 4.41421366e+000, 1.70710678e+001,
          4.29583702e+001, 0., 1.17157292e+000, 0., 0., 0.,
          6.17157269e+000, 3.85006409e+001, 1.25750671e+002, 0.,
          3.32458258e+000, 1.67541742e+000, 5., 4.14213568e-001,
          3.93662143e+000, 8.68803310e+000, 2.77038813e+000, 0.,
          9.90616322e+000, 1.06796227e+001, 4., 2.41421366e+000,
          3.70526767e+000, 1.36194277e+001, 1.77530422e+001, 0.,
          1.77136860e+001, 2.50520287e+001, 1.20800152e+001,
          1.74194551e+000, 3.82842708e+000, 2.29767284e+001,
          3.14481182e+001, 0., 1.17785969e+001, 1.31086617e+001,
          1.10777102e+001, 3.80215764e+000, 1.65863073e+000,
          1.53378839e+001, 7.03199692e+001, 0., 0., 2., 0., 0.,
          1.41421354e+000, 2.06043491e+001, 6.98143673e+000, 0.,
          9.75735950e+000, 12., 2., 2., 5.86422443e+000, 2.25923557e+001,
          1.47149925e+001, 0., 2.69055119e+001, 2.23049812e+001,
          8.57944489e+000, 4., 4.58578634e+000, 2.80378551e+001,
          2.38825798e+001, 0., 3.42374954e+001, 2.09664154e+001,
          1.19036016e+001, 7.26882982e+000, 4.34874344e+000,
          6.17067432e+000, 2.19171829e+001, 0., 0., 10., 1., 4.,
          5.58578634e+000, 1.41421354e+000, 0., 0., 8.49615574e+000,
          1.47443686e+001, 7.17368937e+000, 7.82842731e+000,
          8.17015648e+000, 1.54156303e+001, 6.07773638e+000, 0.,
          3.90521698e+001, 5.02037430e+001, 1.27079830e+001, 1., 0.,
          5.22407770e-001, 2.96287370e+000, 0., 0., 1., 0., 0., 0., 0.,
          0., 0., 0., 0., 8., 4.93722868e+000, 8.97313976e+000,
          4.50384474e+000, 2.17157292e+000, 4.65439081e+000,
          7.37516212e+000, 9.23776245e+000, 1.90368309e+001,
          1.97789898e+001, 9.21964264e+000, 1.12748404e+001,
          1.14223814e+001, 0., 1.34992104e+001, 1.92363834e+001,
          2.50303631e+001, 2.91763744e+001, 2.41519737e+000, 1., 2., 0.,
          1.17401676e+001, 1.49531565e+001, 2.53507900e+000,
          1.59443836e+001, 9.45433426e+000, 1.34511309e+001,
          3.02535701e+000, 0., 1.17157292e+000, 2., 5.85786462e-001,
          1.41421354e+000, 5.88760042e+000, 5.52661324e+000,
          6.17157269e+000, 0., 0., 8.18316936e+000, 1.48889627e+001,
          3.41161652e+001, 2.54824257e+001, 5.96695995e+000,
          1.87703502e+000, 0., 0., 5.32132578e+000, 8.81886387e+000,
          1.52623310e+001, 5.59747934e+000, 0., 0., 0., 0., 0., 0., 0.,
          0., 0., 0., 0., 3.92893219e+000, 4.55634928e+000,
          1.13550301e+001, 5.15968847e+000, 1.56392307e+001,
          2.74907112e+001, 1.36690474e+001, 1.75889721e+001,
          1.61203873e+000, 1.01416550e+001, 1.93730640e+001,
          4.97056293e+000, 1.09617777e+001, 7.55294085e+000, 0., 0., 0.,
          7.38796115e-001, 2.61203885e-001, 5.04865360e+000,
          1.34660654e+001, 2.89949489e+000, 2.02657628e+000,
          1.55921006e+000, 3.02625227e+000, 2.75889721e+001,
          1.49116879e+001, 2.37976704e+001, 6.75417423e-001, 0.,
          1.48873014e+001, 3.10660172e+001, 5.64751472e+001,
          6.57153368e+000, 1.41939259e+001, 2.04212990e+001,
          1.73969688e+001, 6.15014343e+001, 4.74863739e+001,
          2.12675738e+000, 1.28021746e+001, 3.31370854e+000,
          4.23495150e+000, 5.22407770e-001, 2.61203885e-001,
          2.29692440e+001, 1.69827557e+001, 2.44807777e+001,
          1.30601943e+000, 5.22407770e-001, 1.66075344e+001,
          3.14802303e+001, 4.51286240e+001, 2.61203885e-001, 0.,
          1.17157292e+000, 2.27817459e+001, 1.34407867e+002,
          3.96388168e+001, 7.83611596e-001, 8.38796139e+000,
          2.07106781e+000, 9.42959213e+000, 5.32776737e+000,
          2.28745627e+000, 1.73277683e+001, 1.20121937e+001,
          2.37247372e+001, 6.64784575e+000, 2.24116840e+001,
          3.47182579e+001, 1.90538235e+001, 3.60843277e+001,
          2.27319069e+001, 1.50743628e+001, 2.11266479e+001,
          1.28406200e+001, 7.63396530e+001, 5.56187172e+001, 0.,
          1.17157292e+000, 4.14213562e+000, 2.33431454e+001,
          2.34314585e+000, 2.61203885e-001, 1.68687382e+001,
          1.61543293e+001, 2.88858738e+001, 6.82985449e+000,
          2.46186714e+001, 2.89549217e+001, 2.40243874e+001,
          4.55981178e+001, 4.80390406e+000, 5.68568573e+001,
          2.57289295e+001, 3.31370854e+000, 1.74502831e+001,
          1.76502228e+001, 0., 6.85786438e+000, 6.62741709e+000,
          4.51471853e+000, 0., 3.88468575e+000, 2.27305374e+001,
          1.28406200e+001, 2.31561947e+001, 2.38796115e+000,
          7.81266708e+001, 3.00449047e+001, 8.28427136e-001,
          3.35115886e+000, 1.64884102e+000, 2.61203885e-001,
          7.38796115e-001, 0., 0., 0., 0., 4.68629169e+000,
          7.04163074e+000, 1.50742531e+001, 1.19782519e+000,
          1.00048943e+001, 2.71961155e+001, 1.24264069e+001,
          2.46437016e+001, 6.72888088e+000, 5.11529655e+001,
          2.36043949e+001, 3.31370854e+000, 7.31165695e+000,
          2.61727548e+000, 2.32178307e+001, 1.07821693e+001, 0.,
          1.55900688e+001, 1.84099312e+001, 0., 2.92893219e+000,
          4.97056293e+000, 1.36414757e+001, 1.45902908e+000,
          1.60016956e+001, 1.33414507e+001, 7.45584393e+000,
          2.55793438e+001, 1.76216660e+001, 1.22633820e+001,
          4.73661804e+000, 0., 3.45244050e+000, 4.54755926e+000, 0., 0.,
          0., 0., 0., 3.77412033e+000, 7.56902552e+000, 5.38477612e+000,
          1.20108738e+001, 2.61203885e-001, 4.14213568e-001,
          1.75735927e+000, 8.28427124e+000, 4.90983391e+001,
          2.64458160e+001, 0., 0., 1.24264073e+000, 2.11746750e+001,
          5.45826836e+001, 0., 0., 4.14213568e-001, 2.47759223e+000,
          1.10819423e+000, 2.51194048e+000, 5.48805952e+000,
          4.14213568e-001, 1.00209446e+001, 9.56484127e+000,
          7.83611596e-001, 1.39026794e+001, 8.69848442e+000,
          4.65192223e+001, 1.20960007e+001, 0., 3.34314585e+000,
          2.07106781e+001, 8.56506500e+001, 2.62955265e+001, 0.,
          2.92893219e+000, 9.11269855e+000, 7.53548126e+001,
          7.36035614e+001, 2.28745627e+000, 1.26414757e+001,
          4.14213562e+000, 8.36939812e+000, 1.55953407e+000,
          4.83611631e+000, 4.21516914e+001, 1.40832615e+001,
          7.40652466e+000, 5.22407770e-001, 5.22407770e-001,
          7.06542130e+001, 3.39655113e+001, 5.85786438e+000, 0.,
          4.21252747e+001, 1.25891968e+002, 1.94680367e+001,
          4.51471853e+000, 0., 1.50384462e+000, 7.42508745e+000,
          5.79898977e+000, 9.27207756e+000, 0., 6.75417423e-001,
          3.89986801e+001, 1.98822517e+001, 9.92124271e+000,
          5.22407770e-001, 3.09821491e+001, 6.35914459e+001,
          1.61543293e+001, 1.22974758e+001, 9.97460175e+000,
          9.63263168e+001, 7.01173325e+001, 7.87005758e+000,
          1.07396679e+001, 9.94662380e+000, 0., 6.68629169e+000,
          4.55634928e+000, 1.75735927e+000, 0., 2.61203885e-001,
          2.84839630e+001, 1.73969688e+001, 7.59666061e+000,
          2.61203885e-001, 2.31850243e+001, 6.35601425e+001,
          1.86396103e+001, 1.26725502e+001, 4.94267368e+000,
          5.93727074e+001, 2.49704380e+001, 2.89949489e+000,
          9.43073177e+000, 1.93266277e+001, 0., 5.85786462e-001,
          4.97056293e+000, 6.44365072e+000, 0., 2.22726250e+000,
          2.05595341e+001, 1.44974747e+001, 1.97791080e+001,
          9.36621308e-001, 5.00386696e+001, 2.54760494e+001,
          3.72792196e+000, 1.14049091e+001, 1.23524504e+001,
          2.61203885e-001, 7.38796115e-001, 0., 0., 0., 0.,
          2.75735927e+000, 5.79898977e+000, 1.62643890e+001,
          2.17926192e+000, 4.87174845e+000, 1.69861164e+001,
          9.52691174e+000, 3.39543419e+001, 1.46608810e+001,
          1.40401087e+001, 1.04746103e+001, 4.97056293e+000,
          1.43651896e+001, 4.91495285e+001, 2.02888145e+001,
          1.08827572e+001, 8.28427136e-001, 1.17789583e+001,
          2.12210407e+001, 0., 9.51471901e+000, 4.97056293e+000,
          7.25351477e+000, 2.61203885e-001, 6.38697922e-001,
          3.11866140e+000, 3.72792196e+000, 3.64805031e+001,
          4.60342140e+001, 0., 0., 0., 8.63363743e+000, 2.23663616e+001,
          0., 0., 0., 0., 0. ]
      - [ 0., 0., 0., 0., 0., 0., 0., 0., 0., 0., 0., 0., 0., 0., 0., 0.,
          0., 0., 0., 0., 0., 0., 0., 0., 0., 0., 0., 0., 0., 0., 0., 0.,
          0., 0., 0., 0., 0., 0., 0., 0., 0., 0., 0., 0., 0., 0., 0., 0.,
          0., 0., 0., 0., 0., 0., 0., 0., 0., 0., 3., 0., 0., 0., 0., 0.,
          0., 0., 0., 0., 0., 0., 0., 0., 0., 0., 0., 0., 0., 0., 0., 0.,
          0., 0., 0., 0., 0., 0., 0., 0., 0., 0., 0., 0., 0., 0., 0., 0.,
          0., 0., 0., 0., 0., 0., 0., 0., 0., 0., 0., 0., 0., 0., 0., 0.,
          0., 0., 0., 0., 0., 0., 0., 0., 0., 0., 0., 0., 0., 0., 0., 0.,
          0., 0., 0., 0., 0., 0., 0., 0., 0., 0., 0., 0., 0., 0., 0., 0.,
          0., 0., 0., 0., 0., 0., 0., 0., 0., 0., 0., 0., 0., 0., 0., 0.,
          0., 0., 0., 0., 0., 0., 0., 0., 0., 0., 0., 0., 0., 0., 0., 0.,
          0., 0., 0., 0., 0., 0., 0., 0., 0., 0., 0., 0., 0., 0., 0., 0.,
          0., 0., 0., 0., 0., 0., 0., 0., 0., 0., 0., 0., 0., 0., 0., 0.,
          0., 0., 0., 0., 0., 0., 0., 0., 0., 0., 0., 0., 0., 0., 0., 0.,
          0., 0., 0., 0., 0., 0., 0., 0., 0., 0., 0., 0., 0., 0., 0., 0.,
          0., 0., 0., 0., 0., 0., 0., 0., 0., 0., 0., 0., 0., 0., 0., 0.,
          0., 0., 0., 0., 0., 0., 0., 0., 0., 0., 0., 0., 0., 0., 0., 0.,
          0., 0., 0., 0., 0., 0., 0., 0., 0., 0., 0., 0., 0., 0., 0., 0.,
          0., 0., 0., 1.76823342e+000, 1.23176658e+000, 0., 0., 0., 0.,
          0., 0., 0., 0., 0., 0., 0., 0., 0., 0., 0., 0., 0., 0., 0., 0.,
          0., 0., 0., 0., 0., 0., 0., 0., 0., 0., 0., 0., 0., 0., 0., 0.,
          0., 0., 0., 0., 0., 0., 0., 0., 0., 0., 0., 0., 0., 0., 0., 0.,
          0., 0., 0., 0., 0., 0., 0., 0., 0., 0., 0., 0., 0., 0., 0., 0.,
          0., 0., 0., 0., 0., 0., 0., 0., 0., 0., 0., 0., 0., 0., 0., 0.,
          0., 0., 0., 0., 0., 0., 0., 0., 0., 0., 0., 0., 0., 0., 0., 0.,
          0., 0., 0., 0., 0., 0., 0., 0., 0., 0., 0., 0., 0., 0., 0., 0.,
          0., 0., 0., 0., 0., 0., 0., 0., 0., 0., 0., 0., 0., 0., 0., 0.,
          0., 0., 0., 0., 0., 0., 0., 0., 0., 0., 0., 0., 0., 0., 0., 0.,
          0., 0., 0., 0., 0., 0., 0., 0., 0., 0., 0., 0., 0., 0., 0., 0.,
          0., 0., 0., 0., 0., 0., 0., 0., 0., 0., 0., 0., 0., 0., 0., 0.,
          0., 0., 0., 0., 0., 0., 0., 0., 0., 0., 0., 0., 0., 0., 0., 0.,
          0., 0., 0., 0., 0., 0., 0., 0., 0., 0., 0., 0., 0., 0., 0., 0.,
          0., 0., 0., 0., 0., 0., 0., 0., 0., 0., 0., 0., 0., 0., 0., 0.,
          0., 0., 0., 0., 0., 0., 0., 0., 0., 0., 0., 0., 0., 0., 0., 0.,
          0., 0., 0., 0., 0., 0., 0., 0., 0., 0., 0., 0., 0., 0., 0., 0.,
          0., 0., 0., 0., 0., 0., 0., 0., 0., 0., 0., 0., 0., 0., 0., 0.,
          0., 0., 0., 0., 0., 0., 0. ]
      - [ 8.46990287e-001, 0., 0., 0., 2.30649066e+000, 9.96368599e+000,
          1.61804657e+001, 3.70236707e+000, 0., 5.94718695e+000,
          6.59265757e+000, 4.31953239e+000, 2.04878826e+001,
          2.01608353e+001, 1.85329285e+001, 6.87150049e+000,
          5.85786462e-001, 4.14213568e-001, 0., 1.62922537e+000,
          2.01338234e+001, 2.76106300e+001, 2.81706500e+000,
          2.80925632e+000, 0., 0., 0., 0., 0., 0., 0., 0., 0., 0.,
          1.67541742e+000, 7.47759247e+000, 6.08963108e+000,
          8.34314537e+000, 6., 4.14213568e-001, 0., 2., 6.73232222e+000,
          3.87054291e+001, 2.14053497e+001, 4.15689993e+000, 2.,
          6.75735950e+000, 5.85786462e-001, 0., 2.87523937e+000,
          2.19120293e+001, 3.78669891e+001, 3.98892326e+001,
          4.12558708e+001, 6.61485052e+000, 0., 0., 0., 4.16178608e+000,
          2.63252087e+001, 1.45127029e+001, 5.00030279e+000, 0., 0.,
          7.17157269e+000, 5.24264050e+000, 2.34314585e+000,
          2.24264073e+000, 1., 1., 4.58578634e+000, 0., 5.,
          1.22426405e+001, 1.13431454e+001, 1.04142132e+001, 1., 4.,
          1.59289322e+001, 0., 7.48528147e+000, 1.54142132e+001, 1.,
          5.41421366e+000, 3.53039074e+000, 2.74191895e+001,
          3.61709137e+001, 0., 6.68928385e+000, 8.46990287e-001,
          1.00552673e+001, 3.10910740e+001, 1.89153118e+001,
          2.92505951e+001, 2.80145168e+001, 0., 2.41421366e+000, 5.,
          3.17157292e+000, 5.24264050e+000, 1.17157292e+000,
          2.41421366e+000, 2.17157292e+000, 0., 2.77315502e+001,
          9.47111797e+000, 5.75735950e+000, 3.26120377e+000,
          3.49615550e+000, 4.07106781e+000, 6.10144806e+000, 0.,
          5.22089481e+000, 0., 0., 0., 0., 0., 2.06042552e+000, 0., 0.,
          0., 0., 0., 0., 0., 0., 0., 1.37554541e+001, 6.85993242e+000,
          0., 0., 1.58578646e+000, 2.41421366e+000, 4.58578634e+000, 0.,
          9.95079994e+000, 6.53317213e+000, 0., 0., 0., 0., 0., 0., 0.,
          0., 0., 0., 0., 0., 0., 0., 0., 0., 0., 0., 0., 0., 0., 0.,
          1.38239346e+001, 3.27526498e+000, 0., 0., 0., 6.04957104e-001,
          5.35432005e+000, 0., 0., 3., 0., 0., 0., 0., 0., 0., 0., 0.,
          0., 0., 0., 0., 0., 0., 0., 0., 0., 0., 0., 0., 0.,
          1.82842708e+000, 6.58621907e-001, 1.19175539e+001,
          4.93854284e+000, 4.85281378e-001, 0., 2.35083485e+000,
          9.82073784e+000, 0., 0., 6.42880869e+000, 2.46576476e+000,
          1.05426498e-001, 0., 0., 0., 0., 0., 0., 0., 0., 0., 0., 0.,
          0., 0., 0., 0., 0., 0., 0., 0., 1.67541742e+000,
          5.72860599e-001, 4.87950420e+000, 3.54763508e+000,
          1.50221109e-001, 8.49778891e-001, 5.72443819e+000,
          1.06001444e+001, 0., 7.85874176e+000, 2.14600945e+001,
          1.56434727e+001, 1.29889464e+000, 2.16593552e+000,
          9.54347730e-001, 1.61851287e+000, 5.11120796e-001,
          1.29575402e-001, 1.12198486e+001, 6.65493011e+000,
          6.99564600e+000, 0., 0., 1.48887920e+000, 0., 0., 0., 0., 0.,
          0., 0., 0., 0., 0., 1.24264073e+000, 1.63376369e+001,
          1.34197226e+001, 4.48393202e+000, 1.22023592e+001,
          1.11837664e+001, 3.03068733e+001, 1.88230686e+001,
          1.17157292e+000, 1.41421354e+000, 4.14213568e-001,
          1.09732542e+001, 3.40267448e+001, 0., 0., 0., 0., 0.,
          5.22407770e-001, 8.82073784e+000, 3.72792196e+000,
          1.26229124e+001, 1.30601943e+000, 5.78361177e+000,
          4.20326233e+001, 1.65685425e+001, 9.39073944e+000,
          1.22448432e+000, 1.89848175e+001, 1.21156874e+001,
          1.15979795e+001, 3.76606636e+001, 4.96408501e+001,
          6.81546164e+000, 3.77032471e+000, 2.48528147e+000,
          1.04088840e+001, 1.75200481e+001, 0., 1.14436512e+001,
          7.45584393e+000, 4.10050488e+000, 0., 0., 1.90588741e+001,
          1.90538235e+001, 1.38873014e+001, 0., 9.36621308e-001,
          1.66075344e+001, 1.98822517e+001, 4.23475876e+001,
          2.52260075e+001, 8.90386105e+000, 2.31255760e+001,
          1.69827557e+001, 4.91353683e+001, 3.68524361e+001,
          5.22407770e-001, 8.40652466e+000, 4.55634928e+000,
          4.51471853e+000, 0., 2.73164768e+001, 2.53698139e+001,
          5.79898977e+000, 1.45147190e+001, 0., 1.29528694e+001,
          1.05618496e+001, 2.48528147e+000, 2.59459257e+000,
          2.40540743e+000, 0., 0., 0., 0., 0., 1.71320782e+001,
          3.86792231e+000, 1.65685427e+000, 7.82073784e+000,
          5.22407770e-001, 1.44308910e+001, 2.56910849e+000, 0., 0., 0.,
          0., 0., 0., 0., 0., 0., 0., 0., 0., 0., 1.71343880e+001,
          2.86561179e+000, 4.14213568e-001, 5.49615526e+000,
          1.08963096e+000, 2.38654447e+000, 6.13455474e-001, 0., 0., 0.,
          0., 0., 0., 0., 0., 0., 0., 0., 0., 0., 1.62625141e+001,
          1.73748648e+000, 8.28427136e-001, 1.17125435e+001,
          1.45902908e+000, 7.50827360e+000, 1.49172616e+000, 0., 0., 0.,
          0., 0., 0., 0., 0., 0., 0., 0., 0., 0., 7.53963232e+000,
          1.46036756e+000, 2.48528147e+000, 1.39660587e+001,
          2.54866004e+000, 3.99853897e+001, 6.01461124e+000, 0.,
          1.99811685e+000, 3.00188327e+000, 1.78427162e+001,
          3.74307036e+000, 4.14213568e-001, 1.47759223e+000,
          5.22407770e-001, 0., 0., 0., 0., 0., 5.22407770e-001,
          7.23495150e+000, 4.55634928e+000, 1.20133810e+001,
          2.67291069e+000, 6.22905350e+000, 1.84572392e+001,
          8.28427124e+000, 2.15297527e+001, 2.14996834e+001,
          9.36621308e-001, 3.06337857e+000, 0., 9.55089378e+000,
          4.14491043e+001, 0., 0., 0., 0., 0., 0., 5.85786462e-001,
          5.79898977e+000, 1.98316116e+001, 7.83611596e-001, 0.,
          1.10294371e+001, 1.28406200e+001, 4.84465408e+001,
          1.16834011e+001, 2.61203885e-001, 8.42508793e+000,
          1.90538235e+001, 4.82922630e+001, 5.79676208e+001, 0., 0.,
          4.14213568e-001, 8.22875690e+000, 3.83570290e+001, 0.,
          1.22010098e+001, 7.04163074e+000, 4.75735950e+000, 0., 0.,
          2.63309517e+001, 2.23675327e+001, 1.53015156e+001, 0.,
          2.10761890e+001, 5.11420631e+001, 2.69238815e+001,
          7.85786438e+000, 0., 4.84280739e+001, 3.53587227e+001,
          1.32548342e+001, 5.21344452e+001, 1.18239231e+001, 0.,
          8.10050488e+000, 4.97056293e+000, 7.92893219e+000, 0.,
          3.42428322e+001, 2.34434605e+001, 8.28427124e+000,
          1.07682333e+001, 2.61203885e-001, 3.89677811e+001,
          8.03221798e+000, 0., 0., 0., 0., 0., 0., 0., 0.,
          1.45217724e+001, 1.14071598e+001, 2.89949489e+000,
          1.17157292e+000, 0., 1.26044998e+001, 3.39549994e+000, 0., 0.,
          0., 0., 0., 0., 0., 0., 0., 0., 0., 0., 0., 2.00721397e+001,
          9.92786026e+000, 0., 0., 0., 0., 0., 0., 0., 0., 0., 0., 0.,
          0., 0., 0., 0., 0., 0., 0., 2.96287370e+000, 1.63802719e+001,
          1.65685427e+000, 1.88501656e+000, 7.11498356e+000, 0., 0., 0.,
          5.80709517e-001, 2.41929054e+000, 0., 0., 0., 0., 0., 0., 0.,
          0., 0., 0., 1.19782519e+000, 1.39737473e+001, 8.28427136e-001,
          2.68499899e+000, 5.31500101e+000, 1.15993452e+001,
          5.98644114e+000, 1.24264073e+000, 5.11888170e+000,
          2.00526905e+001, 9.28932190e-001, 2.07106781e+000, 0.,
          2.82355022e+000, 1.41764498e+001, 0., 0., 0., 0., 0. ]
      - [ 0., 6.26120377e+000, 1.41421354e+000, 4.75735950e+000,
          3.82842708e+000, 0., 4., 2., 5.85786462e-001, 0.,
          2.50384450e+000, 2.54470997e+001, 5.69493866e+001,
          6.09966898e+000, 1., 4.14213568e-001, 0., 0., 0.,
          2.30274629e-002, 1.73062038e+001, 3.67076874e+000, 0., 0., 0.,
          0., 0., 0., 0., 0., 0., 0., 0., 1.99579465e+000, 1., 0., 0.,
          0., 3., 6.80565882e+000, 0., 8.54691792e+000, 8.41421318e+000,
          3.91036892e+000, 7.67541742e+000, 4.58578634e+000,
          6.82842731e+000, 1.14184189e+001, 0., 2., 0., 6.60408810e-002,
          3.60772629e+001, 4.07628593e+001, 1.97506905e+001,
          1.59289322e+001, 0., 0., 0., 1.72016561e+000, 4.08176956e+001,
          3.74085274e+001, 2.30536079e+001, 1., 0., 1., 3., 1.,
          4.14213568e-001, 5.17157269e+000, 1.02426405e+001,
          4.75735950e+000, 0., 1.00387812e+001, 3.41421366e+000, 1., 9.,
          4., 13., 1.60542374e+001, 0., 3.38051834e+001, 4.07106781e+000,
          0., 0., 0., 8.07106781e+000, 3.08840847e+001, 0., 0., 0., 0.,
          1., 3.41421366e+000, 2.73866959e+001, 4.08852882e+001, 0., 2.,
          0., 0., 1., 8.70045471e+000, 5.29954529e+000, 3., 0.,
          3.29409337e+000, 0., 0., 1.40207458e+000, 8.94635391e+000,
          1.72763233e+001, 1.50514441e+001, 0., 7.02848554e-001, 0., 0.,
          0., 0., 1., 1.49852848e+000, 0., 0., 0., 0., 0., 0., 0., 0.,
          0., 5.85786462e-001, 1., 0., 4.31895685e+000, 1.87158909e+001,
          3.96515155e+000, 0., 0., 4.35782890e+001, 1.02576704e+001, 0.,
          0., 5.13383913e+000, 6.28037453e+000, 3., 0., 1.47648239e+000,
          0., 0., 0., 0., 0., 0., 0., 0., 0., 0., 0., 0., 0., 0., 0.,
          3.17157292e+000, 7.82842731e+000, 1., 0., 4.21009684e+000,
          1.18641663e+001, 9.25736785e-001, 0., 1.71728649e+001,
          3.05067577e+001, 3.20377231e-001, 0., 0., 0., 0., 0., 0., 0.,
          0., 0., 0., 0., 0., 0., 0., 0., 0., 0., 0., 0., 0.,
          4.14213568e-001, 2., 5., 2., 4.32458258e+000, 3.93302345e+000,
          1.00265818e+001, 4.30159903e+000, 0., 2.72392941e+000,
          2.82858791e+001, 1.59901915e+001, 4.14213568e-001,
          1.58578646e+000, 1., 0., 0., 0., 0., 0., 0., 0., 0., 0., 0.,
          0., 0., 0., 0., 0., 0., 0., 0., 1.58578646e+000, 0.,
          1.58578646e+000, 5.52722073e+000, 6.24930954e+000,
          7.73151970e+000, 3.90616369e+000, 0., 1.50221109e-001,
          5.61102724e+000, 1.96481895e+001, 2.74217796e+001,
          6.58299780e+000, 6.04553699e+000, 1.54024947e+000, 0., 0., 0.,
          0., 0., 0., 0., 0., 0., 0., 0., 0., 0., 0., 0., 0., 0.,
          1.16152239e+001, 8.28427124e+000, 4.10050488e+000, 0.,
          1.24315786e+001, 3.52841492e+001, 1.24264069e+001,
          1.10999355e+001, 1.75792849e+000, 0., 5.85786462e-001,
          4.14213568e-001, 3.42963219e+000, 7.57036781e+000, 0., 0., 0.,
          0., 0., 0., 3.92893219e+000, 6.62741709e+000, 8.44365120e+000,
          0., 5.22407770e-001, 1.94359608e+001, 1.78111839e+001,
          2.32304478e+001, 0., 0., 1.75735927e+000, 1.98822517e+001,
          5.11292152e+001, 3.22311745e+001, 1.05291152e+000,
          2.70444775e+000, 8.28427124e+000, 5.69670486e+001,
          2.19913216e+001, 0., 3.34314585e+000, 7.87005758e+000,
          1.45255928e+001, 2.61203885e-001, 2.87161303e+000,
          1.04004650e+001, 1.69827557e+001, 2.27451668e+001, 0.,
          6.56073332e+000, 2.90128593e+001, 1.90538235e+001,
          3.25594978e+001, 1.78130836e+001, 0., 0., 4.55634928e+000,
          5.51220589e+001, 3.23215942e+001, 0., 1.17157292e+000,
          4.55634928e+000, 1.19212427e+001, 1.35083485e+000,
          5.58439970e+000, 5.17295933e+000, 2.07106781e+000,
          1.56220560e+001, 3.55495186e+001, 1.39504290e+000,
          6.04957104e-001, 0., 1.20836306e+000, 2.79163694e+000, 0., 0.,
          0., 0., 0., 0., 1.17157292e+000, 2.07106781e+000,
          1.37642345e+001, 8.99312496e+000, 4.21806946e+001,
          1.89908791e+001, 4.14213562e+000, 9.91036892e+000,
          1.77592254e+000, 2.26849246e+000, 7.31507659e-001, 0., 0., 0.,
          0., 0., 0., 0., 0., 7.83611596e-001, 9.97374725e+000,
          2.07106781e+000, 9.16545105e+000, 7.00612211e+000,
          3.80080223e+001, 9.99197674e+000, 0., 0., 0., 0., 0., 0., 0.,
          0., 0., 0., 0., 0., 0., 5.22407770e-001, 7.23495150e+000,
          4.55634928e+000, 9.38563728e+000, 7.30065393e+000,
          3.83285446e+001, 7.84302759e+000, 1.24264073e+000,
          2.58578634e+000, 0., 0., 0., 0., 0., 0., 0., 0., 0., 0., 0.,
          0., 2.34314585e+000, 4.14213562e+000, 1.40629721e+001,
          3.45174670e+000, 2.77351723e+001, 1.16079731e+001,
          3.72792196e+000, 1.25409708e+001, 2.38796115e+000, 0., 0., 0.,
          0., 0., 0., 0., 0., 0., 0., 2.58897138e+000, 1.13399611e+001,
          3.72792196e+000, 7.34314585e+000, 0., 2.61203885e-001,
          7.38796115e-001, 4.14213562e+000, 4.05848122e+001,
          4.62730522e+001, 0., 0., 0., 2.23473501e+000, 1.87652645e+001,
          0., 0., 0., 0., 0., 4.09281588e+000, 1.58361158e+001,
          2.07106781e+000, 0., 0., 9.89180565e+000, 4.02381363e+001,
          9.94112587e+000, 1.27944860e+001, 2.13444638e+000, 0.,
          2.23309517e+001, 2.15391045e+001, 2.47980804e+001,
          4.63318596e+001, 0., 5.85786462e-001, 6.62741709e+000,
          4.36766624e+001, 4.21101341e+001, 0., 5.10050488e+000,
          5.38477612e+000, 4.51471853e+000, 0., 7.15200758e+000,
          2.10784397e+001, 1.65685425e+001, 8.20100975e+000, 0.,
          4.57072830e+001, 5.55820389e+001, 2.07106781e+001, 0., 0.,
          4.40123520e+001, 3.28749504e+001, 1.15979795e+001,
          3.51471853e+000, 0., 0., 5.10050488e+000, 6.21320343e+000,
          7.90267992e+000, 7.83611596e-001, 4.15469398e+001,
          1.17962074e+001, 2.07106781e+000, 8.75091457e+000,
          5.83487129e+000, 9.14139557e+000, 1.85860479e+000, 0., 0., 0.,
          0., 0., 0., 0., 0., 0., 2.17157292e+000, 2.89949489e+000,
          1.65111275e+001, 7.41780519e+000, 4.11677704e+001,
          2.20332413e+001, 7.45584393e+000, 4.66772842e+000,
          6.75417423e-001, 4.62809658e+000, 1.37190342e+000, 0., 0., 0.,
          0., 0., 0., 0., 0., 0., 5.10050488e+000, 4.55634928e+000,
          7.25351477e+000, 1.08963096e+000, 2.44962234e+001,
          1.28469219e+001, 2.07106781e+000, 5.85786462e-001, 0., 0., 0.,
          0., 0., 0., 0., 0., 0., 0., 0., 0., 8.92893219e+000,
          5.38477612e+000, 9.91036892e+000, 7.75922477e-001,
          2.88396168e+000, 2.28761125e+000, 1.24264073e+000,
          1.02835722e+001, 2.03022137e+001, 0., 0., 0., 0., 0., 0., 0.,
          0., 0., 0., 0., 7.10050488e+000, 5.38477612e+000,
          1.14250879e+001, 1.08963096e+000, 0., 3.75735927e+000,
          2.48528147e+000, 1.74597397e+001, 3.82976189e+001, 0., 0., 0.,
          0., 0., 0., 0., 0., 0., 0. ]
      - [ 0., 3.90616369e+000, 0., 0., 0., 0., 3., 5.46918154e+000, 0.,
          4., 2.41421366e+000, 7.98448610e+000, 4.62515793e+001,
          1.35212955e+001, 1.82842708e+000, 3., 0., 0., 0., 0.,
          1.88655434e+001, 6.13445616e+000, 0., 0., 0., 0., 0., 0., 0.,
          0., 0., 0., 0., 7.41421366e+000, 0., 0., 0., 0., 0., 2., 0.,
          2.84702358e+001, 1.04088736e+001, 3.58578634e+000,
          8.45105648e+000, 1.35889463e+001, 1.09599972e+001,
          1.58578646e+000, 0., 0., 0., 6.29505277e-001, 2.49078979e+001,
          6.93760986e+001, 1.60865021e+001, 2., 0., 0., 0.,
          7.09207249e+000, 4.55652771e+001, 2.17185211e+001,
          3.62412786e+000, 1., 0., 6.58578634e+000, 5., 2., 3., 2., 6.,
          1., 0., 4.01404495e+001, 1.34404659e+001, 5., 2., 0., 1.,
          4.14213568e-001, 0., 7.64669418e+000, 0., 0., 1.,
          2.56301785e+000, 2.68381844e+001, 3.85887489e+001, 0.,
          2.51279545e+000, 1., 1., 3.67541742e+000, 8.55532837e+000,
          3.07597961e+001, 2.96573429e+001, 0., 1., 2., 1.,
          6.41421366e+000, 2.58578634e+000, 7.41421366e+000,
          2.91036892e+000, 0., 1.46025181e+001, 0., 0., 0., 0., 2.,
          4.50723600e+000, 0., 5.68986952e-001, 0., 0., 0., 0., 0., 0.,
          0., 0., 0., 0., 0., 0., 0., 0., 0., 0., 0., 0., 0.,
          1.13180704e+001, 1.60961437e+001, 1.58578646e+000, 0.,
          1.55677767e+001, 3.02438974e+000, 0., 0., 4.48723459e+000,
          1.57089872e+001, 9.20335770e+000, 0., 0., 0., 0., 0., 0., 0.,
          0., 0., 0., 0., 0., 0., 0., 0., 0., 0., 0., 0., 0., 0.,
          1.33281507e+001, 1.36718493e+001, 2., 0., 2.67496967e+001,
          2.56383343e+001, 1.06007703e-001, 2., 3.90616369e+000,
          5.09383631e+000, 1., 0., 0., 0., 0., 0., 0., 0., 0., 0., 0.,
          0., 0., 0., 0., 0., 0., 0., 0., 0., 2., 2.41421366e+000,
          5.66193628e+000, 1.60092907e+001, 3.91455960e+000, 0.,
          5.89278507e+000, 3.58943443e+001, 1.88992348e+001,
          6.55627823e+000, 9.45520782e+000, 1.39408493e+001,
          1.36130214e+000, 0., 0., 6.63869810e+000, 3.61302108e-001, 1.,
          0., 0., 0., 0., 0., 0., 0., 0., 0., 0., 0., 0.,
          8.96533680e+000, 0., 1., 1., 0., 5., 3.17157292e+000, 0.,
          6.09259558e+000, 7.70154762e+000, 1.19666519e+001,
          2.93745461e+001, 1.12484150e+001, 1.09712839e+001,
          6.09618711e+000, 0., 0., 3.51171947e+000, 7.43053675e+000,
          1.70577431e+001, 0., 0., 0., 0., 0., 0., 0., 0., 0., 0., 0.,
          0., 4.68629169e+000, 7.87005758e+000, 8.44365120e+000, 0.,
          2.61203885e-001, 2.12118835e+001, 1.36690474e+001,
          1.45474539e+001, 1.13104105e+001, 0., 0., 0., 2.80613923e+000,
          1.01938610e+001, 0., 0., 0., 0., 0., 2.61203885e-001,
          5.83930111e+000, 3.72792196e+000, 1.17157292e+000, 0.,
          4.83611631e+000, 3.47080383e+001, 1.53259020e+001,
          1.97791080e+001, 1.35083485e+000, 1.15300965e+000,
          1.43277681e+000, 2.07106781e+000, 4.85134048e+001,
          5.58297386e+001, 1.19609098e+001, 1.12106638e+001,
          9.52691174e+000, 3.09692440e+001, 2.33227158e+000, 0.,
          8.20100975e+000, 9.52691174e+000, 5.27207804e+000, 0.,
          1.30601943e+000, 4.64685822e+001, 1.90538235e+001,
          1.17157292e+000, 0., 6.75417423e-001, 1.39398060e+001,
          1.61543293e+001, 5.24177437e+001, 2.28127041e+001,
          1.54415584e+000, 6.38477612e+000, 1.57401152e+001,
          6.90406342e+001, 8.29031754e+000, 0., 2.34314585e+000,
          6.62741709e+000, 9.02943707e+000, 0., 1.96857681e+001,
          1.38289509e+001, 5.79898977e+000, 5.68629169e+000, 0.,
          1.55544126e+000, 1.44455874e+000, 0., 0., 0., 0., 0., 0., 0.,
          0., 0., 0., 3.31370854e+000, 1.95373783e+001, 6.14891243e+000,
          1.70948467e+001, 1.00767269e+001, 2.07106781e+000,
          1.29989090e+001, 2.07584496e+001, 0., 0., 0., 0., 0., 0., 0.,
          0., 0., 0., 0., 0., 1.24264073e+000, 1.77747021e+001,
          9.98265743e+000, 4.15692482e+001, 9.77389812e+000,
          4.14213562e+000, 6.83930111e+000, 6.75417423e-001, 0., 0., 0.,
          0., 0., 0., 0., 0., 0., 0., 0., 1.17157292e+000,
          4.14213562e+000, 1.47971649e+001, 7.88912630e+000,
          4.58919983e+001, 1.40369349e+001, 3.72792196e+000,
          1.62895126e+001, 8.05363274e+000, 5.37443876e+000,
          1.62556100e+000, 0., 0., 0., 0., 0., 0., 0., 0.,
          5.22407770e-001, 9.16388416e+000, 6.21320343e+000,
          5.83930111e+000, 2.61203885e-001, 1.19015360e+001,
          1.91279011e+001, 9.94112587e+000, 3.11638832e+001,
          5.86555338e+000, 1.34279289e+001, 3.57207108e+000, 0., 0., 0.,
          0., 0., 0., 0., 0., 5.31370831e+000, 2.24436512e+001,
          1.24264073e+000, 0., 0., 1.72023296e+000, 1.33802719e+001,
          9.11269855e+000, 3.04624348e+001, 3.23243637e+001, 0., 0., 0.,
          3.62670374e+000, 2.13732967e+001, 0., 0., 0., 0., 0.,
          2.08963108e+000, 1.69398060e+001, 4.97056293e+000, 0., 0.,
          4.57491255e+000, 3.30697479e+001, 1.61543293e+001,
          2.06786022e+001, 1.52240777e+000, 0., 2.34314585e+000,
          4.97056293e+000, 3.73316383e+001, 6.23546562e+001, 0.,
          5.85786462e-001, 3.31370854e+000, 3.21785011e+001,
          4.09220047e+001, 0., 5.68629169e+000, 5.79898977e+000,
          4.51471853e+000, 0., 5.00487089e+000, 4.97402954e+001,
          1.61543293e+001, 4.10050488e+000, 0., 4.66947708e+001,
          5.76361809e+001, 1.65685425e+001, 4.10050488e+000, 0.,
          3.64590416e+001, 3.30140495e+001, 1.49116879e+001,
          1.03540201e+001, 2.61203885e-001, 2.61203885e-001,
          4.66772842e+000, 5.38477612e+000, 6.68629169e+000, 0.,
          4.34663162e+001, 1.42199755e+001, 3.31370854e+000, 0., 0.,
          7.47269011e+000, 1.52730978e+000, 0., 0., 0., 0., 0., 0., 0.,
          0., 0., 1.58578646e+000, 3.31370854e+000, 1.18130493e+001,
          2.28745627e+000, 4.60292702e+001, 1.15565176e+001,
          2.07106781e+000, 6.56722307e+000, 7.75922477e-001, 0., 0., 0.,
          0., 0., 0., 0., 0., 0., 0., 0., 1.17157292e+000,
          4.14213562e+000, 1.50076895e+001, 3.67860246e+000,
          2.89381790e+001, 1.31623268e+001, 7.45584393e+000,
          6.44365072e+000, 0., 0., 0., 0., 0., 0., 0., 0., 0., 0., 0.,
          0., 4.51471853e+000, 6.62741709e+000, 1.15966606e+001,
          2.61203885e-001, 8.74662304e+000, 7.76809549e+000,
          1.15979795e+001, 3.07654953e+001, 1.91218052e+001, 0., 0., 0.,
          8.99494946e-001, 1.10050511e+000, 0., 0., 0., 0., 0.,
          2.96287370e+000, 1.55518446e+001, 3.31370854e+000,
          1.17157292e+000, 0., 1.78361166e+000, 1.84884663e+001,
          8.69848442e+000, 2.57037811e+001, 2.73256550e+001, 0., 0., 0.,
          4.33021164e+000, 2.16697884e+001, 0., 0., 0., 0., 0. ]
      - [ 0., 4.85281378e-001, 2.64228368e+000, 6.20749521e+000,
          1.66493976e+000, 5.12963390e+000, 8.44330311e+000,
          5.81081915e+000, 0., 3.26540923e+000, 4.75872946e+000,
          1.73831787e+001, 2.51961327e+001, 1.66116371e+001,
          1.78827534e+001, 3.90216064e+000, 0., 0., 2.11586046e+000,
          8.38352489e+000, 3.44798279e+001, 2.04123058e+001,
          5.44040585e+000, 1.68074355e-001, 0., 0., 0., 0., 0., 0., 0.,
          0., 0., 4.75735950e+000, 1.30710678e+001, 8.08194160e+000,
          2.08963108e+000, 1., 1., 0., 0., 0., 2., 1.39473829e+001,
          3.24185295e+001, 1.80178432e+001, 2.06162434e+001, 3., 0., 3.,
          6.41421366e+000, 8.65270901e+000, 5.32050514e+001,
          6.16142998e+001, 1.51137266e+001, 9.06163692e-001, 0.,
          1.13918900e-001, 1., 9.15613556e+000, 8.30292969e+001,
          3.88145714e+001, 0., 2.20481202e-001, 0., 2., 5.34735107e+000,
          1.01260357e+001, 8.52661324e+000, 1., 2., 0., 0.,
          3.34314585e+000, 1.23844776e+001, 1.25073280e+001,
          9.17926216e+000, 1.06635227e+001, 2.18816528e+001,
          1.84356537e+001, 0., 3.00832605e+000, 1.00963001e+001,
          2.68391056e+001, 2.35554962e+001, 1.27307243e+001,
          1.16905689e+001, 2.52086334e+001, 0., 1.22253389e+001,
          1.08982964e+001, 2.19505978e+000, 5.03466272e+000,
          1.60815752e+000, 1.49582939e+001, 2.71264229e+001, 0.,
          4.58578634e+000, 2.82842708e+000, 5.58578634e+000,
          5.73879623e+000, 1.26120389e+000, 1.82842708e+000,
          3.75735927e+000, 0., 9.82549286e+000, 9.26120377e+000,
          1.12941246e+001, 9.44467163e+000, 1., 3.82842708e+000,
          1.11499214e+001, 0., 9.78001022e+000, 6.17395401e+000,
          5.53059995e-001, 1.38222730e+000, 2.03198624e+000,
          7.86554337e+000, 1.51599731e+001, 0., 0., 0., 0., 0., 0., 0.,
          0., 0., 4.32458258e+000, 8.26120377e+000, 3.73459077e+000,
          5.26540899e+000, 4.14213568e-001, 2., 5.85786462e-001, 0.,
          1.92997398e+001, 1.10808678e+001, 5.85786462e-001,
          4.14213568e-001, 1., 1.32458258e+000, 1.05279846e+001, 0., 0.,
          0., 0., 0., 0., 0., 0., 0., 0., 0., 0., 0., 0., 0., 0., 0., 1.,
          7.19434118e+000, 1.02071753e+001, 7.42690992e+000,
          2.17157292e+000, 1., 0., 0., 1.39960871e+001, 2.50077896e+001,
          1.17194252e+001, 1.11673679e+001, 5.04829931e+000,
          8.06769657e+000, 2.93291259e+000, 0., 1.97408676e+001,
          3.35809708e+001, 5.13633370e-001, 0., 0., 0., 0., 0., 0., 0.,
          0., 0., 0., 0., 0., 0., 7.49615526e+000, 8.82842731e+000,
          4.75735950e+000, 3., 4.14213568e-001, 0., 1.17157292e+000,
          1.87818801e+000, 7.79358768e+000, 2.55546455e+001,
          2.12423744e+001, 1.25573969e+001, 9.26464367e+000,
          1.13960733e+001, 6.31309032e+000, 0., 1.12636817e+000,
          2.49048691e+001, 2.25738220e+001, 4.39494228e+000, 0., 0., 0.,
          0., 0., 0., 0., 0., 0., 0., 0., 0., 6.66352320e+000,
          7.92226362e+000, 5.08194208e+000, 1.50384462e+000, 0., 1., 1.,
          9.61163163e-001, 9.98943686e-001, 2.52219734e+001,
          4.77741928e+001, 1.76295128e+001, 4.14213568e-001, 0., 0., 0.,
          0., 1.41398931e+000, 1.26906338e+001, 1.13218012e+001,
          5.73575437e-001, 0., 0., 0., 0., 0., 0., 0., 0., 0., 0.,
          3.55184507e+000, 6.44815493e+000, 2.07106781e+000,
          1.37271547e+001, 6.20177794e+000, 8.34017467e+000,
          2.14466209e+001, 1.15979795e+001, 2.65712185e+001,
          1.70440044e+001, 9.56416512e+000, 7.77898026e+000,
          2.48528147e+000, 8.17371559e+000, 2.89978580e+001, 0., 0., 0.,
          0., 0., 2.91036892e+000, 2.21901360e+001, 3.72792196e+000,
          1.17157292e+000, 0., 2.61203885e-001, 1.62829514e+001,
          2.11248913e+001, 3.41965065e+001, 2.13444638e+000,
          1.97374773e+000, 1.50556898e+001, 1.32548342e+001,
          6.30672035e+001, 4.06485252e+001, 1.05908165e+001,
          1.05096884e+001, 7.04163074e+000, 4.61432724e+001,
          2.77145901e+001, 2.22726250e+000, 1.60448151e+001,
          5.38477612e+000, 2.34314585e+000, 0., 4.74967003e+000,
          2.12797680e+001, 1.20121937e+001, 4.14436493e+001,
          4.51471853e+000, 4.45452499e+000, 3.70185623e+001,
          1.61543293e+001, 2.82779484e+001, 3.90946350e+001,
          2.25765533e+001, 6.59501982e+000, 2.48528147e+000,
          9.39043140e+000, 4.09527130e+001, 0., 9.27207756e+000,
          5.79898977e+000, 5.92893219e+000, 0., 9.37563038e+000,
          2.87543125e+001, 1.36690474e+001, 1.60764084e+001,
          3.12460256e+000, 1.65379772e+001, 5.63359547e+000,
          1.24264073e+000, 4.84486294e+000, 2.57409229e+001, 0., 0., 0.,
          0., 0., 3.26438880e+000, 1.26645432e+001, 3.31370854e+000,
          2.75735927e+000, 0., 2.52710495e+001, 1.30720959e+001,
          2.48528147e+000, 8.55173683e+000, 1.76198368e+001, 0., 0., 0.,
          0., 0., 0., 0., 0., 0., 0., 3.68629146e+000, 1.56568546e+001,
          3.31370854e+000, 2.34314585e+000, 0., 1.62625904e+001,
          3.81810608e+001, 9.11269855e+000, 1.24775925e+001,
          2.96605849e+000, 5.07326889e+001, 6.85309601e+000,
          4.14213568e-001, 0., 0., 0., 0., 0., 0., 0., 1.04481554e+000,
          1.86414757e+001, 4.55634928e+000, 1.75735927e+000, 0.,
          3.42322350e+001, 2.89393368e+001, 2.07106781e+000,
          1.28065395e+001, 1.79508190e+001, 4.54326782e+001,
          5.56732082e+000, 0., 0., 0., 0., 0., 0., 0., 0.,
          4.14213568e-001, 1.62010098e+001, 5.38477612e+000, 2., 0.,
          4.39200706e+001, 4.18372879e+001, 1.65685427e+000,
          5.85786462e-001, 0., 1.46881237e+001, 3.31187630e+000, 0.,
          9.96402204e-001, 2.00359774e+000, 0., 0., 0., 0., 0.,
          1.45902908e+000, 1.04699030e+001, 3.72792196e+000,
          1.11344461e+001, 3.20869923e+000, 7.83611596e-001,
          1.11453209e+001, 8.69848442e+000, 3.25756226e+001,
          2.77969589e+001, 0., 5.85786462e-001, 4.14213568e-001,
          1.07050896e+001, 5.52949104e+001, 0., 0., 0., 0., 0., 0.,
          4.51471853e+000, 5.38477612e+000, 1.11638842e+001,
          9.36621308e-001, 0., 2.34314585e+000, 8.28427124e+000,
          4.84359627e+001, 1.19366217e+001, 9.36621308e-001,
          4.82073784e+000, 8.28427124e+000, 7.06390686e+001,
          5.63192978e+001, 1.88002384e+000, 1.11997616e+000,
          4.14213568e-001, 5.10380402e+001, 7.95477448e+001, 0.,
          2.34314585e+000, 2.89949489e+000, 1.62951450e+001,
          4.46221399e+000, 9.36621308e-001, 2.60217476e+001,
          1.40832615e+001, 3.11747570e+001, 7.83611596e-001,
          4.57568779e+001, 2.03436260e+001, 1.15979795e+001,
          5.39541626e+001, 9.34735107e+000, 6.19729385e+001,
          1.10270605e+001, 1.24264073e+000, 7.77346373e+000,
          2.98389554e+000, 2.61203885e-001, 8.42508793e+000,
          6.62741709e+000, 8.32458210e+000, 1.36170888e+000,
          3.24623032e+001, 2.08097744e+001, 8.69848442e+000,
          1.64173985e+001, 1.61203873e+000, 4.73584366e+001,
          7.64156199e+000, 0., 1.80755270e+000, 3.19244742e+000, 0., 0.,
          0., 0., 0., 0., 7.51471853e+000, 4.14213562e+000,
          8.08194160e+000, 1.26120389e+000, 5.44399261e+001,
          1.24890051e+001, 2.48528147e+000, 1.58578646e+000, 0.,
          1.81035364e+000, 1.89646408e-001, 0., 0., 0., 0., 0., 0., 0.,
          0., 0., 1.17157292e+000, 3.31370854e+000, 1.79660587e+001,
          2.54866004e+000, 9.51473904e+000, 2.66152039e+001,
          1.24264069e+001, 2.37496700e+001, 3.69398069e+000,
          3.47971268e+001, 1.21318064e+001, 2.07106781e+000,
          1.03296423e+000, 1.96703577e+000, 0., 0., 0., 0., 0.,
          5.22407770e-001, 1.34065247e+001, 4.55634928e+000,
          6.25351477e+000, 2.61203885e-001, 4.73208475e+000,
          1.77115669e+001, 8.28427124e+000, 2.53868866e+001,
          3.18851910e+001, 2.48928761e+000, 2.26807165e+000,
          2.48528147e+000, 1.01357212e+001, 2.76216393e+001, 0., 0., 0.,
          0., 0., 0., 9.10050488e+000, 3.72792196e+000, 5.91036892e+000,
          2.61203885e-001, 2.03418255e+000, 2.13739014e+000,
          6.62741709e+000, 4.20713463e+001, 3.71296654e+001, 0., 0., 0.,
          2.91799927e+000, 2.20820007e+001, 0., 0., 0., 0., 0. ]
      - [ 0., 4.43377829e+000, 1.08886509e+001, 8.46552372e+000,
          5.99640036e+000, 5.05960941e-001, 5.85786462e-001, 0.,
          7.76530027e-001, 9.59992647e-001, 1.82240028e+001,
          1.49701748e+001, 1.56327562e+001, 1.05734539e+001,
          6.96359491e+000, 2.89949489e+000, 0., 0., 4.14213568e-001,
          1.37729912e+001, 2.95177898e+001, 1.29500473e+000, 0., 0., 0.,
          0., 0., 0., 1., 0., 0., 0., 0., 7.47774696e+000,
          8.02861977e+000, 0., 1., 0., 1., 3.32037735e+000, 0.,
          1.69970536e+000, 9.70282364e+000, 1.05597687e+001,
          1.55814171e+001, 1.69334030e+001, 1.57960730e+001,
          7.12185240e+000, 0., 9.28002548e+000, 1.84270515e+001,
          1.01212025e+001, 3.68726501e+001, 1.98485241e+001,
          2.47393932e+001, 1.98757591e+001, 0., 0., 0., 7.20918834e-001,
          5.36880188e+001, 6.44513855e+001, 5.13823128e+001,
          8.92893219e+000, 7.28412211e-001, 1.48739738e+001,
          9.76291943e+000, 2.95927739e+000, 6.75417423e-001, 1., 2., 0.,
          0., 2.47718945e+001, 1.22013760e+001, 4.75735950e+000,
          6.07106781e+000, 5.49615526e+000, 1.28998222e+001,
          1.29838476e+001, 0., 2.51901436e+001, 5.22048140e+000,
          4.14213568e-001, 4., 1.47573595e+001, 1.53137083e+001,
          1.71674366e+001, 0., 1.68074355e-001, 0., 0., 0.,
          1.96179867e+001, 3.62989388e+001, 4.83780212e+001, 0.,
          2.08005142e+000, 4.91994858e+000, 0., 0., 0., 0., 0., 0.,
          8.36597252e+000, 1.46273208e+000, 0., 0., 0., 0., 0., 0., 0.,
          0., 0., 0., 0., 0., 0., 0., 0., 0., 0., 0., 0., 0., 0., 0., 0.,
          0., 0., 0., 0., 0., 0., 0., 0., 0., 0., 0., 0., 0., 0., 0., 0.,
          0., 0., 0., 0., 0., 0., 0., 0., 0., 0., 0., 0., 0., 0., 0., 0.,
          0., 0., 0., 0., 0., 0., 0., 0., 0., 0., 0., 0., 0., 0., 0., 0.,
          0., 0., 0., 0., 0., 0., 0., 0., 0., 0., 0., 0., 0., 0., 0.,
          1.78567743e+000, 1.33296406e+000, 8.87517154e-001, 0., 0., 0.,
          9.63239193e+000, 0., 3.75513816e+000, 1.45719557e+001,
          1.07696400e+001, 4.02750635e+000, 1., 4., 1., 0., 0., 3., 0.,
          0., 0., 0., 0., 0., 0., 0., 0., 0., 0., 0., 0., 0., 1., 3.,
          2.54482269e+000, 3.38100791e+000, 2.49388623e+000,
          6.62462854e+000, 7.60227346e+000, 0., 0., 1.22599792e+000,
          8.63506413e+000, 1.15050220e+001, 4.29243994e+000,
          3.41474891e-001, 0., 0., 0., 0., 0., 0., 0., 0., 0., 0., 0.,
          0., 0., 0., 0., 0., 0., 2.32434807e+001, 3.34230518e+000,
          8.28427136e-001, 7.64479339e-001, 8.21307123e-001,
          3.41629181e+001, 6.83708382e+000, 2.07106781e+000,
          1.75038452e+001, 5.42508745e+000, 1.78330402e+001,
          9.33853245e+000, 2.48528147e+000, 3.34314585e+000, 0., 0., 0.,
          0., 0., 0., 6.18116713e+000, 7.50512457e+000, 5.38477612e+000,
          4.51471853e+000, 4.14213568e-001, 6.30792379e+000,
          1.29641542e+001, 7.87005758e+000, 2.75112305e+001,
          1.23466330e+001, 1.29683733e+001, 2.36468506e+001,
          2.11248913e+001, 5.57106018e+001, 1.35492811e+001, 0.,
          3.34314585e+000, 2.52670269e+001, 1.08282806e+002,
          1.61070175e+001, 2.16939430e+001, 6.47763062e+000,
          1.24264073e+000, 2.32458258e+000, 2.61203885e-001,
          2.22753258e+001, 2.15825386e+001, 1.03553391e+001,
          2.59212437e+001, 3.86555362e+000, 1.88149223e+001,
          2.01434460e+001, 2.31959591e+001, 3.82336311e+001,
          1.61203873e+000, 0., 5.85786462e-001, 1.24264069e+001,
          7.40280991e+001, 4.39597054e+001, 5.14558125e+000,
          1.85441887e+000, 0., 0., 0., 7.89406204e+000, 3.10593820e+000,
          0., 0., 0., 0., 0., 0., 0., 0., 0., 0., 0., 0., 0., 0., 0., 0.,
          0., 0., 0., 0., 0., 0., 0., 0., 0., 0., 0., 0., 0., 0., 0., 0.,
          0., 0., 0., 0., 0., 0., 0., 0., 0., 0., 0., 0., 0., 0., 0., 0.,
          0., 0., 0., 0., 0., 3.39423633e+000, 1.60576379e+000,
          4.14213568e-001, 5.07888269e+000, 1.35069036e+001,
          2.51781349e+001, 4.82186460e+000, 0., 1.88997090e+000,
          4.11002922e+000, 1.76823342e+000, 1.23176658e+000, 0., 0., 0.,
          0., 0., 0., 0., 0., 6.43869209e+000, 2.56130767e+000, 0.,
          2.14088416e+000, 1.68591156e+001, 1.09232807e+001,
          2.07671928e+000, 0., 1.07863617e+000, 4.92136383e+000, 0., 0.,
          0., 0., 0., 0., 0., 0., 0., 0., 5.82465744e+000,
          3.17534280e+000, 4.14213568e-001, 5.78856802e+000,
          1.57972183e+001, 6.75417423e-001, 6.25351477e+000,
          4.14213562e+000, 1.87783833e+001, 3.01505489e+001, 0., 0.,
          8.28427136e-001, 8.54696846e+000, 3.56246033e+001, 0., 0., 0.,
          1.42645061e-001, 8.57354939e-001, 8.49407959e+000,
          9.84906578e+000, 2.07106781e+000, 5.85786462e-001, 0.,
          3.34314585e+000, 1.29289322e+001, 1.15979795e+001,
          3.19303341e+001, 1.31996078e+001, 1.18611212e+001,
          3.18546066e+001, 1.90538235e+001, 4.23993416e+001,
          2.18311081e+001, 0., 9.44365120e+000, 2.36101723e+001,
          7.28416824e+001, 4.21044922e+001, 1.88229866e+001,
          4.17701387e+000, 1.65685427e+000, 4.08194208e+000,
          2.61203885e-001, 2.54335251e+001, 2.49390583e+001,
          1.03553391e+001, 1.50108738e+001, 2.61203885e-001,
          3.73558922e+001, 4.83892708e+001, 2.19533195e+001,
          1.23015156e+001, 0., 5.24651070e+001, 3.63216896e+001,
          1.73969688e+001, 1.68162346e+001, 0., 2.84021997e+000,
          1.15978003e+000, 0., 0., 0., 9.40943432e+000, 3.59056592e+000,
          0., 0., 0., 8.09256434e-001, 1.90743566e-001, 0., 0., 0., 0.,
          0., 0., 0., 0., 0., 0., 0., 0., 0., 0., 0., 0., 0., 0., 0., 0.,
          0., 0., 0., 0., 0., 0., 0., 0., 5.14718652e-001,
          4.85281378e-001, 0., 0., 0., 2.99517179e+000, 2.00482821e+000,
          0., 0., 0., 0., 0., 0., 0., 0., 0., 0., 0., 0., 0.,
          2.00945644e+001, 3.90543485e+000, 0., 8.99494946e-001,
          1.10050511e+000, 8.08684349e+000, 2.49894285e+000,
          4.14213568e-001, 4.45254612e+000, 1.45474539e+001, 0., 0., 0.,
          0., 0., 0., 0., 0., 0., 0., 1.27102060e+001, 3.28979349e+000,
          0., 1.39909244e+000, 8.60090733e+000, 0., 0., 0.,
          3.89303827e+000, 2.11069622e+001, 0., 0., 0., 0., 0., 0., 0.,
          0., 0., 0. ]
      - [ 0., 2.58271551e+000, 3.22654080e+000, 4.38117981e+000,
          9.54856014e+000, 3.45103717e+000, 1.80996656e+000,
          3.75414014e+000, 0., 5.90616369e+000, 8.41421318e+000,
          3.49263811e+000, 1.54677401e+001, 2.03962183e+000, 6.,
          1.34748039e+001, 5.85786462e-001, 0., 0., 1.31524312e+000,
          3.87989464e+001, 7.88580894e+000, 0., 4.14213568e-001, 0., 0.,
          0., 0., 0., 0., 0., 0., 8.99508953e-001, 1.79015720e+000,
          2.07941937e+000, 2.64169359e+000, 9.02129078e+000,
          9.97243881e+000, 2.81597233e+000, 7.79518783e-001, 0.,
          2.58863850e+001, 1.80944443e+001, 1.26635227e+001,
          7.50804996e+000, 1., 0., 2., 0., 1.03431454e+001,
          1.24142132e+001, 8.50577354e+000, 3.88309669e+001,
          3.23798943e+001, 1.81117897e+001, 7.75735950e+000, 0., 0., 0.,
          0., 2.54249535e+001, 3.41761665e+001, 2.46415215e+001,
          9.75735950e+000, 0., 0., 0., 0., 9.24264050e+000,
          1.05147190e+001, 9.44467163e+000, 2.79796958e+000, 0., 2., 7.,
          5., 1.52426405e+001, 2.30294380e+001, 1.79705620e+001,
          6.75735950e+000, 0., 1.28188543e+001, 9., 2., 10., 3., 13.,
          1.42606802e+001, 0., 1.08006394e+000, 2., 0., 9.82842731e+000,
          1.95147190e+001, 4.68227463e+001, 3.68365517e+001, 0., 1., 1.,
          1., 4.07106781e+000, 5.92893219e+000, 3.26120377e+000,
          4.73879623e+000, 0., 1.00958910e+001, 7.17463779e+000,
          1.90743566e-001, 5., 4.58578634e+000, 1.22426405e+001,
          2.42059326e+001, 0., 4.40132332e+000, 0., 0., 0., 0., 0.,
          4.23582029e+000, 0., 0., 0., 0., 0., 0., 0., 0., 0.,
          3.33326387e+000, 2.74263406e+000, 0., 0., 0., 6., 6., 0.,
          2.30504551e+001, 6.15792751e+000, 0., 0., 0., 0., 0., 0., 0.,
          0., 0., 0., 0., 0., 0., 0., 0., 0., 0., 0., 0., 0., 0., 0.,
          1.07683983e+001, 5.54201794e+000, 0., 3., 1., 2., 0.,
          2.08146930e-001, 7.53815365e+000, 1.02536993e+001, 0., 0., 0.,
          0., 0., 0., 0., 0., 0., 0., 0., 0., 0., 0., 0., 0., 0., 0., 0.,
          0., 0., 2.61203885e-001, 0., 3.97234821e+000, 5.60923290e+000,
          1.45899916e+001, 2.82842708e+000, 2., 2.73879623e+000, 0.,
          1.61682262e+001, 2.82285042e+001, 7.38699293e+000,
          1.41421354e+000, 5.85786462e-001, 3.41421366e+000, 1., 0.,
          5.16533804e+000, 6.27085066e+000, 0., 0., 0., 0., 0., 0., 0.,
          1., 0., 0., 0., 0., 0., 2.85058665e+000, 3.42055702e+000,
          7.28856504e-001, 2.26540923e+000, 1.06568546e+001,
          6.80209160e+000, 2.67068791e+000, 6.04957104e-001, 0.,
          1.11250544e+001, 1.33069439e+001, 1.72771378e+001,
          1.81401005e+001, 6.37432528e+000, 7.36551857e+000,
          5.35730886e+000, 9.30827713e+000, 9.14973068e+000,
          4.77257156e+000, 6.51454449e+000, 3.04822693e+001,
          1.44661140e+001, 1.98609829e+000, 1.32039499e+000, 0., 0.,
          1.48878682e+000, 2.04589081e+000, 4.46532202e+000, 0., 0., 0.,
          1.55184495e+000, 9.54866028e+000, 4.14213562e+000,
          8.21499920e+000, 3.54235983e+000, 2.61203885e-001,
          1.86260986e+001, 1.82253971e+001, 1.85586510e+001,
          2.32865024e+000, 2.61203885e-001, 4.08194208e+000,
          3.31370854e+000, 8.19531822e+000, 1.41478281e+001, 0., 0., 0.,
          0., 0., 5.53573608e+000, 2.46426392e+000, 8.28427136e-001,
          1.09395266e+001, 6.23204660e+000, 4.40304041e+000,
          4.01999893e+001, 1.86396103e+001, 1.75735927e+000, 0., 0.,
          2.27451668e+001, 2.44386005e+001, 3.70289841e+001,
          2.67872505e+001, 0., 0., 6.62741709e+000, 4.43350258e+001,
          3.40375557e+001, 0., 0., 6.21320343e+000, 1.96523495e+001,
          2.13444638e+000, 0., 8.20100975e+000, 1.82253971e+001,
          3.73123894e+001, 2.61203885e-001, 5.85107660e+000,
          1.88646526e+001, 2.02964649e+001, 2.03162441e+001,
          2.67156339e+000, 1.90309274e+000, 5.26848030e+000,
          2.15391045e+001, 7.47603836e+001, 2.75289402e+001, 0.,
          1.75735927e+000, 7.04163074e+000, 9.93980598e+000,
          2.61203885e-001, 1.57442064e+001, 7.18472624e+000,
          1.36690474e+001, 3.46575546e+001, 5.74446440e+000,
          7.83164454e+000, 4.75414181e+000, 8.28427136e-001,
          5.07404709e+000, 6.51173925e+000, 0., 0., 0., 0., 0.,
          3.67476082e+000, 2.49681211e+000, 5.38477612e+000,
          7.44365072e+000, 0., 2.78479385e+001, 6.73784781e+000,
          4.14213568e-001, 0., 0., 0., 0., 0., 0., 0., 0., 0., 0., 0.,
          0., 1.18360186e+001, 4.33555412e+000, 2.07106781e+000,
          1.75735927e+000, 0., 1.46423855e+001, 3.35761428e+000, 0., 0.,
          0., 0., 0., 0., 0., 0., 0., 0., 0., 0., 0., 2.79722095e+000,
          6.88907051e+000, 4.97056293e+000, 6.40652466e+000,
          9.36621308e-001, 4.15842247e+001, 1.05873489e+001,
          2.48528147e+000, 3.34314585e+000, 0., 1.11066990e+001,
          3.89330101e+000, 0., 0., 0., 8.31925631e-001, 1.68074355e-001,
          0., 0., 0., 2.04481554e+000, 7.12675714e+000, 3.72792196e+000,
          8.69037819e+000, 3.41012669e+000, 2.37865429e+001,
          2.44144688e+001, 1.20121937e+001, 1.64139576e+001,
          5.37283850e+000, 2.33527889e+001, 9.23299789e+000,
          8.28427136e-001, 9.56653309e+000, 2.30192528e+001,
          2.80114460e+000, 1.19885528e+000, 0., 0., 0., 4.51251364e+000,
          7.07327318e+000, 2.07106781e+000, 1.14526596e+001,
          5.89048672e+000, 2.84666634e+000, 4.03127136e+001,
          1.36690474e+001, 5.27379608e+000, 1.48977766e+001,
          2.61203885e-001, 7.38796115e-001, 4.14213568e-001,
          5.73373795e+000, 4.18520470e+001, 0., 0., 0., 0., 0.,
          3.23313046e+000, 7.66869426e-001, 8.28427136e-001,
          1.45467033e+001, 1.06248703e+001, 2.71254373e+000,
          3.18610497e+001, 1.94680367e+001, 1.45441561e+001,
          4.14213568e-001, 2.61203885e-001, 2.02118835e+001,
          2.31959591e+001, 2.98894291e+001, 3.84415245e+001, 0.,
          9.02943707e+000, 8.28427124e+000, 1.56111851e+001,
          4.40751076e+001, 0., 3.17157292e+000, 3.72792196e+000,
          1.80556889e+001, 1.04481554e+000, 0., 9.37258339e+000,
          2.19533195e+001, 3.14128952e+001, 2.61203885e-001,
          2.00963593e+001, 3.78498154e+001, 2.52670269e+001,
          8.78679657e+000, 0., 4.84947281e+001, 2.99072914e+001,
          2.07106781e+001, 2.23648930e+001, 5.22407770e-001, 0.,
          6.27207804e+000, 5.79898977e+000, 8.92893219e+000, 0.,
          3.21473389e+001, 2.33968182e+001, 1.20121937e+001,
          6.44365072e+000, 0., 3.18645916e+001, 7.72119474e+000,
          4.14213568e-001, 0., 0., 0., 0., 0., 0., 0., 4.38218260e+000,
          9.23304081e+000, 5.38477612e+000, 0., 0., 2.87743893e+001,
          6.22561169e+000, 0., 0., 0., 0., 0., 0., 0., 0., 0., 0., 0.,
          0., 0., 9.68830395e+000, 5.65484142e+000, 3.31370854e+000,
          2.34314585e+000, 0., 9.44238853e+000, 3.55761170e+000, 0., 0.,
          0., 0., 0., 0., 0., 0., 0., 0., 0., 0., 0., 6.75417423e-001,
          2.49615550e+000, 3.72792196e+000, 1.78886204e+001,
          5.21188402e+000, 1.97357712e+001, 7.85001469e+000,
          3.31370854e+000, 5.64172840e+000, 8.45877647e+000,
          9.53463554e+000, 4.46536446e+000, 0., 0., 0., 0., 0., 0., 0.,
          0., 3.19054294e+000, 4.39524364e+000, 2.07106781e+000,
          1.26585035e+001, 7.68464184e+000, 9.73172569e+000,
          1.95403519e+001, 5.79898977e+000, 2.13024044e+001,
          2.56265278e+001, 1.85127487e+001, 4.48725176e+000, 0.,
          9.35692501e+000, 4.56430740e+001, 0., 0., 0., 1.84028018e+000,
          5.15971994e+000 ]
      - [ 6.88218236e-001, 1.52813244e+000, 3.47186756e+000,
          5.39158344e+000, 8.54556179e+000, 9.39594460e+000,
          2.66691089e+000, 1.31178176e+000, 0., 1.93008900e+001,
          8.13389397e+000, 1.99799943e+000, 7.85884285e+000,
          5.82855940e+000, 2.64631796e+000, 1.61652241e+001, 0., 4., 0.,
          8.04951549e-001, 6.05720787e+001, 4.62296963e+000, 0., 0., 0.,
          0., 0., 0., 0., 0., 0., 0., 0., 0., 1.85311735e+000,
          7.42235279e+000, 1.18183661e+001, 7.90616369e+000, 1., 0., 0.,
          1.01327286e+001, 1.72342834e+001, 1.39102402e+001,
          2.06967640e+001, 8.34742165e+000, 5.39938211e+000,
          5.33965206e+000, 0., 2.93345375e+001, 1.74842148e+001,
          1.01879625e+001, 2.52485924e+001, 1.15126143e+001, 9., 1., 0.,
          5.30427742e+000, 3.82842708e+000, 7.64479339e-001,
          3.75588455e+001, 4.38776855e+001, 4.42132034e+001,
          6.17157269e+000, 0., 0., 0., 1.68074355e-001, 1.13963604e+001,
          1.54355650e+001, 2.41421366e+000, 5.85786462e-001, 0., 0., 1.,
          1., 1.28284273e+001, 4.01299438e+001, 1.82842712e+001,
          7.75735950e+000, 0., 6., 7., 9., 14., 3.58578634e+000,
          1.24142132e+001, 1.36709814e+001, 0., 9.81124341e-002, 2., 0.,
          4.41421366e+000, 7.58578634e+000, 31., 2.69577389e+001, 0.,
          2.58578634e+000, 3., 1., 3., 0., 1., 0., 0., 2.41616879e+001,
          8.46990287e-001, 0., 0., 0., 4.41421366e+000, 1.41103106e+001,
          0., 1.26957560e+000, 0., 0., 0., 0., 0., 5.78807640e+000, 0.,
          0., 0., 0., 0., 0., 0., 0., 0., 7.39635515e+000,
          4.59175110e+000, 0., 0., 2., 5., 4., 0., 1.58279314e+001,
          2.79191756e+000, 0., 0., 0., 0., 5.85786462e-001, 0., 0., 0.,
          0., 0., 0., 0., 0., 0., 0., 0., 0., 0., 0., 0., 0.,
          1.01099454e-001, 1.39759016e+001, 7.66179514e+000,
          2.61203885e-001, 3.08963108e+000, 3.91036892e+000, 0., 0.,
          1.23899341e-001, 7.81882000e+000, 5.05728054e+000, 0., 0., 0.,
          0., 0., 0., 0., 0., 0., 0., 0., 0., 0., 0., 0., 0., 0., 0., 0.,
          0., 0., 0., 1.13734818e+000, 4.80347872e+000, 3.54445481e+000,
          5.62054157e+000, 8.65787792e+000, 5.23629904e+000, 0., 0.,
          1.41395521e+001, 2.07635307e+001, 9.46937275e+000,
          2.97118640e+000, 0., 1., 2.07731771e+000, 0., 1.69877186e+001,
          5.54225922e+000, 7.42138243e+000, 7.58204937e+000,
          6.70060492e+000, 2.02210855e+000, 1.62542462e+000, 0.,
          2.52392030e+000, 6.40150356e+000, 2.51108813e+000,
          6.50846004e+000, 2.08746099e+000, 1.96196273e-001, 0.,
          5.05960941e-001, 0., 1., 0., 1.26120389e+000, 9.45846367e+000,
          1.12117968e+001, 6.56257439e+000, 0., 1.03273840e+001,
          1.52794819e+001, 1.86582355e+001, 2.45863876e+001,
          1.03537636e+001, 4.56630421e+000, 2.35631108e+000, 0., 0.,
          4.02601957e+000, 8.43530941e+000, 2.52290516e+001,
          8.15939808e+000, 1.15022111e+000, 0., 0., 0., 0., 0., 0., 0.,
          0., 0., 7.79060078e+000, 5.79518557e+000, 8.28427136e-001,
          6.42346478e+000, 1.21623220e+001, 2.09557724e+001,
          1.67305183e+001, 8.69848442e+000, 1.70020027e+001,
          2.06132221e+001, 2.61203885e-001, 1.21113787e+001,
          7.87005758e+000, 5.97542143e+000, 7.78193760e+000, 0., 0., 0.,
          0., 0., 5.42525721e+000, 7.33210182e+000, 4.55634928e+000,
          8.74967003e+000, 9.36621308e-001, 2.20008812e+001,
          2.26143436e+001, 9.94112587e+000, 1.30616941e+001,
          1.23819571e+001, 6.54009724e+000, 4.21634369e+001,
          2.77523079e+001, 1.35497150e+001, 5.99444103e+000, 0.,
          1.21005049e+001, 2.15391045e+001, 6.62956619e+001,
          3.30647278e+001, 0., 5.85786462e-001, 7.04163074e+000,
          1.64359608e+001, 9.36621308e-001, 0., 1.17157292e+000,
          1.78111839e+001, 5.30172424e+001, 0., 0., 1.28873014e+001,
          2.31959591e+001, 3.13708858e+001, 7.54585266e+000, 0.,
          1.75735927e+000, 2.19533195e+001, 4.79433784e+001,
          2.33459454e+001, 0., 4.92893219e+000, 2.48528147e+000,
          5.85786462e-001, 0., 2.59313278e+001, 1.32402439e+001,
          7.87005758e+000, 1.39583693e+001, 0., 1.92576194e+000,
          1.66002452e+000, 4.14213568e-001, 4.02978992e+000,
          1.09702101e+001, 0., 0., 0., 0., 0., 7.95640802e+000,
          4.62937832e+000, 4.97056293e+000, 6.44365072e+000, 0.,
          1.76170769e+001, 5.96870995e+000, 4.14213568e-001, 1., 0., 0.,
          0., 0., 0., 0., 0., 0., 0., 0., 0., 1.36133747e+001,
          5.90134430e+000, 3.72792196e+000, 3.75735927e+000, 0.,
          9.77376175e+000, 3.22623801e+000, 0., 0., 0., 0., 0., 0., 0.,
          0., 0., 0., 0., 0., 0., 2.88410640e+000, 5.87325287e+000,
          1.65685427e+000, 1.10406103e+001, 4.54517603e+000,
          4.07282677e+001, 1.02717333e+001, 8.28427136e-001,
          2.74828744e+000, 3.42328548e+000, 2.84659691e+001,
          1.01198177e+001, 8.28427136e-001, 3.61703634e+000,
          9.96875000e+000, 9.04093647e+000, 4.54485035e+000,
          4.14213568e-001, 7.14342177e-001, 2.28565788e+000,
          2.61203885e-001, 7.38796115e-001, 8.28427136e-001,
          1.44482794e+001, 1.27232933e+001, 4.05461273e+001,
          1.76254444e+001, 2.07106781e+000, 1.02129297e+001,
          1.85444298e+001, 1.10969086e+001, 4.90309191e+000,
          4.14213568e-001, 5.37606335e+000, 1.02097235e+001, 0., 0., 0.,
          0., 0., 2.28756857e+000, 2.29821777e+000, 8.28427136e-001,
          5.86938190e+000, 1.97164040e+001, 4.58534012e+001,
          2.62471046e+001, 2.89949489e+000, 4.10957384e+000,
          1.48904257e+001, 5.22407770e-001, 7.23495150e+000,
          1.65685427e+000, 7.25849581e+000, 5.83272896e+001, 0., 0., 0.,
          0., 0., 0., 0., 8.28427136e-001, 1.64667511e+001,
          1.17048216e+001, 1.49262695e+001, 8.76002216e+000,
          7.04163074e+000, 2.58746700e+001, 2.13974075e+001,
          4.20699406e+000, 3.84671059e+001, 2.60954552e+001,
          2.22819042e+001, 1.59485435e+001, 2.85467935e+000,
          1.88316116e+001, 1.65685425e+001, 2.84132786e+001,
          4.83318863e+001, 0., 5.85786462e-001, 3.72792196e+000,
          2.16635227e+001, 3.02276850e+000, 0., 1.00294371e+001,
          2.27817459e+001, 4.21440010e+001, 1.04481554e+000,
          3.10635738e+001, 2.09953022e+001, 2.11248913e+001,
          1.58162336e+001, 0., 4.36654282e+001, 2.83934460e+001,
          1.49116879e+001, 8.02943707e+000, 0., 2.61203885e-001,
          7.83930111e+000, 4.55634928e+000, 2.34314585e+000, 0.,
          3.50801811e+001, 2.61208305e+001, 5.79898977e+000, 0., 0.,
          2.48259029e+001, 5.17409754e+000, 0., 0., 0., 0., 0., 0., 0.,
          0., 7.86378384e+000, 6.82250786e+000, 4.14213562e+000,
          1.17157292e+000, 0., 2.07138062e+001, 5.28619480e+000, 0., 0.,
          0., 0., 0., 0., 0., 0., 0., 0., 0., 0., 0., 1.14107447e+001,
          5.51818705e+000, 3.31370854e+000, 6.23495150e+000,
          5.22407770e-001, 7.76824093e+000, 3.23175931e+000, 0., 0., 0.,
          0., 0., 0., 0., 0., 0., 0., 0., 0., 0., 1.07046032e+000,
          9.29539680e-001, 3.72792196e+000, 1.52327108e+001,
          4.03936720e+000, 2.79744072e+001, 9.19716549e+000,
          1.24264073e+000, 4.14867640e+000, 1.24371099e+001,
          2.54924164e+001, 8.09336948e+000, 4.14213568e-001,
          7.06380367e+000, 1.89361954e+001, 3.67051220e+000,
          1.32948792e+000, 4.14213568e-001, 3.46942663e+000,
          8.11635971e+000, 2.35504031e+000, 7.64495993e+000,
          1.65685427e+000, 1.00289946e+001, 4.31415129e+000,
          1.70728703e+001, 7.68448973e+000, 1.65685427e+000,
          1.75038185e+001, 4.90819702e+001, 0., 0., 0., 9.86015511e+000,
          3.41398430e+001, 0., 0., 0., 0., 0. ]
      - [ 0., 7.67489767e+000, 1.25002184e+001, 2.36873126e+000,
          4.88002396e+000, 1.70576262e+000, 1., 0., 0., 1.54507313e+001,
          1.49592447e+001, 9.50213528e+000, 1.53277369e+001,
          1.36919603e+001, 8.43338394e+000, 3.26120377e+000, 0.,
          2.69662037e+001, 9.77319336e+000, 1.62316074e+001,
          4.75130959e+001, 3.07947578e+001, 2.90621924e+000,
          2.91465759e+000, 0., 3.16064816e+001, 2.52115135e+001,
          5.35325775e+001, 4.94941025e+001, 2.91413841e+001,
          6.55395222e+000, 5.25273705e+000, 1.82842708e+000,
          5.92893219e+000, 5.65685415e+000, 3.05917335e+000,
          4.79202223e+000, 3.88760042e+000, 1.84699035e+000, 2., 0.,
          9.10050488e+000, 1.68994942e+001, 7.90616369e+000,
          1.41834669e+001, 1.15288820e+001, 1.24711180e+001,
          5.49615526e+000, 0., 1.09962912e+001, 6.84699011e+000,
          1.53966188e+001, 3.40797157e+001, 4.11354256e+001,
          1.83882389e+001, 1.33847761e+001, 0., 2.26601582e+001,
          2.27215595e+001, 1.93361721e+001, 3.57697830e+001,
          6.56168594e+001, 2.01420803e+001, 1.21388817e+001, 0.,
          5.58578634e+000, 3.32458258e+000, 3.32037735e+000,
          4.67962265e+000, 3.05917335e+000, 4.52661324e+000,
          1.58578646e+000, 0., 1.53992481e+001, 1.42845802e+001,
          3.14880443e+000, 1.20938368e+001, 6.07773638e+000,
          1.89366207e+001, 1.16491652e+001, 0., 2.44734859e+001,
          1.42612038e+001, 4.17157269e+000, 3.82842708e+000,
          5.75735950e+000, 2.36810398e+001, 2.89890614e+001, 0.,
          7.78523779e+000, 4.41421366e+000, 0., 3., 8., 3.06971588e+001,
          6.11366196e+001, 3.28066564e+000, 2.09358006e+001,
          5.78353405e+000, 0., 0., 0., 0., 0., 0., 4.25563431e+001,
          8.63782215e+000, 0., 0., 0., 0., 0., 0., 2.10186253e+001,
          2.57536983e+000, 0., 0., 0., 0., 2.71508026e+000, 0., 0., 0.,
          0., 0., 0., 0., 3.91292185e-001, 0., 1.71995544e+001,
          8.22250271e+000, 1.48862660e+000, 8.76100659e-001,
          1.23899341e-001, 0., 0., 0., 2.73879623e+000, 2.26120377e+000,
          0., 0., 0., 0., 0., 0., 0., 0., 0., 0., 0., 0., 0., 0., 0., 0.,
          0., 0., 0., 0., 0., 2.02641988e+000, 6.12061071e+000,
          6.71588230e+000, 1.81671000e+000, 1.00600920e+001,
          3.26028562e+000, 0., 0., 0., 1.22072601e+001, 5.06071281e+000,
          8.76100659e-001, 2.75170994e+000, 5.17544603e+000,
          7.28442371e-002, 0., 0., 0., 0., 0., 0., 0., 0., 0., 0., 0.,
          0., 0., 0., 0., 0., 0., 0., 1.07837982e+001, 1.27098551e+001,
          2.83656311e+000, 4.14213568e-001, 0., 0., 0., 0.,
          1.43627119e+001, 5.27010107e+000, 4.99128866e+000,
          1.26188593e+001, 9.32954311e+000, 8.94383812e+000,
          6.71470881e+000, 0., 3.32085371e+000, 2.22103271e+001,
          1.16996555e+001, 1.23090477e+001, 1.48589039e+000,
          4.14213568e-001, 5.00371397e-001, 0., 0., 0., 0., 0., 0., 0.,
          0., 6.22687626e+000, 1.11008234e+001, 7.55289221e+000,
          3.91841722e+000, 4.50589210e-001, 0., 0., 7.50402033e-001,
          1.61415517e+000, 6.62343359e+000, 2.59940262e+001,
          1.52788343e+001, 9.86385250e+000, 9.18821812e+000,
          1.43747950e+000, 0., 0., 0., 3.66111684e+000, 6.19234896e+000,
          6.67286301e+000, 4.73671496e-001, 0., 0., 0., 2.64938526e+001,
          7.02222300e+000, 4.56443024e+000, 5.98082924e+000,
          3.63469481e+000, 2.62650919e+000, 3.20377231e-001,
          9.90156937e+000, 1.34415770e+001, 2.89949489e+000,
          3.49615550e+000, 2.61203885e-001, 6.40583372e+000,
          3.31383209e+001, 1.28406200e+001, 2.16523495e+001,
          3.96287370e+000, 4.14209976e+001, 3.53657990e+001,
          9.94112587e+000, 1.92653675e+001, 2.90067120e+001,
          3.72156677e+001, 8.56005630e+001, 1.78111839e+001,
          3.60218620e+001, 1.43507204e+001, 5.22407770e-001,
          1.45780973e+001, 4.97056293e+000, 6.40652466e+000,
          5.22407770e-001, 7.83611596e-001, 2.73463306e+001,
          1.28406200e+001, 2.49737473e+001, 3.05568957e+000,
          4.91662598e+000, 3.27991028e+001, 2.40243874e+001,
          4.64776573e+001, 3.07822285e+001, 4.04550896e+001,
          3.74027748e+001, 1.07695522e+001, 6.40021210e+001,
          5.63704605e+001, 1.55953407e+000, 1.03693981e+001,
          4.97056293e+000, 6.90267992e+000, 1.19782519e+000,
          3.11588335e+000, 2.41856327e+001, 1.69827557e+001,
          2.81036892e+001, 2.61203885e+000, 1.30601943e+000,
          3.47822914e+001, 2.77523079e+001, 4.63018417e+001,
          1.28575392e+001, 2.91425037e+000, 1.36004686e+001,
          7.87005758e+000, 5.24758453e+001, 6.51393814e+001,
          1.67853851e+001, 1.19719753e+001, 1.24264073e+000, 0., 0.,
          4.16274948e+001, 2.63725071e+001, 0., 0., 0., 2.66925278e+001,
          8.89325809e+000, 8.28427136e-001, 4.52638578e+000,
          4.05940056e+000, 0., 0., 0., 4.85281378e-001, 5.14718652e-001,
          2.44052181e+001, 5.59478140e+000, 4.14213568e-001,
          5.85786462e-001, 0., 2.65518522e+000, 2.34481478e+000, 0., 0.,
          0., 0., 0., 0., 0., 0., 0., 0., 0., 0., 0., 1.24676323e+001,
          4.11815453e+000, 1.65685427e+000, 6.40611744e+000,
          2.35124183e+000, 8.97758484e+000, 1.03655615e+001,
          2.07106781e+000, 3.20829248e+000, 3.37749410e+000, 0., 0., 0.,
          0., 0., 0., 0., 0., 0., 0., 2.00967388e+001, 8.48904896e+000,
          4.14213568e-001, 0., 0., 1.40004129e+001, 1.69285183e+001,
          5.38477612e+000, 1.73472748e+001, 1.13390179e+001,
          1.86124935e+001, 2.09022255e+001, 3.72792196e+000,
          3.49615550e+000, 2.61203885e-001, 0., 0., 0., 0., 0.,
          2.18007641e+001, 4.19923544e+000, 4.14213568e-001,
          1.94708848e+000, 1.63869786e+000, 4.20455971e+001,
          8.54018974e+000, 1.24264073e+000, 7.65167427e+000,
          6.51989841e+000, 9.28664112e+000, 1.71335840e+000, 0.,
          3.61302108e-001, 6.38697922e-001, 1.77522411e+001,
          2.62771950e+001, 5.38477612e+000, 5.47759247e+000,
          2.10819411e+000, 3.11588335e+000, 9.64147568e+000,
          2.48528147e+000, 7.17607689e+000, 4.58128214e+000,
          4.68629169e+000, 2.37573586e+001, 1.11837664e+001,
          2.82790260e+001, 8.09355736e+000, 2.50090218e+001,
          2.42630558e+001, 5.79898977e+000, 2.49878731e+001,
          6.99410553e+001, 2.98897247e+001, 2.96249943e+001,
          1.40832615e+001, 8.92571869e+001, 4.31448326e+001,
          2.61203885e-001, 8.66772842e+000, 3.72792196e+000,
          9.73110676e+000, 1.61203873e+000, 2.61203885e-001,
          1.90403118e+001, 1.69827557e+001, 2.63200779e+001,
          2.39565039e+000, 8.01087379e+000, 2.77759228e+001,
          1.40832615e+001, 4.88608589e+001, 4.22690849e+001,
          2.98366566e+001, 3.36780624e+001, 6.21320343e+000,
          6.24213219e+001, 7.48507538e+001, 9.36621308e-001,
          1.17496700e+001, 5.38477612e+000, 9.21638870e+000,
          1.71254385e+000, 2.38796115e+000, 2.58424854e+001,
          1.73969688e+001, 1.61747570e+001, 1.19782519e+000,
          1.88832626e+001, 7.48619003e+001, 1.86396103e+001,
          1.13540201e+001, 2.61203885e-001, 7.83535156e+001,
          5.13622169e+001, 1.15979795e+001, 9.42508793e+000,
          2.61203885e-001, 1.45942078e+001, 1.54057922e+001, 0., 0., 0.,
          4.88168106e+001, 2.07689762e+001, 4.14213568e-001, 0., 0.,
          4.24677277e+001, 8.11805916e+000, 4.14213568e-001, 0., 0.,
          2.67122674e+000, 1.32877314e+000, 0., 0., 0., 2.02277622e+001,
          7.35802364e+000, 4.14213568e-001, 2.33921933e+000,
          1.66078067e+000, 4.46609259e+000, 3.53390765e+000, 0., 0., 0.,
          0., 0., 0., 0., 0., 0., 0., 0., 0., 0., 8.01120663e+000,
          4.98879290e+000, 4.14213568e-001, 6.55380392e+000,
          1.00319824e+001, 1.05697622e+001, 1.35307436e+001,
          3.31370854e+000, 3.92623782e+000, 4.65954876e+000, 0.,
          5.85786462e-001, 4.14213568e-001, 0., 0., 0., 0., 0., 0., 0.,
          1.21671638e+001, 8.00440884e+000, 1.65685427e+000,
          3.00501442e+000, 3.16655850e+000, 2.57153606e+001,
          1.90419979e+001, 4.55634928e+000, 1.57929363e+001,
          1.08933554e+001, 4.02505064e+000, 5.14652252e+000,
          2.89949489e+000, 1.72076855e+001, 1.27212458e+001, 0., 0., 0.,
          0., 0., 1.70973415e+001, 5.48844481e+000, 4.14213568e-001,
          1.08478343e+000, 5.91521645e+000, 8.09301186e+000,
          6.49277496e+000, 8.28427136e-001, 1.28195105e+001,
          3.47662773e+001, 0., 0., 0., 3.23086047e+000, 1.17691393e+001,
          2.12813301e+001, 2.16476021e+001, 3.72792196e+000,
          1.25776901e+001, 3.76545525e+000 ]
      - [ 3.23843527e+000, 4.37159967e+000, 7.28754234e+000,
          3.66544032e+000, 6.35502458e-001, 1.62570143e+000,
          3.70905852e+000, 8.46671963e+000, 0., 6.73730254e-001,
          7.16384935e+000, 1.85484829e+001, 3.24917908e+001,
          6.70793247e+000, 0., 1.58578646e+000, 0., 1.10050511e+000,
          3.58010459e+000, 2.60840511e+000, 6.29677153e+000, 0., 0., 0.,
          0., 2.87691860e+001, 3.13172531e+001, 9.14066601e+000,
          1.09458961e+001, 8.96945095e+000, 7.89258623e+000,
          3.78598285e+000, 0., 2.41421366e+000, 8.58578682e+000, 3., 0.,
          3.17157292e+000, 7.41421366e+000, 2.41421366e+000, 0.,
          1.01005049e+001, 1.92624226e+001, 1.36238861e+001,
          4.41824389e+000, 3.76651502e+000, 6.94082642e+000,
          8.55532837e+000, 0., 1.58505249e+001, 1.35035858e+001,
          7.00770712e+000, 3.24793625e+001, 4.06088257e+001,
          2.20114517e+001, 5.03398228e+000, 0., 2.26126251e+001,
          3.57793198e+001, 2.96176167e+001, 3.96291466e+001,
          3.71892357e+001, 1.58484068e+001, 8.42942333e+000, 0.,
          4.53388929e+000, 6.63768339e+000, 5.85786462e-001, 0., 1., 4.,
          5., 0., 2.15829792e+001, 7.58578634e+000, 2.95507193e+000,
          2.87335515e+000, 3.17157292e+000, 4.65685415e+000,
          1.28341036e+001, 0., 1.03273144e+001, 7.82842731e+000,
          4.22654104e+000, 8.62044907e+000, 1.03878374e+001,
          1.21935997e+001, 2.91779652e+001, 0., 2.64165616e+000,
          6.75417423e-001, 1.91036904e+000, 2.33675933e+000,
          1.19724302e+001, 1.47004366e+001, 3.15668488e+001, 0.,
          6.57344007e+000, 7.24172401e+000, 2.90616369e+000, 0., 0.,
          3.26120377e+000, 3.98505116e+000, 0., 6.52236843e+000,
          5.85786462e-001, 0., 0., 0., 0., 2.90835333e+000, 0., 0., 0.,
          0., 0., 0., 0., 0., 0., 0., 0., 0., 0., 0., 0., 0., 0.,
          6.47037840e+000, 1.15350380e+001, 1.15993619e+000, 0., 0., 0.,
          0., 0., 0., 2., 0., 0., 0., 0., 0., 0., 0., 0., 0., 0., 0., 0.,
          0., 0., 0., 0., 0., 0., 0., 0., 0., 0., 0., 5.26344585e+000,
          7.36553967e-001, 0., 0., 0., 0., 0., 0., 0., 0., 0., 0., 0.,
          0., 0., 0., 0., 0., 0., 0., 0., 0., 0., 0., 0., 0., 0., 0., 0.,
          0., 0., 4.74906117e-001, 5.52509403e+000, 0., 0., 0., 0., 0.,
          0., 0., 0., 0., 0., 0., 0., 0., 0., 0., 0., 0., 0., 0., 0., 0.,
          0., 0., 0., 0., 0., 0., 0., 0., 0., 9.26157892e-001,
          1.51715860e+001, 3.90225601e+000, 0., 0., 0., 0., 0., 0.,
          3.01808834e+000, 9.81911659e-001, 0., 0., 0., 0., 0., 0., 0.,
          0., 0., 0., 0., 0., 0., 3.94810295e+000, 6.41720247e+000,
          2.20481202e-001, 0., 1.35796487e-001, 9.91711521e+000,
          4.67296791e+000, 9.80721664e+000, 5.36435604e+000,
          2.07106781e+000, 1.25224075e+001, 3.23495150e+000,
          2.47303696e+001, 9.02698994e+000, 3.72792196e+000,
          1.02117701e+001, 8.30294800e+000, 4.62547493e+000,
          4.54609823e+000, 8.28427136e-001, 0., 0., 3.41932487e+001,
          4.29072533e+001, 4.97056293e+000, 1.37223768e+001,
          9.20655537e+000, 7.83611596e-001, 1.11453209e+001,
          4.14213562e+000, 1.01453209e+001, 7.83611596e-001,
          4.72278833e+000, 3.25787277e+001, 1.49116879e+001,
          1.43354568e+001, 1.45133996e+000, 1.61748123e+001,
          2.70972652e+001, 7.87005758e+000, 3.02127724e+001,
          5.26450920e+001, 2.74429054e+001, 6.23022614e+001,
          2.48528137e+001, 4.97307892e+001, 1.76712322e+001,
          6.38697922e-001, 9.87602043e+000, 5.79898977e+000,
          6.68629169e+000, 0., 1.30262203e+001, 2.11037216e+001,
          1.44974747e+001, 2.03725834e+001, 0., 6.64669800e+000,
          2.64832439e+001, 1.53259020e+001, 3.64961510e+001,
          2.20480042e+001, 2.52026892e+000, 5.47973108e+000, 0.,
          2.61510010e+001, 4.28489990e+001, 9.30099010e+000,
          8.04215527e+000, 3.72792196e+000, 5.66772842e+000,
          1.26120389e+000, 8.83173752e+000, 4.75404882e+000,
          1.65685427e+000, 4.82086277e+000, 4.93649673e+000, 0., 0., 0.,
          0., 0., 0., 0., 0., 0., 0., 1.78438091e+001, 3.15619087e+000,
          0., 0., 0., 1.19373238e+000, 8.06267619e-001, 0., 0., 0., 0.,
          0., 0., 0., 0., 0., 0., 0., 0., 0., 5.30083466e+000,
          6.99165225e-001, 0., 0., 0., 0., 0., 0., 0., 0., 0., 0., 0.,
          0., 0., 0., 0., 0., 0., 0., 5.19302607e+000, 8.06973815e-001,
          0., 0., 0., 0., 0., 0., 0., 0., 0., 0., 0., 0., 0., 0., 0., 0.,
          0., 0., 1.78734474e+001, 2.12655210e+000, 0., 0., 0.,
          2.50630784e+000, 1.49369216e+000, 0., 0., 0., 0., 0., 0., 0.,
          0., 2.98953271e+000, 7.35361290e+000, 3.31370854e+000,
          9.20019627e+000, 4.14294910e+000, 4.61143112e+000,
          1.29032869e+001, 3.31370854e+000, 6.09499931e+000,
          5.07657337e+000, 6.75417423e-001, 3.91036892e+000,
          1.65685427e+000, 1.33186769e+001, 4.84386826e+001,
          2.61203885e-001, 2.32458258e+000, 4.14213568e-001,
          1.91566455e+000, 7.08433533e+000, 2.00787029e+001,
          3.13649483e+001, 1.03553391e+001, 2.60140018e+001,
          1.21870079e+001, 0., 6.27207804e+000, 6.62741709e+000,
          6.10050488e+000, 0., 7.83611596e-001, 2.92752628e+001,
          1.57401152e+001, 1.48523712e+001, 4.34863853e+000,
          8.25232697e+000, 2.74339638e+001, 6.62741709e+000,
          2.95848637e+001, 6.11014252e+001, 1.08536978e+001,
          3.83056831e+001, 2.69238815e+001, 6.08333588e+001,
          4.10833817e+001, 0., 1.28578644e+001, 4.97056293e+000,
          1.17157292e+000, 0., 1.96553879e+001, 3.79892731e+001,
          1.24264069e+001, 6.66772842e+000, 1.26120389e+000,
          5.00606918e+001, 3.75545311e+001, 1.11837664e+001,
          1.84807777e+001, 2.72023296e+000, 4.23341331e+001,
          1.38374414e+001, 1.65685427e+000, 1.44747314e+001,
          5.69684172e+000, 9.69626999e+000, 7.23266172e+000,
          4.14213562e+000, 2.92893219e+000, 0., 2.88601665e+001,
          6.13983393e+000, 0., 0., 0., 4.14213568e-001, 5.85786462e-001,
          0., 0., 0., 0., 0., 0., 0., 0., 9.54225540e+000,
          3.45774460e+000, 4.14213568e-001, 3.33084440e+000,
          2.25494194e+000, 0., 0., 0., 0., 0., 0., 0., 0., 0., 0., 0.,
          0., 0., 0., 0., 0., 0., 0., 1.08485651e+000, 1.91514349e+000,
          0., 0., 0., 0., 0., 0., 0., 0., 0., 0., 0., 0., 0., 0., 0.,
          1.27559745e+000, 1.31018901e+000, 4.14213568e-001, 0., 0., 0.,
          0., 0., 0., 0., 0., 0., 0., 0., 0., 0., 0., 0., 0., 0.,
          2.22796559e+000, 7.72034407e-001, 0., 4.80350924e+000,
          7.19649076e+000, 0., 0., 0., 7.90323615e-001, 1.20967638e+000,
          0., 0., 0., 0., 0., 3.11906815e+000, 1.45672235e+001,
          4.14213562e+000, 1.17157292e+000, 0. ]
      - [ 0., 5.30138397e+000, 2.95213056e+000, 0., 6.79622769e-001,
          1.32037723e+000, 4.70598340e-001, 2.47649026e+000, 0.,
          9.27832794e+000, 1.12824621e+001, 1.00596590e+001, 5.,
          7.93233252e+000, 1.59040918e+001, 1.71247063e+001, 0.,
          1.95937023e+001, 2.02775860e+001, 9.45482349e+000,
          1.48511124e+001, 1.44626284e+001, 2.88549767e+001,
          5.41296291e+000, 0., 6.49195004e+000, 1.34488764e+001,
          7.96954250e+000, 4.64128017e+000, 1.97620945e+001,
          2.13047695e+001, 4.70186424e+000, 0., 2.80565858e+000,
          2.45554519e+000, 0., 0., 0., 0., 0., 0., 1.56928988e+001,
          3.12943935e+001, 2.24975052e+001, 8.83544350e+000,
          8.14492226e-001, 2.24643087e+000, 5.80455124e-001, 0.,
          1.65780964e+001, 1.92060375e+001, 4.02554970e+001,
          2.40040588e+001, 1.18164959e+001, 1.80361481e+001,
          6.09597588e+000, 0., 1.26118584e+001, 1.12531910e+001,
          2.21825905e+001, 4.84039688e+001, 2.93026333e+001,
          2.12226505e+001, 1.65032005e+001, 0., 0., 0., 0., 0., 0., 0.,
          0., 0., 1.26811180e+001, 2.67060108e+001, 5.34578413e-002, 0.,
          0., 0., 1.17157292e+000, 0., 2.78462353e+001, 1.69193115e+001,
          1.58647031e-001, 4., 1.58578646e+000, 9.74648571e+000,
          1.28586760e+001, 0., 1.07645378e+001, 2.41421366e+000,
          3.73459077e+000, 9.09383678e+000, 8.74125957e+000,
          2.30466690e+001, 3.16028652e+001, 0., 0., 0., 0., 0., 0., 0.,
          0., 0., 0., 0., 0., 0., 0., 0., 0., 0., 0., 0., 0., 0., 0., 0.,
          0., 0., 0., 0., 0., 0., 0., 0., 0., 0., 0., 0., 0., 0., 0., 0.,
          0., 0., 0., 0., 0., 0., 0., 0., 0., 0., 0., 0., 0., 0., 0., 0.,
          0., 0., 0., 0., 0., 0., 0., 0., 0., 0., 0., 0., 0., 0., 0., 0.,
          0., 0., 0., 0., 0., 0., 0., 0., 0., 0., 0., 0., 0., 0., 0., 0.,
          0., 0., 0., 0., 0., 0., 0., 0., 0., 0., 0., 0., 0., 0., 0., 0.,
          0., 0., 0., 0., 0., 0., 0., 0., 0., 0., 0., 0., 0., 0., 0., 0.,
          0., 0., 0., 0., 0., 0., 0., 0., 0., 0., 9.06163692e-001, 0.,
          0., 0., 0., 0., 0., 0., 1.97171936e+001, 8.26460457e+000,
          7.34314585e+000, 7.82842731e+000, 2.11866140e+000,
          5.46712494e+000, 1.65345383e+000, 0., 2.24302769e+001,
          3.39888573e+001, 2.78893471e+001, 1.71309280e+001,
          1.00857849e+001, 6.64637661e+000, 3.82842708e+000, 0.,
          1.95511227e+001, 6.88630905e+001, 2.29289322e+001,
          1.34142132e+001, 8.17157269e+000, 1.52426405e+001,
          2.58578634e+000, 3.06100750e+000, 5.52477884e+000,
          8.28427136e-001, 4.29514551e+000, 1.29064107e+000,
          1.04214706e+001, 1.81937523e+001, 1.61543293e+001,
          3.13690643e+001, 4.86138391e+000, 6.48077726e+000,
          3.89212418e+001, 1.61543293e+001, 2.51178303e+001,
          2.23258209e+001, 2.64916515e+000, 2.19660587e+001,
          1.07695522e+001, 2.63389969e+001, 1.72762260e+001,
          1.82842708e+000, 3.75735927e+000, 4.14213568e-001, 0., 0.,
          5.19730415e+001, 1.79558907e+001, 3.72792196e+000,
          3.52183867e+000, 1.82130718e+000, 3.15927830e+001,
          4.32945175e+001, 1.53259020e+001, 2.80332966e+001,
          8.75349998e+000, 2.49697857e+001, 3.72312241e+001,
          1.28406200e+001, 4.34237709e+001, 3.65345993e+001, 0., 0., 0.,
          0., 0., 3.23616028e+001, 7.63839817e+000, 8.28427136e-001,
          1.17157292e+000, 0., 2.66906261e+001, 2.64393177e+001,
          1.36690474e+001, 2.24647198e+001, 1.73628950e+000,
          6.76347065e+000, 1.42659664e+001, 1.78111839e+001,
          5.85838699e+001, 1.65755081e+001, 0., 0., 0., 0., 0., 0., 0.,
          0., 0., 0., 0., 0., 0., 0., 0., 0., 0., 0., 0., 0., 0., 0., 0.,
          0., 0., 0., 0., 0., 0., 0., 0., 0., 0., 0., 0., 0., 0., 0., 0.,
          0., 0., 0., 0., 0., 0., 0., 0., 0., 0., 0., 0., 0., 0., 0., 0.,
          0., 0., 0., 0., 0., 0., 0., 0., 0., 0., 0., 0., 0., 0., 0., 0.,
          0., 0., 0., 0., 0., 0., 0., 0., 0., 0., 1.17157292e+000,
          8.28427136e-001, 0., 0., 5.52249050e+000, 3.36785202e+001,
          7.45584393e+000, 7.29023409e+000, 1.05291152e+000,
          1.01650248e+001, 6.16095772e+001, 2.44386005e+001,
          1.51978254e+001, 2.58897138e+000, 7.66454315e+000,
          8.04826431e+001, 2.89949493e+001, 2.08130493e+001,
          1.04481554e+000, 6.45951891e+000, 1.01262674e+001,
          4.14213568e-001, 1.32458258e+000, 6.75417423e-001,
          5.98462152e+000, 3.59737473e+001, 1.32548342e+001,
          1.95409718e+001, 3.24582553e+000, 6.72443819e+000,
          2.90623589e+001, 1.49116879e+001, 3.30712738e+001,
          1.22302418e+001, 6.75417423e-001, 1.54545250e+001,
          1.44974747e+001, 3.25300865e+001, 6.84249687e+000,
          1.98143685e+000, 5.19013596e+000, 8.28427136e-001, 0., 0.,
          1.89044418e+001, 1.21960630e+001, 7.04163074e+000,
          2.33443623e+001, 2.15135021e+001, 1.68351340e+000,
          2.76180019e+001, 1.69827557e+001, 4.13577042e+001,
          3.63580246e+001, 1.13428364e+001, 3.35150261e+001,
          1.07695522e+001, 4.71352425e+001, 6.12373390e+001, 0., 0., 0.,
          0., 0., 1.72151737e+001, 1.40569048e+001, 4.55634928e+000,
          1.17157292e+000, 0., 3.50731773e+001, 5.29146271e+001,
          1.44974747e+001, 4.51471853e+000, 0., 4.57806931e+001,
          5.13492508e+001, 1.44974747e+001, 1.71747570e+001,
          1.19782519e+000, 0., 0., 0., 0., 0., 0., 0., 0., 0., 0., 0.,
          0., 0., 0., 0., 0., 0., 0., 0., 0., 0., 0., 0., 0., 0., 0., 0.,
          0., 0., 0., 0., 0., 0., 0., 0., 0., 0., 0., 0., 0., 0., 0., 0.,
          0., 0., 0., 0., 0., 0., 0., 0., 0., 0., 0., 0., 0., 0., 0., 0.,
          0., 0., 0., 0., 0., 0., 0., 0., 0., 0., 0., 0., 0., 0., 0., 0.,
          0., 0., 0., 0., 0., 1.24264073e+000, 5.10050488e+000,
          1.65685427e+000, 0., 0., 1.50260744e+001, 2.54886436e+001,
          8.28427124e+000, 1.42010098e+001, 0., 3.85017514e+000,
          2.72087002e+001, 2.56812401e+001, 4.20193024e+001,
          5.24058390e+000, 0., 2.86740990e+001, 3.60365791e+001,
          3.22893219e+001, 0. ]
      - [ 0., 0., 8.95368290e+000, 1.30463171e+001, 0., 0., 0., 0., 0.,
          0., 8.68026733e+000, 2.13735046e+001, 3.94622850e+000, 0., 0.,
          0., 0., 0., 3.92306209e+000, 1.91085434e+001, 1.08766460e+001,
          9.17473733e-002, 0., 0., 0., 0., 0., 9.90527511e-001,
          5.00947237e+000, 0., 0., 0., 0., 0., 1.70776043e+001,
          1.20939693e+001, 8.28427136e-001, 0., 0., 0., 0.,
          1.88062668e+001, 3.42438507e+001, 1.53192816e+001,
          6.80217505e+000, 0., 0., 2.58578634e+000, 0., 3.48900642e+001,
          3.35963326e+001, 3.44267845e+001, 1.31873255e+001, 1., 2.,
          7.17157269e+000, 0., 3.20638123e+001, 3.29029694e+001,
          3.34409294e+001, 2.13506870e+001, 2.02135181e+000,
          3.73888636e+000, 1.43139448e+001, 0., 9.23483944e+000,
          1.32611933e+001, 3.08975458e+000, 0., 0., 0., 1., 0.,
          3.73498154e+001, 2.87279224e+001, 9.34314537e+000, 0., 0., 0.,
          5.85786462e-001, 0., 5.48873024e+001, 7.89949512e+000, 1., 3.,
          1., 4.24264050e+000, 1.67573586e+001, 0., 3.61005058e+001,
          5.82842731e+000, 4.17157269e+000, 7.82842731e+000,
          1.30022936e+001, 3.72366638e+001, 3.34132881e+001, 0.,
          2.58158112e+000, 1.94716969e+001, 6.53250885e+000,
          4.14213568e-001, 0., 0., 0., 0., 3.37448578e+001,
          2.74900951e+001, 1., 0., 0., 1., 2.58578634e+000, 0.,
          4.83448906e+001, 5.30143547e+001, 1.88672962e+001,
          4.50804996e+000, 5.85786462e-001, 2., 3.20377231e-001, 0.,
          5.37047424e+001, 7.79748840e+001, 1.64919510e+001, 3., 0., 2.,
          3., 0., 1.13918900e-001, 1.83437290e+001, 5.54235172e+000, 0.,
          0., 0., 0., 0., 5.58025074e+000, 3.87059784e+001,
          1.02995558e+001, 1.41421354e+000, 0., 0., 0., 0.,
          1.68469906e+001, 5.09218521e+001, 1.12830563e+001,
          3.29124856e+000, 0., 0., 0., 0., 1.54356527e+001,
          4.50162926e+001, 3.29545784e+001, 1.95934753e+001, 1., 0., 0.,
          0., 0., 1., 0., 0., 0., 0., 0., 0., 0., 0., 0., 0., 0., 0., 0.,
          0., 0., 0., 0., 0., 0., 0., 0., 0., 0., 0., 0., 0., 0., 0., 0.,
          0., 0., 1., 0., 0., 0., 0., 0., 0., 0., 0., 0., 0., 0., 0., 0.,
          0., 0., 0., 0., 0., 0., 0., 0., 0., 0., 0., 0., 0., 0., 0., 0.,
          0., 0., 0., 0., 0., 0., 0., 0., 0., 0., 0., 0., 0., 0., 0., 0.,
          0., 0., 0., 0., 0., 0., 0., 0., 0., 0., 0., 0., 0., 0., 0., 0.,
          1.06149664e+001, 9.72817993e+000, 1.65685427e+000, 0., 0.,
          2.10055046e+001, 1.11660681e+001, 8.28427136e-001, 0., 0.,
          1.33363237e+001, 1.30068216e+001, 2.07106781e+000,
          5.85786462e-001, 0., 5.85786462e-001, 1.41421354e+000, 0., 0.,
          0., 1.19491959e+001, 1.59797363e+001, 2.07106781e+000, 0., 0.,
          1.01866522e+001, 5.31148643e+001, 9.94112587e+000,
          1.75735927e+000, 0., 1.52576227e+001, 7.76885529e+001,
          2.27817459e+001, 8.74967003e+000, 5.22407770e-001,
          2.96744328e+001, 7.88575287e+001, 2.60954552e+001,
          1.70440750e+001, 2.32850885e+000, 7.52198648e+000,
          1.51643047e+001, 3.72792196e+000, 5.85786462e-001, 0.,
          1.04481554e+000, 6.11440010e+001, 1.82253971e+001,
          5.85786462e-001, 0., 0., 4.51471863e+001, 3.23086586e+001,
          1.45441561e+001, 0., 0., 3.11888161e+001, 3.06518040e+001,
          4.69075356e+001, 3.32518425e+001, 8.82050037e+000,
          1.85226460e+001, 1.65685427e+000, 0., 0., 5.72792196e+000,
          5.04020195e+001, 9.11269855e+000, 2.75735927e+000, 0.,
          8.23176670e+000, 9.06017075e+001, 2.94091625e+001,
          2.49615550e+000, 2.61203885e-001, 9.03394127e+000,
          1.04757904e+002, 3.72792206e+001, 2.92893219e+000, 0.,
          1.41426582e+001, 8.61470127e+000, 1.24264073e+000, 0., 0.,
          2.34455509e+001, 2.90691681e+001, 2.48528147e+000, 0., 0.,
          1.26632242e+001, 6.06382904e+001, 8.69848442e+000, 0., 0., 7.,
          6.87035370e+001, 2.07106781e+001, 5.85786462e-001, 0.,
          2.61203885e-001, 7.38796115e-001, 0., 0., 0., 0., 0., 0., 0.,
          0., 0., 0., 0., 0., 0., 0., 0., 0., 0., 0., 0.,
          5.85786462e-001, 4.14213568e-001, 0., 0., 0., 0., 0., 0., 0.,
          0., 0., 0., 0., 0., 0., 0., 0., 0., 0., 0., 0., 0., 0., 0., 0.,
          0., 0., 0., 0., 0., 0., 0., 0., 0., 0., 0., 0., 0., 0., 0., 0.,
          2.07106781e+000, 9.63663673e+000, 7.29229546e+000, 0., 0.,
          8.28427136e-001, 1.19027882e+001, 1.92687855e+001, 0., 0.,
          1.65685427e+000, 1.24662590e+001, 1.78768864e+001, 0., 0.,
          4.14213568e-001, 4.18620968e+000, 1.39957678e+000, 0., 0.,
          3.72792196e+000, 1.39810295e+001, 5.29104805e+000,
          7.83611596e-001, 2.64468365e+001, 1.69827557e+001,
          2.05952339e+001, 3.19156337e+000, 2.61203885e-001,
          5.11996918e+001, 3.27228699e+001, 3.30872574e+001,
          1.17289762e+001, 1.26722679e+001, 9.64160461e+001,
          2.11248913e+001, 2.54628563e+001, 3.13239403e+001, 0.,
          1.26152239e+001, 5.79898977e+000, 2.91765118e+000,
          1.66813517e+000, 1.35083485e+000, 4.48796120e+001,
          1.53259020e+001, 6.44365072e+000, 0., 0., 8.69217911e+001,
          4.51492767e+001, 2.92893219e+000, 0., 1.39135075e+001,
          8.64346924e+001, 3.81076469e+001, 2.09805450e+001,
          7.56361055e+000, 0., 2.92893219e+000, 3.31370854e+000,
          7.44324398e+000, 2.31411529e+000, 1.56722319e+000,
          5.06215935e+001, 1.82253971e+001, 5.85786462e-001, 0.,
          2.54097104e+000, 5.59199257e+001, 3.35513000e+001,
          1.95735931e+001, 4.14213568e-001, 2.61203885e-001,
          5.40159264e+001, 4.26639977e+001, 1.50588741e+001, 0., 0.,
          5.85786462e-001, 3.31370854e+000, 1.11792622e+001,
          3.92124295e+000, 1.50384462e+000, 9.59666061e+000,
          8.69848442e+000, 1.63245831e+001, 2.87642765e+000, 0.,
          2.04730873e+001, 1.36690474e+001, 1.54065247e+001,
          1.45133996e+000, 1.08963096e+000, 1.42829523e+001,
          2.15391045e+001, 4.40434952e+001, 1.04481554e+000, 0., 0., 0.,
          0., 0., 0., 0., 0., 0., 0., 0., 0., 0., 0., 0., 0., 0., 0., 0.,
          0., 0., 0., 0., 0., 0., 0., 0., 0., 0., 0., 0., 0., 0., 0., 0.,
          0., 0., 0., 0., 0., 0., 0., 0., 0., 0., 0., 0., 0., 0., 0., 0.,
          0., 0., 0., 0., 0., 0., 0., 0., 0. ]
      - [ 0., 1.52162921e+000, 0., 2.07106781e+000, 4.92893219e+000, 1.,
          3.22048116e+000, 1.04842319e+001, 0., 1.21169538e+001,
          1.29631729e+001, 1.21307020e+001, 2.43713722e+001,
          9.86717606e+000, 3.26120377e+000, 3.94645381e+000, 0.,
