%YAML:1.0
_0218: !!opencv-ml-svm
   svm_type: C_SVC
   kernel: { type:LINEAR }
   C: 100.
   term_criteria: { epsilon:9.9999999747524271e-007,
       iterations:2147483647 }
   var_all: 576
   var_count: 576
   class_count: 2
   class_labels: !!opencv-matrix
      rows: 1
      cols: 2
      dt: i
      data: [ -1, 8 ]
   sv_total: 40
   support_vectors:
      - [ 2.46317685e-002, 7.91388798e+000, 8.77764130e+000,
          5.44978333e+000, 2.41984224e+000, 2., 2.41421366e+000, 1., 0.,
          1.36130214e+000, 1.70661488e+001, 2.05866585e+001,
          1.31941814e+001, 7.15300989e+000, 3.62657046e+000,
          9.14902782e+000, 0., 1.80925643e+000, 6.79427147e-001,
          1.57748299e+001, 3.19537182e+001, 3.78276920e+000,
          8.28427136e-001, 2.76014781e+000, 0., 0., 0., 1.39629138e+000,
          6.60370874e+000, 0., 0., 0., 0., 1.96783578e+000,
          5.12391138e+000, 2.37013984e+000, 4.44107628e+000,
          7.01547623e+000, 7.89081669e+000, 1.19074357e+000, 0.,
          5.88760042e+000, 4.31157207e+000, 6.01147890e+000,
          1.54240789e+001, 1.75760441e+001, 2.51461353e+001,
          6.30414915e+000, 0., 1.52634726e+001, 1.68511963e+001,
          7.08368397e+000, 1.61996803e+001, 1.54889612e+001,
          2.35642643e+001, 2.45289631e+001, 0., 5.56241035e+000,
          2.86616111e+000, 1.31289053e+001, 4.33567123e+001,
          4.90667686e+001, 4.52446594e+001, 3.16505032e+001,
          1.60444605e+000, 1.04204283e+001, 9.08055210e+000,
          1.08531702e+000, 8.09256434e-001, 2.90616369e+000,
          6.09383631e+000, 0., 0., 1.21459885e+001, 3.22263885e+000,
          1.11637716e+001, 1.83097286e+001, 1.39449196e+001,
          1.22578592e+001, 9.13297844e+000, 0., 8.02519798e-001,
          3.41421366e+000, 5.65931749e+000, 2.27818699e+001,
          1.64272423e+001, 1.55503559e+001, 3.60063629e+001, 0.,
          1.17157292e+000, 1.41421354e+000, 3.58578634e+000,
          7.90082407e+000, 8.77106667e+000, 8.96611881e+000,
          3.25784760e+001, 0., 1.91655314e+000, 1.00834465e+001, 0., 0.,
          0., 0., 0., 0., 2.52141190e+001, 4.72777843e+000, 0., 0., 0.,
          0., 0., 0., 7.60642469e-001, 0., 0., 0., 0., 0., 0., 0., 0.,
          0., 0., 0., 0., 0., 0., 0., 0., 0., 0., 0., 0., 0., 0., 0., 0.,
          0., 0., 0., 0., 0., 0., 0., 0., 0., 0., 0., 0., 0., 0., 0., 0.,
          0., 0., 0., 0., 0., 0., 0., 0., 0., 0., 0., 0., 0., 0., 0., 0.,
          0., 0., 0., 0., 0., 0., 0., 0., 0., 0., 0., 0., 0., 0., 0., 0.,
          0., 0., 0., 0., 0., 0., 0., 0., 0., 0., 0., 0., 0., 0., 0., 0.,
          0., 0., 0., 0., 0., 0., 0., 0., 0., 0., 0., 0., 0., 0., 0., 0.,
          0., 0., 0., 0., 0., 0., 1.23899341e-001, 1.41077840e+000,
          4.67913675e+000, 7.86185682e-001, 1., 0., 0., 0., 0., 0., 0.,
          0., 0., 0., 0., 0., 0., 0., 0., 0., 0., 0., 0., 0., 0., 0., 0.,
          0., 0., 0., 0., 0., 1.96653862e+001, 3.33461332e+000,
          2.07106781e+000, 3.92893219e+000, 0., 3.20979881e+001,
          9.65937233e+000, 4.97056293e+000, 1.57745028e+001,
          4.49757528e+000, 1.99940815e+001, 9.76327705e+000,
          2.89949489e+000, 9.43863201e+000, 4.90451384e+000,
          2.49093080e+000, 1.50906920e+000, 0., 0., 0., 8.27398491e+000,
          1.72601461e+000, 2.07106781e+000, 1.01223783e+001,
          5.80655384e+000, 2.71254373e+000, 1.63879604e+001,
          9.94112587e+000, 3.49760284e+001, 1.29823399e+001,
          6.16740322e+000, 3.31341133e+001, 2.15391045e+001,
          5.48599472e+001, 7.29943323e+000, 2.55286527e+000,
          2.19912910e+001, 1.49116879e+001, 8.80983505e+001,
          5.84458084e+001, 1.82333984e+001, 3.93817425e+000,
          8.28427136e-001, 3.95501900e+000, 5.04498100e+000,
          3.10402465e+000, 2.76117039e+001, 1.20121937e+001,
          2.68106899e+001, 9.46138859e+000, 0., 1.14436512e+001,
          1.11837664e+001, 5.03687897e+001, 4.10037918e+001,
          6.75417423e-001, 6.08194208e+000, 3.72792196e+000,
          3.05351658e+001, 3.49795532e+001, 9.40381527e+000,
          2.59618449e+000, 0., 0., 0., 2.80207424e+001, 5.97925758e+000,
          0., 0., 0., 2.03303361e+000, 1.55275285e+000, 4.14213568e-001,
          0., 0., 0., 0., 0., 0., 0., 0., 0., 0., 0., 0., 0., 0., 0., 0.,
          0., 0., 0., 0., 0., 0., 0., 0., 0., 0., 0., 0., 0., 0., 0., 0.,
          0., 0., 0., 0., 0., 0., 0., 0., 0., 0., 0., 0., 0., 0., 0., 0.,
          0., 0., 0., 0., 0., 0., 0., 0., 0., 0., 0., 0., 0., 0., 0., 0.,
          0., 0., 0., 5.17066908e+000, 1.82933080e+000, 0., 0., 0., 0.,
          0., 0., 0., 0., 0., 0., 0., 0., 0., 0., 0., 0., 0., 0.,
          8.73411179e+000, 3.43746066e+000, 2.07106781e+000,
          4.07940054e+000, 7.67795849e+000, 5.20186424e+000,
          8.14128208e+000, 4.14213562e+000, 2.18226299e+001,
          2.76920891e+001, 2.71254373e+000, 8.87324238e+000,
          8.28427136e-001, 9.47381687e+000, 4.21119690e+001, 0., 0., 0.,
          1.61815262e+000, 6.38184738e+000, 3.98120666e+000,
          4.19036627e+000, 2.48528147e+000, 9.84012032e+000,
          5.50302553e+000, 2.81304884e+000, 1.96306019e+001,
          1.07695522e+001, 2.98837852e+001, 9.90301132e+000,
          1.00221548e+001, 6.50367203e+001, 1.78111839e+001,
          3.01904621e+001, 5.93948030e+000, 5.98462152e+000,
          4.68316116e+001, 2.02964649e+001, 5.82093430e+001,
          5.56779594e+001, 1.47810278e+001, 4.39054489e+000,
          2.07106781e+000, 4.59625387e+000, 2.16110563e+000,
          6.58685112e+000, 2.70283718e+001, 9.11269855e+000,
          3.33118744e+001, 1.09602032e+001, 5.04640541e+001,
          2.38790913e+001, 4.97056293e+000, 3.63956490e+001,
          9.29064083e+000, 3.99438591e+001, 1.72277126e+001,
          3.31370854e+000, 1.66862907e+001, 4.82842731e+000,
          4.74233913e+000, 2.25766087e+000, 0., 0., 0., 2.78796825e+001,
          6.12031746e+000, 0., 0., 0., 7.48354721e+000, 1.51645255e+000,
          0., 0., 0., 0., 0., 0., 0., 0., 0., 0., 0., 0., 0., 0., 0., 0.,
          0., 0., 0., 0., 0., 0., 0., 0., 0., 0., 0., 0., 0., 0., 0., 0.,
          0., 0., 0., 0., 0., 0., 0., 0., 0., 0., 0., 0., 0., 0., 0., 0.,
          0., 0., 0., 0., 0., 0., 0., 0., 0., 0., 0., 0., 0., 0., 0., 0.,
          0., 0., 0., 0., 1.38124931e+000, 6.18750691e-001, 0.,
          6.18750691e-001, 1.38124931e+000, 0., 0., 0., 0., 0., 0., 0.,
          0., 0., 0., 0., 0., 0., 0., 0. ]
      - [ 0., 0., 1., 3.06686258e+000, 1.06127605e+001, 7.14046383e+000,
          1.01799135e+001, 0., 6.38697922e-001, 9.47088540e-001,
          8.74725628e+000, 3.23257828e+001, 4.30925026e+001,
          9.24867439e+000, 0., 0., 0., 2.73879623e+000, 9.24264050e+000,
          1.54929752e+001, 5.16144981e+001, 2.76092739e+001,
          2.08690376e+001, 2.17157292e+000, 0., 2., 3., 2.,
          5.82842731e+000, 1.37387962e+001, 2.30185623e+001, 10., 0.,
          4.32458258e+000, 5.35504007e+000, 5.47338676e+000,
          5.17157269e+000, 1.58578646e+000, 1.41421354e+000, 2., 0.,
          5.49195004e+000, 1.06887283e+001, 1.84194660e+001,
          1.91833496e+001, 1.12165051e+001, 6.69879341e+000,
          1.07787991e+001, 0., 4.38179159e+000, 8.35536003e+000,
          9.39123249e+000, 2.93691483e+001, 3.23979340e+001,
          4.53178177e+001, 1.84107742e+001, 0., 0., 0., 0.,
          3.56001258e+000, 2.24549317e+000, 1.05300760e+001,
          6.64418161e-001, 0., 2.73879623e+000, 4.43277693e+000,
          5.41421366e+000, 7.07106781e+000, 6.92893219e+000,
          1.41421354e+000, 5.85786462e-001, 0., 2.08823738e+001,
          5.57523918e+000, 1.56635227e+001, 1.13364773e+001,
          1.30375395e+001, 8.71982002e+000, 4.62219143e+000, 0.,
          2.61203885e-001, 2., 1., 3.58578634e+000, 4.88044596e+000,
          5.12529526e+001, 4.95704842e+001, 0., 0., 0., 0., 0., 0., 1.,
          0., 0., 4.54877329e+000, 1.65585124e+000, 2.17157292e+000,
          5.41421366e+000, 6.00768900e+000, 4.40652466e+000,
          3.25773072e+000, 0., 2.18737583e+001, 4.17864847e+000, 0., 1.,
          1.58578646e+000, 3.67962265e+000, 5.25521755e+000, 0.,
          2.04467583e+000, 1., 0., 0., 0., 0., 4.03877544e+000, 0., 0.,
          0., 0., 0., 0., 0., 0., 0., 9.80351543e+000, 1.19087048e+001,
          2.87780255e-001, 0., 7.05762565e-001, 1.29423738e+000, 0., 0.,
          2.11248279e+000, 1.88751709e+000, 0., 0., 0., 0., 0., 0., 0.,
          0., 0., 0., 0., 0., 0., 0., 0., 0., 0., 0., 0., 0., 0., 0.,
          2.29806137e+000, 6.70193863e+000, 0., 0., 0., 0., 0., 0., 0.,
          0., 0., 0., 0., 0., 0., 0., 0., 0., 0., 0., 0., 0., 0., 0., 0.,
          0., 0., 0., 0., 0., 0., 0., 0., 9.28342915e+000,
          7.16570735e-001, 0., 0., 0., 0., 0., 0., 0., 0., 0., 0., 0.,
          0., 0., 0., 0., 0., 0., 0., 0., 0., 0., 0., 0., 0., 0., 0., 0.,
          0., 0., 2.26561785e+000, 2.16608562e+001, 2.62148285e+000,
          4.52042162e-001, 0., 0., 0., 0., 1.34425259e+001,
          1.89534054e+001, 1.67920265e+001, 1.50583763e+001,
          2.72010326e+000, 4.53864813e+000, 2.62621284e+000, 0.,
          1.92003059e+001, 2.52388573e+001, 8.21987247e+000,
          8.09383678e+000, 1.29839001e+001, 1.65791168e+001,
          4.92893219e+000, 0., 1.83242760e+001, 2.93932934e+001,
          6.35709667e+000, 9.41421318e+000, 6.17157269e+000,
          4.26568527e+001, 7.75735950e+000, 0., 4.34314585e+000,
          2.48528147e+000, 9.46456909e+000, 7.70700359e+000,
          3.40850220e+001, 2.74296951e+001, 6.21320343e+000,
          1.36158466e+001, 4.65623140e+000, 1.13968601e+001,
          2.53899364e+001, 1.53259020e+001, 4.35571289e+001,
          1.03301716e+001, 0., 4.10050488e+000, 1.69827557e+001,
          3.15659046e+001, 2.35083485e+000, 1.45902908e+000,
          1.48841171e+001, 2.07106781e+000, 4.17157269e+000,
          4.14213568e-001, 5.58578634e+000, 2.87867966e+001,
          1.53259020e+001, 2.81933212e+001, 3.10819411e+000,
          1.08171492e+001, 1.45259962e+001, 5.79898977e+000,
          3.30069847e+001, 7.98508759e+001, 0., 0., 0., 5.41484022e+000,
          8.58515930e+000, 2.08963108e+000, 1.00819416e+001,
          3.31370854e+000, 7.73879623e+000, 7.75922477e-001,
          5.35401964e+000, 3.75332832e+001, 1.44974747e+001,
          2.14961548e+001, 4.11906815e+000, 6.75417423e-001,
          2.91036892e+000, 2.89949489e+000, 3.95118217e+001,
          8.30028992e+001, 0., 0., 0., 4.85281378e-001, 5.14718652e-001,
          3.50779986e+000, 4.24955940e+000, 2.89949489e+000,
          9.11269855e+000, 4.23044729e+000, 3.05741024e+001,
          1.00116844e+001, 2.48528147e+000, 1.00556898e+001,
          1.87324262e+000, 2.76052976e+000, 1.23947012e+000, 0.,
          2.84805441e+000, 7.15194559e+000, 0., 0., 0., 0., 0.,
          1.94700623e+001, 2.52993703e+000, 0., 7.05762565e-001,
          1.29423738e+000, 3.12180662e+000, 8.78193438e-001, 0., 0., 0.,
          0., 0., 0., 0., 0., 0., 0., 0., 0., 0., 7.89974928e+000,
          1.10025084e+000, 0., 0., 0., 0., 0., 0., 0., 0., 0., 0., 0.,
          0., 0., 0., 0., 0., 0., 0., 9.15029240e+000, 8.49707425e-001,
          0., 0., 0., 0., 0., 0., 0., 0., 0., 0., 0., 0., 0., 0., 0., 0.,
          0., 0., 2.36950417e+001, 3.30495787e+000, 0., 0., 0.,
          3.43504105e+001, 2.43358822e+001, 4.14213562e+000,
          5.57676888e+000, 7.59480429e+000, 1.07750101e+001,
          3.31122932e+001, 1.44974747e+001, 3.02643890e+001,
          1.35083485e+000, 1.07238245e+001, 3.59919052e+001,
          1.82253971e+001, 4.62752647e+001, 7.83611596e-001, 0., 0.,
          3.31370854e+000, 2.07573586e+001, 4.92893219e+000,
          6.38697922e-001, 9.47088540e-001, 1.24264073e+000,
          3.30895615e+001, 5.90820122e+001, 5.22407770e-001,
          5.99231100e+000, 1.20121937e+001, 4.75820198e+001,
          4.38910713e+001, 0., 1.53015156e+001, 1.78111839e+001,
          1.58873014e+001, 0., 2.61203885e-001, 9.08194160e+000,
          4.14213562e+000, 1.08021746e+001, 1.71254385e+000,
          1.82842708e+000, 2.02010098e+001, 1.20121937e+001,
          3.08816280e+001, 1.50767412e+001, 1.76283989e+001,
          2.56436787e+001, 7.04163074e+000, 2.94563332e+001,
          6.02299576e+001, 6.38697922e-001, 3.61302108e-001, 0.,
          2.85798216e+000, 4.14201784e+000, 9.36621308e-001,
          5.06337881e+000, 3.31370854e+000, 1.67048550e+001,
          1.98143685e+000, 9.23813629e+000, 3.10339413e+001,
          1.11837664e+001, 3.41036911e+001, 3.44046593e+000,
          6.18637123e+001, 3.72367935e+001, 7.45584393e+000,
          1.11535187e+001, 4.29013157e+000, 0., 0., 0., 0., 0.,
          4.82865095e+000, 6.34292221e+000, 4.55634928e+000,
          1.24065247e+001, 1.86555350e+000, 4.19160957e+001,
          1.30128365e+001, 2.89949489e+000, 2.17157292e+000, 0.,
          1.45059958e+001, 3.49400449e+000, 0., 0., 0., 0., 0., 0., 0.,
          0., 1.49842901e+001, 3.01570940e+000, 0., 3., 0.,
          2.83431816e+000, 1.16568172e+000, 0., 0., 0., 0., 0., 0., 0.,
          0., 0., 0., 0., 0., 0., 4.38933945e+000, 1.61066067e+000, 0.,
          0., 0., 0., 0., 0., 0., 0., 0., 0., 0., 0., 0., 0., 0., 0., 0.,
          0., 0., 0., 4.14213568e-001, 4.14213562e+000, 1.44365084e+000,
          0., 0., 0., 0., 0., 0., 0., 0., 0., 0., 0., 0., 0., 0., 0.,
          5.14532375e+000, 6.02624941e+000, 8.28427136e-001,
          5.52203798e+000, 3.47796202e+000, 1.47192125e+001,
          1.47955065e+001, 3.31370854e+000, 1.50085573e+001,
          2.61630154e+001, 2.38027215e+000, 3.12643890e+001,
          1.98822517e+001, 2.51222534e+001, 1.35083485e+000,
          2.22726250e+000, 3.36894760e+001, 2.40243874e+001,
          1.80588741e+001, 0. ]
      - [ 0., 0., 1., 0., 5.49826622e-001, 2.55249286e+000,
          1.52734537e+001, 3.94051099e+000, 0., 6.77764654e+000,
          1.55274639e+001, 1.04120674e+001, 1.42814960e+001,
          8.73340321e+000, 2.32351933e+001, 7.09205151e+000, 0.,
          8.61869240e+000, 1.71512680e+001, 2.01775208e+001,
          3.01721401e+001, 2.34815006e+001, 2.42829800e+001,
          7.06747150e+000, 0., 2.58578634e+000, 1.71619606e+001,
          2.68765793e+001, 1.03690163e+002, 4.21387825e+001,
          1.63751526e+001, 1.75735927e+000, 2.37856603e+000,
          1.20841599e+000, 5.07069016e+000, 3.79942608e+000,
          6.48644018e+000, 1.89874291e+000, 5.09758711e+000,
          4.06013203e+000, 0., 2.27675552e+001, 1.60271111e+001,
          1.48013554e+001, 1.57844315e+001, 2., 3., 1.58578646e+000, 0.,
          5.28571415e+000, 5.50804996e+000, 3.16382904e+001,
          3.42678719e+001, 4.58578634e+000, 1.44142132e+001,
          1.34142132e+001, 0., 4., 1.69408264e+001, 1.59695425e+001,
          4.31606979e+001, 4.70294380e+001, 3.27279205e+001,
          1.07573595e+001, 7.87789881e-001, 1., 1.35156488e+001,
          8.13780499e+000, 4.97697973e+000, 7.67144501e-001,
          2.23753428e+000, 5.77097654e-001, 0., 2.17157292e+000,
          9.41421318e+000, 4.75735950e+000, 1.56568546e+001,
          6.17157269e+000, 19., 3., 0., 1.72576332e+001, 2.09044151e+001,
          5.80498648e+000, 11., 9.91036892e+000, 2.85976810e+001,
          2.09458618e+001, 0., 8.58578682e+000, 1.08284273e+001,
          3.58578634e+000, 3., 1., 2.49180584e+001, 4.96971664e+001, 0.,
          4.14213568e-001, 3.26540923e+000, 3.20377231e-001,
          9.18403327e-001, 6.56009054e+000, 1.46900082e+001,
          2.83149815e+000, 0., 9.24190998e+000, 1.51579361e+001,
          5.29760885e+000, 4., 1.46687307e+001, 1.69429836e+001,
          1.03882856e+001, 0., 1.28563280e+001, 1.31036816e+001,
          2.74308929e+001, 1.80088768e+001, 3.12181592e+000,
          1.94472599e+001, 3.38535538e+001, 0., 1.59098854e+001,
          2.18196507e+001, 2.12233448e+001, 2.63328791e+000,
          2.17157292e+000, 1.47378664e+001, 4.60578995e+001, 0., 1., 5.,
          3., 1., 1., 5.41421366e+000, 5.58578634e+000, 0., 6., 11., 2.,
          2., 3., 9.82842731e+000, 8.17157269e+000, 0., 2.07573586e+001,
          1.04142132e+001, 0., 0., 0., 9.82842731e+000, 2.71715736e+001,
          0., 3.82916069e+001, 2.77431908e+001, 6.38964415e+000,
          8.91587734e+000, 5.53827953e+000, 2.25650234e+001,
          3.97544441e+001, 0., 1., 2., 0., 2., 3., 4.82842731e+000,
          5.17157269e+000, 0., 5., 9.41421318e+000, 5.17157269e+000,
          4.41421366e+000, 3., 1.44142132e+001, 1.05857868e+001, 0.,
          2.30951405e+001, 3.47434311e+001, 9.16524029e+000,
          1.24142132e+001, 6.17157269e+000, 2.46568546e+001,
          1.28698988e+001, 0., 3.13276863e+001, 5.50031662e+001,
          2.81124268e+001, 1.07304478e+001, 2.68064165e+000,
          2.34489584e+000, 1.28445110e+001, 0., 2., 3., 0., 2., 5., 4.,
          4.58578634e+000, 0., 1., 9., 9., 11., 6., 7., 5., 0.,
          3.80986404e+000, 1.72401142e+001, 2.80477333e+001,
          2.63808479e+001, 9.10722828e+000, 1.69785614e+001,
          1.56072264e+001, 0., 1.60215130e+001, 4.33764153e+001,
          4.31996117e+001, 3.34770279e+001, 1.34690523e+001,
          1.96917000e+001, 1.89993401e+001, 0., 0., 0., 0., 4., 4., 12.,
          3., 0., 2., 5., 9.58578682e+000, 3.72426414e+001,
          1.11715727e+001, 13., 1., 0., 4.86278582e+000, 2.30161591e+001,
          1.87068405e+001, 4.15857849e+001, 1.77573586e+001,
          1.54852810e+001, 9.58578682e+000, 0., 1.02423649e+001,
          1.60859585e+001, 6.33054657e+001, 8.16411667e+001,
          1.26210833e+001, 2.40453935e+000, 8.42613280e-001, 0.,
          5.85786462e-001, 4.14213562e+000, 9.95273685e+000,
          9.31934071e+000, 2.27895603e+001, 1.63109436e+001,
          7.04163074e+000, 1.38552904e+001, 2.40025749e+001,
          4.93662119e+000, 3.57080383e+001, 1.98822517e+001,
          3.82709503e+001, 1.12021389e+001, 2.25715961e+001,
          3.40730667e+001, 2.60954552e+001, 5.36790047e+001,
          2.05808811e+001, 7.19445372e+000, 3.39133263e+000,
          1.24264073e+000, 4.77687168e+000, 9.39470100e+000,
          1.00496178e+001, 4.27666168e+001, 1.32548342e+001,
          4.92893219e+000, 0., 2.38796115e+000, 3.47003517e+001,
          2.69238815e+001, 2.09878063e+001, 0., 9.36621308e-001,
          2.50511856e+001, 4.10071411e+001, 6.37438469e+001,
          2.61203885e-001, 6.13354397e+000, 1.52096024e+001,
          1.65685427e+000, 1.90036619e+000, 4.09963369e+000, 0.,
          1.13725834e+001, 1.82253971e+001, 1.74020195e+001, 0.,
          6.06623602e+000, 2.99926376e+001, 2.60954552e+001,
          4.57746048e+001, 3.07106781e+000, 0., 1.47157288e+001,
          3.76934357e+001, 5.13296318e+001, 2.61203885e-001,
          1.35083485e+000, 2.64916515e+000, 2.48528147e+000,
          1.27694216e+001, 9.74529743e+000, 5.50702953e+000,
          2.21081944e+001, 1.15979795e+001, 2.71044331e+001,
          9.68236446e+000, 3.99369049e+001, 2.17493877e+001,
          6.62741709e+000, 1.82216358e+001, 4.14646568e+001,
          3.44582481e+001, 2.93579845e+001, 3.10660172e+001,
          6.81942520e+001, 1.09234943e+001, 0., 5.27207804e+000,
          7.87005758e+000, 7.85786438e+000, 0., 0., 1.15441561e+001,
          1.44974747e+001, 1.39583693e+001, 0., 0., 1.91593800e+001,
          2.69238815e+001, 2.22780418e+001, 6.38697922e-001,
          6.24792938e+001, 2.13785725e+001, 1.57401152e+001,
          3.74583740e+001, 3.49436455e+001, 0., 1.75735927e+000,
          5.38477612e+000, 8.85786438e+000, 0., 0., 1.21299419e+001,
          1.73969688e+001, 1.84730873e+001, 0., 2.18453827e+001,
          3.87282104e+001, 2.69238815e+001, 3.25025253e+001, 0.,
          1.05844940e+002, 2.64271374e+001, 4.55634928e+000,
          5.03202868e+000, 2.31395435e+001, 0., 2.92893219e+000,
          7.45584393e+000, 8.61522388e+000, 0., 0., 1.11299419e+001,
          1.53259020e+001, 1.05441561e+001, 0., 1.44391298e+001,
          2.47202492e+001, 2.31959591e+001, 2.96260986e+001,
          4.01856327e+000, 1.01682922e+002, 2.22460079e+001,
          5.38477612e+000, 1.87431297e+001, 4.59431610e+001, 0., 0.,
          7.45584393e+000, 1.15441561e+001, 0., 0., 9.95836926e+000,
          1.69827557e+001, 1.60588741e+001, 0., 6.26741076e+000,
          3.10635414e+001, 2.85807362e+001, 3.28271065e+001,
          2.61203885e-001, 7.82443848e+001, 3.88144913e+001,
          1.44974747e+001, 1.24936504e+001, 1.29500008e+001,
          2.25014234e+000, 4.09300327e+000, 2.07106781e+000,
          2.31727743e+000, 3.26850891e+000, 1.53604364e+001,
          1.21542816e+001, 9.52691174e+000, 2.59400749e+001,
          1.70182953e+001, 7.38123894e+000, 1.98197708e+001,
          3.35513000e+001, 5.54934044e+001, 5.75428820e+000, 0.,
          5.68629169e+000, 1.65685425e+001, 9.29206619e+001,
          8.48245010e+001, 6.39084721e+000, 4.19493914e+000,
          1.65685427e+000, 6.08658552e+000, 8.67077351e+000,
          1.00263491e+001, 2.60030880e+001, 1.03553391e+001,
          2.40503712e+001, 3.56485200e+000, 3.07106781e+000,
          2.96740990e+001, 2.89949493e+001, 5.28424873e+001,
          4.41739845e+000, 0., 1.84020195e+001, 4.80487747e+001,
          7.52880020e+001, 2.61203885e-001, 2.48141742e+000,
          1.10436904e+000, 5.38477612e+000, 9.04732418e+000,
          4.98211336e+000, 0., 7.68629169e+000, 1.20121937e+001,
          1.83015156e+001, 0., 5.53636265e+000, 4.51671715e+001,
          3.31370850e+001, 2.01593800e+001, 0., 0., 8.40639267e+001,
          4.22497826e+001, 4.68629169e+000, 0., 0., 4.92893219e+000,
          4.55634928e+000, 7.99426842e+000, 2.52045035e+000,
          3.14503813e+000, 2.39849033e+001, 1.65685425e+001,
          2.40031853e+001, 1.29833031e+000, 4.87231598e+001,
          3.04067822e+001, 1.32548342e+001, 2.42148609e+001,
          3.14003620e+001, 5.34343376e+001, 8.97250443e+001,
          1.44974747e+001, 1.15624914e+001, 2.57806549e+001, 0.,
          4.51471853e+000, 4.55634928e+000, 2.92893219e+000, 0., 0.,
          2.03309517e+001, 1.65685425e+001, 4.10050488e+000, 0.,
          6.38697922e-001, 5.76678696e+001, 3.76934357e+001, 0., 0.,
          8.45279617e+001, 5.67319221e+001, 2.11248913e+001,
          1.37750874e+001, 1.18401365e+001, 0., 4.68629169e+000,
          5.38477612e+000, 2.92893219e+000, 0., 0., 1.99878063e+001,
          1.69827557e+001, 8.02943707e+000, 0., 1.21182318e+001,
          4.27985077e+001, 2.60954552e+001, 2.04877701e+001,
          2.50003672e+000, 8.40926132e+001, 2.63510399e+001,
          6.21320343e+000, 1.03356838e+001, 4.10074615e+001, 0.,
          6.27207804e+000, 6.62741709e+000, 4.10050488e+000, 0., 0.,
          6.44365072e+000, 1.53259020e+001, 1.52304478e+001, 0.,
          5.22407770e-001, 2.71222534e+001, 2.73380947e+001,
          3.57337685e+001, 1.52834768e+001, 5.93477440e+001,
          2.43385487e+001, 7.87005758e+000, 2.68460064e+001,
          8.75976410e+001, 0., 1.75735927e+000, 4.55634928e+000,
          4.68629169e+000, 0., 0., 4.68629169e+000, 2.07106781e+001,
          4.00806236e+001, 5.22407770e-001, 7.83611596e-001,
          2.18610497e+001, 2.98233757e+001, 5.80656929e+001,
          6.46627045e+000, 1.47912607e+001, 6.38031244e+000,
          4.14213562e+000, 4.98298225e+001, 1.12856468e+002 ]
      - [ 0., 0., 2., 0., 0., 0., 1.12236061e+001, 3.77639365e+000, 0.,
          1.04756174e+001, 8.07488060e+000, 1.04143829e+001,
          1.86902847e+001, 1.38484735e+001, 1.61523895e+001,
          6.75105190e+000, 0., 1.26609564e+001, 2.18655529e+001,
          2.31629486e+001, 1.76364040e+001, 2.60604420e+001,
          2.17329845e+001, 6.50411367e+000, 0., 1.26120389e+000,
          9.53343964e+000, 3.13585930e+001, 8.80291672e+001,
          5.32338600e+001, 1.25837317e+001, 1., 5.59086859e-001,
          7.38796115e-001, 2.41421366e+000, 6.11458063e+000,
          4.40013790e+000, 3.16736746e+000, 9.61027431e+000,
          2.99554300e+000, 0., 2.54622746e+001, 5.32172441e+000,
          1.14843493e+001, 2.11014366e+001, 8.58578682e+000,
          3.41421366e+000, 0., 0., 1.03914452e+001, 9.65685463e+000,
          1.78406487e+001, 2.62489834e+001, 7.83930111e+000,
          2.14100075e+001, 2.09331379e+001, 0., 9.58578682e+000,
          1.52426405e+001, 1.83431454e+001, 3.63137093e+001,
          2.81561947e+001, 3.37727394e+001, 1.37573595e+001, 0., 0., 10.,
          2.58578634e+000, 3.60495710e+000, 1.22346997e+000,
          3.92675114e+000, 5.92444468e+000, 0., 3., 8., 3.,
          4.41421366e+000, 1.37573595e+001, 1.68284264e+001,
          9.58578682e+000, 0., 1.61302433e+001, 1.96568546e+001, 5.,
          9.41421318e+000, 1.67387962e+001, 2.73508358e+001,
          1.42665434e+001, 0., 1.55857868e+001, 8., 1., 8., 2.,
          2.18284264e+001, 5.90294380e+001, 0., 2., 1., 4.14213568e-001,
          1.58578646e+000, 4.16069889e+000, 1.53064260e+001,
          1.53287494e+000, 0., 1.90348721e+001, 1.97878170e+001,
          8.28427136e-001, 4., 6.02149868e+000, 2.36371326e+001,
          6.24753284e+000, 0., 1.61391182e+001, 2.01765270e+001,
          2.90712719e+001, 3.48577595e+000, 9.16948414e+000,
          1.95116215e+001, 2.67338200e+001, 0., 1.85574951e+001,
          2.21870689e+001, 1.62072945e+001, 1.42146425e+001,
          1.16441464e+000, 5.61409187e+000, 5.79128914e+001, 0., 1., 5.,
          3., 5., 0., 7.41421366e+000, 1.58578646e+000, 0., 13., 9., 1.,
          2., 3., 1.30710678e+001, 1.29289322e+001, 0., 1.73431454e+001,
          1.36754179e+001, 3.73879623e+000, 2.41421366e+000,
          7.17157269e+000, 2.26568546e+001, 2.76152229e+001, 0.,
          6.03398857e+001, 2.33134232e+001, 9.29545105e-001,
          6.18758917e+000, 7.14405060e+000, 2.07766132e+001,
          1.70290947e+001, 0., 3., 5., 1., 2., 1., 7.17157269e+000,
          4.41421366e+000, 0., 9.34314537e+000, 1.92426414e+001, 3.,
          2.41421366e+000, 1.05857868e+001, 7.24264050e+000,
          1.30819416e+001, 0., 2.48210945e+001, 2.93951244e+001,
          1.89577923e+001, 6.65685415e+000, 7.75735950e+000,
          2.09180584e+001, 1.13108883e+001, 0., 2.43902569e+001,
          4.01816559e+001, 1.27334661e+001, 6.45019531e+000,
          4.97713424e-002, 5.62130332e-001, 5.67657137e+000, 0., 0., 1.,
          0., 5., 2., 3.41421366e+000, 3.58578634e+000, 0.,
          2.73879623e+000, 1.18469906e+001, 7.82842731e+000,
          1.18469906e+001, 9.06337833e+000, 1.10896311e+001,
          9.17157269e+000, 0., 9.39774990e+000, 2.84643974e+001,
          4.36667252e+001, 2.29231281e+001, 9.57594299e+000,
          1.05578423e+001, 5.80068398e+000, 0., 2.21551876e+001,
          4.43970451e+001, 3.16217365e+001, 2.84662571e+001,
          8.32877636e+000, 6.10844851e+000, 1.00308781e+001, 0., 1., 0.,
          0., 3., 4., 2., 5., 0., 5.85786462e-001, 6.67541742e+000,
          7.56722307e+000, 2.59408264e+001, 1.55738916e+001,
          6.65685415e+000, 2., 0., 7.11734438e+000, 1.89201469e+001,
          2.70705109e+001, 1.82686367e+001, 1.38072033e+001,
          1.62020302e+001, 1.88959503e+001, 0., 1.87530541e+000,
          1.29403725e+001, 6.15482483e+001, 6.10845985e+001,
          1.71372604e+001, 2.86243486e+000, 2.69319296e+000, 0.,
          1.17157292e+000, 3.72792196e+000, 7.69672298e+000,
          4.40378189e+000, 1.28754044e+001, 2.17398205e+001,
          1.07695522e+001, 1.91460648e+001, 1.74691601e+001,
          6.29064131e+000, 4.91824455e+001, 1.86396103e+001,
          3.76149559e+001, 1.42723446e+001, 2.95006065e+001,
          3.01146183e+001, 2.48528137e+001, 4.84659462e+001,
          2.70660152e+001, 2.54866004e+000, 1.00371265e+001,
          1.24264073e+000, 8.00644875e+000, 8.16512394e+000,
          9.24264050e+000, 4.24730873e+001, 1.20121937e+001,
          9.27207756e+000, 0., 2.54866004e+000, 3.88533592e+001,
          2.69238815e+001, 4.03309517e+001, 2.34314585e+000, 0.,
          2.82598839e+001, 3.89360733e+001, 5.58226051e+001,
          1.98143685e+000, 6.75417423e-001, 9.42508793e+000,
          4.55634928e+000, 7.52240753e+000, 2.82073808e+000, 0.,
          8.61522388e+000, 2.02964649e+001, 2.60883121e+001, 0.,
          1.97374773e+000, 2.90140591e+001, 2.77523079e+001,
          4.44948349e+001, 2.76504850e+000, 0., 1.46446609e+001,
          4.39066391e+001, 5.34487000e+001, 0., 0., 2.34314585e+000,
          3.72792196e+000, 1.39439039e+001, 4.98502874e+000,
          4.57396936e+000, 3.03133316e+001, 1.40832615e+001,
          2.09205265e+001, 1.11089106e+001, 3.99204407e+001,
          2.52095032e+001, 1.20121937e+001, 2.18340702e+001,
          3.50237961e+001, 2.55132008e+001, 3.83740997e+001,
          2.56812401e+001, 6.72219772e+001, 1.72094822e+001, 0.,
          5.27207804e+000, 4.97056293e+000, 7.75735950e+000, 0., 0.,
          1.43015156e+001, 1.78111839e+001, 2.08873024e+001, 0.,
          5.22407770e-001, 2.23943310e+001, 3.39655113e+001,
          4.18565445e+001, 2.61203885e-001, 7.96373444e+001,
          2.37058010e+001, 5.79898977e+000, 2.51433163e+001,
          2.47145481e+001, 0., 5.68629169e+000, 5.79898977e+000,
          9.46990299e+000, 1.04481554e+000, 0., 2.24730873e+001,
          2.23675327e+001, 2.31593800e+001, 0., 4.61373177e+001,
          3.05784092e+001, 1.98822517e+001, 2.90824547e+001,
          2.31956482e+000, 7.43039932e+001, 1.42817965e+001,
          4.14213568e-001, 3.30030489e+000, 9.69969463e+000, 0.,
          5.85786462e-001, 3.72792196e+000, 5.68629169e+000, 0.,
          5.22407770e-001, 1.51933212e+001, 1.78111839e+001,
          1.99506798e+001, 5.22407770e-001, 3.57135887e+001,
          3.96173630e+001, 1.90538235e+001, 1.97772732e+001,
          4.83795118e+000, 9.25038681e+001, 1.94250679e+001,
          3.31370854e+000, 1.18737259e+001, 2.98836327e+001, 0.,
          5.85786462e-001, 4.97056293e+000, 6.44365072e+000, 0.,
          2.61203885e-001, 1.13540201e+001, 1.40832615e+001,
          1.93015156e+001, 0., 1.48959332e+001, 3.51629410e+001,
          2.27817459e+001, 4.03771172e+001, 4.78226185e+000,
          7.38589020e+001, 2.28273888e+001, 4.55634928e+000,
          1.22638025e+001, 2.54935570e+001, 6.75417423e-001,
          6.42508745e+000, 2.89949489e+000, 0., 0., 1.17188110e+001,
          1.68964119e+001, 1.28406200e+001, 2.86895523e+001,
          1.68546028e+001, 8.26516819e+000, 2.62789879e+001,
          2.19533195e+001, 5.36764336e+001, 1.08260918e+001, 0.,
          2.75735927e+000, 1.94680367e+001, 8.05108261e+001,
          8.72637787e+001, 2.20203042e+000, 5.55532885e+000,
          2.48528147e+000, 9.57308769e+000, 6.18427181e+000,
          1.41160736e+001, 2.43986454e+001, 8.69848442e+000,
          2.82334423e+001, 7.55335522e+000, 4.20869923e+000,
          4.81933212e+001, 1.61543293e+001, 3.95290756e+001,
          9.91457462e+000, 0., 2.94314575e+001, 4.01787148e+001,
          6.34532051e+001, 9.36621308e-001, 1.45133996e+000,
          5.30601931e+000, 2.89949489e+000, 6.92893219e+000,
          4.14213568e-001, 0., 1.68162346e+001, 1.94680367e+001,
          1.37157288e+001, 0., 4.53430223e+000, 3.69682236e+001,
          2.81665230e+001, 2.33309517e+001, 0., 0., 9.21938705e+001,
          5.13624802e+001, 6.44365072e+000, 0., 0., 5.10050488e+000,
          5.38477612e+000, 6.25351477e+000, 2.61203885e-001,
          6.35326338e+000, 2.39482517e+001, 1.69827557e+001,
          1.27157288e+001, 0., 4.44238548e+001, 3.72918739e+001,
          1.28406200e+001, 2.21393337e+001, 2.63043175e+001,
          5.86564827e+001, 9.21597519e+001, 1.53259020e+001,
          1.37854567e+001, 2.50724068e+001, 0., 2.34314585e+000,
          4.97056293e+000, 4.68629169e+000, 0., 2.61203885e-001,
          3.93712654e+001, 2.48528137e+001, 3.51471853e+000, 0.,
          8.46990287e-001, 6.30575562e+001, 3.06518040e+001,
          1.01824465e+001, 2.61203885e-001, 9.49700623e+001,
          3.74735870e+001, 7.04163074e+000, 9.41515446e+000,
          9.09956455e+000, 0., 7.27207804e+000, 5.38477612e+000,
          2.34314585e+000, 0., 1.30601943e+000, 2.59244289e+001,
          1.69827557e+001, 9.78679657e+000, 0., 2.99798756e+001,
          4.18363571e+001, 1.90538235e+001, 2.53636284e+001,
          1.07663145e+001, 5.45351639e+001, 1.22221956e+001,
          2.07106781e+000, 5.31137466e+000, 2.18601990e+001, 0.,
          5.27207804e+000, 6.62741709e+000, 4.10050488e+000, 0.,
          2.61203885e-001, 1.94545250e+001, 1.82253971e+001,
          1.92752628e+001, 7.83611596e-001, 3.19362807e+000,
          2.60368195e+001, 2.48528137e+001, 3.93320122e+001,
          3.25847244e+001, 5.67650604e+001, 1.48207254e+001,
          1.24264073e+000, 1.43990459e+001, 6.97725296e+001, 0.,
          5.27207804e+000, 6.62741709e+000, 4.10050488e+000, 0., 0.,
          1.75735927e+000, 1.20121937e+001, 3.74654007e+001,
          2.76504850e+000, 1.14537048e+001, 3.31909561e+001,
          2.36101723e+001, 4.70249100e+001, 1.17202549e+001,
          6.97866964e+000, 2.60711670e+000, 4.14213568e-001,
          3.09151554e+001, 1.17084846e+002 ]
      - [ 0., 1.58578646e+000, 6., 1., 5.62916088e+000, 6.88585854e+000,
          4.22377729e+000, 2.61203885e-001, 0., 1.25319386e+001,
          2.96040559e+000, 6.35607386e+000, 6.55924892e+000,
          1.06922560e+001, 1.70971069e+001, 1.39082947e+001, 0.,
          7.36939812e+000, 1.82820950e+001, 2.19775887e+001,
          3.18366528e+001, 3.60839386e+001, 2.04240723e+001, 5., 0., 0.,
          1.82842708e+000, 1.51880178e+001, 9.10579224e+001,
          3.32639656e+001, 1.35804539e+001, 8.12103003e-002, 0.,
          3.90333128e+000, 2.41913509e+000, 2.63104916e+000,
          3.44001865e+000, 5.14718652e-001, 7.48213959e+000,
          7.46217060e+000, 0., 1.27448387e+001, 5.66853619e+000,
          1.29711676e+001, 2.30578728e+001, 9.66772842e+000,
          1.41421354e+000, 3., 0., 4.90616369e+000, 1.46796227e+001,
          2.49030933e+001, 1.56826935e+001, 1.40819416e+001,
          2.96992054e+001, 2.39156208e+001, 0., 5.17157269e+000,
          1.74142132e+001, 1.49289322e+001, 3.94194374e+001,
          5.13564835e+001, 3.14929714e+001, 1.39737473e+001, 0.,
          3.91036892e+000, 9.23506451e+000, 8.02614021e+000, 1., 0.,
          2.23985219e+000, 5.76014805e+000, 0., 3.41421366e+000,
          6.82842731e+000, 9.17157269e+000, 2.75735927e+000,
          1.38284273e+001, 2.26568546e+001, 1.33431454e+001, 0.,
          2.21302414e+001, 1.00938368e+001, 3.58578634e+000,
          1.18284273e+001, 1.17573595e+001, 2.95857868e+001,
          3.04733868e+001, 0., 2.54401531e+001, 8.41421318e+000,
          8.58578682e+000, 2.41421366e+000, 6., 3.93536224e+001,
          4.01395035e+001, 0., 8.05658638e-001, 5.61276007e+000,
          1.58158112e+000, 1., 3.07773662e+000, 1.35377016e+001,
          3.38456178e+000, 0., 3.37070227e+000, 1.01675930e+001,
          5.63048935e+000, 7.97864819e+000, 9.61134338e+000,
          2.10447025e+001, 1.85088654e+001, 0., 1.25374546e+001,
          2.31531715e+001, 1.72640781e+001, 4.12389946e+000,
          5.65697289e+000, 2.78040924e+001, 3.50088844e+001, 0.,
          2.52744617e+001, 1.98726540e+001, 1.56495600e+001,
          1.47655344e+001, 9.61698341e+000, 1.43252878e+001,
          4.23307190e+001, 0., 1., 2.82842708e+000, 5.17157269e+000, 2.,
          5.17157269e+000, 7.24264050e+000, 5.85786462e-001, 0.,
          2.18578644e+001, 8.82842731e+000, 3., 3., 5.85786462e-001,
          1.74142132e+001, 6.58578634e+000, 0., 3.39783173e+001,
          1.63686771e+001, 7., 3., 2.58578634e+000, 2.02287540e+001,
          2.53081112e+001, 0., 4.38768730e+001, 2.23160839e+001,
          4.16600037e+000, 1.14107800e+000, 0., 1.59334826e+000,
          1.07091389e+001, 0., 3.58578634e+000, 1., 1., 0., 2.,
          8.07106781e+000, 4.92893219e+000, 0., 8.56301785e+000, 13.,
          4.58578634e+000, 9.58578682e+000, 5.58578634e+000,
          1.99180584e+001, 9.64916515e+000, 0., 2.68227596e+001,
          4.81252174e+001, 1.88622761e+001, 5.41407537e+000,
          3.80217481e+000, 6.12675714e+000, 7.89735937e+000, 0.,
          4.74400091e+000, 1.40039635e+001, 1.65347695e+000, 0., 0., 0.,
          0., 0., 1., 1., 0., 0., 1., 3.41421366e+000, 4.17157269e+000,
          0., 8.17157269e+000, 1.75038452e+001, 1.04961557e+001, 10., 7.,
          1.04142132e+001, 1.02535143e+001, 0., 1.76174488e+001,
          4.06635857e+001, 3.41269569e+001, 1.81829262e+001,
          9.50915432e+000, 1.44865961e+001, 1.29767084e+001, 0.,
          1.64899597e+001, 3.03716354e+001, 1.45494699e+001,
          1.50370197e+001, 2.95860147e+000, 1.15022111e+000,
          8.49778891e-001, 0., 0., 0., 1., 0., 5., 5.41421366e+000,
          6.58578634e+000, 0., 4.17157269e+000, 7.41421366e+000,
          8.41421318e+000, 1.20896311e+001, 9.25351429e+000,
          1.38994951e+001, 1.74065247e+001, 0., 1.69885406e+001,
          1.27271881e+001, 3.08009357e+001, 5.08591957e+001,
          1.88514118e+001, 1.37453060e+001, 4.59519339e+000, 0.,
          7.90803313e-001, 8.50835133e+000, 2.25422401e+001,
          3.40096550e+001, 3.26806855e+000, 5.18462801e+000,
          1.13217258e+000, 0., 5.27207804e+000, 5.79898977e+000,
          7.45584393e+000, 3.47308803e+000, 9.64461517e+000,
          2.03848228e+001, 9.52691174e+000, 2.94107227e+001,
          1.40329285e+001, 8.59186840e+000, 3.68101540e+001,
          2.15391045e+001, 5.14972954e+001, 1.05615788e+001,
          1.77120399e+001, 2.16605434e+001, 1.44974747e+001,
          3.90635452e+001, 2.90663986e+001, 4.73334789e+000,
          5.85243845e+000, 8.28427136e-001, 8.81465912e+000,
          7.77112722e+000, 7.76095104e+000, 3.54400597e+001,
          1.15979795e+001, 1.12010098e+001, 0., 3.54866004e+000,
          3.82675743e+001, 2.15391045e+001, 5.53943329e+001,
          6.25032997e+000, 0., 2.55025253e+001, 3.97645035e+001,
          7.47329712e+001, 5., 4.55953407e+000, 1.45409708e+001,
          3.72792196e+000, 3.62631392e+000, 3.54525900e+000, 0.,
          1.25441561e+001, 2.07106781e+001, 3.79167404e+001,
          1.82842708e+000, 1.19782519e+000, 2.84468365e+001,
          3.23086586e+001, 5.39724274e+001, 2.07425284e+000,
          2.61203885e-001, 2.97560406e+001, 4.18355713e+001,
          6.26800690e+001, 6.46711588e+000, 2.79448581e+000,
          5.20551443e+000, 4.14213568e-001, 1.11997986e+001,
          8.38598728e+000, 4.32776737e+000, 1.45300970e+001,
          1.32548342e+001, 3.85519485e+001, 5.33535385e+000,
          3.62365990e+001, 1.65501957e+001, 1.61543293e+001,
          3.15507374e+001, 3.35081367e+001, 2.27309647e+001,
          5.24284172e+001, 2.36101723e+001, 5.70826263e+001,
          2.51478195e+001, 0., 6.10050488e+000, 6.62741709e+000,
          9.27207756e+000, 0., 0., 2.39167385e+001, 1.94680367e+001,
          1.90928154e+001, 5.22407770e-001, 1.74350624e+001,
          3.93811722e+001, 2.31959591e+001, 3.63806877e+001,
          2.60711741e+000, 6.80873032e+001, 2.12558403e+001,
          1.65685427e+000, 1.37917542e+000, 1.26208248e+001, 0.,
          3.51471853e+000, 6.21320343e+000, 1.12720776e+001, 0.,
          7.83611596e-001, 2.15889721e+001, 1.28406200e+001,
          2.95518456e+001, 2.23495150e+000, 7.50857849e+001,
          2.91862926e+001, 7.45584393e+000, 1.51088552e+001,
          5.16322231e+000, 1.64496212e+001, 4.55037832e+000, 0., 0., 0.,
          0., 1.17157292e+000, 3.31370854e+000, 6.51471853e+000, 0.,
          5.22407770e-001, 2.57080402e+001, 1.86396103e+001,
          2.17157288e+001, 4.14213568e-001, 8.01761932e+001,
          2.35811672e+001, 5.38477612e+000, 2.09879436e+001,
          1.88699207e+001, 5.26776199e+001, 1.43223782e+001, 0.,
          2.05046749e+000, 4.94953251e+000, 0., 5.85786462e-001,
          7.04163074e+000, 1.03725834e+001, 0., 0., 1.35441561e+001,
          1.44974747e+001, 3.54359627e+001, 5.22407770e-001,
          4.41712570e+001, 2.91302586e+001, 1.73969688e+001,
          3.61142273e+001, 4.18728733e+000, 3.25355568e+001,
          1.04644432e+001, 4.14213568e-001, 4.97723913e+000,
          1.16085472e+001, 0., 2.75735927e+000, 3.31370854e+000,
          1.01158829e+001, 2.81304884e+000, 1.63122349e+001,
          3.53029900e+001, 8.69848442e+000, 1.46124630e+001,
          1.20738287e+001, 1.04481554e+000, 1.52272625e+001,
          1.69827557e+001, 6.17828941e+001, 2.29622707e+001, 0.,
          1.58578646e+000, 5.79898977e+000, 4.72457428e+001,
          9.33694839e+001, 5.84002256e+000, 1.29173365e+001,
          1.65685427e+000, 3.06955791e+000, 3.51622868e+000,
          1.24896870e+001, 2.50250320e+001, 9.52691174e+000,
          3.11143742e+001, 9.84399605e+000, 3.90267992e+000,
          3.81856308e+001, 2.98233757e+001, 4.16971664e+001,
          6.39114618e+000, 7.83611596e-001, 3.22041969e+001,
          3.89360733e+001, 8.30761185e+001, 4., 1.93662131e+000,
          9.99231052e+000, 5.38477612e+000, 9.74967003e+000,
          9.36621308e-001, 5.22407770e-001, 1.97080402e+001,
          2.15391045e+001, 1.84468365e+001, 7.83611596e-001,
          4.20869923e+000, 6.25953407e+001, 3.39655113e+001,
          1.92304478e+001, 0., 8.56338215e+000, 8.75716095e+001,
          4.39066391e+001, 1.19583693e+001, 0., 2.61203885e-001,
          9.42508793e+000, 5.79898977e+000, 6.99231100e+000,
          5.22407770e-001, 5.75317669e+000, 2.65483379e+001,
          1.53259020e+001, 2.05595341e+001, 1.81304884e+000,
          3.80727577e+001, 4.11576881e+001, 1.57401152e+001,
          1.48716507e+001, 2.31577873e+001, 6.33197937e+001,
          7.49817200e+001, 1.36690474e+001, 2.27719688e+001,
          2.02574673e+001, 0., 2.17157292e+000, 6.62741709e+000,
          8.20100975e+000, 0., 7.83611596e-001, 4.36478462e+001,
          1.94680367e+001, 4.10050488e+000, 0., 2.32105751e+001,
          7.21498108e+001, 2.44386005e+001, 8.20100975e+000, 0.,
          8.04859085e+001, 1.85140915e+001, 0., 1.76097393e+000,
          5.23902607e+000, 0., 1.00294371e+001, 6.21320343e+000,
          1.75735927e+000, 0., 2.24264073e+000, 2.53015156e+001,
          1.40832615e+001, 1.61113796e+001, 2.61203885e-001,
          4.86593399e+001, 2.97843113e+001, 7.87005758e+000,
          2.00012016e+001, 2.26850910e+001, 8.85404015e+000,
          3.14595938e+000, 0., 1.10353076e+000, 2.89646912e+000, 0.,
          8.44365120e+000, 4.97056293e+000, 5.85786462e-001, 0.,
          6.75417423e-001, 2.34545250e+001, 1.90538235e+001,
          1.88162346e+001, 0., 2.87478867e+001, 2.52815514e+001,
          8.69848442e+000, 2.13776741e+001, 5.68944054e+001,
          2.31107407e+001, 6.88925838e+000, 4.14213568e-001,
          1.02155943e+001, 2.83701916e+001, 0., 5.27207804e+000,
          6.21320343e+000, 3.51471853e+000, 0., 7.83611596e-001,
          2.21747570e+001, 1.69827557e+001, 2.12752628e+001,
          7.83611596e-001, 1.01803989e+001, 1.63637562e+001,
          1.36690474e+001, 4.30724525e+001, 5.87143440e+001,
          5.31338787e+000, 2.27239847e+000, 4.14213568e-001,
          1.12283382e+001, 5.37716599e+001 ]
      - [ 0., 7.91036892e+000, 1.29180584e+001, 2., 1.58578646e+000, 0.,
          1., 1., 0., 6.97374773e+000, 3.71683884e+001, 3.67682343e+001,
          5.82842731e+000, 1., 0., 0., 0., 9.15967846e+000,
          4.04705887e+001, 6.97709732e+001, 2.05987606e+001, 1., 1., 2.,
          0., 4.82842731e+000, 2.75204086e+001, 4.50058136e+001,
          3.92566452e+001, 3.38870668e+000, 0., 0., 0., 8.17157269e+000,
          7., 0., 0., 0., 0., 2.17157292e+000, 0., 2.65966606e+001,
          1.60710678e+001, 1., 1., 1., 0., 4.41421366e+000, 0.,
          3.07944851e+001, 2.36568546e+001, 1.15857868e+001, 2., 0.,
          1.78130937e+000, 2.90507278e+001, 0., 3.57749023e+001,
          2.57989902e+001, 1.28578644e+001, 7.07106781e+000,
          2.58578634e+000, 1.49098091e+001, 4.62101631e+001, 0., 8.,
          2.58578634e+000, 0., 0., 0., 0., 7.17157269e+000, 0.,
          5.62639666e+000, 0., 0., 0., 0., 4.61392832e+000,
          3.90985527e+001, 0., 0., 0., 1.68074355e-001, 7.01087141e+000,
          1.82105434e+000, 1.35192955e+000, 2.70544834e+001, 0.,
          4.14213568e-001, 1.12675738e+000, 1.55635405e+001,
          4.68836212e+001, 9.40331268e+000, 3.28817773e+000,
          3.20377231e-001, 0., 5., 0., 0., 0., 0., 0., 3.05917335e+000,
          0., 2.43277669e+000, 3.46546203e-001, 2.94170070e+000,
          9.28481865e+000, 7.72147274e+000, 2.07796264e+000,
          3.29371758e+001, 0., 3.58578634e+000, 5.26120377e+000,
          1.75314636e+001, 7.64691086e+001, 2.88942261e+001,
          8.69099045e+000, 3.73879623e+000, 0., 1.17157292e+000,
          1.04852810e+001, 3.18298702e+001, 9.60181427e+001,
          3.80809212e+001, 1.64142132e+001, 4.58578634e+000, 0.,
          9.51471901e+000, 5.82842731e+000, 0., 0., 0., 0.,
          5.05917358e+000, 0., 9.56722355e+000, 2.05291152e+000,
          3.61302108e-001, 1.41421354e+000, 2.35089564e+000,
          4.16181469e+000, 2.73826599e+001, 0., 2., 2., 2.,
          1.02980471e+001, 2.14846420e+001, 4.78705673e+001,
          4.37903938e+001, 0., 1.99289322e+001, 1.54142132e+001, 2.,
          2.34142132e+001, 2.59103699e+001, 3.16754169e+001,
          1.81715736e+001, 0., 9.92893219e+000, 4.24264050e+000, 0., 0.,
          0., 0., 1., 0., 2.19289322e+001, 1.16568546e+001,
          5.17157269e+000, 0., 0., 6.41421366e+000, 2.17157292e+000, 0.,
          1.53431454e+001, 2.81606979e+001, 2.05076370e+001,
          1.88355083e+001, 7.38796115e-001, 7., 7.17157269e+000, 0.,
          4.53001862e+001, 7.05979004e+001, 4.22762642e+001,
          9.09064579e+000, 5.07046032e+000, 1.41421354e+000, 4., 0.,
          4.58578634e+000, 1.26568546e+001, 5.75735950e+000, 0., 0., 0.,
          0., 0., 2., 3.03895893e+001, 4.52138100e+001, 1.22250271e+001,
          1.17157292e+000, 0., 0., 0., 4.07872295e+000, 8.71632576e+000,
          4.61969643e+001, 3.41131592e+001, 1.33628626e+001,
          2.38661122e+000, 8.49778891e-001, 0., 1.58578646e+000,
          8.09232807e+000, 2.88591995e+001, 1.84626846e+001, 0., 0., 0.,
          0., 4., 9.41421318e+000, 1.01715727e+001, 4.14213568e-001, 0.,
          0., 0., 0., 2.61203885e-001, 2.16632862e+001, 5.23537521e+001,
          1.57217598e+001, 0., 0., 0., 0., 0., 1.33163488e+000,
          2.26008358e+001, 1.60675278e+001, 0., 0., 0., 0., 0., 0., 0.,
          0., 0., 0., 0., 9.36621308e-001, 1.68501759e+001,
          6.62741709e+000, 1.58578646e+000, 0., 2.61203885e+000,
          6.40620575e+001, 1.57401152e+001, 5.85786462e-001, 0.,
          3.69843445e+001, 8.53466034e+001, 1.53259020e+001,
          2.34314585e+000, 0., 3.38150978e+001, 5.35574875e+001,
          7.45584393e+000, 4.54677629e+000, 4.62479687e+000, 0.,
          1.02010098e+001, 7.04163074e+000, 1.75735927e+000, 0., 0.,
          3.38456726e+001, 1.82253971e+001, 3.92893219e+000, 0.,
          5.22407770e-001, 5.25953407e+001, 3.06518040e+001,
          2.83942394e+001, 7.83620834e+000, 7.83611596e-001,
          6.17777901e+001, 3.06518040e+001, 3.50396652e+001,
          3.47471313e+001, 5.22407770e-001, 7.57809734e+000,
          5.38477612e+000, 5.51471853e+000, 0., 2.61203885e-001,
          7.25351477e+000, 7.45584393e+000, 3.08357639e+001,
          2.61936722e+001, 0., 1., 0., 1.84187107e+001, 2.55812893e+001,
          1.06702471e+001, 2.27734032e+001, 6.62741709e+000,
          1.51687117e+001, 5.76022005e+000, 0., 3.51471853e+000,
          4.55634928e+000, 3.92893219e+000, 0., 2.09003782e+000,
          6.25310802e+000, 7.04163074e+000, 2.79479771e+001,
          3.06672459e+001, 1.97374773e+000, 2.92567005e+001,
          1.98822517e+001, 4.23036461e+001, 1.15836554e+001,
          2.61203885e-001, 3.75844688e+001, 4.01787148e+001,
          4.84532051e+001, 5.22407770e-001, 0., 1.12010098e+001,
          8.28427124e+000, 5.51471853e+000, 0., 1.05291152e+000,
          9.97652626e+000, 1.28406200e+001, 2.74609909e+001,
          9.66895103e+000, 0., 3.51471853e+000, 2.73380947e+001,
          8.49044342e+001, 1.02427483e+001, 2.61203885e-001,
          2.50697479e+001, 3.93502884e+001, 5.07963524e+001,
          5.22407770e-001, 0., 1.04436512e+001, 4.97056293e+000,
          5.85786462e-001, 0., 0., 2.60883121e+001, 1.65685425e+001,
          7.34314585e+000, 0., 7.83611596e-001, 4.75057106e+001,
          2.69238815e+001, 9.78679657e+000, 0., 1.07614098e+001,
          1.16474091e+002, 4.34924240e+001, 8.01087379e+000,
          2.61203885e-001, 0., 1.72010098e+001, 5.79898977e+000, 0., 0.,
          1.02434168e+001, 5.98448944e+001, 1.57401152e+001,
          1.17157292e+000, 0., 3.73171463e+001, 4.15407181e+001,
          9.11269855e+000, 1.29026794e+001, 3.12675738e+000,
          2.74939842e+001, 1.95060158e+001, 0., 0., 0., 0.,
          1.61299419e+001, 7.87005758e+000, 0., 0., 2.81165905e+001,
          5.59128456e+001, 4.97056293e+000, 0., 0., 2.10133381e+001,
          1.09866619e+001, 0., 0., 0., 0., 0., 0., 0., 0.,
          2.61203885e-001, 7.59666061e+000, 5.38477612e+000,
          2.49615550e+000, 2.61203885e-001, 2.61203885e-001,
          7.42508745e+000, 2.02964649e+001, 3.40172424e+001, 0., 0.,
          1.15441561e+001, 2.36101723e+001, 4.77500000e+001,
          3.90956688e+001, 0., 5.27207804e+000, 1.20121937e+001,
          3.95048943e+001, 4.82108345e+001, 0., 1.44436512e+001,
          4.55634928e+000, 0., 0., 2.87324262e+000, 5.10434952e+001,
          1.53259020e+001, 1.75735927e+000, 0., 2.26231747e+001,
          7.48793488e+001, 2.11248913e+001, 9.37258339e+000, 0.,
          4.38585167e+001, 8.15729446e+001, 2.36101723e+001,
          1.76971664e+001, 2.61203885e-001, 7.83611596e-001,
          2.25889721e+001, 6.62741709e+000, 0., 0., 4.14459076e+001,
          4.20688095e+001, 2.48528147e+000, 0., 0., 3.01888657e+001,
          1.28111343e+001, 4.14213568e-001, 3.55677366e+000,
          5.02901268e+000, 2.61203885e-001, 1.91036904e+000,
          2.07106781e+000, 3.09597664e+001, 4.17975922e+001,
          4.00768900e+000, 2.30928154e+001, 2.89949489e+000, 0., 0.,
          3.48129120e+001, 2.41160202e+001, 2.48528147e+000,
          7.15755510e+000, 1.34282312e+001, 0., 1.11005049e+001,
          9.94112587e+000, 7.38548126e+001, 4.51035538e+001, 0.,
          6.10050488e+000, 3.39655113e+001, 1.29485825e+002,
          8.44815540e+000, 1.19782519e+000, 2.06600399e+001,
          4.14213562e+000, 0., 0., 1.33142214e+001, 6.23304405e+001,
          1.20121937e+001, 4.75735950e+000, 5.85786462e-001,
          7.83611596e-001, 5.26478462e+001, 2.73380947e+001,
          2.78796120e+001, 2.35083485e+000, 2.61203885e-001,
          5.18149147e+001, 4.63919182e+001, 3.35319633e+001, 0., 0.,
          1.83725834e+001, 6.62741709e+000, 0., 0., 7.83611596e-001,
          3.07189140e+001, 1.69827557e+001, 3.51471853e+000, 0., 0.,
          2.98456707e+001, 2.60954552e+001, 3.00770302e+001,
          2.98184371e+000, 1.56722319e+000, 6.04794579e+001,
          3.89360733e+001, 4.13488655e+001, 6.66838026e+000, 0.,
          4.68629169e+000, 6.21320343e+000, 4.10050488e+000, 0., 0.,
          1.75735927e+000, 1.15979795e+001, 4.68668976e+001,
          9.77776432e+000, 2.68981099e+000, 6.31018877e+000,
          7.45584393e+000, 4.56063614e+001, 4.79377937e+001, 0.,
          3.17157292e+000, 1.65685427e+000, 2.00649776e+001,
          3.21065941e+001, 0., 2.34314585e+000, 5.38477612e+000,
          7.27207804e+000, 0., 0., 5.85786462e-001, 9.52691174e+000,
          4.19563675e+001, 2.89309330e+001, 0., 0., 0., 1.19863806e+001,
          2.70136204e+001, 0., 0., 0., 0., 0. ]
      - [ 0., 1.23988352e+001, 7.31370831e+000, 2., 1., 0., 3., 2., 0.,
          1.55147190e+001, 4.37279205e+001, 1.36862917e+001,
          6.65685415e+000, 1., 0., 0., 0., 1.59289322e+001,
          5.06706314e+001, 6.95687943e+001, 1.53277969e+001,
          2.61203885e-001, 0., 1., 0., 8.81223965e+000, 4.63580475e+001,
          6.56139526e+001, 3.10435486e+001, 5.24711370e+000,
          4.21634531e+000, 4.85281378e-001, 0., 8.49615574e+000,
          3.82842708e+000, 0., 1., 0., 5.65685415e+000, 4.92893219e+000,
          0., 2.13872395e+001, 8.78361130e+000, 2., 1., 0.,
          2.28037453e+000, 1.89624100e+001, 0., 1.54208822e+001,
          1.40710678e+001, 3.58578634e+000, 2., 0., 6.63914680e+000,
          3.83069649e+001, 0., 2.83994427e+001, 1.36568546e+001, 5., 8.,
          0., 3.43487453e+000, 4.42640076e+001, 0., 6.57563400e+000,
          4.14213568e-001, 0., 0., 0., 1., 6.12007236e+000, 0.,
          1.86483192e+000, 0., 0., 6.27255249e+000, 7.27447569e-001,
          2.75061989e+000, 3.29571228e+001, 0., 0., 0., 4.57530737e+000,
          2.78736286e+001, 1.63656807e+001, 3.18538475e+000,
          2.15230298e+000, 0., 0., 4.48705769e+000, 1.82066689e+001,
          5.00968704e+001, 1.73809757e+001, 3., 2.41421366e+000, 0.,
          5.85786462e-001, 3.41421366e+000, 0., 1., 1., 0.,
          1.33313951e+001, 0., 0., 3.82842708e+000, 1.00936470e+001,
          3.64280281e+001, 1.48407536e+001, 7.50793600e+000,
          1.11558504e+001, 0., 1., 8.10542679e+000, 2.57449169e+001,
          5.55346603e+001, 2.47865696e+001, 24., 3.56722331e+000, 0.,
          2.58578634e+000, 9.48528099e+000, 3.24250870e+001,
          7.66754150e+001, 3.07573586e+001, 1.60710678e+001,
          1.01715727e+001, 0., 8.69398022e+000, 1.78361166e+000, 0., 1.,
          1., 2., 6.54894352e+000, 0., 2., 1., 0., 8.28427136e-001,
          7.14323807e+000, 3.73414803e+001, 2.71674633e+001, 0.,
          4.58578634e+000, 2., 1., 5.50384474e+000, 2.01638832e+001,
          4.68175545e+001, 3.46862907e+001, 0., 3.52535133e+001,
          3.42426414e+001, 1.24142132e+001, 13., 14., 2.14142132e+001,
          1.67573586e+001, 0., 7.58578634e+000, 0., 0., 0., 0.,
          4.82842731e+000, 8.17157269e+000, 0., 1.89289322e+001,
          5.82842731e+000, 1., 9.41421318e+000, 1.17157292e+000,
          7.82842731e+000, 1.82720776e+001, 0., 3.95966606e+001,
          2.71606979e+001, 1.49289322e+001, 1.54142132e+001, 0., 3., 7.,
          0., 5.64839630e+001, 7.29238892e+001, 2.37220898e+001,
          2.41421366e+000, 0., 7., 4., 0., 4.58578634e+000,
          1.41421354e+000, 1.58578646e+000, 2., 1., 6.41421366e+000,
          1.58578646e+000, 0., 1.35147190e+001, 2.40601940e+001,
          3.15255928e+001, 1.06568546e+001, 0., 0., 1.58578646e+000, 0.,
          9.05496788e+000, 2.78836784e+001, 4.53412590e+001,
          5.15223846e+001, 6.19771290e+000, 0., 0., 0., 2.49195004e+000,
          2.10490303e+001, 6.55125504e+001, 2.66260929e+001,
          3.20377231e-001, 1., 0., 0., 1.14065247e+001, 7.50384474e+000,
          0., 0., 0., 0., 1., 0., 5.41421366e+000, 3.22127914e+001,
          3.52408180e+001, 1.47179642e+001, 4.14213568e-001, 0., 0.,
          5.85786462e-001, 3.32037735e+000, 1.21649494e+001,
          5.00875168e+001, 3.78413734e+001, 2., 0., 0., 0., 0., 0., 0.,
          0., 0., 0., 0., 8.28427136e-001, 1.90294380e+001,
          6.21320343e+000, 2.92893219e+000, 0., 1.56722319e+000,
          5.41363106e+001, 2.07106781e+001, 5.85786462e-001, 0.,
          2.82364502e+001, 9.99523697e+001, 1.86396103e+001,
          1.17157292e+000, 0., 5.06425056e+001, 7.71026611e+001,
          1.61543293e+001, 7.37570333e+000, 2.72480178e+000, 0.,
          1.02720776e+001, 5.38477612e+000, 9.34314537e+000, 0.,
          1.56722319e+000, 2.80774384e+001, 1.65685425e+001,
          1.91947441e+001, 5.59205246e+000, 5.22407770e-001,
          2.77080402e+001, 2.15391045e+001, 4.17598877e+001,
          2.44705601e+001, 0., 3.39461746e+001, 2.65096684e+001,
          3.65353966e+001, 2.90087585e+001, 0., 9.68629169e+000,
          4.97056293e+000, 7.34314585e+000, 2., 0., 3.58578634e+000,
          1.24264073e+000, 2.05138874e+001, 3.06576862e+001,
          2.66503310e+000, 6.67811251e+000, 2.89949489e+000,
          1.79138508e+001, 1.48435087e+001, 4.57040834e+000,
          2.30448151e+001, 1.07695522e+001, 2.62926140e+001,
          1.13226089e+001, 0., 3.17157292e+000, 2.89949489e+000,
          1.19011784e+001, 9.02775383e+000, 6.07540083e+000,
          1.56819582e+001, 4.14213562e+000, 2.36426277e+001,
          2.24578762e+001, 2.31452227e+000, 3.34306450e+001,
          2.52670269e+001, 4.45364685e+001, 3.45133996e+000,
          4.14213568e-001, 3.16030312e+001, 3.76934357e+001,
          4.07669144e+001, 5.22407770e-001, 7.83611596e-001,
          1.07311068e+001, 5.38477612e+000, 7.83930111e+000,
          2.61203885e-001, 0., 1.75735927e+000, 9.94112587e+000,
          5.09018402e+001, 1.63996754e+001, 0., 4.68629169e+000,
          3.35513000e+001, 7.16279602e+001, 2.13444638e+000,
          7.83611596e-001, 5.96062164e+001, 4.47350655e+001,
          3.18751087e+001, 0., 0., 7.27207804e+000, 8.69848442e+000,
          1.00294371e+001, 0., 0., 1.76446609e+001, 2.07106781e+001,
          2.11222534e+001, 5.22407770e-001, 1.30601943e+000,
          5.77700996e+001, 3.06518040e+001, 6.27207804e+000, 0.,
          3.74648523e+000, 1.18761093e+002, 4.80487747e+001,
          6.44365072e+000, 0., 0., 5.68629169e+000, 6.62741709e+000,
          5.68629169e+000, 0., 7.83611596e-001, 5.42336311e+001,
          1.78111839e+001, 1.17157292e+000, 0., 2.42859077e+001,
          6.62166138e+001, 1.86396103e+001, 7.18244696e+000,
          6.75417423e-001, 4.34304771e+001, 5.63563194e+001,
          7.04163074e+000, 1.17157292e+000, 0., 2.61203885e-001,
          1.60108738e+001, 4.14213562e+000, 5.85786462e-001, 0.,
          8.44046593e+000, 5.81331291e+001, 1.28406200e+001,
          5.85786462e-001, 0., 4.59975319e+001, 4.11029739e+001,
          2.89949489e+000, 3., 0., 0., 0., 0., 0., 0., 1.04481554e+000,
          1.58130493e+001, 5.38477612e+000, 1.75735927e+000, 0.,
          2.61203885e-001, 1.50403109e+001, 1.65685425e+001,
          1.61299419e+001, 0., 0., 1.59583693e+001, 2.65096684e+001,
          6.19133377e+001, 2.16186237e+001, 1.48887920e+000,
          1.28837042e+001, 1.82253971e+001, 5.25590324e+001,
          5.18429871e+001, 5.22407770e-001, 1.60928154e+001,
          5.79898977e+000, 5.85786462e-001, 0., 1.59590359e+001,
          5.51709061e+001, 9.11269855e+000, 1.75735927e+000, 0.,
          4.79475555e+001, 7.34250259e+001, 8.69848442e+000,
          3.92893219e+000, 0., 5.09675903e+001, 7.27065048e+001,
          2.07106781e+001, 7.61522388e+000, 0., 1.05875435e+001,
          1.95840302e+001, 8.28427136e-001, 0., 0., 3.78616219e+001,
          1.67241631e+001, 8.28427136e-001, 3.59094429e+000,
          2.99484205e+000, 3.33100319e+000, 2.66899681e+000,
          1.24264073e+000, 1.93847237e+001, 3.03726349e+001, 0.,
          4.75735950e+000, 7.04163074e+000, 4.28717194e+001,
          3.93292923e+001, 1.39288750e+001, 1.02426977e+001,
          1.65685427e+000, 1.17157292e+000, 0., 1.10417194e+001,
          7.12985325e+000, 3.72792196e+000, 2.71522675e+001,
          3.49482384e+001, 5.22407770e-001, 6.74967003e+000,
          2.02964649e+001, 7.33632965e+001, 2.10681610e+001, 0.,
          1.31299419e+001, 4.80487747e+001, 1.01272621e+002,
          3.54866004e+000, 2.87324262e+000, 2.16414757e+001,
          3.31370854e+000, 1.17157292e+000, 0., 5.34071922e+000,
          4.00613022e+001, 1.44974747e+001, 8.45935345e+000,
          1.64115191e+000, 0., 4.39756126e+001, 3.27228699e+001,
          2.03648930e+001, 9.36621308e-001, 5.22407770e-001,
          5.38257904e+001, 4.68061333e+001, 2.38456707e+001, 0.,
          1.98143685e+000, 2.02906418e+001, 3.72792196e+000, 0., 0.,
          5.22407770e-001, 4.82521973e+001, 2.27817459e+001,
          7.44365072e+000, 0., 2.61203885e-001, 5.10575562e+001,
          3.68650055e+001, 2.08162346e+001, 0., 1.56722319e+000,
          8.35088959e+001, 3.81076469e+001, 1.92938251e+001,
          5.22407770e-001, 2.61203885e-001, 9.25351429e+000,
          4.55634928e+000, 2.92893219e+000, 0., 0., 1.49583693e+001,
          1.98822517e+001, 3.41593781e+001, 0., 0., 9.20100975e+000,
          1.65685425e+001, 5.95948601e+001, 3.86355858e+001, 0.,
          2.34314585e+000, 7.45584393e+000, 4.76035690e+001,
          4.75974426e+001, 2.61203885e-001, 1.34250879e+001,
          3.31370854e+000, 0., 0., 0., 5.27207804e+000, 1.57401152e+001,
          4.31516914e+001, 4.83611631e+000, 5.22407770e-001,
          3.23495150e+000, 4.14213562e+000, 3.42615089e+001,
          5.88389969e+001, 0., 0., 0., 0., 0. ]
      - [ 0., 7.78203011e+000, 2.08028054e+000, 3.59934211e+000, 0., 1.,
          1., 1.04481554e+000, 0., 1.90294380e+001, 3.38409309e+001,
          1.78869934e+001, 6., 3., 3., 1., 0., 6.49195004e+000,
          1.51242943e+001, 4.00979309e+001, 6.08979797e+001,
          1.51452084e+001, 5.82842731e+000, 1.58578646e+000, 0.,
          1.53728974e+000, 2.41421366e+000, 1.20489197e+001,
          9.70128555e+001, 9.02403870e+001, 8.96324539e+000,
          1.42047548e+000, 0., 1.55879631e+001, 2.61203885e-001, 0., 0.,
          0., 0., 0., 1.54061806e+000, 1.42218609e+001, 2.38500786e+001,
          2.67830925e+001, 1.41715727e+001, 6.01856327e+000,
          3.82842708e+000, 5.85786462e-001, 0., 1.54423218e+001,
          3.72347946e+001, 4.50275421e+001, 2.35530605e+001,
          8.71602726e+000, 8.67541790e+000, 4.96226597e+000, 0.,
          6.58578634e+000, 2.46903820e+001, 4.44057121e+001,
          7.21702271e+001, 4.94340286e+001, 1.33815889e+001,
          2.07106781e+000, 0., 5.85786462e-001, 0., 0., 0., 0., 0., 0.,
          0., 2.14986267e+001, 1.09010494e+000, 0., 0., 0.,
          1.67962277e+000, 2.58999181e+000, 0., 3.98900299e+001,
          1.62398643e+001, 8.17157269e+000, 1.41421354e+000, 2., 2.,
          2.35504031e+000, 0., 4.97833900e+001, 2.74641819e+001,
          1.98123264e+001, 1.25080500e+001, 1.80626762e+000,
          1.03653049e+001, 1., 0., 0., 0., 0., 0., 0., 0., 0., 0., 0.,
          0., 0., 0., 0., 0., 0., 0., 0., 0., 0., 0., 0., 0., 0., 0., 0.,
          0., 0., 0., 0., 0., 0., 0., 0., 0., 0., 0., 0., 0., 0., 0., 0.,
          0., 0., 0., 0., 0., 0., 0., 0., 0., 0., 0., 0., 0., 0., 0., 0.,
          0., 0., 0., 0., 0., 0., 0., 0., 0., 0., 0., 0., 0., 0., 0., 0.,
          0., 0., 0., 0., 0., 0., 0., 0., 0., 0., 0., 0., 0., 0., 0., 0.,
          0., 0., 0., 0., 0., 0., 0., 0., 0., 0., 0., 0., 0., 0., 0.,
          5.74118996e+000, 1.08121026e+000, 0., 0., 0., 0., 0., 0.,
          2.31065006e+001, 4.68281460e+000, 1., 5.85786462e-001, 0., 1.,
          0., 0., 2.71500130e+001, 6.88637543e+000, 3.80925632e+000,
          7.19074345e+000, 1.41421354e+000, 6., 2.07106781e+000, 0.,
          9.63812351e+000, 4.59231824e-001, 0., 0., 0., 0.,
          6.92759231e-002, 0., 3.11358624e+001, 1.44100780e+001,
          7.47759247e+000, 4.41421366e+000, 1., 1.15022111e+000,
          2.90616369e+000, 0., 2.24842606e+001, 3.96400337e+001,
          3.84166756e+001, 2.42688923e+001, 9.34314537e+000,
          8.82842731e+000, 1., 0., 2.36753044e+001, 5.52427521e+001,
          2.70108738e+001, 3.54488754e+001, 2.42002888e+001,
          1.78361168e+001, 1.07573595e+001, 1.09101105e+001,
          9.08988953e+000, 0., 3.21638846e+000, 7.83611596e-001,
          7.17157269e+000, 5.53015137e+001, 1.24264069e+001,
          4.10050488e+000, 0., 3.59347558e+000, 5.95953407e+001,
          2.69238815e+001, 2.16260986e+001, 2.61203885e-001,
          1.29833031e+000, 1.98316116e+001, 1.94680367e+001,
          9.61418381e+001, 4.92601776e+001, 1.34451828e+001,
          8.72638988e+000, 8.28427136e-001, 0., 0., 1.37879114e+001,
          4.62709618e+001, 1.28406200e+001, 9.57809734e+000,
          5.22407770e-001, 1.28719234e+001, 8.10448151e+001,
          1.98822517e+001, 1.77786999e+001, 2.42230964e+000,
          7.12675714e+000, 6.78904877e+001, 2.81665230e+001,
          5.67048340e+001, 2.31114006e+001, 4.14213568e-001,
          5.85786462e-001, 0., 0., 0., 2.30718250e+001, 9.92817497e+000,
          4.14213568e-001, 3.75735927e+000, 8.28427136e-001,
          3.27439537e+001, 3.58712692e+001, 8.28427124e+000,
          4.83930111e+000, 2.61203885e-001, 3.45275421e+001,
          6.10460510e+001, 1.57401152e+001, 9.57809734e+000,
          1.10819423e+000, 0., 0., 0., 0., 0., 0., 0., 0., 0., 0., 0.,
          0., 0., 0., 0., 0., 0., 0., 0., 0., 0., 0., 0., 0., 0., 0., 0.,
          0., 0., 0., 0., 0., 0., 0., 0., 0., 0., 0., 0., 0., 0., 0., 0.,
          0., 0., 0., 0., 0., 0., 0., 0., 0., 0., 0., 0., 0., 0., 0., 0.,
          0., 0., 0., 0., 0., 0., 7.17514229e+000, 5.41064405e+000,
          4.14213568e-001, 0., 0., 1.99273319e+001, 1.94158134e+001,
          2.07106781e+000, 5.85786462e-001, 0., 2.19032478e+001,
          1.84398975e+001, 4.14213562e+000, 7.73879623e+000,
          7.75922477e-001, 9.07158566e+000, 4.92841434e+000,
          4.14213568e-001, 5.85786462e-001, 0., 1.24163828e+001,
          4.92993469e+001, 1.03553391e+001, 4.41421366e+000,
          5.14718652e-001, 6.88093185e+000, 8.26510315e+001,
          2.40243874e+001, 1.54436512e+001, 0., 6.62291288e+000,
          8.01811295e+001, 4.18355713e+001, 4.24237671e+001,
          9.36621308e-001, 1.45971594e+001, 4.98862743e+000,
          1.24264073e+000, 4.12675714e+000, 1.04481554e+000,
          2.61203885e-001, 2.55550308e+001, 2.15391045e+001,
          2.31222534e+001, 5.22407770e-001, 0., 1.16152239e+001,
          1.78111839e+001, 8.92934189e+001, 1.82801743e+001,
          3.85099959e+000, 2.73478699e+000, 6.62741709e+000,
          9.93956299e+001, 9.93911667e+001, 1.64891129e+001,
          7.51088810e+000, 0., 0., 0., 5.98418617e+000, 1.07731733e+001,
          1.07695522e+001, 3.81561928e+001, 6.31689358e+000,
          2.24264073e+000, 2.40588741e+001, 2.19533195e+001,
          6.36043510e+001, 1.11408167e+001, 2.61203885e-001,
          1.00108738e+001, 1.61543293e+001, 1.02176872e+002,
          6.03967247e+001, 9.40826654e-001, 1.05917335e+000, 0., 0., 0.,
          2.90241756e+001, 9.56161022e+000, 4.14213568e-001, 0., 0.,
          3.27195702e+001, 2.81382961e+001, 9.52691174e+000,
          1.16152239e+001, 0., 3.02448139e+001, 3.46424866e+001,
          1.69827557e+001, 2.96786022e+001, 1.45133996e+000, 0., 0., 0.,
          0., 0., 0., 0., 0., 0., 0., 0., 0., 0., 0., 0., 0., 0., 0., 0.,
          0., 0., 0., 0., 0., 0., 0., 0., 0., 0., 0., 0., 0., 0., 0., 0.,
          0., 0., 0., 0., 0., 0., 0., 0., 0., 0., 0., 0., 0., 0., 0., 0.,
          0., 0., 0., 0., 0., 0., 0., 0., 0., 0., 0., 0., 0., 0.,
          1.21436872e+001, 5.44209909e+000, 4.14213568e-001, 0., 0.,
          2.60738068e+001, 1.60977669e+001, 1.24264073e+000,
          1.32458258e+000, 2.61203885e-001, 2.18807297e+001,
          1.62197742e+001, 3.72792196e+000, 1.09737473e+001,
          1.19782519e+000, 1.31902466e+001, 5.80975342e+000, 0., 0., 0.,
          2.69671421e+001, 3.66480827e+001, 6.62741709e+000,
          1.19737473e+001, 7.83611596e-001, 2.08963108e+000,
          2.71408157e+001, 2.89949493e+001, 6.11625633e+001,
          2.61203885e+000, 0., 3.66030312e+001, 3.72792206e+001,
          6.86958466e+001, 5.42190266e+000 ]
      - [ 0., 0., 2., 0., 2., 0., 3., 0., 0., 4.69518328e+000,
          1.70188465e+001, 1.40167131e+001, 1.23623877e+001,
          9.06870484e-001, 6., 4.58578634e+000, 0., 2.38443108e+001,
          1.47414274e+001, 6.14667034e+000, 2.72606411e+001,
          3.69912987e+001, 8.15139866e+000, 3.49195004e+000, 0., 1., 1.,
          0., 1.87656364e+001, 2.97108803e+001, 5.23482800e-001, 1., 0.,
          0., 1., 0., 2., 2., 3., 1., 0., 1.31715727e+001, 13., 5., 5.,
          0., 0., 2., 0., 1.58578646e+000, 3., 4.80626774e+000,
          9.61497688e+000, 4.71638412e+001, 4.86720276e+001,
          1.43286753e+001, 0., 0., 0., 5.25200784e-001, 6.46964645e+001,
          5.05159531e+001, 7.26237965e+000, 0., 0., 0., 1., 0., 8., 3.,
          1., 0., 0., 1., 2., 5., 27., 7., 6., 1.80626762e+000, 0.,
          4.14213568e-001, 0., 0., 4., 5., 3.07765293e+001,
          3.37234879e+001, 0., 6.44808054e+000, 1., 0., 4., 7.,
          8.41421318e+000, 1.36311579e+001, 0., 0., 0., 1., 11., 3., 2.,
          0., 0., 2.58228803e+000, 3., 2., 10., 1., 2.67541742e+000,
          2.69494305e+001, 0., 0., 0., 0., 0., 0., 1.58578646e+000,
          6.24810028e+000, 0., 0., 0., 0., 0., 0., 0., 0., 0.,
          2.58578634e+000, 4.41421366e+000, 6., 6., 0., 4., 1., 0.,
          4.79688120e+000, 1.18754063e+001, 1.57563915e+001,
          4.99168587e+000, 1.41421354e+000, 5.63469458e+000,
          2.09037800e+001, 0., 1.97800875e+000, 7.09945488e+000,
          2.66241932e+001, 6.67722797e+000, 2.17157292e+000,
          4.37388134e+000, 4.26058388e+001, 0., 5.36768627e+000,
          3.59468699e+000, 0., 0., 0., 0., 1.08259273e+000,
          1.12631011e+000, 2.94039941e+000, 4.46114492e+000,
          3.88635874e+000, 5., 2., 2., 1.58578646e+000, 0.,
          4.01320410e+000, 2.84971786e+000, 1.51217794e+001,
          1.05088634e+001, 1.51964009e+000, 2.24264073e+000,
          2.42751789e+001, 0., 4.60737658e+000, 0., 1.34944353e+001,
          2.42878723e+001, 2.21769261e+000, 3., 2.88972092e+001, 0.,
          1.65968571e+001, 1.94140301e+001, 1.08287783e+001,
          6.70772028e+000, 2.32458258e+000, 1.91805816e+000,
          9.84728050e+000, 0., 4., 1.67962277e+000, 1.32037723e+000, 2.,
          1., 2., 4., 0., 1.40897055e+001, 6.35168552e+000,
          8.27160931e+000, 1.86092567e+001, 2.14967656e+000, 1.,
          7.51471853e+000, 0., 1.19113283e+001, 0., 5.89292145e+000,
          5.41945610e+001, 4.91251612e+000, 0., 5.17370129e+000, 0.,
          1.08388186e+001, 1.34223042e+001, 2.26749897e+001,
          4.29814377e+001, 5.88051176e+000, 1.58578646e+000,
          5.47766304e+000, 0., 2., 3., 0., 1., 5., 5., 1., 0., 2., 0.,
          4.25141239e+000, 3.78585396e+001, 6.89004850e+000, 1., 3., 0.,
          1.45680084e+001, 1.04472437e+001, 0., 1.23826141e+001,
          4.61738586e+000, 1., 0., 0., 2.71219063e+000, 1.31459875e+001,
          6.97507238e+000, 9.09077263e+000, 2.03604293e+000,
          2.03993344e+000, 1.58578646e+000, 0., 1.17157292e+000,
          1.65685427e+000, 2.17157292e+000, 0., 2.02576694e+001,
          1.65291271e+001, 1.03553391e+001, 8.85786438e+000, 0.,
          1.66376152e+001, 2.28354721e+001, 1.61543293e+001,
          2.22391357e+001, 3.11334476e+001, 2.61203885e-001,
          1.32458258e+000, 1.24264073e+000, 1.29527159e+001,
          2.72188568e+001, 0., 5.85786462e-001, 2.89949489e+000,
          3.51471853e+000, 0., 0., 1.87451668e+001, 1.40832615e+001,
          1.17157292e+000, 0., 0., 6.44365072e+000, 1.98822517e+001,
          7.29679718e+001, 2.67061272e+001, 0., 3.92893219e+000,
          1.61543293e+001, 4.55910339e+001, 2.43257065e+001, 0.,
          5.85786462e-001, 2.07106781e+000, 2.34314585e+000, 0., 0.,
          4.68629169e+000, 9.52691174e+000, 9.52559280e+000,
          2.61203885e-001, 0., 5.85786462e-001, 1.32548342e+001,
          4.98221130e+001, 3.03372669e+001, 7.88062525e+000,
          1.18767338e+001, 1.11837664e+001, 2.01712418e+001,
          6.88763380e+000, 0., 5.85786462e-001, 2.48528147e+000,
          2.92893219e+000, 0., 0., 5.85786438e+000, 1.07695522e+001,
          2.43663349e+001, 2.30062485e+001, 0., 0., 4.14213568e-001,
          7.82659054e+000, 7.75919580e+000, 0., 0., 0., 0., 0., 0.,
          8.85786438e+000, 6.21320343e+000, 2.92893219e+000, 0.,
          2.34574852e+001, 1.14714460e+001, 6.21320343e+000,
          1.94723282e+001, 1.83855362e+001, 3.01256027e+001,
          9.46018314e+000, 3.31370854e+000, 2.63077412e+001,
          3.97927628e+001, 9.08810234e+000, 2.91189766e+000,
          4.14213568e-001, 1.13477051e+000, 1.45101583e+000,
          4.75705671e+000, 6.00030231e+000, 3.72792196e+000,
          3.51471853e+000, 0., 2.13843842e+001, 1.73729763e+001,
          9.52691174e+000, 3.39688377e+001, 4.74689198e+000,
          2.19394436e+001, 1.85752754e+001, 1.20121937e+001,
          4.15203362e+001, 2.59527531e+001, 4.51918411e+001,
          1.83939457e+001, 2.89949489e+000, 2.29498672e+001,
          3.56485200e+000, 4.14213568e-001, 4.10050488e+000,
          5.38477612e+000, 4.10050488e+000, 0., 2.41038303e+001,
          2.11682472e+001, 9.52691174e+000, 1.22010098e+001, 0.,
          2.54369259e+001, 2.46635799e+001, 1.07695522e+001,
          1.92739887e+001, 5.85595369e+000, 5.01387749e+001,
          2.16185837e+001, 6.62741709e+000, 1.52931032e+001,
          6.32212019e+000, 0., 2.92893219e+000, 6.62741709e+000,
          6.44365072e+000, 0., 3.81610298e+000, 9.87018871e+000,
          6.21320343e+000, 1.09710217e+001, 9.12948322e+000,
          2.02538719e+001, 6.74612713e+000, 4.14213568e-001,
          4.37176752e+000, 7.21401882e+000, 1.90243397e+001,
          6.14723349e+000, 1.24264073e+000, 3.78097892e+000,
          2.80480766e+000, 0., 1.17157292e+000, 1.65685427e+000,
          1.17157292e+000, 0., 2.93670416e+000, 1.48500929e+001,
          9.52691174e+000, 1.01975822e+001, 1.64887085e+001,
          1.67311802e+001, 2.25703354e+001, 1.86396103e+001,
          2.74975948e+001, 3.55612793e+001, 0., 1.17157292e+000,
          1.24264073e+000, 1.38326912e+001, 3.47530937e+001, 0.,
          1.75735927e+000, 2.89949489e+000, 2.34314585e+000, 0., 0.,
          2.37451668e+001, 1.73969688e+001, 5.85786438e+000, 0.,
          5.22407770e-001, 2.09506798e+001, 2.60954552e+001,
          4.36766777e+001, 1.77547798e+001, 0., 0., 9.11269855e+000,
          5.95944405e+001, 5.02928619e+001, 0., 0., 4.55634928e+000,
          6.44365072e+000, 0., 1.36449754e+000, 5.56443453e+000,
          1.82253971e+001, 2.28456707e+001, 0., 4.29575233e+001,
          2.65866337e+001, 1.11837664e+001, 5.27207804e+000, 0.,
          3.45966988e+001, 2.71190300e+001, 1.28406200e+001,
          6.44365072e+000, 0., 0., 5.85786462e-001, 6.62741709e+000,
          8.78679657e+000, 0., 3.58738861e+001, 2.32266197e+001,
          7.45584393e+000, 8.44365120e+000, 0., 1.67599773e+001,
          7.24002266e+000, 0., 0., 0., 0., 0., 0., 0., 0., 0.,
          4.92893219e+000, 6.62741709e+000, 7.44365072e+000, 0.,
          3.00420227e+001, 1.68869095e+001, 5.38477612e+000,
          1.07313786e+001, 1.49549131e+001, 5.37668953e+001,
          2.29904633e+001, 2.89949489e+000, 9.71984291e+000,
          2.66233025e+001, 1.38512506e+001, 4.14874983e+000, 0., 0., 0.,
          1.60855496e+000, 4.14880419e+000, 5.79898977e+000,
          8.59666061e+000, 8.46990287e-001, 2.94992332e+001,
          2.68733482e+001, 7.45584393e+000, 6.30302048e+000,
          2.18685532e+001, 6.69930344e+001, 3.79358978e+001,
          2.48528147e+000, 7.72063160e+000, 3.18651543e+001,
          5.49803391e+001, 2.19485931e+001, 2.89949489e+000,
          8.50668335e+000, 1.56648893e+001, 0., 8.20100975e+000,
          7.87005758e+000, 2.92893219e+000, 0., 2.08335361e+001,
          3.16101151e+001, 5.38477612e+000, 8.20974827e+000,
          2.19618244e+001, 3.57106094e+001, 3.85614662e+001,
          4.14213562e+000, 9.55282211e+000, 5.50329628e+001,
          2.19429302e+001, 1.41575747e+001, 3.31370854e+000,
          1.40406837e+001, 5.95451012e+001, 0., 2.92893219e+000,
          4.55634928e+000, 3.51471853e+000, 0., 2.61203885e-001,
          1.26971655e+001, 8.28427124e+000, 8.87960815e+000,
          3.88777504e+001, 1.77516899e+001, 6.24831009e+000, 0.,
          3.07782221e+000, 1.39221773e+001, 4.46788740e+000,
          4.28947210e+000, 1.65685427e+000, 4.97899103e+000,
          1.66067944e+001 ]
      - [ 0., 3.31142974e+000, 1.71614015e+000, 1.69807351e+000, 0.,
          2.32037735e+000, 4.22009993e+000, 1.19178371e+001,
          5.20185089e+000, 6.85722208e+000, 1.84674492e+001,
          3.08725281e+001, 2.60883884e+001, 4.11705589e+000,
          6.04957104e-001, 3.79054666e+000, 0., 2.49747467e+000,
          5.47760534e+000, 9.93396473e+000, 3.34892387e+001,
          1.02327271e+001, 7.95477676e+000, 1.41421354e+000, 0.,
          3.94586067e+001, 0., 0., 0., 0., 2.41421366e+000,
          1.87828903e+001, 0., 5.69847250e+000, 1.07415152e+001,
          2.55695319e+000, 2.93199158e+000, 3.75069046e+000,
          2.62782335e+000, 1.69255388e+000, 6.75417423e-001,
          3.13361198e-001, 1.66404591e+001, 1.91277199e+001,
          2.23343582e+001, 1.36759911e+001, 1.37365370e+001,
          6.49615526e+000, 0., 3.78729272e+000, 6.37974262e+000,
          3.06631660e+001, 3.76951027e+001, 3.22156563e+001,
          1.84193897e+001, 1.61143742e+001, 0., 0., 1.42178237e+000,
          9.67420101e+000, 2.66570511e+001, 3.55914650e+001,
          3.74797630e+001, 2.02551627e+000, 7.40845144e-001,
          6.96886492e+000, 8.73909283e+000, 9.16609383e+000,
          1.89982188e+000, 1.48528135e+000, 2.73879623e+000,
          2.61203885e-001, 0., 2.76142101e+001, 1.14504662e+001,
          3.04529977e+000, 8.33870029e+000, 4.27258921e+000,
          7.12994957e+000, 6.96566200e+000, 0., 1.91507568e+001,
          1.65913887e+001, 7.37653160e+000, 9.38970280e+000,
          6.72269630e+000, 1.31494551e+001, 3.81769791e+001, 0.,
          2.13388729e+000, 2.70325351e+000, 4.17902851e+000,
          1.83930123e+000, 9.27261114e-001, 1.95896301e+001,
          3.09958458e+001, 0., 7.42290735e+000, 3.55679965e+000,
          1.84977889e+000, 1.15022111e+000, 1., 1.41421354e+000, 2., 0.,
          1.28778028e+000, 2., 0., 0., 0., 1., 1.68074355e-001, 0., 0.,
          1., 0., 0., 0., 0., 0., 0., 0., 0., 0., 0., 0., 0., 0., 0.,
          4.55777979e+000, 5.38930845e+000, 2., 3., 1., 1.,
          3.20377231e-001, 0., 1., 1., 0., 0., 0., 0., 1., 0., 0., 0.,
          0., 0., 0., 0., 0., 0., 0., 0., 0., 0., 0., 0., 0., 0.,
          5.56687212e+000, 1., 0., 0., 0., 0., 1.19013608e+000, 0.,
          1.17157292e+000, 4.14213568e-001, 0., 0., 0., 0., 0., 0., 0.,
          0., 0., 0., 0., 0., 0., 0., 0., 0., 0., 0., 0., 0., 0.,
          4.74109364e+000, 7.01512861e+000, 2.99770308e+000,
          4.84259033e+000, 5.69458818e+000, 1.75735927e+000, 1.,
          3.95153689e+000, 0., 2.08967495e+001, 1.16475477e+001,
          6.16068840e+000, 3.52240777e+000, 3., 2.65685415e+000,
          5.51471853e+000, 0., 2.75528660e+001, 9.77592278e+000, 0., 2.,
          2.58578634e+000, 5.61624384e+000, 6.86842966e+000, 0.,
          1.89787788e+001, 9.60435009e+000, 3., 1., 0., 3.,
          1.06568546e+001, 0., 3.73459077e+000, 8.35793114e+000,
          8.34783173e+000, 4.92135572e+000, 1.21987224e+000, 0., 0., 0.,
          5.65543747e+000, 1.22895069e+001, 1.94801426e+001,
          1.70452290e+001, 9.94389725e+000, 1.44142132e+001,
          5.58578634e+000, 0., 4.41421366e+000, 5., 5.17157269e+000,
          2.26754169e+001, 2.71824474e+001, 4.40601921e+001,
          1.57387962e+001, 0., 5.96113157e+000, 2., 0., 3.67541742e+000,
          1.32458258e+000, 1.75038452e+001, 7.16578751e+001,
          3.43318367e+000, 4.56681633e+000, 1.65685427e+000,
          1.15844517e+001, 9.75869465e+000, 3.87659912e+001,
          3.15060863e+001, 4.55634928e+000, 9.56586742e+000,
          7.60570574e+000, 8.08173370e+000, 1.11903439e+001,
          8.28427124e+000, 1.73186722e+001, 6.12497950e+000,
          5.22407770e-001, 5.25242729e+001, 3.81076469e+001,
          2.65844669e+001, 2.61203885e-001, 1.36868763e+001,
          5.07048273e+000, 2.07106781e+000, 6.32519007e+000,
          1.84638286e+000, 2.63610115e+001, 1.61537075e+001,
          7.04163074e+000, 2.83793755e+001, 1.00642748e+001,
          2.34309998e+001, 2.92552929e+001, 9.11269855e+000,
          3.85588188e+001, 4.06421890e+001, 8.76179981e+000,
          8.99555969e+000, 3.72792196e+000, 2.24440536e+001,
          5.90706673e+001, 1.87353401e+001, 7.26465988e+000,
          4.14213568e-001, 2.97723150e+000, 1.60855496e+000,
          3.32191467e+001, 2.24671421e+001, 4.55634928e+000,
          9.88265419e+000, 9.87470531e+000, 2.50437088e+001,
          2.72283688e+001, 7.87005758e+000, 3.53525200e+001,
          3.35053444e+001, 6.34857988e+000, 6.65142012e+000,
          4.14213568e-001, 1.70865517e+001, 4.44992332e+001,
          5.93702793e+000, 1.08203316e+001, 1.24264073e+000,
          4.47759247e+000, 5.22407770e-001, 5.22407770e-001,
          3.06337857e+000, 8.28427136e-001, 1.58578646e+000, 0., 0.,
          5.85786462e-001, 4.14213568e-001, 0., 0., 0., 0., 0., 0., 0.,
          3.16110563e+000, 8.59625340e+000, 1.65685427e+000,
          1.68588471e+000, 8.99901807e-001, 2.61203885e-001,
          1.73879611e+000, 0., 7.38796115e-001, 2.61203885e-001, 0., 0.,
          0., 0., 0., 0., 0., 0., 0., 0., 1.56763005e+000,
          6.60394287e+000, 1.24264073e+000, 2.32458258e+000,
          2.61203885e-001, 2.61203885e-001, 1.73879611e+000, 0., 0., 0.,
          0., 0., 0., 0., 0., 0., 0., 0., 0., 0., 6.72913313e+000,
          1.01997986e+001, 3.31370854e+000, 7.33504963e+000,
          2.42230964e+000, 1.06896076e+001, 2.83398304e+001,
          7.04163074e+000, 9.66772842e+000, 2.61203885e-001,
          3.68629146e+000, 3.10294380e+001, 1.24264069e+001,
          1.16600389e+001, 1.19782519e+000, 1.88411665e+000,
          2.73463306e+001, 1.73969688e+001, 9.37258339e+000, 0.,
          4.84811878e+000, 1.54239597e+001, 4.14213562e+000,
          2.17157292e+000, 4.14213568e-001, 8.12613487e+000,
          3.13175163e+001, 1.28406200e+001, 2.44097099e+001,
          1.30601943e+000, 0., 1.07867966e+001, 2.73380947e+001,
          6.75242767e+001, 1.35083485e+000, 0., 7.02943707e+000,
          4.72203445e+001, 9.02278061e+001, 5.22407770e-001,
          1.33439903e+001, 1.04133692e+001, 2.07106781e+000,
          4.50384474e+000, 1.66772830e+000, 1.07850838e+001,
          1.09722757e+001, 2.48528147e+000, 2.60651302e+001,
          4.26922302e+001, 6.38697922e-001, 8.39073944e+000,
          1.03553391e+001, 2.82637424e+001, 2.33514824e+001,
          5.05287781e+001, 1.32358521e+002, 9.11269855e+000, 0., 0.,
          6.78852797e+000, 7.55461788e+000, 2.48528147e+000,
          4.88865328e+000, 4.28291988e+000, 1.03712642e+000,
          8.47759247e+000, 5.79898977e+000, 3.58024216e+001,
          3.38838692e+001, 6.03157187e+000, 2.14831467e+001,
          7.04163074e+000, 4.37268829e+001, 6.77167664e+001,
          2.08963108e+000, 4.08194208e+000, 4.14213562e+000,
          3.50730782e+001, 5.86132126e+001, 7.38373423e+000,
          4.20205212e+000, 1.65685427e+000, 7.18277550e+000,
          8.57458401e+000, 4.21736526e+001, 2.43410664e+001,
          4.97056293e+000, 1.46364107e+001, 5.87830830e+000,
          5.99299431e+001, 3.85137062e+001, 8.69848442e+000,
          2.34807777e+001, 3.37708712e+000, 4.88388290e+001,
          1.91611729e+001, 1.24264073e+000, 6.27936029e+000,
          3.47799921e+000, 8.71868324e+000, 1.14528894e+001,
          8.28427136e-001, 2.29514527e+000, 1.70485473e+000,
          2.43665791e+000, 5.73491478e+000, 8.28427136e-001, 0., 0., 0.,
          5.85786462e-001, 4.14213568e-001, 0., 0., 0., 0., 0., 0., 0.,
          2.81027079e+000, 6.53287506e+000, 2.07106781e+000,
          4.16347694e+000, 1.42230952e+000, 1.42230952e+000,
          4.57769060e+000, 0., 0., 0., 0., 0., 0., 0., 0., 0., 0., 0.,
          0., 0., 6.07187223e+000, 8.51391411e+000, 4.14213568e-001, 0.,
          0., 5.85786462e-001, 2., 4.14213568e-001, 0., 0., 0., 0., 0.,
          0., 0., 0., 0., 0., 0., 0., 9.20815468e+000, 8.37763214e+000,
          4.14213568e-001, 1.07125435e+001, 2.28745627e+000,
          7.11178589e+000, 2.86750107e+001, 9.94112587e+000,
          1.04884663e+001, 7.83611596e-001, 5.24582577e+000,
          4.69846230e+001, 1.24264069e+001, 3.34314585e+000, 0.,
          7.73879623e+000, 5.24500198e+001, 1.94680367e+001,
          2.34314585e+000, 0., 1.90235579e+000, 5.26921701e+000,
          3.31370854e+000, 1.12176199e+001, 4.29709816e+000,
          6.75417423e-001, 1.38687382e+001, 1.90538235e+001,
          3.62389984e+001, 8.16302204e+000, 7.83611596e-001,
          2.56184082e+001, 3.02375908e+001, 4.00543709e+001,
          1.30601943e+000, 3.01728916e+001, 1.38773285e+002,
          2.02964649e+001, 3.49615550e+000, 2.61203885e-001 ]
      - [ 0., 3., 4.41421366e+000, 5.85786462e-001, 3.94082665e+000,
          5.96533728e+000, 5.09383631e+000, 6.47759247e+000, 0.,
          1.34624186e+001, 1.26506205e+001, 1.76413670e+001,
          1.94256268e+001, 4.63829088e+000, 3., 6.44497347e+000, 0.,
          9.12194443e+000, 7.08963108e+000, 4.86529970e+000,
          6.25889320e+001, 1.35457697e+001, 3.08963108e+000,
          1.36677284e+001, 0., 0., 0., 0., 5.70539570e+000,
          1.29460418e+000, 0., 0., 0., 1.58578646e+000, 2., 3., 4.,
          1.58578646e+000, 3.41421366e+000, 1.84699035e+000, 0.,
          9.58578682e+000, 4., 5.17157269e+000, 1.36312094e+001,
          9.78300381e+000, 1.14142132e+001, 2.58578634e+000, 0.,
          2.66862907e+001, 3.10710678e+001, 7.75735950e+000,
          2.34096889e+001, 8.00452518e+000, 14., 1.17573595e+001, 0., 1.,
          4., 4.32037735e+000, 4.54960594e+001, 6.26478500e+001,
          2.43641396e+001, 1.37573595e+001, 2.65685415e+000,
          6.25351477e+000, 2.50384450e+000, 4.14213568e-001,
          4.58578634e+000, 7.91036892e+000, 4.08963108e+000,
          1.58578646e+000, 0., 3., 8.08963108e+000, 2.05780964e+001,
          1.95749130e+001, 1.27573595e+001, 11., 5., 0., 9.58578682e+000,
          1.38098640e+001, 1.07759228e+001, 1.32426405e+001,
          1.29289322e+001, 1.31727238e+001, 2.80689354e+001, 0.,
          5.22407770e-001, 5., 1., 5., 6., 1.29523268e+001,
          3.03688908e+001, 0., 1., 1.26754179e+001, 3.73879623e+000, 4.,
          1.17157292e+000, 1.82842708e+000, 2.58578634e+000, 0.,
          1.25287457e+001, 1.21220675e+001, 2.40980148e+001,
          1.81098766e+001, 3.54506373e+000, 1.56443465e+000,
          4.33120346e+000, 0., 2.92865539e+000, 1., 4.90370035e+000,
          2.09629965e+000, 4.14213568e-001, 6.03597641e+000,
          4.27304611e+001, 0., 0., 0., 0., 0., 0., 0., 0., 0., 2.,
          3.67541742e+000, 5.45902920e+000, 8.45133972e+000,
          6.24264050e+000, 3.58578634e+000, 1.58578646e+000, 0.,
          6.67921686e+000, 4.76095438e+000, 8.40904808e+000,
          1.09305029e+001, 9.13024139e+000, 8.14733028e+000,
          2.36675186e+001, 0., 1.63250141e+001, 1.54656897e+001,
          2.25939846e+001, 1.47557907e+001, 2.42610812e+000,
          1.19647789e+000, 1.62058716e+001, 0., 2.22485256e+000, 1., 0.,
          0., 0., 0., 1.57180989e+000, 0., 1.17157292e+000,
          3.01917076e+000, 1.98082936e+000, 8.28427136e-001,
          2.91036892e+000, 5.29675674e+000, 9.53167057e+000, 0.,
          2.00237155e+000, 4.62679577e+000, 1.70901127e+001,
          2.78448124e+001, 1.87260971e+001, 7.65337038e+000,
          4.73879623e+000, 0., 2.81177197e+001, 1.91525784e+001,
          1.65063210e+001, 1.42235870e+001, 5.53070688e+000,
          3.20377231e-001, 4.41277647e+000, 0., 0., 0., 0., 0., 0., 0.,
          0., 0., 3.05917335e+000, 2.08963108e+000, 5.95927715e+000,
          6.48069334e+000, 2.31738853e+000, 2.92226338e+000,
          4.26427460e+000, 0., 8.77348232e+000, 1.91037965e+000,
          1.50292625e+001, 2.85700760e+001, 8.41214275e+000,
          8.79909229e+000, 8.22482777e+000, 1.65571216e-002,
          8.30716038e+000, 1.20248518e+001, 8.63513756e+000,
          6.01629210e+000, 0., 0., 0., 0., 0., 0., 0., 0., 0., 0., 0.,
          1.09383631e+000, 5.64495993e+000, 6.58578634e+000,
          4.19227266e+000, 4.12082863e+000, 2.68689895e+000,
          3.26120377e+000, 4.14213568e-001, 0., 1.33192940e+001,
          2.57900167e+000, 1.05206642e+001, 2.36330738e+001,
          8.46261501e-001, 0., 5.85786462e-001, 0., 1.28328590e+001,
          1.32203236e+001, 4.19540071e+000, 2.43456364e+001,
          7.54794061e-001, 2.61203885e-001, 3.12777781e+000, 0., 0., 0.,
          0., 0., 0., 0., 0., 2.61203885e-001, 6.08194208e+000,
          4.55634928e+000, 1.49026794e+001, 1.19782519e+000,
          2.06365585e+001, 3.32507439e+001, 1.40832615e+001,
          1.20667639e+001, 2.96267295e+000, 2.65685415e+000,
          2.73725834e+001, 1.11837664e+001, 3.01994343e+001,
          2.25873623e+001, 0., 0., 0., 1.01080477e+000, 1.98919523e+000,
          0., 4.10050488e+000, 5.38477612e+000, 5.51471853e+000, 0., 0.,
          1.17157288e+001, 1.53259020e+001, 1.84359608e+001,
          5.22407770e-001, 0., 4.74608955e+001, 3.43797264e+001,
          2.19497490e+001, 3.20963144e+000, 0., 7.68629169e+000,
          2.02964649e+001, 7.16038361e+001, 4.14134102e+001,
          2.61203885e-001, 8.25351429e+000, 5.79898977e+000,
          1.24250879e+001, 2.61203885e-001, 2.61203885e-001,
          2.37976704e+001, 1.94680367e+001, 2.04730873e+001, 0.,
          9.28932190e-001, 2.51299419e+001, 1.90538235e+001,
          3.30321655e+001, 2.88551350e+001, 0., 4.68629169e+000,
          1.28406200e+001, 2.94152126e+001, 3.10578747e+001,
          5.22407770e-001, 1.25070295e+001, 6.62741709e+000,
          4.34314585e+000, 0., 1.52037392e+001, 3.36835632e+001,
          1.15979795e+001, 8.78115273e+000, 3.73356557e+000,
          4.56280804e+000, 1.10229788e+001, 1.65685427e+000,
          1.72509289e+001, 4.75064316e+001, 0., 0., 0., 0., 0.,
          5.22407770e-001, 1.14065247e+001, 5.38477612e+000,
          8.74967003e+000, 9.36621308e-001, 1.60302448e+001,
          9.55554199e+000, 4.14213562e+000, 2.90377541e+001,
          2.32343235e+001, 5.29757423e+001, 1.97816162e+001,
          2.07106781e+000, 1.45946016e+001, 1.95769711e+001,
          3.31377935e+000, 1.68622077e+000, 0., 1.07810378e+000,
          1.92189622e+000, 4.14213568e-001, 4.92893219e+000,
          3.72792196e+000, 1.30896311e+001, 3.83930111e+000,
          1.82182846e+001, 1.52964344e+001, 8.69848442e+000,
          2.97682343e+001, 3.01856327e+000, 5.79029121e+001,
          1.90970879e+001, 4.14213568e-001, 1.05414953e+001,
          5.04429102e+000, 0., 0., 0., 0., 0., 6.75417423e-001,
          1.14250879e+001, 6.62741709e+000, 1.03431454e+001,
          9.28932190e-001, 2.04846134e+001, 2.13732510e+001,
          7.87005758e+000, 2.36409607e+001, 8.63111687e+000,
          2.64953594e+001, 5.50464010e+000, 0., 0., 0., 0., 0., 0., 0.,
          0., 3.37258291e+000, 1.27279224e+001, 4.14213562e+000,
          6.23495150e+000, 5.22407770e-001, 3.18074245e+001,
          1.57783623e+001, 1.24264073e+000, 4.24264050e+000,
          9.28932190e-001, 2.38960762e+001, 1.04470701e+001,
          4.97056293e+000, 1.41638842e+001, 5.22407770e-001, 0., 0., 0.,
          0., 0., 7.83611596e-001, 8.31689358e+000, 6.62741709e+000,
          8.07425308e+000, 1.19782519e+000, 1.64729786e+001,
          2.03848858e+001, 9.94112587e+000, 2.40419884e+001,
          1.61590214e+001, 5.07106781e+000, 3.39583702e+001,
          6.62741709e+000, 1.41311064e+001, 6.52120361e+001, 0., 0., 0.,
          1.92584956e+000, 5.07415056e+000, 7.75922477e-001,
          1.03245821e+001, 6.62741709e+000, 5.27207804e+000, 0., 0.,
          2.14730873e+001, 1.53259020e+001, 2.14807777e+001,
          1.72023296e+000, 0., 4.12893219e+001, 3.23086586e+001,
          2.35735607e+001, 4.82845926e+000, 0., 1.77157288e+001,
          1.90538235e+001, 5.26249199e+001, 5.56055298e+001,
          2.61203885e-001, 1.00819416e+001, 4.14213562e+000,
          1.05780973e+001, 9.36621308e-001, 0., 9.20100975e+000,
          1.98822517e+001, 3.96555367e+001, 2.61203885e-001,
          3.78883209e+001, 2.55847683e+001, 2.40243874e+001,
          2.58271084e+001, 6.75417423e-001, 4.14009476e+001,
          1.74569168e+001, 6.62741709e+000, 8.99231052e+000,
          5.22407770e-001, 0., 2.92893219e+000, 4.55634928e+000,
          7.25351477e+000, 2.61203885e-001, 9.67722893e+000,
          2.18374901e+001, 8.69848442e+000, 3.05642281e+001,
          1.52225685e+001, 6.27776108e+001, 1.62223911e+001,
          4.14213568e-001, 4.78042650e+000, 2.80535984e+000, 0., 0., 0.,
          0., 0., 0., 2.34314585e+000, 4.97056293e+000, 1.57759228e+001,
          2.91036892e+000, 3.97853737e+001, 1.65577736e+001,
          3.72792196e+000, 1.97408085e+001, 1.11881227e+001,
          5.53593178e+001, 1.53980417e+001, 1.24264073e+000,
          1.31187029e+001, 2.98812981e+001, 1.02274208e+001,
          3.77257919e+000, 0., 0., 0., 1.72023296e+000, 1.39660587e+001,
          4.14213562e+000, 5.64916515e+000, 5.22407770e-001,
          3.59785056e+000, 9.84580040e+000, 9.94112587e+000,
          4.02999153e+001, 2.53153057e+001, 3.90635757e+001,
          1.19364233e+001, 8.28427136e-001, 1.41568508e+001,
          2.60147228e+001, 0., 0., 0., 0., 0., 3.08234882e+000,
          8.84658337e+000, 3.72792196e+000, 1.00738459e+001,
          4.26929998e+000, 1.85526352e+001, 1.35478687e+001,
          7.04163074e+000, 2.34271259e+001, 2.84307384e+001,
          8.87346268e+000, 3.29811001e+000, 8.28427136e-001,
          2.96597838e+000, 1.30340214e+001, 0., 0., 0., 0., 0.,
          6.75417423e-001, 5.66772842e+000, 4.14213562e+000,
          8.92594337e+000, 2.58877516e+000, 2.23521309e+001,
          8.64786816e+000, 0., 4.97405386e+000, 3.00259457e+001,
          1.51349335e+001, 1.10366392e+001, 1.24264073e+000,
          4.95154953e+000, 2.66342373e+001, 0., 0., 0., 0., 0. ]
      - [ 0., 0., 0., 0., 0., 0., 0., 0., 0., 2.60837030e+000, 0.,
          5.25452308e-002, 1.52969036e+001, 2.23633718e+000,
          5.48528147e+000, 1.35111265e+001, 0., 0., 0., 8.13061237e+000,
          5.04249573e+001, 1.44443071e+000, 2., 1., 0., 6.21902122e+001,
          2.21798744e+001, 4.94975042e+000, 1.07794065e+001, 1., 0.,
          1.15300965e+000, 0., 0., 0., 0., 0., 0., 0., 0., 0.,
          1.95641537e+001, 3.01518841e+001, 1.11368179e+001,
          8.50384426e+000, 1., 0., 0., 0., 1., 5., 6.49963188e+000,
          6.72282867e+001, 4.04317551e+001, 2.08403225e+001,
          3.75735927e+000, 0., 1.25857868e+001, 4.98209991e+001,
          3.14098587e+001, 3.35341911e+001, 2.13126888e+001,
          1.73364773e+001, 2., 0., 0., 0., 0., 2., 0., 0., 0.,
          5.09061623e+000, 6.22504187e+000, 1.55924711e+001,
          1.66668091e+001, 1.72135906e+001, 3.88787484e+000,
          6.07106781e+000, 1.42525291e+001, 0., 1., 1., 0., 0., 3.,
          2.58175526e+001, 3.84612389e+001, 0., 4.62732697e+000, 0., 4.,
          13., 4., 1.05857868e+001, 1.15292330e+001, 0., 0., 0.,
          4.43000364e+000, 7.56999636e+000, 0., 0., 0., 0.,
          4.11408949e+000, 2.89398837e+000, 9.04199219e+000,
          7.71322250e+000, 2.01723409e+000, 1.99300611e+000,
          2.16555786e+001, 0., 0., 0., 0., 0., 0., 0., 7.03599691e-001,
          0., 0., 0., 0., 0., 0., 0., 0., 0., 0., 0., 1., 0., 0., 0., 0.,
          0., 3.03824210e+000, 1.05652666e+001, 3.26876378e+000,
          1.27727702e-001, 0., 0., 0., 0., 0., 0., 0., 0., 0., 0., 0.,
          0., 0., 0., 0., 0., 0., 0., 0., 0., 0., 0., 0., 0., 0., 0., 0.,
          0., 0., 0., 0., 0., 0., 0., 0., 0., 0., 0., 0., 0., 0., 0., 0.,
          0., 0., 0., 0., 0., 0., 0., 0., 0., 0., 0., 0., 0., 0., 0., 0.,
          0., 8.65962124e+000, 3.11403293e-002, 0., 0., 0., 0.,
          9.81124341e-002, 0., 3.29761505e+000, 8.61489487e+000,
          8.74904022e-002, 0., 0., 0., 0., 0., 0., 0., 0., 0., 0., 0.,
          0., 0., 0., 0., 0., 0., 0., 0., 0., 0., 2.40037799e+000, 1.,
          3.91292185e-001, 1.22803144e+001, 1.32839370e+000,
          1.82842708e+000, 1.96727543e+001, 0., 6.45172954e-001,
          2.93248892e+000, 1.23621626e+001, 3.37110558e+001,
          7.63333321e-001, 5.85786462e-001, 0., 0., 0., 0., 0., 0., 0.,
          0., 0., 0., 0., 0., 0., 0., 6.79622769e-001, 7.42088223e+000,
          1.69827557e+001, 3.36555367e+001, 2.61203885e-001,
          1.32974501e+001, 4.70255041e+000, 5.79898977e+000,
          1.02010098e+001, 0., 6.04979591e+001, 3.51172638e+001,
          6.21320343e+000, 2.17157292e+000, 0., 0., 0., 0., 0., 0.,
          4.05265465e+001, 2.29881706e+001, 2.89949489e+000,
          5.85786462e-001, 0., 1.65281785e+000, 1.05481920e+001,
          2.73380947e+001, 4.92630692e+001, 1.19782519e+000,
          6.87966633e+000, 5.91253853e+001, 3.68650055e+001,
          3.34097099e+001, 1.72023296e+000, 0., 0., 0., 0., 0.,
          3.51931725e+001, 1.41499748e+001, 5.38477612e+000,
          2.23221893e+001, 4.94988918e+000, 0., 1.17157292e+000,
          1.61543293e+001, 5.84728661e+001, 2.32012329e+001,
          3.29494476e+000, 1.05629196e+001, 1.11837664e+001,
          1.87169075e+001, 1.32414608e+001, 7.19801378e+000,
          1.80198646e+000, 0., 0., 0., 2.04013977e+001, 7.18438816e+000,
          4.14213562e+000, 2.34108143e+001, 2.28612633e+001, 0., 0., 0.,
          6.76024973e-001, 1.32397509e+000, 0., 0., 0., 0., 0.,
          5.85786462e-001, 4.14213568e-001, 0., 0., 0., 1.43079576e+001,
          2.69204259e+000, 0., 0., 0., 0., 0., 0., 0., 0., 0., 0., 0.,
          0., 0., 0., 0., 0., 0., 0., 0., 0., 0., 0., 0., 0., 0., 0., 0.,
          0., 0., 0., 0., 0., 0., 0., 0., 0., 0., 0., 9.84181976e+000,
          2.15818048e+000, 0., 5.85786462e-001, 4.14213568e-001,
          1.00808907e+001, 1.91910887e+000, 0., 0., 0., 0., 0., 0., 0.,
          0., 0., 0., 0., 0., 0., 4.16845274e+000, 7.93205214e+000,
          1.28406200e+001, 3.54521751e+001, 4.60670090e+000,
          2.08785820e+001, 6.12141800e+000, 1.65685427e+000,
          5.08194208e+000, 2.61203885e-001, 0., 0., 0., 0., 0.,
          4.10653543e+000, 8.93464386e-001, 0., 0., 0., 3.61940117e+001,
          2.50069981e+001, 7.04163074e+000, 3.64516425e+000,
          1.31121950e+001, 0., 2.34314585e+000, 1.65685427e+000,
          6.95216799e+000, 5.30478325e+001, 5.05151749e+001,
          4.01000481e+001, 9.52691174e+000, 9.19241714e+000,
          7.66544676e+000, 0., 0., 0., 0., 0., 2.54545918e+001,
          1.48885546e+001, 6.21320343e+000, 2.00031853e+001,
          2.44046593e+000, 9.36621308e-001, 7.57809734e+000,
          2.44386005e+001, 8.41755447e+001, 1.18711376e+001, 0.,
          1.47157288e+001, 3.68650055e+001, 5.95267029e+001,
          5.89255953e+000, 0., 0., 0., 5.72860599e-001, 1.42713940e+000,
          1.20670958e+001, 1.79623413e+001, 6.62741709e+000,
          1.06704559e+001, 2.86726894e+001, 4.58716850e+001,
          3.64592705e+001, 1.49116879e+001, 1.75735927e+000, 0.,
          3.95670433e+001, 1.87050362e+001, 1.20121937e+001,
          1.27157288e+001, 0., 0., 0., 0., 1.68489456e+000,
          1.03151054e+001, 4.77883835e+001, 1.93831882e+001,
