%YAML:1.0
_0218: !!opencv-ml-svm
   svm_type: C_SVC
   kernel: { type:LINEAR }
   C: 100.
   term_criteria: { epsilon:9.9999999747524271e-007,
       iterations:2147483647 }
   var_all: 576
   var_count: 576
   class_count: 2
   class_labels: !!opencv-matrix
      rows: 1
      cols: 2
      dt: i
      data: [ -1, 9 ]
   sv_total: 64
   support_vectors:
      - [ 0., 1.74065247e+001, 1.12426405e+001, 1.58578646e+000, 0., 0.,
          0., 0., 0., 5., 6., 1.15341120e+001, 5.18770142e+001,
          1.15888748e+001, 1., 1., 0., 0., 0., 2.13756704e+000,
          3.35114365e+001, 1.93509960e+001, 0., 0., 0., 0., 0., 0., 0.,
          0., 0., 0., 0., 7.17157269e+000, 1.32426405e+001,
          3.17157292e+000, 0., 0., 0., 0., 0., 7.17157269e+000,
          7.41421366e+000, 6.58578634e+000, 2.28284264e+001,
          3.58578634e+000, 6., 3., 0., 1., 5., 11., 9.02042313e+001,
          2.67957687e+001, 0., 0., 0., 1., 2., 9.75735950e+000,
          8.57702408e+001, 2.04724026e+001, 1., 0., 0., 0.,
          8.24264050e+000, 1.03431454e+001, 8.41421318e+000, 0., 0., 0.,
          0., 1.38941824e+000, 20., 15., 2., 0., 1.45194745e+000,
          1.02272224e+001, 0., 9.98988724e+000, 10., 2., 3., 0., 0.,
          9.23597431e+000, 0., 2.09806080e+001, 8., 8., 7., 1., 0.,
          4.79904604e+000, 0., 0., 4.41421366e+000, 1.87573586e+001,
          3.82842708e+000, 1., 0., 0., 0., 1.68167937e+000, 0., 4., 6.,
          0., 1.36663032e+000, 2.62572384e+001, 0., 0., 0., 0., 0., 0.,
          0., 2.57380486e+000, 0., 0., 0., 0., 0., 0., 0., 0., 0., 0.,
          2., 1.97573586e+001, 9.65685463e+000, 5.85786462e-001, 0., 0.,
          0., 7.96301174e+000, 1.24142132e+001, 10., 9., 1.58578646e+000,
          2.41421366e+000, 7.59457397e+000, 0., 2.62683344e+000, 1., 0.,
          8.46990287e-001, 2.15300965e+000, 4.14213568e-001,
          7.98272085e+000, 0., 0., 0., 0., 0., 0., 0., 0., 0., 0.,
          3.41421366e+000, 1.15857868e+001, 12., 1., 0., 0., 0., 0.,
          6.41421366e+000, 3.03725834e+001, 3.64558449e+001,
          1.69289322e+001, 8.28427136e-001, 0., 0., 2.48772583e+001,
          2.37122841e+001, 2.53132973e+001, 3.31940346e+001,
          1.17765303e+001, 7.58578634e+000, 1.04852810e+001, 0.,
          5.67680130e+001, 2.11479416e+001, 3.17157292e+000, 3.,
          3.75735927e+000, 1.10118942e+001, 1.02307463e+001, 0., 0., 5.,
          1.63431454e+001, 8.65685463e+000, 0., 0., 0., 0.,
          2.16306019e+001, 1.80710678e+001, 1.41715727e+001,
          1.97573586e+001, 5.82842731e+000, 0., 0., 0., 1.52002888e+001,
          9.48528099e+000, 1.25920095e+001, 3.39329071e+001,
          1.11314116e+001, 2.41116104e+001, 1.77530270e+001, 0.,
          9.75315380e+000, 1.04375896e+001, 2.29192123e+001,
          5.16967926e+001, 1.09050732e+001, 2.78105850e+001,
          2.13010941e+001, 0., 1.56677284e+001, 6.50384474e+000, 2., 0.,
          0., 0., 0., 0., 3.07454643e+001, 1.43137083e+001,
          5.22048140e+000, 1.99825592e+001, 2.79695916e+000, 3., 0., 2.,
          1.58578646e+000, 2., 8.52773190e+000, 5.88774185e+001,
          4.59485102e+000, 3., 4.14213568e-001, 0., 0., 0., 0., 0., 0.,
          0., 0., 7.83611596e-001, 2.66600399e+001, 4.55634928e+000, 0.,
          0., 2.25693178e+000, 1.46303701e+001, 1.53259020e+001,
          1.19170704e+001, 2.86972618e+000, 4.84931850e+000,
          1.15068126e+000, 0., 7.97577238e+000, 3.00242271e+001, 0., 0.,
          0., 0., 0., 0., 1.68873024e+001, 9.11269855e+000, 0., 0., 0.,
          1.41299419e+001, 1.36690474e+001, 8.20100975e+000, 0., 0.,
          9.95836926e+000, 2.07106781e+001, 2.89454117e+001,
          7.38554096e+000, 0., 8.78679657e+000, 1.44974747e+001,
          3.03838215e+001, 2.33319073e+001, 0., 1.23725834e+001,
          6.62741709e+000, 0., 0., 0., 2.30883121e+001, 1.86396103e+001,
          1.11319771e+001, 6.14010096e+000, 5.73455048e+000,
          1.97385368e+001, 1.20121937e+001, 9.86261368e+000,
          1.56521053e+001, 1.65561008e+001, 2.99464245e+001,
          1.61543293e+001, 5.45926762e+000, 4.88387775e+000, 0.,
          1.48873014e+001, 9.52691174e+000, 5.85786462e-001, 0., 0.,
          4.51471853e+000, 4.55634928e+000, 1.60616322e+001,
          3.38672981e+001, 0., 0., 0., 7.58782208e-001, 2.24121785e+000,
          0., 0., 0., 0., 0., 0., 1.43015156e+001, 9.11269855e+000,
          5.85786462e-001, 0., 4.14213568e-001, 2.37451668e+001,
          1.65685425e+001, 1.09416666e+001, 6.33041096e+000,
          3.37892222e+000, 8.72158337e+000, 4.55634928e+000,
          1.44943390e+001, 1.48488073e+001, 0., 0., 0., 0., 0.,
          2.61203885e-001, 9.76823330e+000, 5.38477612e+000,
          5.85786462e-001, 0., 0., 2.70172443e+001, 2.31959591e+001,
          1.27867966e+001, 0., 1.60848980e+001, 5.15181313e+001,
          2.85807362e+001, 2.22938251e+001, 5.22407770e-001,
          6.49036636e+001, 2.90252686e+001, 5.38477612e+000,
          2.09660587e+001, 1.72023296e+000, 0., 1.43015156e+001,
          8.69848442e+000, 0., 0., 1.04481554e+000, 4.16292839e+001,
          1.82253971e+001, 4.10050488e+000, 0., 6.75417423e-001,
          3.48981743e+001, 2.40243874e+001, 5.02222443e+001,
          1.11797771e+001, 2.31700172e+001, 3.27883530e+001,
          1.69827557e+001, 5.65784950e+001, 9.48038101e+000,
          5.22407770e-001, 1.90928154e+001, 5.38477612e+000, 0., 0., 0.,
          4.48162346e+001, 1.24264069e+001, 5.50179291e+000,
          1.25556648e+000, 1.55583229e+001, 1.24711142e+001,
          9.11269855e+000, 7.43368149e+000, 5.42418289e+000, 0., 0., 0.,
          0., 0., 1.04481554e+000, 1.63988361e+001, 5.38477612e+000,
          1.17157292e+000, 0., 0., 3.51471853e+000, 1.53259020e+001,
          4.76546898e+001, 1.45046902e+001, 0., 0., 0., 6.16600847e+000,
          4.88339920e+001, 0., 0., 0., 0., 0., 5.22407770e-001,
          9.99231052e+000, 4.14213562e+000, 2.34314585e+000, 0., 0.,
          1.07867966e+001, 1.69827557e+001, 2.19692440e+001,
          2.61203885e-001, 0., 5.85786462e-001, 2.73380947e+001,
          6.26828117e+001, 3.83933067e+001, 0., 5.85786462e-001,
          9.52691174e+000, 5.12672653e+001, 5.56200371e+001, 0., 0.,
          7.87005758e+000, 1.21299419e+001, 0., 1.34396582e+001,
          1.56608467e+001, 9.94112587e+000, 9.95836926e+000, 0.,
          4.80348930e+001, 2.67519054e+001, 8.28427124e+000,
          2.92893219e+000, 0., 4.29774475e+001, 3.22235603e+001,
          1.15979795e+001, 1.02010098e+001, 0., 0., 0., 8.69848442e+000,
          1.53015156e+001, 0., 4.77034340e+001, 2.09828587e+001,
          7.45584393e+000, 5.85786438e+000, 0., 6.92971659e+000,
          2.07028317e+000, 0., 0., 0., 0., 0., 0., 0., 0., 0., 0.,
          8.69848442e+000, 2.10403118e+001, 2.61203885e-001,
          2.09288826e+001, 2.66863403e+001, 1.32548342e+001,
          1.31299419e+001, 0., 5.30164604e+001, 1.25693264e+001,
          8.28427136e-001, 2.06337857e+000, 5.22407770e-001,
          6.38697922e-001, 3.61302108e-001, 0., 0., 0., 0., 0.,
          9.94112587e+000, 1.60588741e+001, 0., 0., 0., 2.11248913e+001,
          6.33526993e+001, 5.22407770e-001, 1.65862274e+001,
          2.42300072e+001, 2.69238815e+001, 5.77741966e+001,
          1.48568821e+000, 6.81812744e+001, 2.64339504e+001,
          8.69848442e+000, 8.68629169e+000, 0., 0., 0., 6.62741709e+000,
          1.83725834e+001, 0., 2.35083485e+000, 2.10217476e+001,
          1.86396103e+001, 2.76817875e+001, 1.30601943e+000,
          1.61933212e+001, 5.05224075e+001, 2.11248913e+001,
          4.06922112e+001, 1.14671688e+001, 7.69716549e+000,
          4.51190681e+001, 2.11248913e+001, 3.25332184e+001,
          5.15256538e+001, 0., 1.90294380e+001, 5.79898977e+000,
          1.17157292e+000, 0., 2.13444638e+000, 3.59954948e+001,
          1.32548342e+001, 1.89911270e+001, 3.62409639e+000,
          5.22407770e-001, 3.47759223e+000, 0., 6.86472082e+000,
          6.51352768e+001, 0., 0., 0., 0., 0. ]
      - [ 0., 0., 1., 2.56722331e+000, 1.81572151e+001, 7.27556181e+000,
          0., 0., 0., 0., 0., 0., 3.38347893e+001, 8.16521072e+000, 0.,
          0., 4.50182706e-002, 8.47151947e+000, 4.48346233e+000, 0., 0.,
          0., 0., 0., 0., 5.28071060e+001, 4.12063293e+001,
          3.39370384e+001, 1.83441658e+001, 5.07773638e+000,
          1.41421354e+000, 1.90743566e-001, 0., 0., 0., 1.,
          1.75857868e+001, 1.41421354e+000, 4., 2., 0., 0., 2.,
          7.75883007e+000, 5.98180046e+001, 1.64231644e+001, 0., 0.,
          1.90743566e-001, 1.63516273e+001, 8.94230080e+000,
          1.73072758e+001, 7.64692535e+001, 1.17387981e+001, 0., 0., 0.,
          1.64288731e+001, 2.33261070e+001, 5.17414322e+001,
          9.34453201e+001, 1.86440525e+001, 2., 1., 0., 3., 2., 1., 2.,
          0., 4., 0., 0., 1.39289322e+001, 2.12426414e+001,
          9.58578682e+000, 17., 4., 3.41421366e+000, 1.75735927e+000, 0.,
          2.03712540e+001, 1.64852810e+001, 1.51715727e+001,
          2.46568546e+001, 8.75735950e+000, 3., 4.17157269e+000, 0.,
          3.75551186e+001, 2.47131519e+001, 1.27573595e+001,
          3.18994942e+001, 1.09289322e+001, 3., 9.30304337e+000, 0.,
          7.83509588e+000, 2., 0., 1., 0., 0., 3.58578634e+000, 0.,
          3.20659027e+001, 1.53915043e+001, 3.81232738e+000,
          1.41421354e+000, 0., 1., 2.99302697e+000, 0., 2.07527447e+001,
          9.07984674e-001, 2.73879623e+000, 2.41421366e+000,
          5.85786462e-001, 0., 3.93417215e+000, 0., 6.61711121e+000, 0.,
          0., 0., 0., 0., 0., 0., 9.34314537e+000, 6.24264050e+000,
          5.85786462e-001, 2.41421366e+000, 0., 0., 3., 0.,
          1.98895168e+001, 1., 1., 0., 0., 0., 5.50010026e-001, 0., 0.,
          0., 0., 0., 0., 0., 0., 0., 0., 0., 0., 0., 0., 0., 0., 0.,
          1.24023190e+001, 1.09383631e+000, 5.85786462e-001, 0., 0., 0.,
          1.41421354e+000, 0., 3.61704750e+001, 4.09390354e+000,
          1.17157292e+000, 4.14213568e-001, 0., 0., 4.49195004e+000, 0.,
          1.78342285e+001, 1.50221109e-001, 0., 0., 0., 0., 0., 0.,
          9.71190512e-001, 0., 0., 0., 0., 0., 0., 0., 2.58578634e+000,
          2., 5.17157269e+000, 6.82842731e+000, 1., 0., 0., 0.,
          1.31715727e+001, 1.04142132e+001, 1.23431454e+001,
          1.92426414e+001, 9., 5., 5., 0., 2.65119057e+001,
          1.30377340e+001, 1.11715727e+001, 4.38282776e+001,
          1.35859346e+001, 5.41421366e+000, 2.07284427e+000, 0.,
          3.81455345e+001, 1.43816051e+001, 8.58802032e+000,
          4.30625229e+001, 2.15210304e+001, 13., 2.15022111e+000, 0., 0.,
          0., 5.49195004e+000, 9.76925373e+000, 7.73879623e+000, 1., 0.,
          0., 0., 0., 3.75735927e+000, 4.97832031e+001, 2.04594383e+001,
          0., 0., 0., 0., 0., 0., 1.51490908e+001, 6.85090923e+000, 0.,
          0., 0., 0., 0., 0., 0., 0., 0., 0., 0., 3.75735927e+000,
          6.21320343e+000, 7.02943707e+000, 0., 0., 0., 2.07106781e+000,
          1.46661100e+001, 1.42628222e+001, 8.55616760e+000,
          4.44383240e+000, 0., 0., 0., 6.17302818e+001, 6.13580322e+001,
          1.82253971e+001, 5.68629169e+000, 0., 0., 5.85786462e-001,
          3.72792196e+000, 4.68629169e+000, 0., 1.27739584e+000,
          7.16625500e+000, 1.28406200e+001, 2.58050938e+001,
          1.09106359e+001, 4.00529556e+001, 2.06333370e+001,
          1.44974747e+001, 2.68162346e+001, 0., 1.37459736e+001,
          7.67149200e+001, 3.35513000e+001, 3.39167404e+001,
          3.07106781e+000, 0., 3.51471853e+000, 4.14213562e+000,
          2.34314585e+000, 0., 0., 3.27451668e+001, 1.65685425e+001,
          6.68629169e+000, 0., 2.61203885e-001, 4.00281181e+001,
          2.81665230e+001, 1.05441561e+001, 0., 1.42525654e+001,
          5.93799019e+001, 3.35513000e+001, 2.05550308e+001,
          2.61203885e-001, 0., 7.61522388e+000, 7.04163074e+000,
          2.34314585e+000, 0., 2.32920494e+001, 3.50805321e+001,
          9.11269855e+000, 5.51471853e+000, 0., 2.91674099e+001,
          1.43473082e+001, 4.97056293e+000, 7.10050488e+000,
          4.14213568e-001, 1.22895517e+001, 2.71044779e+000, 0., 0., 0.,
          2.61203885e-001, 1.37682333e+001, 6.62741709e+000,
          2.34314585e+000, 0., 2.77819500e+001, 9.38962269e+000,
          1.65685427e+000, 1.17157292e+000, 0., 0., 0., 0., 0., 0., 0.,
          0., 0., 0., 0., 6.75417423e-001, 1.17682333e+001,
          5.38477612e+000, 1.17157292e+000, 0., 3.23152809e+001,
          2.45425835e+001, 7.04163074e+000, 4.10050488e+000, 0.,
          2.37951164e+001, 6.79067039e+000, 4.14213568e-001, 0., 0.,
          1.35607159e+000, 6.43928409e-001, 0., 0., 0., 0.,
          6.44365072e+000, 4.97056293e+000, 5.85786462e-001, 0., 0.,
          2.49167385e+001, 2.19533195e+001, 1.11299419e+001, 0.,
          6.84455395e+000, 3.80011177e+001, 2.31959591e+001,
          1.64779835e+001, 1.24803848e+001, 3.05251369e+001,
          4.11489601e+001, 2.31959591e+001, 2.12744999e+001,
          2.48554420e+001, 0., 4.10050488e+000, 5.79898977e+000,
          6.83930111e+000, 2.61203885e-001, 0., 2.92893219e+000,
          8.69848442e+000, 2.37261696e+001, 2.36464138e+001, 0., 0., 0.,
          3.49724388e+000, 1.25027561e+001, 0., 0., 0., 0., 0., 0., 0.,
          2.48528147e+000, 2.18361168e+001, 3.67860246e+000, 0., 0., 0.,
          4.80945587e+000, 3.71905441e+001, 6.99981022e+000,
          4.00018978e+000, 0., 0., 0., 5.11243668e+001, 2.22187805e+001,
          1.44974747e+001, 4.70883102e+001, 4.07106781e+000, 0.,
          1.17157292e+000, 5.79898977e+000, 1.42458258e+001,
          7.83611596e-001, 0., 0., 5.79898977e+000, 3.58085709e+001,
          4.23924408e+001, 1.79551659e+001, 5.04483366e+000,
          2.48528147e+000, 3.96137543e+001, 6.49009628e+001,
          5.61421299e+000, 1.70010109e+001, 2.07106781e+001,
          1.01818687e+002, 5.28554077e+001, 0., 8.20100975e+000,
          7.04163074e+000, 1.75735927e+000, 0., 6.75417423e-001,
          1.98687382e+001, 1.98822517e+001, 1.85735931e+001, 0.,
          4.31370831e+000, 5.46740990e+001, 2.85807362e+001,
          3.24314575e+001, 0., 2.63866425e+001, 6.30448151e+001,
          3.14802303e+001, 4.03046989e+001, 7.83611596e-001,
          6.75417423e-001, 1.81824474e+001, 4.55634928e+000,
          5.85786462e-001, 0., 3.19471626e+001, 3.18396339e+001,
          7.45584393e+000, 5.75735950e+000, 0., 4.65176239e+001,
          1.42397356e+001, 2.07106781e+000, 4.91036892e+000,
          2.61203885e-001, 1.90868835e+001, 2.91311622e+000, 0., 0., 0.,
          1.04481554e+000, 1.58130493e+001, 4.97056293e+000,
          2.17157292e+000, 0., 3.82730637e+001, 7.31272364e+000,
          8.28427136e-001, 5.85786462e-001, 0., 0., 0., 0., 0., 0., 0.,
          0., 0., 0., 0., 1.45902908e+000, 2.33988361e+001,
          4.55634928e+000, 5.85786462e-001, 0., 4.21032944e+001,
          2.84114265e+001, 2.89949489e+000, 1.58578646e+000, 0.,
          3.09312611e+001, 6.06873941e+000, 0., 0., 0., 2.85824704e+000,
          1.14175296e+000, 0., 0., 0., 0., 5.10050488e+000,
          7.45584393e+000, 8.44365120e+000, 0., 5.22407770e-001,
          1.84359608e+001, 1.90538235e+001, 2.85735931e+001,
          4.14213568e-001, 1.05083141e+001, 3.47221336e+001,
          2.52670269e+001, 3.33865738e+001, 2.11159515e+001,
          4.19483910e+001, 3.19094753e+001, 1.49116879e+001,
          2.70440903e+001, 3.61863556e+001, 0., 0., 6.62741709e+000,
          1.59135542e+001, 1.45902908e+000, 0., 0., 2.07106781e+000,
          2.31550465e+001, 4.87738838e+001, 0., 0., 0., 3.08443713e+000,
          1.89155636e+001, 0., 0., 0., 0., 0. ]
      - [ 0., 0., 1., 1., 4.82842731e+000, 2.14065247e+001,
          4.76504850e+000, 0., 0., 0., 0., 1.17157292e+000,
          2.10919781e+001, 5.52472649e+001, 1.14891844e+001, 0., 0., 0.,
          0., 0., 1.23899341e-001, 1.02019148e+001, 5.67418528e+000, 0.,
          0., 3.80521812e+001, 1.80805283e+001, 5.24930954e+000,
          4.24264050e+000, 0., 0., 0., 0., 0., 1.41421354e+000,
          5.85786462e-001, 4.41421366e+000, 1.29289322e+001,
          3.65685415e+000, 1., 0., 0., 0., 0., 2.91259365e+001,
          5.68740616e+001, 2., 0., 0., 0., 0., 0., 3.78271408e+001,
          2.41728592e+001, 0., 0., 0., 5.37483330e+001, 1.93167133e+001,
          5.66352320e+000, 3.16817169e+001, 5.31828403e+000, 0., 0., 0.,
          0., 0., 1., 8., 4.58578634e+000, 7.41421366e+000, 3., 0.,
          1.15022111e+000, 2., 3., 2.18284264e+001, 1.41715727e+001, 11.,
          10., 0., 1.43171167e+001, 7., 4., 3.08217583e+001,
          3.01782417e+001, 5., 7.17157269e+000, 0., 2.92565365e+001,
          8.31053638e+000, 0., 5.38867722e+001, 2.58705864e+001,
          5.24264050e+000, 4., 0., 4.78829622e+000, 0., 0., 1.,
          8.17157269e+000, 7.82842731e+000, 2., 0., 2.14586430e+001, 0.,
          0., 0., 6., 2., 1.11762774e+000, 0., 6.02687597e+000, 0., 0.,
          0., 0., 0., 0., 0., 0., 0., 0., 0., 0., 0., 0., 0.,
          2.51736808e+000, 0., 0., 0., 2., 4.41421366e+000,
          9.11129093e+000, 0., 4.71584082e+000, 0., 0., 0., 0., 0.,
          4.76745176e+000, 0., 0., 0., 0., 0., 0., 0., 0., 0., 0., 0.,
          0., 0., 0., 0., 0., 0., 0., 0., 0., 0., 6.34314585e+000,
          9.65685463e+000, 2.17157292e+000, 0., 2.43942428e+000,
          3.20377231e-001, 0., 2., 2., 11., 2.16290588e+001, 0.,
          4.06985664e+001, 1.52839317e+001, 5.85786462e-001, 0.,
          1.58578646e+000, 1., 3.68333054e+000, 0., 2.26032333e+001,
          8.90067196e+000, 0., 0., 0., 0., 0., 0., 0., 0., 0.,
          2.41421366e+000, 1.83431454e+001, 7.24264050e+000, 1., 0., 0.,
          0., 0., 1.97321281e+001, 3.81596794e+001, 2.21081944e+001, 1.,
          0., 10., 27., 2.05857868e+001, 2.61094093e+001,
          3.60244293e+001, 1.02803745e+001, 2., 0., 3.80998802e+001,
          7.38915405e+001, 3.37659378e+001, 3.28146782e+001,
          2.04279633e+001, 1., 0., 0., 0., 0., 0., 8.65685463e+000,
          1.75147190e+001, 3.82842708e+000, 0., 0., 0., 2.,
          3.17157292e+000, 8.24264050e+000, 2.01782417e+001,
          2.44075451e+001, 7., 0., 2.58578634e+000, 8.41421318e+000, 8.,
          3.16491451e+001, 6.96378937e+001, 1.47129631e+001, 0., 0.,
          3.32458258e+000, 9.82842731e+000, 1.50674715e+001,
          4.27515221e+001, 5.31212616e+001, 7.05974245e+000,
          5.85786462e-001, 0., 1.17157292e+000, 5.79898977e+000,
          2.04622135e+001, 1.56722319e+000, 0., 1.17157292e+000,
          2.48528147e+000, 3.41242828e+001, 4.62188644e+001, 0., 0., 0.,
          2.67359114e+000, 1.33264084e+001, 3.68920403e+001,
          2.66226807e+001, 2.48528147e+000, 0., 0., 0., 1.58578646e+000,
          4.14213562e+000, 1.50108738e+001, 2.61203885e-001, 0., 0.,
          8.69848442e+000, 4.08261566e+001, 2.94753571e+001, 0., 0.,
          2.07106781e+000, 2.41110134e+001, 2.88179188e+001,
          5.21339569e+001, 2.92091885e+001, 3.31370854e+000,
          1.64835033e+001, 1.08596411e+001, 0., 5.85786462e-001,
          5.79898977e+000, 9.61522388e+000, 0., 0., 4.10050488e+000,
          1.82253971e+001, 2.26740990e+001, 0., 1.32557993e+001,
          1.60457153e+001, 2.89949493e+001, 3.42893219e+001,
          4.14213568e-001, 2.80026226e+001, 1.83699608e+001,
          2.27817459e+001, 4.20620613e+001, 7.83611596e-001,
          2.26205277e+000, 1.90952003e+000, 6.21320343e+000,
          1.26152239e+001, 0., 3.05206509e+001, 1.06509218e+001,
          5.38477612e+000, 6.44365072e+000, 0., 1.04970150e+001,
          2.50298500e+000, 0., 0., 0., 0., 0., 0., 0., 0.,
          3.49907112e+000, 2.08671546e+000, 5.38477612e+000,
          1.22804298e+001, 5.74900723e+000, 3.91633224e+000,
          2.25524044e+000, 8.28427136e-001, 2.47199345e+000,
          9.52800655e+000, 0., 0., 0., 0., 0., 0., 0., 0., 0., 0., 0.,
          0., 5.79898977e+000, 1.42010098e+001, 0., 7.75922477e-001,
          4.39565039e+000, 1.61543293e+001, 3.67707939e+001,
          9.90330410e+000, 2.55794697e+001, 3.60651894e+001,
          1.32548342e+001, 1.16197281e+001, 2.48077726e+000,
          2.89726563e+001, 1.03704901e+001, 1.65685427e+000, 0., 0., 0.,
          0., 9.52691174e+000, 1.74730873e+001, 0., 0., 0.,
          1.32548342e+001, 5.29167404e+001, 1.82842708e+000, 0.,
          3.64608955e+001, 3.23086586e+001, 4.09878082e+001,
          2.24264073e+000, 3.31402092e+001, 8.71074829e+001,
          3.56223679e+001, 2.36075344e+001, 5.22407770e-001, 0., 0.,
          7.45584393e+000, 1.85441551e+001, 0., 0., 3.51471853e+000,
          1.36690474e+001, 4.06184082e+001, 1.19782519e+000, 0.,
          1.15441561e+001, 2.48528137e+001, 4.89765701e+001,
          2.96264629e+001, 2.61203885e-001, 1.93834572e+001,
          2.36101723e+001, 3.06465454e+001, 3.50986214e+001, 0., 0.,
          7.45584393e+000, 2.30217476e+001, 5.22407770e-001, 0., 0.,
          4.55634928e+000, 3.26682701e+001, 4.97753830e+001, 0., 0., 0.,
          2.73716903e+000, 1.12628307e+001, 3.25303535e+001,
          2.06412201e+001, 2.48528147e+000, 9.34314537e+000, 0., 0.,
          1.17157292e+000, 5.79898977e+000, 1.57682333e+001,
          2.61203885e-001, 0., 5.85786462e-001, 5.38477612e+000,
          4.05356903e+001, 4.04937477e+001, 0., 0., 0., 1.40286331e+001,
          4.79713669e+001, 4.79741135e+001, 2.36116753e+001,
          3.72792196e+000, 8.33278751e+000, 3.33535042e+001, 0.,
          1.75735927e+000, 5.79898977e+000, 9.44365120e+000, 0.,
          9.73423660e-001, 1.21565189e+001, 1.82253971e+001,
          2.75998459e+001, 1.04481554e+000, 2.24969826e+001,
          2.54908237e+001, 2.19533195e+001, 5.15704079e+001,
          3.48846626e+000, 3.54903145e+001, 2.04680538e+001,
          1.57401152e+001, 5.12981262e+001, 2.10033875e+001,
          2.34082866e+000, 4.17389011e+000, 6.62741709e+000,
          5.85786438e+000, 0., 4.52702942e+001, 9.48706436e+000,
          3.72792196e+000, 3.51471853e+000, 0., 1.64392548e+001,
          2.56074595e+000, 0., 0., 0., 0., 0., 0., 0., 0.,
          1.53110571e+001, 7.61787510e+000, 2.89949489e+000,
          1.17157292e+000, 0., 2.61079941e+001, 3.89200592e+000, 0., 0.,
          0., 0., 0., 0., 0., 0., 0., 0., 0., 0., 0., 9.36621308e-001,
          7.64916515e+000, 3.72792196e+000, 4.68629169e+000, 0.,
          3.55468521e+001, 3.27252235e+001, 5.38477612e+000,
          2.34314585e+000, 0., 5.70742645e+001, 3.60556793e+001,
          9.11269855e+000, 1.75735927e+000, 0., 3.02602043e+001,
          1.13255825e+001, 4.14213568e-001, 0., 0., 0., 5.85786462e-001,
          9.11269855e+000, 1.33015156e+001, 0., 0., 5.85786462e-001,
          1.32548342e+001, 4.69801178e+001, 3.17926192e+000, 0.,
          1.05441561e+001, 2.81665230e+001, 5.99122353e+001,
          4.37708712e+000, 1.70509377e+001, 2.50373745e+001,
          3.43797264e+001, 6.67639389e+001, 1.07680264e+001, 0., 0.,
          4.55634928e+000, 2.16600399e+001, 7.83611596e-001, 0.,
          7.02943707e+000, 1.73969688e+001, 2.48981762e+001,
          6.75417423e-001, 0., 2.92893219e+000, 2.07106781e+001,
          6.64238510e+001, 2.99365425e+001, 2.61203885e-001,
          5.42508745e+000, 2.07106781e+001, 5.31576271e+001,
          4.24454002e+001 ]
      - [ 0., 0., 0., 1., 2., 9., 12., 4., 0., 0., 0., 0.,
          1.58612480e+001, 4.54909172e+001, 2.34762611e+001,
          5.75735950e+000, 0., 0., 0., 0., 9.25280094e+000,
          4.14501228e+001, 1.29707718e+000, 0., 0., 2.22137089e+001,
          9.29923248e+000, 0., 0., 0., 0., 0., 0., 0., 1., 0., 5., 4.,
          15., 1., 0., 0., 0., 0., 2.83704643e+001, 3.19726810e+001,
          8.65685463e+000, 2., 0., 0., 0., 0., 4.44967842e+001,
          6.25032158e+001, 0., 0., 0., 4.30468826e+001, 1.16145229e+001,
          0., 3.56940193e+001, 1.73059826e+001, 0., 0., 0.,
          4.32458258e+000, 2.41421366e+000, 0., 0., 0., 6., 4., 0.,
          1.81397686e+001, 2., 3., 6., 1., 9., 1.03217936e+001, 0.,
          2.89212723e+001, 1.24142132e+001, 1., 1.28284273e+001,
          1.19289322e+001, 7.24264050e+000, 7.48845148e+000, 0.,
          3.89969330e+001, 8.47638321e+000, 4., 3.47878151e+001,
          2.47979698e+001, 9.41421318e+000, 1., 0., 1.26120389e+000, 0.,
          0., 0., 5.85786462e-001, 2.56722331e+000, 9.68097973e+000, 0.,
          5.79909563e+000, 0., 0., 0., 0., 0., 3.61114502e-001, 0.,
          4.35471326e-001, 0., 0., 0., 0., 0., 0., 0., 0., 0., 0., 0.,
          0., 0., 0., 0., 4.16101027e+000, 0., 1., 1., 0., 0.,
          3.49615550e+000, 0., 2.46130633e+000, 0., 0., 0., 0., 0.,
          1.11188030e+000, 0., 0., 0., 0., 0., 0., 0., 0., 0., 0., 0.,
          0., 0., 0., 0., 0., 0., 3.41421366e+000, 6., 1., 0., 0., 0.,
          1.32037723e+000, 0., 4.57381678e+000, 3., 0., 1., 3.,
          6.24264050e+000, 2.26701775e+001, 0., 2.46822567e+001,
          6.64467382e+000, 1.01638049e-001, 2., 0., 3.41421366e+000,
          3.52221489e+000, 0., 8.28479767e+000, 1.27152023e+001, 0., 0.,
          0., 0., 0., 0., 1., 12., 2., 4., 0., 0., 0., 0., 3., 4., 5.,
          18., 9.17157269e+000, 2.84852810e+001, 1.33431454e+001, 0.,
          7.23912096e+000, 2.67608795e+001, 1.65857868e+001,
          2.94142132e+001, 8.58578682e+000, 2.28284264e+001,
          1.01715727e+001, 0., 2.28053341e+001, 7.45528870e+001,
          1.18133507e+001, 1.04142132e+001, 2.58578634e+000,
          8.82842731e+000, 8.17157269e+000, 0., 3.58578634e+000, 9., 4.,
          0., 0., 0., 0., 0., 1.85857868e+001, 2.14142132e+001, 2., 6.,
          6., 9., 4., 0., 9., 22., 6., 2.46275444e+001, 4.03872414e+001,
          1.63994274e+001, 4.58578634e+000, 0., 4., 5., 3.65857720e+000,
          5.45999527e+001, 1.94477215e+001, 2.37079639e+001,
          1.05857868e+001, 0., 5.85786462e-001, 9.11269855e+000,
          1.63015156e+001, 0., 0., 0., 1.24264069e+001, 4.82676964e+001,
          2.03058987e+001, 0., 0., 4.14213568e-001, 1.18465204e+001,
          3.67392654e+001, 1.97000523e+001, 1.18857336e+001,
          4.14213568e-001, 0., 0., 0., 5.85786462e-001, 7.87005758e+000,
          1.25441561e+001, 0., 0., 0., 1.32548342e+001, 3.30570183e+001,
          5.68814898e+000, 0., 0., 1.07695522e+001, 4.20577660e+001,
          4.51726799e+001, 3.97924957e+001, 1.72075043e+001,
          3.31370854e+000, 1.82700253e+001, 2.44162655e+001, 0.,
          4.92893219e+000, 6.21320343e+000, 5.85786438e+000, 0.,
          9.51806259e+000, 1.80260925e+001, 1.65685425e+001,
          1.28873014e+001, 0., 2.50829811e+001, 2.79758930e+001,
          2.07106781e+001, 1.82304478e+001, 0., 2.80572567e+001,
          3.24158325e+001, 2.56812401e+001, 2.78456707e+001, 0.,
          2.61203885e-001, 1.91036904e+000, 4.55634928e+000,
          1.35962534e+001, 2.67582417e+000, 8.35944843e+000,
          8.39791012e+000, 2.07106781e+000, 5.14213562e+000,
          1.02943730e+000, 5.85786462e-001, 4.14213568e-001, 0., 0., 0.,
          0., 0., 0., 0., 0., 7.83611596e-001, 8.73110676e+000,
          3.72792196e+000, 3.75735927e+000, 0., 5.12878752e+000,
          6.62857199e+000, 3.31370854e+000, 6.51471853e+000,
          4.14213568e-001, 0., 0., 0., 0., 0., 0., 0., 0., 0., 0., 0.,
          6.44365072e+000, 5.38477612e+000, 1.17157292e+000, 0.,
          3.11470485e+000, 9.74315929e+000, 1.69827557e+001,
          2.91872482e+001, 6.97213078e+000, 3.17398090e+001,
          1.81180553e+001, 7.87005758e+000, 7.34314585e+000,
          9.28932190e-001, 1.79769287e+001, 3.02307177e+000, 0., 0., 0.,
          0., 8.78679657e+000, 6.21320343e+000, 0., 0., 0.,
          7.02943707e+000, 1.40832615e+001, 3.95364685e+001,
          2.35083485e+000, 1.02208269e+000, 3.21667328e+001,
          3.31370850e+001, 2.64128952e+001, 2.61203885e-001,
          7.89381027e+001, 2.46060505e+001, 1.44974747e+001,
          1.29583693e+001, 0., 0., 1.07867966e+001, 6.21320343e+000, 0.,
          0., 0., 2.62598839e+001, 2.36101723e+001, 1.11299419e+001, 0.,
          0., 2.20883121e+001, 2.89949493e+001, 3.36828690e+001,
          2.12338696e+001, 3.64851403e+000, 9.38092327e+000,
          2.11248913e+001, 3.94980965e+001, 2.23475742e+001, 0.,
          2.34314585e+000, 6.62741709e+000, 7.02943707e+000, 0., 0.,
          5.10050488e+000, 1.57401152e+001, 3.28179550e+001,
          2.13414268e+001, 0., 0., 8.28427136e-001, 1.15885487e+001,
          3.95830231e+001, 1.71522732e+001, 1.20193005e+001,
          8.28427136e-001, 0., 0., 0., 5.85786462e-001, 4.14213562e+000,
          5.27207804e+000, 0., 0., 1.75735927e+000, 1.28406200e+001,
          4.09880905e+001, 9.41392899e+000, 0., 0., 2.89949489e+000,
          4.34051628e+001, 6.06953430e+001, 3.66045456e+001,
          1.83954544e+001, 0., 1.07886076e+001, 4.22113914e+001,
          5.22407770e-001, 1.15070295e+001, 4.97056293e+000, 0., 0.,
          1.54926443e+001, 3.29804459e+001, 1.36690474e+001,
          5.85786438e+000, 0., 3.77467232e+001, 3.90695114e+001,
          2.02964649e+001, 1.78873024e+001, 0., 3.94231300e+001,
          3.79788895e+001, 2.56812401e+001, 4.61145630e+001,
          3.80217481e+000, 8.41369438e+000, 1.73436642e+001,
          1.65685427e+000, 5.85786462e-001, 0., 3.55604706e+001,
          4.43952799e+000, 0., 0., 0., 1.42713940e+000, 5.72860599e-001,
          0., 0., 0., 0., 0., 0., 0., 0., 7.99059010e+000,
          1.75951958e+001, 1.24264073e+000, 1.17157292e+000, 0.,
          3.00545864e+001, 3.94541287e+000, 0., 0., 0., 0., 0., 0., 0.,
          0., 0., 0., 0., 0., 0., 9.36621308e-001, 8.92124271e+000,
          4.55634928e+000, 5.85786462e-001, 0., 3.43391838e+001,
          2.99623318e+001, 1.03553391e+001, 2.34314585e+000, 0.,
          5.11655464e+001, 2.32781029e+001, 5.38477612e+000,
          2.17157292e+000, 0., 1.24594297e+001, 4.54057026e+000, 0., 0.,
          0., 0., 1.75735927e+000, 3.72792196e+000, 3.51471853e+000, 0.,
          0., 1.34730883e+001, 2.40243874e+001, 2.05025253e+001, 0., 0.,
          1.43015156e+001, 2.89949493e+001, 3.44423332e+001,
          2.61203885e-001, 2.66999416e+001, 4.16310120e+001,
          2.27817459e+001, 2.09909496e+001, 8.89635277e+000, 0.,
          5.68629169e+000, 4.97056293e+000, 2.34314585e+000, 0., 0.,
          1.89878063e+001, 1.78111839e+001, 8.20100975e+000, 0., 0.,
          1.56446609e+001, 2.69238815e+001, 3.38427544e+001,
          2.25887032e+001, 0., 1.28873014e+001, 1.15979795e+001,
          1.26712379e+001, 6.28434792e+001 ]
      - [ 0., 2., 0., 0., 2., 6.17157269e+000, 4.24264050e+000,
          4.17157269e+000, 0., 6.58578634e+000, 7.78361177e+000,
          1.32163887e+001, 1.28284273e+001, 7.29412508e+000,
          1.02964745e+001, 1.60585651e+001, 0., 0., 1.41421354e+000,
          1.76734066e+001, 7.86977463e+001, 4.84047699e+001,
          6.80986404e+000, 1., 0., 0., 1., 5.09724951e+000,
          6.83679199e+001, 2.44109268e+001, 1.23899341e-001, 0., 0., 1.,
          2., 0., 2., 9.75735950e+000, 6.65685415e+000, 2.58578634e+000,
          0., 5.92893219e+000, 1., 0., 3., 0., 1.44590292e+001,
          2.34699039e+001, 0., 3., 2., 5.85786462e-001, 3.26120377e+000,
          2.08021755e+001, 4.48290329e+001, 6.22199860e+001, 0., 7., 4.,
          7.20612335e+000, 2.36442719e+001, 5.89543800e+001,
          6.03477249e+001, 2.61720848e+001, 0., 4.17157269e+000,
          2.82842708e+000, 0., 2., 0., 3.41421366e+000, 9.17157269e+000,
          0., 4.14213568e-001, 0., 0., 0., 0., 1.38924131e+001,
          6.27747078e+001, 0., 1.04149570e+001, 1.67541742e+000, 2.,
          1.82842708e+000, 3.63469481e+000, 2.70692501e+001,
          6.53947144e+001, 0., 4.47642670e+001, 6.93253632e+001,
          1.26677284e+001, 2.41421366e+000, 0., 2., 1.55857868e+001, 0.,
          1., 2.58578634e+000, 1., 1.82842708e+000, 4.17157269e+000,
          5.18346739e+000, 1.02941246e+001, 0., 2.26242042e+000,
          1.86842978e+000, 2.61203885e-001, 0., 5.85786462e-001,
          8.33449078e+000, 5.17560959e+001, 0., 1.00136662e+001,
          5.67541742e+000, 0., 0., 1., 2.26789761e+001, 4.31803322e+001,
          0., 0., 0., 0., 0., 0., 0., 0., 0., 5.63151503e+000,
          2.98143673e+000, 4.34314585e+000, 2.58578634e+000,
          1.03296423e+000, 3.62388992e+000, 4.04902077e+000, 0.,
          1.15852051e+001, 1.58435602e+001, 6.06114483e+000, 0.,
          1.64072549e+000, 2.30025711e+001, 2.61140633e+001, 0.,
          2.28468170e+001, 1.06749077e+001, 7.73694754e+000,
          5.58069611e+000, 8.62578869e+000, 1.81654854e+001,
          3.45644150e+001, 0., 1.15541601e+001, 5.24264050e+000,
          5.85786462e-001, 1., 5.85786462e-001, 3.93385363e+000,
          6.05291843e+000, 0., 1.73459077e+000, 3.67962265e+000,
          1.58578646e+000, 2.41421366e+000, 4., 7.66105938e+000,
          4.07353115e+000, 0., 1.65147190e+001, 4.82842731e+000, 1., 1.,
          1., 7.24264050e+000, 1.39289322e+001, 0., 4.53841019e+001,
          4.97518463e+001, 1.22028427e+001, 2.08963108e+000,
          3.17157292e+000, 8.60435009e+000, 9.96287346e+000, 0.,
          3.99965501e+000, 1.54252377e+001, 1.44547415e+000,
          3.20377231e-001, 7.38796115e-001, 6.14145756e+000,
          2.14997082e+001, 0., 2.90616369e+000, 8.67962265e+000, 2.,
          1.41421354e+000, 3.54691815e+000, 9.03886795e+000, 2., 0., 4.,
          4.41421366e+000, 5.85786462e-001, 7., 8., 1.44142132e+001,
          4.58578634e+000, 0., 9.24904156e+000, 3.79462318e+001,
          2.50238571e+001, 1.69456539e+001, 8.97899342e+000,
          2.41463413e+001, 1.32065401e+001, 0., 1.36679697e+001,
          3.20208359e+001, 3.87399673e+001, 3.30298042e+001,
          1.64378014e+001, 2.01041698e+001, 2.07004776e+001, 0.,
          2.90616369e+000, 3.26540923e+000, 2.58578634e+000,
          2.50384450e+000, 7.32458258e+000, 2., 3., 0., 9.37813377e+000,
          6.31152916e+000, 1.02503757e+001, 1.19619198e+001,
          7.47127199e+000, 1.47349634e+001, 4.83857965e+000, 0.,
          1.00819416e+001, 1.48588848e+001, 2.23072777e+001,
          5.85951920e+001, 2.45632305e+001, 1.61792622e+001,
          1.75735927e+000, 0., 1., 6.47974253e+000, 1.73915100e+001,
          3.71868744e+001, 1.94187140e+000, 0., 0., 0., 1.17157292e+000,
          5.79898977e+000, 1.10294371e+001, 0., 2.19782519e+000,
          1.79321175e+001, 1.15979795e+001, 2.53988361e+001,
          5.87324286e+000, 7.83611596e-001, 1.97605438e+001,
          2.23675327e+001, 5.01064224e+001, 6.98188925e+000,
          2.82216525e+000, 1.08641262e+001, 6.62741709e+000,
          3.41586037e+001, 2.05276890e+001, 0., 1.75735927e+000,
          6.21320343e+000, 1.40294371e+001, 0., 0., 5.27207804e+000,
          1.57401152e+001, 2.64205837e+001, 1.56722319e+000, 0.,
          3.51471853e+000, 2.56812401e+001, 1.04345009e+002,
          1.14590292e+001, 5.22407770e-001, 1.30217485e+001,
          2.02964649e+001, 1.01370995e+002, 4.37883873e+001, 0.,
          5.75735950e+000, 2.48528147e+000, 1.12349520e+001,
          5.22407770e-001, 0., 5.85786462e-001, 1.44974747e+001,
          6.95844650e+001, 4.33227158e+000, 4.45554543e+000,
          1.12307463e+001, 1.15979795e+001, 7.33224716e+001,
          3.13932610e+001, 2.38545208e+001, 8.70916519e+001,
          2.56812401e+001, 1.31113787e+001, 2.61203885e-001,
          2.61203885e-001, 3.08194184e+000, 4.55634928e+000,
          1.69026794e+001, 1.19782519e+000, 1.66813517e+000,
          3.50343776e+000, 6.62741709e+000, 6.26337852e+001,
          8.56722355e+000, 1.45133996e+000, 1.59923105e+001,
          1.11837664e+001, 4.19571495e+001, 3.34154320e+001, 0., 0., 0.,
          0., 0., 4.36988783e+000, 1.13874712e+001, 2.48528147e+000,
          6.84180784e+000, 3.91555142e+000, 1.89445057e+001,
          1.51560001e+001, 8.69848442e+000, 2.40040855e+001,
          2.41969242e+001, 2.63579731e+001, 2.99851723e+001,
          7.87005758e+000, 4.53915291e+001, 2.73952694e+001,
          6.34190798e+000, 1.37585974e+001, 5.38477612e+000,
          9.02903080e+000, 1.48568821e+000, 1.08963096e+000,
          5.25351477e+000, 4.55634928e+000, 1.21530094e+001,
          2.94749546e+000, 0., 1.48873014e+001, 1.69827557e+001,
          1.51299419e+001, 0., 6.22143707e+001, 4.05013580e+001,
          1.24264069e+001, 1.70448151e+001, 1.81304884e+000,
          9.86277771e+000, 1.13087959e+001, 8.28427136e-001,
          1.08051033e+001, 2.11948967e+001, 2.44046593e+000,
          9.48846626e+000, 4.14213562e+000, 9.92124271e+000,
          3.00768924e+000, 0., 5.68629169e+000, 1.03553391e+001,
          1.89135532e+001, 1.04481554e+000, 2.69594059e+001,
          3.71999741e+001, 2.19533195e+001, 3.77076340e+001,
          4.17966890e+000, 6.45031891e+001, 3.52541733e+001,
          3.72792196e+000, 2.50926075e+001, 4.24221115e+001,
          6.75417423e-001, 6.42508745e+000, 7.04163074e+000,
          8.85786438e+000, 0., 5.55961704e+000, 2.32271805e+001,
          1.07695522e+001, 1.92958183e+001, 7.14783287e+000,
          1.66295280e+001, 3.94293442e+001, 1.94680367e+001,
          3.80326233e+001, 5.44046593e+000, 2.04996128e+001,
          1.98435326e+001, 1.65685427e+000, 4.44455862e+000,
          1.55544126e+000, 1.04481554e+000, 1.54699030e+001,
          6.21320343e+000, 5.27207804e+000, 0., 2.61203885e+000,
          2.98610497e+001, 1.78111839e+001, 2.93015156e+001,
          4.14213568e-001, 0., 5.85786462e-001, 1.69827557e+001,
          1.07712830e+002, 2.37186260e+001, 0., 0., 1.65685427e+000,
          3.04414654e+001, 6.59016800e+001, 0., 4.51471853e+000,
          7.45584393e+000, 8.02943707e+000, 0., 0., 4.10172424e+001,
          1.82253971e+001, 1.75735927e+000, 0., 7.07106781e+000,
          7.05319595e+001, 2.77523079e+001, 1.91222534e+001,
          5.22407770e-001, 2.24264073e+000, 3.88873024e+001,
          2.77523079e+001, 7.55420227e+001, 2.35757236e+001, 0.,
          1.69583702e+001, 7.87005758e+000, 1.17157292e+000, 0.,
          7.24264050e+000, 6.95735931e+001, 1.11837664e+001, 0., 0.,
          3.73009911e+001, 7.86157455e+001, 1.65685425e+001,
          7.10050488e+000, 4.14213568e-001, 8.20910645e+000,
          7.33522949e+001, 2.94091625e+001, 1.37682333e+001,
          2.61203885e-001, 7.83611596e-001, 1.29026794e+001,
          5.79898977e+000, 5.51471853e+000, 0., 2.04314575e+001,
          6.42548370e+001, 4.14213562e+000, 1.17157292e+000, 0.,
          4.41728554e+001, 5.16139412e+001, 6.62741709e+000,
          5.85786462e-001, 0., 2.61203885e-001, 1.73879611e+000, 0., 0.,
          0., 9.60188293e+000, 7.98390341e+000, 2.07106781e+000,
          7.40652466e+000, 9.36621308e-001, 1.69800377e+001,
          4.39072647e+001, 1.15979795e+001, 1.15232563e+001,
          6.99146223e+000, 5.95671196e+001, 4.93912506e+001,
          1.03553391e+001, 1.42190657e+001, 9.46722603e+000,
          1.59796934e+001, 1.72923851e+001, 4.97056293e+000,
          1.75735927e+000, 0., 1.19782519e+000, 1.04884663e+001,
          6.21320343e+000, 6.10050488e+000, 0., 0., 4.38040390e+001,
          2.44386005e+001, 1.75735927e+000, 0., 3.37583466e+001,
          5.74010315e+001, 1.86396103e+001, 1.80628834e+001,
          4.13812733e+000, 2.48407269e+001, 1.53308468e+001,
          2.07106781e+000, 3.75735927e+000, 1., 0., 6.10050488e+000,
          6.21320343e+000, 5.68629169e+000, 0., 0., 1.54730883e+001,
          1.53259020e+001, 1.12010098e+001, 0., 8.43495750e+000,
          2.64523449e+001, 2.44386005e+001, 4.01302986e+001,
          1.15437994e+001, 3.17418213e+001, 2.39444695e+001,
          4.55634928e+000, 4.09209366e+001, 6.78364258e+001, 0.,
          5.10050488e+000, 5.79898977e+000, 9.83930111e+000,
          2.61203885e-001, 7.55643177e+000, 2.51298599e+001,
          8.28427124e+000, 2.46116314e+001, 8.41780567e+000,
          6.75417423e-001, 1.23540201e+001, 1.90538235e+001,
          6.27549057e+001, 3.61618347e+001, 0., 5.85786462e-001,
          8.28427136e-001, 2.13970890e+001, 3.91886978e+001 ]
      - [ 1.68596768e+000, 7.51248932e+000, 1.49595594e+001,
          3.08964467e+000, 2.06229162e+000, 1.30355883e+000,
          2.01470304e+000, 3.71785164e-001, 0., 1.26145229e+001,
          1.19961529e+001, 1.10159712e+001, 1.36794739e+001,
          9.36111546e+000, 1.13971272e+001, 1.10331087e+001, 0.,
          1.46424961e+001, 2.71890011e+001, 1.89583855e+001,
          2.16869869e+001, 2.45231285e+001, 1.99366207e+001,
          1.80517654e+001, 0., 1.05560360e+001, 3.19331512e+001,
          3.83006744e+001, 5.90470619e+001, 3.10695229e+001,
          2.07546139e+001, 1.16635227e+001, 0., 1.06725464e+001,
          5.58230257e+000, 1.28549182e+000, 0., 1., 2.66119063e-001,
          1.48774171e+000, 0., 7.11414146e+000, 8.41421318e+000,
          6.17157269e+000, 14., 9.17157269e+000, 7.91805792e+000,
          1.08732424e+001, 0., 1.90066681e+001, 2.28403225e+001,
          2.10928154e+001, 2.28175526e+001, 5.58578634e+000,
          8.41421318e+000, 1.15857868e+001, 0., 1.67573586e+001,
          1.76568546e+001, 1.59204092e+001, 2.77473202e+001,
          1.26754179e+001, 2.18774471e+001, 3.72864342e+001, 0., 1.,
          7.20109892e+000, 9.42044544e+000, 8.37845516e+000,
          1.76439393e+000, 4.23560619e+000, 0., 0., 9.58578682e+000,
          2.34142132e+001, 1.34142132e+001, 7.58578634e+000,
          3.26120377e+000, 1.43498144e+001, 6.38898182e+000, 0.,
          2.18251476e+001, 2.46343288e+001, 5.75735950e+000,
          7.65685415e+000, 1.77977905e+001, 3.49749947e+001,
          1.88970814e+001, 0., 3.77396851e+001, 4.83579216e+001,
          1.76597538e+001, 1.70500317e+001, 1.52794008e+001,
          2.69317703e+001, 1.39103689e+001, 5.22407770e-001,
          2.73459077e+000, 1.22916346e+001, 4.90773392e+000,
          1.24608266e+000, 8.19958270e-001, 4., 3.47759223e+000, 0.,
          1.05036373e+001, 2.39691124e+001, 1.01220875e+001,
          3.68958068e+000, 7.11554050e+000, 1.78884621e+001,
          5.64734840e+000, 0., 3.25309448e+001, 2.82002411e+001,
          5.93775463e+000, 9.88442707e+000, 2.60696259e+001,
          1.91818829e+001, 1.04452734e+001, 0., 2.19998283e+001,
          3.17991486e+001, 1.40866156e+001, 1.52654095e+001,
          5.48107624e+000, 3.34866562e+001, 3.30494957e+001,
          1.39160049e+000, 1.41421354e+000, 2.84012675e+000,
          7.45659769e-001, 1.54384720e+000, 1.60637391e+000,
          1.60995960e+001, 6.35858250e+000, 0., 8.86024380e+000,
          1.57429285e+001, 5.18529463e+000, 7.31430960e+000,
          9.75672817e+000, 2.68269501e+001, 1.02313004e+001, 0.,
          3.57447472e+001, 2.41873989e+001, 5.29788303e+000,
          4.49747467e+000, 8.57690334e+000, 1.26244736e+001,
          2.20466137e+001, 0., 3.48865814e+001, 3.33974075e+001,
          9.40230465e+000, 9., 1.26491652e+001, 3.32730980e+001,
          2.42601833e+001, 1.90743566e-001, 0., 7.18767262e+000,
          4.55112362e+000, 8.93662167e+000, 4.19295406e+000,
          2.13162851e+000, 8.09256434e-001, 0., 9.58578682e+000,
          2.28350964e+001, 7.16490412e+000, 4.41421366e+000,
          5.85786462e-001, 8., 4., 0., 1.92493095e+001, 2.47279224e+001,
          1.66862907e+001, 1.02426405e+001, 4.41421366e+000,
          1.75308189e+001, 2.38123264e+001, 0., 3.77774239e+001,
          5.81347618e+001, 3.22433434e+001, 1.15541697e+001,
          5.75735950e+000, 2.00688992e+001, 2.16880531e+001, 0., 1., 3.,
          0., 1., 0., 4.39987421e-001, 5.60012579e-001, 0.,
          7.82073784e+000, 8.35083485e+000, 1.45857868e+001,
          9.82842731e+000, 2.17157292e+000, 1.70710678e+001,
          9.34314537e+000, 0., 9.85293770e+000, 2.49395809e+001,
          1.87841625e+001, 1.98196907e+001, 2.57447433e+001,
          2.05934753e+001, 1.81261501e+001, 0., 1.87937374e+001,
          5.28400803e+001, 6.27346611e+001, 1.32471104e+001,
          9.55804062e+000, 2.27109947e+001, 2.24053173e+001,
          5.92830241e-001, 0., 4., 0., 1.29575402e-001, 4.62200975e+000,
          1.00991945e+001, 3.55638981e+000, 0., 1.24475479e+001,
          9.60495758e+000, 6.17157269e+000, 5.65685415e+000,
          1.27156477e+001, 1.81729431e+001, 7.61865330e+000, 0.,
          1.63678665e+001, 2.91470947e+001, 2.67906017e+001,
          2.29072628e+001, 2.07791271e+001, 2.11602211e+001,
          1.30883770e+001, 0., 2.65250039e+000, 1.83335438e+001,
          5.15123825e+001, 6.47817459e+001, 1.88898964e+001,
          8.07677841e+000, 4.05496788e+000, 1.47456045e+001,
          1.05975409e+001, 1.65685427e+000, 1.62441111e+000,
          4.37558889e+000, 1.61729641e+001, 2.33711910e+001,
          1.32548342e+001, 2.35909653e+001, 6.61004400e+000,
          8.45902920e+000, 4.93572044e+001, 2.11248913e+001,
          4.58139954e+001, 1.32448788e+001, 3.39363365e+001,
          6.26372566e+001, 2.44386005e+001, 5.22535133e+001,
          8.73429203e+000, 7.84291458e+000, 1.10860176e+001,
          2.89949489e+000, 2.21884847e+000, 9.52724338e-001,
          2.61203885e-001, 1.88687382e+001, 1.73969688e+001,
          2.49506798e+001, 5.22407770e-001, 1.72023296e+000,
          5.39833031e+001, 3.02375908e+001, 1.70588741e+001, 0.,
          2.61203885e-001, 4.02707596e+001, 3.93502884e+001,
          5.65690880e+001, 3.54866004e+000, 6.61469126e+000,
          1.08289595e+001, 6.21320343e+000, 3.13171315e+000,
          1.21143258e+000, 1.04481554e+000, 3.20434952e+001,
          1.69827557e+001, 1.52426405e+001, 6.68629169e+000,
          7.99075317e+000, 3.58254814e+001, 2.23675327e+001,
          4.72707138e+001, 1.95455208e+001, 1.60217457e+001,
          6.81965103e+001, 3.56223679e+001, 3.94939232e+001,
          9.66545677e+000, 1.25662003e+001, 7.01958609e+000,
          1.24264073e+000, 7.96954250e+000, 1.20203054e+000,
          1.61270351e+001, 2.75886936e+001, 1.03553391e+001,
          1.93852730e+001, 1.15436583e+001, 1.94071102e+001,
          4.41370468e+001, 1.24264069e+001, 3.70327301e+001,
          2.39967060e+001, 2.74498711e+001, 3.91947899e+001,
          2.40243874e+001, 4.43318672e+001, 3.49990845e+001,
          4.50435209e+000, 4.95648026e-001, 1.24264073e+000,
          7.84877634e+000, 1.79085827e+001, 6.37436152e+000,
          2.57261429e+001, 5.79898977e+000, 2.83456478e+001,
          1.87548561e+001, 2.99328804e+000, 4.75386734e+001,
          2.94091625e+001, 3.42559242e+001, 4.80295086e+000,
          7.68280792e+000, 5.81628647e+001, 3.64507942e+001,
          5.30466805e+001, 2.65685415e+000, 2.07106781e+000,
          8.27207756e+000, 2.89949489e+000, 4.26123333e+000,
          2.49612594e+000, 2.22726250e+000, 2.70031853e+001,
          1.57401152e+001, 8.02943707e+000, 0., 7.83611596e-001,
          4.69909935e+001, 3.23086586e+001, 3.27822914e+001,
          2.13444638e+000, 7.60833817e+001, 5.20465622e+001,
          1.57401152e+001, 4.20888290e+001, 5.04111338e+000,
          6.75417423e-001, 2.91036892e+000, 4.14213568e-001,
          1.42645061e-001, 8.57354939e-001, 1.04481554e+000,
          2.22567005e+001, 1.49116879e+001, 2.25255928e+001,
          2.61203885e-001, 9.67091370e+000, 4.04590302e+001,
          2.07106781e+001, 5.67822914e+001, 4.37708712e+000,
          1.05716934e+002, 3.45551414e+001, 9.52691174e+000,
          4.08238144e+001, 1.43771954e+001, 0., 3.17157292e+000,
          8.28427136e-001, 3.73846388e+000, 1.52615366e+001,
          2.24264073e+000, 2.32010098e+001, 1.07695522e+001,
          2.36667919e+001, 1.31200056e+001, 2.47643394e+001,
          4.57087479e+001, 1.90538235e+001, 3.51793480e+001,
          1.82937393e+001, 7.16927109e+001, 2.71651516e+001,
          8.28427124e+000, 2.25818329e+001, 2.22760315e+001,
          6.24234009e+000, 7.27237892e+000, 3.31370854e+000,
          3.03442264e+000, 6.13715029e+000, 1.47915773e+001,
          2.15099373e+001, 1.40832615e+001, 2.17559910e+001,
          1.18592329e+001, 5.85786438e+000, 3.83015137e+001,
          2.65096684e+001, 5.51978264e+001, 9.13312721e+000,
          9.36621308e-001, 2.54653988e+001, 2.65096684e+001,
          7.80605392e+001, 5.10277748e+001, 8.92363834e+000,
          1.25910807e+001, 4.14213562e+000, 2.34314585e+000, 0.,
          6.40652466e+000, 2.82087002e+001, 1.28406200e+001,
          2.32458248e+001, 1.29833031e+000, 1.82842708e+000,
          4.71888161e+001, 2.73380947e+001, 3.89878082e+001,
          2.65685415e+000, 3.28745627e+000, 7.35876541e+001,
          3.35513000e+001, 3.96184082e+001, 6.95518446e+000, 0.,
          5.85786462e-001, 2.48528147e+000, 1.17535295e+001,
          8.17540264e+000, 0., 1.99878063e+001, 2.11248913e+001,
          1.73648930e+001, 5.22407770e-001, 9.19229984e+000,
          4.86533699e+001, 2.60954552e+001, 2.87342911e+001,
          3.32458258e+000, 2.78506517e+000, 5.33915596e+001,
          4.34924240e+001, 3.96899033e+001, 1.16410484e+001,
          5.22407770e-001, 6.40652466e+000, 3.31370854e+000,
          7.76628637e+000, 5.99107313e+000, 1.37178431e+001,
          1.61400204e+001, 1.15979795e+001, 2.03527184e+001,
          3.19143677e+000, 1.29639730e+001, 4.97811928e+001,
          1.90538235e+001, 2.92724171e+001, 2.19285927e+001,
          4.21612015e+001, 6.56844711e+001, 2.31959591e+001,
          2.93899193e+001, 9.56844997e+000, 9.96103954e+000,
          7.96789265e+000, 2.48528147e+000, 2.52278185e+000,
          3.06300473e+000, 7.04415226e+000, 2.26715775e+001,
          1.32548342e+001, 1.43632441e+001, 1.16661930e+001,
          2.77314448e+000, 7.40308990e+001, 2.94091625e+001,
          1.28182049e+001, 1.96859205e+000, 2.08963108e+000,
          8.67438431e+001, 4.30782089e+001, 2.40883121e+001, 0.,
          8.86081100e-001, 1.13918900e-001, 4.14213562e+000,
          1.56600389e+001, 1.19782519e+000, 0., 1.58873014e+001,
          1.28406200e+001, 1.00108738e+001, 2.61203885e-001,
          2.24264073e+000, 5.33898277e+001, 3.31370850e+001,
          2.32304478e+001, 0., 4.64973564e+001, 5.78041573e+001,
          2.27817459e+001, 4.26047020e+001, 1.43120384e+001,
          7.12219775e-001, 1.87356663e+000, 8.28427136e-001,
          5.85786462e-001, 0., 0., 2.00588741e+001, 1.86396103e+001,
          1.90403118e+001, 2.61203885e-001, 3.11588335e+000,
          3.81145630e+001, 2.36101723e+001, 5.25179024e+001,
          7.64147615e+000, 2.18844833e+001, 4.30028191e+001,
          1.44974747e+001, 3.33941994e+001, 7.52210236e+001,
          3.52326679e+000, 2.23409247e+000, 1.24264073e+000,
          1.76922095e+000, 7.23077917e+000, 7.09887648e+000,
          1.82737064e+001, 1.15979795e+001, 2.05563202e+001,
          5.47311735e+000, 9.62255287e+000, 3.10221081e+001,
          2.31959591e+001, 5.23001137e+001, 2.18592644e+001,
          3.56096125e+000, 1.45395441e+001, 5.79898977e+000,
          2.67911205e+001, 1.16309387e+002 ]
      - [ 0., 1.15147190e+001, 6.24264050e+000, 4.58578634e+000, 1., 0.,
          0., 1., 0., 2.17682343e+001, 4.45563507e+001, 9.34314537e+000,
          3., 0., 2., 1., 0., 2.59398060e+001, 4.36798820e+001,
          4.93403511e+001, 1.37973213e+001, 5.85786462e-001,
          1.41421354e+000, 1.58578646e+000, 0., 1.72899189e+001,
          3.36954498e+001, 3.35731163e+001, 2.29376698e+001,
          2.61203885e-001, 2., 2.17157292e+000, 0., 1.20294371e+001,
          2.82842708e+000, 0., 0., 0., 0., 1., 0., 2.37573586e+001, 0.,
          0., 0., 0., 6.09250188e-001, 8.03570938e+000, 0.,
          3.30294380e+001, 5.41421366e+000, 0., 1., 0., 2.45651460e+000,
          3.58749199e+001, 0., 1.42720776e+001, 6.41421366e+000, 0., 2.,
          5.17157269e+000, 1.71294403e+001, 4.70739441e+001, 0., 2., 1.,
          0., 0., 0., 0., 3.58578634e+000, 0., 0., 0., 0., 0., 0.,
          6.28036308e+000, 3.87681961e+001, 0., 0., 0., 0., 0., 0.,
          3.03532004e+000, 7.64805698e+000, 0., 0., 0., 0., 0., 0., 0.,
          0., 0., 4.32037735e+000, 0., 0., 0., 0., 0., 5.58578634e+000,
          0., 0., 0., 0., 0., 0., 2.76965976e+000, 4.27303772e+001, 0.,
          0., 0., 0., 0., 0., 0., 0., 0., 5.85786462e-001, 0.,
          2.92893219e+000, 6.06292343e+001, 1.74418316e+001, 0.,
          4.14213568e-001, 0., 6.51471853e+000, 0., 0., 0., 0., 0.,
          3.75735927e+000, 0., 1.23431454e+001, 2., 0., 0., 0., 0.,
          3.07372913e+001, 0., 4.41421366e+000, 0., 0., 5.02179956e+000,
          1.06639147e+001, 1.63146706e+001, 4.55262794e+001, 0., 0., 5.,
          6., 7.00646667e+001, 7.49431458e+001, 2.54064007e+001,
          6.58578634e+000, 0., 9.10050488e+000, 1., 0., 0., 0., 0., 0.,
          0., 3.35147171e+001, 1.24142132e+001, 0., 0., 0., 0., 1., 0.,
          3.07573586e+001, 2.28284264e+001, 1.11715727e+001, 1., 4.,
          7.82842731e+000, 1.87573586e+001, 0., 2.51715736e+001,
          3.63956490e+001, 4.45893478e+001, 2.08434315e+001, 3., 14.,
          2.03431454e+001, 0., 3., 8., 5., 0., 0., 0., 0.,
          4.14213568e-001, 7.75735950e+000, 4.37293396e+001,
          2.94453239e+001, 1.06537647e+001, 0., 0., 0., 0., 0.,
          1.60684013e+001, 5.52696953e+001, 2.76619034e+001, 1., 0., 0.,
          0., 0., 3.21057200e+000, 1.84948349e+001, 1.12945938e+001, 0.,
          0., 0., 0., 8., 9., 2., 2., 0., 0., 0., 0., 1.23431454e+001,
          2.16056957e+001, 3.97339783e+001, 1.43171806e+001, 0., 0., 0.,
          0., 0., 2.60759187e+000, 1.91069527e+001, 1.12854557e+001, 0.,
          0., 0., 0., 0., 0., 0., 0., 0., 0., 0., 5.22407770e-001,
          1.72643890e+001, 6.62741709e+000, 5.85786462e-001, 0.,
          1.82842708e+000, 5.81177483e+001, 2.02964649e+001,
          1.75735927e+000, 0., 3.35826683e+001, 8.03340683e+001,
          1.44974747e+001, 3.32458258e+000, 2.61203885e-001,
          3.70470161e+001, 5.11123619e+001, 1.44974747e+001,
          3.82842708e+000, 5.14718652e-001, 0., 1.23725834e+001,
          7.04163074e+000, 5.85786462e-001, 0., 0., 1.46446609e+001,
          1.32548342e+001, 6.82490778e+000, 1.27559745e+000, 0.,
          2.91888161e+001, 2.44386005e+001, 2.23923645e+001,
          2.49802189e+001, 2.61203885e-001, 1.50403109e+001,
          2.02964649e+001, 3.84229622e+001, 3.09790573e+001, 0.,
          1.75735927e+000, 3.72792196e+000, 3.51471853e+000, 0., 0., 0.,
          4.14213562e+000, 2.32818336e+001, 3.15760307e+001, 0., 0., 0.,
          5.32458782e+000, 7.67541218e+000, 0., 0., 0., 0., 0., 0.,
          5.68629169e+000, 5.79898977e+000, 5.51471853e+000, 0., 0., 0.,
          3.31370854e+000, 3.11057320e+001, 2.75805588e+001, 0., 0., 0.,
          0., 0., 5.22407770e-001, 3.82073808e+000, 6.21320343e+000,
          3.36577759e+001, 1.37858734e+001, 0., 5.27207804e+000,
          5.79898977e+000, 2.92893219e+000, 0., 0., 1.17157288e+001,
          1.57401152e+001, 2.53166695e+001, 1.02274857e+001, 0.,
          4.10050488e+000, 1.61543293e+001, 4.90234680e+001,
          3.27216949e+001, 0., 6.44365072e+000, 3.60365791e+001,
          8.29608917e+001, 1.85588779e+001, 0., 7.61522388e+000,
          5.38477612e+000, 0., 0., 0., 2.89461765e+001, 1.94680367e+001,
          5.85786462e-001, 0., 0., 4.19756126e+001, 3.60365791e+001,
          1.89878063e+001, 0., 1.13659668e+001, 7.14969482e+001,
          4.80487747e+001, 2.40883121e+001, 0., 0., 9.37258339e+000,
          6.62741709e+000, 0., 0., 8.76099300e+000, 5.83567543e+001,
          1.98822517e+001, 0., 0., 3.34403725e+001, 5.17606354e+001,
          6.21320343e+000, 5.85786462e-001, 0., 1.59202709e+001,
          1.16655149e+001, 4.14213568e-001, 0., 0., 2.61203885e-001,
          1.21113787e+001, 6.62741709e+000, 0., 0., 2.70134354e+001,
          4.56312256e+001, 1.03553391e+001, 0., 0., 1.58249044e+001,
          1.07608824e+001, 4.14213568e-001, 0., 0., 0., 0., 0., 0., 0.,
          0., 1.37867966e+001, 8.69848442e+000, 3.51471853e+000, 0.,
          5.22407770e-001, 2.36075344e+001, 1.44974747e+001,
          9.37258339e+000, 0., 2.61203885e-001, 2.91408157e+001,
          1.86396103e+001, 3.37426758e+001, 3.22156944e+001,
          7.83611596e-001, 2.71036892e+001, 1.28406200e+001,
          2.20451756e+001, 3.72269020e+001, 0., 2.16152229e+001,
          5.38477612e+000, 0., 0., 2.54097104e+000, 6.25767784e+001,
          1.98822517e+001, 0., 0., 3.52651482e+001, 8.55094528e+001,
          1.86396103e+001, 5.85786462e-001, 0., 3.34309807e+001,
          6.79294128e+001, 2.19533195e+001, 4.68629169e+000, 0.,
          5.22407770e-001, 2.35070286e+001, 4.97056293e+000, 0., 0.,
          3.91095238e+001, 3.78904762e+001, 0., 0., 0., 9.29979610e+000,
          4.70020390e+000, 0., 0., 0., 0., 0., 0., 0., 0.,
          3.01856327e+000, 2.57387962e+001, 1.24264073e+000, 0., 0.,
          3.75149498e+001, 2.76566219e+001, 8.28427136e-001, 0., 0., 0.,
          0., 0., 0., 0., 8.46990287e-001, 2.15300965e+000,
          2.89949489e+000, 2.84493294e+001, 4.96511765e+001, 0.,
          2.24436512e+001, 4.55634928e+000, 0., 0., 1.80610027e+001,
          6.23410187e+001, 1.15979795e+001, 0., 0., 3.25620117e+001,
          6.11537170e+001, 1.07695522e+001, 1.19310503e+001,
          7.58366871e+000, 0., 6.44365072e+000, 3.39655113e+001,
          9.17251282e+001, 3.28657112e+001, 0., 2.10294380e+001,
          4.97056293e+000, 0., 0., 0., 5.02182541e+001, 2.27817459e+001,
          0., 0., 0., 5.24192657e+001, 3.52081528e+001, 1.03725834e+001,
          0., 0., 4.78334770e+001, 4.63919182e+001, 4.09432602e+001,
          1.28313446e+001, 0., 5.27207804e+000, 5.79898977e+000,
          2.92893219e+000, 0., 0., 5.68629169e+000, 1.32548342e+001,
          2.27646179e+001, 1.02942572e+001, 0., 0., 6.62741709e+000,
          3.76158676e+001, 4.37567139e+001, 0., 0., 4.14213568e-001,
          1.28544703e+001, 1.87313156e+001, 0., 5.27207804e+000,
          5.79898977e+000, 2.92893219e+000, 0., 0., 8.78679657e+000,
          1.24264069e+001, 2.22177849e+001, 2.95690117e+001, 0., 0.,
          4.14213568e-001, 1.16489916e+001, 1.89367943e+001, 0., 0., 0.,
          0., 0. ]
      - [ 1.43348217e+000, 1.37932813e+000, 9.49607944e+000,
          6.11240053e+000, 6.66741133e+000, 4.09539032e+000,
          2.42096281e+000, 1.39494491e+000, 0., 3.64826345e+000,
          3.23794365e+001, 3.22349854e+001, 2.17373142e+001, 0., 3., 0.,
          0., 0., 3.54199219e+000, 2.13905621e+001, 2.90674458e+001, 0.,
          0., 0., 0., 0., 5.58576727e+000, 2.00296593e+001,
          8.38457298e+000, 0., 0., 0., 0., 1.40163982e+000,
          2.04276829e+001, 5.31332254e+000, 1.55233324e+000,
          3.05021703e-001, 1., 0., 0., 1.30777369e+001, 2.65157394e+001,
          1.59923105e+001, 1.48284273e+001, 7.34314585e+000,
          5.24264050e+000, 1., 0., 1.00777369e+001, 2.97142391e+001,
          3.87755089e+001, 3.42609444e+001, 1.47573595e+001,
          9.24264050e+000, 3.17157292e+000, 0., 8.46580029e+000,
          2.56084347e+001, 4.70523224e+001, 7.45694656e+001,
          2.34440670e+001, 1.21211109e+001, 4.91036892e+000,
          1.03834140e+000, 7.00892115e+000, 1.66117725e+001,
          1.34096467e+000, 1.23899341e-001, 1.36138201e+000,
          2.77592254e+000, 1.73879611e+000, 0., 1.38372688e+001,
          1.31680956e+001, 1.87420025e+001, 4.42194176e+000,
          2.91194916e+000, 1.62281871e+000, 6.53718615e+000, 0.,
          2.97561932e+001, 3.24531136e+001, 1.83185558e+001,
          1.14719276e+001, 7.92699575e+000, 9.80471897e+000,
          7.90758038e+000, 0., 3.14372978e+001, 2.88450012e+001,
          2.07725353e+001, 6.54157829e+000, 1.44796486e+001,
          1.58753977e+001, 3.05551929e+001, 0., 5.85786462e-001,
          5.75796700e+000, 1.24781580e+001, 2.85771203e+000, 2.,
          3.20377231e-001, 3.74658370e+000, 0., 2.10738716e+001,
          1.58474607e+001, 4.04390430e+000, 4.74498320e+000,
          7.37370586e+000, 7.89854860e+000, 6.38438034e+000, 0.,
          2.01425152e+001, 1.27278566e+001, 4.79008579e+000,
          1.90743566e-001, 0., 0., 5.51138830e+000, 0., 1.40599327e+001,
          1.80885184e+000, 0., 0., 0., 0., 3.77370477e-001,
          7.33260536e+000, 7.67849636e+000, 1.39781046e+001,
          2.06190848e+000, 0., 0., 0., 9.48884904e-001, 0.,
          1.38690872e+001, 7.94832420e+000, 0., 0., 0., 0., 0., 0., 0.,
          0., 0., 0., 0., 0., 0., 0., 0., 0., 0., 0., 0., 0., 0., 0.,
          1.88059700e+000, 1.09383631e+000, 1.98082936e+000,
          3.53668237e+000, 3.80707097e+000, 1.84699035e+000,
          1.46986532e+000, 0., 1.35109558e+001, 6.20089674e+000,
          2.73879623e+000, 0., 0., 0., 5.81050336e-001, 0.,
          6.70547724e+000, 1.26889095e-001, 0., 0., 0., 0.,
          4.78067636e-001, 1.11550339e-001, 5.84884357e+000,
          3.96059416e-002, 0., 0., 0., 0., 0., 0., 1.41421354e+000,
          5.62796879e+000, 3.95781755e+000, 1.87116396e+000,
          5.06172562e+000, 1.07210455e+001, 3.34606528e+000, 0.,
          2.39205408e+000, 1.90956669e+001, 2.92521687e+001,
          3.06315861e+001, 8.53889275e+000, 3.35083485e+000,
          7.38796115e-001, 0., 2.03180814e+000, 1.51452827e+001,
          3.59540100e+001, 4.49936104e+001, 1.87529194e+000, 0., 0.,
          9.86104179e-003, 4.67813540e+000, 1.34059887e+001,
          1.05749226e+001, 1.33109236e+000, 0., 0., 0., 0.,
          1.58178329e+000, 3.93354273e+000, 3.41782975e+000,
          3.10470843e+000, 9.96562481e+000, 7.99651051e+000, 0., 0., 0.,
          1.24041796e+000, 1.00841036e+001, 3.02086105e+001,
          7.66273785e+000, 6.80413055e+000, 0., 0., 0., 0., 0., 0., 0.,
          0., 0., 0., 0., 0., 0., 0., 0., 0., 0., 1.43436823e+001,
          5.24210453e+000, 4.14213568e-001, 4.54936790e+000,
          8.45063210e+000, 5.36321754e+001, 2.98825436e+001,
          2.48528147e+000, 6.46832168e-001, 2.35316777e+000,
          3.33854294e+001, 1.13719301e+001, 1.24264073e+000, 0., 0.,
          2.75606079e+001, 3.43939304e+000, 0., 0., 0., 1.38990297e+001,
          1.28583298e+001, 1.65685427e+000, 8.73566687e-001,
          7.12219775e-001, 2.39565039e+000, 4.28347969e+001,
          1.53259020e+001, 9.44365120e+000, 0., 6.66114235e+000,
          6.81134644e+001, 2.77523079e+001, 1.84730873e+001, 0.,
          1.41917343e+001, 6.70265198e+001, 3.97645035e+001,
          3.82279129e+001, 4.78933001e+000, 1.37798986e+001,
          1.22201014e+001, 0., 1.69689536e+000, 4.30310488e+000,
          1.16884575e+001, 3.57846298e+001, 1.44974747e+001,
          1.39267445e+001, 4.10269260e+000, 1.09830685e+001,
          6.96910324e+001, 2.15391045e+001, 2.01403389e+001,
          6.64645863e+000, 2.03889103e+001, 6.26994019e+001,
          2.56812401e+001, 4.25634460e+001, 3.16670017e+001,
          7.74618626e+000, 1.24253864e+001, 1.65685427e+000,
          4.84412956e+000, 2.32744336e+000, 3.87249298e+001,
          1.44466448e+001, 1.65685427e+000, 1.34434586e+001,
          1.27281141e+001, 3.29924660e+001, 1.55933208e+001,
          1.24264073e+000, 6.42923975e+000, 1.17423334e+001,
          1.94829369e+001, 2.51706243e+000, 0., 1.01638049e-001,
          8.98361921e-001, 2.18226376e+001, 5.17736244e+000,
          8.28427136e-001, 3.49615550e+000, 6.75417423e-001,
          2.03556690e+001, 2.64433026e+000, 0., 0., 0., 0., 0., 0., 0.,
          0., 0., 0., 0., 0., 0., 2.21822238e+000, 6.95335054e+000,
          1.24264073e+000, 1.03283901e+001, 4.25739622e+000,
          2.28122978e+001, 1.77734871e+001, 8.28427136e-001,
          1.80986392e+000, 7.75922477e-001, 1.07252789e+001,
          6.44629431e+000, 8.28427136e-001, 4.55634928e+000,
          1.44365084e+000, 4.72151327e+000, 1.27848697e+000, 0., 0., 0.,
          6.24949121e+000, 4.75050879e+000, 8.28427136e-001,
          8.65752316e+000, 1.15140505e+001, 2.54707813e+001,
          4.02865753e+001, 3.72792196e+000, 1.34699030e+001,
          1.04481554e+000, 4.37332535e+001, 3.01246128e+001,
          4.14213562e+000, 3.23786616e+000, 1.76213372e+000,
          2.56483307e+001, 3.35167003e+000, 0., 0., 0., 4.52249050e+000,
          5.47750950e+000, 4.14213568e-001, 7.14261341e+000,
          1.24431725e+001, 1.62693462e+001, 5.48801279e+000,
          1.24264073e+000, 6.01651287e+000, 1.69834862e+001, 0., 0., 0.,
          0., 0., 0., 0., 0., 0., 0., 2.81622815e+000, 2.35534477e+000,
          1.24264073e+000, 7.19553709e+000, 1.63902493e+001,
          7.33124352e+000, 4.01190186e+000, 6.21320343e+000,
          2.83993587e+001, 3.80442924e+001, 0., 0., 0., 5.00451517e+000,
          4.69954834e+001, 0., 0., 0., 3.55557871e+000, 2.84444218e+001,
          0., 4.34314585e+000, 4.55634928e+000, 9.05479050e+000,
          2.04571462e+000, 0., 1.22010098e+001, 2.02964649e+001,
          2.95025253e+001, 0., 0., 1.31299419e+001, 2.56812401e+001,
          5.77452545e+001, 1.74435616e+001, 2.61203885e-001,
          1.66971664e+001, 2.85807362e+001, 8.11089859e+001,
          5.13519058e+001, 3.85091662e+000, 1.54922295e+001,
          3.31370854e+000, 2.97784042e+000, 1.36530519e+000,
          2.52192783e+001, 2.56385860e+001, 1.03553391e+001,
          2.10814037e+001, 4.70539236e+000, 2.07473640e+001,
          4.96546555e+001, 1.86396103e+001, 3.46152229e+001,
          6.34314585e+000, 5.82117233e+001, 6.53618698e+001,
          1.94680367e+001, 3.63911476e+001, 9.56722355e+000,
          3.40603399e+000, 3.59396601e+000, 1.65685427e+000,
          1.40597868e+001, 6.28335905e+000, 3.75023079e+001,
          1.42550526e+001, 4.55634928e+000, 1.50152111e+001,
          8.67108059e+000, 5.79684677e+001, 1.16173172e+001,
          8.28427136e-001, 4.91036892e+000, 6.75417423e-001,
          2.80211945e+001, 2.97880578e+000, 0., 0., 0., 1.84641933e+001,
          5.53580666e+000, 4.14213568e-001, 5.38796139e+000,
          1.19782519e+000, 1.80688400e+001, 2.93115973e+000, 0., 0., 0.,
          0., 0., 0., 0., 0., 0., 0., 0., 0., 0., 1.55275307e+001,
          3.05825543e+000, 8.28427136e-001, 5.96524477e+000,
          3.62054157e+000, 4.01291695e+001, 7.04240370e+000,
          1.65685427e+000, 3.17157292e+000, 0., 3.36549988e+001,
          2.34500313e+000, 0., 0., 0., 4.76134109e+000, 1.23865867e+000,
          0., 0., 0., 7.83611596e-001, 8.38796139e+000, 1.65685427e+000,
          1.11161823e+001, 6.05539083e+000, 0., 3.75735927e+000,
          6.21320343e+000, 4.22550697e+001, 3.07743664e+001,
          2.14554071e+000, 2.61181855e+000, 2.48528147e+000,
          2.96884727e+001, 5.90688858e+001, 5.54793072e+000,
          4.52069372e-001, 4.14213568e-001, 3.91229558e+000,
          1.26734905e+001, 0., 2.58578634e+000, 2.07106781e+000,
          1.39666491e+001, 1.03764963e+001, 0., 0., 4.14213568e-001,
          9.58653355e+000, 4.49992523e+001, 0., 0., 0., 0., 0., 0., 0.,
          0., 0., 0. ]
      - [ 0., 1.84884663e+001, 5.48528147e+000, 1.58578646e+000, 0., 0.,
          0., 0., 0., 5.17157269e+000, 6.82842731e+000, 1.14937124e+001,
          5.61194649e+001, 9.38682175e+000, 1., 0., 0., 0., 0., 0.,
          2.22860050e+001, 2.71399474e+000, 0., 0., 0., 0., 0., 0., 0.,
          0., 0., 0., 2.48528147e+000, 1.88578644e+001, 4.07106781e+000,
          5.85786462e-001, 2., 0., 0., 0., 0., 1.05857868e+001,
          8.41421318e+000, 2.58578634e+000, 1.64142132e+001,
          5.58578634e+000, 7.41421366e+000, 7.17157269e+000, 0.,
          5.85786462e-001, 5.82842731e+000, 1.37859621e+001,
          7.83062592e+001, 2.78367119e+001, 1.42426405e+001, 1., 0., 0.,
          5., 4.58578634e+000, 8.17249222e+001, 2.72750778e+001,
          3.41421366e+000, 5., 0., 0., 12., 1.25857868e+001,
          4.41421366e+000, 0., 0., 0., 0., 1., 2.98994942e+001,
          3.88578644e+001, 1.12426405e+001, 3., 3., 1., 0.,
          2.26120377e+000, 7., 2., 12., 7.17157269e+000, 1.60063095e+001,
          4.19379845e+001, 0., 2.86142230e+000, 3., 1., 4.,
          2.58578634e+000, 2.41421366e+000, 1.57699499e+001, 0., 0.,
          6.24264050e+000, 1.03431454e+001, 8., 1.41421354e+000, 0., 0.,
          0., 3., 6.82842731e+000, 1.47573595e+001, 2.64142132e+001,
          1.05857868e+001, 5.41421366e+000, 8.57518864e+000, 0., 0., 0.,
          0., 0., 0., 0., 2.37924557e+001, 0., 0., 0., 0., 0., 0., 0.,
          0., 0., 0., 0., 7.34590828e-001, 3.50804996e+000,
          1.65924549e+001, 9.84452724e+000, 3.20377231e-001, 0.,
          1.01863432e+001, 6.08963108e+000, 1.01715727e+001,
          1.24142132e+001, 1.05857868e+001, 1.57692537e+001,
          1.23084831e+001, 0., 2.49388027e+001, 1.34096467e+000, 0., 0.,
          0., 0., 5.22071600e+000, 0., 0., 0., 0., 0., 0., 0., 0., 0.,
          0., 0., 2.12963367e+000, 1.15009680e+001, 9.36939812e+000,
          4.82637072e+000, 2.17362952e+000, 0., 9.32037735e+000,
          2.30118942e+001, 1.37311068e+001, 7.35504007e+000,
          2.90616369e+000, 3.84278488e+000, 1.21572151e+001, 0.,
          4.85318680e+001, 2.06075363e+001, 3.07773662e+000, 4.,
          5.15300989e+000, 2.17894764e+001, 1.35705357e+001, 0.,
          3.93109169e+001, 2.16409721e+001, 2.19074368e+000, 0., 0., 0.,
          0., 0., 0., 0., 3.20377231e-001, 5.41421366e+000,
          6.06058693e+000, 1.19932842e+001, 7.21153831e+000, 0.,
          5.83570337e+000, 1.73764801e+001, 1.01260357e+001,
          2.31282177e+001, 1.23570662e+001, 1.09744673e+001,
          5.22347021e+000, 0., 4.49615526e+000, 1.20485201e+001,
          3.03435631e+001, 3.54175491e+001, 9.48939419e+000,
          2.58166656e+001, 1.94323616e+001, 0., 1.61383400e+001,
          4.49751434e+001, 2.57437859e+001, 3.05002422e+001,
          5.27496481e+000, 1., 1.26120389e+000, 0., 3., 4.14213568e-001,
          2.58578634e+000, 1., 1., 3.58578634e+000, 4.56722307e+000, 0.,
          5.07773638e+000, 3., 4.66611814e+000, 3.82685814e+001,
          7.06529903e+000, 7., 2.75735927e+000, 0., 0., 0.,
          2.98466754e+000, 2.28585873e+001, 1.56745136e-001, 0., 0., 0.,
          0., 0., 0., 0., 0., 0., 0., 5.22407770e-001, 2.26786022e+001,
          5.79898977e+000, 0., 0., 0., 2.09878063e+001, 1.86396103e+001,
          1.69064713e+001, 4.46611118e+000, 0., 0., 8.28427136e-001,
          6.02825975e+000, 5.14331341e+000, 0., 0., 0., 0., 0., 0.,
          2.06152229e+001, 5.38477612e+000, 0., 0., 0., 1.33015156e+001,
          1.69827557e+001, 1.27157288e+001, 0., 0., 1.74730873e+001,
          2.73380947e+001, 4.09846001e+001, 6.20421696e+000, 0.,
          7.02943707e+000, 2.11248913e+001, 4.53893814e+001,
          1.04562912e+001, 0., 1.50588741e+001, 9.94112587e+000, 0., 0.,
          0., 4.90466805e+001, 2.48528137e+001, 4.10050488e+000, 0., 0.,
          7.02943707e+000, 1.49116879e+001, 3.01976185e+001,
          4.08612556e+001, 2.18284321e+000, 4.33187532e+000,
          9.94112587e+000, 2.01932430e+001, 1.63509140e+001, 0.,
          1.22010098e+001, 6.62741709e+000, 1.17157292e+000, 0., 0.,
          1.63015156e+001, 1.82253971e+001, 2.12486038e+001,
          1.22448432e+000, 0., 0., 0., 1.23298883e+001, 3.66701126e+001,
          0., 0., 0., 0., 0., 0., 1.17157292e+000, 6.62741709e+000,
          2.02829514e+001, 1.91805816e+000, 9.36621308e-001,
          2.29506798e+001, 2.07106781e+001, 2.94653988e+001,
          9.36621308e-001, 2.82827969e+001, 2.00603504e+001,
          4.14213562e+000, 1.18951807e+001, 7.61953783e+000, 0., 0., 0.,
          0., 0., 2.61203885e-001, 2.91036892e+000, 2.48528147e+000,
          1.25615911e+001, 3.78155494e+000, 5.45902920e+000,
          3.89846230e+001, 9.52691174e+000, 1.44065247e+001,
          2.62291288e+000, 3.94613152e+001, 4.39112701e+001,
          1.36690474e+001, 3.38192291e+001, 7.13914156e+000,
          4.89539490e+001, 2.46318398e+001, 4.14213568e-001, 0., 0., 0.,
          5.85786462e-001, 1.65685427e+000, 1.38475113e+001,
          1.09098473e+001, 4.42549467e+000, 3.25328751e+001,
          1.44974747e+001, 2.40514851e+001, 3.49267173e+000,
          2.60901623e+001, 3.43534889e+001, 9.94112587e+000,
          3.79793930e+001, 2.36358318e+001, 4.03928185e+001,
          5.29797668e+001, 7.87005758e+000, 6.23612833e+000,
          9.52123070e+000, 0., 3.92893219e+000, 4.97056293e+000,
          8.16388416e+000, 9.36621308e-001, 6.86036491e+000,
          1.29264317e+001, 1.78111839e+001, 1.94020195e+001, 0.,
          5.79657030e+000, 2.20342970e+000, 1.24264073e+000,
          2.75735927e+000, 0., 0., 0., 0., 0., 0., 1.56722319e+000,
          2.02906418e+001, 4.97056293e+000, 1.17157292e+000, 0., 0.,
          3.51471853e+000, 9.52691174e+000, 3.21506004e+001,
          3.78077698e+001, 0., 0., 0., 3.18213201e+000, 2.18178673e+001,
          0., 0., 0., 0., 0., 0., 1.92720776e+001, 4.97056293e+000,
          1.75735927e+000, 0., 0., 2.82598839e+001, 2.36101723e+001,
          1.62010098e+001, 9.28932190e-001, 0., 2.17157292e+000,
          2.07106781e+001, 5.92974586e+001, 4.28202896e+001, 0.,
          4.10050488e+000, 1.57401152e+001, 4.99304581e+001,
          5.12289200e+001, 0., 0., 6.62741709e+000, 1.03725834e+001, 0.,
          0., 1.75735927e+000, 2.19533195e+001, 3.52893219e+001, 0.,
          4.90953255e+001, 1.60051804e+001, 1.15979795e+001,
          1.33015156e+001, 0., 4.00000458e+001, 1.84436054e+001,
          7.87005758e+000, 4.68629169e+000, 0., 0., 0., 6.21320343e+000,
          1.34359617e+001, 1.35083485e+000, 6.90148067e+000,
          1.31990242e+001, 1.98822517e+001, 3.54948349e+001,
          5.22407770e-001, 5.20824280e+001, 7.91757107e+000, 0., 0., 0.,
          0., 0., 0., 0., 0., 0., 5.85786462e-001, 7.45584393e+000,
          1.68687382e+001, 1.08963096e+000, 3.12675738e+000,
          2.58316116e+001, 1.57401152e+001, 2.38424854e+001,
          1.45902908e+000, 7.21096039e+001, 1.80619678e+001,
          8.28427136e-001, 0., 0., 0., 0., 0., 0., 0., 6.75417423e-001,
          3.91036892e+000, 3.72792196e+000, 1.73540192e+001,
          3.33227158e+000, 2.24264073e+000, 3.28162346e+001,
          1.65685425e+001, 2.30217476e+001, 1.35083485e+000,
          4.99128036e+001, 5.69744987e+001, 1.28406200e+001,
          1.27496700e+001, 5.22407770e-001, 4.98650703e+001,
          2.03065052e+001, 2.07106781e+000, 2.75735927e+000, 0.,
          2.27976704e+000, 9.06337833e+000, 4.97056293e+000,
          9.82073784e+000, 1.86555350e+000, 2.80986404e+000,
          1.50480003e+001, 9.11269855e+000, 3.43423309e+001,
          1.26871052e+001, 6.63378668e+000, 3.51530113e+001,
          1.15979795e+001, 3.20121384e+001, 4.66030884e+001,
          1.05914736e+001, 1.58521767e+001, 1.32548342e+001,
          3.84566422e+001, 3.58448715e+001, 1.56722319e+000,
          1.28764277e+001, 6.21320343e+000, 3.08194184e+000,
          2.61203885e-001, 1.45902908e+000, 2.08130493e+001,
          9.11269855e+000, 1.20778332e+001, 3.25373917e+001, 0., 0., 0.,
          3.28897119e+000, 2.27110291e+001, 0., 0., 0., 0., 0. ]
      - [ 2.61203885e-001, 0., 0., 0., 7.29816151e+000, 1.65302658e+001,
          4.43277693e+000, 2.47759223e+000, 1.44774210e+000, 0.,
          6.23962954e-002, 2.83144569e+001, 3.55681801e+001,
          1.06407547e+001, 3.78421903e+000, 1.31822519e+001, 0., 0.,
          2.50596094e+000, 3.32692337e+001, 3.65441055e+001,
          8.41949463e+000, 1.26120389e+000, 0., 0., 0., 0.,
          5.30947781e+000, 2.92102356e+001, 4.80286032e-001, 0., 0., 0.,
          0., 0., 0., 3.88063145e+000, 1.26061344e+001, 7.60707045e+000,
          3.56301785e+000, 0., 8.95518494e+000, 3.08963108e+000,
          5.34314585e+000, 1.47425623e+001, 2.66639614e+001,
          1.36126461e+001, 9.05828381e+000, 0., 1.55147190e+001,
          1.90710678e+001, 12., 2.71124001e+001, 8.88760090e+000, 18.,
          8., 0., 0., 1., 3.12454247e+000, 7.73050995e+001,
          6.56522980e+001, 4.87464867e+001, 8.17157269e+000, 0.,
          1.39504290e+000, 4.19074345e+000, 2.80925632e+000,
          3.28397250e+000, 5.16304970e+000, 8.52324009e+000,
          4.29094172e+000, 0., 4.54691839e+000, 2.30388680e+001,
          9.51471901e+000, 1.78724651e+001, 2.47658253e+001,
          2.71315122e+000, 7.61143112e+000, 0., 2.78800011e+000,
          2.41421366e+000, 1.10819416e+001, 2.66379662e+001,
          4.71879158e+001, 2.53575840e+001, 9.96457672e+000, 0., 0., 2.,
          0., 1.44142132e+001, 2.04208832e+001, 2.64027920e+001,
          4.98753090e+001, 0., 9.06163692e-001, 4.14213568e-001, 0., 0.,
          2.61203885e-001, 1.24184189e+001, 1.02307463e+001, 0.,
          4.01065683e+000, 1.60419388e+001, 1.31488047e+001,
          2.26120377e+000, 4.32037735e+000, 2.42958660e+001,
          2.03881721e+001, 0., 1.72114086e+001, 2.19568958e+001,
          8.49615574e+000, 1.41421354e+000, 1., 5.76586151e+000,
          2.44758644e+001, 0., 0., 0., 0., 0., 0., 0., 0., 0.,
          2.58578634e+000, 2., 1., 2., 1.58578646e+000, 7.80812216e+000,
          9.57563400e+000, 0., 2.61426449e+001, 1.63576546e+001,
          7.19464159e+000, 5.15237331e+000, 1.88700414e+000,
          5.27341318e+000, 8.46393681e+000, 0., 1.53439655e+001,
          5.02876425e+000, 0., 0., 0., 0., 4.42082310e+000, 0., 0., 0.,
          0., 0., 0., 0., 0., 0., 0., 3.24264073e+000, 2.19289322e+001,
          2.82842708e+000, 0., 0., 0., 0., 3.65587158e+001,
          3.59843216e+001, 3.86111450e+000, 3.41421366e+000,
          6.17157269e+000, 4.14213568e-001, 1., 0., 7.76464176e+000,
          1.27458391e+001, 0., 0., 0., 0., 0., 0., 0., 0., 0., 0., 0.,
          0., 0., 0., 1., 1.14142132e+001, 1.77573586e+001,
          1.82842708e+000, 0., 0., 0., 0., 5.12954664e+000,
          3.71896286e+001, 3.72750320e+001, 9.64589787e+000,
          2.17410827e+000, 1.58578646e+000, 1., 0., 2.62950745e+001,
          2.59093571e+001, 1.04301987e+001, 3.12643661e+001,
          4.85836220e+000, 2.50384450e+000, 3.49615550e+000, 0., 0.,
          3.03414798e+000, 9.65851963e-001, 1., 0., 0., 0., 0., 1., 4.,
          6.41421366e+000, 1.40980415e+001, 4.48774481e+000, 0., 0., 0.,
          1., 1., 9.84715176e+000, 3.75429306e+001, 8.60991573e+000, 2.,
          0., 0., 0., 0., 0., 4.89701891e+000, 2.10298109e+000, 0., 0.,
          0., 0., 0., 0., 0., 0., 0., 0., 0., 0., 2.89949489e+000,
          1.88319111e+001, 6.26859426e+000, 2.50609188e+001,
          9.86801434e+000, 7.87005758e+000, 2.49660587e+001,
          2.23495150e+000, 3.33518333e+001, 1.72633896e+001,
          7.04163074e+000, 1.05595341e+001, 7.83611596e-001,
          1.10264168e+001, 5.55936909e+000, 4.14213568e-001,
          2.89949489e+000, 1.10050511e+000, 0., 0., 2.48528147e+000,
          1.83346615e+001, 8.18005657e+000, 5.22407770e-001,
          1.53354568e+001, 1.20121937e+001, 4.42304459e+001,
          4.89949512e+000, 0., 3.21888161e+001, 3.27228699e+001,
          2.50883121e+001, 0., 0., 4.68629169e+000, 3.97645035e+001,
          1.01206062e+002, 2.34314585e+000, 1.45133996e+000,
          6.30601931e+000, 2.48528147e+000, 1.42163887e+001,
          5.54097080e+000, 4.94431067e+000, 2.94282722e+001,
          1.20121937e+001, 3.83015137e+001, 5.31370831e+000,
          4.84704399e+000, 1.43539658e+001, 1.49116879e+001,
          7.10580215e+001, 1.98292809e+001, 0., 1.17157292e+000,
          1.53259020e+001, 5.20130119e+001, 4.94895134e+001, 0.,
          1.58578646e+000, 2.48528147e+000, 1.83508358e+001,
          4.57809734e+000, 6.23536444e+000, 2.42082863e+001,
          1.28406200e+001, 3.84912453e+001, 5.22448444e+000,
          2.36890240e+001, 3.30267067e+001, 9.52691174e+000,
          8.92297077e+000, 2.88343887e+001, 0., 0., 0., 0., 0., 0.,
          4.34314585e+000, 4.14213562e+000, 1.45704079e+001,
          3.94431043e+000, 2.57637691e+001, 2.72656689e+001,
          1.07695522e+001, 1.74304619e+001, 6.77054882e+000,
          2.26321754e+001, 4.36782408e+000, 0., 1.60434139e+000,
          9.39565849e+000, 0., 0., 0., 0., 0., 0., 1.77157288e+001,
          8.28427124e+000, 0., 0., 4.72702637e+001, 2.94160271e+001,
          5.79898977e+000, 6.51471853e+000, 0., 1.88010044e+001,
          3.19899607e+000, 0., 0., 0., 0., 0., 0., 0., 0., 0.,
          1.94020195e+001, 1.15979795e+001, 0., 0., 3.03543243e+001,
          4.41898308e+001, 8.69848442e+000, 3.50930619e+000,
          2.24805331e+000, 5.50287628e+001, 1.19001703e+001,
          6.62741709e+000, 1.47302074e+001, 3.71344280e+000,
          3.23752952e+000, 7.62470484e-001, 0., 0., 0., 0.,
          8.61522388e+000, 8.28427124e+000, 4.10050488e+000, 0.,
          8.11911392e+000, 8.56717777e+000, 5.38477612e+000,
          1.05397892e+001, 1.43891430e+001, 0., 0., 0., 6.98880553e-001,
          3.30111933e+000, 0., 0., 0., 0., 0., 2.61203885e-001,
          2.32458258e+000, 3.31370854e+000, 1.54316483e+001,
          7.66885662e+000, 2.48846626e+000, 1.16120386e+001,
          7.04163074e+000, 3.57689667e+001, 3.50888977e+001, 0.,
          5.85786462e-001, 3.31370854e+000, 2.98937874e+001,
          4.62067184e+001, 0., 0., 0., 3.93862104e+000, 3.10613785e+001,
          9.28932190e-001, 4.82842731e+000, 2.48528147e+000,
          1.20226603e+001, 7.73469877e+000, 4.88411665e+000,
          2.08021755e+001, 1.44974747e+001, 3.66862907e+001,
          5.12994242e+000, 1.71254385e+000, 4.10326233e+001,
          2.19533195e+001, 3.25921555e+001, 6.70935869e+000, 0.,
          5.85786438e+000, 2.94091625e+001, 9.79570770e+001,
          2.67758980e+001, 2.64147592e+000, 6.53009701e+000,
          3.72792196e+000, 1.05595341e+001, 2.54097104e+000,
          2.23495150e+000, 1.46229124e+001, 7.87005758e+000,
          3.74816895e+001, 1.37903881e+001, 2.13991070e+001,
          1.60445442e+001, 1.69827557e+001, 7.22688904e+001,
          1.13046999e+001, 5.87456970e+001, 1.82837410e+001,
          1.98822517e+001, 2.30883121e+001, 0., 2.38796115e+000,
          1.37125435e+001, 3.31370854e+000, 5.85786462e-001, 0.,
          4.48444033e+000, 2.40597153e+001, 1.28406200e+001,
          2.18316116e+001, 7.83611596e-001, 7.07325363e+001,
          1.10248232e+001, 4.14213562e+000, 9.83930111e+000,
          2.61203885e-001, 0., 0., 0., 0., 0., 1.45902908e+000,
          1.49846220e+001, 5.79898977e+000, 3.75735927e+000, 0.,
          3.74778633e+001, 2.40368538e+001, 3.72792196e+000,
          1.25472183e+001, 5.21014071e+000, 3.79609680e+001,
          5.03903389e+000, 0., 0., 0., 0., 0., 0., 0., 0., 0., 0.,
          8.69848442e+000, 1.73015156e+001, 0., 3.06579132e+001,
          2.60283794e+001, 9.11269855e+000, 1.59398060e+001,
          2.61203885e-001, 1.16344376e+001, 2.36556268e+000, 0., 0., 0.,
          0., 0., 0., 0., 0., 0., 5.85786462e-001, 7.04163074e+000,
          1.33725834e+001, 0., 3.32440925e+000, 5.01873636e+000,
          1.15979795e+001, 4.77141304e+001, 1.33447437e+001,
          3.55775185e+001, 1.51798410e+001, 3.31370854e+000,
          1.15415707e+001, 3.53873596e+001, 0., 0., 0., 4.97098565e-001,
          1.50290143e+000, 0., 5.85786462e-001, 2.89949489e+000,
          1.97125435e+001, 2.80217481e+000, 0., 5.85786462e-001,
          2.07106781e+000, 8.09981918e+000, 4.62433281e+001, 0., 0., 0.,
          8.94850969e-001, 6.10514927e+000, 0., 0., 0., 0., 0. ]
      - [ 0., 2., 0., 0., 0., 0., 7.67541742e+000, 8.91036892e+000, 0.,
          7.51471853e+000, 8.41421318e+000, 1.04267197e+001,
          3.52301331e+001, 9.92893219e+000, 4.10819435e+000,
          5.47759247e+000, 0., 0., 0., 1.99879494e+001, 8.33222275e+001,
          9.68982220e+000, 0., 0., 0., 0., 0., 0., 1.86336117e+001,
          3.66388559e-001, 0., 0., 0., 1., 4., 5., 2., 3., 2., 1., 0.,
          1.49289322e+001, 13., 5., 1., 1., 4., 6., 0., 3., 8., 2.,
          4.40896301e+001, 1.89103699e+001, 36., 8., 0., 0., 2.,
          6.29582310e+000, 9.32375717e+001, 7.49627609e+001,
          2.79180584e+001, 2.58578634e+000, 0., 0., 2., 3., 8., 3., 0.,
          0., 0., 0., 9., 2.39289322e+001, 4.10710678e+001, 3., 2., 0.,
          0., 1., 5., 13., 4.16568527e+001, 1.63431454e+001,
          1.24142132e+001, 2.36153946e+001, 0., 1., 0., 1., 9., 5.,
          2.26026955e+001, 6.43606415e+001, 0., 0., 0., 1.,
          1.59366217e+001, 1.00633783e+001, 0., 0., 0., 7.53860772e-001,
          4.82842731e+000, 1.07051535e+001, 3.56156425e+001,
          2.27234116e+001, 4.12736511e+000, 1.65870714e+000, 0.,
          2.58678007e+000, 0., 0., 1.26120389e+000, 6.32458258e+000,
          5.50894785e+000, 2.06936150e+001, 0., 0., 0., 0., 0., 0., 0.,
          0., 0., 0., 8.28427136e-001, 5.41421366e+000, 7.84699011e+000,
          1.14961557e+001, 4.41421366e+000, 0., 0., 1., 1.44488764e+001,
          2.71883945e+001, 2.59443111e+001, 1.33662148e+001,
          1.09847326e+001, 1.65325797e+000, 0., 1.73855839e+001,
          1.93473358e+001, 1.10633783e+001, 4.41421366e+000,
          1.75735927e+000, 8.24264050e+000, 1.99102249e+001, 0.,
          7.63725138e+000, 3.58808003e-002, 0., 0., 0., 0., 0., 0.,
          1.41421354e+000, 1., 1., 3.24264073e+000, 8.07773685e+000,
          1.09450321e+001, 2.32037735e+000, 5.80888557e+000,
          1.73241997e+001, 1.70319538e+001, 8.22399235e+000,
          1.04851875e+001, 9.10482311e+000, 6.61589813e+000,
          1.74050598e+001, 0., 2.35521431e+001, 4.70200577e+001,
          3.21823006e+001, 1.17955065e+001, 4.22407770e+000,
          1.61870003e+001, 1.81747074e+001, 0., 6.41619396e+000,
          1.95838051e+001, 0., 0., 0., 0., 0., 0., 0., 0., 0., 3.,
          7.46619272e+000, 1.54560709e+001, 4.07773638e+000, 0.,
          4.58578634e+000, 1.41421354e+000, 5.34114695e+000,
          2.32046642e+001, 3.52484818e+001, 8.03413582e+000,
          8.92459774e+000, 0., 8.57218206e-002, 4.11570206e+001,
          5.25153389e+001, 3.77044106e+001, 2.11232948e+001,
          4.14213568e-001, 0., 0., 0., 7.58578634e+000, 1.41421354e+000,
          1., 0., 0., 0., 0., 0., 0., 0., 0., 0., 6.19782495e+000,
          1.13131008e+001, 0., 0., 3.99887890e-001, 3.77245140e+001,
          1.35051355e+001, 1.05420370e+001, 1.46568546e+001,
          5.34314585e+000, 0., 0., 0., 2.87207246e+000, 5.12792730e+000,
          0., 0., 0., 0., 0., 0., 0., 0., 0., 0., 0., 0.,
          1.17157292e+000, 6.62741709e+000, 1.06786022e+001,
          5.22407770e-001, 3.04859281e+000, 1.85960674e+001,
          1.73969688e+001, 1.39135542e+001, 1.04481554e+000,
          2.70225468e+001, 1.65926781e+001, 1.36690474e+001,
          1.54545250e+001, 2.61203885e-001, 0., 0., 1.65685427e+000,
          4.29023409e+000, 1.05291152e+000, 0., 5.85786438e+000,
          6.62741709e+000, 3.51471853e+000, 0., 0., 2.05025253e+001,
          1.90538235e+001, 6.44365072e+000, 0., 0., 7.61522388e+000,
          2.73380947e+001, 4.30466805e+001, 0., 4.20744371e+000,
          1.79935665e+001, 3.81076469e+001, 9.29566498e+001,
          1.17346926e+001, 0., 2.92893219e+000, 3.31370854e+000,
          1.75735927e+000, 0., 0., 2.26740990e+001, 1.73969688e+001,
          2.92893219e+000, 0., 0., 1.11299419e+001, 2.40243874e+001,
          3.18967781e+001, 1.89488945e+001, 0., 1.17157292e+000,
          7.45584393e+000, 3.02056923e+001, 6.41668930e+001, 0.,
          5.85786462e-001, 4.14213562e+000, 9.01087379e+000,
          2.61203885e-001, 0., 1.73725834e+001, 1.78111839e+001,
          3.25206833e+001, 3.29555225e+000, 5.20393801e+000,
          7.96062052e-001, 1.65685427e+000, 2.24478302e+001,
          3.58953171e+001, 0., 0., 0., 0., 0., 0., 5.92893219e+000,
          7.87005758e+000, 1.22010098e+001, 0., 1.87324262e+000,
          3.67003517e+001, 1.73969688e+001, 1.89519997e+001,
          5.07743788e+000, 2.26577415e+001, 3.51290550e+001,
          1.24264069e+001, 2.40330448e+001, 2.27537518e+001,
          9.41686249e+000, 1.58313715e+000, 0., 0., 0., 5.22407770e-001,
          3.06337857e+000, 3.72792196e+000, 1.62087002e+001,
          3.47759223e+000, 1.21115084e+001, 3.05037155e+001,
          7.45584393e+000, 2.46753101e+001, 1.42536221e+001,
          5.90521469e+001, 4.13204384e+001, 7.87005758e+000,
          1.97079353e+001, 1.80494251e+001, 2.17722168e+001,
          4.22778320e+000, 0., 0., 0., 0., 0., 2.07106781e+000,
          1.78837090e+001, 7.04522228e+000, 3.64942980e+000,
          1.18652887e+001, 7.87005758e+000, 4.52471085e+001,
          1.43681154e+001, 6.18210106e+001, 4.32084274e+001,
          5.79898977e+000, 8.98043346e+000, 2.01911392e+001,
          6.84480381e+000, 2.15519595e+000, 0., 0., 0., 0., 0.,
          3.31370854e+000, 1.76414757e+001, 1.04481554e+000,
          3.66175499e+001, 8.96823788e+000, 7.87005758e+000,
          2.50851269e+001, 1.45902908e+000, 3.58146787e+000,
          1.41853213e+000, 0., 0., 0., 0., 0., 0., 0., 0.,
          2.61203885e-001, 1.13540201e+001, 5.38477612e+000, 0., 0.,
          2.61203885e-001, 1.90108738e+001, 1.65685425e+001,
          3.78663750e+001, 5.29300499e+000, 0., 0., 4.55634928e+000,
          3.96128426e+001, 6.88308029e+001, 0., 0., 0., 1.51522768e+000,
          1.74847717e+001, 0., 1.75735927e+000, 5.38477612e+000,
          5.85786438e+000, 0., 0., 3.51888161e+001, 2.07106781e+001,
          4.10050488e+000, 0., 0., 1.23015156e+001, 2.60954552e+001,
          4.52521973e+001, 2.35083485e+000, 0., 2.75735927e+000,
          2.60954552e+001, 9.92338409e+001, 5.29133453e+001, 0., 0.,
          4.97056293e+000, 9.02943707e+000, 0., 0., 0., 1.57401152e+001,
          5.10620613e+001, 1.19782519e+000, 2.54874325e+001,
          1.13704319e+001, 2.85807362e+001, 4.65614014e+001, 0.,
          6.46627502e+001, 2.11951180e+001, 9.52691174e+000,
          9.61522388e+000, 0., 0., 0., 4.97056293e+000, 2.02010098e+001,
          1.82842708e+000, 5.86342764e+000, 3.72235870e+000,
          4.55634928e+000, 4.89217491e+001, 1.79361153e+001,
          6.44060516e+001, 7.59394789e+000, 8.28427136e-001,
          6.91036892e+000, 2.61203885e-001, 0., 0., 0., 0., 0., 0., 0.,
          5.79898977e+000, 1.86337872e+001, 1.56722319e+000, 0.,
          4.51471853e+000, 1.53259020e+001, 5.46446609e+001,
          5.51471853e+000, 6.79310913e+001, 1.92699184e+001,
          1.11837664e+001, 1.60928154e+001, 5.22407770e-001,
          1.54289589e+001, 2.57104135e+000, 0., 0., 0., 5.22407770e-001,
          5.40652466e+000, 4.55634928e+000, 1.22535143e+001,
          2.61203885e-001, 1.43809366e+001, 2.94058590e+001,
          9.52691174e+000, 2.22450123e+001, 9.44127941e+000,
          4.68167801e+001, 2.84552994e+001, 1.73969688e+001,
          5.03495140e+001, 1.98143685e+000, 9.40198994e+000,
          2.59801054e+000, 0., 0., 0., 0., 3.92893219e+000,
          6.21320343e+000, 1.18578644e+001, 0., 3.39605713e+000,
          1.56333799e+001, 8.28427124e+000, 3.77995758e+001,
          2.58867149e+001, 0., 1.75735927e+000, 9.52691174e+000,
          5.39679451e+001, 7.87477875e+001, 0., 0., 0., 1.24264073e+000,
          1.75735927e+000, 3.68629146e+000, 1.60710678e+001,
          1.24264073e+000, 0., 0., 0., 6.34314585e+000, 7.04163074e+000,
          1.81082764e+001, 4.05069466e+001, 0., 0., 0., 1.63784301e+000,
          6.36215687e+000, 0., 0., 0., 0., 0. ]
      - [ 0., 0., 7.14285707e+000, 1.74243660e+001, 5.43277693e+000, 0.,
          0., 0., 0., 0., 8.95477200e+000, 2.37688408e+001,
          3.23441658e+001, 6.99560070e+000, 7.93662119e+000, 0., 0., 0.,
          0., 4.88254547e+000, 2.49783802e+001, 1.13907325e+000, 0., 0.,
          0., 0., 0., 0., 0., 0., 0., 0., 0., 2., 4., 3., 3.,
          3.58578634e+000, 2.41421366e+000, 0., 0., 1., 0., 0.,
          6.75417423e-001, 3.72381363e+001, 4.19148750e+001,
          3.17157292e+000, 0., 1., 1., 1., 3.36950569e+001,
          4.31660500e+001, 5.63815346e+001, 8.92893219e+000, 0., 0., 4.,
          1., 4.00436630e+001, 5.75331497e+001, 1.84231873e+001, 3., 0.,
          4., 4., 0., 0., 0., 4., 4., 0., 8.58578682e+000,
          1.41421354e+000, 0., 2., 7.21987200e+000, 4.07801285e+001, 2.,
          0., 0., 0., 0., 4., 1.99128323e+001, 7.76928024e+001,
          3.98483467e+001, 0., 2.43298984e+000, 1., 0., 1., 2.,
          2.31147690e+001, 3.68206329e+001, 0., 1.36862917e+001, 1., 0.,
          0., 0., 0., 1.17157292e+000, 0., 3.39604607e+001,
          6.52751684e+000, 5.58578634e+000, 3.32458258e+000,
          8.26120377e+000, 4.14213568e-001, 2.20481202e-001, 0.,
          1.92266738e+000, 4.14213568e-001, 1.58578646e+000, 1., 0.,
          4.14213568e-001, 3.61063552e+000, 0., 0., 0., 0., 0., 0., 0.,
          0., 0., 1.09162149e+001, 2.47914219e+000, 2.20481202e-001, 0.,
          0., 3.41421366e+000, 3.16807437e+000, 0., 1.75965252e+001,
          6.77629185e+000, 0., 0., 3.20377231e-001, 2.67962265e+000, 0.,
          0., 0., 0., 0., 0., 0., 0., 0., 0., 0., 0., 0., 0., 0., 0., 0.,
          0., 7.00056553e+000, 1.62385635e+001, 2.76087093e+000, 2., 1.,
          0., 0., 0., 4.82442951e+000, 5.98541260e+000, 0., 0., 0., 0.,
          0., 0., 0., 0., 0., 0., 0., 0., 0., 0., 1.74362087e+000, 0.,
          0., 0., 0., 0., 1.10078430e+000, 3.50889742e-001,
          3.84345174e+000, 1.15889463e+001, 9.95550823e+000,
          5.26120377e+000, 0., 0., 0., 0., 1.42284908e+001,
          6.10050488e+000, 7.61172485e+000, 2.16711941e+001,
          2.30286646e+000, 4.26120377e+000, 8.89974117e+000, 0.,
          4.20288277e+000, 0., 2.00842060e-002, 4.24120865e+001,
          5.56782961e+000, 1.16568546e+001, 1.60946465e+001, 0.,
          7.07243729e+000, 1., 7.50829935e+000, 4.12720947e+001,
          1.05627537e+001, 5.17926216e+000, 8.90507507e+000, 0., 0., 0.,
          2.01638832e+001, 8.83611584e+000, 1., 0., 0., 0., 0., 0.,
          1.71598320e+001, 3.58401680e+001, 0., 0., 0., 0., 0., 0., 0.,
          0., 0., 0., 0., 0., 0., 0., 0., 0., 0., 0., 0.,
          3.63060188e+000, 1.98130493e+001, 4.55634928e+000, 0., 0.,
          2.53046875e+001, 2.20384579e+001, 4.55634928e+000,
          1.70556889e+001, 1.04481554e+000, 8.55447960e+000,
          2.44552088e+000, 8.28427136e-001, 1.58578646e+000,
          5.85786462e-001, 0., 0., 0., 0., 0., 0., 5.68629169e+000,
          5.38477612e+000, 3.92893219e+000, 0., 0., 5.85786462e-001,
          8.69848442e+000, 7.18424835e+001, 2.87324262e+000, 0.,
          2.17157292e+000, 1.57401152e+001, 7.82281113e+001,
          3.08601990e+001, 0., 2.92893219e+000, 1.28406200e+001,
          5.23553886e+001, 4.58750610e+001, 0., 4.68629169e+000,
          6.62741709e+000, 4.68629169e+000, 0., 0., 6.68629169e+000,
          1.24264069e+001, 3.75998459e+001, 3.28745627e+000, 0., 0.,
          1.24264069e+001, 1.03801361e+002, 3.57722282e+001,
          4.98153448e+000, 7.36161137e+000, 1.07695522e+001,
          4.61787910e+001, 2.37085114e+001, 0., 1.22010098e+001,
          6.62741709e+000, 1.17157292e+000, 0., 2.31077423e+001,
          2.99511318e+001, 1.36690474e+001, 7.01087427e+000,
          2.61203885e-001, 4.28918839e+000, 6.05395699e+000,
          2.48528147e+000, 9.07752800e+000, 6.09404469e+000, 0., 0., 0.,
          0., 0., 7.40749836e+000, 7.86457968e+000, 6.21320343e+000,
          5.51471853e+000, 0., 2.43017807e+001, 5.69821835e+000, 0.,
          2.06337857e+000, 9.36621308e-001, 0., 0., 0., 0., 0., 0., 0.,
          0., 0., 0., 1.58237934e+001, 8.93356609e+000, 1.65685427e+000,
          5.85786462e-001, 0., 9.83282661e+000, 2.16717339e+000, 0., 0.,
          0., 0., 0., 0., 0., 0., 2.07482195e+000, 9.25178111e-001, 0.,
          9.25178111e-001, 2.07482195e+000, 6.73159790e+000,
          1.77831211e+001, 2.48528147e+000, 0., 0., 1.08559446e+001,
          2.57887154e+001, 1.86396103e+001, 1.84285564e+001,
          6.28717327e+000, 8.23583031e+000, 7.10731506e+000,
          1.40832615e+001, 3.71220360e+001, 6.45155764e+000,
          2.24316654e+001, 8.91147995e+000, 9.52691174e+000,
          2.97496281e+001, 1.03803148e+001, 0., 1.94436512e+001,
          4.97056293e+000, 5.85786462e-001, 0., 2.43074093e+001,
          1.07930946e+001, 2.89949489e+000, 0., 0., 0., 0., 0., 0., 0.,
          0., 0., 0., 0., 0., 0., 0., 3.31370854e+000, 2.31190681e+001,
          1.56722319e+000, 0., 0., 2.89949489e+000, 2.43928013e+001,
          4.17077026e+001, 0., 0., 8.28427136e-001, 4.15726519e+000,
          2.60143070e+001, 0., 0., 0., 0., 0., 0., 6.27207804e+000,
          7.87005758e+000, 5.85786438e+000, 0., 0., 4.10050488e+000,
          1.73969688e+001, 3.47189140e+001, 7.83611596e-001, 0.,
          1.06152239e+001, 2.40243874e+001, 4.56956329e+001,
          2.86647549e+001, 0., 2.34314585e+000, 6.62741709e+000,
          3.91097412e+001, 5.89196968e+001, 0., 7.02943707e+000,
          4.97056293e+000, 0., 0., 0., 1.52304478e+001, 1.65685425e+001,
          8.20100975e+000, 0., 3.29052429e+001, 2.35678463e+001,
          2.31959591e+001, 2.23309517e+001, 0., 4.84934654e+001,
          3.78080482e+001, 1.07695522e+001, 2.92893219e+000, 0.,
          5.22407770e-001, 2.31638832e+001, 3.31370854e+000, 0., 0.,
          3.07815742e+001, 2.73483696e+001, 1.28406200e+001,
          1.27311068e+001, 1.29833031e+000, 3.35712433e+001,
          4.01454401e+000, 1.24264073e+000, 2.17157292e+000, 0., 0., 0.,
          0., 0., 0., 8.83421612e+000, 1.40947161e+001, 2.07106781e+000,
          7.38796115e-001, 2.61203885e-001, 2.48288097e+001,
          5.17119026e+000, 4.14213568e-001, 5.85786462e-001, 0., 0., 0.,
          0., 0., 0., 0., 0., 0., 0., 0., 1.04624367e+001,
          4.12335014e+000, 3.31370854e+000, 6.10050488e+000, 0.,
          1.23088894e+001, 2.69111109e+000, 0., 0., 0., 7.55304575e+000,
          1.44695425e+000, 0., 0., 0., 1.04163580e+001, 2.58364201e+000,
          0., 0., 0., 3.48195863e+000, 1.51804125e+000, 4.14213562e+000,
          1.33354568e+001, 5.22407770e-001, 2.97881413e+001,
          2.02412968e+001, 8.69848442e+000, 9.09468460e+000,
          1.91773930e+001, 2.89565029e+001, 1.73450127e+001,
          1.15979795e+001, 8.24777126e+000, 3.68527336e+001,
          2.75437126e+001, 1.09710064e+001, 8.28427124e+000,
          1.68872852e+001, 3.83137245e+001, 0., 0., 3.31370854e+000,
          2.61638832e+001, 5.22407770e-001, 0., 0., 2.07106781e+000,
          1.25339470e+001, 3.83949852e+001, 0., 0., 0., 0., 0., 0., 0.,
          0., 0., 0. ]
      - [ 0., 0., 7.13151336e-001, 2.22749538e+001, 5.01189423e+000, 0.,
          0., 0., 0., 2.58578634e+000, 8.15096855e+000, 2.64645138e+001,
          3.63009682e+001, 1.08354747e+000, 1., 0., 0., 0., 0.,
          7.21984816e+000, 1.57413149e+001, 3.88368554e-002, 0., 0., 0.,
          0., 0., 0., 0., 0., 0., 0., 0., 0., 7.20570898e+000,
          2.01598969e+001, 2.63439441e+000, 0., 0., 0., 0., 0.,
          3.82422185e+000, 8.76156425e+000, 1.62476482e+001,
          1.65097103e+001, 2.88487320e+001, 6.80812216e+000, 0., 3., 0.,
          2.32855105e+000, 4.73784752e+001, 4.26361198e+001,
          2.08994942e+001, 1.05147190e+001, 0., 0., 0., 8.12103003e-002,
          4.43430061e+001, 7.71140289e+001, 3.21599388e+001,
