%YAML:1.0
_0218: !!opencv-ml-svm
   svm_type: C_SVC
   kernel: { type:LINEAR }
   C: 100.
   term_criteria: { epsilon:9.9999999747524271e-007,
       iterations:2147483647 }
   var_all: 576
   var_count: 576
   class_count: 2
   class_labels: !!opencv-matrix
      rows: 1
      cols: 2
      dt: i
      data: [ -1, 2 ]
   sv_total: 60
   support_vectors:
      - [ 0., 2., 4.80254441e-001, 5.17687321e+000, 1.76086311e+001,
          6.73424053e+000, 0., 0., 0., 1., 6.79901266e+000,
          2.85243797e+001, 7.84289742e+000, 5.12772274e+000,
          1.45344143e+001, 4.17157269e+000, 0., 0., 1.90743566e-001,
          1.07069063e+001, 3.28324203e+001, 1.85571659e+000,
          1.41421354e+000, 2., 0., 0., 0., 0., 1., 0., 0., 0.,
          4.14213568e-001, 1.58578646e+000, 0., 1.75735927e+000,
          1.58397141e+001, 8.40292645e+000, 1., 0., 0., 2.34314585e+000,
          0., 5.85786462e-001, 3.92894783e+001, 3.52963104e+001,
          3.82842708e+000, 3., 0., 10., 3., 7.17157269e+000,
          3.58285751e+001, 3.47131081e+001, 2.01151714e+001,
          1.57573595e+001, 0., 0., 0., 5.85224867e+000, 7.55622253e+001,
          6.82405548e+001, 2.50018234e+001, 6.15240240e+000, 0.,
          6.17157269e+000, 4.41421366e+000, 0., 2., 0., 2., 0., 0.,
          9.82519627e+000, 7.07527304e+000, 8.34314537e+000,
          1.55038443e+001, 9.23074627e+000, 5.09383631e+000,
          6.34590816e+000, 0., 4.42365110e-001, 0., 0., 7.65685415e+000,
          2.11289921e+001, 3.03128643e+001, 4.88362770e+001, 0.,
          1.07106781e+000, 1.51471865e+000, 3.41421366e+000,
          1.04142132e+001, 4.07773638e+000, 1.18004589e+001,
          3.25867844e+001, 0., 9.75735950e+000, 7., 2., 0., 0., 1., 3.,
          0., 1.97565231e+001, 4.23578262e+000, 1., 0., 0.,
          2.69179964e+000, 1.94526501e+001, 0., 5.85248232e-001, 0., 0.,
          0., 0., 0., 5.85786462e-001, 0., 0., 0., 0., 0., 0., 0., 0.,
          0., 5., 2.41421366e+000, 5.85786462e-001, 1., 5.85786462e-001,
          2.41421366e+000, 7.56301785e+000, 0., 1.32513208e+001,
          9.39534855e+000, 0., 0., 0., 7.60759771e-001, 7.14241934e+000,
          0., 0., 0., 0., 0., 0., 0., 0., 0., 0., 0., 0., 0., 0., 0., 0.,
          0., 1.26172276e+001, 5.10390568e+000, 0., 1., 0.,
          1.82842708e+000, 5.75735950e+000, 0., 1.34466553e+001,
          8.71777821e+000, 9.45000935e+000, 2.10601163e+000,
          1.85540092e+000, 4.54087543e+000, 8.88939953e+000, 0.,
          1.38296771e+000, 6.56895304e+000, 0., 0., 0., 0., 0., 0., 0.,
          0., 0., 0., 0., 0., 0., 2.19074368e+000, 3.58578634e+000,
          3.76292872e+000, 9.51073837e+000, 3.14054632e+000,
          1.58578646e+000, 3., 3.22346997e+000, 0., 0., 3.,
          1.44479465e+001, 1.35520535e+001, 0., 0., 0., 0., 0., 0., 0.,
          0., 0., 0., 0., 0., 0., 0., 0., 0., 0., 0., 0., 0., 0.,
          2.89661694e+000, 7.50744247e+000, 1.14910889e+001,
          5.25786161e+000, 1.84699035e+000, 0., 0., 0., 3.24050260e+000,
          3.25287890e+000, 8.47856712e+000, 2.80518811e-002, 0., 0., 0.,
          0., 0., 0., 0., 0., 0., 0., 0., 0., 0., 0., 0., 0., 0., 0.,
          1.80160153e+000, 6.29890347e+000, 6.21320343e+000,
          1.16862917e+001, 0., 2.90745296e+001, 9.09704304e+000,
          2.89949489e+000, 1.84699039e+001, 5.45902920e+000,
          1.57592726e+001, 1.09980869e+001, 3.31370854e+000,
          6.92893219e+000, 0., 0., 0., 0., 0., 0., 0., 2.92893219e+000,
          7.45584393e+000, 1.06152239e+001, 0., 0., 2.92893219e+000,
          1.24264069e+001, 4.65934753e+001, 1.00511856e+001, 0.,
          1.28873014e+001, 3.14802303e+001, 5.28074875e+001,
          6.82497883e+000, 1.51471865e+000, 7.17157269e+000,
          2.94091625e+001, 9.22952805e+001, 1.66092663e+001, 0.,
          7.27207804e+000, 4.55634928e+000, 1.17157292e+000, 0.,
          2.17157292e+000, 2.40588741e+001, 1.82253971e+001,
          2.01299419e+001, 4.14213568e-001, 0., 2.17157292e+000,
          7.87005758e+000, 5.72090530e+001, 5.47493172e+001,
          1.29064107e+000, 4.05250454e+000, 4.14213562e+000,
          2.06492100e+001, 3.68655090e+001, 7.83611596e-001,
          1.50742531e+001, 5.79898977e+000, 2.34314585e+000, 0.,
          2.30968800e+001, 1.82462673e+001, 3.31370854e+000,
          1.65691471e+001, 1.07739983e+001, 1.80605602e+000,
          1.19394398e+000, 0., 4.85281378e-001, 5.14718652e-001, 0., 0.,
          0., 0., 0., 7.60878861e-001, 5.75383997e+000, 7.04163074e+000,
          9.44365120e+000, 0., 2.23753986e+001, 8.79617310e+000,
          1.24264073e+000, 5.42255640e+000, 7.16323042e+000, 0., 0., 0.,
          0., 0., 0., 0., 0., 0., 0., 6.14160490e+000, 1.12015409e+001,
          3.72792196e+000, 5.92893219e+000, 0., 2.80232811e+001,
          1.19056511e+001, 2.89949489e+000, 9.18536568e+000,
          1.29862080e+001, 6.14518070e+000, 1.85481906e+000, 0., 0., 0.,
          0., 0., 0., 0., 0., 1.33900013e+001, 5.36735821e+000,
          4.14213562e+000, 6.31689358e+000, 7.83611596e-001,
          1.97095852e+001, 6.29041433e+000, 0., 0., 0., 0., 0., 0., 0.,
          0., 0., 0., 0., 0., 0., 8.67543793e+000, 2.49613476e+000,
          4.55634928e+000, 7.48846626e+000, 7.83611596e-001,
          5.64496756e+000, 2.35503244e+000, 4.14213568e-001,
          5.85786462e-001, 0., 0., 0., 0., 0., 0., 0., 0., 0., 0., 0.,
          0., 1.17157292e+000, 1.65685427e+000, 1.85217171e+001,
          1.06498556e+001, 0., 5.68629169e+000, 7.04163074e+000,
          1.74258652e+001, 3.08462124e+001, 0., 1.75735927e+000,
          1.65685427e+000, 1.02218113e+001, 3.53639755e+001, 0., 0., 0.,
          1.90743566e-001, 8.09256434e-001, 0., 1.58578646e+000,
          2.48528147e+000, 1.94355545e+001, 4.49337721e+000, 0.,
          8.10050488e+000, 5.38477612e+000, 4.21792336e+001,
          3.13354874e+001, 0., 2.85025253e+001, 2.60954552e+001,
          5.11888428e+001, 1.72131786e+001, 4.14213568e-001,
          5.85786438e+000, 2.23675327e+001, 9.13732605e+001,
          4.79871254e+001, 0., 1.00294371e+001, 5.38477612e+000,
          1.58578646e+000, 0., 1.31162500e+001, 3.17416134e+001,
          1.03553391e+001, 2.62829514e+001, 2.50384450e+000,
          5.40795860e+001, 3.49498482e+001, 9.94112587e+000,
          3.46337852e+001, 2.39565039e+000, 3.98274727e+001,
          1.53441010e+001, 6.62741709e+000, 1.26786022e+001,
          5.22407770e-001, 0., 1.56152239e+001, 6.21320343e+000,
          1.17157292e+000, 0., 4.75914307e+001, 2.55090733e+001,
          2.89949489e+000, 1., 0., 8.93858719e+000, 2.06141257e+000, 0.,
          0., 0., 0., 0., 0., 0., 0., 3.31689334e+000, 1.67836113e+001,
          4.14213562e+000, 1.75735927e+000, 0., 3.46887016e+001,
          1.18970861e+001, 4.14213568e-001, 0., 0., 0., 0., 0., 0., 0.,
          0., 0., 0., 0., 0., 3.74874902e+000, 1.74522610e+001,
          5.79898977e+000, 1., 0., 3.78435097e+001, 1.37422781e+001,
          4.14213568e-001, 5.49664402e+000, 1.35033560e+001,
          2.15733290e+000, 8.42667103e-001, 0., 0., 0., 0., 0., 0., 0.,
          0., 1.19782519e+000, 7.55953407e+000, 1.65685427e+000,
          3.83661675e+000, 1.27491693e+001, 0., 0., 0., 6.04861307e+000,
          2.29513874e+001, 0., 0., 0., 0., 0., 0., 0., 0., 0., 0., 0.,
          0., 8.28427136e-001, 1.23546467e+001, 1.38169260e+001, 0., 0.,
          0., 2.38985205e+000, 1.06101484e+001, 0., 0., 0., 0., 0., 0.,
          0., 0., 0., 0. ]
      - [ 7.98493624e-001, 4.57879633e-001, 1.05970354e+001,
          8.69628239e+000, 2.08072758e+000, 3.36148709e-001,
          4.02961206e+000, 6.00381994e+000, 1.45911241e+000, 1.,
          1.98029708e-002, 1.99332428e+001, 2.24735546e+001,
          5.73398829e-001, 1.21773565e+000, 3.32315183e+000, 0., 0., 2.,
          3.80307484e+000, 4.19692516e+000, 0., 0., 0., 0., 0., 0.,
          4.52042162e-001, 1.54795790e+000, 0., 0., 0., 0.,
          6.03997894e-002, 9.39600229e-001, 0., 2.32567251e-001,
          2.14524150e+000, 1.79137325e+001, 8.70845985e+000, 0.,
          2.86051407e+001, 1.32290220e+001, 2.55353880e+000,
          4.59790134e+000, 3.69585216e-001, 1.23899341e-001,
          1.28192101e+001, 0., 2.24669313e+000, 1.04224672e+001,
          1.82961903e+001, 1.21204767e+001, 3.13651352e+001,
          5.29021225e+001, 2.19814358e+001, 0., 1.81715736e+001,
          1.44363613e+001, 3.69633751e+001, 4.77613144e+001,
          1.71179142e+001, 1.53149281e+001, 2.59879322e+001, 0., 0.,
          8.76100659e-001, 1.23899341e-001, 1.52759504e+000,
          1.85688515e+001, 1.05831757e+001, 3.20377231e-001, 0., 0.,
          5.32492018e+000, 2.26608772e+001, 2.63539467e+001,
          1.76396694e+001, 3.02058744e+000, 5.36340761e+000, 0.,
          9.69159412e+000, 4.32037735e+000, 5.99333143e+000,
          9.46990299e+000, 2.22395153e+001, 3.77443504e+001,
          2.13748360e+001, 0., 1.04450064e+001, 7.94450521e+000,
          3.19568462e+001, 3.06616669e+001, 1.19839001e+001,
          1.37956190e+001, 5.88439178e+000, 3.30836058e+000,
          7.17120123e+000, 4.79885483e+000, 1.35796487e-001,
          1.41421354e+000, 3.99222803e+000, 6.49972200e+000,
          1.67962277e+000, 0., 1.77926807e+001, 2.35449505e+000, 0., 1.,
          2., 1., 7.73427665e-001, 0., 0., 0., 0., 0., 0., 0., 0., 0.,
          0., 0., 0., 0., 0., 0., 0., 0., 4.04663134e+000,
          1.59211645e+001, 3.22040059e-002, 0., 0., 0., 0., 0.,
          9.64119196e-001, 1., 0., 0., 0., 0., 0., 0., 0., 0., 0., 0.,
          0., 0., 0., 0., 0., 0., 0., 0., 0., 0., 0., 0., 0., 3., 0., 0.,
          0., 0., 0., 0., 0., 0., 0., 0., 0., 0., 0., 0., 0., 0., 0., 0.,
          0., 0., 0., 0., 0., 0., 0., 0., 0., 0., 0., 0., 0.,
          2.96919870e+000, 3.08012143e-002, 0., 0., 0., 0., 0., 0., 0.,
          0., 0., 0., 0., 0., 0., 0., 0., 0., 0., 0., 0., 0., 0., 0., 0.,
          0., 0., 0., 0., 0., 0., 3.04421559e-002, 1.14900246e+001,
          1.47953296e+000, 0., 0., 0., 0., 0., 0., 0., 0., 0., 0., 0.,
          0., 0., 0., 0., 0., 0., 0., 0., 0., 0., 0., 0., 0., 0., 0., 0.,
          0., 1.95339756e+001, 1.46602440e+000, 0., 5.26468754e+000,
          6.73531246e+000, 2.47606201e+001, 5.82516623e+000,
          4.14213568e-001, 6.75417423e+000, 4.24582577e+000,
          5.43127680e+000, 1.56872332e+000, 0., 0., 0., 6.38697922e-001,
          3.61302108e-001, 0., 0., 0., 8.81300330e-001, 1.18699700e-001,
          0., 9.24263573e+000, 1.97573643e+001, 2.61465282e+001,
          2.95397625e+001, 4.97056293e+000, 1.60832500e+001,
          7.25989532e+000, 2.68921928e+001, 1.04509535e+001,
          7.87005758e+000, 5.88809128e+001, 5.09058838e+001,
          2.51212292e+001, 4.20675888e+001, 2.73380947e+001,
          4.15993309e+001, 1.68737583e+001, 8.76100659e-001,
          1.23899341e-001, 0., 1.47054625e+001, 1.62945366e+001,
          1.52990694e+001, 1.92156487e+001, 8.28427124e+000,
          3.05318947e+001, 7.66911554e+000, 1.85259304e+001,
          1.62314281e+001, 4.55634928e+000, 4.64804001e+001,
          4.42058907e+001, 1.81047306e+001, 4.91257172e+001,
          1.73969688e+001, 2.89351387e+001, 7.43744469e+000,
          1.18724346e+001, 3.12756586e+000, 1.24264073e+000,
          8.21630573e+000, 3.54105377e+000, 2.65786476e+001,
          8.76449776e+000, 3.31370854e+000, 4.34314585e+000, 0., 0., 0.,
          0., 0., 0., 0., 0., 0., 0., 0., 1.85839233e+001,
          1.41607630e+000, 0., 0., 0., 1.44314134e+000, 5.56858599e-001,
          0., 0., 0., 0., 0., 0., 0., 0., 0., 0., 0., 0., 0.,
          2.79483271e+000, 2.05167338e-001, 0., 0., 0., 0., 0., 0., 0.,
          0., 0., 0., 0., 0., 0., 0., 0., 0., 0., 0., 2.78858662e+000,
          2.11413398e-001, 0., 0., 0., 0., 0., 0., 0., 0., 0., 0., 0.,
          0., 0., 0., 0., 0., 0., 0., 1.16530199e+001, 1.34697974e+000,
          0., 0., 0., 0., 0., 0., 0., 0., 0., 0., 0., 0., 0., 0., 0., 0.,
          0., 0., 4.84358931e+000, 8.91376972e+000, 1.65685427e+000,
          3.00533843e+000, 1.35804482e+001, 2.95142174e+000,
          3.63436460e+000, 4.14213568e-001, 5.22677994e+000,
          3.77732201e+001, 0., 0., 0., 1.58399594e+000, 6.41600418e+000,
          0., 0., 0., 5.03947139e-001, 1.49605286e+000, 6.23989105e+000,
          1.01032553e+001, 1.65685427e+000, 2.16736746e+000,
          1.83263242e+000, 4.02301750e+001, 3.82845421e+001,
          3.31370854e+000, 3.75706935e+000, 5.41450357e+000,
          1.01013098e+001, 3.00997009e+001, 1.49116879e+001,
          4.22514534e+001, 4.16358490e+001, 1.02238550e+001,
          5.01781654e+001, 2.94091625e+001, 5.28676491e+001,
          3.53211708e+001, 0., 5.85786462e-001, 1.65685427e+000,
          1.64246159e+001, 1.03327436e+001, 7.58282995e+000,
          1.07603159e+001, 4.14213562e+000, 3.60040855e+001,
          3.55106316e+001, 4.89815407e+001, 2.71189632e+001,
          7.45584393e+000, 4.13540192e+001, 6.08963108e+000,
          3.88990860e+001, 1.24440594e+001, 1.03553391e+001,
          6.07202339e+001, 1.05812826e+001, 9.66426659e+000,
          5.50730658e+000, 1.65685427e+000, 8.17157269e+000, 0.,
          4.33585358e+001, 7.81303787e+000, 1.24264073e+000,
          2.58578634e+000, 0., 3.62094283e+000, 3.79057050e-001, 0., 0.,
          0., 0., 0., 0., 0., 0., 7.74207783e+000, 6.25792217e+000, 0.,
          1., 0., 1.44998991e+000, 5.50010026e-001, 0., 0., 0., 0., 0.,
          0., 0., 0., 0., 0., 0., 0., 0., 0., 0., 0., 0., 0., 0., 0., 0.,
          0., 0., 0., 0., 0., 0., 0., 0., 0., 0., 0., 0., 0., 0., 0., 1.,
          0., 0., 0., 0., 0., 0., 0., 0., 0., 0., 0., 0., 0., 0., 0., 0.,
          0., 1.17157292e+000, 8.28427136e-001, 9.09517109e-001,
          3.09048295e+000, 0., 0., 0., 0., 0., 0., 0., 0., 0., 0., 0.,
          0., 0., 0., 0. ]
      - [ 0., 1.55857868e+001, 5.41421366e+000, 0., 1., 0., 0., 1., 0.,
          1., 1.41421354e+000, 4.41421366e+000, 4.31803970e+001,
          3.15769634e+001, 3.41421366e+000, 1., 0., 0., 0., 0.,
          1.94641113e+001, 1.05358877e+001, 0., 0., 0., 0., 0., 0., 0.,
          0., 0., 0., 0., 9., 2.41421366e+000, 5.85786462e-001, 0., 0.,
          0., 0., 0., 2., 2.82842708e+000, 3.17157292e+000,
          1.98182583e+001, 2.29205379e+001, 1.26754179e+001,
          6.58578634e+000, 0., 0., 0., 4.14213568e-001, 7.72973099e+001,
          4.72884789e+001, 4., 0., 0., 0., 2., 6.05072784e+000,
          7.63865585e+001, 3.57342834e+001, 4.82842731e+000, 0., 0.,
          7.17157269e+000, 1.32426405e+001, 3.58578634e+000, 2., 0., 0.,
          0., 0., 11., 17., 3., 11., 4.58578634e+000, 1.18284273e+001,
          4.58578634e+000, 0., 3., 1., 3., 7., 7., 1.65038452e+001,
          4.01475296e+001, 0., 1.43916216e+001, 6., 2., 1.02426405e+001,
          9.34314537e+000, 1.08284273e+001, 7.66496944e+000, 0., 4.,
          6.82842731e+000, 8.75735950e+000, 5.41421366e+000, 0., 0., 0.,
          0., 6.39837599e+000, 10., 9., 6., 4., 9.41421318e+000,
          1.29380589e+001, 0., 6.49772644e-001, 0., 0., 0., 0., 0.,
          2.65373821e+001, 0., 0., 0., 0., 0., 0., 0., 0., 0., 2., 6.,
          9.34314537e+000, 8.07106781e+000, 3.58578634e+000, 1., 0., 0.,
          2.58578634e+000, 4., 8., 23., 9.41421318e+000, 16.,
          7.49615526e+000, 0., 9.38172913e+000, 4.82842731e+000,
          1.41421354e+000, 2., 0., 2.60495710e+000, 2.70386219e+001, 0.,
          1.00525675e+001, 1., 0., 0., 0., 0., 3.60174179e+000, 0., 3.,
          6., 1., 3.82842708e+000, 1.09289322e+001, 4.24264050e+000, 0.,
          4.14213568e-001, 1.58578646e+000, 4.41421366e+000,
          4.58578634e+000, 2.24852810e+001, 2.86152229e+001,
          1.58994951e+001, 4., 0., 2.18393021e+001, 3.56568527e+001,
          1.61715736e+001, 14., 11., 8., 5., 0., 5.96368370e+001,
          5.39947586e+001, 7.34749603e+000, 4.58578634e+000,
          2.17157292e+000, 5.48528147e+000, 5.10050488e+000, 0.,
          2.58578634e+000, 1.14142132e+001, 0., 0., 0., 4., 4., 0., 7.,
          11., 2., 1.24142132e+001, 2.11005058e+001, 1.54852810e+001, 1.,
          0., 8.75735950e+000, 2.41421356e+001, 2.88578644e+001,
          3.25563507e+001, 1.46862917e+001, 9.82842731e+000,
          8.92893219e+000, 0., 1.59488955e+001, 4.93196259e+001,
          5.25127449e+001, 2.84137936e+001, 1.48049431e+001, 8.,
          6.58578634e+000, 0., 1.81005058e+001, 4.65685415e+000, 1., 0.,
          0., 0., 0., 0., 1.33431454e+001, 2.68284264e+001,
          8.92893219e+000, 2.79528332e+001, 1.70402133e+000, 0., 0., 0.,
          5., 11., 7.54141092e+000, 6.40366974e+001, 2.03250942e+001,
          5.09679461e+000, 1., 0., 0., 0., 2.11401963e+000,
          1.48690262e+001, 1.69541072e-002, 0., 0., 0., 1.35441561e+001,
          7.87005758e+000, 5.85786462e-001, 0., 0., 5.68629169e+000,
          1.36690474e+001, 2.62067280e+001, 2.14379330e+001, 0., 0., 0.,
          4.09479284e+000, 1.69052067e+001, 0., 0., 0., 0., 0., 0.,
          7.85786438e+000, 4.14213562e+000, 0., 0., 0., 5.51471853e+000,
          1.78111839e+001, 3.47006760e+001, 9.73423660e-001, 0.,
          5.85786462e-001, 2.60954552e+001, 5.27922630e+001,
          1.05264959e+001, 4.47060442e+000, 7.80147314e+000,
          2.11248913e+001, 5.01118050e+001, 1.04912262e+001, 0.,
          1.57157288e+001, 8.28427124e+000, 0., 0., 0., 1.81593800e+001,
          2.07106781e+001, 1.31299419e+001, 0., 0., 4.10050488e+000,
          1.69827557e+001, 4.11101265e+001, 3.28066139e+001,
          1.33967428e+001, 1.89047718e+001, 2.02964649e+001,
          2.73820724e+001, 2.01994729e+000, 0., 1.33725834e+001,
          6.62741709e+000, 0., 0., 2.61203885e-001, 1.82118835e+001,
          1.94680367e+001, 2.11222534e+001, 9.36621308e-001,
          5.22407770e-001, 1.47759223e+000, 8.28427136e-001,
          1.04110727e+001, 4.37605019e+001, 0., 0., 0., 0., 0., 0.,
          1.11299419e+001, 9.94112587e+000, 2.92893219e+000, 0., 0.,
          9.20100975e+000, 1.57401152e+001, 2.34916515e+001,
          1.56722319e+000, 2.61203885e-001, 2.04545250e+001,
          1.61543293e+001, 3.29792099e+001, 2.51507339e+001,
          1.41523552e+001, 4.84764481e+000, 0., 2.51243091e+000,
          5.48756933e+000, 0., 7.10050488e+000, 7.45584393e+000,
          1.11824465e+001, 2.61203885e-001, 0., 7.27207804e+000,
          1.69827557e+001, 3.82227592e+001, 5.22407770e-001, 0.,
          5.15614014e+001, 3.39655113e+001, 1.44730883e+001, 0.,
          9.34783554e+001, 2.77226543e+001, 9.11269855e+000,
          1.06862917e+001, 0., 0., 9.44365120e+000, 7.87005758e+000,
          4.68629169e+000, 0., 0., 1.29583693e+001, 1.57401152e+001,
          3.10403118e+001, 2.61203885e-001, 0., 4.31177483e+001,
          3.31370850e+001, 2.47451668e+001, 0., 8.85704880e+001,
          3.01452408e+001, 2.11248913e+001, 2.11593800e+001, 0., 0.,
          1.71299419e+001, 7.87005758e+000, 0., 0., 2.61203885e-001,
          3.59986801e+001, 1.69827557e+001, 2.11866140e+000,
          6.38697922e-001, 5.36080456e+000, 1.61122837e+001,
          1.86396103e+001, 2.21471996e+001, 1.87401028e+001,
          4.12843895e+000, 8.71561289e-001, 4.14213568e-001,
          5.85786462e-001, 0., 0., 1.37157288e+001, 8.69848442e+000,
          5.85786462e-001, 0., 0., 3.51471853e+000, 1.28406200e+001,
          3.67258339e+001, 3.29188271e+001, 0., 0., 0., 3.81220269e+000,
          2.61877975e+001, 0., 0., 0., 0., 0., 0., 9.78679657e+000,
          6.62741709e+000, 5.85786462e-001, 0., 0., 8.78679657e+000,
          1.57401152e+001, 3.16373386e+001, 5.83574915e+000, 0., 0.,
          1.44974747e+001, 6.10004921e+001, 4.95020332e+001, 0., 0.,
          8.69848442e+000, 5.55675049e+001, 5.47340126e+001, 0.,
          5.85786438e+000, 6.62741709e+000, 3.51471853e+000, 0., 0.,
          1.68873024e+001, 1.61543293e+001, 1.19583693e+001, 0.,
          4.79050064e+001, 4.11538658e+001, 1.65685425e+001,
          1.03725834e+001, 0., 4.60893326e+001, 2.85969582e+001,
          9.11269855e+000, 1.62010098e+001, 0., 0., 2.34314585e+000,
          7.45584393e+000, 9.20100975e+000, 0., 5.70091057e+000,
          3.01863918e+001, 1.69827557e+001, 1.11299419e+001, 0.,
          6.04738045e+001, 7.52619553e+000, 0., 0., 0., 0., 0., 0., 0.,
          0., 0., 1.17157292e+000, 7.45584393e+000, 1.43725834e+001, 0.,
          1.04481554e+000, 1.73988361e+001, 2.15391045e+001,
          2.50172443e+001, 0., 6.67526779e+001, 4.78625450e+001,
          7.04163074e+000, 2.34314585e+000, 0., 2.82729149e+001,
          4.72708464e+000, 0., 0., 0., 0., 2.34314585e+000,
          8.28427124e+000, 1.13725834e+001, 0., 0., 3.92893219e+000,
          2.07106781e+001, 4.20991859e+001, 2.61203885e-001,
          5.22407770e-001, 2.94653988e+001, 2.85807362e+001,
          2.54314575e+001, 0., 7.00493546e+001, 2.75658665e+001,
          1.07695522e+001, 1.28316116e+001, 7.83611596e-001, 0.,
          7.02943707e+000, 4.97056293e+000, 0., 0., 0., 7.02943707e+000,
          1.61543293e+001, 2.72938251e+001, 5.22407770e-001, 0.,
          1.74730873e+001, 3.47939377e+001, 5.37329712e+001, 0.,
          1.75987930e+001, 2.78742943e+001, 2.07106781e+001,
          3.34205780e+001, 6.73956528e+001, 0., 1.57157288e+001,
          8.69848442e+000, 5.85786462e-001, 0., 0., 1.69583702e+001,
          1.36690474e+001, 3.15178585e+001, 1.85472393e+000, 0.,
          8.61522388e+000, 1.24264069e+001, 2.10297623e+001,
          6.49286041e+001, 0., 0., 0., 1.41722870e+000, 1.55827713e+001 ]
      - [ 0., 1.44964151e+001, 2.61203885e-001, 0., 0., 0., 0., 0.,
          1.35162723e+000, 1.01102600e+001, 4.76091805e+001,
          2.31005058e+001, 8.28427136e-001, 0., 0., 0., 0., 7.,
          4.78284264e+001, 4.52720795e+001, 4.51421356e+001,
          3.75735927e+000, 0., 0., 0., 0., 0., 1.31488047e+001,
          1.28173309e+002, 6.58630066e+001, 4.81487131e+000, 0., 0.,
          1.54380636e+001, 3.94016728e-002, 0., 0., 0., 0., 0., 0.,
          1.44046278e+001, 4.28315620e+001, 2.72720776e+001, 0., 0., 0.,
          0., 0., 1., 4.42426414e+001, 5.54436493e+001, 3.33137093e+001,
          4., 0., 0., 0., 0., 8.41421318e+000, 4.50294380e+001,
          1.17298149e+002, 3.42581978e+001, 0., 0., 0., 8.76100659e-001,
          1.23899341e-001, 0., 0., 0., 0., 0., 0., 3.06545010e+001,
          1.14687004e+001, 0., 0., 0., 0., 0., 0., 3.52734566e+001,
          5.24344368e+001, 1.47054625e+001, 2., 0., 0., 0., 0.,
          3.85240860e+001, 5.99161568e+001, 3.91259384e+001,
          2.64852810e+001, 0., 0., 0., 0., 0., 0., 0., 0., 0., 0., 0.,
          0., 0., 0., 0., 0., 0., 0., 0., 0., 0., 0., 0., 0., 0., 0., 0.,
          0., 0., 0., 0., 0., 0., 0., 0., 0., 0., 0., 0., 0., 0., 0., 0.,
          0., 0., 0., 0., 0., 0., 0., 0., 0., 0., 0., 0., 0., 0., 0., 0.,
          0., 0., 0., 0., 0., 0., 0., 0., 0., 0., 0., 0., 0., 0., 0., 0.,
          0., 0., 0., 0., 0., 0., 0., 0., 0., 0., 0., 0., 0., 0., 0., 0.,
          0., 0., 0., 0., 0., 0., 0., 0., 0., 0., 0., 0., 0., 0., 0., 0.,
          0., 0., 0., 0., 0., 0., 0., 0., 0., 5.07578611e+000, 0., 0.,
          0., 0., 0., 0., 0., 1.16940899e+001, 3.05909991e-001, 0., 0.,
          0., 0., 0., 0., 3.89856339e+000, 0., 0., 0., 0., 0., 0., 0.,
          4.01066093e+001, 1.81473904e+001, 4.14213568e-001, 0., 0., 0.,
          0., 0., 4.47643700e+001, 5.79336433e+001, 2.07573586e+001, 4.,
          0., 0., 3.20377231e-001, 0., 5.12524681e+001, 6.61451874e+001,
          2.83431454e+001, 3.38284264e+001, 2., 0., 1.58578646e+000,
          1.62591095e+001, 4.32667685e+000, 4.14213568e-001, 0., 0.,
          2.58855414e+000, 5.59728470e+001, 2.44386005e+001, 0., 0., 0.,
          6.83776321e+001, 3.76934357e+001, 2.92893219e+000, 0., 0.,
          1.05441561e+001, 3.93502884e+001, 6.24038849e+001,
          2.70166969e+000, 1.54163141e+001, 3.58368540e+000, 0., 0., 0.,
          1.06412163e+001, 6.00328827e+001, 1.53259020e+001, 0., 0., 0.,
          6.67207794e+001, 3.89360733e+001, 2.34314585e+000, 0., 0.,
          3.81471863e+001, 4.01787148e+001, 3.57003517e+001,
          1.97374773e+000, 5.85786462e-001, 4.14213568e-001, 0., 0., 0.,
          3.19830952e+001, 1.33600512e+001, 1.65685427e+000, 0., 0.,
          3.56560631e+001, 5.62606735e+001, 1.40832615e+001, 0., 0.,
          3.40806351e+001, 8.48239059e+001, 2.60954552e+001, 0., 0., 0.,
          0., 0., 0., 0., 0., 0., 0., 0., 0., 0., 0., 0., 0., 0., 0., 0.,
          0., 0., 0., 0., 0., 0., 0., 0., 0., 0., 0., 0., 0., 0., 0., 0.,
          0., 0., 0., 0., 0., 0., 0., 0., 0., 0., 0., 0., 0., 0., 0., 0.,
          0., 0., 0., 0., 0., 0., 0., 0., 0., 0., 0., 0., 0., 0., 0., 0.,
          0., 0., 0., 0., 0., 3.75421214e+000, 2.24578786e+000, 0., 0.,
          0., 7.95543861e+000, 4.04456139e+000, 0., 0., 0.,
          3.68083620e+000, 1.31916368e+000, 0., 0., 0., 3.28504066e+001,
          3.22795372e+001, 7.87005758e+000, 0., 0., 2.45977669e+001,
          7.50225067e+001, 3.47939377e+001, 5.85786462e-001, 0.,
          2.08012505e+001, 8.47773972e+001, 4.30782089e+001,
          2.34314585e+000, 0., 1.83476887e+001, 3.65231133e+000, 0., 0.,
          0., 2.75899696e+000, 6.51308107e+000, 1.32548342e+001,
          1.64730873e+001, 0., 0., 4.68629169e+000, 3.02375908e+001,
          6.75537109e+001, 5.22407770e-001, 0., 0., 2.94091625e+001,
          1.63819412e+002, 1.67714176e+001, 1.68005104e+001,
          3.19949031e+000, 0., 0., 0., 9.49493408e+000, 6.01978397e+000,
          1.73969688e+001, 2.10883121e+001, 0., 0., 1.17157292e+000,
          3.27228699e+001, 6.21055565e+001, 0., 0., 0., 3.23086586e+001,
          1.48978394e+002, 1.57129507e+001, 5.14718652e-001,
          4.85281378e-001, 0., 0., 0., 3.18826866e+001, 9.04624557e+000,
          2.07106781e+000, 0., 0., 3.51157913e+001, 9.81314182e+000,
          1.03553391e+001, 1.17157288e+001, 0., 3.23674545e+001,
          1.77624874e+001, 3.23086586e+001, 4.73001976e+001,
          2.61203885e-001, 0., 0., 0., 0., 0., 0., 0., 0., 0., 0., 0.,
          0., 0., 0., 0., 0., 0., 0., 0., 0., 0., 0., 0., 0., 0., 0., 0.,
          0., 0., 0., 0., 0., 0., 0., 0., 0., 0., 0., 0., 0., 0., 0., 0.,
          0., 0., 0., 0., 0., 0., 0., 0., 0., 0., 0., 0., 0., 0., 0., 0.,
          0., 0., 0., 0., 0., 0., 0., 0., 0., 0., 0., 5.15942240e+000,
          2.84057760e+000, 0., 0., 0., 7.82864523e+000, 4.17135477e+000,
          0., 0., 0., 5.10963440e+000, 1.89036560e+000, 0., 0., 0.,
          3.91169930e+001, 1.88413754e+001, 7.45584393e+000,
          5.85786462e-001, 0., 2.89769650e+001, 2.18392677e+001,
          2.15391045e+001, 1.56446609e+001, 0., 1.85687675e+001,
          2.83479729e+001, 3.68650055e+001, 4.22182541e+001, 0. ]
      - [ 0., 1., 0., 0., 3., 5., 9.41421318e+000, 4.58578634e+000, 0.,
          1.58578646e+000, 1., 6.17157269e+000, 1.62426414e+001, 11.,
          2.55857868e+001, 5.58578634e+000, 0., 0., 5.26120377e+000,
          6.57881355e+000, 5.93006706e+001, 5.90514259e+001,
          1.93936729e+001, 2.41421366e+000, 0., 0., 0., 8.21100998e+000,
          3.74033356e+001, 4.38565350e+000, 0., 0., 0., 0., 0., 0., 0.,
          0., 3., 1.45857868e+001, 0., 0., 0., 0., 0., 1.05269957e+001,
          5.22572250e+001, 2.62157803e+001, 0., 5., 6.41421366e+000,
          1.91715736e+001, 2.88994942e+001, 2.57764626e+001,
          2.27382565e+001, 17., 0., 2., 8.41421318e+000, 2.24618988e+001,
          5.70461502e+001, 2.72493095e+001, 2.88284264e+001, 16., 0., 0.,
          0., 0., 0., 0., 3.89949489e+000, 1.90294380e+001, 0.,
          1.09289322e+001, 7.82842731e+000, 0., 0., 0., 7.66694975e+000,
          5.11794319e+001, 0., 1.54851561e+001, 5.86914968e+000,
          6.34694755e-001, 2., 1.32037723e+000, 7.18346739e+000,
          5.06971664e+001, 0., 2.01633968e+001, 2.93054521e-001,
          8.09256434e-001, 4.14213568e-001, 2.17157292e+000,
          1.85563488e+001, 4.30325508e+001, 0., 0., 0., 0., 0., 0.,
          8.28427136e-001, 1.91005058e+001, 0., 1.58578646e+000, 0.,
          1.58578646e+000, 4.14213568e-001, 1., 1.55445185e+001,
          5.82967682e+001, 0., 7.00687599e+000, 4.14213568e-001,
          2.58578634e+000, 4.82842731e+000, 6.49615526e+000,
          5.82563877e+000, 2.15408478e+001, 0., 1.01033859e-001, 0., 0.,
          0., 0., 0., 0., 0., 0., 0., 0., 0., 0., 1.41421354e+000,
          7.34314585e+000, 0., 3.92893219e+000, 1.24264073e+000, 1., 1.,
          0., 3., 3.04535217e+001, 0., 1.48701715e+001, 2.61203885e-001,
          0., 0., 0., 9.30629444e+000, 4.67606659e+001, 0.,
          1.91032791e+001, 4.21514654e+000, 2.87780255e-001,
          5.41421366e+000, 1.58578646e+000, 9.49819851e+000,
          4.49146690e+001, 0., 3.17157292e+000, 0., 0., 0., 0., 0., 3.,
          0., 7.58578634e+000, 0., 0., 0., 0., 3., 2.27573586e+001, 0.,
          2.14250870e+001, 9.65685463e+000, 1., 2., 0., 1.95080490e+001,
          3.55924568e+001, 0., 2.56682472e+001, 2.30097523e+001,
          8.78890038e+000, 9.93218708e+000, 1.71901245e+001,
          4.51874695e+001, 4.27389603e+001, 0., 3., 2., 0., 0., 0., 2.,
          8., 0., 1.21715727e+001, 1.72426414e+001, 1.15857868e+001,
          2.61203885e-001, 1.32458258e+000, 3.82842708e+000,
          1.11715727e+001, 0., 1.49289322e+001, 1.74852810e+001,
          2.35966606e+001, 1.87464848e+001, 1.32198725e+001,
          1.71943417e+001, 1.91715736e+001, 0., 2.24149742e+001,
          3.33681259e+001, 4.38909264e+001, 2.59740372e+001,
          1.78037338e+001, 2.64141064e+001, 2.40560246e+001, 0., 0., 0.,
          0., 0., 1., 4., 8., 0., 3., 1.08284273e+001, 7.34314585e+000,
          2.02426414e+001, 1.45147190e+001, 1.94852810e+001,
          4.58578634e+000, 0., 2., 4.41421366e+000, 3.14935150e+001,
          6.00733833e+001, 2.43620338e+001, 1.20710678e+001,
          1.58578646e+000, 0., 1.58578646e+000, 7.69398069e+000,
          1.65255585e+001, 8.83119202e+001, 3.65319176e+001,
          3.52240777e+000, 1., 0., 5.85786462e-001, 7.04163074e+000,
          1.23725834e+001, 0., 0., 6.68629169e+000, 1.36690474e+001,
          3.04020195e+001, 2.24264073e+000, 6.75417423e-001,
          9.93980598e+000, 1.44974747e+001, 5.27854691e+001,
          4.51018333e+001, 1.18775740e+001, 7.87978554e+000,
          2.07106781e+000, 2.98350668e+000, 6.18806648e+000, 0., 0.,
          7.45584393e+000, 1.05441561e+001, 0., 0., 0., 9.52691174e+000,
          6.27352028e+001, 1.67378845e+001, 0., 1.98162346e+001,
          3.14802303e+001, 4.36613884e+001, 6.04214525e+000,
          4.48532581e+000, 2.46740532e+001, 4.10071411e+001,
          4.78334770e+001, 0., 0., 0., 7.45584393e+000, 1.85441551e+001,
          0., 0., 1.29583693e+001, 9.94112587e+000, 4.47682343e+001,
          1.43322716e+001, 2.16110563e+000, 1.70399036e+001,
          2.94091625e+001, 4.24532051e+001, 9.36621308e-001,
          1.38310976e+001, 1.67841263e+001, 2.69238815e+001,
          5.41702538e+001, 1.29064107e+000, 0., 0., 5.79898977e+000,
          1.62010098e+001, 0., 0., 2.34314585e+000, 7.04163074e+000,
          5.99289322e+001, 1.36862917e+001, 3.54235482e+000,
          1.84870815e+001, 1.03553391e+001, 3.76073723e+001,
          2.40078526e+001, 0., 1.58578646e+000, 4.14213568e-001, 0., 0.,
          0., 0., 3.72792196e+000, 6.27207804e+000, 0., 0.,
          5.34314585e+000, 1.44974747e+001, 2.62227573e+001,
          9.36621308e-001, 5.22407770e-001, 1.91222534e+001,
          2.40243874e+001, 4.16813507e+001, 2.56496010e+001,
          5.51378727e+000, 2.53735142e+001, 1.98822517e+001,
          4.50696793e+001, 3.31607666e+001, 0., 2.34314585e+000,
          2.89949489e+000, 1.75735927e+000, 0., 0., 4.68629169e+000,
          1.44974747e+001, 1.58162336e+001, 0., 1.04481554e+000,
          2.56709137e+001, 2.89949493e+001, 3.88751068e+001,
          4.14213568e-001, 2.04246998e+001, 3.77763100e+001,
          2.23675327e+001, 7.35128098e+001, 3.19186459e+001, 0.,
          2.92893219e+000, 6.21320343e+000, 5.85786438e+000, 0.,
          2.61203885e-001, 2.66555347e+001, 1.98822517e+001,
          1.12010098e+001, 0., 5.22407770e-001, 4.42521973e+001,
          3.31370850e+001, 3.53757668e+001, 1.71254385e+000,
          1.05342197e+001, 7.70982513e+001, 3.31370850e+001,
          4.87768631e+001, 1.34535828e+001, 0., 0., 5.38477612e+000,
          7.61522388e+000, 0., 0., 1.37157288e+001, 1.94680367e+001,
          2.78162346e+001, 0., 0., 3.16030312e+001, 2.81665230e+001,
          3.25550308e+001, 6.75417423e-001, 6.04916191e+000,
          2.81812859e+001, 2.07106781e+001, 3.99942627e+001,
          2.80646114e+001, 0., 7.61522388e+000, 8.28427124e+000,
          5.10050488e+000, 0., 0., 7.85786438e+000, 1.49116879e+001,
          2.62304478e+001, 0., 0., 2.34314585e+000, 1.15979795e+001,
          5.95779877e+001, 6.54808884e+001, 0., 0., 4.14213568e-001,
          8.30936623e+000, 4.12764206e+001, 0., 1.57157288e+001,
          8.28427124e+000, 0., 0., 1.45902908e+000, 2.65998459e+001,
          1.65685425e+001, 1.33725834e+001, 0., 0., 1.87451668e+001,
          3.23086586e+001, 5.64205818e+001, 4.52559280e+000, 0.,
          1.75735931e+001, 4.14213562e+001, 6.84114914e+001,
          1.05935631e+001, 2.61203885e-001, 2.20403118e+001,
          8.69848442e+000, 0., 0., 9.49297047e+000, 6.69801178e+001,
          9.52691174e+000, 0., 0., 4.21589184e+000, 9.34043808e+001,
          3.64507942e+001, 3.92893219e+000, 0., 3.18350582e+001,
          1.02743584e+002, 4.22497826e+001, 2.49615550e+000,
          6.75417423e-001, 0., 2.37867966e+001, 6.21320343e+000, 0., 0.,
          8.93662167e+000, 6.43648911e+001, 9.94112587e+000,
          2.75735927e+000, 0., 6.82374649e+001, 2.72772503e+001,
          5.38477612e+000, 1.25780973e+001, 5.22407770e-001,
          5.89542866e+000, 1.10457110e+000, 0., 0., 0., 0.,
          2.36152229e+001, 5.38477612e+000, 0., 0., 3.32776761e+000,
          6.76894760e+001, 1.78111839e+001, 1.17157292e+000, 0.,
          4.78683243e+001, 9.85042572e+001, 6.62741709e+000, 0., 0.,
          7.40371246e+001, 6.41638870e+001, 8.28427124e+000,
          6.51471853e+000, 0., 0., 1.87157288e+001, 8.28427124e+000, 0.,
          0., 0., 5.15614014e+001, 2.44386005e+001, 0., 0.,
          1.82842708e+000, 8.56913452e+001, 3.18944435e+001,
          2.58578634e+000, 0., 2.68819065e+001, 8.29637680e+001,
          2.31959591e+001, 3.09390011e+001, 1.30193672e+001, 0.,
          1.61299419e+001, 7.87005758e+000, 0., 0., 0., 2.44314575e+001,
          2.23675327e+001, 8.93980598e+000, 2.61203885e-001,
          5.22407770e-001, 3.90806236e+001, 3.31370850e+001,
          4.29538651e+001, 1.30601943e+000, 5.08572054e+000,
          5.19315224e+001, 3.76934357e+001, 7.17340012e+001,
          1.05553207e+001, 0., 8.61522388e+000, 5.79898977e+000,
          5.85786462e-001, 0., 0., 5.85786438e+000, 1.78111839e+001,
          3.13309517e+001, 0., 0., 4.10050488e+000, 2.69238815e+001,
          8.44894714e+001, 1.04861431e+001, 0., 4.34314585e+000,
          7.45584393e+000, 5.81268120e+001, 8.00741959e+001 ]
      - [ 0., 3.01748800e+000, 4.72976446e+000, 2.67954946e+000,
          9.75415611e+000, 9.24584389e+000, 1., 0., 0., 0.,
          3.08125615e+000, 1.72532425e+001, 5.64818916e+001,
          1.41836090e+001, 2., 0., 0., 0., 4.13950396e+000,
          3.52116418e+000, 2.45529099e+001, 4.78642225e+000, 0., 0., 0.,
          3.92393589e+000, 2.95847225e+001, 1.13005981e+001, 0., 0., 0.,
          0., 0., 3.44456625e+000, 3.06604099e+000, 3.41421366e+000, 1.,
          3.64495969e+000, 7.18346739e+000, 3.49615550e+000, 0., 0.,
          3.52240777e+000, 1.37311068e+001, 3.73022041e+001,
          3.26158524e+001, 3.82842708e+000, 0., 0., 2.51685321e-001,
          5.10079384e+000, 6.48169947e+000, 6.54275513e+001,
          7.05327606e+001, 9.20551395e+000, 1., 0., 1.00518970e+001,
          2.42321873e+001, 1.60404968e+001, 6.57370071e+001,
          6.82639923e+001, 1.13312702e+001, 4.22048140e+000, 0.,
          1.01378870e+000, 3.75592899e+000, 1.18525085e+001,
          8.51561451e+000, 1.82536945e-001, 1.67962277e+000,
          5.94226003e-001, 0., 8.25637627e+000, 4.77652979e+000,
          5.49195004e+000, 2.11649036e+001, 1.29289322e+001,
          9.67962265e+000, 1.04368553e+001, 0., 8.75735950e+000,
          6.82842731e+000, 1.58578646e+000, 1.52730980e+001,
          2.82822304e+001, 3.50195847e+001, 3.63354568e+001, 0., 3., 0.,
          0., 3.08963108e+000, 3.01208096e+001, 9.08009262e+001,
          7.34508438e+001, 0., 3.76432848e+000, 3., 3.20264077e+000,
          4.56968403e+000, 4.58218527e+000, 4.51585627e+000,
          9.06163692e-001, 0., 9.42278957e+000, 8.36254692e+000,
          9.94309521e+000, 6.76783705e+000, 2.11018143e+001,
          1.63591099e+001, 8.08854675e+000, 0., 1.72689285e+001,
          1.29084148e+001, 2.20064330e+000, 1.07741308e+001,
          2.02645550e+001, 4.02848434e+001, 2.27226009e+001, 0.,
          1.09516506e+001, 1.47978792e+001, 1.70229797e+001,
          4.93599224e+000, 7.19706154e+000, 3.66190910e+001,
          9.14691620e+001, 0., 0., 1., 2.74648523e+000, 1.09517012e+001,
          6.45482397e+000, 5.02698374e+000, 2.40579295e+000, 0.,
          3.64075446e+000, 6.09383631e+000, 5.85786462e-001,
          6.75735950e+000, 7.88760042e+000, 2.26204491e+001,
          1.13753452e+001, 0., 7.07773638e+000, 2.72648010e+001,
          8.14941311e+000, 1.28284273e+001, 6.17157269e+000,
          3.76568527e+001, 2.13431454e+001, 0., 2.51884937e+001,
          4.40807228e+001, 1.49212389e+001, 4.92886209e+000,
          1.03431454e+001, 4.06229134e+001, 3.02832508e+001, 0., 0., 1.,
          0., 4.19074345e+000, 6.71542025e+000, 9.86309052e+000,
          4.45728731e+000, 0., 3.23664522e+000, 8.12717056e+000,
          7.92893219e+000, 2.61421356e+001, 9.68629169e+000,
          5.24264050e+000, 6.05464077e+000, 0., 8.94087410e+000,
          1.39071255e+001, 8.29423428e+000, 2.02832527e+001,
          2.98105488e+001, 2.92028522e+001, 1.93677826e+001, 0.,
          3.54860687e+001, 3.44370003e+001, 1.97160397e+001,
          1.52018175e+001, 4.53560781e+000, 9.72827148e+000,
          1.18530436e+001, 0., 1.75735927e+000, 2.41421366e+000,
          3.75735927e+000, 3.69458818e+000, 7.96226597e+000,
          7.17157269e+000, 1., 1.24264073e+000, 3., 4.67541742e+000,
          1.16956015e+001, 3.48853989e+001, 1.79151554e+001,
          9.24264050e+000, 7.34314585e+000, 0., 0., 1.99800911e+001,
          4.70961609e+001, 1.75921555e+001, 1.33315945e+001, 4., 1., 0.,
          0., 1., 2.04190803e+000, 7.95809221e+000, 0., 0., 0.,
          8.75297308e-001, 1.90743566e-001, 7.67993748e-001,
          2.21594644e+000, 5.17772961e+000, 9.23812485e+000,
          1.04094610e+001, 1.12470269e+000, 0., 8.55392575e-001,
          6.09672785e+000, 1.65348282e+001, 4.41840668e+001,
          1.59107285e+001, 4.41825628e+000, 0., 0., 0., 0.,
          2.76444292e+000, 6.23555708e+000, 0., 0., 0., 0., 0., 0., 0.,
          0., 0., 0., 0., 5.31902361e+000, 5.85254908e+000,
          4.55634928e+000, 1.03463163e+001, 1.92576194e+000,
          1.32660589e+001, 2.51065235e+001, 1.20121937e+001,
          1.92643890e+001, 2.35083485e+000, 7.70935726e+000,
          4.29064274e+000, 4.14213568e-001, 8.01444817e+000,
          7.57133818e+000, 3.15101280e+001, 1.30756588e+001,
          4.14213568e-001, 0., 0., 3.02560234e+000, 7.73175716e+000,
          3.72792196e+000, 9.97015095e+000, 2.54456735e+000,
          1.30601943e+000, 1.51376314e+001, 1.82253971e+001,
          3.63309517e+001, 0., 1.16730289e+001, 5.32697058e+000,
          1.73969688e+001, 1.01181129e+002, 1.24219027e+001,
          6.73352718e+000, 3.62542801e+001, 3.14802303e+001,
          9.22272644e+001, 1.33046999e+001, 7.30584908e+000,
          1.40372972e+001, 2.07106781e+000, 1.99652684e+000,
          1.58925962e+000, 1.45902908e+000, 1.85704079e+001,
          1.57401152e+001, 2.80326214e+001, 1.19782519e+000,
          2.61203885e-001, 1.21113787e+001, 3.43797264e+001,
          7.74826431e+001, 2.76504850e+000, 0., 1.75735927e+000,
          3.02375908e+001, 1.43197144e+002, 2.98078995e+001,
          2.75776625e+000, 8.58537960e+000, 2.07106781e+000,
          6.37664509e+000, 4.20914125e+000, 6.69590712e+000,
          1.97477436e+001, 9.52691174e+000, 3.24569206e+001,
          1.15725164e+001, 1.44755363e+001, 2.23823280e+001,
          1.69827557e+001, 5.31480522e+001, 2.60113277e+001,
          3.05554333e+001, 1.31308575e+001, 1.98822517e+001,
          9.20334473e+001, 4.53980064e+001, 2.61203885e-001,
          5.08194208e+000, 4.14213562e+000, 1.23039675e+001,
          2.21075106e+000, 1.08963096e+000, 7.83930111e+000,
          1.20121937e+001, 3.13834572e+001, 4.67541742e+000,
          8.46990287e-001, 3.04839630e+001, 3.18944435e+001,
          4.65319633e+001, 2.24264073e+000, 5.13725777e+001,
          2.97573643e+001, 3.06518040e+001, 5.69013596e+001,
          4.31689358e+000, 0., 5.85786462e-001, 3.72792196e+000,
          1.91376324e+001, 2.54866004e+000, 4.05233526e+000,
          1.25628881e+001, 1.44974747e+001, 1.68873024e+001, 0.,
          1.70103493e+001, 1.46048737e+001, 2.56812401e+001,
          6.12078438e+001, 8.49569225e+000, 8.62085953e+001,
          2.27914028e+001, 2.48528147e+000, 1.45968628e+001,
          2.09178562e+001, 0., 7.10050488e+000, 5.79898977e+000,
          1.23802719e+001, 1.72023296e+000, 4.40737534e+000,
          1.43794212e+001, 1.94680367e+001, 3.23228569e+001,
          1.42230952e+000, 5.57606926e+001, 1.54108801e+001,
          7.04163074e+000, 1.21157656e+001, 4.67103100e+000,
          4.02933550e+000, 1.97066474e+000, 0., 0., 0., 1.96381128e+000,
          3.37933445e+000, 1.65685427e+000, 1.09880352e+001,
          1.10119648e+001, 2.31004963e+001, 1.18284359e+001,
          5.79898977e+000, 1.48862476e+001, 1.43858309e+001,
          3.08303142e+000, 1.91696846e+000, 0., 0., 0., 0., 0., 0., 0.,
          0., 3.43889689e+000, 3.73267603e+000, 1.24264073e+000,
          1.86919804e+001, 3.89380598e+000, 0., 0., 3.31370854e+000,
          4.18344078e+001, 4.68518829e+001, 0., 0., 0., 8.59325981e+000,
          2.64067402e+001, 1.97431684e+000, 4.78304243e+000,
          2.48528147e+000, 1.43789186e+001, 1.33784409e+001,
          5.07668352e+000, 5.68067598e+000, 4.55634928e+000,
          6.68629169e+000, 0., 0., 0., 8.69848442e+000, 6.97737885e+001,
          7.52772570e+000, 0., 2.58578634e+000, 6.62741709e+000,
          8.36371613e+001, 6.11496353e+001, 2.03712630e+000,
          2.09212437e+001, 1.44974747e+001, 1.03975166e+002,
          4.65689888e+001, 3.14492369e+000, 4.02664948e+000,
          1.65685427e+000, 1.06157455e+001, 1.05558271e+001,
          8.59738159e+000, 2.84320545e+001, 1.15979795e+001,
          3.16709137e+001, 2.70166969e+000, 7.83611596e-001,
          4.56772842e+001, 3.14802303e+001, 3.49878082e+001,
          3.07106781e+000, 8.32458210e+000, 8.33078842e+001,
          3.60365791e+001, 2.98085442e+001, 5.22407770e-001,
          3.03712630e+000, 7.72023296e+000, 4.14213562e+000,
          1.01964903e+001, 4.90401506e+000, 7.08155107e+000,
          2.07052460e+001, 1.61543293e+001, 3.80592003e+001,
          2.99967599e+000, 2.04324780e+001, 5.09695435e+001,
          2.19533195e+001, 2.55926914e+001, 8.05196953e+000,
          4.32345161e+001, 1.02025368e+002, 1.86396103e+001,
          1.76380749e+001, 2.14624290e+001, 6.75417423e-001,
          5.08194208e+000, 2.89949489e+000, 1.40153780e+001,
          5.32776737e+000, 1.50384462e+000, 2.25550308e+001,
          1.44974747e+001, 1.23988352e+001, 1.04481554e+000,
          9.36621308e-001, 3.13232632e+001, 2.65096684e+001,
          2.02304478e+001, 0., 2.40416508e+001, 6.08334579e+001,
          3.06518040e+001, 2.40491009e+001, 1.34239864e+001,
          1.50384462e+000, 7.25351477e+000, 3.72792196e+000,
          9.57809734e+000, 9.36621308e-001, 3.37153649e+000,
          1.64152603e+001, 1.61543293e+001, 3.43834572e+001,
          6.75417423e-001, 1.26039553e+001, 3.51117744e+001,
          2.15391045e+001, 4.10160217e+001, 1.17291441e+001,
          7.17503281e+001, 2.51786022e+001, 3.31370854e+000,
          1.14082956e+001, 3.63490639e+001, 0., 4.58578634e+000,
          3.31370854e+000, 1.41638842e+001, 9.36621308e-001, 0.,
          8.85786438e+000, 1.36690474e+001, 4.19894104e+001,
          1.44836769e+001, 0., 5.85786462e-001, 4.97056293e+000,
          2.63790226e+001, 6.00646286e+001, 0., 0., 0., 1.41287243e+000,
          8.58712769e+000, 1.39957678e+000, 1.18620968e+000,
          1.65685427e+000, 1.33616476e+001, 9.39571095e+000,
          1.46712506e+000, 2.11866140e+000, 2.07106781e+000,
          2.78354454e+001, 5.45077019e+001, 0., 0., 0., 2.60975170e+000,
          6.39024830e+000, 0., 0., 0., 0., 0. ]
      - [ 0., 0., 1., 1., 1., 3., 2., 0., 0., 2.84977889e+000,
          8.12435913e+000, 2.48634758e+001, 2.80690594e+001,
          9.43105578e-001, 1., 5.85786462e-001, 0., 5.13305626e+001,
          2.40040245e+001, 5.64408016e+000, 6.87945652e+000,
          3.85952830e-001, 0., 0., 0., 1., 2., 2.48841095e+000,
          5.69039268e+001, 4.18091545e+001, 7.98507571e-001, 0., 0., 0.,
          2., 5., 9., 1., 0., 2., 0., 5., 21., 8., 3., 1., 2., 4., 0.,
          1.57573595e+001, 2.74142132e+001, 15., 9., 2., 11., 3., 0., 1.,
          1., 0., 2.86215363e+001, 9.40805740e+001, 5.82978935e+001, 7.,
          0., 0., 1., 2., 6., 2., 1., 0., 0., 2., 11., 12., 33., 5., 6.,
          1., 0., 2., 3., 6., 24., 7., 7., 2.52122879e+001, 0., 0., 0.,
          0., 5., 1.25147190e+001, 2.93400631e+001, 5.06454964e+001, 0.,
          0., 1., 0., 7., 0., 0., 0., 0., 9.54405689e+000,
          2.21322079e+001, 1.41860437e+001, 7.15022087e+000, 3., 2.,
          1.78636694e+000, 0., 1.41421354e+000, 2.27717948e+000,
          5.89961338e+000, 4.08993423e-001, 0., 1.60741005e+001,
          7.51498184e+001, 0., 0., 0., 0., 0., 0., 1.50616014e+000,
          1.25262623e+001, 2.75712895e+000, 2.88475704e+000,
          9.20986462e+000, 3.49415421e+000, 3.89321637e+000,
          9.17473733e-002, 9.08252656e-001, 7.60878861e-001, 0., 1.,
          1.50809216e+000, 9.75335884e+000, 1.15162134e+001,
          3.22233558e+000, 8.12643337e+000, 3.35927391e+001, 0.,
          5.85786462e-001, 1.74208653e+000, 3.93263855e+001,
          2.80189538e+000, 1.12963367e+000, 8.59347534e+000,
          4.82388763e+001, 0., 5.14791918e+000, 1.60175800e+001,
          9.88949299e+000, 0., 0., 2.84029150e+000, 3.63934441e+001, 0.,
          2.73600745e+000, 2., 0., 1., 0., 1., 5.25699854e+000, 0.,
          1.29524255e+000, 2.32874107e+000, 8.27879238e+000,
          1.03673906e+001, 1.42969215e+000, 3., 2.19471455e+001, 0.,
          2.40027934e-001, 0., 2.68486137e+001, 4.33926964e+001,
          2.75869060e+000, 2., 2.82260265e+001, 0., 2.39379215e+001,
          2.45662613e+001, 3.05525551e+001, 1.71318264e+001,
          2.13383889e+000, 2.41421366e+000, 1.85929070e+001, 0.,
          3.57212830e+000, 5.78312254e+000, 4.42145681e+000,
          4.76916838e+000, 0., 0., 0., 0., 1.11792822e+001, 0.,
          5.69604731e+000, 1.62271519e+001, 7.68001080e-002, 0.,
          2.71536183e+000, 0., 3.92750478e+000, 0., 6.04376793e+000,
          4.08327599e+001, 1.12347257e+000, 1., 9.53815937e+000, 0.,
          8.26391315e+000, 1.56287699e+001, 8.42180157e+000,
          1.40081921e+001, 8.28182459e-001, 7.83611596e-001,
          2.80217481e+000, 0., 3.17157292e+000, 3.58578634e+000,
          5.41421366e+000, 3., 0., 1., 0., 0., 1., 1., 2.55714750e+000,
          4.13973198e+001, 6.04553080e+000, 1., 4., 0., 1.29054565e+001,
          6.63220739e+000, 0., 4., 0., 1., 0., 0., 6.52671635e-001,
          1.68257465e+001, 4.31143093e+000, 8.37198257e+000,
          8.38167667e-001, 0., 1.58578646e+000, 0., 1.17157292e+000,
          2.89949489e+000, 2.92893219e+000, 0., 2.35810413e+001,
          1.67915421e+001, 8.28427124e+000, 5.66772842e+000,
          6.75417423e-001, 3.61389122e+001, 4.38072624e+001,
          1.90538235e+001, 5.85786462e-001, 4.14213568e-001, 0.,
          6.10050488e+000, 3.31370854e+000, 1.80156364e+001,
          6.15701485e+001, 0., 4.10050488e+000, 4.14213562e+000,
          1.75735927e+000, 0., 0., 1.99167385e+001, 1.69827557e+001,
          4.10050488e+000, 0., 0., 3.62182541e+001, 2.89949493e+001,
          9.78679657e+000, 0., 0., 1.17157292e+000, 2.85807362e+001,
          9.79454575e+001, 5.13022308e+001, 0., 1.75735927e+000,
          2.48528147e+000, 1.75735927e+000, 0., 0., 1.54730883e+001,
          1.44974747e+001, 7.02943707e+000, 0., 0., 6.44365072e+000,
          1.73969688e+001, 2.56688080e+001, 1.54905720e+001, 0., 0.,
          1.49116879e+001, 5.31294594e+001, 4.49588509e+001, 0.,
          5.85786462e-001, 4.14213568e-001, 0., 0., 1.38883123e+001,
          2.48568535e+001, 1.53259020e+001, 5.55757761e+000,
          2.37135458e+000, 6.21668911e+000, 3.36909723e+000,
          7.45584393e+000, 4.99163284e+001, 5.90420418e+001, 0., 0., 0.,
          3.07264805e+000, 1.29273520e+001, 6.24228859e+000,
          1.11008577e+001, 1.65685427e+000, 4.66473103e-001,
          1.53352690e+000, 1.03057766e+001, 6.69422340e+000,
          9.94112587e+000, 3.52050323e+001, 1.58538408e+001,
          3.18847980e+001, 1.12867746e+001, 8.28427124e+000,
          4.15873680e+001, 3.59567871e+001, 2.91993141e+001,
          6.80068636e+000, 3.31370854e+000, 2.85900211e+001,
          3.50962715e+001, 0., 3.51471853e+000, 5.79898977e+000,
          5.17157269e+000, 5.14718652e-001, 1.37091217e+001,
          6.04823780e+000, 1.36690474e+001, 3.15792522e+001,
          8.99433994e+000, 4.38988190e+001, 1.51011810e+001,
          1.44974747e+001, 4.22140236e+001, 1.72884998e+001,
          7.68938675e+001, 2.02777023e+001, 4.97056293e+000,
          2.21122723e+001, 8.74559212e+000, 1.26837769e+001,
          7.65936852e+000, 1.65685427e+000, 0., 0., 2.69213829e+001,
          2.29364815e+001, 5.79898977e+000, 3.34314585e+000, 0.,
          1.70525894e+001, 8.29055691e+000, 1.36690474e+001,
          3.18771629e+001, 4.11064339e+000, 3.41067619e+001,
          8.89323997e+000, 8.28427136e-001, 5.12675714e+000,
          1.04481554e+000, 2.61203885e-001, 8.59666061e+000,
          4.55634928e+000, 5.85786462e-001, 0., 4.37998390e+000,
          6.13473511e+000, 5.79898977e+000, 7.84582901e+000,
          8.84046268e+000, 1.77349358e+001, 4.26506472e+000,
          4.14213568e-001, 5.85786462e-001, 0., 2.07708683e+001,
          3.22913170e+000, 8.28427136e-001, 2.22048116e+000,
          1.95109165e+000, 0., 0., 2.07106781e+000, 2.92893219e+000, 0.,
          5.14718652e-001, 3.65685415e+000, 6.62741709e+000,
          1.53197308e+001, 3.48812790e+001, 3.91189041e+001,
          3.36262627e+001, 1.65685425e+001, 8.08392239e+000,
          3.60236883e+000, 5.22407770e-001, 4.23495150e+000,
          2.07106781e+000, 1.58506985e+001, 8.53208771e+001, 0.,
          2.92893219e+000, 8.28427124e+000, 8.78679657e+000, 0., 0.,
          8.20100975e+000, 1.07695522e+001, 7.02943707e+000, 0., 0.,
          2.11593800e+001, 2.31959591e+001, 1.56446609e+001, 0., 0.,
          9.20100975e+000, 2.27817459e+001, 6.06053429e+001,
          5.54118996e+001, 0., 5.85786462e-001, 4.14213562e+000,
          6.27207804e+000, 0., 0., 3.51471853e+000, 2.31959591e+001,
          2.92893219e+001, 0., 2.23304005e+001, 3.19000473e+001,
          2.60954552e+001, 2.16740990e+001, 0., 5.56094475e+001,
          2.38342056e+001, 1.28406200e+001, 1.17157288e+001, 0., 0., 0.,
          2.89949489e+000, 4.10050488e+000, 0., 1.17771807e+001,
          9.90911007e+000, 1.11837664e+001, 1.43701487e+001,
          6.75979376e+000, 6.86797256e+001, 4.65507202e+001,
          1.07695522e+001, 2.18241763e+000, 5.81758261e+000,
          1.38594389e+001, 3.14056087e+000, 0., 0., 0., 3.87472057e+000,
          3.29685235e+000, 3.31370854e+000, 6.55376673e+000,
          1.96095204e+000, 2.09596291e+001, 2.86555939e+001,
          7.04163074e+000, 8.59834957e+000, 1.57447958e+001,
          4.98376007e+001, 3.62923431e+001, 7.87005758e+000,
          1.04077177e+001, 3.35922813e+001, 6.96696854e+001,
          2.62592449e+001, 2.07106781e+000, 4.02099657e+000,
          9.97900295e+000, 3.45420074e+000, 1.08178768e+001,
          3.72792196e+000, 5.85786462e-001, 4.14213568e-001,
          2.74532890e+001, 2.91619339e+001, 5.38477612e+000,
          4.29935074e+000, 1.67006493e+001, 4.05245667e+001,
          3.53332977e+001, 4.14213562e+000, 1.08263674e+001,
          6.21736336e+001, 4.94981728e+001, 2.73596916e+001,
          4.14213562e+000, 1.01916218e+001, 4.48083801e+001,
          8.04085922e+000, 2.95914054e+000, 4.14213568e-001,
          4.32618523e+000, 8.25960159e+000, 3.70180511e+001,
          2.91829586e+001, 5.79898977e+000, 1.73772013e+000,
          2.02622795e+001, 4.20551414e+001, 2.93174419e+001,
          7.04163074e+000, 5.92749691e+000, 4.16582909e+001,
          1.49951744e+001, 9.00482559e+000, 0., 4.63841343e+000,
          2.13615875e+001, 0., 6.92893219e+000, 5.79898977e+000,
          5.27207804e+000, 0., 0., 6.27207804e+000, 4.14213562e+000,
          6.34142399e+000, 4.32443619e+001, 1.54535379e+001,
          4.54646254e+000, 0., 4.33744460e-001, 3.56625557e+000,
          1.24264073e+000, 6.68629169e+000, 2.07106781e+000,
          2.58384824e+000, 1.34161520e+001 ]
      - [ 0., 0., 5.77171707e+000, 2.05775070e+001, 6.65077639e+000, 0.,
          0., 0., 0., 3., 0., 1.49379339e+001, 5.04342651e+001,
          1.62780058e+000, 0., 4., 0., 0., 0., 4.72112373e-002,
          6.95278883e+000, 0., 0., 0., 0., 0., 0., 0., 0., 0., 0., 0.,
          0., 0., 6.68208599e+000, 8.12717056e+000, 4.01917076e+000,
          3.17157292e+000, 3.67962265e+000, 1.32037723e+000, 0.,
          5.58578634e+000, 5., 1.03919258e+001, 2.68734837e+001,
          5.32037735e+000, 1.02612038e+001, 9.15300941e+000, 0., 0., 0.,
          1.28486228e+000, 5.78313599e+001, 3.88646088e+001,
          1.56987934e+001, 6.90616369e+000, 0., 0., 0., 6.90425777e+000,
          5.59418716e+001, 4.78430367e+001, 1.48966188e+001,
          3.41421366e+000, 0., 0., 1., 5.17157269e+000, 2.82842708e+000,
          1., 1.30710678e+001, 8.92893219e+000, 0., 1.17157292e+000, 0.,
          0., 4., 3.43431473e+001, 3.16568546e+001, 6., 0.,
          7.75735950e+000, 2.41421366e+000, 2., 10., 1.14142132e+001,
          1.84142132e+001, 3.08488808e+001, 0., 0., 0., 0.,
          8.28427136e-001, 1.29289322e+001, 2.53791828e+001,
          4.35748444e+001, 0., 1.56443465e+000, 5.43556547e+000, 4., 2.,
          1., 1., 4.14213568e-001, 0., 2.75996552e+001, 1.03400974e+001,
          1., 4., 4., 7., 3.58578634e+000, 0., 4.20288801e+000, 0., 0.,
          0., 0., 1.08963096e+000, 1.37974348e+001, 0., 0., 0., 0., 0.,
          0., 0., 0., 0., 1.29866371e+001, 2.37590170e+000,
          2.17157292e+000, 1.82842708e+000, 2., 4.14213568e-001,
          3.32179403e+000, 0., 9.80161190e+000, 4.53799963e+000, 0., 0.,
          0., 0., 0., 0., 0., 0., 0., 0., 0., 0., 0., 0., 0., 0., 0., 0.,
          0., 0., 0., 0., 3.66468143e+000, 1.48031521e+001,
          2.53216648e+000, 3.32458258e+000, 1.41421354e+000,
          2.61203885e-001, 0., 0., 0., 0., 0., 0., 0., 0., 0., 0., 0.,
          0., 0., 0., 0., 0., 0., 0., 0., 0., 0., 0., 0., 0., 0., 0.,
          7.89056492e+000, 5.23653698e+000, 4.50421381e+000,
          1.51471865e+000, 0., 0., 0., 0., 7.28770685e+000, 0.,
          2.42100935e-002, 7.95158005e+000, 1.02421010e+000, 1.,
          1.15487223e+001, 0., 5.59413671e+000, 0., 4.13696194e+000,
          3.85325813e+001, 2.33045745e+000, 2., 2.19392014e+001, 0.,
          9.94697571e+000, 1.19227085e+001, 1.25642338e+001,
          2.07666969e+001, 8.69816601e-001, 2.08963108e+000,
          6.57391310e+000, 0., 1., 4., 1.08098640e+001, 1.41901360e+001,
          0., 0., 0., 0., 5.85786462e-001, 0., 5.34262562e+000,
          3.73870239e+001, 6.27035093e+000, 2., 2.58578634e+000, 0., 0.,
          0., 0., 1., 0., 0., 0., 0., 0., 0., 0., 0., 0., 0., 0.,
          5.11137915e+000, 2.29180584e+001, 4.97056293e+000, 0., 0.,
          1.58597012e+001, 1.91697369e+001, 9.94112587e+000,
          1.20294371e+001, 0., 0., 1.17157292e+000, 8.28427136e-001, 0.,
          0., 0., 0., 0., 0., 0., 2.07425284e+000, 1.22688932e+001,
          3.72792196e+000, 6.25351477e+000, 6.75417423e-001,
          5.22407770e-001, 2.09506798e+001, 1.49116879e+001,
          1.91113796e+001, 2.50384450e+000, 1.76823342e+000,
          4.16069889e+000, 1.61543293e+001, 5.10739326e+001,
          1.98428059e+001, 1.17172165e+001, 6.28278399e+000,
          1.49116879e+001, 6.56832809e+001, 1.54050293e+001, 0.,
          5.34314585e+000, 6.21320343e+000, 1.79212437e+001,
          5.22407770e-001, 0., 1.17157292e+000, 1.49116879e+001,
          5.53046989e+001, 2.61203885e+000, 0., 8.02943707e+000,
          1.73969688e+001, 4.65807648e+001, 2.29928284e+001, 0., 0.,
          9.94112587e+000, 4.59526787e+001, 4.41061935e+001,
          9.73423660e-001, 8.95550823e+000, 3.31370854e+000,
          1.75735927e+000, 0., 2.92453461e+001, 1.32693720e+001,
          8.69848442e+000, 8.78679657e+000, 0., 5.24470806e+000,
          6.09843779e+000, 2.07106781e+000, 1.07418013e+001,
          1.58439856e+001, 0., 0., 0., 0., 0., 1.47623806e+001,
          5.58076477e+000, 3.31370854e+000, 5.34314585e+000, 0.,
          1.12461338e+001, 3.75386596e+000, 0., 0., 0., 0., 0., 0., 0.,
          0., 0., 0., 0., 0., 0., 1.81895962e+001, 3.39619040e+000,
          1.24264073e+000, 1.91036904e+000, 2.61203885e-001, 0., 0., 0.,
          0., 0., 0., 0., 0., 0., 0., 0., 0., 0., 0., 0.,
          1.22780151e+001, 1.20651302e+001, 1.65685427e+000, 0., 0.,
          1.03524055e+001, 8.57652664e+000, 8.69848442e+000,
          1.18924389e+001, 4.48014402e+000, 1.75323849e+001,
          7.63918734e+000, 1.82253971e+001, 3.56358833e+001,
          6.96714687e+000, 4.03781853e+001, 9.62181473e+000,
          3.31370854e+000, 1.46491652e+001, 3.03712630e+000, 0.,
          1.16152239e+001, 5.38477612e+000, 0., 0., 1.02673016e+001,
          5.31848478e+000, 4.97056293e+000, 9.21859550e+000,
          8.22505474e+000, 0., 0., 0., 0., 0., 0., 0., 0., 0., 0., 0.,
          0., 3.31370854e+000, 2.12503300e+001, 6.43596172e+000, 0.,
          5.51471853e+000, 3.72792196e+000, 1.74882050e+001,
          4.82691536e+001, 0., 0., 0., 7.73383975e-001, 6.22661591e+000,
          0., 0., 0., 0., 0., 0., 1.75735927e+000, 4.14213562e+000,
          1.33879614e+001, 1.71254385e+000, 0., 2.07157288e+001,
          1.28406200e+001, 3.07300339e+001, 7.71361685e+000, 0.,
          1.42010098e+001, 1.28406200e+001, 4.36421356e+001,
          5.03162346e+001, 0., 3.51471853e+000, 7.45584393e+000,
          5.38842087e+001, 5.51452293e+001, 0., 8.02943707e+000,
          6.62741709e+000, 7.34314585e+000, 0., 0., 1.11005049e+001,
          1.98822517e+001, 3.00172443e+001, 0., 3.27467575e+001,
          3.78268356e+001, 2.31959591e+001, 1.52304478e+001, 0.,
          5.07877197e+001, 2.34843578e+001, 8.69848442e+000,
          1.00294371e+001, 0., 7.83611596e-001, 9.14532089e+000,
          3.72792196e+000, 5.34314585e+000, 0., 2.98445339e+001,
          1.64275436e+001, 7.45584393e+000, 5.27207804e+000, 0.,
          3.84975471e+001, 1.06740265e+001, 8.28427136e-001, 0., 0., 0.,
          0., 0., 0., 0., 1.60635395e+001, 8.27960587e+000,
          2.48528147e+000, 5.17157269e+000, 0., 1.04870796e+001,
          3.51292014e+000, 0., 0., 0., 0., 0., 0., 0., 0., 0., 0., 0.,
          0., 0., 5.97102022e+000, 2.61476636e+000, 4.14213568e-001,
          6.67320442e+000, 5.32679558e+000, 0., 0., 0., 0., 0., 0., 0.,
          0., 0., 0., 0., 0., 0., 0., 0., 1.45267925e+001,
          7.64478064e+000, 8.28427136e-001, 5.27237701e+000,
          3.72762322e+000, 3.87355194e+001, 2.96370640e+001,
          6.62741709e+000, 1.86347282e+000, 7.13652706e+000,
          3.99392624e+001, 3.12617474e+001, 6.21320343e+000,
          4.84821844e+000, 3.97375679e+001, 2.79613914e+001,
          1.16243954e+001, 4.14213568e-001, 5.87102222e+000,
          3.21289787e+001, 0., 5.85786462e-001, 8.69848442e+000,
          1.59398060e+001, 7.75922477e-001, 0., 5.75735950e+000,
          1.65685427e+000, 6.61702490e+000, 4.19687614e+001, 0., 0., 0.,
          1.29575402e-001, 8.70424628e-001, 0., 0., 0., 0., 0. ]
      - [ 0., 0., 1.75735927e+000, 1.57934570e+001, 1.51288061e+001,
          3.20377231e-001, 0., 0., 0., 1., 3., 8.50519943e+000,
          4.78670425e+001, 1.62775898e+000, 2., 3.58578634e+000, 0., 0.,
          0., 0., 2., 0., 0., 0., 0., 0., 0., 0., 0., 0., 0., 0., 0., 0.,
          2.82842708e+000, 3.34314585e+000, 4.74648523e+000,
          6.66772842e+000, 7.82842731e+000, 4.58578634e+000, 0., 4., 1.,
          7.45020247e+000, 3.44628067e+001, 1.12585630e+001,
          6.24264050e+000, 3.17157292e+000, 0., 0., 0., 1.74602404e-001,
          5.21472778e+001, 4.81901436e+001, 2.84879780e+001, 4., 0., 0.,
          0., 4.07793140e+000, 7.70275192e+001, 4.10661201e+001,
          5.82842731e+000, 0., 0., 0., 2., 1., 0., 5.58578634e+000,
          1.46568546e+001, 3.75735927e+000, 0., 2.58578634e+000, 2., 4.,
          5., 2.24775925e+001, 2.65224075e+001, 6., 0., 0., 2., 0., 7.,
          1.21715727e+001, 3.36341171e+001, 5.20667763e+001, 0., 0., 1.,
          0., 0., 7.34590828e-001, 1.88775120e+001, 3.06572533e+001, 0.,
          0., 0., 0., 1., 1., 14., 4., 0., 1.92556934e+001,
          2.78025389e+000, 0., 6., 1.35857868e+001, 1.58284273e+001,
          4.64888096e+000, 0., 2.42242241e+000, 0., 0., 0., 0.,
          4.14213568e-001, 1.34805622e+001, 0., 0., 0., 0., 0., 0., 0.,
          0., 0., 4.63899708e+000, 2.80925632e+000, 6.58578634e+000,
          2.41421366e+000, 1., 1., 2.58578634e+000, 0., 2.38770237e+001,
          6.44471455e+000, 0., 1., 0., 0., 0., 0., 0., 0., 0., 0., 0.,
          0., 0., 0., 0., 0., 0., 0., 0., 0., 0., 1.17062129e-001,
          1.65874362e+000, 8.27548790e+000, 1.00783396e+001,
          8.87036610e+000, 1., 0., 0., 0., 7.09552240e+000,
          1.28331594e+001, 4.53286730e-002, 0., 0., 0., 0., 0., 0., 0.,
          0., 0., 0., 0., 0., 0., 0., 0., 0., 0., 0., 0., 0.,
          2.61203885e-001, 3.22697568e+000, 5.80734396e+000,
          1.40290594e+001, 7.67541742e+000, 0., 0., 0., 0.,
          8.02029896e+000, 1.32613018e-001, 1.38258666e-001,
          1.35062647e+001, 3.35547662e+000, 8.41421318e+000,
          7.32457209e+000, 0., 4.82641554e+000, 0., 5.51368475e-001,
          4.02995682e+001, 1.14906359e+000, 5., 1.58252020e+001, 0.,
          9.53571033e+000, 3.37671065e+000, 1.35974703e+001,
          2.90688858e+001, 1.35792744e+000, 1.45194745e+000,
          1.83571491e+001, 0., 1.58578646e+000, 5.45963669e+000,
          1.45211926e+001, 5.01917076e+000, 0., 1., 0., 0., 0., 0.,
          7.98428488e+000, 3.57261429e+001, 1.28957307e+000, 1., 2., 0.,
          0., 0., 0., 0., 0., 0., 0., 0., 0., 0., 0., 0., 0., 0., 0.,
          2.50384450e+000, 1.80108738e+001, 2.89949489e+000,
          5.85786462e-001, 0., 4.21613836e+000, 1.68843670e+001,
          9.11269855e+000, 1.52643890e+001, 5.22407770e-001, 0., 0., 0.,
          0., 0., 0., 0., 0., 0., 0., 0., 5.34314585e+000,
          4.97056293e+000, 1.63802719e+001, 1.30601943e+000, 0.,
          1.42010098e+001, 1.53259020e+001, 1.84730873e+001, 0.,
          5.14718652e-001, 1.07106781e+000, 1.20121937e+001,
          8.01140900e+001, 2.62879295e+001, 6.38624620e+000,
          5.95689964e+000, 2.31959591e+001, 6.26841583e+001,
          6.77673626e+000, 0., 1.75735927e+000, 4.55634928e+000,
          1.96414757e+001, 1.04481554e+000, 0., 5.27207804e+000,
          1.20121937e+001, 4.23834572e+001, 4.33227158e+000, 0.,
          1.17157292e+000, 1.53259020e+001, 6.21103630e+001,
          3.83921623e+001, 0., 5.85786462e-001, 9.94112587e+000,
          3.05810642e+001, 2.98920250e+001, 0., 0., 7.04163074e+000,
          1.19583693e+001, 0., 1.94495716e+001, 5.72200060e+000,
          1.28406200e+001, 2.24653988e+001, 5.22407770e-001,
          3.50399828e+000, 2.66757464e+000, 1.24264073e+000,
          8.28386402e+000, 1.93019218e+001, 0., 0., 0., 0., 0.,
          3.71718693e+000, 7.72646379e+000, 6.62741709e+000,
          2.92893219e+000, 0., 2.83073845e+001, 7.27840233e+000,
          4.14213568e-001, 0., 0., 0., 0., 0., 0., 0., 0., 0., 0., 0.,
          0., 1.00802116e+001, 1.38487206e+001, 2.48528147e+000,
          5.85786462e-001, 0., 1.74299793e+001, 2.57001996e+000, 0., 0.,
          0., 0., 0., 0., 0., 0., 0., 0., 0., 0., 0., 6.00127935e+000,
          1.50992260e+001, 2.89949489e+000, 0., 0., 1.10352840e+001,
          1.44083672e+001, 1.65685425e+001, 1.79878063e+001, 0.,
          8.30604172e+000, 1.53802500e+001, 1.94680367e+001,
          3.48719215e+001, 1.97374773e+000, 3.50534630e+001,
          1.37038956e+001, 8.28427124e+000, 2.31797829e+001,
          8.77858543e+000, 3.63829112e+000, 1.56337872e+001,
          4.14213562e+000, 5.85786462e-001, 0., 1.26991787e+001,
          6.47239399e+000, 4.97056293e+000, 1.33354568e+001,
          5.22407770e-001, 0., 0., 0., 0., 0., 0., 0., 0., 0., 0., 0.,
          0., 1.65685427e+000, 2.17804260e+001, 9.56271935e+000,
          7.75922477e-001, 5.56722307e+000, 1.65685427e+000,
          1.21499596e+001, 4.58500404e+001, 0., 0., 0., 2.85290122e-001,
          1.71470988e+000, 0., 0., 0., 0., 0., 0., 4.51471853e+000,
          4.97056293e+000, 1.29923105e+001, 5.22407770e-001, 0.,
          1.31299419e+001, 1.53259020e+001, 3.64959717e+001,
          1.00481834e+001, 0., 2.34314585e+000, 6.21320343e+000,
          4.81036415e+001, 5.73400116e+001, 0., 0., 4.55634928e+000,
          5.89329643e+001, 5.95106850e+001, 0., 4.10050488e+000,
          5.79898977e+000, 5.10050488e+000, 0., 0., 2.37867966e+001,
          2.23675327e+001, 2.78456707e+001, 0., 4.45858078e+001,
          3.29877853e+001, 2.23675327e+001, 1.40588741e+001, 0.,
          4.33315315e+001, 1.59405479e+001, 4.55634928e+000,
          1.17157292e+000, 0., 0., 4.51471853e+000, 3.31370854e+000,
          1.17157292e+000, 0., 2.24781895e+001, 9.62231541e+000,
          1.11837664e+001, 1.17157288e+001, 0., 4.01914902e+001,
          7.39429808e+000, 4.14213568e-001, 0., 0., 0., 0., 0., 0., 0.,
          4.88748074e+000, 8.97038364e+000, 7.87005758e+000,
          6.27207804e+000, 0., 3.00055752e+001, 5.99442577e+000,
          4.14213568e-001, 5.85786462e-001, 0., 0., 0., 0., 0., 0., 0.,
          0., 0., 0., 0., 2.39088178e+000, 1.19490457e+000,
          1.65685427e+000, 1.61792622e+001, 7.57809734e+000,
          1.09192381e+001, 3.08076239e+000, 8.28427136e-001,
          1.17157292e+000, 0., 0., 0., 0., 0., 0., 0., 0., 0., 0., 0.,
          2.12004542e+000, 2.05152750e+000, 4.97056293e+000,
          1.83988361e+001, 1.45902908e+000, 3.58209496e+001,
          2.00369167e+001, 5.38477612e+000, 3.38030601e+000,
          1.23770533e+001, 3.95440941e+001, 2.78284912e+001,
          6.62741709e+000, 3.95352721e+000, 3.80464745e+001,
          4.14289322e+001, 2.30857849e+001, 2.48528147e+000,
          6.92720318e+000, 3.90727959e+001, 2.61203885e-001,
          2.32458258e+000, 3.31370854e+000, 1.89026794e+001,
          1.19782519e+000, 1.03712642e+000, 5.54866028e+000,
          8.28427136e-001, 5.74022627e+000, 3.88455620e+001, 0., 0., 0.,
          0., 0., 0., 0., 0., 0., 0. ]
      - [ 0., 0., 3.79291201e+000, 2.08301010e+001, 8.11578274e+000,
          2.61203885e-001, 0., 0., 0., 1.32037723e+000, 2.94082665e+000,
          1.36839027e+001, 5.17643967e+001, 3.46206903e+000,
          8.28427136e-001, 2., 0., 0., 0., 4.97001596e-002,
          6.95029974e+000, 0., 0., 0., 0., 0., 0., 0., 0., 0., 0., 0.,
          0., 0., 3., 4., 3.08963108e+000, 5.08194208e+000,
          1.04142132e+001, 2.41421366e+000, 0., 6.17157269e+000, 10.,
          6.29678726e+000, 2.69644165e+001, 1.16491652e+001,
          5.08963108e+000, 3.58578634e+000, 0., 1., 0., 1.92375600e+000,
          5.04331932e+001, 5.31177788e+001, 2.53536987e+001,
          5.34314585e+000, 0., 0., 0., 6.86953211e+000, 7.93895798e+001,
          3.56698227e+001, 7.48528147e+000, 1.58578646e+000, 0., 0., 1.,
          3., 0., 5.41421366e+000, 1.78284264e+001, 1.75735927e+000, 0.,
          3.92893219e+000, 0., 0., 8.24264050e+000, 2.71106567e+001,
          2.54751282e+001, 4.75735950e+000, 0., 0., 1., 0., 7.,
          1.14142132e+001, 3.45333099e+001, 4.49626160e+001, 0.,
          1.86613834e+000, 0., 0., 2., 1., 1.39022827e+001,
          3.18988514e+001, 0., 2., 2., 1., 2., 0., 5.41421366e+000,
          2.58578634e+000, 0., 3.72858696e+001, 9.07923281e-001, 0., 6.,
          6., 7.41421366e+000, 4.81528521e+000, 0., 5.22715807e-001, 0.,
          0., 0., 0., 0., 1.21752014e+001, 0., 0., 0., 0., 0., 0., 0.,
          0., 0., 9.68705368e+000, 2.60850477e+000, 4.75735950e+000,
          1.65685427e+000, 5.85786462e-001, 0., 0., 0., 1.86849384e+001,
          1.30450654e+000, 0., 0., 0., 0., 0., 0., 0., 0., 0., 0., 0.,
          0., 0., 0., 0., 0., 0., 0., 0., 0., 0., 0., 5.38375092e+000,
          1.10749502e+001, 5.27588987e+000, 7.03886843e+000,
          1.22654092e+000, 0., 0., 0., 4.42578363e+000, 6.57421637e+000,
          0., 0., 0., 0., 0., 0., 0., 0., 0., 0., 0., 0., 0., 0., 0., 0.,
          0., 0., 0., 0., 0., 0., 5.26711845e+000, 5.79658508e+000,
          9.26161098e+000, 4.76504850e+000, 1., 1., 0., 0.,
          5.90132761e+000, 3.25748958e-002, 1.87168062e-001,
          1.46158848e+001, 2.19694757e+000, 8., 6.33602190e+000, 0.,
          1.39550674e+000, 0., 4.43058968e+000, 3.93526535e+001,
          1.21675777e+000, 5., 2.00841522e+001, 0., 8.86825657e+000,
          7.99204969e+000, 1.29035006e+001, 2.62275085e+001,
          2.55210304e+000, 5.81581116e-001, 1.20760555e+001, 0., 0.,
          2.12736487e+000, 1.44584217e+001, 3.41421366e+000, 0., 1., 0.,
          0., 0., 0., 6.87028313e+000, 3.72426071e+001, 8.87109637e-001,
          2., 2.75735927e+000, 0., 0., 0., 0., 0., 0., 0., 0., 0., 0.,
          0., 0., 0., 0., 0., 0., 5.08963108e+000, 2.25966606e+001,
          3.72792196e+000, 5.85786462e-001, 0., 1.27998648e+001,
          2.21290665e+001, 5.79898977e+000, 1.25966606e+001,
          6.75417423e-001, 0., 1.17157292e+000, 8.28427136e-001, 0., 0.,
          0., 0., 0., 0., 0., 2.61203885e-001, 5.49615526e+000,
          2.48528147e+000, 1.46939802e+001, 3.06337857e+000, 0.,
          1.74020195e+001, 1.98822517e+001, 1.64545250e+001,
          2.61203885e-001, 1.61489677e+000, 2.55667615e+000,
          6.62741709e+000, 7.52348557e+001, 3.49661522e+001,
          9.60624123e+000, 9.15111828e+000, 2.36101723e+001,
          5.98488579e+001, 7.83611596e-001, 0., 2.34314585e+000,
          6.21320343e+000, 1.93988361e+001, 1.04481554e+000, 0.,
          3.51471853e+000, 1.20121937e+001, 4.45921555e+001,
          5.88093185e+000, 0., 5.85786462e-001, 1.65685425e+001,
          6.18176193e+001, 3.60280533e+001, 4.10840654e+000,
          1.89159358e+000, 3.31370854e+000, 2.70844479e+001,
          3.06018429e+001, 0., 2.92893219e+000, 4.97056293e+000,
          5.10050488e+000, 0., 2.59578762e+001, 1.83142014e+001,
          1.07695522e+001, 1.29583693e+001, 0., 1.39504290e+000,
          1.19074357e+000, 1.24264073e+000, 9.24441624e+000,
          1.29271564e+001, 0., 0., 0., 0., 0., 7.74373627e+000,
          1.09425554e+001, 3.72792196e+000, 5.85786462e-001, 0.,
          1.93048820e+001, 4.69511747e+000, 0., 0., 0., 0., 0., 0., 0.,
          0., 0., 0., 0., 0., 0., 1.60763950e+001, 6.26675034e+000,
          2.89949489e+000, 1.75735927e+000, 0., 8.58841419e+000,
          2.41158605e+000, 0., 0., 0., 0., 0., 0., 0., 0., 0., 0., 0.,
          0., 0., 7.16370773e+000, 1.50078650e+001, 1.65685427e+000,
          1.17157292e+000, 0., 6.91494656e+000, 9.52870464e+000,
          1.49116879e+001, 1.46446609e+001, 0., 1.01329088e+001,
          1.15533829e+001, 1.86396103e+001, 3.44762726e+001,
          1.19782519e+000, 3.52745171e+001, 1.03112698e+001,
          5.79898977e+000, 2.29040298e+001, 6.71119452e+000,
          2.65685415e+000, 1.14436512e+001, 3.31370854e+000,
          5.85786462e-001, 0., 1.23520908e+001, 7.40526867e+000,
          5.79898977e+000, 1.04436512e+001, 0., 0., 0., 0., 0., 0., 0.,
          0., 0., 0., 0., 0., 0., 2.07106781e+000, 2.26876106e+001,
          8.24132156e+000, 2.61203885e-001, 5.08194208e+000,
          3.72792196e+000, 1.97061710e+001, 4.82227631e+001, 0., 0., 0.,
          8.20210814e-001, 6.17978907e+000, 0., 0., 0., 0., 0., 0.,
          2.75735927e+000, 4.55634928e+000, 1.00108738e+001,
          6.75417423e-001, 0., 1.49583693e+001, 1.15979795e+001,
          3.57461510e+001, 5.69750166e+000, 0., 7.68629169e+000,
          1.03553391e+001, 5.17179947e+001, 5.72403755e+001, 0.,
          1.17157292e+000, 7.45584393e+000, 6.29415398e+001,
          5.44310417e+001, 0., 1.75735927e+000, 5.79898977e+000,
          6.44365072e+000, 0., 7.83611596e-001, 1.54884663e+001,
          1.69827557e+001, 3.27451668e+001, 0., 4.29533386e+001,
          2.91471653e+001, 1.11837664e+001, 1.27157288e+001, 0.,
          4.40566826e+001, 2.65585423e+001, 6.62741709e+000,
          1.75735927e+000, 0., 0., 8.20100975e+000, 6.62741709e+000,
          2.17157292e+000, 0., 3.14310989e+001, 2.34267654e+001,
          9.11269855e+000, 7.02943707e+000, 0., 3.20051994e+001,
          5.99480152e+000, 0., 0., 0., 0., 0., 0., 0., 0.,
          9.20925522e+000, 9.30546379e+000, 4.14213562e+000,
          6.34314585e+000, 0., 2.12543011e+001, 4.74569798e+000, 0., 0.,
          0., 0., 0., 0., 0., 0., 0., 0., 0., 0., 0., 9.05316734e+000,
          3.94683290e+000, 0., 1.31978254e+001, 3.80217481e+000,
          4.84918594e+000, 2.15081429e+000, 0., 0., 0., 0., 0., 0., 0.,
          0., 0., 0., 0., 0., 0., 4.05939722e+000, 4.52638960e+000,
          2.07106781e+000, 1.28021746e+001, 2.54097104e+000,
          3.62032242e+001, 2.10688553e+001, 4.97056293e+000,
          3.22784233e+000, 1.25295172e+001, 3.86609421e+001,
          2.44689999e+001, 7.87005758e+000, 5.09312820e+000,
          3.99068718e+001, 3.82330742e+001, 2.05242863e+001,
          1.24264073e+000, 6.75969362e+000, 3.72403069e+001, 0.,
          1.75735927e+000, 4.55634928e+000, 1.41190681e+001,
          1.56722319e+000, 2.61203885e-001, 5.91036892e+000,
          8.28427136e-001, 6.17036581e+000, 3.88296356e+001, 0., 0., 0.,
          0., 0., 0., 0., 0., 0., 0. ]
      - [ 4.14213568e-001, 2.11360502e+000, 1.16275005e+001,
          8.99343967e+000, 6.70102024e+000, 1.15022111e+000, 0., 1., 0.,
          0., 4.14213568e-001, 1.36293182e+001, 3.79564667e+001, 0., 0.,
          0., 0., 0., 0., 0., 2., 0., 0., 0., 0., 0., 0., 0., 0., 0., 0.,
          0., 0., 1., 6.54097080e+000, 1.68204117e+001, 2.63861799e+000,
          0., 1., 0., 0., 0., 1.34096467e+000, 1.51968174e+001,
          1.98890572e+001, 7.89353752e+000, 1.43364773e+001,
          1.85147190e+001, 0., 1., 2., 3.29323387e+000, 4.52278938e+001,
          2.33892403e+001, 3.64033394e+001, 1.26862917e+001, 0., 0., 1.,
          7.03561211e+000, 3.73356171e+001, 3.59661026e+001,
          2.59280796e+001, 7.34590828e-001, 0., 1.17157292e+000,
          4.29760885e+000, 2.94503188e+000, 7., 2.32458258e+000,
          5.94082642e+000, 6.12963390e+000, 0., 6.91036892e+000,
          1.70896301e+001, 4.58578634e+000, 10., 11., 1.46568546e+001,
          1.35147190e+001, 0., 1.58578646e+000, 3.41421366e+000,
          1.17157292e+000, 7.24264050e+000, 2.45147190e+001,
          4.47002296e+001, 5.18344536e+001, 0., 1.26120389e+000, 0., 1.,
          1.41421354e+000, 6., 2.86204052e+001, 7.09063797e+001, 0.,
          1.30642643e+001, 5.05726194e+000, 8.99563968e-001,
          8.28427136e-001, 2., 1., 2.58578634e+000, 0., 2.90108204e+001,
          8.36138248e+000, 1.39205408e+000, 0., 0., 1.26120389e+000,
          2.97803640e+000, 0., 1.49490891e+001, 3.20530987e+000,
          5.85786462e-001, 1., 0., 0., 3.28668499e+000, 0., 0., 0., 0.,
          0., 0., 0., 0., 1.49420112e-001, 6.24606514e+000,
          1.14676256e+001, 1.36889368e-001, 0., 0., 0., 0., 0., 0., 0.,
          0., 0., 0., 0., 0., 0., 0., 0., 0., 0., 0., 0., 0., 0., 0., 0.,
          0., 0., 0., 0., 0., 0., 2.06985974e+000, 1.37708020e+000, 0.,
          0., 0., 0., 0., 0., 0., 0., 0., 0., 0., 0., 0., 0., 0., 0., 0.,
          0., 0., 0., 0., 0., 0., 0., 0., 0., 0., 0., 0., 0.,
          7.37254143e+000, 2.37780988e-001, 0., 0., 0., 0.,
          2.15946341e+000, 0., 7.48036671e+000, 1.67541742e+000,
          5.90429902e-001, 1.91195335e+001, 1.29003739e+000,
          4.28457975e+000, 1.29675493e+001, 0., 1.40230503e+001,
          1.85042477e+000, 9.10679245e+000, 3.41327782e+001,
          1.99963570e+000, 5.85119581e+000, 7.24510098e+000,
          2.08146930e-001, 6.05765629e+000, 1.10574112e+001,
          4.94641829e+000, 3.73036718e+000, 0., 0., 0., 0.,
          5.80844975e+000, 1.15688705e+000, 0., 3.82704234e+000,
          2.17295766e+000, 1., 7.04513979e+000, 0., 0., 1.,
          1.03959128e-001, 3.32047882e+001, 6.91251397e-001, 1., 0., 0.,
          0., 0., 0., 0., 0., 0., 0., 0., 0., 0., 0., 0., 0., 0., 0.,
          6.56280661e+000, 1.73661251e+001, 3.31370854e+000,
          1.75735927e+000, 0., 2.11506710e+001, 1.81924744e+001,
          1.65685427e+000, 0., 0., 0., 0., 0., 0., 0., 0., 0., 0., 0.,
          0., 3.43277669e+000, 2.09103699e+001, 2.07106781e+000,
          5.85786462e-001, 0., 7.39640522e+000, 1.65325260e+001,
          1.32548342e+001, 3.14653988e+001, 1.35083485e+000,
          2.48467398e+000, 1.15447636e+001, 2.56812401e+001,
          5.66835175e+001, 6.60580587e+000, 1.02546740e+001,
          4.91689920e+000, 9.94112587e+000, 5.37697449e+001,
          1.91175575e+001, 7.12219775e-001, 6.21671247e+000,
          4.97056293e+000, 1.00742531e+001, 2.02625227e+000,
          1.04481554e+000, 2.04993401e+001, 2.11248913e+001,
          2.63309517e+001, 0., 0., 5.34314585e+000, 2.07106781e+001,
          9.26653976e+001, 2.62807808e+001, 0., 1.75735927e+000,
          6.21320343e+000, 6.53592224e+001, 5.56702156e+001,
          1.28119564e+001, 8.35961723e+000, 1.65685427e+000,
          5.91036892e+000, 2.61203885e-001, 3.23698997e+001,
          1.38016729e+001, 1.24264073e+000, 3.91036892e+000,
          6.75417423e-001, 1.56745081e+001, 7.08285093e+000,
          1.24264073e+000, 2.77256131e+000, 5.22743845e+000, 0., 0., 0.,
          0., 0., 1.56162758e+001, 2.38372445e+000, 0., 0., 0., 0., 0.,
          0., 0., 0., 0., 0., 0., 0., 0., 0., 0., 0., 0., 0.,
          3.14406848e+000, 8.55931401e-001, 0., 0., 0., 0., 0., 0., 0.,
          0., 0., 0., 0., 0., 0., 0., 0., 0., 0., 0., 9.90732193e+000,
          6.67846489e+000, 8.28427136e-001, 7.38796139e+000,
          1.19782519e+000, 1.19966898e+001, 1.45180292e+001,
          7.45584393e+000, 2.35217228e+001, 1.05077143e+001,
          2.83338661e+001, 1.95950661e+001, 4.97056293e+000,
          2.28779488e+001, 1.22225561e+001, 1.98652439e+001,
          4.13475609e+000, 0., 0., 0., 2.05765390e+000, 5.87127829e+000,
          7.45584393e+000, 8.61522388e+000, 0., 0., 2.92893219e+000,
          3.72792196e+000, 8.82073784e+000, 5.22407770e-001, 0., 0., 0.,
          0., 0., 0., 0., 0., 0., 0., 7.12219775e-001, 3.04513955e+000,
          4.14213562e+000, 1.46960154e+001, 5.40448952e+000, 0., 0., 0.,
          9.92118931e+000, 4.20788116e+001, 0., 0., 0., 6.63974226e-001,
          1.33602571e+000, 0., 0., 0., 0., 0., 0., 5.85786462e-001,
          3.31370854e+000, 1.76491642e+001, 2.45133996e+000, 0.,
          1.90588741e+001, 1.32548342e+001, 2.42179928e+001,
          1.74682980e+001, 0., 1.27157288e+001, 1.65685425e+001,
          2.44514256e+001, 4.02643013e+001, 0., 3.51471853e+000,
          1.03553391e+001, 3.96645927e+001, 4.14653511e+001,
          4.14213568e-001, 8.27207756e+000, 4.55634928e+000,
          1.08207378e+001, 9.36621308e-001, 0., 2.06446609e+001,
          2.07106781e+001, 1.66446609e+001, 0., 2.48788376e+001,
          5.01800385e+001, 2.19533195e+001, 2.39878063e+001, 0.,
          5.85774269e+001, 5.12093697e+001, 8.69848442e+000,
          6.51471853e+000, 0., 1.17445459e+001, 8.18438625e+000,
          3.31370854e+000, 4.08194208e+000, 6.75417423e-001,
          3.50376091e+001, 1.15481777e+001, 1.24264073e+000,
          1.91036904e+000, 2.61203885e-001, 2.88418140e+001,
          7.32975960e+000, 1.65685427e+000, 1.17157292e+000, 0., 0., 0.,
          0., 0., 0., 8.19951057e+000, 3.38627553e+000, 4.14213568e-001,
          1.58578646e+000, 4.14213568e-001, 0., 0., 0., 0., 0., 0., 0.,
          0., 0., 0., 0., 0., 0., 0., 0., 3.36896825e+000,
          1.63103175e+000, 0., 0., 0., 0., 0., 0., 0., 0., 0., 0., 0.,
          0., 0., 0., 0., 0., 0., 0., 2.46527786e+001, 6.93300724e+000,
          4.14213568e-001, 0., 0., 4.02433624e+001, 2.66855698e+001,
          2.07106781e+000, 2.16783500e+000, 1.88321648e+001,
          4.04736595e+001, 1.92836990e+001, 1.65685427e+000,
          5.56075621e+000, 4.00250320e+001, 6.94822264e+000,
          2.05177760e+000, 0., 2.51243615e+000, 8.48756409e+000,
          5.02370310e+000, 1.34910154e+001, 3.31370854e+000,
          1.84625268e+000, 3.32532024e+000, 0., 0., 0., 3.11668015e+000,
          3.08833199e+001, 0., 0., 0., 0., 0., 0., 0., 0., 0., 0. ]
      - [ 0., 0., 1.02075653e+001, 2.14934978e+001, 1.29893780e+000, 0.,
          0., 0., 0., 0., 6.08194208e+000, 1.57419052e+001,
          4.64550476e+001, 4.53036118e+000, 1.90743566e-001, 0., 0., 0.,
          0., 2.30274629e-002, 6.97697258e+000, 0., 0., 0., 0., 0., 0.,
          0., 0., 0., 0., 0., 4.14213568e-001, 0., 4.09383631e+000,
          2.49195004e+000, 2.67541742e+000, 7.98810577e+000,
          9.57911777e+000, 1.75735927e+000, 0., 4.73879623e+000,
          5.52240753e+000, 3.80217481e+000, 1.85928688e+001,
          2.50400028e+001, 1.83079567e+001, 3.49195004e+000, 0.,
          3.41421366e+000, 2.58578634e+000, 9.74125743e-001,
          4.79702415e+001, 4.25002098e+001, 2.90485859e+001,
          7.92104912e+000, 0., 1., 0., 7.40245247e+000, 5.89423294e+001,
          4.13664169e+001, 1.57030172e+001, 4.75735950e+000, 0., 0.,
          2.24264073e+000, 2.34314585e+000, 6.65685415e+000,
          8.92893219e+000, 8.82842731e+000, 1., 0., 0., 1., 1.,
          4.41421366e+000, 3.45147171e+001, 2.90710678e+001, 6., 0.,
          6.23912239e+000, 1., 0., 3.50384450e+000, 3.52882500e+001,
          4.09776039e+001, 3.82728653e+001, 0., 1.67120719e+000, 0., 0.,
          8.24264050e+000, 2.35111217e+001, 2.47227459e+001,
          3.53367271e+001, 0., 0., 6.76925373e+000, 6.23074627e+000, 2.,
          5.17157269e+000, 1.82842708e+000, 0., 0., 2.83992519e+001,
          4.03868246e+000, 1., 4., 8.58578682e+000, 9.82842731e+000,
          8.92543411e+000, 0., 9.83643150e+000, 2.91021419e+000, 0., 0.,
          1., 3.95702815e+000, 1.44980907e+001, 0., 0., 0., 0., 0., 0.,
          0., 0., 3.92338157e+000, 1.14190226e+001, 5.59842253e+000,
          7.05917358e+000, 3., 1., 0., 0., 0., 1.05948830e+001,
          3.70288825e+000, 0., 0., 0., 0., 0., 0., 0., 0., 0., 0., 0.,
          0., 0., 0., 0., 0., 0., 0., 0., 0., 0., 1.33551085e+000,
          4.62516069e+000, 1.35289822e+001, 4.83072329e+000,
          4.67962265e+000, 0., 0., 1., 0., 2.54489756e+000,
          2.03993344e+000, 0., 0., 0., 0., 1.78593862e+000, 0.,
          1.36130214e+000, 1., 0., 0., 0., 0., 1.32081762e-001, 0., 0.,
          0., 0., 0., 0., 0., 0., 0., 4.94426298e+000, 3.45150113e+000,
          4.88971663e+000, 3.35083485e+000, 4.91036892e+000, 2.,
          4.89190757e-001, 0., 1.31002483e+001, 7.43245888e+000,
          1.13943040e+000, 1.99955368e+001, 3.18961501e+000,
          1.23832750e+001, 1.02336922e+001, 0., 6.41174555e+000, 2.,
          3.31524324e+000, 4.96988487e+001, 9.72470474e+000,
          2.67541742e+000, 5.53481770e+000, 0., 8.95091820e+000,
          1.14146633e+001, 2.06123314e+001, 2.31414299e+001,
          2.34736943e+000, 3.58578634e+000, 1.17157292e+000, 0., 0., 2.,
          8.45421600e+000, 1.11315699e+001, 3., 2.41421366e+000, 1., 0.,
          0., 0., 9.02281857e+000, 3.32849464e+001, 1.69223571e+000, 0.,
          0., 0., 0., 0., 0., 0., 0., 0., 0., 0., 0., 0., 0., 0., 0., 0.,
          0., 7.21638823e+000, 2.49551849e+001, 8.28427136e-001, 0., 0.,
          2.07665138e+001, 2.52629242e+001, 7.87005758e+000,
          6.42508745e+000, 6.75417423e-001, 0., 5.85786462e-001,
          4.14213568e-001, 0., 0., 0., 0., 0., 0., 0., 1.08963096e+000,
          5.08194208e+000, 4.14213562e+000, 1.60108738e+001,
          6.75417423e-001, 1.45902908e+000, 1.20556898e+001,
          1.24264069e+001, 3.64730873e+001, 4.58578634e+000,
          2.61203885e-001, 7.25351477e+000, 1.24264069e+001,
          6.22718697e+001, 3.37870064e+001, 1.29052811e+001,
          7.85207844e+000, 2.15391045e+001, 6.15277557e+001,
          4.17577839e+000, 0., 4.17157269e+000, 6.21320343e+000,
          1.46152239e+001, 0., 0., 1.17157292e+000, 2.15391045e+001,
          4.90281181e+001, 2.61203885e-001, 5.80916071e+000,
          3.53398514e+000, 2.19533195e+001, 8.07604599e+001,
          2.49430771e+001, 3.27526045e+000, 1.72473943e+000,
          7.04163074e+000, 4.53950577e+001, 4.75633125e+001,
          1.83652306e+000, 1.03350496e+001, 1.65685427e+000,
          6.17157269e+000, 0., 3.11282463e+001, 8.04332733e+000,
          1.03553391e+001, 1.94730873e+001, 0., 1.23589382e+001,
          4.64106178e+000, 1.24264073e+000, 1.05335970e+001,
          1.72237625e+001, 0., 0., 0., 0., 0., 1.40826540e+001,
          1.22604914e+001, 2.07106781e+000, 5.85786462e-001, 0.,
          1.28228073e+001, 3.17719293e+000, 0., 0., 0., 0., 0., 0., 0.,
          0., 0., 0., 0., 0., 0., 1.80260239e+001, 6.90290928e+000,
          2.07106781e+000, 7.38796115e-001, 2.61203885e-001,
          4.31311321e+000, 1.68688691e+000, 0., 1.51954687e+000,
          2.48045325e+000, 1.86138391e+000, 1.13861609e+000,
          8.28427136e-001, 1.17157292e+000, 0., 0., 0., 0., 0., 0.,
          5.47792006e+000, 9.86522579e+000, 4.55634928e+000,
          5.66634417e+000, 1.43416071e+000, 1.14485950e+001,
          2.30955601e+001, 1.20121937e+001, 2.22797031e+001,
          1.11639481e+001, 9.55731869e+000, 1.58152647e+001,
          1.32548342e+001, 3.18160667e+001, 8.55651569e+000,
          4.32810249e+001, 2.09910526e+001, 4.55634928e+000,
          7.38796139e+000, 7.83611596e-001, 1.30601943e+000,
          9.62291241e+000, 3.31370854e+000, 5.08194208e+000,
          6.75417423e-001, 1.49249105e+001, 8.24666214e+000,
          1.24264073e+000, 5.32458258e+000, 2.61203885e-001, 0., 0., 0.,
          0., 0., 0., 0., 0., 0., 0., 0., 0., 5.38477612e+000,
          2.42195740e+001, 2.39565039e+000, 0., 0., 1.65685427e+000,
          1.91151867e+001, 4.82279587e+001, 0., 0., 0., 7.71102667e-001,
          6.22889709e+000, 0., 0., 0., 0., 0., 0., 2.17157292e+000,
          6.21320343e+000, 1.23540201e+001, 2.61203885e-001,
          1.04481554e+000, 1.34699030e+001, 1.61543293e+001,
          3.80753822e+001, 4.25556946e+000, 1.35083485e+000,
          1.38501749e+001, 1.49116879e+001, 4.37781372e+001,
          4.71091652e+001, 0., 5.51471853e+000, 8.28427124e+000,
          6.15582352e+001, 4.36427765e+001, 0., 1.75735927e+000,
          6.62741709e+000, 1.46152239e+001, 0., 0., 8.61522388e+000,
          2.19533195e+001, 2.64314575e+001, 0., 3.07235603e+001,
          3.27495270e+001, 2.48528137e+001, 3.64128952e+001,
          2.61203885e-001, 5.94517517e+001, 1.45482492e+001,
          8.69848442e+000, 2.87791080e+001, 5.22407770e-001, 0.,
          2.34314585e+000, 6.62741709e+000, 1.30294371e+001, 0.,
          3.51261482e+001, 1.69032898e+001, 1.07695522e+001,
          8.20100975e+000, 0., 4.04744606e+001, 9.11132717e+000,
          8.28427136e-001, 5.85786462e-001, 0., 0., 0., 0., 0., 0.,
          1.38421421e+001, 2.15785742e+000, 4.14213562e+000,
          9.59666061e+000, 2.61203885e-001, 1.31497469e+001,
          2.85025287e+000, 0., 0., 0., 0., 0., 0., 0., 0., 0., 0., 0.,
          0., 0., 8.35880280e+000, 3.64119768e+000, 1.24264073e+000,
          1.17464857e+001, 3.01087403e+000, 1.35316849e+001,
          4.46831512e+000, 0., 0., 0., 7.77872849e+000, 2.22127151e+000,
          0., 0., 0., 0., 0., 0., 0., 0., 7.56404972e+000,
          3.02173662e+000, 2.89949489e+000, 1.12086992e+001,
          1.30601943e+000, 3.43260498e+001, 1.74313087e+001,
          2.48528147e+000, 5.76622915e+000, 1.89911308e+001,
          3.53966446e+001, 9.77492809e+000, 2.89949489e+000,
          2.26932964e+001, 3.92356339e+001, 2.99900360e+001,
          6.00996399e+000, 8.28427136e-001, 1.20377693e+001,
          3.61338043e+001, 0., 1.17157292e+000, 5.38477612e+000,
          1.80480003e+001, 2.39565039e+000, 0., 0., 4.14213568e-001,
          6.95239401e+000, 3.66333923e+001, 0., 0., 0., 0., 0., 0., 0.,
          0., 0., 0. ]
      - [ 0., 3.87237382e+000, 6.84916449e+000, 1.21888304e+001,
          6.67541742e+000, 2.41421366e+000, 0., 0., 0., 3.20377231e-001,
          3.13872123e+000, 1.69307289e+001, 3.78044434e+001,
          8.05727541e-001, 0., 0., 0., 0., 0., 8.07775557e-001,
          6.19222450e+000, 0., 0., 0., 0., 0., 0., 0., 0., 0., 0., 0.,
          0., 0., 8.64218330e+000, 1.43524199e+001, 2.00539708e+000, 0.,
          1., 1., 4.14213568e-001, 0., 2.63869786e+000, 3.95656371e+000,
          1.61980476e+001, 2.25498371e+001, 32., 8.24264050e+000, 0., 0.,
          1.82842708e+000, 9.60611248e+000, 4.55709152e+001,
          4.05726433e+001, 2.82503300e+001, 1.17157292e+000,
          4.14213568e-001, 1., 2., 3.31687880e+000, 3.60765343e+001,
          4.21508408e+001, 2.21393700e+001, 5.90216064e+000, 0.,
          6.34314585e+000, 8.90709400e+000, 3.33554673e+000, 2.,
          1.58578646e+000, 2.41421366e+000, 1., 0., 0., 3.41421366e+000,
          2.58578634e+000, 8.24264050e+000, 1.94436512e+001,
          3.35563507e+001, 1.00819416e+001, 0., 2.68451715e+000, 3., 2.,
          1.14142132e+001, 1.87573586e+001, 4.89180565e+001,
          3.21896858e+001, 0., 0., 2., 3., 6.60495710e+000,
          2.54650898e+001, 4.96281395e+001, 3.06023636e+001,
          1.05426498e-001, 1.49704599e+001, 1.43383274e+001,
          5.85786462e-001, 0., 0., 0., 0., 0., 2.55633888e+001,
          1.08150187e+001, 2.17157292e+000, 4.14213568e-001, 0.,
          4.14213568e-001, 5.58228779e+000, 0., 6.80196381e+000, 0., 0.,
          1., 0., 0., 1.76786631e-001, 0., 0., 0., 0., 0., 0., 0., 0.,
          0., 5.08416653e+000, 5.91583347e+000, 0., 0., 0., 0., 0., 0.,
          0., 0., 0., 0., 0., 0., 0., 0., 0., 0., 0., 0., 0., 0., 0., 0.,
          0., 0., 0., 0., 0., 0., 0., 0., 4.72756401e-002,
          2.95272446e+000, 0., 0., 0., 0., 0., 0., 0., 0., 0., 0., 0.,
          0., 0., 0., 0., 0., 0., 0., 0., 0., 0., 0., 0., 0., 0., 0., 0.,
          0., 0., 0., 5.84227991e+000, 1.56713569e+000, 0., 0., 0., 0.,
          4.89832312e-001, 0., 8.02705383e+000, 1., 2.15849578e-001,
          8.61257744e+000, 4.17157269e+000, 6., 3.33462214e+000, 0.,
          1.66536331e+001, 1., 3.83881783e+000, 3.91222038e+001,
          4.03897858e+000, 5.60434961e+000, 7.44697094e+000, 0.,
          3.93779659e+000, 1.20400610e+001, 8.51604176e+000,
          5.50610018e+000, 0., 0., 0., 0., 5.38834333e+000,
          2.36130214e+000, 1.58578646e+000, 3.41421366e+000, 1.,
          5.85786462e-001, 6.05917358e+000, 0., 1.73879611e+000,
          1.26120389e+000, 2.13095236e+000, 3.78111458e+001,
          1.30579014e+001, 3., 0., 0., 0., 0., 2.46317685e-002,
          3.97536826e+000, 0., 0., 0., 0., 0., 0., 0., 0., 0., 0., 0.,
          6.12486362e+000, 1.57330008e+001, 5.38477612e+000,
          1.75735927e+000, 0., 2.29894676e+001, 1.41821060e+001,
          2.07106781e+000, 5.26921701e+000, 1.48814225e+000,
          1.75023937e+000, 1.24976063e+000, 0., 0., 0., 0., 0., 0., 0.,
          0., 7.55141830e+000, 1.47917271e+001, 2.48528147e+000,
          1.17157292e+000, 0., 1.98536325e+000, 5.18620968e+000,
          1.24264069e+001, 5.02413216e+001, 5.16069889e+000,
          8.21683788e+000, 1.05405207e+001, 1.69827557e+001,
          5.55282440e+001, 1.77316418e+001, 2.61203885e-001,
          7.08194208e+000, 5.38477612e+000, 4.09602051e+001,
          4.63118706e+001, 2.44332385e+000, 1.40713949e+001,
          3.72792196e+000, 3.75735927e+000, 0., 0., 4.34314585e+000,
          1.90538235e+001, 4.76030312e+001, 0., 3.52140880e+000,
          5.57909632e+000, 2.40243874e+001, 7.97724762e+001,
          1.11026297e+001, 0., 2.92893219e+000, 1.40832615e+001,
          8.66069717e+001, 3.63808365e+001, 2.15155354e+001,
          8.07025242e+000, 4.14213568e-001, 0., 0., 3.19453659e+001,
          1.38119926e+001, 2.89949489e+000, 7.34314585e+000, 0.,
          1.16404676e+001, 4.35953283e+000, 8.28427136e-001,
          2.17157292e+000, 0., 0., 0., 0., 0., 0., 8.90836334e+000,
          2.09163666e+000, 0., 0., 0., 0., 0., 0., 0., 0., 0., 0., 0.,
          0., 0., 0., 0., 0., 0., 0., 2.64885354e+000, 3.51146489e-001,
          0., 0., 0., 0., 0., 0., 0., 0., 0., 0., 0., 0., 0., 0., 0., 0.,
          0., 0., 1.10234747e+001, 6.14809847e+000, 8.28427136e-001,
          1.58578646e+000, 4.14213568e-001, 9.68382072e+000,
          1.61029758e+001, 1.32548342e+001, 1.19289322e+001,
          1.02943730e+000, 2.18010960e+001, 1.18851948e+001,
          9.52691174e+000, 2.35204659e+001, 7.26633072e+000,
          2.24157314e+001, 4.58426905e+000, 0., 0., 0., 6.20858860e+000,
          6.13455677e+000, 3.72792196e+000, 7.66772842e+000,
          2.61203885e-001, 2.61203885e-001, 8.18244648e+000,
          6.62741709e+000, 1.54695587e+001, 1.64593735e+001, 0.,
          5.85786462e-001, 4.14213568e-001, 0., 0., 0., 0., 0., 0., 0.,
          1.98434889e+000, 3.18722415e+000, 4.14213562e+000,
          1.77759228e+001, 2.91036892e+000, 0., 5.85786462e-001,
          4.14213568e-001, 9.95156288e+000, 4.70484352e+001, 0., 0., 0.,
          1.53142297e+000, 5.46857691e+000, 0., 0., 0., 0., 0., 0.,
          1.58578646e+000, 3.31370854e+000, 1.51816330e+001,
          3.91887188e+000, 0., 9.27207756e+000, 1.44974747e+001,
          3.19882526e+001, 4.24219513e+000, 0., 1.17157292e+000,
          1.69827557e+001, 4.43218384e+001, 4.15238304e+001,
          4.14213568e-001, 9.10050488e+000, 5.38477612e+000,
          3.69820366e+001, 4.91184692e+001, 0., 9.02943707e+000,
          8.69848442e+000, 7.01087427e+000, 2.61203885e-001,
          2.61203885e-001, 1.32829523e+001, 1.94680367e+001,
          2.19878063e+001, 0., 2.12352982e+001, 3.23677330e+001,
          3.06518040e+001, 2.27451668e+001, 0., 4.59691925e+001,
          2.52318153e+001, 1.90538235e+001, 3.10697479e+001,
          6.75417423e-001, 1.63944798e+001, 6.77709341e+000,
          1.24264073e+000, 5.85786462e-001, 0., 3.33950729e+001,
          1.63622875e+001, 2.48528147e+000, 2.75735927e+000, 0.,
          2.31711617e+001, 3.82883787e+000, 0., 1., 0., 0., 0., 0., 0.,
          0., 6.80648851e+000, 2.19351149e+000, 0., 0., 0., 0., 0., 0.,
          0., 0., 0., 0., 0., 0., 0., 0., 0., 0., 0., 0., 0., 1., 0., 0.,
          0., 0., 0., 0., 0., 0., 0., 0., 0., 0., 0., 0., 0., 0., 0., 0.,
          2.03265991e+001, 3.67340064e+000, 0., 0., 0., 3.54706306e+001,
          1.30440884e+001, 3.72792196e+000, 8.09587193e+000,
          3.66148758e+000, 3.70652809e+001, 1.50352240e+001,
          4.97056293e+000, 7.98606920e+000, 3.69428635e+001,
          5.41624117e+000, 1.58375871e+000, 4.14213568e-001,
          3.36605191e+000, 1.32197342e+001, 9.69886589e+000,
          1.02300663e+001, 4.14213562e+000, 4.92893219e+000, 0., 0.,
          2.75735927e+000, 2.89949489e+000, 9.12503052e+000,
          4.22181168e+001, 0., 0., 0., 4.69997257e-001, 3.53000283e+000,
          0., 0., 0., 0., 0. ]
      - [ 0., 0., 3., 5., 1., 2.58578634e+000, 3.41421366e+000,
          3.17157292e+000, 0., 0., 6., 1.93867893e+001, 3.40764084e+001,
          1.53680396e+000, 0., 0., 0., 0., 0., 2.68192554e+000,
          1.42688112e+001, 4.92635369e-002, 0., 0., 0., 0., 0., 0., 0.,
          0., 0., 0., 4.14213568e-001, 1.17157292e+000, 7.31370831e+000,
          1.28578644e+001, 5.24264050e+000, 0., 0., 0., 0., 0.,
          1.35241499e+001, 3.82619247e+001, 1.46281385e+001,
          5.17157269e+000, 9.82842731e+000, 2.58578634e+000, 0., 0.,
          1.82842708e+000, 1.16045885e+001, 4.88691330e+001,
          2.66267834e+001, 3.23137093e+001, 2.03431454e+001, 0., 1., 0.,
          8.38608265e+000, 4.92128372e+001, 2.50166054e+001,
          3.72839699e+001, 2.64436512e+001, 0., 1., 8.35504055e+000,
          1.22079773e+001, 5.69818592e+000, 7.38796115e-001, 0., 0., 0.,
          5.22048140e+000, 1.62654095e+001, 2.73459077e+000, 2.,
          3.75735927e+000, 2.21421356e+001, 1.28578644e+001, 0.,
          1.00752938e+000, 0., 0., 2., 9.24264050e+000, 4.34590302e+001,
          4.72356186e+001, 0., 5.22048140e+000, 0., 0., 1.,
          3.36130214e+000, 2.53540077e+001, 3.97884979e+001, 0.,
          2.35512614e+000, 1.26147385e+001, 8.73119736e+000,
          2.71315122e+000, 5.85786462e-001, 0., 0., 0., 2.01125107e+001,
          1.89973462e+000, 1.58647031e-001, 0., 4.14213568e-001,
          2.29124856e+000, 1.06354837e+001, 0., 3.35759687e+000, 0., 0.,
          0., 0., 0., 2.94508028e+000, 0., 0., 0., 0., 0., 0., 0., 0.,
          0., 2.60902619e+000, 3.59207368e+000, 1.46098626e+000, 0., 0.,
          0., 5.28778505e+000, 0., 5.02513647e+000, 8.95448971e+000,
          2.03735437e-002, 0., 0., 0., 2.64763534e-002, 0., 0., 0., 0.,
          0., 0., 0., 0., 0., 0., 0., 0., 0., 0., 0., 0.,
          6.48029518e+000, 0., 0., 1., 2., 0., 4.12736511e+000,
          1.33923397e+001, 0., 4.70239115e+000, 2.82842708e+000, 1., 3.,
          4., 9.82842731e+000, 1.74381886e+001, 0., 6.08198071e+000,
          6.97998810e+000, 6.38281822e+000, 6.16954613e+000,
          4.63829088e+000, 1.08511953e+001, 2.23164406e+001, 0.,
          6.02162886e+000, 1.42087097e+001, 4.52909279e+000,
          1.32037723e+000, 0., 0., 0., 0., 1., 1., 0., 1., 1.,
          1.04142132e+001, 4.17157269e+000, 0., 5.75735950e+000,
          1.82842708e+000, 8.51238918e+000, 3.19045296e+001,
          4.16886759e+000, 1.28284273e+001, 8.58578682e+000,
