%YAML:1.0
_0218: !!opencv-ml-svm
   svm_type: C_SVC
   kernel: { type:LINEAR }
   C: 100.
   term_criteria: { epsilon:9.9999999747524271e-007,
       iterations:2147483647 }
   var_all: 576
   var_count: 576
   class_count: 2
   class_labels: !!opencv-matrix
      rows: 1
      cols: 2
      dt: i
      data: [ -1, 0 ]
   sv_total: 44
   support_vectors:
      - [ 0., 0., 0., 0., 0., 1.58578646e+000, 5.35083485e+000,
          7.64916515e+000, 0., 0., 0., 0., 9.24264050e+000,
          4.03576279e+001, 3.19930420e+001, 1.40669084e+000, 0., 0.,
          1.67541742e+000, 1.80156612e+001, 6.42137833e+001,
          6.01104393e+001, 7.98469591e+000, 0., 0., 5.75735950e+000,
          7.59148712e+001, 9.57714157e+001, 2.65563488e+001, 0., 0., 0.,
          4.14213568e-001, 0., 0., 0., 0., 0., 1.30513945e+001,
          1.65343914e+001, 0., 2., 0., 1., 8.10880184e+000,
          2.68835087e+001, 3.63125801e+001, 7.69510937e+000, 0., 6.,
          2.04142132e+001, 1.57573595e+001, 3.88994942e+001,
          1.96862907e+001, 2.32426414e+001, 4., 0., 1.01715727e+001,
          5.52426414e+001, 3.77573586e+001, 2.54142132e+001, 6., 5., 2.,
          0., 0., 0., 0., 0., 2.58578634e+000, 9.35378265e+000,
          1.58626060e+001, 0., 5., 2., 3., 4., 3.58578634e+000,
          2.00710678e+001, 2.13312511e+001, 0., 1.83431454e+001,
          2.88284264e+001, 6., 7., 4., 1.54142132e+001, 2.05147190e+001,
          0., 3.23431473e+001, 1.00727921e+002, 2.36862907e+001,
          1.08284273e+001, 2., 1.41421354e+000, 3.58578634e+000,
          4.14213568e-001, 0., 0., 0., 0., 0., 6.02886200e+000,
          2.35569248e+001, 0., 1.19345608e+001, 9.05843794e-001, 0., 0.,
          0., 8.98041630e+000, 3.92590408e+001, 0., 5.01682701e+001,
          3.43541527e+001, 4.07423782e+000, 5., 1., 8.65685463e+000,
          1.37573595e+001, 0., 3.74355507e+001, 7.45052795e+001,
          2.66449604e+001, 15., 3.73879623e+000, 4.26120377e+000, 0., 0.,
          0., 0., 0., 0., 0., 3.53688455e+000, 2.25682449e+001, 0.,
          6.76110601e+000, 9.47897017e-001, 0., 0., 0., 4.48192739e+000,
          5.18605881e+001, 0., 5.97064447e+000, 3.08789682e+000, 0., 0.,
          0., 2.88682175e+000, 2.59836979e+001, 0., 6.07773638e+000,
          3.41421366e+000, 0., 0., 0., 1.23964539e+001, 3.05810184e+001,
          0., 5., 0., 0., 0., 0., 4., 1., 0., 1.01715727e+001, 4., 0.,
          0., 0., 1.54142132e+001, 1.53431454e+001, 0., 1.56862917e+001,
          2.14852810e+001, 3., 6., 7., 1.72426414e+001, 3.09159946e+001,
          0., 1.29796228e+001, 3.12368679e+001, 1.01819334e+001,
          9.41421318e+000, 9.75735950e+000, 1.88284264e+001,
          3.44499702e+001, 0., 3., 3., 3., 0., 0., 1.41421354e+000,
          7.58578634e+000, 0., 14., 9., 3., 5., 1., 8.41421318e+000,
          7.58578634e+000, 0., 2.59145737e+001, 1.81488037e+001,
          2.00633793e+001, 3.17955055e+001, 1.84842606e+001,
          1.25080500e+001, 5.73459101e+000, 0., 1.70213470e+001,
          2.53101254e+001, 4.65435257e+001, 5.53704262e+001,
          1.99055557e+001, 7.01917076e+000, 9.43994045e+000, 0., 1., 0.,
          1., 1., 5.58578634e+000, 1.18284273e+001, 2.58578634e+000, 0.,
          1., 8.24264050e+000, 1.35147190e+001, 2.10710678e+001,
          2.38578644e+001, 1.33137083e+001, 1., 0., 0., 5.82842731e+000,
          1.76862907e+001, 8.50336227e+001, 4.04516602e+001, 1., 0., 0.,
          4.92163134e+000, 2.58064079e+001, 3.19672489e+001,
          1.04079437e+002, 3.42252731e+001, 0., 0., 0., 0.,
          4.55634928e+000, 9.92124271e+000, 5.22407770e-001, 0., 0.,
          7.45584393e+000, 3.91368637e+001, 2.84072914e+001,
          2.61203885e-001, 1.86260986e+001, 1.94680367e+001,
          5.33307076e+001, 2.83139515e+001, 4.22407770e+000,
          1.30141357e+002, 4.76345596e+001, 0., 0., 0., 0.,
          1.24264073e+000, 1.33647881e+001, 1.53925714e+001, 0.,
          1.75735927e+000, 9.94112587e+000, 5.14729042e+001,
          1.28286114e+001, 0., 2.68456707e+001, 3.35513000e+001,
          3.16030312e+001, 0., 0., 6.63065643e+001, 4.30782089e+001,
          7.61522388e+000, 0., 0., 0., 1.24264073e+000, 1.75855846e+001,
          1.01717739e+001, 0., 7.02943707e+000, 1.86396103e+001,
          3.45473404e+001, 7.83611596e-001, 2.61203885e-001,
          3.60991859e+001, 3.43797264e+001, 2.62598839e+001, 0.,
          1.56722319e+000, 1.09212433e+002, 4.92914124e+001,
          4.92893219e+000, 0., 0., 0., 8.28427136e-001, 1.70985622e+001,
          1.20730095e+001, 2.68535709e+000, 1.14151478e+001,
          9.52691174e+000, 4.55409698e+001, 4.83161211e+000,
          2.78120174e+001, 5.08620796e+001, 2.31959591e+001,
          1.71299419e+001, 0., 3.07042885e+001, 7.88865509e+001,
          3.18944435e+001, 5.25351477e+000, 2.61203885e-001, 0., 0.,
          2.07106781e+000, 1.94897861e+001, 7.43914652e+000,
          5.45910883e+000, 5.88403654e+000, 6.62741709e+000,
          4.52416153e+001, 2.87878227e+001, 5.07507753e+000,
          4.68228197e+000, 2.89949489e+000, 1.61004505e+001,
          3.12426949e+001, 0., 7.68629169e+000, 4.14213562e+000,
          1.37850351e+001, 3.23865395e+001, 0., 2.92893219e+000,
          4.14213562e+000, 2.92893219e+000, 0., 0., 9.20100975e+000,
          1.73969688e+001, 2.04020195e+001, 0., 2.61203885e-001,
          2.87266026e+001, 3.06518040e+001, 3.96478462e+001,
          2.71254373e+000, 1.42861891e+001, 3.30447617e+001,
          4.05929298e+001, 5.84269524e+001, 2.64916515e+000, 0.,
          5.68629169e+000, 6.62741709e+000, 5.68629169e+000, 0., 0.,
          1.56446609e+001, 1.65685425e+001, 1.07867966e+001, 0.,
          1.19013608e+000, 5.19276123e+001, 3.10660172e+001,
          3.02041950e+001, 1.61203873e+000, 9.73531246e+000,
          8.18971558e+001, 3.47939377e+001, 3.28085442e+001,
          1.76504838e+000, 0., 1.17157292e+000, 7.45584393e+000,
          1.33725834e+001, 0., 0., 1.65441551e+001, 1.86396103e+001,
          2.78162346e+001, 0., 0., 1.83015156e+001, 1.98822517e+001,
          3.69809456e+001, 1.28352880e+001, 2.64363174e+001,
          3.79657021e+001, 2.23675327e+001, 4.16104202e+001,
          2.86200275e+001, 0., 8.27207756e+000, 4.55634928e+000,
          1.17157292e+000, 0., 0., 3.17157292e+000, 1.44974747e+001,
          4.93721771e+001, 9.95877647e+000, 0., 0., 1.24264069e+001,
          8.94643326e+001, 4.61092606e+001, 0., 4.68629169e+000,
          4.76345596e+001, 9.32649384e+001, 4.14213568e-001,
          6.82842731e+000, 1.95147190e+001, 1.65685427e+000, 0., 0.,
          9.36621308e-001, 1.58501749e+001, 1.65685425e+001,
          3.16632233e+001, 1.98143685e+000, 0., 9.37258339e+000,
          2.98233757e+001, 5.25428352e+001, 2.61203885e-001, 0.,
          1.44730883e+001, 3.64507942e+001, 4.30761185e+001, 0.,
          6.44405746e+000, 1.70706615e+001, 3.31370854e+000,
          2.17157292e+000, 0., 3.22407746e+000, 3.61068764e+001,
          1.82253971e+001, 6.44365072e+000, 0., 1.61203873e+000,
          5.37777901e+001, 2.98233757e+001, 1.07867966e+001, 0., 0.,
          2.97035351e+001, 3.52081528e+001, 2.60883121e+001, 0.,
          8.58446693e+000, 1.95871048e+001, 8.28427136e-001, 0., 0.,
          1.48940678e+001, 6.36500893e+001, 7.45584393e+000, 0., 0.,
          2.18397026e+001, 6.54496155e+001, 2.56812401e+001,
          8.02943707e+000, 0., 2.17021770e+001, 3.02856312e+001,
          2.85807362e+001, 3.04314575e+001, 0., 7.83798218e+000,
          2.06767368e+001, 2.48528147e+000, 0., 0., 4.90484276e+001,
          4.55373573e+001, 4.14213568e-001, 0., 0., 5.06524429e+001,
          1.81049175e+001, 1.24264073e+000, 0., 0., 2.90707893e+001,
          2.16155033e+001, 3.31370854e+000, 0., 0., 0., 1.21299419e+001,
          7.87005758e+000, 0., 0., 0., 3.15025253e+001, 1.44974747e+001,
          0., 0., 5.65377712e+000, 4.92213326e+001, 2.77523079e+001,
          9.37258339e+000, 0., 3.19602718e+001, 6.48143311e+001,
          2.94091625e+001, 1.97727146e+001, 4.04351950e+000, 0.,
          1.41299419e+001, 9.11269855e+000, 1.75735927e+000, 0., 0.,
          2.76030312e+001, 2.11248913e+001, 5.27207804e+000, 0.,
          3.59347558e+000, 3.88085442e+001, 2.40243874e+001,
          5.50434952e+001, 5.53009701e+000, 9.88215256e+000,
          3.78335762e+001, 2.36101723e+001, 9.36088562e+001,
          2.00652447e+001, 0., 3.51471853e+000, 5.79898977e+000,
          4.68629169e+000, 0., 0., 2.34314585e+000, 2.44386005e+001,
          4.02182541e+001, 0., 0., 0., 1.82253971e+001, 9.72355423e+001,
          2.85390587e+001, 3.71932507e+000, 4.62382078e+000,
          9.94112587e+000, 9.06312332e+001, 8.50844955e+001 ]
      - [ 0., 0., 3., 4.58578634e+000, 2.04142132e+001, 0., 1., 0., 0.,
          0., 2., 4., 3.93374023e+001, 4.32483826e+001, 2.41421366e+000,
          0., 0., 0., 0., 4.53799582e+000, 9.56972275e+001,
          3.06145573e+001, 1.50221109e-001, 0., 0., 4.89491796e+000,
          1.87827530e+001, 2.32268009e+001, 1.06435804e+001, 2., 0., 0.,
          0., 0., 2., 2., 19., 3., 1., 0., 0., 0., 0., 0.,
          2.68162746e+001, 5.16553268e+001, 6.52840042e+000, 1., 0., 0.,
          8.28427136e-001, 1.07573595e+001, 5.87719765e+001,
          6.56311798e+001, 1.95968399e+001, 2., 0., 6.58578634e+000,
          9.93662167e+000, 5.48722229e+001, 7.68749847e+001,
          2.23161716e+001, 1.78284264e+001, 3.58578634e+000, 0., 4., 2.,
          3.58578634e+000, 5.82842731e+000, 4.17157269e+000,
          3.41421366e+000, 2., 0., 7.58578634e+000, 6.41421366e+000,
          8.17157269e+000, 1.34142132e+001, 1.49103689e+001,
          1.47650480e+001, 1.13245821e+001, 0., 8.28749084e+000,
          4.33799362e+000, 2., 4.14213568e-001, 1.05363464e+001,
          5.10681152e+001, 5.76740074e+001, 0., 4.47608261e+001,
          2.64216194e+001, 0., 4., 5.58578634e+000, 2.51984329e+001,
          3.73012047e+001, 0., 1., 7.41421366e+000, 7.58578634e+000, 3.,
          1., 1., 0., 0., 1.70294380e+001, 4.24264050e+000, 0., 1., 2.,
          1.29408264e+001, 2.03641720e+001, 0., 9.12622070e+000,
          1.20594811e+000, 0., 0., 0., 4.52015591e+000, 5.22726059e+001,
          0., 1.27313042e+001, 2.14878521e+001, 6.75417423e-001, 0.,
          4.85281378e-001, 1.51471865e+000, 1.58578646e+000, 0., 0.,
          6.41421366e+000, 3.58578634e+000, 6.41421366e+000,
          4.58578634e+000, 3., 2., 0., 1.42561960e+001, 7.20991421e+000,
          1.27387962e+001, 7.84699011e+000, 1., 1.31273651e+001,
          1.36114311e+001, 0., 3.08814049e+001, 1.69122410e+001,
          1.08755274e+001, 6.31494951e+000, 6.75629711e+000,
          1.20531378e+001, 2.17687664e+001, 0., 8.20768452e+000,
          2.56443477e+000, 0., 0., 0., 5.60108137e+000, 1.48015270e+001,
          0., 0., 1.16754179e+001, 3.32458258e+000, 0., 5.85786462e-001,
          3.24264073e+000, 5.17157269e+000, 0., 5.54805279e+000,
          1.99116821e+001, 1.49067736e+001, 7.30890846e+000,
          7.38796115e-001, 3.67099810e+000, 1.32870626e+001, 0.,
          1.50733080e+001, 1.46796227e+001, 4.58158112e+000,
          1.60346622e+001, 9.23006344e+000, 3.89110489e+001,
          2.49133682e+001, 0., 4.40147209e+001, 4.16757050e+001,
          1.94123783e+001, 9.35295105e+000, 2.41421366e+000,
          1.55038443e+001, 2.00108738e+001, 0., 2., 8., 1., 8., 2., 2.,
          0., 0., 8.74362087e+000, 1.72322178e+001, 1.00143147e+001,
          2.04240608e+001, 9.58578682e+000, 3.41421366e+000,
          4.58578634e+000, 0., 1.27404175e+001, 3.95775948e+001,
          2.58913097e+001, 2.64643764e+001, 2.37135601e+001,
          2.66990623e+001, 9.13678050e-001, 0., 3.12553978e+001,
          3.12023029e+001, 1.69631405e+001, 4.90682869e+001,
          3.92744522e+001, 2.36983242e+001, 6.42507315e+000, 0., 0., 0.,
          2., 1.34142132e+001, 7.58578634e+000, 4., 0., 0., 0., 1.,
          9.06387329e+000, 5.35919876e+001, 1.93441372e+001, 2., 0., 0.,
          5.85786462e-001, 5.07106781e+000, 1.80133095e+001,
          7.68048553e+001, 3.49776344e+001, 1.19615631e+001,
          5.85786462e-001, 0., 9.29634476e+000, 9.20554256e+000,
          7.31887674e+000, 3.26033363e+001, 3.02750626e+001,
          1.05434771e+001, 1.00370140e+001, 0., 5.10050488e+000,
          3.31370854e+000, 5.85786462e-001, 0., 0., 4.51471853e+000,
          1.40832615e+001, 4.08594208e+001, 1.15425987e+001,
          8.99901807e-001, 1.61295357e+001, 1.53259020e+001,
          5.40371246e+001, 1.16075344e+001, 2.44464474e+001,
          2.52398434e+001, 3.72792196e+000, 1.58578646e+000, 0., 0.,
          2.34314585e+000, 3.31370854e+000, 2.34314585e+000, 0., 0., 0.,
          1.03553391e+001, 4.27910233e+001, 1.48536367e+001, 0.,
          1.02010098e+001, 2.69238815e+001, 7.25360794e+001,
          1.43390322e+001, 3.02625227e+000, 5.60914955e+001,
          3.93502884e+001, 3.05319633e+001, 0., 0., 5.85786438e+000,
          7.87005758e+000, 6.27207804e+000, 0., 0., 1.43015156e+001,
          1.98822517e+001, 2.87714176e+001, 1.04481554e+000,
          3.46322918e+000, 9.80884838e+000, 1.32548342e+001,
          6.93369827e+001, 4.81361084e+001, 2.08868790e+000,
          5.47864189e+001, 4.14213562e+001, 5.53078842e+001,
          2.39565039e+000, 0., 1.10294371e+001, 5.79898977e+000,
          1.17157292e+000, 0., 0., 1.63015156e+001, 2.11248913e+001,
          2.86369724e+001, 9.36621308e-001, 4.94372845e+000,
          8.39941692e+000, 5.79898977e+000, 3.64840431e+001,
          4.83738213e+001, 2.41122875e+001, 1.08877125e+001,
          8.28427136e-001, 2.39565039e+000, 7.75922477e-001, 0.,
          6.27207804e+000, 7.87005758e+000, 5.85786438e+000, 0.,
          3.07106781e+000, 2.97451668e+001, 1.78111839e+001,
          2.19135532e+001, 1.45902908e+000, 1.58128672e+001,
          5.09323006e+001, 2.11248913e+001, 3.73361893e+001,
          1.57937517e+001, 4.51974344e+000, 1.67523346e+001,
          5.79898977e+000, 2.04437885e+001, 1.54851437e+001,
          7.83611596e-001, 1.21453209e+001, 4.55634928e+000,
          6.51471853e+000, 0., 7.53888893e+000, 2.84194813e+001,
          1.24264069e+001, 1.40964165e+001, 3.51880717e+000,
          4.20101023e+000, 2.91715736e+001, 1.86396103e+001,
          4.68364639e+001, 1.81513405e+001, 4.01676674e+001,
          5.60922165e+001, 2.69238815e+001, 2.89429913e+001,
          1.87324262e+000, 2.61203885e-001, 7.83930111e+000,
          4.14213562e+000, 2.75735927e+000, 0., 1.31089115e+001,
          1.96778851e+001, 1.28406200e+001, 1.13725834e+001, 0.,
          3.61426659e+001, 4.20583458e+001, 7.87005758e+000,
          1.50424051e+001, 3.58865280e+001, 3.58988152e+001,
          4.78169136e+001, 1.69827557e+001, 4.77366524e+001,
          2.85648613e+001, 0., 1.17157292e+000, 5.79898977e+000,
          7.02943707e+000, 0., 0., 1.15441561e+001, 1.94680367e+001,
          1.89878063e+001, 0., 0., 2.55735931e+001, 2.11248913e+001,
          3.78523865e+001, 2.24491310e+001, 5.82250023e+000,
          2.05500832e+001, 1.61543293e+001, 3.61429482e+001,
          2.33301392e+001, 0., 1.17157292e+000, 7.45584393e+000,
          1.83725834e+001, 0., 0., 5.85786462e-001, 9.11269855e+000,
          5.25338783e+001, 2.57676353e+001, 0., 0., 4.14213568e-001,
          4.65327644e+001, 8.40530167e+001, 1.35083485e+000,
          6.99231100e+000, 3.72792196e+000, 2.63732643e+001,
          1.75556679e+001, 0., 5.85786462e-001, 8.69848442e+000,
          1.57157288e+001, 0., 0., 2.34314585e+000, 9.94112587e+000,
          5.48744011e+001, 1.78413258e+001, 0., 3.17157292e+000,
          1.57401152e+001, 1.07869652e+002, 2.32186604e+001, 0.,
          6.44365072e+000, 3.10660172e+001, 1.16408394e+002,
          1.40819416e+001, 0., 5.27207804e+000, 8.28427124e+000,
          9.44365120e+000, 0., 0., 2.26446609e+001, 2.40243874e+001,
          2.43309517e+001, 0., 2.77024097e+001, 7.27706757e+001,
          1.61543293e+001, 2.08501759e+001, 5.22407770e-001,
          7.26120377e+000, 1.06672775e+002, 3.56223679e+001,
          6.44365072e+000, 0., 0., 1.17157292e+000, 5.79898977e+000,
          7.02943707e+000, 0., 1.72023296e+000, 4.86107178e+001,
          1.49116879e+001, 1.75735927e+000, 0., 7.19312744e+001,
          4.97550163e+001, 3.31370854e+000, 0., 0., 1.37369013e+001,
          1.54346714e+001, 1.65685427e+000, 2.17157292e+000, 0., 0.,
          1.75735927e+000, 7.04163074e+000, 9.20100975e+000, 0.,
          9.40693092e+000, 3.45514374e+001, 1.40832615e+001,
          1.41747580e+001, 7.83611596e-001, 4.22152557e+001,
          6.36720467e+001, 1.15979795e+001, 1.66985111e+001,
          8.81620789e+000, 5.74187546e+001, 2.72675362e+001,
          3.31370854e+000, 0., 0., 0., 5.27207804e+000, 5.79898977e+000,
          3.92893219e+000, 0., 6.52690315e+000, 2.04314671e+001,
          1.15979795e+001, 1.39123268e+001, 7.53132343e+000,
          8.92256451e+000, 4.88520393e+001, 2.69238815e+001,
          2.60140591e+001, 2.28745627e+000, 1.86099339e+001,
          8.77798920e+001, 3.43797264e+001, 2.26599979e+001,
          8.57044983e+000, 0., 2.92893219e+000, 6.62741709e+000,
          6.44365072e+000, 0., 4.01824522e+000, 1.33543377e+001,
          1.69827557e+001, 2.53220768e+001, 7.32258511e+000,
          1.72057018e+001, 1.18948040e+001, 1.86396103e+001,
          6.12093010e+001, 2.90505848e+001, 2.08061905e+001,
          3.18384705e+001, 1.73969688e+001, 6.65661163e+001,
          4.43922501e+001, 0., 0., 7.87005758e+000, 1.51299419e+001, 0.,
          0., 5.85786462e-001, 1.36690474e+001, 5.52740440e+001,
          1.34711237e+001, 0., 2.92893219e+000, 1.57401152e+001,
          6.82580261e+001, 5.70729256e+001, 4.78401852e+000,
          2.95174961e+001, 1.40832615e+001, 2.77323723e+001,
          4.08828506e+001 ]
      - [ 0., 0., 2., 2., 1.12426405e+001, 1.03431454e+001,
          1.41421354e+000, 0., 0., 2., 3., 1.17157292e+000,
          2.73772583e+001, 5.60296631e+001, 3.42150450e+000, 0., 0.,
          3.17157292e+000, 2.82842708e+000, 1.27177229e+001,
          8.82029190e+001, 2.50793552e+001, 1., 0., 0., 2.41421366e+000,
          2.92934895e+001, 2.69614677e+001, 1.33308306e+001, 1., 0., 0.,
          0., 0., 0., 0., 1.22426405e+001, 1.37573595e+001, 0., 0., 0.,
          0., 4.65685415e+000, 1.09289322e+001, 1.76947765e+001,
          5.06115456e+001, 6.52210426e+000, 1.58578646e+000, 0., 0.,
          4.35504007e+000, 1.85738926e+001, 6.26620941e+001,
          2.81663322e+001, 2.15563488e+001, 1.16862917e+001, 0., 6.,
          3.84261093e+001, 4.01891174e+001, 7.10416336e+001,
          1.79289322e+001, 1.04142132e+001, 3.58578634e+000, 0., 0., 2.,
          2., 2., 3., 2., 3., 0., 4.58578634e+000, 4., 1.,
          7.41421366e+000, 2.51377335e+001, 3.29774551e+001,
          4.88481188e+000, 0., 1.35282640e+001, 2.09174728e+000, 1., 2.,
          2.44096231e+000, 3.48147583e+001, 5.95740623e+001, 0.,
          5.17934647e+001, 4.02317657e+001, 6.32458258e+000,
          8.41421318e+000, 4., 1.14142132e+001, 1.07573595e+001, 0., 0.,
          3., 5., 4., 1., 6., 4., 0., 2., 1., 3., 6., 1.,
          1.34404659e+001, 3.57083397e+001, 0., 9.01628971e+000,
          9.49056530e+000, 0., 0., 0., 3.24054098e+000, 4.33658371e+001,
          0., 1.68782272e+001, 3.08403797e+001, 5.66144133e+000, 2., 0.,
          5.85786462e-001, 2., 0., 0., 10., 1., 4., 0., 2., 0., 0.,
          1.52983303e+001, 1.49366217e+001, 6.58578634e+000,
          6.41421366e+000, 3., 1.28469906e+001, 1.19103689e+001, 0.,
          2.69537449e+001, 7.07339191e+000, 4.76796055e+000,
          3.86115360e+000, 3.75735927e+000, 1.10896311e+001,
          3.35831223e+001, 0., 8.02692699e+000, 2., 1., 2.64994335e+000,
          1.93163776e+000, 1.83263242e+000, 1.24108591e+001, 0.,
          1.58578646e+000, 1.41421354e+000, 1., 7., 1., 2., 2., 0.,
          5.98143673e+000, 1.87450256e+001, 1.13327112e+001,
          7.35504007e+000, 2., 1.04142132e+001, 1.11715727e+001, 0.,
          1.62059956e+001, 2.12325020e+001, 1.92766647e+001,
          1.48264236e+001, 1.06586580e+001, 2.64805317e+001,
          1.77755795e+001, 0., 2.76206741e+001, 3.23885422e+001,
          8.97325420e+000, 8.65685463e+000, 1.02919989e+001,
          3.07671757e+001, 3.05714302e+001, 0., 1., 2., 2.58578634e+000,
          1.14142132e+001, 1., 1., 0., 0., 9.17157269e+000,
          6.82842731e+000, 7.75735950e+000, 1.82426414e+001,
          9.58578682e+000, 14., 4., 7.02212214e-001, 1.22246618e+001,
          3.55257797e+001, 1.47178001e+001, 3.94453735e+001,
          2.42553902e+001, 2.53889771e+001, 1.73980629e+000, 0.,
          2.08937798e+001, 3.61366348e+001, 1.92157421e+001,
          2.94876118e+001, 5.36887589e+001, 3.60977821e+001,
          1.54621992e+001, 0., 0., 1., 8.58578682e+000, 6.41421366e+000,
          1., 6., 2., 0., 0., 1., 5.97723150e+000, 5.63402977e+001,
          2.36824703e+001, 1., 2., 0., 0., 2.41421366e+000,
          8.07773685e+000, 7.21639557e+001, 3.85060921e+001,
          8.25221825e+000, 1.58578646e+000, 0., 6.76133966e+000,
          7.41421366e+000, 7.17157269e+000, 2.86780338e+001,
          2.64942112e+001, 1.06561823e+001, 5.17157269e+000, 0.,
          2.34314585e+000, 4.97056293e+000, 9.68629169e+000, 0., 0.,
          4.51471853e+000, 9.11269855e+000, 5.07747002e+001,
          1.75978813e+001, 5.67131996e+000, 2.65296898e+001,
          1.78111839e+001, 4.91747589e+001, 5.81304884e+000,
          2.20886593e+001, 3.84554977e+001, 7.87005758e+000,
          5.85786462e-001, 0., 0., 0., 5.79898977e+000, 1.02010098e+001,
          0., 0., 1.22720776e+001, 9.11269855e+000, 3.99550018e+001,
          1.86602230e+001, 1.76504838e+000, 1.85364666e+001,
          2.94091625e+001, 4.97669144e+001, 5.22407770e-001,
          2.24264073e+000, 6.57329712e+001, 3.93502884e+001,
          2.26740990e+001, 0., 0., 2.34314585e+000, 4.97056293e+000,
          4.68629169e+000, 0., 0., 6.44365072e+000, 1.28406200e+001,
          3.30665321e+001, 2.26491966e+001, 9.40826654e-001,
          1.20175428e+001, 2.56812401e+001, 6.17363014e+001,
          2.46240864e+001, 7.83611596e-001, 7.48072281e+001,
          3.93502884e+001, 1.70588741e+001, 0., 0., 4.68629169e+000,
          7.87005758e+000, 6.44365072e+000, 0., 0., 4.10050488e+000,
          1.65685425e+001, 4.43046989e+001, 3.02625227e+000,
          1.31328526e+001, 6.03872013e+000, 1.24264073e+000,
          2.86013584e+001, 4.29844284e+001, 2.40041409e+001,
          2.68537235e+001, 4.97056293e+000, 1.91036904e+000,
          2.61203885e-001, 0., 6.44365072e+000, 5.38477612e+000,
          1.17157292e+000, 0., 1.04481554e+000, 3.04282722e+001,
          1.69827557e+001, 1.99769325e+001, 1.56722319e+000,
          1.18463879e+001, 3.40409126e+001, 2.15391045e+001,
          4.45628090e+001, 1.90107841e+001, 8.50821018e+000,
          1.30065088e+001, 4.14213562e+000, 1.75445194e+001,
          1.57986269e+001, 0., 2.75735927e+000, 3.31370854e+000,
          2.92893219e+000, 0., 5.10819435e+000, 2.78501759e+001,
          1.28406200e+001, 1.74173985e+001, 7.83611596e-001,
          1.48586531e+001, 4.41291542e+001, 1.90538235e+001,
          3.90010757e+001, 1.99572926e+001, 1.15066233e+001,
          4.78243294e+001, 3.02375908e+001, 5.51736908e+001,
          7.25776672e+000, 0., 3.51471853e+000, 3.31370854e+000,
          1.17157292e+000, 0., 0., 1.64730873e+001, 1.98822517e+001,
          1.76446609e+001, 0., 4.27423515e+001, 2.05297260e+001,
          1.20121937e+001, 1.97181606e+001, 3.09975681e+001,
          3.29652328e+001, 4.02652130e+001, 2.27817459e+001,
          7.03872528e+001, 3.46005516e+001, 0., 5.85786438e+000,
          7.87005758e+000, 5.27207804e+000, 0., 0., 7.02943707e+000,
          1.82253971e+001, 2.78085442e+001, 9.36621308e-001,
          2.61203885e-001, 1.00108738e+001, 1.36690474e+001,
          4.74854584e+001, 2.15734177e+001, 0., 1.81299419e+001,
          1.44974747e+001, 2.75256386e+001, 2.38469448e+001, 0., 0.,
          5.79898977e+000, 1.82010098e+001, 0., 0., 2.34314585e+000,
          6.21320343e+000, 5.43971558e+001, 2.80464935e+001, 0.,
          2.34314585e+000, 3.72792196e+000, 5.51726265e+001,
          6.87563019e+001, 0., 3.17157292e+000, 5.79898977e+000,
          3.18526573e+001, 1.61767788e+001, 0., 0., 7.45584393e+000,
          1.82829514e+001, 2.61203885e-001, 0., 1.17157292e+000,
          1.03553391e+001, 5.82317657e+001, 1.82413216e+001, 0.,
          9.37258339e+000, 2.44386005e+001, 8.22313919e+001,
          1.19574251e+001, 0., 1.35441561e+001, 3.39655113e+001,
          1.07941673e+002, 3.54866004e+000, 0., 1.75735927e+000,
          4.14213562e+000, 4.10050488e+000, 0., 1.72023296e+000,
          1.35518446e+001, 1.49116879e+001, 3.38053589e+001,
          3.01087403e+000, 1.84956837e+001, 8.18941422e+001,
          2.65096684e+001, 4.10050488e+000, 0., 2.54866004e+000,
          8.90005493e+001, 4.34924240e+001, 1.29583693e+001, 0., 0.,
          2.34314585e+000, 5.79898977e+000, 5.85786438e+000, 0.,
          8.36489391e+000, 5.02086983e+001, 1.65685425e+001,
          5.85786438e+000, 0., 6.72216187e+001, 2.93641663e+001,
          4.14213568e-001, 0., 0., 1.04931927e+001, 2.25362453e+001,
          9.52691174e+000, 6.44365072e+000, 0., 0., 0., 2.07106781e+000,
          2.92893219e+000, 0., 1.56722319e+000, 3.20774384e+001,
          1.49116879e+001, 1.14436512e+001, 0., 5.45663681e+001,
          6.68772812e+001, 7.87005758e+000, 9.12372971e+000,
          2.56256199e+000, 5.13302116e+001, 1.78413601e+001,
          2.89949489e+000, 4.21151733e+000, 1.71741486e+000, 0.,
          4.68629169e+000, 7.04163074e+000, 5.27207804e+000, 0.,
          1.45902908e+000, 2.04993401e+001, 1.32548342e+001,
          1.71747570e+001, 1.61203873e+000, 1.96216621e+001,
          3.88514252e+001, 1.40832615e+001, 3.23768044e+001,
          1.70668449e+001, 7.70520401e+000, 8.62704086e+001,
          3.39655113e+001, 2.17640285e+001, 2.29484653e+000, 0.,
          1.17157292e+000, 4.97056293e+000, 1.08578644e+001, 0.,
          7.83611596e-001, 1.83463306e+001, 1.90538235e+001,
          2.41408157e+001, 6.75417423e-001, 1.55515299e+001,
          1.63774033e+001, 1.28406200e+001, 6.03690834e+001,
          3.48613625e+001, 2.16624622e+001, 3.20532646e+001,
          2.73380947e+001, 6.74010468e+001, 3.55451279e+001, 0.,
          1.17157292e+000, 6.62741709e+000, 1.02010098e+001, 0., 0.,
          1.17157292e+000, 5.38477612e+000, 6.52411041e+001,
          1.62025452e+001, 0., 5.51471853e+000, 7.45584393e+000,
          6.75346375e+001, 5.14948006e+001, 3.99231076e+000,
          1.94513397e+001, 9.11269855e+000, 2.43506241e+001,
          3.40930252e+001 ]
      - [ 0., 2., 5., 2.82842708e+000, 8.60435009e+000, 5.56722307e+000,
          4., 0., 0., 1.82696152e+001, 5.08963108e+000, 2.00008526e+001,
          8.73794365e+000, 5.85786462e-001, 2.41421366e+000, 2., 0., 0.,
          1.15415783e+001, 3.19013767e+001, 7.00913467e+001,
          1.81033821e+001, 8.77653027e+000, 1.58578646e+000, 0., 0., 0.,
          1.61438217e+001, 1.63424911e+002, 2.04312725e+001, 0., 0., 0.,
          4., 3., 1., 3., 2., 1., 2., 0., 1.25780973e+001,
          1.78284264e+001, 3., 1.05038443e+001, 1.10819416e+001,
          1.08284273e+001, 4.58578634e+000, 0., 8., 13., 6., 17., 9.,
          17., 10., 0., 7., 5.24264050e+000, 1.01005049e+001,
          4.40237885e+001, 4.08046379e+001, 4.05598450e+001,
          4.78543701e+001, 0., 3., 4., 7., 8., 4., 1., 0., 0.,
          1.75735927e+000, 1.48284273e+001, 4.58578634e+000,
          3.41421366e+000, 4., 1.30710678e+001, 2.45147190e+001, 0.,
          3.41421366e+000, 0., 0., 0., 0., 1.67271996e+001,
          8.17703934e+001, 0., 1.23150005e+001, 9.99199581e+000,
          2.20481202e-001, 0., 1.90743566e-001, 2.07139111e+001,
          1.11518311e+002, 0., 2.25218225e+000, 5.82842731e+000,
          3.58578634e+000, 1., 1., 2.24264073e+000, 6.66352320e+000, 0.,
          6.18048477e+000, 2.31268005e+001, 1.12193909e+001,
          2.91453862e+000, 3.96230519e-001, 6.98274946e+000,
          1.71881638e+001, 0., 1.13755293e+001, 1.88919849e+001,
          1.15037003e+001, 1.63061023e+000, 1.07096279e+000,
          1.14709034e+001, 5.12811508e+001, 0., 1.04605083e+001,
          9.58578682e+000, 4.14213568e-001, 1.67962277e+000,
          1.05917335e+000, 2.32846584e+001, 5.30294342e+001, 0.,
          2.77973032e+000, 5.24264050e+000, 5.85786462e-001, 0.,
          3.12389946e+000, 1.01208572e+001, 3.90872478e+000, 0.,
          9.58578682e+000, 0., 0., 0., 3.19240308e+000, 2.61827965e+001,
          1.97733459e+001, 0., 2.53624020e+001, 1.75227718e+001,
          6.29280567e+000, 2.25865388e+000, 1.48025441e+000,
          1.74662533e+001, 3.60919228e+001, 0., 1.70217628e+001,
          1.99966278e+001, 2.22795367e+000, 1., 1., 3., 1., 0., 0.,
          6.41421366e+000, 1.58578646e+000, 3., 9.38796139e+000,
          3.61203885e+000, 0., 0., 9.58578682e+000, 2.08284264e+001,
          4.58578634e+000, 9., 4.17157269e+000, 1.24142132e+001,
          1.41421354e+000, 0., 4.37626381e+001, 3.41791916e+001,
          1.17511320e+001, 1.67541742e+000, 6.17157269e+000,
          1.04142132e+001, 5.25770807e+000, 0., 6.21392107e+000,
          1.39523659e+001, 1.28398955e-001, 0., 0., 0., 0., 0.,
          5.85786462e-001, 5.82842731e+000, 2.58578634e+000, 3.,
          5.14111519e+000, 9.59768105e+000, 1.26120389e+000, 0., 1.,
          6.41421366e+000, 1.05857868e+001, 1.54142132e+001,
          8.58578682e+000, 12., 7., 0., 1.01525793e+001, 2.37966194e+001,
          2.52119389e+001, 3.23137093e+001, 1.58393011e+001,
          2.00896301e+001, 6.58578634e+000, 0., 2.52513657e+001,
          3.73350258e+001, 3.71686058e+001, 2.21811447e+001,
          1.49147606e+001, 4.35267973e+000, 4.50260782e+000, 0.,
          2.58578634e+000, 1.10896311e+001, 5.32458258e+000, 0.,
          5.85786462e-001, 4.69757700e+000, 4.71663666e+000, 0.,
          5.29866171e+000, 9.54763222e+000, 1.15698938e+001,
          2.04419250e+001, 1.94254684e+001, 8.95753098e+000,
          3.57226968e+000, 0., 1.19061632e+001, 1.48442516e+001,
          2.11755486e+001, 4.75702820e+001, 3.82854538e+001,
          1.05386772e+001, 2.58578634e+000, 0., 0., 9.57407665e+000,
          4.57373161e+001, 5.22329979e+001, 8.03382874e+000,
          1.42178237e+000, 0., 0., 7.02943707e+000, 9.52691174e+000,
          7.44365072e+000, 0., 4.11588335e+000, 3.88008537e+001,
          1.57401152e+001, 4.34314585e+000, 0., 3.17157292e+000,
          3.69167404e+001, 2.23675327e+001, 2.25627193e+001,
          1.98143685e+000, 8.64405155e+000, 2.77579689e+001,
          2.69238815e+001, 4.28008537e+001, 1.87324262e+000, 0.,
          4.68629169e+000, 5.79898977e+000, 3.51471853e+000, 0.,
          7.83611596e-001, 2.69321175e+001, 1.69827557e+001,
          1.93015156e+001, 0., 0., 1.58162336e+001, 2.52670269e+001,
          2.19167385e+001, 0., 0., 1.58873014e+001, 4.76345596e+001,
          9.35081177e+001, 4.97002268e+000, 0., 8.20100975e+000,
          7.45584393e+000, 3.34314585e+000, 0., 0., 1.57867966e+001,
          1.98822517e+001, 2.83309517e+001, 0., 0., 2.92893219e+000,
          2.69238815e+001, 8.29793777e+001, 1.31678076e+001,
          2.00889721e+001, 8.08260155e+000, 1.11837664e+001,
          8.69317017e+001, 5.77129631e+001, 2.15297127e+000,
          9.53332043e+000, 6.21320343e+000, 8.10050488e+000, 0.,
          2.89526157e+001, 1.29763165e+001, 1.11837664e+001,
          1.45514154e+001, 7.33588648e+000, 2.64472675e+001,
          1.37537432e+001, 1.98822517e+001, 6.98218689e+001,
          8.09487247e+000, 6.10799551e+000, 1.68503742e+001,
          1.20121937e+001, 3.60294571e+001, 5.79999809e+001,
          4.14213568e-001, 7.92893219e+000, 4.14213562e+000,
          1.11274281e+001, 4.38729000e+000, 0., 5.85786438e+000,
          1.24264069e+001, 2.31405010e+001, 1.95752277e+001,
          4.67719803e+001, 1.45711660e+001, 9.52691174e+000,
          2.79525776e+001, 2.91773643e+001, 3.08572540e+001,
          1.31427450e+001, 0., 2.74362445e+000, 2.25637555e+000,
          2.61203885e-001, 6.49615526e+000, 2.89949489e+000,
          9.46990299e+000, 1.87324262e+000, 0., 2.21593800e+001,
          1.73969688e+001, 1.29212427e+001, 5.22407770e-001,
          6.13547478e+001, 3.05325527e+001, 1.53259020e+001,
          1.49426851e+001, 4.84411097e+000, 1.64323235e+001,
          5.56767559e+000, 0., 0., 0., 0., 6.92893219e+000,
          2.89949489e+000, 1.27913008e+001, 2.38027215e+000, 0.,
          1.13725834e+001, 1.73969688e+001, 1.72304478e+001, 0.,
          1.48603315e+001, 3.62990494e+001, 2.85807362e+001,
          2.97374763e+001, 5.22407770e-001, 8.60722351e+001,
          3.42709084e+001, 3.31370854e+000, 1.43041906e+001,
          1.90389557e+001, 1.82842708e+000, 1.51005049e+001,
          2.07106781e+000, 6.64916515e+000, 3.35083485e+000,
          8.64135647e+000, 1.91454391e+001, 1.20121937e+001,
          2.31802845e+001, 7.02072525e+000, 7.36412954e+000,
          3.56236763e+001, 2.60954552e+001, 3.89787292e+001,
          6.93800783e+000, 5.95118332e+001, 2.32455254e+001,
          2.48528147e+000, 8.34606266e+000, 8.41129684e+000, 0.,
          2.92893219e+000, 4.14213562e+000, 1.31005049e+001,
          1.82842708e+000, 6.23176670e+000, 3.88271065e+001,
          1.20121937e+001, 1.98668728e+001, 8.06205940e+000, 0.,
          3.34314585e+000, 2.15391045e+001, 9.46333771e+001,
          1.04843693e+001, 0., 0., 4.97056293e+000, 1.02443123e+002,
          9.25863113e+001, 0., 7.02943707e+000, 6.62741709e+000,
          4.08194208e+000, 2.61203885e-001, 5.22407770e-001,
          2.21933212e+001, 1.69827557e+001, 1.56260977e+001,
          6.75417423e-001, 0., 2.16740990e+001, 2.77523079e+001,
          1.95735931e+001, 0., 2.99231076e+000, 4.26401558e+001,
          4.34924240e+001, 7.09308014e+001, 4.94431067e+000, 0.,
          2.92893219e+000, 9.94112587e+000, 1.11299419e+001, 0.,
          2.61203885e-001, 3.02413216e+001, 1.86396103e+001,
          7.85786438e+000, 0., 2.68232365e+001, 8.95371552e+001,
          1.86396103e+001, 0., 0., 8.13894958e+001, 9.22257233e+001,
          6.21320343e+000, 1.17157292e+000, 0., 4.77958727e+000,
          8.66406345e+000, 7.04163074e+000, 3.51471853e+000, 0.,
          1.01535263e+001, 4.08048439e+001, 8.69848442e+000,
          1.56087809e+001, 1.07343655e+001, 3.44618835e+001,
          8.14964828e+001, 8.28427124e+000, 1.00566263e+001,
          1.27007332e+001, 7.98560562e+001, 4.11023102e+001,
          7.87005758e+000, 2.49195004e+000, 6.79622769e-001,
          3.72237420e+000, 5.79234457e+000, 4.55634928e+000,
          3.92893219e+000, 0., 4.71925879e+000, 3.65406265e+001,
          1.61543293e+001, 2.99434328e+000, 4.59144306e+000,
          6.10726280e+001, 5.47436066e+001, 1.28406200e+001,
          5.81249094e+000, 1.05306549e+001, 2.80323334e+001,
          1.49676676e+001, 0., 2.50540066e+000, 3.49459934e+000, 0.,
          5.85786462e-001, 4.55634928e+000, 1.28578644e+001, 0., 0.,
          1.17157288e+001, 1.61543293e+001, 1.21299419e+001, 0.,
          5.17968025e+001, 3.09899921e+001, 1.11837664e+001,
          1.38643007e+001, 1.01651363e+001, 1.05766621e+001,
          4.42333841e+000, 0., 4.85281378e-001, 5.14718652e-001, 0.,
          1.75735927e+000, 6.21320343e+000, 9.02943707e+000, 0., 0.,
          9.37258339e+000, 1.94680367e+001, 2.21593800e+001, 0.,
          7.97674847e+000, 1.65674076e+001, 2.60954552e+001,
          5.92440987e+001, 3.11629009e+000, 4.17468338e+001,
          2.17678833e+001, 4.97056293e+000, 2.16609592e+001,
          6.78537598e+001, 0., 1.01005049e+001, 4.55634928e+000,
          5.08194208e+000, 2.61203885e-001, 6.19747925e+000,
          1.15598803e+001, 9.94112587e+000, 3.76657600e+001,
          1.16357546e+001, 1.45133996e+000, 1.35780973e+001,
          2.44386005e+001, 7.97595596e+001, 1.47724047e+001, 0., 0.,
          4.14213568e-001, 2.56067963e+001, 8.69789886e+001 ]
      - [ 1., 3.22654080e+000, 4.77345896e+000, 0., 4., 5.87672663e+000,
          1.11232738e+001, 2., 0., 4.89180565e+000, 1.41081944e+001,
          8.05917358e+000, 2.10346622e+001, 1.59839001e+001,
          1.31876726e+001, 7.34590828e-001, 0., 7.96885967e+000,
          2.30567341e+001, 2.26250362e+001, 5.51121521e+001,
          3.41112137e+001, 9.09942722e+000, 7.38796115e-001,
          4.78661537e+000, 6.71305990e+000, 1.58578646e+000,
          5.31235695e+000, 1.35132813e+002, 4.45464439e+001,
          3.68380499e+000, 1.23912120e+000, 0., 1.95866835e+000,
          3.13436317e+000, 8.99797153e+000, 5.12886953e+000,
          1.74874401e+000, 3.25125599e+000, 1.41421354e+000, 0.,
          1.17157292e+000, 9.53081799e+000, 2.43448868e+001,
          2.45385075e+001, 4.58578634e+000, 8., 5., 0., 2.,
          1.38994951e+001, 3.15147190e+001, 4.83137093e+001,
          2.62010098e+001, 1.50710678e+001, 1., 0., 4., 15.,
          2.79289322e+001, 1.03954376e+002, 3.84598389e+001,
          1.70710678e+001, 1.58578646e+000, 0., 5.39770699e+000,
          6.82883406e+000, 1.41421354e+000, 2.58578634e+000,
          2.61253524e+000, 6.38746452e+000, 1.14880431e+000, 0.,
          1.80101528e+001, 5.67541742e+000, 2.17157292e+000,
          9.65685463e+000, 5.17157269e+000, 3., 2.41421366e+000, 0.,
          2.88578644e+001, 2.38994942e+001, 2., 0., 3., 3.04852810e+001,
          1.71005058e+001, 0., 1.05857868e+001, 8., 0., 0., 4.,
          1.38284273e+001, 8.12778625e+001, 0., 0., 3.26120377e+000,
          2.47759223e+000, 2.67541742e+000, 1.97302616e+000,
          1.32923832e+001, 1.32037723e+000, 0., 5.17157269e+000,
          8.41421318e+000, 4., 5., 3.58578634e+000, 2.25080490e+001,
          1.40777369e+001, 0., 2.59797916e+001, 1.26542950e+001,
          4.28778028e+000, 2.58578634e+000, 3.20377231e-001,
          1.99165707e+001, 3.21255989e+001, 0., 5.64751911e+000,
          8.80256367e+000, 4.97448206e+000, 2.79516578e+000,
          5.30818403e-001, 4.99777460e+000, 5.16585007e+001, 0., 0., 4.,
          2., 0., 0., 5.82842731e+000, 1.51715727e+001, 0., 3.,
          1.38284273e+001, 7.17157269e+000, 4., 2., 9.65685463e+000,
          4.34314585e+000, 0., 3.74584618e+001, 2.25279732e+001,
          7.85576487e+000, 4.85726404e+000, 0., 8.67541790e+000,
          1.91712093e+001, 0., 1.99365273e+001, 1.07226286e+001, 0., 0.,
          0., 0., 1.01086121e+001, 0., 3., 5., 2., 0., 2., 5., 1., 0.,
          7.19613266e+000, 1.48929176e+001, 5.96434641e+000, 6., 1., 6.,
          1., 0., 2.30907669e+001, 4.71393242e+001, 1.77325783e+001,
          1.23902380e+000, 0., 0., 5.73255241e-001, 0., 2.95993716e-001,
          5.42894697e+000, 2.75059283e-001, 0., 0., 0., 0., 0., 0., 3.,
          2., 7., 5.58578634e+000, 4.41421366e+000, 0., 0.,
          2.61203885e-001, 1.03734913e+001, 7.63915396e+000,
          1.41403646e+001, 7.75735950e+000, 1.98284264e+001,
          5.58578634e+000, 0., 2.96198997e+001, 3.45967331e+001,
          2.57317028e+001, 2.14629135e+001, 1.29730387e+001,
          1.07641993e+001, 6.94521999e+000, 0., 1.47147150e+001,
          3.26326408e+001, 1.75994110e+001, 2.34822235e+001,
          1.17035484e+001, 2.67779875e+000, 8.22100818e-001, 0.,
          3.17157292e+000, 2., 1., 7.41421366e+000, 7.17157269e+000,
          4.14213568e-001, 1., 0., 10., 1.24154396e+001, 1.01580877e+001,
          1.76606312e+001, 2.00904236e+001, 8.08963108e+000,
          1.58578646e+000, 0., 4.03346586e+000, 2.78481350e+001,
          4.20724258e+001, 4.26337852e+001, 1.31857557e+001,
          8.66133690e+000, 8.64257050e+000, 0., 7.56357908e+000,
          2.29459496e+001, 2.00427132e+001, 2.88006458e+001,
          7.11290121e+000, 1.21164446e+001, 5.32210350e+000,
          1.76504838e+000, 6.40652466e+000, 2.89949489e+000,
          1.27727375e+001, 4.15619469e+000, 7.83611596e-001,
          1.93463306e+001, 1.57401152e+001, 2.06894760e+001,
          2.44046593e+000, 2.14611740e+001, 3.25977020e+001,
          2.27817459e+001, 2.87516232e+001, 1.34077568e+001,
          1.14429092e+001, 1.58291683e+001, 1.98822517e+001,
          6.80527649e+001, 4.07929039e+001, 4.62434006e+000,
          1.17188053e+001, 2.48528147e+000, 3.37945843e+000,
          2.79211450e+000, 1.87324262e+000, 3.19429913e+001,
          1.69827557e+001, 1.22010098e+001, 0., 1.19782519e+000,
          3.27189140e+001, 2.89949493e+001, 3.18271084e+001,
          2.61203885e-001, 0., 2.87035351e+001, 4.51492767e+001,
          5.28859825e+001, 2.61203885e-001, 4.48609495e+000,
          9.44283676e+000, 4.14213562e+000, 6.92893219e+000, 3.,
          5.22407770e-001, 2.49506798e+001, 1.44974747e+001,
          8.02943707e+000, 0., 0., 3.86030312e+001, 3.39655113e+001,
          3.44314575e+001, 0., 0., 1.11299419e+001, 4.10071411e+001,
          7.87932739e+001, 1.80696411e+001, 2.61203885e-001,
          4.66772842e+000, 3.72792196e+000, 1.21344461e+001,
          3.20869923e+000, 0., 1.13725834e+001, 1.73969688e+001,
          2.87714176e+001, 1.45902908e+000, 1.68475628e+001,
          2.73828831e+001, 2.02964649e+001, 2.81600533e+001,
          2.03130360e+001, 1.75112629e+001, 1.02460957e+001,
          7.45584393e+000, 3.55962868e+001, 4.81905098e+001, 0.,
          3.51471853e+000, 9.94112587e+000, 1.35441561e+001, 0.,
          2.61203885e-001, 1.62829514e+001, 1.20121937e+001,
          1.14436512e+001, 0., 3.12891369e+001, 3.74560280e+001,
          2.44386005e+001, 2.51408157e+001, 6.75417423e-001,
          2.89376621e+001, 9.23391056e+000, 1.24264073e+000,
          9.30127144e+000, 1.42845154e+001, 0., 5.85786438e+000,
          7.45584393e+000, 4.68629169e+000, 0., 6.72745275e+000,
          1.66451302e+001, 9.94112587e+000, 4.68629169e+000, 0.,
          7.66846085e+001, 1.89011784e+001, 2.07106781e+000,
          2.75735927e+000, 5.85786462e-001, 4.58182287e+000,
          1.41817713e+000, 0., 0., 0., 0., 3.34314585e+000,
          5.38477612e+000, 6.27207804e+000, 0., 1.56763005e+000,
          1.16333799e+001, 1.65685425e+001, 2.27080402e+001,
          5.22407770e-001, 7.37438278e+001, 3.36998215e+001,
          6.62741709e+000, 1.69221706e+001, 2.30067616e+001,
          5.71854820e+001, 2.04003029e+001, 1.65685427e+000,
          7.75696230e+000, 1.50003967e+001, 0., 4.10050488e+000,
          4.55634928e+000, 7.34314585e+000, 0., 6.90516615e+000,
          1.89821358e+001, 1.82253971e+001, 2.38424854e+001,
          1.04481554e+000, 6.10561409e+001, 2.89732952e+001,
          6.62741709e+000, 1.18335199e+001, 2.25096264e+001,
          4.79556732e+001, 1.70443249e+001, 8.28427136e-001,
          1.04718294e+001, 2.16997433e+001, 9.36621308e-001,
          4.99231100e+000, 5.79898977e+000, 1.12720776e+001, 0., 0.,
          1.14436512e+001, 1.94680367e+001, 3.19986801e+001,
          1.08963096e+000, 7.82062531e+000, 7.69409323e+000,
          1.90538235e+001, 7.20165329e+001, 3.24149284e+001,
          1.06818476e+001, 2.31815243e+000, 8.28427136e-001,
          6.12111855e+001, 1.25960388e+002, 1.45133996e+000,
          6.13444662e+000, 2.48528147e+000, 1.53847761e+001,
          3.54415584e+000, 0., 7.68629169e+000, 1.40832615e+001,
          4.11331291e+001, 5.09732008e+000, 0., 2.34314585e+000,
          3.52081528e+001, 7.96650925e+001, 7.83611596e-001, 0.,
          4.68629169e+000, 4.10071411e+001, 1.21063148e+002,
          1.32434149e+001, 2.44046593e+000, 1.09026794e+001,
          4.14213562e+000, 5.99231100e+000, 5.22407770e-001,
          5.83611631e+000, 3.88796120e+001, 1.15979795e+001,
          1.29026794e+001, 7.83611596e-001, 0., 5.51766243e+001,
          3.18944435e+001, 2.92893219e+000, 0., 3.26624298e+001,
          1.03715202e+002, 3.72792206e+001, 2.34314585e+000, 0., 0.,
          2.92893219e+000, 3.72792196e+000, 7.82073784e+000,
          5.22407770e-001, 0., 2.23309517e+001, 1.94680367e+001,
          8.20100975e+000, 0., 3.73215752e+001, 6.15240974e+001,
          1.86396103e+001, 5.83930111e+000, 6.75417423e-001,
          9.81964264e+001, 3.79751511e+001, 8.28427136e-001,
          3.54318213e+000, 8.45681763e+000, 0., 1.23015156e+001,
          9.52691174e+000, 1.17157292e+000, 0., 0., 1.56446609e+001,
          1.65685425e+001, 8.78679657e+000, 0., 3.89764709e+001,
          5.57981300e+001, 2.23675327e+001, 8.04947567e+000,
          2.80838871e+000, 5.85712814e+001, 1.54287205e+001, 0., 0., 0.,
          0., 3.51471853e+000, 4.14213562e+000, 2.34314585e+000, 0.,
          3.59568405e+000, 1.59484720e+001, 1.24264069e+001,
          1.04739962e+001, 1.55544126e+000, 4.00500946e+001,
          2.10504112e+001, 4.55634928e+000, 9.49035931e+000,
          2.18527870e+001, 7.60878861e-001, 2.39121154e-001, 0.,
          2.39121154e-001, 7.60878861e-001, 0., 0., 6.21320343e+000,
          8.78679657e+000, 0., 0., 1.03725834e+001, 1.73969688e+001,
          1.84441605e+001, 1.78628719e+000, 4.56218681e+001,
          2.00644226e+001, 4.97056293e+000, 2.42231369e+001,
          5.01200104e+001, 2.65806351e+001, 9.00515079e+000,
          1.24264073e+000, 1.69247284e+001, 4.52468452e+001, 0.,
          4.92893219e+000, 6.62741709e+000, 1.14436512e+001, 0., 0.,
          8.78679657e+000, 1.65685425e+001, 3.29062843e+001,
          8.73837662e+000, 1.86145802e+001, 8.97120571e+000,
          3.72792196e+000, 4.73433342e+001, 6.63429565e+001,
          2.32246494e+001, 7.36113596e+000, 8.28427136e-001,
          1.64065838e+001, 4.71792030e+001 ]
      - [ 0., 2., 8.41421318e+000, 7.23074627e+000, 8.76925373e+000,
          1.58578646e+000, 1., 5.85786462e-001, 0., 1.58578646e+000, 0.,
          1.40369689e+000, 4.59760857e+001, 4.62021637e+000, 0., 0., 0.,
          0., 0., 0., 0., 0., 0., 0., 0., 0., 0., 0., 0., 0., 0., 0., 0.,
          3.80925632e+000, 4.28037453e+000, 8.17157269e+000, 4., 0., 3.,
          3., 0., 4., 8.41421318e+000, 1.55987864e+001, 4.42189941e+001,
          9.76800442e+000, 4., 2., 0., 1., 1.09757271e+001,
          2.20317574e+001, 6.13130112e+001, 1.65856686e+001,
          4.09383631e+000, 0., 0., 0., 1., 2.09496994e+001,
          9.30390930e+001, 2.81827793e+001, 7.82842731e+000, 0., 0.,
          5.90616369e+000, 8.92226315e+000, 4.17157269e+000, 0., 0., 0.,
          1., 0., 2.02143536e+001, 1.01715727e+001, 2., 2.,
          4.14213568e-001, 4., 1.12500544e+001, 0., 3.55044136e+001,
          2.37464848e+001, 4.17157269e+000, 5.41421366e+000,
          1.58578646e+000, 8.67754173e+000, 1.34335308e+001, 0.,
          2.43392067e+001, 9.58080578e+000, 5.30601931e+000,
          1.26120389e+000, 1.58578646e+000, 1.20938368e+001,
          1.77084255e+001, 0., 3.10310054e+000, 3., 2.49195004e+000,
          1.50804985e+000, 1., 0., 1.91974783e+000, 0., 1.63385201e+001,
          2.74173284e+000, 0., 0., 0., 0., 4.74452972e-001, 0.,
          1.58578646e+000, 0., 0., 0., 0., 0., 2.48110786e-001, 0., 0.,
          0., 0., 0., 0., 0., 0., 0., 1.39724839e+000, 3.,
          2.58578634e+000, 8.41421318e+000, 0., 0., 1.39704549e+000, 0.,
          9.63447332e-001, 0., 0., 0., 0., 0., 6.85459495e-001, 0., 0.,
          0., 0., 0., 0., 0., 0., 0., 0., 0., 0., 0., 0., 0., 0., 0., 3.,
          0., 2., 9.82842731e+000, 3.17157292e+000, 0., 3., 0.,
          2.00168076e+001, 1.38284273e+001, 2., 2., 1., 1.,
          1.90530026e+000, 0., 5.31117868e+000, 1.41421354e+000,
          7.05496788e+000, 1.55685520e+001, 7.54805279e+000,
          1.41421354e+000, 9.74801660e-001, 0., 1.27425184e+001,
          9.11360645e+000, 1.83861184e+000, 1.26120389e+000,
          2.47759223e+000, 1.26120389e+000, 0., 0., 2.32458258e+000,
          4.14213568e-001, 3.17157292e+000, 4.82842731e+000,
          3.17157292e+000, 3.08963108e+000, 5.49615526e+000, 0.,
          9.49195004e+000, 1.67548962e+001, 3.16021214e+001,
          1.71510334e+001, 3.58578634e+000, 0., 1., 0., 5.64495993e+000,
          1.92688923e+001, 3.43788681e+001, 4.66543007e+001,
          1.02837238e+001, 7.82842731e+000, 2.17157292e+000,
          7.38796115e-001, 2.35292983e+000, 4.12083359e+001,
          1.24037094e+001, 1.60915260e+001, 3.35771418e+000, 5.,
          2.84699035e+000, 5.85786462e-001, 2., 1.82842708e+000,
          2.07773662e+000, 8.92226315e+000, 6.58578634e+000,
          2.82842708e+000, 2.17157292e+000, 0., 2.05917335e+000, 1.,
          3.17723322e+000, 4.31193581e+001, 5.70341015e+000, 1.,
          2.61203885e-001, 0., 0., 0., 2.86195707e-002, 3.97138047e+000,
          0., 0., 0., 0., 0., 0., 0., 0., 0., 0., 0., 2.61203885e-001,
          1.35255928e+001, 7.04163074e+000, 3.17157292e+000, 0.,
          2.08429337e+000, 8.60199833e+000, 3.72792196e+000,
          4.52940989e+000, 8.05637646e+000, 0., 0., 0., 0., 0., 0., 0.,
          0., 0., 0., 6.75417423e-001, 1.23540201e+001, 7.45584393e+000,
          3.51471853e+000, 0., 1.83263242e+000, 2.17409611e+001,
          1.82253971e+001, 1.08059959e+001, 3.39501452e+000,
          1.60455532e+001, 1.90133209e+001, 1.49116879e+001,
          1.90970917e+001, 6.93234539e+000, 9.82112217e+000,
          2.14093266e+001, 2.52670269e+001, 4.96740990e+001,
          1.82842708e+000, 8.28427136e-001, 1.27867966e+001,
          5.79898977e+000, 5.85786462e-001, 0., 1.29833031e+000,
          2.52752628e+001, 1.73969688e+001, 1.15443563e+001,
          2.48508072e+000, 1.40391989e+001, 4.33211899e+001,
          2.52670269e+001, 1.43783741e+001, 9.99420834e+000,
          1.79543133e+001, 2.47614155e+001, 1.61543293e+001,
          2.42607670e+001, 6.86917496e+000, 2.04579139e+000,
          7.22628641e+000, 6.62741709e+000, 5.10050488e+000, 0.,
          2.17219677e+001, 9.44960594e+000, 1.24264073e+000,
          1.31018901e+000, 1.27559745e+000, 8.28427136e-001,
          1.17157292e+000, 0., 3.61302108e-001, 6.38697922e-001, 0., 0.,
          0., 0., 0., 1.22693837e+000, 7.04513979e+000, 3.72792196e+000,
          2.19700551e+000, 2.80299449e+000, 2.28756857e+000,
          2.88400412e+000, 1.24264073e+000, 2.47996354e+000,
          2.10582304e+000, 0., 0., 0., 0., 0., 0., 0., 0., 0., 0., 0.,
          2.92893219e+000, 5.38477612e+000, 4.68629169e+000, 0.,
          1.48813248e+001, 3.38344040e+001, 9.94112587e+000,
          4.82842731e+000, 5.14718652e-001, 9.02241230e+000,
          1.50780935e+001, 6.21320343e+000, 1.15595341e+001,
          2.12675738e+000, 2.12120075e+001, 6.37377882e+000,
          4.14213568e-001, 2.96287370e+000, 1.03712642e+000, 0.,
          4.92893219e+000, 5.38477612e+000, 1.04250879e+001,
          2.61203885e-001, 5.16069889e+000, 4.39276123e+001,
          1.69827557e+001, 2.92893219e+000, 0., 8.02315140e+000,
          5.51656647e+001, 2.19533195e+001, 1.66692886e+001,
          6.18857479e+000, 4.95481186e+001, 1.16234541e+001,
          2.48528147e+000, 1.18841171e+001, 1.45902908e+000, 0.,
          5.92893219e+000, 5.38477612e+000, 8.42508793e+000,
          2.61203885e-001, 1.81272483e+000, 1.59740715e+001,
          7.87005758e+000, 4.96574688e+000, 6.37739897e+000, 0.,
          5.85786462e-001, 4.14213568e-001, 0., 0., 0., 0., 0., 0., 0.,
          8.28427136e-001, 4.51471853e+000, 5.38477612e+000,
          1.28130493e+001, 1.45902908e+000, 0., 5.34314585e+000,
          2.89949489e+000, 9.20187759e+000, 4.15554810e+001, 0., 0., 0.,
          0., 0., 0., 0., 0., 0., 0., 7.75922477e-001, 6.32458258e+000,
          6.62741709e+000, 8.74967003e+000, 5.22407770e-001, 0.,
          3.92893219e+000, 1.53259020e+001, 4.32007942e+001,
          1.35443726e+001, 2.61203885e-001, 2.49615550e+000,
          1.11837664e+001, 5.10782242e+001, 4.29806480e+001, 0., 0.,
          1.40832615e+001, 7.02975998e+001, 6.16191406e+001, 0.,
          6.44365072e+000, 6.21320343e+000, 3.34314585e+000, 0.,
          8.98667336e+000, 4.23442802e+001, 1.53259020e+001,
          3.34314585e+000, 0., 3.94526634e+001, 4.71503639e+001,
          2.15391045e+001, 7.85786438e+000, 0., 3.77256699e+001,
          5.53210106e+001, 2.36101723e+001, 6.82073784e+000,
          5.22407770e-001, 7.99130249e+000, 7.52341604e+000,
          3.31370854e+000, 3.75735927e+000, 4.14213568e-001,
          3.62396507e+001, 6.76035070e+000, 0., 0., 0., 4.01546574e+000,
          1.98453403e+000, 0., 0., 0., 0., 0., 0., 0., 0.,
          1.12574396e+001, 4.74256039e+000, 3.31370854e+000,
          7.68629169e+000, 0., 1.95461330e+001, 3.45386624e+000, 0., 0.,
          0., 0., 0., 0., 0., 0., 0., 0., 0., 0., 0., 0.,
          4.10050488e+000, 7.04163074e+000, 1.03354568e+001,
          5.22407770e-001, 3.30767708e+001, 1.84673843e+001,
          8.69848442e+000, 3.75735927e+000, 0., 3.48622322e+001,
          5.13776731e+000, 1.24264073e+000, 2.37234173e+001,
          6.03394127e+000, 1.68088570e+001, 6.36271667e+000,
          1.24264073e+000, 4.84531546e+000, 2.74047089e+000,
          2.61203885e-001, 1.30108738e+001, 6.62741709e+000,
          8.83930111e+000, 2.61203885e-001, 5.22407770e-001,
          1.44359617e+001, 2.11248913e+001, 3.81188698e+001,
          3.79786849e+000, 1.35083485e+000, 1.49212427e+001,
          1.53259020e+001, 4.73947754e+001, 3.60072441e+001,
          1.44365084e+000, 13., 6.62741709e+000, 1.73169289e+001,
          2.66120033e+001, 2.61203885e-001, 4.08194208e+000,
          5.79898977e+000, 1.31824465e+001, 6.75417423e-001,
          2.73429203e+000, 7.19464016e+000, 4.14213562e+000,
          9.07042694e+000, 4.08585052e+001, 0., 0., 0., 5.42131782e-001,
          3.45786834e+000, 0., 0., 0., 0., 0. ]
      - [ 0., 6.58578634e+000, 1.14142132e+001, 3., 1., 2., 1., 1., 0.,
          2., 0., 9.28175211e-001, 3.84989624e+001, 2.57286358e+000, 0.,
          5.85786462e-001, 0., 0., 0., 0., 0., 0., 0., 0., 0., 0., 0.,
          0., 0., 0., 0., 0., 0., 1.17157292e+000, 4., 0.,
          7.24264050e+000, 2.75735927e+000, 2.41421366e+000,
          4.17157269e+000, 0., 1.21715727e+001, 8.91805840e+000,
          8.68457508e+000, 3.06286068e+001, 1.21829739e+001,
          2.41421366e+000, 1., 0., 3.80925632e+000, 5.11797190e+000,
          1.46922054e+001, 4.32858620e+001, 2.82285442e+001,
          5.08963108e+000, 1., 0., 0., 3.24264073e+000, 1.49468422e+001,
          5.56906128e+001, 4.00852432e+001, 1.88630905e+001,
          3.34314585e+000, 0., 1.41421354e+000, 4.58578634e+000, 5., 5.,
          0., 3., 2., 0., 2.83439960e+001, 9.65406609e+000,
          7.10050488e+000, 1.38994951e+001, 1.58578646e+000, 4.,
          5.77652979e+000, 0., 2.73803387e+001, 1.86008568e+001, 5.,
          7.73600769e+000, 1.10157299e+001, 1.25892277e+001,
          1.47503319e+001, 0., 2.99849968e+001, 1.82202415e+001,
          8.87039852e+000, 2.61469479e+001, 1.24220991e+001,
          1.06122007e+001, 1.02804565e+001, 0., 1.19914122e+001,
          3.96246076e+000, 0., 3., 1., 1., 9.53757703e-001, 0.,
          1.79649792e+001, 5.48265338e-001, 0., 0., 0., 0.,
          7.89763331e-001, 0., 8.10285473e+000, 2.24669337e+000, 0., 0.,
          0., 0., 0., 0., 0., 0., 0., 0., 0., 0., 0., 0.,
          6.70573425e+000, 7.38796115e-001, 2., 1.41421354e+000,
          2.17157292e+000, 2.41421366e+000, 3.76737261e+000, 0.,
          4.05780840e+000, 0., 0., 0., 0., 0., 0., 0., 0., 0., 0., 0.,
          0., 0., 0., 0., 0., 0., 0., 0., 0., 0., 0., 0.,
          3.68269372e+000, 9.67962265e+000, 2.82842708e+000, 3.,
          1.58578646e+000, 3.41421366e+000, 5.85786462e-001, 0.,
          1.73125191e+001, 4.82936144e+000, 6.17157269e+000,
          2.41421366e+000, 0., 2., 7.61886930e+000, 0., 1.43183651e+001,
          3.11921883e+000, 3.80626774e+000, 7.79518783e-001,
          1.58578646e+000, 1.41421354e+000, 4.56174803e+000, 0.,
          9.02810001e+000, 3.28320527e+000, 0., 0., 0., 0.,
          1.13918900e-001, 0., 3.73879623e+000, 6.65685415e+000,
          3.92893219e+000, 4.24264050e+000, 1.17157292e+000,
          2.41421366e+000, 1., 0., 2.13837566e+001, 1.95451756e+001,
          2.94236588e+000, 9.02514935e+000, 3.86091208e+000,
          1.96568546e+001, 6.34314585e+000, 0., 1.74327774e+001,
          2.48830013e+001, 2.54688091e+001, 4.77033539e+001,
          1.45831280e+001, 4.95917702e+000, 6.55554152e+000, 0.,
          3.35779691e+000, 4.38139191e+001, 1.51297207e+001,
          1.96383953e+001, 4.55632305e+000, 4.08963108e+000,
          3.74300146e+000, 0., 4.32458258e+000, 5., 4., 2., 1., 0.,
          1.41421354e+000, 0., 4.58578634e+000, 4.41421366e+000,
          7.52276897e-001, 3.96797600e+001, 7.56796408e+000, 0.,
          2.17157292e+000, 0., 0., 0., 0., 4.52179670e+000,
          4.78203267e-001, 0., 0., 0., 0., 0., 0., 0., 0., 0., 0.,
          4.14213568e-001, 1.52010098e+001, 7.04163074e+000,
          2.34314585e+000, 0., 9.36621308e-001, 9.16388416e+000,
          5.38477612e+000, 9.50384331e+000, 5.01087523e+000, 0., 0., 0.,
          0., 0., 0., 0., 0., 0., 0., 0., 3.51471853e+000,
          6.21320343e+000, 7.27207804e+000, 0., 3.11065292e+000,
          2.58477173e+001, 1.28406200e+001, 1.32747755e+001,
          7.92623472e+000, 1.83373642e+001, 9.59156704e+000,
          1.24264069e+001, 3.32389145e+001, 9.40574551e+000,
          1.57402840e+001, 1.77744350e+001, 1.40832615e+001,
          6.21933212e+001, 9.20869923e+000, 5.22407770e-001,
          7.57809734e+000, 4.97056293e+000, 2.92893219e+000, 0.,
          2.95096850e+000, 3.47231293e+001, 1.94680367e+001,
          9.59666061e+000, 2.61203885e-001, 1.42310991e+001,
          3.59282799e+001, 2.15391045e+001, 3.01919899e+001,
          1.21095257e+001, 2.69170990e+001, 3.46270561e+001,
          1.44974747e+001, 2.32237396e+001, 1.27346296e+001,
          4.24934530e+000, 1.16795874e+001, 2.89949489e+000,
          3.38796115e+000, 7.83611596e-001, 2.04296055e+001,
          1.17419672e+001, 1.24264073e+000, 4.11866140e+000,
          1.46712506e+000, 1.01156206e+001, 2.88437963e+000, 0., 0., 0.,
          0., 0., 0., 0., 0., 6.62828541e+000, 9.88643360e+000,
          4.97056293e+000, 6.83930111e+000, 6.75417423e-001,
          5.46610451e+000, 5.11968184e+000, 4.14213568e-001, 0., 0., 0.,
          0., 0., 0., 0., 0., 0., 0., 0., 0., 1.45902908e+000,
          1.32272625e+001, 4.97056293e+000, 4.34314585e+000, 0.,
          2.32832661e+001, 2.64030247e+001, 5.79898977e+000,
          8.73110676e+000, 7.83611596e-001, 1.72218323e+001,
          1.22928867e+001, 3.72792196e+000, 8.07831860e+000,
          7.67904043e+000, 1.32023735e+001, 4.79762697e+000,
          4.14213568e-001, 5.85786462e-001, 0., 6.75417423e-001,
          1.24250879e+001, 3.72792196e+000, 4.17157269e+000, 0.,
          5.79550600e+000, 3.46775818e+001, 1.53259020e+001,
          2.36158314e+001, 2.58517885e+000, 1.76310501e+001,
          5.72562523e+001, 1.32548342e+001, 2.01784821e+001,
          1.46793833e+001, 5.28195572e+001, 1.37662306e+001,
          1.24264073e+000, 1.38203316e+001, 3.35124183e+000,
          5.22407770e-001, 9.33545685e+000, 5.38477612e+000,
          1.75735927e+000, 0., 0., 1.56152239e+001, 7.04163074e+000,
          7.38318396e+000, 1.19599619e+001, 0., 0., 0., 1.07106781e+000,
          9.28932190e-001, 0., 0., 0., 0., 0., 0., 5.27207804e+000,
          6.21320343e+000, 3.51471853e+000, 0., 0., 2.75735927e+000,
          1.24264073e+000, 4.61365652e+000, 3.73863449e+001, 0., 0., 0.,
          0., 0., 0., 0., 0., 0., 0., 0., 7.51471853e+000,
          4.55634928e+000, 7.92893219e+000, 0., 2.61203885e-001,
          1.56971655e+001, 1.44974747e+001, 2.36326866e+001,
          2.29114685e+001, 6.75417423e-001, 6.08194208e+000,
          8.28427124e+000, 4.12694664e+001, 4.26889038e+001, 0.,
          4.92893219e+000, 1.20121937e+001, 6.01917267e+001,
          5.08671455e+001, 2.61203885e-001, 3.66772842e+000,
          4.97056293e+000, 7.10050488e+000, 0., 5.15854216e+000,
          3.57287598e+001, 1.36690474e+001, 1.81824474e+001,
          2.61203885e-001, 3.30961113e+001, 4.13769760e+001,
          1.57401152e+001, 1.58021746e+001, 3.98462176e+000,
          4.22006493e+001, 2.83435078e+001, 1.98822517e+001,
          3.57706032e+001, 5.80298853e+000, 6.24475098e+000,
          1.46841812e+001, 2.89949489e+000, 2.91036892e+000,
          2.61203885e-001, 4.12239304e+001, 8.36185455e+000,
          4.14213568e-001, 0., 0., 1.27081738e+001, 3.29182649e+000, 0.,
          0., 0., 0., 0., 0., 0., 0., 1.30366335e+001, 8.30651283e+000,
          3.31370854e+000, 4.08194208e+000, 2.61203885e-001,
          1.55532484e+001, 3.44675112e+000, 0., 0., 0., 0., 0., 0., 0.,
          0., 0., 0., 0., 0., 0., 8.09256434e-001, 6.29124880e+000,
          4.97056293e+000, 6.66772842e+000, 2.61203885e-001,
          3.93232918e+001, 2.09487839e+001, 6.62741709e+000,
          7.83930111e+000, 2.61203885e-001, 3.76504478e+001,
          1.03495512e+001, 1.24264073e+000, 4.64916515e+000,
          1.10819423e+000, 1.61925030e+001, 3.80749679e+000, 0., 0., 0.,
          5.22407770e-001, 7.57809734e+000, 6.21320343e+000,
          7.68629169e+000, 0., 5.22407770e-001, 3.40511856e+001,
          1.49116879e+001, 9.41471100e+000, 6.10000801e+000,
          1.72023296e+000, 2.62381363e+001, 1.69827557e+001,
          4.53607559e+001, 4.36981201e+001, 3.87610340e+000,
          1.54670420e+001, 3.31370854e+000, 2.19847851e+001,
          3.63583603e+001, 7.83611596e-001, 9.14532089e+000,
          5.38477612e+000, 4.68629169e+000, 0., 0., 6.92893219e+000,
          2.07106781e+000, 6.29437542e+000, 4.17056236e+001, 0., 0., 0.,
          1.06168544e+000, 3.93831444e+000, 0., 0., 0., 0., 0. ]
      - [ 0., 1., 3., 1.57121611e+001, 8.28783894e+000, 0., 0., 0., 0.,
          0., 0., 1.43828955e+001, 2.75358944e+001, 8.12103003e-002, 0.,
          0., 0., 0., 6.37594032e+000, 8.71880341e+000, 5.90525627e+000,
          0., 0., 0., 0., 0., 0., 6.22629523e-001, 2.37737060e+000, 0.,
          0., 0., 0., 0., 12., 5., 6., 1., 0., 0., 0., 2., 22.,
          2.65185757e+001, 2.51610470e+001, 2.32037735e+000, 0., 0., 0.,
          9.58578682e+000, 1.98762741e+001, 3.56846771e+001,
          4.82783508e+001, 8.79838276e+000, 3.19074368e+000,
          2.98082924e+000, 0., 4.75735950e+000, 1.46568546e+001,
          3.98232765e+001, 9.62110672e+001, 1.03087988e+001,
          1.25038443e+001, 4.32458258e+000, 0., 9., 6., 0., 0., 0., 0.,
          0., 0., 2.20948143e+001, 1.11907434e+001, 0., 0., 0.,
          1.80925643e+000, 1.06419563e+001, 0., 2.00960407e+001,
          7.12389946e+000, 5., 4., 7.68001080e-002, 1.01011744e+001,
          1.76609020e+001, 0., 7.38872194e+000, 6.53347111e+000, 1., 0.,
          1., 1.16194954e+001, 2.93404903e+001, 0., 3., 8., 0., 0., 2.,
          1., 1., 0., 8.41199303e+000, 3.15022111e+000, 0., 1., 0., 2.,
          1.00424414e+001, 0., 1.07428640e-001, 0., 0., 0., 0., 0., 0.,
          0., 0., 0., 0., 0., 0., 0., 0., 0., 6.58578634e+000, 8., 2.,
          0., 0., 2., 0., 0., 3.99839592e+000, 1.22426405e+001,
          4.92893219e+000, 4.14213568e-001, 0., 1., 1.70391903e+001, 0.,
          2.27623582e+000, 1., 0., 0., 0., 0., 6.49947834e+000, 0., 0.,
          0., 0., 0., 0., 0., 0., 0., 4., 11., 4., 4., 0., 0., 0., 0.,
          17., 23., 9., 9., 1., 3., 5.58578634e+000, 0., 1.84706860e+001,
          4.59393921e+001, 2.60314217e+001, 2.10190315e+001,
          1.07836113e+001, 3.49865651e+000, 7.77700043e+000, 0.,
          2.35646191e+001, 4.89926338e+001, 1.79168072e+001,
          9.36966324e+000, 4.89180565e+000, 3.93662143e+000,
          5.13090277e+000, 4.14213568e-001, 3.58578634e+000, 7.,
          8.43116188e+000, 1.04449387e+001, 1.23899341e-001, 0., 0., 0.,
          0., 4., 2.10648308e+001, 3.45209579e+001, 4.14213568e-001, 0.,
          0., 0., 0., 0., 1.29513798e+001, 1.80486202e+001, 0., 0., 0.,
          0., 0., 0., 9.65267718e-001, 4.03473234e+000, 0., 0., 0., 0.,
          1., 7., 6.60239172e+000, 1.33163977e+001, 8.12103003e-002, 0.,
          0., 0., 0., 0., 1.23381996e+000, 8.76618004e+000, 0., 0., 0.,
          0., 0., 0., 0., 0., 0., 0., 0., 0., 0., 0., 0., 0., 0., 0., 0.,
          5.86960888e+000, 1.20887604e+001, 7.04163074e+000, 0., 0.,
          2.15498505e+001, 9.62172318e+000, 1.24264073e+000,
          5.85786462e-001, 0., 1.41114788e+001, 3.88852119e+000, 0., 0.,
          0., 8.09256434e-001, 1.90743566e-001, 0., 0., 0., 0.,
          1.03725834e+001, 7.04163074e+000, 5.85786462e-001, 0.,
          6.05355930e+000, 3.14784031e+001, 2.07106781e+001,
          1.75735927e+000, 0., 1.63385220e+001, 4.58797340e+001,
          2.77523079e+001, 1.26786022e+001, 1.35083485e+000,
          1.07451153e+001, 5.74731369e+001, 3.27228699e+001,
          2.98162346e+001, 2.24264073e+000, 0., 9.20100975e+000,
          5.79898977e+000, 0., 0., 2.66588736e+000, 2.06650658e+001,
          1.90538235e+001, 1.11672697e+001, 1.44795430e+000,
          6.26655054e+000, 3.41354713e+001, 1.49116879e+001,
          1.15419006e+001, 2.31443901e+001, 7.40011549e+000,
          8.87196255e+000, 1.03553391e+001, 3.02013416e+001,
          2.01712418e+001, 0., 6.44365072e+000, 6.21320343e+000,
          2.34314585e+000, 0., 9.09396935e+000, 8.00653553e+000,
          4.14213562e+000, 1.15916557e+001, 1.71657047e+001,
          4.14213568e-001, 5.85786462e-001, 0., 0., 0., 0., 0., 0., 0.,
          0., 0., 1.07867966e+001, 7.04163074e+000, 1.17157292e+000, 0.,
          2.61203885e-001, 1.76971664e+001, 1.03553391e+001,
          1.76414642e+001, 2.00448284e+001, 2.84247565e+000,
          4.74331093e+000, 4.14213568e-001, 6.37898445e+000,
          9.62101555e+000, 0., 0., 0., 0., 0., 0., 1.27867966e+001,
          6.21320343e+000, 0., 0., 0., 2.95319633e+001, 2.36101723e+001,
          5.85786438e+000, 0., 1.61191292e+001, 7.04544678e+001,
          1.78111839e+001, 1.75533600e+001, 9.06186390e+000,
          7.38494110e+001, 2.69079456e+001, 3.31370854e+000,
          1.24165621e+001, 6.51237011e+000, 1.31018150e+000,
          1.18197613e+001, 8.28427124e+000, 5.85786462e-001, 0.,
          2.48467598e+001, 1.64253178e+001, 4.14213562e+000,
          5.85786462e-001, 0., 1.89148293e+001, 6.08517075e+000, 0., 0.,
          0., 1.20967638e+000, 7.90323615e-001, 0., 0., 0.,
          9.03343773e+000, 1.12386398e+001, 4.14213562e+000,
          5.85786462e-001, 0., 2.33961868e+000, 1.66038132e+000, 0., 0.,
          0., 0., 0., 0., 0., 0., 0., 0., 0., 0., 0., 0.,
          5.85786462e-001, 5.79898977e+000, 9.89203262e+000,
          8.72319126e+000, 0., 0., 4.14213568e-001, 6.53639317e+000,
          3.50493927e+001, 0., 0., 0., 4.06535244e+000, 1.39346476e+001,
          0., 0., 0., 7.81451464e-001, 2.21854854e+000, 0.,
          1.17157292e+000, 5.79898977e+000, 7.02943707e+000, 0., 0.,
          2.34314585e+000, 1.69827557e+001, 2.89896889e+001,
          9.68441010e+000, 4.14213568e-001, 1.37157288e+001,
          2.15391045e+001, 5.90019341e+001, 2.73290195e+001, 0.,
          1.45441561e+001, 2.11248913e+001, 7.56599274e+001,
          5.86710243e+001, 0., 8.20100975e+000, 5.79898977e+000, 0., 0.,
          9.33383656e+000, 4.46539688e+001, 1.20121937e+001, 0., 0.,
          5.09105949e+001, 4.42193489e+001, 1.20121937e+001,
          6.85786438e+000, 0., 4.43428154e+001, 3.96155548e+001,
          8.28427124e+000, 1.75735927e+000, 0., 0., 3.51471853e+000,
          3.31370854e+000, 1.17157292e+000, 0., 4.31329269e+001,
          1.18670750e+001, 4.14213568e-001, 5.85786462e-001, 0.,
          3.42359591e+000, 5.76404095e-001, 0., 0., 0., 0., 0., 0., 0.,
          0., 0., 9.61522388e+000, 6.21320343e+000, 1.17157292e+000, 0.,
          3.84483528e+001, 1.92379398e+001, 5.79898977e+000,
          4.51471853e+000, 0., 2.58698654e+001, 6.30170679e+000,
          8.28427136e-001, 0., 0., 0., 0., 0., 0., 0., 0.,
          3.51471853e+000, 5.79898977e+000, 4.68629169e+000, 0., 0.,
          2.13309517e+001, 2.11248913e+001, 1.15441561e+001, 0.,
          1.75550823e+001, 2.61900845e+001, 2.36101723e+001,
          4.60438538e+001, 1.06008062e+001, 4.66552658e+001,
          1.91020927e+001, 7.04163074e+000, 2.48746071e+001,
          1.83264027e+001, 0., 2.75735927e+000, 6.62741709e+000,
          1.08751345e+001, 2.74008942e+000, 0., 1.17157292e+000,
          4.97056293e+000, 1.36292887e+001, 3.82285767e+001, 0., 0., 0.,
          5.28194475e+000, 2.57180557e+001, 0., 0., 0., 1.70330584e+000,
          3.29669428e+000, 0., 1.17157292e+000, 1.65685427e+000,
          3.46394539e+000, 1.57076273e+001, 0., 0., 0., 2.20215869e+000,
          7.79784107e+000, 0., 0., 0., 0., 0., 0., 0., 0., 0., 0. ]
      - [ 0., 1., 3., 1.33874378e+001, 1.00844297e+001, 5.28132439e-001,
          0., 0., 0., 0., 0., 1.35854321e+001, 2.92559204e+001,
          1.58647031e-001, 0., 0., 0., 2.75062770e-002, 7.96185875e+000,
          3.97087216e+000, 8.98518944e+000, 5.45728914e-002, 0., 0., 0.,
          0., 0., 3.20377231e-001, 1.67962277e+000, 0., 0., 0., 0., 1.,
          9., 8., 7., 0., 0., 0., 0., 2., 2.04142132e+001,
          2.16298046e+001, 2.93026466e+001, 6.53334737e-001, 0., 0., 0.,
          1.62614880e+001, 2.09826355e+001, 4.29166412e+001,
          4.93226547e+001, 5.10236931e+000, 8.28427136e-001,
          5.85786462e-001, 0., 9., 1.24142132e+001, 4.74662056e+001,
          8.72442551e+001, 1.19691591e+001, 7.90616369e+000, 7., 0., 6.,
          11., 0., 0., 0., 0., 0., 0., 1.59953413e+001, 10., 0., 0., 0.,
          2., 1.48407240e+001, 0., 2.75921021e+001, 8.84759808e+000,
          4.75735950e+000, 0., 4.70598340e-001, 5.41975641e+000,
          2.45411949e+001, 0., 1.17318916e+001, 1.53017926e+000, 1., 1.,
          5.85786462e-001, 6.82383108e+000, 4.04951286e+001, 0., 2., 4.,
          0., 0., 0., 1., 0., 0., 5.92371988e+000, 1., 0., 0., 0., 0.,
          1.26464806e+001, 0., 3.41474891e-001, 0., 0., 0., 0., 0., 0.,
          0., 0., 0., 0., 0., 0., 0., 0., 0., 3., 12., 4., 0., 0., 0.,
          0., 0., 5.51404572e+000, 14., 1., 0., 1., 0., 1.45497494e+001,
          0., 3.42698306e-001, 0., 1., 0., 0., 0., 6.85672998e+000, 0.,
          0., 0., 0., 0., 0., 0., 0., 0., 3., 9.82842731e+000,
          9.17157269e+000, 0., 0., 0., 0., 0., 5.58578634e+000,
          2.62426414e+001, 1.23431454e+001, 7.82842731e+000, 3., 1., 5.,
          0., 2.53824177e+001, 5.24761124e+001, 3.00521984e+001,
          1.73240623e+001, 4.76447916e+000, 4.14213568e-001,
          6.72918320e+000, 0., 1.88078899e+001, 5.13428307e+001,
          1.55167398e+001, 1.38204041e+001, 6.17157269e+000,
          5.41421366e+000, 2.36091185e+000, 0., 2., 7., 1.48607283e+001,
          4.13927174e+000, 0., 0., 0., 0., 0., 1.50221109e-001,
          1.77681904e+001, 4.00254860e+001, 5.61037622e-002, 0., 0., 0.,
          0., 0., 1.19813232e+001, 1.79009056e+001, 1.17770575e-001, 0.,
          0., 0., 0., 0., 4.14213568e-001, 2.58578634e+000, 0., 0., 0.,
          0., 1., 5., 1.25412493e+001, 9.34483147e+000, 1.13918900e-001,
          0., 0., 0., 0., 0., 2.45316672e+000, 6.54683304e+000, 0., 0.,
          0., 0., 0., 0., 0., 0., 0., 0., 0., 0., 0., 0., 0., 0., 0., 0.,
          0., 4.73589849e+000, 1.10508986e+001, 7.04163074e+000,
          1.17157292e+000, 0., 2.21229191e+001, 8.46286869e+000,
          4.14213568e-001, 1., 0., 1.13833399e+001, 3.61666012e+000, 0.,
          1., 0., 4.14213568e-001, 5.85786462e-001, 0., 0., 0., 0.,
          1.09583693e+001, 7.04163074e+000, 0., 0., 5.14929247e+000,
          2.85248051e+001, 1.57401152e+001, 1.58578646e+000, 0.,
          1.56451521e+001, 5.59162483e+001, 2.60954552e+001,
          7.66772842e+000, 1.67541742e+000, 1.99704189e+001,
          6.39341278e+001, 3.47939377e+001, 2.19660587e+001,
          3.33545661e+000, 0., 9.95836926e+000, 7.04163074e+000, 0., 0.,
          3.17398739e+000, 1.68848877e+001, 1.78111839e+001,
          1.64545250e+001, 6.75417423e-001, 9.66397762e+000,
          3.10811882e+001, 1.61543293e+001, 1.33561516e+001,
          2.77443523e+001, 1.04037275e+001, 6.52520418e+000,
          9.94112587e+000, 3.04149132e+001, 2.87150288e+001, 0.,
          3.51471853e+000, 2.89949489e+000, 5.85786462e-001, 0.,
          7.89424753e+000, 4.86311197e+000, 4.14213562e+000,
          1.04181890e+001, 1.76823158e+001, 7.60878861e-001,
          2.39121154e-001, 0., 0., 0., 0., 0., 0., 0., 0., 0.,
          1.11299419e+001, 7.87005758e+000, 0., 0., 4.14213568e-001,
          1.73725834e+001, 9.11269855e+000, 1.47599869e+001,
          1.93405170e+001, 2.61203885e-001, 3.49615550e+000,
          1.24264073e+000, 5.65072107e+000, 1.23492794e+001, 0., 0., 0.,
          0., 0., 0., 1.41299419e+001, 7.87005758e+000, 0., 0., 0.,
          2.92598839e+001, 1.94680367e+001, 5.27207804e+000, 0.,
          1.01318569e+001, 8.73290405e+001, 2.56812401e+001,
          1.15017862e+001, 8.35607815e+000, 7.08915787e+001,
          2.88657780e+001, 2.48528147e+000, 1.53880148e+001,
          5.36934423e+000, 4.50203037e+000, 1.46279125e+001,
          7.87005758e+000, 0., 0., 2.03802986e+001, 1.21344194e+001,
          3.31370854e+000, 1.17157292e+000, 0., 1.53417845e+001,
          6.65821552e+000, 4.14213568e-001, 1.32458258e+000,
          2.61203885e-001, 5.14718652e-001, 4.85281378e-001, 0., 0., 0.,
          1.26995115e+001, 9.15835285e+000, 4.55634928e+000,
          5.85786462e-001, 0., 3.16266870e+000, 1.83733130e+000, 0., 0.,
          0., 0., 0., 0., 0., 0., 0., 0., 0., 0., 0., 0.,
          1.17157292e+000, 6.62741709e+000, 1.04796848e+001,
          7.72132540e+000, 0., 1., 4.14213568e-001, 7.08856487e+000,
          3.54972229e+001, 0., 5.85786462e-001, 4.14213568e-001,
          3.77250242e+000, 1.22274981e+001, 0., 0., 0., 7.53860772e-001,
          1.24613917e+000, 0., 5.85786462e-001, 5.79898977e+000,
          9.61522388e+000, 0., 0., 2.17157292e+000, 1.69827557e+001,
          2.74089031e+001, 8.43676853e+000, 2.61203885e-001,
          1.50403109e+001, 2.48528137e+001, 5.80215950e+001,
          2.68240757e+001, 0., 1.48873014e+001, 2.52670269e+001,
          7.52563705e+001, 5.65893021e+001, 0., 5.27207804e+000,
          3.72792196e+000, 0., 0., 9.56995869e+000, 4.56604881e+001,
          1.07695522e+001, 0., 0., 5.24097137e+001, 4.97496643e+001,
          1.53259020e+001, 5.10050488e+000, 4.14213568e-001,
          4.85688133e+001, 4.82179832e+001, 7.45584393e+000,
          1.75735927e+000, 0., 0., 3.51471853e+000, 2.48528147e+000, 0.,
          0., 4.26034927e+001, 1.21538658e+001, 1.24264073e+000, 0., 0.,
          2.94741964e+000, 1.05258024e+000, 0., 0., 0., 0., 0., 0., 0.,
          0., 0., 1.75735927e+000, 2.89949489e+000, 2.34314585e+000, 0.,
          3.67761345e+001, 2.04248734e+001, 6.62741709e+000,
          1.17157292e+000, 0., 2.89207878e+001, 5.07921219e+000,
          4.14213568e-001, 5.85786462e-001, 0., 5.14718652e-001,
          4.85281378e-001, 0., 0., 0., 0., 1.75735927e+000,
          4.97056293e+000, 6.27207804e+000, 0., 0., 1.05441561e+001,
          1.61543293e+001, 1.53015156e+001, 0., 1.60667801e+001,
          2.89210262e+001, 2.31959591e+001, 3.92344284e+001,
          1.15818033e+001, 4.92512054e+001, 1.99203682e+001,
          5.38477612e+000, 2.16123943e+001, 1.68312569e+001, 0.,
          1.17157292e+000, 5.38477612e+000, 8.35084248e+000,
          6.09280872e+000, 0., 0., 3.72792196e+000, 1.45392752e+001,
          3.97328033e+001, 0., 0., 0., 4.75985050e+000, 2.52401485e+001,
          0., 0., 0., 1.00360048e+000, 1.99639952e+000, 0.,
          1.75735927e+000, 2.89949489e+000, 4.93978548e+000,
          1.54033604e+001, 0., 0., 0., 2.38805246e+000, 6.61194754e+000,
          0., 0., 0., 0., 0., 0., 0., 0., 0., 0. ]
      - [ 0., 6.38375616e+000, 8.41421318e+000, 5., 4., 0., 0., 1., 0.,
          2.17157292e+000, 1., 9.42236960e-001, 3.60893059e+001,
          1.09684582e+001, 1., 0., 0., 0., 0., 0., 0., 0., 0., 0., 0.,
          0., 0., 0., 0., 0., 0., 0., 0., 9.66772842e+000,
          5.41421366e+000, 0., 0., 1., 0., 1., 0., 1.58578646e+000, 8.,
          4.71206713e+000, 4.11086769e+001, 1.31792545e+001, 4., 3., 0.,
          0., 4., 1.58145103e+001, 6.38778229e+001, 3.16322479e+001,
          8.08963108e+000, 1.58578646e+000, 0., 2., 0., 3.12861080e+001,
          7.44440613e+001, 2.14414024e+001, 6.65685415e+000,
          1.59289322e+001, 0., 8.40652466e+000, 1.74219036e+001,
          4.17157269e+000, 0., 0., 0., 0., 0., 10., 25., 10., 7., 0., 1.,
          3.61757302e+000, 0., 2.20481202e-001, 0., 0., 1., 1.,
          1.58329706e+001, 5.78491669e+001, 0., 0., 0., 0., 0., 0.,
          2.61203885e-001, 2.16858749e+001, 0., 0., 6.65685415e+000,
          2.01005058e+001, 3.24264073e+000, 0., 0., 0., 0.,
          4.65604639e+000, 1.21502209e+001, 6., 8., 0., 4.67541742e+000,
          2.30345688e+001, 0., 0., 0., 0., 0., 0., 0., 1.96879921e+001,
          0., 0., 0., 0., 0., 0., 0., 0., 0., 0., 2.41421366e+000,
          1.39289322e+001, 8.07106781e+000, 1.58578646e+000, 1., 0., 0.,
          2.03184152e+000, 2.62918282e+001, 2.68293400e+001,
          1.72612038e+001, 7.17157269e+000, 7.41421366e+000, 1., 0.,
          7.14507627e+000, 8.49881554e+000, 1.15754881e+001,
          1.47630043e+001, 1.20124693e+001, 1.20772629e+001,
          3.87483025e+001, 0., 7.85717249e+000, 2.59182453e+000, 0., 0.,
          0., 0., 1.59480977e+000, 0., 5.28662109e+000, 1.14840536e+001,
          1.22932589e+000, 1., 0., 4., 2., 0., 1.82986259e+000,
          1.61049881e+001, 6.51497915e-002, 0., 0., 0., 0.,
          6.38697922e-001, 0., 0., 0., 1.53254595e+001, 6.67454052e+000,
          0., 3.61302108e-001, 0., 1.26544294e+001, 9.25234222e+000,
          3.60691023e+000, 6.74942493e+000, 1.69911146e+000, 0.,
          9.30223688e-002, 0., 5.35452700e+000, 9.05968666e+000,
          4.17157269e+000, 2.41421366e+000, 5.85786462e-001,
          2.41421366e+000, 3., 0., 3.07241650e+001, 8.15909481e+000,
          1.10542655e+000, 8.94573510e-001, 0., 0., 2.78220916e+000, 0.,
          2.27405186e+001, 1.69578094e+001, 6.28555536e+000,
          2.25957737e+001, 3.92406392e+000, 7.36007571e-001,
          3.91644049e+000, 0., 0., 2.15022111e+000, 8.49778891e-001, 1.,
          0., 0., 0., 0., 1.10997839e+001, 8.17157269e+000, 2., 1., 0.,
          0., 0., 0., 7.08194208e+000, 4.26120377e+000, 3.16319561e+000,
          3.76388474e+001, 8.19795609e+000, 0., 2., 0., 0., 0.,
          9.08691958e-002, 1.06879120e+001, 1.22121894e+000, 0., 0., 0.,
          0., 0., 0., 0., 0., 0., 0., 0., 1.45441561e+001,
          7.87005758e+000, 5.85786462e-001, 0., 2.61203885e-001,
          9.83930111e+000, 6.21320343e+000, 1.17011185e+001,
          1.19851732e+001, 0., 0., 0., 0., 0., 0., 0., 0., 0., 0.,
          5.22407770e-001, 1.29212427e+001, 5.38477612e+000,
          1.17157292e+000, 0., 2.61203885e-001, 1.46971655e+001,
          1.73969688e+001, 1.66446609e+001, 0., 1.74300995e+001,
          1.38419790e+001, 2.23675327e+001, 3.28379822e+001,
          5.22407770e-001, 2.09298153e+001, 2.69574871e+001,
          2.85807362e+001, 3.55319633e+001, 0., 5.22407770e-001,
          2.32643890e+001, 6.21320343e+000, 0., 0., 0., 2.76030312e+001,
          1.86396103e+001, 2.70627213e+000, 2.05108738e+000, 0.,
          5.85786462e-001, 9.52691174e+000, 4.09804993e+001,
          4.29068031e+001, 0., 0., 2.48528147e+000, 1.81181412e+001,
          2.23965759e+001, 2.61203885e-001, 2.06971664e+001,
          7.04163074e+000, 0., 0., 5.14718652e-001, 1.47867966e+001,
          1.57401152e+001, 1.96681767e+001, 1.22901917e+001, 0., 0., 0.,
          9.31354332e+000, 2.36864567e+001, 0., 0., 0., 0., 0., 0.,
          1.26152239e+001, 6.62741709e+000, 1.75735927e+000, 0.,
          2.61076984e+001, 2.30222454e+001, 1.32548342e+001,
          1.06152239e+001, 0., 2.38495827e+001, 1.03219910e+001,
          8.28427124e+000, 4.32537308e+001, 4.32904243e+001,
          9.82832527e+000, 3.17167449e+000, 4.14213568e-001,
          2.11225128e+000, 3.47353506e+000, 1.18082657e+001,
          4.53487968e+000, 3.72792196e+000, 3.92893219e+000, 0.,
          1.49957190e+001, 3.00428128e+000, 0., 0., 0., 0., 0.,
          4.14213568e-001, 5.28825378e+000, 1.12975330e+001,
          2.37095280e+001, 7.29047203e+000, 8.28427136e-001,
          1.63912177e+000, 2.53245115e+000, 5.69466114e+000,
          1.04058437e+001, 4.55634928e+000, 5.34314585e+000, 0.,
          2.59718323e+001, 2.08860321e+001, 4.97056293e+000,
          4.99648046e+000, 2.17509246e+000, 3.54333153e+001,
          1.96671886e+001, 5.38477612e+000, 1.09122791e+001,
          6.60243893e+000, 1.66772830e+000, 1.33227170e+000, 0., 0., 0.,
          1.04481554e+000, 1.85704079e+001, 5.38477612e+000, 0., 0.,
          1.03712642e+000, 1.75070286e+001, 9.52691174e+000,
          1.00556946e+001, 1.08732376e+001, 0., 1.58578646e+000,
          4.14213568e-001, 1.07810378e+000, 1.92189622e+000, 0., 0., 0.,
          0., 0., 1.45902908e+000, 8.46990299e+000, 5.79898977e+000,
          5.27207804e+000, 0., 0., 3.58578634e+000, 1.65685427e+000,
          8.97708607e+000, 3.77802734e+001, 0., 0., 0., 0., 0., 0., 0.,
          0., 0., 0., 1.45902908e+000, 1.55704079e+001, 5.38477612e+000,
          5.85786462e-001, 0., 0., 5.10050488e+000, 1.65685425e+001,
          2.95366383e+001, 1.57943144e+001, 0., 1.75735927e+000,
          1.57401152e+001, 6.29923019e+001, 3.45102234e+001, 0.,
          1.71299419e+001, 1.73969688e+001, 7.69254227e+001,
          4.15476646e+001, 0., 7.27207804e+000, 5.79898977e+000,
          2.92893219e+000, 0., 2.83513308e+000, 1.52948093e+001,
          1.49116879e+001, 9.95836926e+000, 0., 5.13081436e+001,
          3.15791588e+001, 9.94112587e+000, 1.17157292e+000, 0.,
          3.52889023e+001, 1.48826694e+001, 8.28427136e-001, 0., 0., 0.,
          0., 8.69848442e+000, 1.73015156e+001, 0., 1.87197132e+001,
          2.32386570e+001, 1.24264069e+001, 8.61522388e+000, 0.,
          3.22414436e+001, 7.75855494e+000, 0., 0., 0., 0., 0., 0., 0.,
          0., 0., 1.17157292e+000, 6.21320343e+000, 1.86152229e+001, 0.,
          2.61203885e-001, 3.66772842e+000, 1.53259020e+001,
          3.68941460e+001, 1.58510218e+001, 5.99817734e+001,
          2.24618759e+001, 6.62741709e+000, 1.33562555e+001,
          2.85726776e+001, 2.06862373e+001, 5.31376219e+000, 0., 0., 0.,
          4.96428204e+000, 8.89358234e+000, 5.79898977e+000,
          2.34314585e+000, 0., 2.73879623e+000, 2.26120377e+000,
          8.28427136e-001, 1.17157292e+000, 0., 8.70424628e-001,
          1.29575402e-001, 0., 3.29426718e+000, 1.87057323e+001,
          1.78334827e+001, 4.16651630e+000, 0., 3.09533405e+000,
          1.09046659e+001, 2.80160141e+000, 9.71311665e+000,
          5.38477612e+000, 6.10050488e+000, 0., 3.66693115e+001,
          2.66738338e+001, 2.07106781e+000, 7.90323615e-001,
          7.95462847e-001, 2.75517712e+001, 1.72055874e+001,
          2.48528147e+000, 6.20972967e+000, 2.85476303e+001, 0., 0., 0.,
          1.07106781e+000, 9.28932190e-001, 2.13444638e+000,
          1.38949909e+001, 6.21320343e+000, 1.75735927e+000, 0.,
          5.22407770e-001, 1.35780973e+001, 4.14213562e+000,
          8.61760044e+000, 3.91397591e+001, 0., 0., 0., 1.98016989e+000,
          1.00198298e+001, 0., 0., 0., 0., 0. ]
      - [ 0., 8.58578682e+000, 1.18284273e+001, 5.58578634e+000, 2., 0.,
          0., 0., 0., 1.15857868e+001, 3.80710678e+001, 1.93431454e+001,
          4., 0., 1., 0., 0., 1.84023190e+001, 5.18707809e+001,
          4.52230568e+001, 2.04261074e+001, 6.24930954e+000, 1.,
          2.49195004e+000, 0., 3.19864540e+001, 1.01553993e+002,
          5.06945076e+001, 1.37125435e+001, 5.22407770e+000,
          1.82842708e+000, 2., 0., 7.92893219e+000, 1.80710678e+001, 0.,
          0., 0., 0., 0., 0., 1.84436512e+001, 4.54852829e+001,
          1.14142132e+001, 2., 0., 0., 0., 0., 2.87867966e+001,
          6.18700562e+001, 2.26862907e+001, 7.82842731e+000, 2., 0., 3.,
          0., 3.57867966e+001, 6.78994980e+001, 1.65147190e+001,
          1.90710678e+001, 6.75735950e+000, 8.82842731e+000, 3., 0.,
          2.75735927e+000, 2.10710678e+001, 6.17157269e+000, 0., 0., 0.,
          0., 0., 1.27573595e+001, 3.99705620e+001, 2.28578644e+001,
          1.41421354e+000, 1., 7., 3., 0., 2.09289322e+001,
          4.41421356e+001, 3.72720795e+001, 1.22426405e+001, 1., 2., 3.,
          0., 1.89289322e+001, 6.88216782e+001, 4.95468979e+001,
          2.85671444e+001, 7.13534784e+000, 13., 0., 0., 2.,
          1.54142132e+001, 7.17157269e+000, 4.14213568e-001, 0., 0., 0.,
          0., 5.75735950e+000, 4.65563507e+001, 2.44436512e+001,
          2.24264073e+000, 0., 1., 0., 0., 1.69289322e+001,
          4.77583809e+001, 4.76211700e+001, 1.91057301e+001,
          2.17157292e+000, 1., 0., 0., 9.23074627e+000, 6.02605629e+001,
          9.85926971e+001, 3.85017776e+001, 1.17157292e+000,
          2.82842708e+000, 5.85786462e-001, 0., 8.07773685e+000,
          1.51649046e+001, 6.75735950e+000, 1., 0., 0., 0., 0.,
          9.77345943e+000, 4.66307983e+001, 3.01815300e+001, 5., 1., 0.,
          0., 8.28427136e-001, 1.10777369e+001, 4.86664810e+001,
          6.31805115e+001, 2.46610603e+001, 3.17157292e+000,
          1.41421354e+000, 0., 0., 1.17573595e+001, 7.82097168e+001,
          7.87705002e+001, 1.92624187e+001, 3.34314585e+000,
          5.82842731e+000, 1., 0., 1.43431454e+001, 1., 0., 0., 0., 0.,
          0., 0., 3.67157288e+001, 2.41421366e+000, 0., 0., 0.,
          2.61203885e-001, 6.91036892e+000, 0., 2.39384632e+001,
          2.01663208e+001, 2.90616369e+000, 5., 1.17157292e+000,
          1.28284273e+001, 7.66002464e+000, 0., 3.58578634e+000,
          7.41421366e+000, 0., 0., 0., 8.03668976e+000, 3.77704391e+001,
          0., 5., 3., 0., 1., 0., 0., 4., 0., 6., 1., 0., 1., 0.,
          9.43706226e+000, 4.69458923e+001, 0., 2.61203885e-001, 0., 0.,
          0., 1., 9.45194721e+000, 8.51492157e+001, 0., 11., 5., 3., 5.,
          2., 1.58284273e+001, 5.86203384e+001, 0., 3., 6., 2., 0., 0.,
          0., 2., 0., 7., 8., 5.58578634e+000, 4.82842731e+000,
          6.17157269e+000, 1.73337154e+001, 1.42520714e+001, 0.,
          1.41421354e+000, 3.68208623e+000, 5.90370035e+000,
          2.31901360e+001, 1.85069160e+001, 6.56684647e+001,
          3.19590645e+001, 0., 1.31524019e+001, 1.33229218e+001,
          1.84465122e+001, 2.79259357e+001, 3.98807068e+001,
          3.87796860e+001, 1.63083706e+001, 0., 1.73015156e+001,
          8.69848442e+000, 0., 0., 2.08963108e+000, 5.15844688e+001,
          1.57401152e+001, 5.85786462e-001, 0., 8.81795979e+000,
          9.41992874e+001, 2.27817459e+001, 9.20100975e+000, 0.,
          2.63334923e+001, 1.37884766e+002, 2.48528137e+001,
          9.25351429e+000, 6.75417423e-001, 2.61203885e-001,
          1.91113796e+001, 6.62741709e+000, 0., 0., 1.30601943e+000,
          5.74685822e+001, 1.82253971e+001, 0., 0., 5.22407770e-001,
          8.56542130e+001, 3.18944435e+001, 2.92893219e+000, 0.,
          1.56722319e+000, 8.46682739e+001, 4.68061333e+001,
          1.19583693e+001, 0., 1.04481554e+000, 2.52272625e+001,
          3.72792196e+000, 0., 0., 2.61203885e-001, 5.83418274e+001,
          2.19533195e+001, 6.44365072e+000, 0., 1.04481554e+000,
          7.06465302e+001, 3.47939377e+001, 3.51471853e+000, 0.,
          1.33838634e+001, 9.92364120e+001, 4.39066391e+001,
          1.34730883e+001, 0., 0., 1.71299419e+001, 7.87005758e+000, 0.,
          0., 2.87324262e+000, 6.12150688e+001, 1.53259020e+001,
          5.85786462e-001, 0., 2.39565039e+000, 8.31241226e+001,
          3.31370850e+001, 2.34314585e+000, 0., 1.94807777e+001,
          1.35352707e+002, 2.94091625e+001, 3.75735927e+000, 0.,
          1.19782519e+000, 2.38316116e+001, 4.97056293e+000, 0., 0.,
          9.33545685e+000, 6.64807739e+001, 1.15979795e+001,
          5.85786462e-001, 0., 1.22272625e+001, 1.00990990e+002,
          2.48528137e+001, 3.92893219e+000, 0., 1.04852810e+001,
          1.36933975e+002, 3.23086586e+001, 7.27207804e+000, 0., 0.,
          1.03725834e+001, 6.62741709e+000, 0., 0., 0., 3.06030312e+001,
          2.07106781e+001, 7.42508745e+000, 2.61203885e-001,
          5.08194208e+000, 4.32490120e+001, 2.02964649e+001,
          1.79212437e+001, 1.45133996e+000, 0., 9.10050488e+000,
          7.87005758e+000, 3.44666100e+001, 1.75628281e+001, 0.,
          4.68629169e+000, 4.97056293e+000, 2.34314585e+000, 0., 0.,
          4.10050488e+000, 1.24264069e+001, 4.57157288e+001,
          7.75735950e+000, 0., 5.85786462e-001, 2.98233757e+001,
          8.94115753e+001, 3.17926192e+000, 0., 1.11299419e+001,
          4.30782089e+001, 5.99634209e+001, 8.28427136e-001, 0.,
          6.44365072e+000, 5.38477612e+000, 1.17157292e+000, 0., 0.,
          1.23015156e+001, 1.69827557e+001, 2.48578644e+001,
          5.85786438e+000, 2.32776761e+000, 8.01537800e+000,
          1.32548342e+001, 7.50366058e+001, 3.53654175e+001,
          5.68310642e+000, 3.59615555e+001, 2.36101723e+001,
          6.14963417e+001, 2.92488251e+001, 0., 7.02943707e+000,
          8.28427124e+000, 4.68629169e+000, 0., 0., 9.37258339e+000,
          1.78111839e+001, 1.58162336e+001, 0., 6.75417423e-001,
          2.22118835e+001, 3.31370850e+001, 6.57329712e+001,
          2.24264073e+000, 2.61203885e-001, 3.75134010e+001,
          3.97645035e+001, 6.43418274e+001, 4.11906815e+000, 0.,
          6.44365072e+000, 4.55634928e+000, 0., 0., 0., 2.08162346e+001,
          1.65685425e+001, 8.61522388e+000, 0., 2.61203885e-001,
          3.12707596e+001, 3.31370850e+001, 2.13309517e+001, 0., 0.,
          4.55319633e+001, 3.60365791e+001, 2.84314575e+001, 0., 0.,
          2.34314585e+000, 4.97056293e+000, 5.68629169e+000, 0., 0.,
          1.11299419e+001, 1.82253971e+001, 1.96446609e+001, 0., 0.,
          2.82598839e+001, 3.56223679e+001, 3.41177483e+001, 0., 0.,
          1.23015156e+001, 2.52670269e+001, 6.13990593e+001,
          1.70324001e+001, 0., 1.17157292e+000, 3.72792196e+000,
          5.10050488e+000, 0., 0., 7.61522388e+000, 1.86396103e+001,
          2.34839630e+001, 2.61203885e-001, 0., 1.27157288e+001,
          3.23086586e+001, 5.06247787e+001, 1.35083485e+000,
          2.61203885e-001, 1.17682333e+001, 3.68650055e+001,
          1.13706718e+002, 1.33988352e+001, 0., 6.27207804e+000,
          7.87005758e+000, 5.85786438e+000, 0., 0., 1.32010098e+001,
          2.11248913e+001, 3.01516895e+001, 5.22407770e-001, 0.,
          1.16152239e+001, 2.44386005e+001, 8.10466843e+001,
          5.89949512e+000, 0., 1.45441561e+001, 4.01787148e+001,
          8.62508774e+001, 4.02625227e+000, 0., 1.65441551e+001,
          7.45584393e+000, 0., 0., 3.13444638e+000, 7.46107178e+001,
          1.32548342e+001, 0., 0., 1.66238823e+001, 4.69202728e+001,
          1.07695522e+001, 7.42508745e+000, 2.61203885e-001,
          2.74543438e+001, 4.52319489e+001, 3.31370854e+000, 0., 0., 0.,
          1.07867966e+001, 6.62741709e+000, 5.85786462e-001, 0.,
          7.66454315e+000, 6.39090500e+001, 1.28406200e+001,
          5.85786462e-001, 0., 2.27126274e+001, 1.05819336e+002,
          1.98822517e+001, 5.85786462e-001, 0., 7.28508472e+000,
          1.10849907e+002, 4.10071411e+001, 5.85786438e+000, 0., 0.,
          4.68629169e+000, 4.14213562e+000, 1.17157292e+000, 0., 0.,
          2.98456707e+001, 2.19533195e+001, 1.12010098e+001, 0.,
          1.56722319e+000, 5.00358086e+001, 2.44386005e+001,
          4.18578644e+001, 6.10050488e+000, 3.07106781e+000,
          3.95735931e+001, 2.48528137e+001, 6.32968254e+001,
          2.52057018e+001 ]
      - [ 0., 3., 9., 2., 1., 0., 1., 1., 0., 2., 13., 8., 10., 1., 2.,
          0., 0., 6., 26., 18., 23., 5., 9., 3., 0., 1.81930122e+001,
          2.75224075e+001, 12., 2.86568546e+001, 2.55147190e+001,
          1.48284273e+001, 8., 0., 6., 5., 0., 4., 2., 0., 0., 0., 6.,
          11., 14., 11., 1., 2., 1., 0., 4., 11., 10., 31., 2., 0., 1.,
          0., 1.32458258e+000, 3., 3., 4.67279205e+001, 5.65441551e+001,
          4.45563507e+001, 6.17157269e+000, 0., 1., 9., 3., 0., 0., 0.,
          0., 0., 11., 7., 4., 1., 0., 1., 2., 0., 2.45857868e+001, 29.,
          5., 7., 0., 3., 4., 0., 3.31715736e+001, 1.84142132e+001, 3.,
          8., 1., 14., 6., 0., 2., 8., 5., 2., 0., 0., 0., 0., 18., 13.,
          1., 0., 0., 0., 2., 0., 3.11715736e+001, 2.24142132e+001, 2.,
          3., 0., 4., 4., 0., 3.51715736e+001, 22., 4., 6., 2., 2., 8.,
          0., 1., 6., 0., 1., 0., 1., 0., 0., 13., 11., 0., 0., 0., 2.,
          5., 0., 3.05857868e+001, 16., 0., 0., 1., 9., 8., 0.,
          8.45985870e+001, 6.33189297e+000, 0., 8., 1., 4.,
          1.26120389e+000, 0., 4., 5., 3., 0., 0., 0., 0., 0., 5., 22.,
          4., 4., 0., 0., 1., 0., 1.75857868e+001, 42., 6., 6., 1., 7.,
          5.58578634e+000, 0., 6.79463501e+001, 1.89523258e+001, 1., 5.,
          1., 7., 4., 0., 3., 5., 1., 0., 0., 0., 1., 0., 11., 11., 5.,
          8., 2., 2., 2., 0., 1.05857868e+001, 3.24142151e+001, 19., 8.,
          3., 2., 2., 0., 7., 31., 6., 13., 1., 3., 3., 0., 2., 5., 0.,
          1., 0., 1., 0., 0., 7., 15., 10., 11., 0., 0., 3., 0., 7., 31.,
          13., 27., 4., 3., 3., 0., 14., 37., 25., 29., 8., 6., 4., 0.,
          8.20100975e+000, 6.62741709e+000, 1.17157292e+000, 0., 0.,
          1.38873014e+001, 1.03553391e+001, 1.75735927e+000, 0., 0.,
          2.92893219e+001, 2.77523079e+001, 9.95836926e+000, 0.,
          1.04481554e+000, 3.94871483e+001, 3.89360733e+001,
          3.05319633e+001, 0., 0., 6.85786438e+000, 4.97056293e+000,
          1.17157292e+000, 0., 0., 1.85735931e+001, 1.40832615e+001,
          2.34314585e+000, 0., 0., 1.46446609e+001, 1.15979795e+001,
          1.75735927e+000, 0., 0., 5.10050488e+000, 4.05929298e+001,
          7.40453644e+001, 2.61203885e-001, 0., 7.61522388e+000,
          5.38477612e+000, 0., 0., 0., 1.28873014e+001, 1.03553391e+001,
          1.75735927e+000, 0., 0., 3.49756126e+001, 2.69238815e+001,
          4.10050488e+000, 0., 0., 3.26324692e+001, 3.10660172e+001,
          1.23015156e+001, 0., 0., 8.78679657e+000, 6.21320343e+000, 0.,
          0., 0., 1.87451668e+001, 1.40832615e+001, 1.17157292e+000, 0.,
          0., 3.32182541e+001, 2.60954552e+001, 4.68629169e+000, 0., 0.,
          3.71471863e+001, 2.98233757e+001, 7.02943707e+000, 0., 0.,
          4.10050488e+000, 3.31370854e+000, 5.85786462e-001, 0., 0.,
          1.40588741e+001, 1.28406200e+001, 4.10050488e+000, 0., 0.,
          2.75319633e+001, 2.69238815e+001, 1.05441561e+001, 0.,
          6.78635101e+001, 4.75385094e+001, 1.44974747e+001,
          4.10050488e+000, 0., 0., 7.02943707e+000, 4.97056293e+000, 0.,
          0., 0., 1.89878063e+001, 1.24264069e+001, 5.85786462e-001, 0.,
          0., 3.99045448e+001, 3.18944435e+001, 8.20100975e+000, 0.,
          3.25234718e+001, 4.91089935e+001, 2.73380947e+001,
          7.02943707e+000, 0., 0., 5.27207804e+000, 4.14213562e+000,
          5.85786462e-001, 0., 0., 1.58162336e+001, 1.36690474e+001,
          3.51471853e+000, 0., 0., 3.71471863e+001, 2.77523079e+001,
          4.10050488e+000, 0., 0., 2.57746029e+001, 2.11248913e+001,
          4.10050488e+000, 0., 0., 4.10050488e+000, 3.31370854e+000,
          5.85786462e-001, 0., 0., 1.91593800e+001, 1.40832615e+001,
          1.75735927e+000, 0., 0., 2.98751087e+001, 2.52670269e+001,
          5.85786438e+000, 0., 0., 4.49339828e+001, 3.85218620e+001,
          1.05441561e+001, 0., 0., 2.92893219e+000, 3.31370854e+000,
          1.75735927e+000, 0., 0., 3.51471853e+000, 1.03553391e+001,
          1.11299419e+001, 0., 0., 1.40588741e+001, 2.89949493e+001,
          2.69461765e+001, 0., 1.35083485e+000, 3.36664085e+001,
          4.01787148e+001, 4.38040390e+001, 0., 0., 7.61522388e+000,
          7.87005758e+000, 3.51471853e+000, 0., 0., 1.11299419e+001,
          1.86396103e+001, 1.52304478e+001, 0., 0., 6.44365072e+000,
          2.23675327e+001, 2.51888161e+001, 0., 2.61203885e-001,
          7.59666061e+000, 4.14213562e+001, 7.34595718e+001,
          2.61203885e-001, 0., 5.85786462e-001, 1.65685427e+000,
          1.75735927e+000, 0., 0., 1.58162336e+001, 1.32548342e+001,
          2.92893219e+000, 0., 0., 3.38751068e+001, 2.60954552e+001,
          7.02943707e+000, 0., 0., 5.26202736e+001, 3.93502884e+001,
          7.02943707e+000, 0., 0., 2.92893219e+000, 4.97056293e+000,
          4.10050488e+000, 0., 0., 2.89461765e+001, 1.94680367e+001,
          5.85786462e-001, 0., 0., 5.85197678e+001, 3.35513000e+001,
          2.92893219e+000, 0., 0., 5.62771301e+001, 3.76934357e+001,
          7.02943707e+000, 0., 0., 2.92893219e+000, 2.48528147e+000,
          5.85786462e-001, 0., 0., 2.85319633e+001, 1.94680367e+001, 0.,
          0., 0., 4.98629150e+001, 3.35513000e+001, 5.85786462e-001, 0.,
          8.40566177e+001, 5.10022583e+001, 1.36690474e+001,
          5.27207804e+000, 0., 0., 3.51471853e+000, 3.72792196e+000,
          1.75735927e+000, 0., 0., 7.61522388e+000, 8.69848442e+000,
          4.68629169e+000, 0., 0., 3.07035351e+001, 2.56812401e+001,
          7.61522388e+000, 0., 4.00631752e+001, 5.20545769e+001,
          2.27817459e+001, 4.10050488e+000, 0., 0., 3.51471853e+000,
          2.89949489e+000, 5.85786462e-001, 0., 0., 1.28873014e+001,
          1.53259020e+001, 8.78679657e+000, 0., 0., 2.22598839e+001,
          2.77523079e+001, 1.79878063e+001, 0., 0., 1.17157288e+001,
          1.65685425e+001, 1.17157288e+001, 0., 0., 2.92893219e+000,
          2.48528147e+000, 5.85786462e-001, 0., 0., 9.37258339e+000,
          1.53259020e+001, 1.23015156e+001, 0., 0., 1.11299419e+001,
          2.60954552e+001, 2.57746029e+001, 0., 0., 2.63603897e+001,
          4.43208504e+001, 3.63187599e+001, 0. ]
      - [ 0., 1., 4., 0., 1., 3., 8., 3., 0., 3., 7.66201210e+000,
          1.44131546e+001, 4.17077980e+001, 5.21703625e+000, 0., 0., 0.,
          0., 0., 2.45495963e+000, 1.95007629e+001, 4.42778803e-002, 0.,
          0., 0., 0., 0., 0., 0., 0., 0., 0., 0., 0., 7.67541742e+000,
          5.32458258e+000, 6., 0., 4., 2., 0., 2., 1.90796738e+001,
          2.46549168e+001, 1.62654095e+001, 7.34314585e+000,
          1.12426405e+001, 1.41421354e+000, 0., 4.58578634e+000,
          7.19074345e+000, 1.23716421e+001, 5.01263046e+001,
          2.28785343e+001, 2.08469906e+001, 9.58578682e+000, 0., 0., 1.,
          4.00051117e+000, 5.15105705e+001, 5.76469345e+001,
          4.25216064e+001, 7.32037735e+000, 0., 0., 1.06462889e+001,
          8.35371113e+000, 1., 0., 0., 0., 0., 0., 2.22080479e+001,
          1.33777390e+001, 2.41421366e+000, 9.56301785e+000,
          3.78554001e+001, 4.58158112e+000, 0., 0., 4., 0.,
