%YAML:1.0
_0218: !!opencv-ml-svm
   svm_type: C_SVC
   kernel: { type:LINEAR }
   C: 100.
   term_criteria: { epsilon:9.9999999747524271e-007,
       iterations:2147483647 }
   var_all: 576
   var_count: 576
   class_count: 2
   class_labels: !!opencv-matrix
      rows: 1
      cols: 2
      dt: i
      data: [ -1, 3 ]
   sv_total: 61
   support_vectors:
      - [ 0., 1.20776653e+001, 1.03137083e+001, 5.92893219e+000, 2., 1.,
          0., 0., 0., 4.58578634e+000, 4.62842712e+001, 4.06446609e+001,
          3.48528147e+000, 0., 0., 0., 0., 0., 4.14558449e+001,
          7.24128952e+001, 3.59596901e+001, 2.17157292e+000, 0., 0., 0.,
          0., 2.65563488e+001, 1.11140816e+002, 4.97170486e+001,
          6.58578634e+000, 11., 0., 0., 8.58803368e+000, 1.46546078e+001,
          3.34314585e+000, 3.41421366e+000, 0., 0., 0., 0.,
          1.01715727e+001, 4.77279205e+001, 1.71005058e+001, 0., 0., 0.,
          0., 0., 2., 2.56568546e+001, 4.46862907e+001, 4.38994942e+001,
          1.39289322e+001, 2.82842708e+000, 0., 0., 1., 10.,
          3.37640266e+001, 9.68910065e+001, 4.76377869e+001,
          1.98010159e+001, 1.90616369e+000, 0., 1.65620556e+001,
          3.49703074e+000, 5.85786462e-001, 0., 0., 0., 4.14213568e-001,
          0., 3.29403992e+001, 1.12093067e+001, 3.32458258e+000, 0., 0.,
          0., 1.67541742e+000, 0., 3.14360332e+001, 2.82618122e+001,
          7.75735950e+000, 1.82842708e+000, 0., 1., 9.36517835e-001, 0.,
          2.93845367e+001, 3.63016014e+001, 2.99398060e+001,
          1.16568546e+001, 0., 1., 4.85281378e-001, 0., 4.09383631e+000,
          0., 0., 0., 0., 0., 0., 0., 0., 0., 0., 0., 0., 0., 0., 0., 0.,
          0., 0., 0., 0., 0., 0., 0., 0., 0., 0., 0., 0., 0., 0., 0., 1.,
          0., 0., 0., 0., 0., 0., 0., 0., 0., 0., 0., 0., 0., 0., 0., 0.,
          0., 0., 0., 0., 0., 0., 0., 0., 0., 0., 0., 0., 0., 0., 0., 0.,
          0., 0., 0., 0., 0., 0., 0., 0., 0., 0., 0., 0., 0., 0., 0., 0.,
          0., 0., 0., 0., 0., 0., 0., 0., 0., 0., 0., 0., 0., 0., 0.,
          7.68065834e+000, 1.19972289e+000, 0., 0., 0., 0., 0.,
          9.17473733e-002, 9.57606411e+000, 4.33218908e+000, 0., 0., 0.,
          0., 0., 0., 0., 0., 0., 0., 0., 0., 0., 0., 0., 0., 0., 0., 0.,
          0., 0., 2.99680448e+000, 1.52935095e+001, 7.09685802e-001,
          6.17157269e+000, 2.24264073e+000, 5.85786462e-001, 0., 1.,
          3.89579356e-001, 1.62438068e+001, 3.39229622e+001,
          2.56743965e+001, 6.95272112e+000, 7.08194208e+000,
          1.73459077e+000, 0., 0., 1.07679176e+001, 6.75321960e+001,
          4.12923393e+001, 1.13298082e+001, 8.49891949e+000,
          3.57881737e+000, 0., 0., 1.38335524e+001, 6.18834953e+001,
          7.16260986e+001, 1.82426414e+001, 3., 4.14213568e-001, 0.,
          4.41886425e+000, 2.08532143e+001, 4.14213562e+000,
          5.85786462e-001, 0., 7.83611596e-001, 7.16772842e+001,
          2.15391045e+001, 0., 0., 5.22407770e-001, 8.89262924e+001,
          3.47939377e+001, 1.75735927e+000, 0., 2.61203885e-001,
          9.58615952e+001, 5.46761894e+001, 1.22010098e+001, 0.,
          2.84068322e+000, 2.12598209e+001, 2.89949489e+000, 0., 0., 0.,
          5.47035370e+001, 2.02964649e+001, 0., 0., 0., 4.74903336e+001,
          3.31370850e+001, 1.13725834e+001, 0., 0., 3.45319633e+001,
          3.72792206e+001, 5.96660004e+001, 4.52281475e+000,
          1.83225956e+001, 1.02631912e+001, 8.28427136e-001,
          5.85786462e-001, 0., 2.27884979e+001, 3.39272308e+001,
          9.52691174e+000, 1.75735927e+000, 0., 1.95746479e+001,
          4.63420906e+001, 1.57401152e+001, 4.02903032e+000,
          1.31411529e+000, 2.80228710e+001, 6.56512299e+001,
          1.57401152e+001, 1.58578646e+000, 0., 2.31713843e+000,
          2.68286157e+000, 0., 0., 0., 0., 0., 0., 0., 0., 0., 0., 0.,
          0., 0., 0., 0., 0., 0., 0., 2.61203885e-001, 7.38796115e-001,
          0., 0., 0., 0., 0., 0., 0., 0., 0., 0., 0., 0., 0., 0., 0., 0.,
          0., 0., 0., 0., 0., 0., 0., 0., 0., 0., 0., 0., 0., 0., 0., 0.,
          0., 0., 0., 0., 0., 0., 6.27309465e+000, 4.72690535e+000, 0.,
          0., 0., 8.00827694e+000, 5.99172306e+000, 0., 0., 0., 0., 0.,
          0., 0., 0., 0., 0., 0., 0., 0., 1.44062452e+001,
          8.69425964e+000, 3.72792196e+000, 1.17157292e+000, 0.,
          1.83483925e+001, 4.68109856e+001, 1.53259020e+001,
          7.47759247e+000, 1.03712642e+000, 3.18141232e+001,
          7.72741852e+001, 1.73969688e+001, 1.03245821e+001,
          2.19013596e+000, 3.04832077e+001, 9.98771820e+001,
          2.02964649e+001, 3.34314585e+000, 0., 4.54163074e+000,
          7.55887461e+000, 7.04163074e+000, 6.85786438e+000, 0., 0.,
          3.51471853e+000, 2.02964649e+001, 3.41888161e+001, 0., 0., 0.,
          3.23086586e+001, 8.71689377e+001, 5.22407770e-001, 0.,
          1.17157292e+000, 5.63330460e+001, 1.17234177e+002,
          2.61203885e-001, 1.72648394e+000, 6.37402105e+000,
          5.38477612e+000, 5.51471853e+000, 0., 0., 6.44365072e+000,
          1.24264069e+001, 1.21299419e+001, 0., 0., 1.17157292e+000,
          3.52081528e+001, 7.03590698e+001, 2.61203885e-001, 0.,
          2.75735927e+000, 2.11248913e+001, 1.45591141e+002,
          1.55266132e+001, 2.24640522e+001, 5.12173367e+000,
          8.28427136e-001, 5.85786462e-001, 0., 3.30328407e+001,
          2.35823822e+001, 6.21320343e+000, 3.17157292e+000, 0.,
          3.28725929e+001, 2.14289207e+001, 1.20121937e+001,
          6.68629169e+000, 0., 3.24728203e+001, 1.30419006e+001,
          1.90538235e+001, 3.24314575e+001, 0., 3.39964962e+000,
          3.60035038e+000, 0., 0., 0., 0., 0., 0., 0., 0., 0., 0., 0.,
          0., 0., 0., 0., 0., 0., 0., 2.61203885e-001, 7.38796115e-001,
          0., 0., 0., 0., 0., 0., 0., 0., 0., 0., 0., 0., 0., 0., 0., 0.,
          0., 0., 0., 0., 0., 0., 0., 0., 0., 0., 0., 0., 0., 0., 0., 0.,
          0., 0., 0., 0., 0., 0., 7.87967205e+000, 5.12032795e+000, 0.,
          0., 0., 6.14848661e+000, 4.85151339e+000, 0., 0., 0., 0., 0.,
          0., 0., 0., 0., 0., 0., 0., 0., 1.48966780e+001,
          4.27489471e+000, 3.31370854e+000, 6.51471853e+000, 0.,
          1.61000957e+001, 4.48569155e+000, 1.32548342e+001,
          3.10249329e+001, 2.13444638e+000, 1.37866707e+001,
          1.13849020e+001, 1.94680367e+001, 5.40914955e+001,
          3.26889300e+000, 1.46969404e+001, 1.34746323e+001,
          3.56223679e+001, 7.91612473e+001, 1.04481554e+000 ]
      - [ 0., 2.31836033e+000, 6.44907236e+000, 0., 4.14213568e-001,
          4.75735950e+000, 1.00160999e+001, 5.13690996e+000, 0.,
          1.17573595e+001, 2.82842708e+000, 0., 2., 7., 3.43400726e+001,
          2.86599274e+001, 0., 5.85786462e-001, 3., 3., 6.35083485e+000,
          1.61075859e+001, 9.69304199e+001, 2.66111603e+001, 0., 4.,
          1.04142132e+001, 7.07773638e+000, 6.71833878e+001,
          7.70045929e+001, 4.68021584e+001, 2.10369730e+000, 0.,
          1.90743566e-001, 8.09256434e-001, 0., 0., 0., 9.00091648e+000,
          1.69230080e+001, 2.61203885e-001, 0., 6.04957104e-001,
          1.36443520e+001, 1.81969528e+001, 1.07666063e+001,
          2.85840702e+001, 2.09418564e+001, 0., 7., 1.44142132e+001,
          9.50701523e+000, 4.05197220e+001, 1.95590496e+001,
          1.82678623e+001, 2.78326435e+001, 0., 3.32720795e+001,
          8.61421356e+001, 1.73431454e+001, 2.55969448e+001,
          7.81726789e+000, 2., 2., 0., 3.77370477e-001, 6.22629523e-001,
          8.66772842e+000, 4.33227158e+000, 0., 2.41373158e+000,
          1.23436279e+001, 0., 1., 1.60262527e+001, 4.22983284e+001,
          2.06754169e+001, 0., 0., 0., 0., 1.34838543e+001,
          2.74142132e+001, 2.43431454e+001, 4.17506905e+001,
          8.49195004e+000, 4., 0., 0., 3.52797928e+001, 1.39180584e+001,
          7., 4.71099777e+001, 4.54758110e+001, 1., 3.30937552e+000, 0.,
          6.53453767e-001, 6.76075983e+000, 3.58578634e+000, 1., 0.,
          3.84060383e+000, 1.01593962e+001, 0., 1.27305803e+001,
          3.48630905e+001, 2.36449604e+001, 3., 1., 0., 0., 0.,
          3.06958504e+001, 1.05547123e+001, 0., 0., 0., 0.,
          4.18368816e+000, 0., 3.22935333e+001, 1.61872482e+001, 3.,
          3.58578634e+000, 3.17157292e+000, 4.82842731e+000,
          4.77306175e+000, 4.13292980e+000, 2.93388367e+000,
          7.82643604e+000, 5.16609478e+000, 2.23428440e+000,
          5.85786462e-001, 2.82842708e+000, 6.29215813e+000, 0.,
          1.01635532e+001, 1.06024780e+001, 1.28845654e+001,
          7.02521181e+000, 4.34432507e+000, 7.23046780e+000,
          2.35433922e+001, 0., 1.18333864e+001, 1.55279903e+001,
          5.58059978e+000, 5.93873787e+000, 1., 5.45085287e+000,
          1.77108459e+001, 0., 2.57974768e+000, 9.22591209e+000,
          3.67297626e+000, 5.14312744e+000, 2.14398146e+000,
          5.17015600e+000, 6.77813959e+000, 2.29174376e+000, 0.,
          2.20481202e-001, 7.79518783e-001, 1.31850481e+000,
          2.04888153e+000, 6.64599085e+000, 1.66948795e+001, 0.,
          1.05426498e-001, 4.14213568e-001, 2.17157292e+000,
          1.41421354e+000, 7.37955046e+000, 4.42112350e+001,
          3.10377922e+001, 0., 3.78741684e+001, 3.60784912e+001,
          9.80117512e+000, 9.26734543e+000, 7.22460461e+000,
          1.02875690e+001, 9.37331295e+000, 0., 1.66651142e+000,
          6.12389946e+000, 0., 1., 0., 0., 0., 0., 2.07538784e-001,
          7.92461216e-001, 0., 0., 4.34393930e+000, 1.73400936e+001,
          5.57565880e+000, 0., 7.17157269e+000, 6.24264050e+000,
          4.17157269e+000, 1.00710678e+001, 2.14119549e+001,
          2.56066074e+001, 1.04961557e+001, 0., 7.72135735e+000,
          1.64555035e+001, 1.52279978e+001, 2.45080490e+001,
          2.63795509e+001, 3.93035545e+001, 1.45290766e+001, 0.,
          4.52055130e+001, 5.04588432e+001, 1.93245087e+001,
          2.70563545e+001, 2.06354771e+001, 9.95386028e+000,
          4.41497040e+000, 0., 4.49573708e+000, 7., 0., 2.,
          1.58578646e+000, 2.41421366e+000, 3.75386071e+000, 0.,
          1.12037725e+001, 2.61554737e+001, 6.05496788e+000,
          1.79323330e+001, 1.27773123e+001, 9.46192837e+000, 1., 0.,
          1.57873430e+001, 1.13916187e+001, 2.86413441e+001,
          2.20904541e+001, 2.47530003e+001, 1.53666725e+001,
          1.03700056e+001, 0., 2.09354115e+001, 3.18482208e+001,
          3.30241737e+001, 6.59824142e+001, 5.04065704e+001,
          9.29343891e+000, 1.45902908e+000, 2.46581554e+000,
          5.29154396e+000, 4.14213562e+000, 1.61824474e+001,
          1.91805816e+000, 0., 1.00294371e+001, 1.61543293e+001,
          5.13491096e+001, 7.46712494e+000, 0., 4.10050488e+000,
          1.57401152e+001, 1.01012360e+002, 2.71470203e+001, 0.,
          1.51299419e+001, 2.44386005e+001, 1.12237999e+002,
          4.31934624e+001, 6.38697922e-001, 3.61302108e-001, 0.,
          1.97804260e+001, 8.21957302e+000, 1.61203873e+000,
          1.26600389e+001, 4.97056293e+000, 3.50480919e+001,
          2.77092667e+001, 0., 2.29167385e+001, 2.69238815e+001,
          5.99633331e+001, 2.11960487e+001, 2.08963108e+000,
          9.65600815e+001, 4.26639977e+001, 1.33137083e+001,
          2.37258291e+000, 7.38796115e-001, 7.94749546e+000,
          4.97056293e+000, 1.03476496e+001, 3.99549580e+000,
          1.30601943e+000, 5.16817856e+001, 1.20121937e+001, 0., 0.,
          2.61203885e-001, 4.48149147e+001, 3.23086586e+001,
          9.35402012e+000, 2.61203885e-001, 3.32458258e+000,
          6.06926613e+001, 2.89949493e+001, 4.94799652e+001,
          1.45078430e+001, 8.99901807e-001, 8.44324398e+000,
          2.89949489e+000, 9.31370831e+000, 3.44365072e+000,
          6.23258018e+000, 5.50983734e+001, 1.40832615e+001,
          5.85786462e-001, 0., 2.30722370e+001, 3.45724258e+001,
          1.44974747e+001, 1.33988352e+001, 1.45902908e+000,
          1.66732540e+001, 4.14566879e+001, 1.07695522e+001,
          1.19103689e+001, 1.19013608e+000, 8.45536613e+000,
          8.47356606e+000, 4.14213562e+000, 9.40652466e+000,
          1.52240777e+000, 1.68715687e+001, 1.95010147e+001,
          1.11837664e+001, 1.73376808e+001, 1.81059704e+001,
          2.37070904e+001, 1.34644833e+001, 1.65685427e+000,
          2.01345558e+001, 1.40370169e+001, 7.08420563e+000,
          9.67315388e+000, 2.07106781e+000, 1.03549671e+001,
          6.81660604e+000, 9.01887596e-001, 9.81124341e-002,
          4.14213568e-001, 1.69722157e+001, 1.16135712e+001, 0.,
          2.75735927e+000, 4.55634928e+000, 5.68622894e+001,
          2.48240032e+001, 6.45426102e+001, 2.87294693e+001,
          9.94112587e+000, 2.41386719e+001, 9.64812374e+000,
          3.31872749e+000, 4.68127251e+000, 0., 0., 0., 9.13842142e-001,
          8.61578658e-002, 2.07106781e+000, 1.44222775e+001,
          1.25066547e+001, 0., 1.40294371e+001, 1.40832615e+001,
          4.17787018e+001, 9.10860062e+000, 1.26687956e+001,
          2.48753605e+001, 2.40243874e+001, 6.25319633e+001,
          4.89949512e+000, 9.00300827e+001, 3.64846344e+001,
          9.94112587e+000, 2.79624596e+001, 1.65816956e+001,
          2.32495117e+000, 9.36134052e+000, 6.62741709e+000,
          5.68629169e+000, 0., 3.26120377e+000, 3.09692440e+001,
          1.57401152e+001, 1.42884007e+001, 6.74103689e+000,
          1.48507719e+001, 4.58649559e+001, 1.94680367e+001,
          3.64948273e+001, 1.43214073e+001, 1.51480398e+001,
          6.98692017e+001, 3.18944435e+001, 5.50773315e+001,
          1.50109816e+001, 2., 8.27207756e+000, 5.79898977e+000,
          3.92893219e+000, 0., 1.45902908e+000, 4.24871483e+001,
          2.23675327e+001, 5.68629169e+000, 0., 4.41421366e+000,
          3.79167404e+001, 2.27817459e+001, 2.01036892e+001,
          7.83611596e-001, 0., 9.44365120e+000, 1.86396103e+001,
          1.07062386e+002, 5.38543549e+001, 4.20551443e+000,
          2.14807777e+001, 3.31370854e+000, 0., 0., 2.61203885e+000,
          3.33463326e+001, 1.07695522e+001, 3.08745785e+001,
          1.23975000e+001, 3.79130077e+000, 4.41965065e+001,
          1.44974747e+001, 3.45416412e+001, 3.29730797e+001, 0.,
          3.41177483e+001, 3.23086586e+001, 3.32530136e+001,
          8.32057858e+000, 4.05250454e+000, 1.17048550e+001,
          3.31370854e+000, 1.06677284e+001, 2.61203885e-001, 0.,
          5.85786462e-001, 1.07695522e+001, 5.04282722e+001,
          4.21638823e+000, 1.99373806e+000, 1.57930584e+001,
          2.85807362e+001, 5.04346428e+001, 2.19782519e+000,
          3.24275551e+001, 5.00455322e+001, 2.36101723e+001,
          5.90824661e+001, 2.68342743e+001, 2.85467935e+000,
          1.12458258e+001, 4.55634928e+000, 3.34314585e+000, 0.,
          5.22560263e+000, 1.49754076e+001, 1.53259020e+001,
          2.34730873e+001, 0., 5.91353645e+001, 3.45509262e+001,
          3.31370854e+000, 0., 0., 2.87853222e+001, 3.90725441e+001,
          6.62741709e+000, 7.57809734e+000, 9.36621308e-001,
          4.55453348e+000, 8.78861237e+000, 2.48528147e+000,
          6.32080126e+000, 4.85077190e+000, 2.53064747e+001,
          2.40661087e+001, 1.03553391e+001, 1.33110113e+001,
          1.19610662e+001, 4.10385590e+001, 2.17187996e+001,
          2.89949489e+000, 8.45911694e+000, 6.88402891e+000,
          8.53786087e+000, 1.18052845e+001, 2.48528147e+000,
          6.46548557e+000, 6.70608711e+000, 6.39368582e+000,
          1.59494600e+001, 1.65685427e+000, 1.28485155e+000,
          4.71514845e+000, 8.50222111e+000, 3.33850822e+001,
          1.44974747e+001, 1.16152239e+001, 0., 6.25338058e+001,
          3.09098434e+001, 9.94112587e+000, 1.96829376e+001,
          6.93228531e+000, 2.27559757e+000, 2.72440243e+000, 0., 1., 0.,
          5.61310959e+000, 6.73003578e+000, 4.55634928e+000,
          7.27207804e+000, 8.28427136e-001, 2.61203885e-001,
          1.84545250e+001, 1.69827557e+001, 3.14807777e+001,
          2.82073808e+000, 9.18223476e+000, 2.06045628e+001,
          2.48528137e+001, 5.30281181e+001, 4.33227158e+000,
          4.98904610e+001, 3.63816185e+001, 9.94112587e+000,
          3.97744942e+001, 4.10123024e+001, 5.82432461e+000,
          7.69039392e+000, 4.14213562e+000, 2.34314585e+000, 0., 0.,
          1.27867966e+001, 1.61543293e+001, 3.34387398e+001,
          2.62013483e+000, 1.35931768e+001, 3.36078339e+001,
          1.40832615e+001, 6.14459724e+001, 1.92697563e+001,
          3.87364936e+000, 2.50847206e+001, 2.23675327e+001,
          1.05263191e+002, 4.14109116e+001 ]
      - [ 0., 5.19062853e+000, 3.20991421e+000, 5.85786462e-001,
          1.76504838e+000, 4.49615526e+000, 4.66105938e+000,
          2.32037735e+000, 0., 3., 6.01917076e+000, 2.74483128e+001,
          4.37979279e+001, 1.07345905e+001, 2., 0., 0., 0.,
          2.86729550e+000, 2.79219418e+001, 1.02827232e+002,
          2.73835316e+001, 0., 0., 2.61203885e-001, 6.15300989e+000,
          3.31893272e+001, 2.80978642e+001, 4.53589439e+001,
          7.93965197e+000, 0., 0., 0., 1.32037723e+000, 4., 5.,
          5.58578634e+000, 3.12963367e+000, 2.28457999e+000,
          2.05917335e+000, 0., 1.27973623e+001, 5.35083485e+000,
          2.75735927e+000, 9.65685463e+000, 1.25147190e+001,
          1.40710678e+001, 1.51715727e+001, 0., 0., 0., 3.58578634e+000,
          3.28460503e+001, 5.02173271e+001, 4.42867584e+001,
          2.10640755e+001, 0., 0., 1.81365633e+000, 1.17905807e+001,
          4.52044525e+001, 7.19626541e+001, 7.00222092e+001,
          1.26683302e+001, 0., 1.58578646e+000, 7.48528147e+000,
          5.92893219e+000, 4.58578634e+000, 5.41421366e+000, 5., 0., 0.,
          6.32458258e+000, 8.67541790e+000, 2., 4.41421366e+000,
          1.09289322e+001, 2.55563488e+001, 1.59758415e+001, 0.,
          1.22006025e+001, 5.14867496e+000, 1., 0., 0., 2.92285900e+001,
          7.10620499e+001, 0., 5.17107887e+001, 4.24213524e+001,
          2.28472691e+001, 9.43031311e+000, 1.08020620e+001,
          2.20640984e+001, 1.66973534e+001, 0., 2.52419496e+000,
          3.73879623e+000, 2.61203885e-001, 0., 3.92533445e+000,
          4.66045189e+000, 4.22194099e+000, 0., 7.17108250e+000,
          2.03983727e+001, 1.35905409e+001, 4.82985544e+000,
          3.97611547e+000, 1.11761560e+001, 1.99045544e+001, 0.,
          1.54523935e+001, 9.80134010e+000, 5.45561647e+000,
          4.67962265e+000, 2.92953968e+000, 2.52811680e+001,
          5.15130997e+001, 0., 1.07816629e+001, 1.26604605e+001,
          1.78145242e+000, 3.28457999e+000, 9.06163692e-001,
          7.24612427e+000, 1.93943520e+001, 0., 2.41421366e+000,
          3.79420233e+000, 3.00659585e+000, 4.69314241e+000,
          1.03123274e+001, 5.12900352e+000, 6.50515079e-001, 0.,
          5.34314585e+000, 1.82842708e+000, 5.85786462e-001,
          2.82842708e+000, 1.07674084e+001, 4.06259651e+001,
          1.61924152e+001, 0., 2.97475967e+001, 2.73136292e+001,
          6.17174149e+000, 1.61821938e+001, 2.76735473e+000,
          1.13442926e+001, 2.98323097e+001, 0., 1.54135284e+001,
          2.85874138e+001, 3.92866135e+000, 1.17834406e+001,
          6.87390327e+000, 1.61452675e+001, 1.16026039e+001,
          8.76100659e-001, 1.23899341e-001, 1.82842708e+000,
          4.17157269e+000, 6.41421366e+000, 4.25356293e+000,
          9.21352386e+000, 1.11869967e+000, 0., 7.30601931e+000,
          4.41421366e+000, 7.60434961e+000, 1.68893433e+001,
          2.30844059e+001, 2.18546791e+001, 5., 0., 4.71398392e+001,
          4.65985451e+001, 5.98006392e+000, 1.77592254e+000, 0., 1.,
          7.15361834e-001, 0., 0., 1., 0., 0., 0., 0., 0., 0.,
          1.14264500e+000, 1., 0., 3., 2.28778028e+000, 8.37921619e+000,
          4.81828451e+000, 0., 1.41421354e+000, 1.49822226e+001,
          1.48157473e+001, 2.04765453e+001, 2.31092415e+001,
          9.46323395e+000, 5.15300989e+000, 5.33951187e+000,
          1.59933109e+001, 3.20287704e+001, 2.75601959e+001,
          2.54977627e+001, 1.85274734e+001, 1.13992815e+001,
          3.65369439e+000, 0., 1.99086895e+001, 1.52507534e+001,
          8.15666771e+000, 1.65508423e+001, 1.52891731e+001,
          9.92112446e+000, 5.61727333e+000, 0., 1.41421354e+000,
          1.41421354e+000, 1., 7.24264050e+000, 9.72023296e+000,
          3.62291288e+000, 1.41421354e+000, 0., 9.70186424e+000,
          1.05715370e+001, 1.75838547e+001, 1.47370977e+001,
          2.37395840e+001, 6.02417374e+000, 3.32458258e+000, 0.,
          5.93698645e+000, 2.05687447e+001, 2.35129910e+001,
          6.96004868e+001, 2.66452084e+001, 5.32136917e+000, 0., 0., 0.,
          2.66232443e+000, 2.73525381e+000, 4.60242176e+000, 0., 0., 0.,
          1.95486045e+000, 7.38828516e+000, 3.31370854e+000,
          1.01530094e+001, 2.19013596e+000, 2.54097104e+000,
          3.33463326e+001, 1.65685425e+001, 1.15441561e+001, 0.,
          8.45808220e+000, 3.83581505e+001, 2.36101723e+001,
          5.21372261e+001, 8.43636894e+000, 1.21087093e+001,
          5.90212326e+001, 1.15979795e+001, 2.01005058e+001,
          3.17157292e+000, 7.83611596e-001, 8.73110676e+000,
          4.97056293e+000, 6.27207804e+000, 1.24264073e+000,
          1.04481554e+000, 1.77419815e+001, 2.15391045e+001,
          2.96740990e+001, 0., 0., 2.34314585e+000, 2.15391045e+001,
          9.66012039e+001, 1.45165434e+001, 2.29833031e+000,
          1.33879614e+001, 1.49116879e+001, 1.18702415e+002,
          4.76996040e+001, 0., 1.16862917e+001, 5.38477612e+000,
          8.14532089e+000, 7.83611596e-001, 2.61203885e-001,
          1.13540201e+001, 1.69827557e+001, 4.25287781e+001,
          1.87324262e+000, 7.31668806e+000, 1.43696032e+001,
          9.11269855e+000, 6.02277641e+001, 5.09732475e+001,
          2.14660263e+001, 9.84507141e+001, 2.40243874e+001,
          4.17419815e+001, 6.31689358e+000, 2.98781729e+000,
          5.35532856e+000, 3.31370854e+000, 9.76884079e+000,
          3.57430482e+000, 2.61321316e+001, 1.67257328e+001,
          5.38477612e+000, 1.66683064e+001, 2.00890541e+001,
          1.21386557e+001, 1.94765682e+001, 8.28427124e+000,
          3.78554611e+001, 4.92450447e+001, 1.11056576e+001,
          1.42374878e+001, 2.48528147e+000, 1.83473015e+001,
          1.98242722e+001, 2.58161855e+000, 5.34731388e+000,
          3.72792196e+000, 1.09046373e+001, 6.43850851e+000, 0.,
          6.10050488e+000, 9.94112587e+000, 4.62645226e+001,
          1.46938477e+001, 4.94366226e+001, 2.68354568e+001,
          5.79898977e+000, 2.92949581e+001, 2.96339741e+001,
          3.57047157e+001, 2.12242146e+001, 4.55634928e+000,
          1.64499493e+001, 2.10647697e+001, 0., 4.92893219e+000,
          5.38477612e+000, 7.67813826e+000, 4.00815344e+000,
          1.45133996e+000, 1.55780973e+001, 1.40832615e+001,
          4.28610497e+001, 3.02625227e+000, 7.37066803e+001,
          3.22222519e+001, 2.89949489e+000, 2.17157292e+000, 0.,
          2.61203885e-001, 7.38796115e-001, 0., 0., 0., 0.,
          2.17157292e+000, 3.31370854e+000, 1.07919493e+001,
          2.72276974e+000, 5.04420805e+000, 2.45710163e+001,
          1.20121937e+001, 3.17528553e+001, 5.61972809e+000,
          6.24750366e+001, 2.62823219e+001, 2.48528147e+000,
          2.58815918e+001, 1.78757687e+001, 3.90163383e+001,
          1.75694504e+001, 1.24264073e+000, 1.31758137e+001,
          2.79957581e+001, 2.61203885e-001, 3.49615550e+000,
          3.31370854e+000, 1.36939802e+001, 2.23495150e+000,
          5.84821081e+000, 2.78675175e+001, 1.07695522e+001,
          2.40734024e+001, 1.14413157e+001, 3.47341499e+001,
          3.44668579e+001, 1.24264069e+001, 3.26225243e+001,
          1.47500582e+001, 3.54946160e+000, 2.45053840e+000, 0., 0., 0.,
          3.39565039e+000, 1.29474955e+001, 2.48528147e+000,
          6.23495150e+000, 9.36621308e-001, 0., 1.75735927e+000,
          9.11269855e+000, 6.21267586e+001, 1.30031853e+001, 0., 0.,
          4.97056293e+000, 7.92556229e+001, 7.67738190e+001,
          2.61203885e-001, 4.66772842e+000, 1.36690474e+001,
          5.08898697e+001, 3.35121498e+001, 2.17926192e+000,
          6.82073784e+000, 3.31370854e+000, 1.06414757e+001,
          1.04481554e+000, 1.34314573e+000, 3.22304459e+001,
          1.82253971e+001, 2.06786022e+001, 5.22407770e-001,
          2.04481554e+000, 2.57714176e+001, 2.77523079e+001,
          6.32371178e+001, 1.21943417e+001, 3.89499068e+000,
          1.42055140e+001, 2.40243874e+001, 1.04325920e+002,
          3.55491905e+001, 0., 2.34314585e+000, 7.04163074e+000,
          1.30928164e+001, 5.22407770e-001, 2.74198103e+000,
          2.53168926e+001, 1.61543293e+001, 1.25255928e+001,
          2.61203885e-001, 6.00336113e+001, 7.56821213e+001,
          8.69848442e+000, 5.85786462e-001, 0., 2.74418201e+001,
          8.40901413e+001, 3.35513000e+001, 4.18271065e+001,
          1.08963096e+000, 8.76045418e+000, 6.99690580e+000,
          3.31370854e+000, 5.92893219e+000, 0., 1.87573109e+001,
          2.83431950e+001, 4.14213562e+000, 1.38743916e+001,
          1.88829670e+001, 5.23044281e+001, 5.11392212e+001,
          5.79898977e+000, 1.26057816e+001, 4.15157747e+000,
          3.01369877e+001, 2.37919445e+001, 2.89949489e+000,
          5.40652466e+000, 1.76504838e+000, 1.22448432e+000,
          3.11866140e+000, 4.97056293e+000, 1.20934458e+001,
          5.59284544e+000, 3.70961881e+000, 2.86924019e+001,
          1.57401152e+001, 1.21895666e+001, 1.66829741e+000,
          7.04054260e+001, 4.52098007e+001, 5.79898977e+000,
          8.61405087e+000, 1.89717350e+001, 3.89080505e+001,
          2.81924553e+001, 4.55634928e+000, 1.28486423e+001,
          1.34945030e+001, 7.60878861e-001, 1.82490754e+000,
          4.97056293e+000, 1.24215679e+001, 1.02208269e+000,
          5.22407770e-001, 1.38501749e+001, 1.61543293e+001,
          4.01408157e+001, 3.33227158e+000, 4.70434265e+001,
          3.58144379e+001, 4.55634928e+000, 6.88564920e+000,
          4.70013714e+000, 1.73253417e+000, 1.26746583e+000, 0., 0., 0.,
          2.05169630e+000, 6.22038174e+000, 6.21320343e+000,
          4.51471853e+000, 0., 5.22407770e-001, 8.57809734e+000,
          1.36690474e+001, 4.80371246e+001, 9.19332123e+000,
          2.18807869e+001, 1.17049999e+001, 2.48528147e+000,
          3.42581367e+001, 5.36707954e+001, 3.97177773e+001,
          1.48680105e+001, 8.28427136e-001, 1.19145498e+001,
          3.36712379e+001, 1.23462749e+000, 5.10851812e+000,
          3.72792196e+000, 1.61638832e+001, 2.76504850e+000,
          1.98184371e+000, 1.32902346e+001, 1.24264069e+001,
          4.11730957e+001, 1.51284208e+001, 3.84135294e+000,
          1.28449383e+001, 5.79898977e+000, 5.16351929e+001,
          7.38795242e+001, 0., 0., 0., 3.26792932e+000, 4.73207092e+000 ]
      - [ 0., 6.34314585e+000, 7.82842731e+000, 3.17157292e+000,
          4.82842731e+000, 2.15300965e+000, 1.84699035e+000, 1., 0., 1.,
          4.82842731e+000, 1.95511227e+001, 4.21733131e+001,
          2.45105133e+001, 2.93662143e+000, 0., 0., 3.73879623e+000,
          2.84699035e+000, 9.08684254e+000, 8.63765259e+001,
          3.81672325e+001, 2.36939812e+000, 4.14213568e-001, 0.,
          5.40858448e-001, 1.42869616e+001, 1.14261608e+001,
          1.18563719e+001, 4.62844324e+000, 2.61203885e-001, 0., 0.,
          7.17157269e+000, 1.41421354e+000, 0., 0., 3.15300965e+000,
          7.26120377e+000, 4.17157269e+000, 0., 0., 4., 4.,
          3.78284264e+001, 3.03431454e+001, 4.82842731e+000, 0., 0., 2.,
          8.26120377e+000, 9.66946983e+000, 3.77580528e+001,
          6.45575104e+001, 2.66007519e+001, 2.15300965e+000, 0., 3.,
          1.30682793e+001, 2.98862972e+001, 4.59108467e+001,
          7.39891281e+001, 4.59541283e+001, 2.19132471e+000, 0., 6., 5.,
          1., 1., 0., 0., 1., 0., 1.23431454e+001, 6.82842731e+000, 3.,
          3., 4., 7., 8., 0., 0., 0., 0., 0., 4.41421366e+000,
          4.33186607e+001, 8.89616089e+001, 0., 2.37945805e+001,
          6.12995291e+000, 1., 3.41421366e+000, 1.62493095e+001,
          5.36059761e+001, 6.13399315e+001, 0., 0., 1., 0., 5.,
          7.17157269e+000, 5.82842731e+000, 1., 0., 5.49195004e+000,
          5.67962265e+000, 2.58578634e+000, 5.41421366e+000,
          1.58578646e+000, 1.68284264e+001, 2.08578644e+001, 0.,
          8.97054482e+000, 0., 0., 0., 0., 1.50779009e+001,
          7.88062286e+001, 0., 8.45266533e+000, 7.54733467e+000, 0., 0.,
          0., 7.55357027e+000, 3.92691269e+001, 0., 3., 7.41421366e+000,
          3.75735927e+000, 8.24264050e+000, 5.58578634e+000, 1., 0., 0.,
          1.17194185e+001, 1.83438644e+001, 5.53282642e+000, 3.,
          7.16603041e+000, 2.76364059e+001, 1.01139002e+001, 0.,
          2.37743187e+001, 2.66701832e+001, 6.95895004e+000,
          3.26733923e+000, 8.39225006e+000, 2.73683167e+001,
          4.25240402e+001, 0., 2.46144562e+001, 3.11174507e+001,
          7.12993002e+000, 4.00049925e+000, 0., 2., 1.33062897e+001, 0.,
          3.17157292e+000, 4.82842731e+000, 3., 6.41421366e+000,
          4.69398069e+000, 4.89180565e+000, 0., 0., 2.58578634e+000,
          9.70587540e+000, 5.87991142e+000, 1.26754179e+001,
          1.40633783e+001, 3.00896301e+001, 3.17157292e+000, 0.,
          3.26847801e+001, 5.20495949e+001, 1.27670918e+001,
          5.82842731e+000, 8.40652466e+000, 2.07650490e+001,
          1.13203773e+001, 0., 7.87284565e+000, 1.47966843e+001,
          5.40970922e-001, 0., 0., 0., 8.73566687e-001, 0., 3.,
          2.41421366e+000, 2., 3.67962265e+000, 6.07773638e+000,
          4.82842731e+000, 4., 0., 0., 7.67541742e+000, 8.23495197e+000,
          2.40931149e+001, 3.82946510e+001, 1.01907434e+001,
          5.11120796e-001, 0., 3.64306331e+000, 2.18699436e+001,
          4.00006752e+001, 4.41180077e+001, 1.66724148e+001,
          1.29923105e+001, 1.04404659e+001, 0., 1.44671421e+001,
          2.67911396e+001, 2.27751827e+001, 1.70866585e+001,
          1.29943867e+001, 1.03086624e+001, 3.40609479e+000, 0.,
          6.75735950e+000, 6.66105938e+000, 9.40231895e+000,
          2.08963108e+000, 0., 0., 0., 0., 4.36530542e+000,
          1.28997307e+001, 2.36030617e+001, 2.02443027e+001,
          1.09917021e+001, 7.43271923e+000, 5.54635620e+000, 0.,
          9.69340682e-001, 8.18164825e+000, 3.25556450e+001,
          5.65871162e+001, 2.06339703e+001, 2.65385985e+000,
          3.32458258e+000, 0., 0., 1., 0., 1., 0., 0., 0.,
          2.61203885e-001, 1.43540201e+001, 7.04163074e+000,
          3.82073808e+000, 5.22407770e-001, 2.61203885e-001,
          2.53834572e+001, 1.78111839e+001, 2.37157288e+001,
          1.82842708e+000, 4.36939812e+000, 2.58316116e+001,
          1.73969688e+001, 5.34390907e+001, 1.99629288e+001,
          1.03321409e+001, 1.71825771e+001, 3.31370854e+000,
          4.11070061e+000, 2.06087208e+000, 0., 5.68629169e+000,
          6.21320343e+000, 1.06414757e+001, 1.45902908e+000, 0.,
          4.68629169e+000, 1.82253971e+001, 2.30883121e+001, 0.,
          1.04481554e+000, 1.69135532e+001, 2.85807362e+001,
          7.08533630e+001, 8.60753441e+000, 3.53328180e+000,
          3.58687401e+001, 2.11248913e+001, 6.52295227e+001,
          6.12435684e+001, 0., 7.44365072e+000, 4.97056293e+000,
          5.85786462e-001, 0., 0., 1.57157288e+001, 1.57401152e+001,
          1.15441561e+001, 0., 0., 0., 1.32548342e+001, 9.45885773e+001,
          4.11565857e+001, 1.55000582e+001, 1.61862335e+001,
          2.94091625e+001, 1.04111069e+002, 1.37934799e+001, 0.,
          5.85786462e-001, 5.38477612e+000, 9.02943707e+000, 0.,
          4.14213568e-001, 9.20100975e+000, 2.02964649e+001,
          2.90883121e+001, 0., 5.22407770e-001, 1.26786022e+001,
          2.07106781e+001, 7.19502411e+001, 3.71380653e+001,
          2.92626667e+000, 9.51738453e+000, 8.69848442e+000,
          2.71012154e+001, 2.97566490e+001, 5.22407770e-001,
          1.03354568e+001, 7.04163074e+000, 4.10050488e+000, 0.,
          1.79911652e+001, 1.74524860e+001, 7.04163074e+000,
          2.16380310e+001, 2.38766880e+001, 3.60656815e+001,
          2.33779697e+001, 1.32548342e+001, 4.44806252e+001,
          3.18208923e+001, 4.65178909e+001, 2.81683998e+001,
          8.28427124e+000, 2.03149338e+001, 8.71450329e+000, 0.,
          8.92893219e+000, 3.72792196e+000, 6.48528147e+000,
          1.85786438e+000, 1.19782519e+000, 1.40742531e+001,
          1.03553391e+001, 3.53802719e+001, 5.99231100e+000,
          6.53262787e+001, 2.88747330e+001, 1.49116879e+001,
          3.07976704e+001, 2.08963108e+000, 1.43299417e+001,
          1.12558441e+001, 4.14213568e-001, 7.01993823e-001,
          1.29800618e+000, 4.14213568e-001, 5.10050488e+000,
          6.62741709e+000, 1.11824465e+001, 6.75417423e-001,
          1.30601943e+000, 1.23802719e+001, 1.57401152e+001,
          4.08792038e+001, 3.69438744e+000, 4.40651321e+001,
          3.53785172e+001, 1.24264069e+001, 3.47867966e+001,
          6.34314585e+000, 5.36118660e+001, 2.57312813e+001,
          2.07106781e+000, 1.03590803e+001, 2.22267056e+001,
          2.38796115e+000, 2.18841171e+001, 3.72792196e+000, 0., 0.,
          9.11734104e+000, 3.24978828e+001, 8.69848442e+000,
          1.88217354e+001, 5.86455679e+000, 3.57698212e+001,
          2.73306866e+001, 1.03553391e+001, 2.38223801e+001,
          1.17217751e+001, 0., 1., 0., 0., 0., 0., 1.01005049e+001,
          4.14213562e+000, 9.23495197e+000, 5.22407770e-001, 0.,
          5.85786462e-001, 1.07695522e+001, 6.84391479e+001,
          1.02055140e+001, 1.04481554e+000, 6.71254396e+000,
          4.97056293e+000, 5.75559502e+001, 7.47161255e+001, 0.,
          1.17157292e+000, 4.55634928e+000, 1.76704655e+001,
          1.16016121e+001, 0., 1.12010098e+001, 7.45584393e+000,
          4.34314585e+000, 0., 0., 1.75735927e+000, 2.36101723e+001,
          5.01100616e+001, 5.22407770e-001, 2.61203885e-001,
          4.08194208e+000, 2.44386005e+001, 8.53689117e+001,
          1.18493414e+001, 0., 7.85786438e+000, 2.36101723e+001,
          1.12667519e+002, 4.68644409e+001, 0., 1.12010098e+001,
          6.62741709e+000, 1.17157292e+000, 0., 2.61203885e-001,
          2.90697479e+001, 1.78111839e+001, 5.85786438e+000, 0.,
          3.18848209e+001, 9.22745590e+001, 1.49116879e+001,
          2.92893219e+000, 0., 2.89739418e+001, 9.95874557e+001,
          3.35513000e+001, 1.68873024e+001, 0., 0., 1.17157292e+000,
          5.79898977e+000, 8.02943707e+000, 0., 2.61203885e-001,
          3.25550308e+001, 1.44974747e+001, 6.68629169e+000, 0.,
          5.73195114e+001, 9.06388550e+001, 7.04163074e+000, 0., 0.,
          3.99423981e+001, 3.83296814e+001, 3.72792196e+000, 0., 0., 0.,
          1.75735927e+000, 7.45584393e+000, 1.27867966e+001, 0.,
          1.58489943e+001, 2.22809467e+001, 1.40832615e+001,
          2.00448093e+001, 6.74198675e+000, 4.25476532e+001,
          5.95112190e+001, 1.49116879e+001, 1.89637527e+001,
          1.00656853e+001, 6.47570877e+001, 3.87576294e+001,
          2.89949489e+000, 8.49188232e+000, 1.00939035e+001, 0.,
          2.34314585e+000, 4.97056293e+000, 1.26862917e+001, 0., 0.,
          8.44365120e+000, 1.61543293e+001, 2.91408157e+001,
          2.61203885e-001, 4.27193222e+001, 3.06532631e+001,
          1.73969688e+001, 2.44282360e+001, 2.80221057e+000,
          1.36156549e+001, 8.97013092e+000, 4.14213568e-001,
          4.85281378e-001, 5.14718652e-001, 0., 7.27207804e+000,
          6.62741709e+000, 8.59666061e+000, 1.50384462e+000, 0.,
          1.17157292e+000, 1.57401152e+001, 5.76632233e+001,
          4.42508745e+000, 4.86615276e+000, 1.54059248e+001,
          1.11837664e+001, 6.10357552e+001, 4.95084000e+001,
          2.92886524e+001, 1.32971344e+001, 2.48528147e+000,
          1.96222267e+001, 4.23067055e+001, 7.83611596e-001,
          1.05595341e+001, 3.31370854e+000, 8.29833031e+000,
          3.04481554e+000, 5.89851046e+000, 1.07877808e+001,
          1.03553391e+001, 4.11915054e+001, 1.37668657e+001,
          1.61203873e+000, 7.73110723e+000, 3.31370854e+000,
          4.24133987e+001, 7.09297485e+001, 0., 0., 0., 1., 0. ]
      - [ 0., 7.17157269e+000, 1.06568546e+001, 6.75735950e+000,
          3.41421366e+000, 0., 0., 0., 0., 4.45441551e+001,
          3.93847771e+001, 0., 0., 0., 0., 0., 0., 4.96862907e+001,
          4.48994942e+001, 2., 1., 0., 1., 5., 0., 3.17573586e+001,
          6.33322716e+001, 2.24065247e+001, 1.00896311e+001, 1.,
          5.65685415e+000, 1.11005049e+001, 0., 1.17573595e+001,
          1.26568546e+001, 5.85786462e-001, 0., 0., 0., 0., 0.,
          1.89289322e+001, 4.04852829e+001, 4.58578634e+000, 5., 2., 2.,
          2., 0., 1.79289322e+001, 3.14142132e+001, 16., 20., 3., 7., 7.,
          0., 2.58578634e+000, 9.24264050e+000, 2.65966606e+001,
          3.87919502e+001, 4.33222122e+001, 3.28743172e+001,
          1.35375261e+001, 0., 1.58578646e+000, 1.56568546e+001,
          1.13431454e+001, 4.14213568e-001, 0., 0., 0., 0., 6.,
          4.14142151e+001, 2.95857868e+001, 4., 0., 0., 0., 0., 14., 46.,
          30., 11., 4., 0., 0., 0., 20., 4.14142151e+001,
          2.01715736e+001, 3.14142132e+001, 5., 11., 1., 0., 3.,
          1.18284273e+001, 6.75735950e+000, 3.41421366e+000, 0., 0., 0.,
          0., 4., 4.26568527e+001, 2.73431454e+001, 7.41421366e+000,
          5.85786462e-001, 0., 0., 0., 16., 6.84142151e+001,
          2.35857868e+001, 5., 0., 0., 0., 0., 7.58578634e+000,
          7.64852829e+001, 6.31005058e+001, 2.48284264e+001, 1., 2., 1.,
          0., 2.75735927e+000, 1.52426405e+001, 7.58578634e+000,
          1.41421354e+000, 0., 0., 0., 0., 1., 3.82132034e+001,
          4.23015137e+001, 6.48528147e+000, 0., 0., 0., 0., 7., 25.,
          2.90294380e+001, 4.37989883e+001, 1.80861473e+001,
          9.08542538e+000, 0., 0., 4., 2.24142132e+001, 1.35857868e+001,
          1.74519482e+001, 1.72890759e+001, 6.13488350e+001,
          2.70817146e+001, 0., 5.41421366e+000, 1.95857868e+001, 4., 0.,
          0., 0., 0., 0., 2.58578634e+000, 3.07212524e+001,
          4.46929588e+001, 8.41421318e+000, 5.85786462e-001, 0., 0., 0.,
          4.92893219e+000, 2.99172516e+001, 3.78962936e+001,
          3.01175919e+001, 3.16801910e+001, 5.63131523e+000, 0., 0., 0.,
          0., 6.46312189e+000, 7.15071487e+001, 5.63808022e+001,
          2.36489258e+001, 3., 0., 2.41421366e+000, 22., 6.58578634e+000,
          0., 0., 0., 0., 4.14213568e-001, 2.64656982e+001,
          5.12916603e+001, 1.38284273e+001, 0., 0., 2., 0., 0.,
          7.43079901e+000, 4.31831741e+001, 2.31438522e+001,
          2.48841214e+000, 3.20377231e-001, 2., 5.85786462e-001, 0., 0.,
          0., 0., 0., 0., 0., 0., 0., 2.58578634e+000, 1.76568546e+001,
          8.75735950e+000, 1., 0., 0., 0., 0., 3.36152229e+001,
          4.05563507e+001, 7.75735950e+000, 1., 0., 0., 0., 0.,
          3.97289963e+001, 7.71524506e+001, 2.00415478e+001,
          1.81580114e+000, 5.85786462e-001, 2., 2.17157292e+000, 0.,
          2.58578634e+000, 4.15666122e+001, 6.71089554e+001,
          5.73864651e+000, 0., 0., 0., 0., 1.79583702e+001,
          7.04163074e+000, 0., 0., 2.61203885e-001, 6.25428352e+001,
          2.31959591e+001, 0., 0., 0., 6.34487000e+001, 3.56223679e+001,
          3.92893219e+000, 0., 5.22407770e-001, 8.67547226e+001,
          3.89360733e+001, 1.27867966e+001, 0., 0., 1.79583702e+001,
          7.04163074e+000, 0., 0., 0., 4.28751068e+001, 2.36101723e+001,
          3.51471853e+000, 0., 0., 4.21471863e+001, 3.18944435e+001,
          9.95836926e+000, 0., 0., 2.68456707e+001, 3.47939377e+001,
          5.85460091e+001, 1.88143787e+001, 0., 2.03015156e+001,
          8.69848442e+000, 0., 0., 0., 5.00761185e+001, 2.69238815e+001,
          0., 0., 0., 5.39634209e+001, 3.76934357e+001, 2.34314585e+000,
          0., 0., 5.01055565e+001, 3.89360733e+001, 9.95836926e+000, 0.,
          0., 1.53725834e+001, 6.62741709e+000, 0., 0., 0.,
          5.03898277e+001, 2.40243874e+001, 5.85786462e-001, 0., 0.,
          7.32060623e+001, 3.47939377e+001, 0., 0., 0., 9.33238068e+001,
          5.63330460e+001, 2.34314585e+000, 0., 5.22407770e-001,
          2.09212437e+001, 4.55634928e+000, 0., 0., 5.22407770e-001,
          6.48379822e+001, 1.86396103e+001, 0., 0., 0., 3.94903336e+001,
          3.56223679e+001, 1.83235626e+001, 2.56373954e+000, 0.,
          2.38456707e+001, 2.89949493e+001, 6.49260483e+001,
          2.92333317e+001, 2.08963108e+000, 2.19398060e+001,
          4.97056293e+000, 0., 0., 9.36621308e-001, 6.22521973e+001,
          1.82253971e+001, 5.85786462e-001, 0., 1.81302834e+001,
          5.41712341e+001, 1.40832615e+001, 2.39611015e+001,
          2.16541214e+001, 0., 5.68629169e+000, 2.11248913e+001,
          6.56992264e+001, 3.44895859e+001, 2.39565039e+000,
          2.28053589e+001, 5.79898977e+000, 0., 0., 8.29514503e+000,
          7.50063705e+001, 9.52691174e+000, 1.17157292e+000, 0.,
          3.03033466e+001, 4.21403046e+001, 6.21320343e+000,
          2.34314585e+000, 0., 0., 0., 0., 0., 0., 0., 2.23725834e+001,
          6.62741709e+000, 0., 0., 1.56722319e+000, 6.42073822e+001,
          1.82253971e+001, 0., 0., 3.18035431e+001, 9.60126877e+001,
          1.32548342e+001, 3.92893219e+000, 0., 4.63613472e+001,
          6.14254494e+001, 6.21320343e+000, 0., 0., 0., 5.68629169e+000,
          7.45584393e+000, 6.85786438e+000, 0., 0., 3.53603897e+001,
          1.86396103e+001, 0., 0., 0., 4.79339828e+001, 3.23086586e+001,
          1.75735927e+000, 0., 5.22407770e-001, 6.43405075e+001,
          4.26639977e+001, 2.46894760e+001, 7.83611596e-001, 0.,
          8.02943707e+000, 5.38477612e+000, 5.85786462e-001, 0., 0.,
          1.50588741e+001, 1.49116879e+001, 7.02943707e+000, 0., 0.,
          2.45025253e+001, 3.06518040e+001, 2.28456707e+001, 0.,
          2.80355883e+000, 2.52553158e+001, 4.18355713e+001,
          7.25234375e+001, 1.35821161e+001, 0., 1.17157292e+000,
          5.38477612e+000, 8.44365120e+000, 0., 0., 4.68629169e+000,
          1.73969688e+001, 1.99167385e+001, 0., 0., 9.95836926e+000,
          2.56812401e+001, 2.63603897e+001, 0., 0., 2.64314575e+001,
          3.89360733e+001, 3.46324692e+001, 0., 0., 2.92893219e+000,
          6.21320343e+000, 6.85786438e+000, 0., 0., 2.34314585e+000,
          1.61543293e+001, 2.25025253e+001, 0., 0., 1.34730883e+001,
          2.15391045e+001, 1.69878063e+001, 0., 0., 8.20100975e+000,
          4.18355713e+001, 5.49634209e+001, 0., 0., 2.34314585e+000,
          4.14213562e+000, 6.51471853e+000, 0., 0., 5.85786462e-001,
          1.78111839e+001, 3.86030312e+001, 0., 0., 5.85786438e+000,
          2.77523079e+001, 6.76695938e+001, 1.72023296e+000,
          1.56722319e+000, 3.81779442e+001, 3.02375908e+001,
          3.55396500e+001, 3.47759223e+000, 0., 4.10050488e+000,
          5.79898977e+000, 4.10050488e+000, 0., 0., 2.34314585e+000,
          2.19533195e+001, 4.09199257e+001, 7.83611596e-001, 0.,
          5.92893219e+000, 1.11837664e+001, 7.38194199e+001,
          3.70678864e+001, 0., 2.34314585e+000, 1.24264069e+001,
          7.71865921e+001, 5.50438576e+001, 0., 2.92893219e+000,
          5.38477612e+000, 4.68629169e+000, 0., 0., 2.74020195e+001,
          1.78111839e+001, 1.27867966e+001, 0., 1.35083485e+000,
          1.25070295e+001, 8.28427124e+000, 2.95697613e+001,
          1.02881031e+001, 0., 0., 0., 0., 0., 0., 1.75735927e+000,
          5.79898977e+000, 6.44365072e+000, 0., 0., 2.93309517e+001,
          1.90538235e+001, 7.61522388e+000, 0., 1.82842708e+000,
          4.95319633e+001, 2.48528137e+001, 2.41948814e+001,
          7.59191513e+000, 0., 2.34314585e+000, 9.11269855e+000,
          5.04091225e+001, 3.41350327e+001 ]
      - [ 0., 9.51471901e+000, 6.24264050e+000, 0., 0., 1., 5., 1., 0.,
          2., 7.41421366e+000, 1.79289322e+001, 2.33137093e+001,
          2.25147190e+001, 1.08284273e+001, 1., 0., 0., 0.,
          8.64217091e+000, 8.39074326e+001, 6.08893089e+001,
          6.56108379e+000, 0., 0., 0., 6.75348234e+000, 3.24651766e+000,
          11., 0., 0., 0., 0., 0., 0., 0., 0., 5.85786462e-001,
          4.41421366e+000, 8., 0., 8.58578682e+000, 7.41421366e+000, 2.,
          3., 2., 1.69222641e+001, 2.24465275e+001, 0., 0., 0., 1.,
          1.03974428e+001, 6.11616325e+001, 6.61220474e+001,
          1.93188782e+001, 0., 2.89180589e+000, 2.78530865e+001,
          4.13794060e+001, 7.64236450e+001, 2.75339985e+001,
          1.46568546e+001, 3.58578634e+000, 0., 0., 0., 0., 0., 0., 1.,
          1.38284273e+001, 0., 2.58578634e+000, 0., 0., 0., 0.,
          7.12640095e+000, 6.32036781e+001, 0., 2.16677284e+001,
          5.41421366e+000, 1., 2., 1., 6.41421366e+000, 2.76904964e+001,
          0., 3.06862907e+001, 3.78284264e+001, 8., 7., 3., 16.,
          8.75735950e+000, 0., 0., 0., 0., 0., 0., 0., 1.02010098e+001,
          0., 2.73479295e+000, 0., 0., 0., 0., 1.50221109e-001,
          4.05394974e+001, 0., 1.95634289e+001, 6.01665735e+000, 0., 0.,
          0., 5.35121489e+000, 1.22308445e+001, 0., 1.82357197e+001,
          4.45665665e+001, 3.12664485e+000, 5., 2.58578634e+000,
          2.82842708e+000, 1.58578646e+000, 0., 2., 0., 0., 0., 0.,
          1.41421354e+000, 1.49289322e+001, 0., 3.33890963e+000,
          1.66109049e+000, 0., 0., 0., 2.76925373e+000, 4.15095100e+001,
          0., 1.10525398e+001, 1.39669867e+001, 6.46999502e+000,
          6.43302870e+000, 4.02008247e+000, 9.50318146e+000,
          4.60291405e+001, 0., 5.80612946e+000, 1.33058109e+001,
          1.68074355e-001, 0., 0., 4.28851157e-001, 6.80904961e+000, 0.,
          3.58578634e+000, 3.41421366e+000, 0., 2., 1., 2.,
          4.17157269e+000, 0., 1.55887833e+001, 1.57302876e+001,
          7.37647963e+000, 5.85786462e-001, 2.41421366e+000,
          1.25080500e+001, 1.16962490e+001, 0., 1.75337391e+001,
          1.24249287e+001, 2.85119557e+000, 1.73459077e+000,
          4.32037735e+000, 2.78516483e+001, 3.92690125e+001, 0.,
          5.70122185e+001, 4.14225464e+001, 1.67946339e+001,
          3.09383631e+000, 5.58578634e+000, 6.88382292e+000,
          6.25516796e+000, 0., 1.19289322e+001, 1.82842708e+000, 0., 0.,
          3., 5., 1., 0., 1.84142132e+001, 1.81388474e+001,
          9.84925938e+000, 6.44887638e+000, 6.90616369e+000,
          1.52612038e+001, 6.73879623e+000, 0., 2., 24., 7.,
          2.54852810e+001, 2.00108738e+001, 3.76568527e+001,
          1.24327765e+001, 0., 2.47809086e+001, 4.93486023e+001,
          4.48470497e+001, 2.67529488e+001, 2.15279388e+001,
          1.54857664e+001, 8.06337833e+000, 0., 4.17157269e+000,
          4.14213568e-001, 0., 0., 2., 8.24264050e+000, 7.34314585e+000,
          0., 7.34314585e+000, 1.32612038e+001, 1.30245104e+001,
          2.73711395e+001, 8.75735950e+000, 4., 2.41421366e+000, 0.,
          3.17157292e+000, 2.00118942e+001, 3.03862667e+001,
          5.51889191e+001, 2.87189388e+001, 1.35224075e+001, 0., 0., 0.,
          1.84890139e+000, 1.83552456e+001, 5.43881989e+001,
          8.40765190e+000, 0., 0., 0., 1.20294371e+001, 7.87005758e+000,
          4.10050488e+000, 0., 0., 1.78162346e+001, 2.31959591e+001,
          2.39878063e+001, 0., 0., 6.44365072e+000, 2.19533195e+001,
          6.30803642e+001, 3.25226631e+001, 1.62044942e+000,
          6.72269630e+000, 1.65685427e+000, 0., 0., 0., 0.,
          4.14213562e+000, 8.59666061e+000, 2.61203885e-001, 0.,
          1.13725834e+001, 1.82253971e+001, 3.14839630e+001,
          1.91805816e+000, 0., 5.85786462e-001, 1.24264069e+001,
          8.81482544e+001, 5.28395538e+001, 1.17267618e+001,
          5.32194138e+001, 3.60365791e+001, 3.83046989e+001,
          1.71254385e+000, 0., 0., 7.04163074e+000, 1.09583693e+001, 0.,
          0., 1.75735927e+000, 7.87005758e+000, 5.82516479e+001,
          1.81209335e+001, 0., 1.99878063e+001, 2.60954552e+001,
          2.64653988e+001, 1.45133996e+000, 0., 5.01766243e+001,
          4.14213562e+001, 1.74020195e+001, 0., 0., 0., 6.62741709e+000,
          9.37258339e+000, 0., 0., 4.34314585e+000, 1.40832615e+001,
          5.77320518e+001, 7.84154224e+000, 1.28970490e+001,
          1.92034569e+001, 6.21320343e+000, 1.73625622e+001,
          8.32372952e+000, 2.24916573e+001, 3.63956451e+001,
          1.11837664e+001, 4.92893219e+000, 0., 0., 1.17157292e+000,
          7.45584393e+000, 1.13725834e+001, 0., 2.67848969e+000,
          1.90729666e+000, 1.36690474e+001, 5.31702538e+001,
          5.57491255e+000, 1.78706074e+001, 1.75730419e+001,
          1.36690474e+001, 5.55638695e+001, 2.83234329e+001,
          1.24390144e+001, 7.73255873e+000, 2.89949489e+000,
          8.04266739e+000, 5.88626480e+000, 0., 4.51471853e+000,
          5.38477612e+000, 5.10050488e+000, 0., 4.58783817e+000,
          2.94710369e+001, 1.61543293e+001, 1.98239231e+001,
          2.96287370e+000, 2.86760521e+000, 2.47770557e+001,
          2.44386005e+001, 4.79902992e+001, 1.69264393e+001,
          7.82199554e+001, 4.42947655e+001, 6.21320343e+000,
          1.16966448e+001, 5.57543325e+000, 0., 1.08578644e+001,
          7.87005758e+000, 5.27207804e+000, 0., 2.79448581e+000,
          3.41933212e+001, 1.82253971e+001, 2.15441551e+001,
          2.24264073e+000, 0., 2.05735931e+001, 3.14802303e+001,
          4.81145630e+001, 5.83161211e+000, 7.98984222e+001,
          4.72315216e+001, 1.94680367e+001, 3.11819496e+001,
          9.22007179e+000, 0., 3.75735927e+000, 5.79898977e+000,
          1.34436512e+001, 0., 1.71254385e+000, 2.85889721e+001,
          1.36690474e+001, 1.25070295e+001, 5.22407770e-001,
          5.70248365e+000, 4.53858299e+001, 2.94091625e+001,
          4.22681465e+001, 6.23437834e+000, 2.06355877e+001,
          1.49501982e+001, 3.31370854e+000, 1.32469492e+001,
          5.85355568e+000, 0., 1.04436512e+001, 4.97056293e+000,
          5.85786462e-001, 0., 0., 1.75735927e+000, 2.23675327e+001,
          4.38751068e+001, 0., 0., 0., 1.07695522e+001, 7.17695313e+001,
          7.24609146e+001, 0., 0., 2.07106781e+000, 1.01592808e+001,
          4.76965141e+000, 0., 1.73725834e+001, 7.04163074e+000,
          5.85786462e-001, 0., 2.19782519e+000, 3.37899818e+001,
          1.49116879e+001, 4.10050488e+000, 0., 3.01856327e+000,
          2.67682343e+001, 2.40243874e+001, 6.74091873e+001,
          1.67796249e+001, 2.61203885e-001, 1.07682333e+001,
          2.77523079e+001, 1.08544334e+002, 2.26739216e+001,
          1.04481554e+000, 1.77419815e+001, 6.21320343e+000, 0., 0.,
          2.11516895e+001, 6.86351089e+001, 6.21320343e+000, 0., 0.,
          5.94749546e+000, 8.13712616e+001, 2.73380947e+001,
          2.34314585e+000, 0., 7.83611596e-001, 7.17777863e+001,
          3.18944435e+001, 1.05441561e+001, 0., 0., 2.71005058e+001,
          2.89949489e+000, 0., 0., 4.19997711e+001, 5.10002289e+001, 0.,
          0., 0., 3.76128235e+001, 3.79018936e+001, 2.48528147e+000, 0.,
          0., 4.34036779e+000, 3.21327209e+001, 1.44974747e+001,
          8.02943707e+000, 0., 0., 2.07157288e+001, 8.28427124e+000, 0.,
          0., 2.70058651e+001, 6.01951447e+001, 5.79898977e+000, 0., 0.,
          5.93531685e+001, 6.17473373e+001, 4.97056293e+000,
          1.32949018e+001, 9.63403034e+000, 2.55124302e+001,
          1.86591434e+001, 8.28427136e-001, 1., 0., 0., 1.23725834e+001,
          7.87005758e+000, 1.75735927e+000, 0., 4.52731419e+000,
          3.36320648e+001, 1.69827557e+001, 9.33545685e+000,
          5.22407770e-001, 1.55120096e+001, 8.03630981e+001,
          2.44386005e+001, 7.17157269e+000, 5.14718652e-001,
          5.70367317e+001, 3.68211327e+001, 6.62741709e+000,
          1.75748482e+001, 1.39398708e+001, 0., 1.46152239e+001,
          6.62741709e+000, 1.75735927e+000, 0., 0., 2.75735931e+001,
          1.86396103e+001, 1.62458248e+001, 2.54097104e+000, 0.,
          1.27157288e+001, 2.56812401e+001, 4.13418274e+001,
          2.61203885e-001, 2.32257462e+001, 3.33894768e+001,
          1.57401152e+001, 5.24691696e+001, 5.01754913e+001, 0.,
          1.17867966e+001, 7.04163074e+000, 1.17157292e+000, 0., 0.,
          1.32010098e+001, 1.32548342e+001, 3.94468346e+001,
          5.09732008e+000, 0., 6.68629169e+000, 2.23675327e+001,
          7.27530899e+001, 3.01930828e+001, 0., 0., 8.28427136e-001,
          2.57147789e+001, 5.54567947e+001 ]
      - [ 0., 0., 3.08963108e+000, 4.06337881e+000, 8.84699059e+000,
          5.32037735e+000, 5.26540899e+000, 4.14213568e-001, 0.,
          1.09503717e+001, 9.28037453e+000, 1.15857868e+001,
          1.82773037e+001, 1.21369095e+001, 1.48284273e+001,
          6.17157269e+000, 0., 3.16069889e+000, 6.92893219e+000,
          2.90762424e+001, 4.86999168e+001, 2.61724186e+001,
          1.30447531e+001, 4.56301785e+000, 0., 0., 0., 1.43660641e+000,
          3.04173145e+001, 8.89043236e+000, 1.25564766e+000, 1., 0.,
          6.81653261e+000, 9.41421318e+000, 2., 2., 1., 3.,
          4.14213568e-001, 0., 7.75735950e+000, 1.16526489e+001,
          1.86485577e+001, 2.05272198e+001, 1.01715727e+001, 14., 3., 0.,
          1., 8.19782543e+000, 1.87860756e+001, 5.00279961e+001,
          2.79170380e+001, 1.80710678e+001, 3., 0., 1., 7.41421366e+000,
          1.82275600e+001, 8.73031845e+001, 6.35278473e+001,
          1.39414063e+001, 3.17157292e+000, 0., 4.41421366e+000,
          1.15857868e+001, 7.17157269e+000, 1.82842708e+000,
          1.73879611e+000, 1.52240777e+000, 7.38796115e-001, 0.,
          1.55147190e+001, 1.56568546e+001, 1., 1., 5.17157269e+000,
          1.30710678e+001, 1.19289322e+001, 0., 1.34142132e+001, 8., 0.,
          2., 1., 1.82426414e+001, 3.49954796e+001, 0., 8.03995037e+000,
          3.26120377e+000, 0., 1., 1., 1.43568583e+001, 9.90772476e+001,
          0., 2.75735927e+000, 7.07106781e+000, 1.17157292e+000, 0.,
          2.73459077e+000, 8.69818592e+000, 1.56722319e+000, 0.,
          9.89814663e+000, 1.23636971e+001, 3.49465489e+000, 5.,
          3.92675114e+000, 1.68021889e+001, 1.44100513e+001, 0.,
          1.48267374e+001, 2.47006721e+001, 7.51087999e+000,
          5.83628845e+000, 1.08316910e+000, 7.27995110e+000,
          3.71647682e+001, 0., 1.01574249e+001, 5.48695421e+000, 0., 0.,
          0., 5.35976362e+000, 4.84800491e+001, 0., 0., 5., 6., 6., 4.,
          4.94082642e+000, 1.05917335e+000, 0., 2.43720818e+001,
          1.30569057e+001, 4.94848728e+000, 3., 4.64495993e+000,
          7.18346739e+000, 5.75735950e+000, 0., 2.32371540e+001,
          1.18662825e+001, 4.14213568e-001, 0., 0., 0., 8.10447752e-001,
          0., 0., 0., 0., 0., 0., 0., 0., 0., 2., 2., 3., 6., 3., 6., 2.,
          0., 2.04323006e+001, 3.44385414e+001, 1.04876661e+001,
          6.51670277e-001, 0., 0., 1.58578646e+000, 0., 0., 0., 0., 0.,
          0., 0., 0., 0., 0., 0., 0., 0., 0., 0., 0., 0., 0., 1., 2.,
          2.58578634e+000, 5.58578634e+000, 1.03322716e+001,
          5.49615526e+000, 0., 1.10826921e+001, 3.32008591e+001,
          3.86085033e+000, 3.12688804e+000, 7.32312298e+000,
          1.06623888e+001, 6.05917358e+000, 0., 5.52614784e+000,
          1.45969172e+001, 1.74535000e+000, 0., 0., 0., 0., 0., 0., 0.,
          0., 0., 0., 0., 0., 0., 1., 3., 0., 6., 4., 4., 1., 0.,
          4.49275541e+000, 7.61536169e+000, 1.65610714e+001,
          2.25562134e+001, 1.53130054e+001, 1.19331713e+001,
          3.65851068e+000, 1.34958923e+000, 4.84484148e+000,
          1.29317017e+001, 2.74265156e+001, 2.63921814e+001,
          1.01006708e+001, 1.11250553e+001, 4.82944345e+000, 0., 0., 1.,
          7.67432749e-001, 2.23256731e+000, 0., 0., 0., 1.50384462e+000,
          5.25351477e+000, 2.48528147e+000, 8.29833031e+000,
          1.45902908e+000, 1.87324262e+000, 2.55998459e+001,
          1.73969688e+001, 2.74097099e+001, 1.72023296e+000,
          2.15286846e+001, 3.90865402e+001, 1.36690474e+001,
          3.55662003e+001, 1.01495285e+001, 2.12684011e+000,
          2.45894623e+000, 1.24264073e+000, 1.05362062e+001,
          8.63536644e+000, 4.14213568e-001, 1.62720776e+001,
          4.55634928e+000, 3.75735927e+000, 0., 2.49615550e+000,
          3.08053589e+001, 1.73969688e+001, 2.15179043e+001,
          7.83611596e-001, 1.04481554e+000, 2.17714176e+001,
          3.02375908e+001, 3.69461746e+001, 0., 4.14213568e-001,
          2.23309517e+001, 3.23086586e+001, 7.53269577e+001,
          1.76192207e+001, 1.30601943e+000, 1.77234173e+001,
          5.38477612e+000, 2.64916515e+000, 9.36621308e-001, 0.,
          2.14020195e+001, 2.07106781e+001, 2.18873024e+001, 0., 0.,
          1.37157288e+001, 2.98233757e+001, 3.99384880e+001,
          5.22407770e-001, 2.16110563e+000, 9.11097240e+000,
          2.07106781e+001, 9.74334641e+001, 3.85837822e+001, 0.,
          9.34314537e+000, 2.48528147e+000, 9.92893219e+000,
          2.24264073e+000, 1.19176455e+001, 1.37686462e+001,
          8.28427124e+000, 1.91314297e+001, 1.38980074e+001,
          2.65400124e+001, 2.30752125e+001, 1.78111839e+001,
          4.69148369e+001, 1.66587543e+001, 8.55525780e+000,
          1.73026066e+001, 1.07695522e+001, 3.62043533e+001,
          2.91682320e+001, 0., 6.85786438e+000, 7.04163074e+000,
          6.42508745e+000, 6.75417423e-001, 2.29753132e+001,
          1.78114834e+001, 1.11837664e+001, 1.23540201e+001,
          6.75417423e-001, 2.59464664e+001, 1.63966789e+001,
          2.07106781e+000, 2.32458258e+000, 2.61203885e-001, 0., 0., 0.,
          0., 0., 0., 4.51471853e+000, 6.62741709e+000, 6.85786438e+000,
          0., 4.17947922e+001, 2.23057137e+001, 3.72792196e+000,
          1.17157292e+000, 0., 0., 0., 0., 0., 0., 0., 0., 0., 0., 0.,
          0., 1.75735927e+000, 6.21320343e+000, 1.67682343e+001,
          2.61203885e-001, 3.91347580e+001, 1.08652420e+001,
          2.48528147e+000, 1.91638832e+001, 5.35083485e+000,
          1.59481306e+001, 6.05186987e+000, 0., 0., 0., 0., 0., 0., 0.,
          0., 0., 2.34314585e+000, 4.97056293e+000, 5.68629169e+000, 0.,
          1.45342922e+001, 2.01519985e+001, 1.07695522e+001,
          1.97126198e+001, 7.83153629e+000, 3.53304138e+001,
          1.74269466e+001, 2.89949489e+000, 1.34320126e+001,
          1.99111328e+001, 8.99901807e-001, 1.10009825e+000, 0., 0., 0.,
          0., 1.75735927e+000, 5.38477612e+000, 1.53988352e+001,
          1.45902908e+000, 9.36621308e-001, 1.84359608e+001,
          1.57401152e+001, 3.22938271e+001, 3.59347558e+000,
          2.06656361e+000, 1.30339413e+001, 1.11837664e+001,
          5.00485039e+001, 5.16672249e+001, 0., 1.17157292e+000,
          1.24264073e+000, 1.23810883e+001, 2.82046986e+001,
          9.36621308e-001, 1.12349520e+001, 2.48528147e+000,
          3.34314585e+000, 0., 0., 1.06862917e+001, 1.03553391e+001,
          3.91485062e+001, 6.80986404e+000, 0., 6.44365072e+000,
          2.31959591e+001, 7.57854767e+001, 5.57491255e+000, 0.,
          4.51471853e+000, 2.60954552e+001, 1.07682220e+002,
          4.27076035e+001, 0., 4.92893219e+000, 6.21320343e+000,
          9.85786438e+000, 0., 0., 3.28456726e+001, 1.94680367e+001,
          4.68629169e+000, 0., 6.12049532e+000, 6.13698349e+001,
          2.77523079e+001, 1.75735927e+000, 0., 6.28605499e+001,
          1.10541473e+002, 1.24264069e+001, 1.17157292e+000, 0., 0.,
          6.10050488e+000, 4.97056293e+000, 3.92893219e+000, 0.,
          1.38964825e+001, 2.89908199e+001, 1.40832615e+001,
          1.22951555e+001, 2.73428154e+000, 4.72202377e+001,
          6.93239212e+001, 8.69848442e+000, 1.16528673e+001,
          8.10449219e+000, 6.02725639e+001, 5.77568703e+001,
          4.97056293e+000, 0., 0., 0., 2.17157292e+000, 7.04163074e+000,
          9.78679657e+000, 0., 1.63337803e+001, 3.11393070e+001,
          1.57401152e+001, 9.78679657e+000, 0., 2.92930527e+001,
          2.30500927e+001, 2.07106781e+000, 5.85786462e-001, 0., 0., 0.,
          0., 0., 0., 0., 4.51471853e+000, 7.45584393e+000,
          7.02943707e+000, 0., 1.78442974e+001, 1.60846348e+001,
          2.89949489e+000, 7.77797747e+000, 8.39359570e+000, 0., 0., 0.,
          0., 0., 0., 0., 0., 0., 0., 0., 4.92893219e+000,
          6.21320343e+000, 6.59666061e+000, 2.61203885e-001,
          1.50347729e+001, 1.80657330e+001, 6.62741709e+000,
          1.35962563e+001, 7.67582178e+000, 6.84744692e+000,
          3.73833942e+000, 4.14213568e-001, 1.36130214e+000,
          1.63869786e+000, 0., 0., 0., 0., 0., 0., 1.75735927e+000,
          4.97056293e+000, 6.27207804e+000, 0., 2.85016489e+000,
          1.28361263e+001, 1.07695522e+001, 3.26535606e+001,
          1.88905926e+001, 9.34283733e+000, 7.24294949e+000,
          1.24264073e+000, 2.18289051e+001, 4.83426666e+001, 0., 0., 0.,
          1.36130214e+000, 1.63869786e+000 ]
      - [ 0., 1., 6., 1., 1.41421354e+000, 2.58578634e+000, 0., 0., 0.,
          8.41848946e+000, 2.47046604e+001, 1.44162054e+001,
          5.78102160e+000, 6.79622769e-001, 2., 0., 0., 2.00723839e+001,
          3.05532951e+001, 2.33445053e+001, 2.16596394e+001,
          1.35090494e+001, 1.03016272e+001, 3., 0., 1., 8.28427136e-001,
          3.58578634e+000, 3.02551060e+001, 5.57612076e+001,
          5.69470406e-001, 0., 0., 2., 8., 3.58578634e+000,
          5.41421366e+000, 1., 0., 0., 0., 7.92893219e+000,
          3.10710678e+001, 12., 6., 3., 1., 2., 0., 1., 8.41421318e+000,
          5.80626774e+000, 3.04350109e+001, 2.42448883e+001,
          2.80996208e+001, 6., 0., 2., 6.75417423e-001, 4.80807209e+000,
          4.75897789e+001, 6.18429604e+001, 1.64979858e+001,
          4.75735950e+000, 0., 0., 2., 4.17157269e+000, 1.62426414e+001,
          3.58578634e+000, 0., 0., 0., 4.17157269e+000, 7.,
          1.25857868e+001, 3.34142151e+001, 6., 1., 1., 0., 2.,
          7.82842731e+000, 1.21715727e+001, 1.04142132e+001,
          8.17157269e+000, 1.33508348e+001, 3.87286224e+001, 0.,
          7.70315409e+000, 6., 2., 6., 5.58578634e+000, 1.14142132e+001,
          1.61026192e+001, 0., 0., 11., 8., 8., 0., 1., 0., 0.,
          2.19074368e+000, 7., 4., 1.24142132e+001, 4.17157269e+000,
          8.82842731e+000, 1.59503546e+001, 0., 0., 0., 0., 0., 0.,
          2.35850692e+000, 2.39232979e+001, 0., 0., 0., 0., 0., 0., 0.,
          0., 0., 0., 2., 5., 11., 2., 0., 0., 0., 6.34308290e+000,
          1.74385014e+001, 1.53454332e+001, 3.26540923e+000,
          4.41421366e+000, 8.67541790e+000, 1.40044231e+001, 0.,
          6.75417423e-001, 8.39059830e+000, 2.52862434e+001,
          6.32315826e+000, 2., 1.94075184e+001, 5.53391228e+001, 0.,
          5.84112024e+000, 1.49187517e+001, 1.53366184e+001,
          1.70642579e+000, 1., 5.48951054e+000, 3.07554550e+001, 0., 0.,
          2., 1., 2., 0., 1., 0., 0., 1.14494638e+001, 1.32816896e+001,
          1.25152292e+001, 1.21737804e+001, 9.52098083e+000,
          3.41421366e+000, 2.38024116e+000, 0., 4.32158184e+000,
          1.69121289e+000, 1.83757019e+001, 1.87285480e+001,
          1.11070085e+000, 8.50804996e+000, 2.66142197e+001, 0.,
          6.43904257e+000, 0., 1.49137249e+001, 2.18657932e+001,
          8.06267619e-001, 3.69458818e+000, 4.15324059e+001, 0., 0.,
          4.41421366e+000, 9.17157269e+000, 1.04142132e+001, 4., 1., 0.,
          0., 1.11333256e+001, 1.23331451e+001, 9.65780449e+000,
          1.82482662e+001, 5.43277693e+000, 5.41421366e+000,
          3.58578634e+000, 0., 2.80035210e+001, 3.14880443e+000,
          3.99540329e+000, 4.61902847e+001, 6.49393654e+000,
          2.82842708e+000, 5.96979904e+000, 0., 1.78200645e+001,
          4.14213568e-001, 9.85178661e+000, 6.59753113e+001,
          7.75869131e+000, 0., 9.76645374e+000, 0., 0., 2., 1., 9., 2.,
          1., 0., 0., 6.32037735e+000, 5., 7.88294172e+000,
          3.54954834e+001, 2.62157607e+000, 3., 4.17157269e+000, 0.,
          2.91149597e+001, 2.66846561e+000, 6.42604902e-002,
          1.97462006e+001, 4.18953896e+000, 0., 1., 0., 1.82865124e+001,
          2.53027287e+001, 1.53652906e+000, 9.06850147e+000,
          1.39755630e+001, 1.37435389e+000, 1.58578646e+000, 0.,
          4.68629169e+000, 4.55634928e+000, 1.75735927e+000, 0.,
          7.97653675e+000, 2.66975613e+001, 1.61543293e+001,
          1.91036904e+000, 2.61203885e-001, 1.55595551e+001,
          4.23155518e+001, 2.77523079e+001, 1.39212141e+001,
          8.45136929e+000, 0., 4.34314585e+000, 2.48528147e+000,
          1.64021568e+001, 6.17694168e+001, 0., 8.20100975e+000,
          6.21320343e+000, 5.85786462e-001, 0., 0., 3.48456726e+001,
          1.86396103e+001, 3.51471853e+000, 0., 0., 1.02010098e+001,
          2.19533195e+001, 3.93743134e+001, 4.47135687e+000,
          2.61203885e-001, 5.83930111e+000, 1.61543293e+001,
          4.97602615e+001, 4.19849052e+001, 0., 4.51471853e+000,
          4.14213562e+000, 2.34314585e+000, 0., 0., 1.46446609e+001,
          1.36690474e+001, 4.68629169e+000, 0., 0., 1.37157288e+001,
          2.11248913e+001, 3.83037949e+001, 3.18555851e+001,
          7.39531708e+000, 1.13914795e+001, 1.44974747e+001,
          2.67610741e+001, 1.49546537e+001, 0., 1.23725834e+001,
          7.04163074e+000, 5.85786462e-001, 0., 0., 8.20100975e+000,
          1.40832615e+001, 2.56280174e+001, 6.08771229e+000, 0., 0., 0.,
          1.02023811e+001, 3.57976189e+001, 0., 0., 0., 0., 0., 0.,
          4.10050488e+000, 3.72792196e+000, 1.17157292e+000, 0.,
          1.66624699e+001, 2.11243267e+001, 1.32548342e+001,
          1.87410374e+001, 8.21733284e+000, 3.01000481e+001,
          7.24309778e+000, 7.87005758e+000, 3.42847633e+001,
          5.25020332e+001, 3.25018425e+001, 6.25551701e+000,
          1.65685427e+000, 1.81883087e+001, 3.33974762e+001, 0.,
          1.75735927e+000, 1.65685427e+000, 5.85786462e-001, 0.,
          2.13113117e+001, 2.30612717e+001, 1.36690474e+001,
          1.66523495e+001, 1.30601943e+000, 2.38343372e+001,
          1.57808867e+001, 1.90538235e+001, 3.74878540e+001,
          1.48430996e+001, 2.98160076e+001, 1.56276426e+001,
          1.28406200e+001, 3.67269554e+001, 3.29887733e+001, 0.,
          9.61522388e+000, 7.45584393e+000, 2.92893219e+000, 0.,
          1.10204458e+001, 2.16952839e+001, 1.44974747e+001,
          9.78679657e+000, 0., 2.08498077e+001, 3.15522137e+001,
          1.86396103e+001, 2.22986813e+001, 1.16596880e+001,
          3.42032433e+001, 3.20982704e+001, 1.78111839e+001,
          2.19512863e+001, 1.19360151e+001, 0., 1.75735927e+000,
          2.48528147e+000, 1.75735927e+000, 0., 1.37687578e+001,
          1.76038246e+001, 1.32548342e+001, 9.37258339e+000, 0.,
          2.64168644e+001, 9.16892242e+000, 8.28427136e-001,
          3.53158641e+000, 8.05420017e+000, 3.43670692e+001,
          1.07334366e+001, 3.72792196e+000, 5.48196077e+000,
          1.56896124e+001, 0., 5.85786462e-001, 2.07106781e+000,
          3.34314585e+000, 0., 0., 8.78679657e+000, 1.07695522e+001,
          9.37123966e+000, 8.07241058e+000, 1.01249762e+001,
          1.80049667e+001, 2.36101723e+001, 3.51659698e+001,
          1.30939140e+001, 0., 5.85786462e-001, 2.07106781e+000,
          1.67231159e+001, 7.26200333e+001, 0., 1.17157292e+000,
          4.55634928e+000, 6.27207804e+000, 0., 0., 1.23015156e+001,
          1.73969688e+001, 1.23015156e+001, 0., 0., 1.09583693e+001,
          2.81665230e+001, 3.85399323e+001, 5.33517647e+000, 0.,
          7.85786438e+000, 1.94680367e+001, 4.55564270e+001,
          5.81176720e+001, 0., 0., 6.21320343e+000, 1.77867966e+001, 0.,
          0., 6.68629169e+000, 2.19533195e+001, 3.33603897e+001, 0.,
          4.24022980e+001, 2.97987118e+001, 1.82253971e+001,
          1.95735931e+001, 0., 4.10518341e+001, 2.48060284e+001,
          9.94112587e+000, 8.20100975e+000, 0., 0., 0., 5.38477612e+000,
          1.06152239e+001, 0., 1.44231672e+001, 2.41209888e+001,
          1.49116879e+001, 1.35441561e+001, 0., 4.83595352e+001,
          7.64046621e+000, 0., 0., 0., 0., 0., 0., 0., 0., 0.,
          5.85786462e-001, 5.79898977e+000, 1.18316116e+001,
          7.83611596e-001, 1.86478901e+001, 1.59673338e+001,
          1.24264069e+001, 1.63492088e+001, 7.60916042e+000,
          5.92298660e+001, 2.79711456e+001, 7.87005758e+000,
          1.02303114e+001, 2.86986217e+001, 5.12047119e+001,
          1.71384335e+001, 1.65685427e+000, 5.29415131e+000,
          1.77058487e+001, 0., 0., 1.24264073e+000, 1.75735927e+000, 0.,
          1.98791771e+001, 1.73929005e+001, 1.11837664e+001,
          1.68376102e+001, 1.47065458e+001, 4.82589111e+001,
          4.02141800e+001, 1.07695522e+001, 6.77317286e+000,
          3.09841862e+001, 7.50919800e+001, 4.81090317e+001,
          5.79898977e+000, 5.47694778e+000, 3.25230522e+001, 0., 0.,
          8.69848442e+000, 1.50403109e+001, 2.61203885e-001,
          5.09787321e+000, 1.75173512e+001, 1.44974747e+001,
          1.97459526e+001, 8.14134979e+000, 3.24734039e+001,
          4.69286156e+001, 1.15979795e+001, 8.63664627e+000,
          4.83633537e+001, 3.72553635e+001, 3.80167160e+001,
          4.14213562e+000, 1.12937298e+001, 7.22920532e+001, 0.,
          1.17157292e+000, 5.79898977e+000, 7.02943707e+000, 0.,
          9.36621308e-001, 1.45070295e+001, 5.79898977e+000,
          6.75342703e+000, 3.80039330e+001, 2.67686558e+001,
          7.81713104e+000, 4.14213568e-001, 2.78341579e+000,
          2.12165833e+001, 1.78122425e+001, 2.27319145e+001,
          9.11269855e+000, 6.80537796e+000, 1.85377674e+001 ]
      - [ 0., 9.17157269e+000, 5.41421366e+000, 2., 4., 4., 0., 2., 0.,
          2.22048116e+000, 2.95420570e+001, 1.72374611e+001, 9., 0., 0.,
          0., 0., 9.73879623e+000, 2.10896301e+001, 1.88150578e+001,
          4.24147263e+001, 4.54574165e+001, 1.22317052e+000,
          2.49195004e+000, 0., 0., 0., 0., 9.57393551e+000,
          4.30216503e+000, 1.23899341e-001, 0., 0., 5.85786462e-001,
          6.89949512e+000, 1.11005049e+001, 2.41421366e+000, 1., 6., 0.,
          0., 11., 22., 12., 11., 1., 1., 4., 0., 5.58578634e+000, 11.,
          9.22048092e+000, 2.51735649e+001, 2.13447514e+001,
          2.12612038e+001, 5., 0., 0., 0., 7.56369448e+000,
          6.00854950e+001, 3.17229767e+001, 2.10420475e+001,
          4.58578634e+000, 0., 1.41421354e+000, 1.15857868e+001, 2., 1.,
          2., 1., 3., 0., 7.58578634e+000, 1.34142132e+001,
          7.58578634e+000, 5., 6., 13., 9., 0., 7.92893219e+000,
          1.16568546e+001, 9.92893219e+000, 7.82842731e+000,
          9.17157269e+000, 1.49201746e+001, 2.68649349e+001, 0.,
          1.28869619e+001, 3.03773379e+000, 0., 3., 2.32458258e+000,
          1.19180584e+001, 2.99105053e+001, 0., 0., 6.30601931e+000,
          1.16939802e+001, 5., 1., 0., 0., 0., 8., 6.41421366e+000,
          3.34314585e+000, 8.65685463e+000, 6.34314585e+000,
          1.62426414e+001, 1.26309261e+001, 0., 5.90292275e-001, 0., 0.,
          0., 0., 1., 2.46505909e+001, 0., 0., 0., 0., 0., 0., 0., 0.,
          0., 1., 7.08963108e+000, 1.02349520e+001, 1.67541742e+000, 1.,
          1., 4., 0., 7.03293800e+000, 1.15617313e+001, 2.11388054e+001,
          3.78361154e+000, 5., 1.28588848e+001, 1.24560003e+001, 0.,
          4.73533630e+000, 4.73085165e+000, 3.10422878e+001,
          4.41760349e+000, 3.36231637e+000, 1.41530342e+001,
          4.85584831e+001, 0., 5.08300686e+000, 7.60668945e+000,
          2.87661839e+001, 4.14213568e-001, 0., 6.17945576e+000,
          2.89983997e+001, 0., 1., 4., 2., 0., 0., 5., 8.75735950e+000,
          0., 1.12614603e+001, 1.94268990e+001, 1.14151249e+001,
          9.49096012e+000, 5.60434961e+000, 9.65685463e+000,
          6.63071203e+000, 0., 1.35546551e+001, 3.62816310e+000,
          1.75203838e+001, 1.72656670e+001, 3.39504290e+000,
          6.03834152e+000, 3.04273472e+001, 0., 9.65319157e+000,
          2.31970620e+000, 1.01501703e+001, 2.78600769e+001,
          6.70046270e-001, 4.14213568e-001, 2.87887306e+001, 0., 2.,
          6.26120377e+000, 1.04961557e+001, 6.24264050e+000, 2., 1., 0.,
          0., 1.19289322e+001, 1.15563488e+001, 1.90724163e+001,
          1.75127621e+001, 7.68689919e+000, 5.50804996e+000,
          6.55532885e+000, 0., 2.73739777e+001, 8.43626595e+000,
          1.15245781e+001, 4.60057564e+001, 6.92806530e+000,
          3.24264073e+000, 8.01737881e+000, 0., 1.75970020e+001,
          3.67962265e+000, 1.10835924e+001, 6.35186348e+001,
          1.00612946e+001, 4.54517603e+000, 3.84719706e+000, 0., 0.,
          1.11715727e+001, 2.82842708e+000, 4., 1., 1., 0., 0.,
          7.67898846e+000, 1.15824852e+001, 2.11120644e+001,
          3.32143745e+001, 3.41208792e+000, 3.82842708e+000,
          2.17157292e+000, 0., 3.97642250e+001, 4.02947235e+000,
          6.89248991e+000, 1.72752438e+001, 6.56685734e+000,
          1.09383631e+000, 2., 0., 1.55404434e+001, 2.00700130e+001,
          6.88521194e+000, 3.79211349e+001, 1.94964409e+001,
          4.38016176e-001, 5.14718652e-001, 0., 1.07867966e+001,
          8.28427124e+000, 3.92893219e+000, 0., 5.39563608e+000,
          2.92784615e+001, 1.53259020e+001, 0., 0., 3.92646885e+000,
          3.89902687e+001, 1.65685425e+001, 1.73718147e+001,
          5.21429024e+001, 0., 0., 0., 1.96893692e+000, 6.03106308e+000,
          0., 1.52720776e+001, 6.62741709e+000, 4.10050488e+000, 0., 0.,
          2.67746029e+001, 2.07106781e+001, 3.51471853e+000, 0., 0.,
          1.58162336e+001, 2.15391045e+001, 2.44439487e+001,
          2.22007122e+001, 8.57195663e+000, 6.35697603e+000,
          1.82253971e+001, 5.07564697e+001, 1.80892010e+001,
          1.30601943e+000, 1.07944860e+001, 5.38477612e+000,
          3.51471853e+000, 0., 0., 1.82304478e+001, 2.23675327e+001,
          1.64020195e+001, 0., 7.83611596e-001, 2.27605438e+001,
          1.86396103e+001, 3.59473495e+001, 2.58688850e+001,
          1.76504838e+000, 1.60928154e+001, 1.07695522e+001,
          3.32291985e+001, 2.61433868e+001, 1.82842708e+000,
          1.24436512e+001, 4.14213562e+000, 5.85786462e-001, 0.,
          9.36621308e-001, 1.35070295e+001, 1.44974747e+001,
          2.77080402e+001, 1.35083485e+000, 2.61203885e-001,
          3.73879623e+000, 4.14213568e-001, 1.45515709e+001,
          4.10342140e+001, 0., 0., 0., 0., 0., 2.54866004e+000,
          1.35518446e+001, 5.38477612e+000, 3.51471853e+000, 0.,
          1.42508898e+001, 2.71927605e+001, 1.32548342e+001,
          2.50482941e+001, 3.25322080e+000, 2.75075340e+001,
          1.30071850e+001, 9.52691174e+000, 3.51770401e+001,
          5.07813301e+001, 3.23677444e+001, 1.25611887e+001,
          2.89949489e+000, 1.63981514e+001, 3.27734222e+001, 0.,
          4.51471853e+000, 8.28427124e+000, 9.20100975e+000, 0.,
          1.84456997e+001, 2.60984554e+001, 1.53259020e+001,
          1.78687382e+001, 2.61203885e-001, 3.34198189e+001,
          2.17101250e+001, 1.65685425e+001, 3.66276894e+001,
          1.76738243e+001, 2.71448784e+001, 2.06419182e+001,
          1.69827557e+001, 3.84763069e+001, 2.67541409e+001,
          2.61203885e-001, 1.41113787e+001, 7.87005758e+000,
          1.75735927e+000, 0., 1.58578646e+000, 3.60588760e+001,
          1.65685425e+001, 1.79583702e+001, 8.28427136e-001,
          2.96788597e+001, 3.92378807e+001, 1.90538235e+001,
          1.93685799e+001, 1.26608572e+001, 3.46423798e+001,
          3.46591339e+001, 1.28406200e+001, 2.28819180e+001,
          1.29759474e+001, 1.82842708e+000, 1.01005049e+001,
          2.89949489e+000, 1.17157292e+000, 0., 2.54500885e+001,
          2.66798534e+001, 1.03553391e+001, 8.35871124e+000,
          5.15600777e+000, 4.16406441e+001, 2.34598598e+001,
          6.21320343e+000, 7.16531563e+000, 1.52097571e+000,
          3.46754341e+001, 1.46677132e+001, 1.65685427e+000,
          1.06844778e+001, 2.83155231e+001, 0., 8.44365120e+000,
          8.69848442e+000, 5.85786438e+000, 0., 5.14718652e-001,
          2.24264073e+000, 1.11837664e+001, 1.81967068e+001,
          2.86216784e+000, 2.77734971e+000, 1.78378735e+001,
          1.61543293e+001, 3.55561218e+001, 6.36743240e+001, 0., 0., 0.,
          2.65319395e+000, 1.13468065e+001, 0., 1.17157292e+000,
          7.45584393e+000, 1.03725834e+001, 0., 0., 1.38873014e+001,
          1.90538235e+001, 1.40588741e+001, 0., 0., 1.23725834e+001,
          1.65685425e+001, 1.90994835e+001, 2.69593906e+001, 0.,
          5.27207804e+000, 1.15979795e+001, 4.62055702e+001,
          4.59243736e+001, 0., 4.68629169e+000, 5.79898977e+000,
          3.51471853e+000, 0., 0., 2.01593800e+001, 2.02964649e+001,
          1.15441561e+001, 0., 3.85394325e+001, 3.61052284e+001,
          2.23675327e+001, 1.89878063e+001, 0., 4.55565605e+001,
          3.68160248e+001, 8.28427124e+000, 4.34314585e+000, 0., 0.,
          1.17157292e+000, 5.79898977e+000, 1.47682333e+001,
          2.61203885e-001, 3.45779705e+000, 2.78437176e+001,
          1.53259020e+001, 1.33725834e+001, 0., 6.22793999e+001,
          9.72060013e+000, 0., 0., 0., 0., 0., 0., 0., 0., 0.,
          4.51471853e+000, 7.45584393e+000, 1.27682333e+001,
          2.61203885e-001, 1.16192703e+001, 2.54101658e+001,
          9.11269855e+000, 2.62836952e+001, 6.57416964e+000,
          6.14678993e+001, 2.89757519e+001, 7.87005758e+000,
          1.33237371e+001, 2.63625546e+001, 5.15031242e+001,
          2.08400192e+001, 1.65685427e+000, 8.21476173e+000,
          2.47852383e+001, 0., 1.30294371e+001, 5.79898977e+000,
          1.17157292e+000, 0., 1.21501732e+001, 2.08792648e+001,
          1.20121937e+001, 1.83766403e+001, 7.58172941e+000,
          5.74020233e+001, 4.79705582e+001, 7.87005758e+000,
          8.91848183e+000, 2.88388767e+001, 8.41328812e+001,
          4.87960472e+001, 2.07106781e+000, 4.49628115e+000,
          3.45037193e+001, 0., 2.92893219e+000, 6.21320343e+000,
          1.45966606e+001, 2.61203885e-001, 7.83611596e-001,
          2.24173985e+001, 1.65685425e+001, 3.11305218e+001,
          6.09992504e+000, 2.47054806e+001, 4.67676048e+001,
          9.94112587e+000, 1.08296213e+001, 5.57561646e+001,
          3.89185791e+001, 2.21819248e+001, 5.38477612e+000,
          1.45495205e+001, 6.99651947e+001, 0., 5.85786462e-001,
          4.55634928e+000, 5.85786438e+000, 0., 3.47053289e+000,
          1.09731178e+001, 7.45584393e+000, 1.33193760e+001,
          4.27811279e+001, 4.38286514e+001, 1.71002827e+001,
          5.79898977e+000, 1.55560474e+001, 1.27160301e+001,
          1.95712852e+001, 1.11860733e+001, 3.31370854e+000,
          1.28699627e+001, 5.40589676e+001 ]
      - [ 0., 3.58578634e+000, 1.04142132e+001, 2., 0., 0., 2., 1., 0.,
          1.45638447e+001, 1.85072002e+001, 1.30812960e+001,
          2.38648243e+001, 6.88580847e+000, 2., 5.85786462e-001, 0.,
          3.46288452e+001, 1.89809818e+001, 8.62005520e+000,
          3.70687065e+001, 2.41107464e+001, 2.72290182e+000,
          6.06337881e+000, 0., 0., 0., 0., 3.12752228e+001,
          3.50401230e+001, 2.68465352e+000, 0., 0., 5.85786462e-001,
          8.24264050e+000, 4.34314585e+000, 6.82842731e+000, 0., 1., 0.,
          0., 3., 2.54142132e+001, 1.45857868e+001, 15., 2., 1., 7., 0.,
          7., 3.78284264e+001, 2.33623161e+001, 1.92282543e+001,
          4.58100271e+000, 1., 6., 0., 2., 5., 1.10037985e+001,
          4.89043617e+001, 4.09679413e+001, 1.25381126e+001,
          7.58578634e+000, 0., 0., 1.82842708e+000, 8.34314537e+000,
          3.82842708e+000, 3., 1., 4., 0., 1., 1.62426414e+001,
          2.28207378e+001, 1.69366207e+001, 3., 5., 2., 0.,
          1.03431454e+001, 1.80896301e+001, 1.79103699e+001,
          1.62426414e+001, 1.05857868e+001, 15., 1.42355881e+001, 0.,
          2.62654209e+000, 6., 5., 5., 3.58578634e+000, 2.71588230e+001,
          3.91104126e+001, 0., 0., 1.82842708e+000, 5.17157269e+000, 7.,
          0., 4., 6., 0., 1., 4., 3.05731697e+001, 2.31064529e+001,
          2.32037735e+000, 5.41421366e+000, 7.49195004e+000, 0., 1., 0.,
          0., 0., 2., 4.66699696e+000, 5.95660591e+001, 0., 0., 0., 0.,
          0., 0., 0., 4.35471326e-001, 0., 1., 4.08963108e+000,
          4.73879623e+000, 1.07573595e+001, 3.41421366e+000, 0., 3., 0.,
          6.27044010e+000, 6.92216682e+000, 1.35335388e+001,
          6.00677872e+000, 1.16807437e+000, 4.26120377e+000,
          2.04775448e+001, 0., 2.36147237e+000, 1.04535742e+001,
          3.48274841e+001, 7.32747793e+000, 2.34375334e+000,
          4.20203066e+000, 3.71543655e+001, 0., 8.30264568e+000,
          1.25786934e+001, 1.55885849e+001, 3.86435819e+000,
          1.48528135e+000, 3.41421366e+000, 3.31544952e+001, 0.,
          3.49195004e+000, 5.03843117e+000, 3.86466169e+000,
          3.77653003e+000, 0., 3., 0., 0., 8.71867943e+000,
          4.74421883e+000, 1.24066725e+001, 1.05273781e+001,
          5.36110520e-001, 4.14213568e-001, 1.34523907e+001, 0.,
          1.01144152e+001, 8.28427136e-001, 1.71474915e+001,
          2.12667217e+001, 2.17157292e+000, 4.65685415e+000,
          2.76610603e+001, 0., 1.74877148e+001, 4.05315351e+000,
          1.85141926e+001, 1.89175053e+001, 4.16130638e+000,
          4.45785189e+000, 3.11344013e+001, 0., 5.85786462e-001,
          2.82842708e+000, 7.75735950e+000, 7.41421366e+000, 3., 3., 1.,
          0., 7.65958261e+000, 1.30402966e+001, 1.39194889e+001,
          1.75584145e+001, 1.17672596e+001, 7.95579195e+000,
          8.07844353e+000, 0., 1.86192894e+001, 6.02993774e+000,
          1.40674753e+001, 5.51956062e+001, 6.00091076e+000,
          1.17157292e+000, 8.58927059e+000, 0., 1.86152248e+001,
          2.10866833e+000, 1.17797661e+001, 6.52600937e+001,
          6.10212994e+000, 1., 8.43381786e+000, 0., 1., 4.82842731e+000,
          4.07773638e+000, 6.09383631e+000, 2.58578634e+000,
          3.41421366e+000, 2., 0., 1.26939802e+001, 5.24264050e+000,
          2.99324727e+000, 4.35017662e+001, 2.50498676e+000, 1., 1., 0.,
          3.27724152e+001, 2.72601700e+000, 0., 1.30414495e+001,
          5.95855045e+000, 0., 3.20377231e-001, 0., 9.86709690e+000,
          1.94176788e+001, 6.76881361e+000, 1.93800068e+001,
          1.32232580e+001, 1.82842708e+000, 5.85786462e-001, 0.,
          1.06152239e+001, 6.62741709e+000, 1.75735927e+000, 0.,
          2.32050076e+001, 2.26822929e+001, 1.40832615e+001,
          8.02943707e+000, 0., 1.99494820e+001, 4.10383224e+001,
          1.86396103e+001, 2.18882637e+001, 1.84843197e+001, 0., 0.,
          4.14213568e-001, 1.10490303e+001, 4.55367546e+001,
          2.61203885e-001, 1.04250879e+001, 3.72792196e+000,
          5.85786462e-001, 0., 0., 2.64314575e+001, 2.07106781e+001,
          5.85786438e+000, 0., 1.04481554e+000, 4.89013596e+001,
          2.23675327e+001, 6.37132359e+000, 3.31496811e+000, 0.,
          1.68873024e+001, 2.23675327e+001, 3.21766014e+001,
          3.75685654e+001, 0., 7.68629169e+000, 6.62741709e+000,
          4.68629169e+000, 0., 2.61203885e-001, 3.17266026e+001,
          1.61543293e+001, 5.85786438e+000, 0., 1.04481554e+000,
          3.24577103e+001, 2.69238815e+001, 2.83015938e+001,
          1.12719994e+001, 0., 9.37258339e+000, 2.07106781e+001,
          4.00858421e+001, 3.68308983e+001, 0., 5.34314585e+000,
          5.38477612e+000, 6.27207804e+000, 0., 5.22407770e-001,
          3.50217476e+001, 1.24264069e+001, 1.30294371e+001, 0., 0.,
          5.85786462e-001, 9.52691174e+000, 3.66537704e+001,
          5.32335281e+001, 0., 0., 0., 4.14213568e-001, 5.85786462e-001,
          2.61203885e-001, 8.83930111e+000, 5.79898977e+000,
          4.10050488e+000, 0., 1.55380392e+001, 1.09766788e+001,
          1.11837664e+001, 1.89850521e+001, 9.31646347e+000,
          3.70932655e+001, 1.50072393e+001, 9.11269855e+000,
          3.38264503e+001, 3.69603462e+001, 3.56363525e+001,
          7.94943190e+000, 2.89949489e+000, 2.06107597e+001,
          3.99039574e+001, 4.45562506e+000, 7.88752079e+000,
          2.89949489e+000, 1.75735927e+000, 0., 2.49706612e+001,
          1.43724852e+001, 8.69848442e+000, 2.09442654e+001,
          7.01410389e+000, 3.27432632e+001, 2.39430294e+001,
          1.24264069e+001, 3.71111336e+001, 8.77616692e+000,
          4.10390930e+001, 2.44045582e+001, 1.03553391e+001,
          3.88280678e+001, 2.53729439e+001, 0., 8.27207756e+000,
          6.21320343e+000, 4.51471853e+000, 0., 1.39921961e+001,
          2.12088127e+001, 1.49116879e+001, 2.71670685e+001,
          1.72023296e+000, 3.70180130e+001, 3.05972099e+001,
          1.24264069e+001, 2.53193836e+001, 1.06389856e+001,
          4.31302032e+001, 2.23845158e+001, 9.94112587e+000,
          2.97776623e+001, 1.07664938e+001, 0., 8.27207756e+000,
          6.62741709e+000, 5.10050488e+000, 0., 4.17129135e+000,
          2.70591564e+001, 1.24264069e+001, 5.17347860e+000,
          6.16966677e+000, 2.92353039e+001, 1.26936274e+001,
          2.48528147e+000, 3.60940003e+000, 9.97638607e+000,
          2.89678879e+001, 9.61789894e+000, 1.24264073e+000,
          8.08198071e+000, 1.80895920e+001, 0., 7.02943707e+000,
          5.79898977e+000, 1.17157292e+000, 0., 4.19002724e+000,
          1.05967693e+001, 1.15979795e+001, 1.91716499e+001,
          2.24435730e+001, 2.08898430e+001, 3.14116707e+001,
          1.98822517e+001, 3.49591942e+001, 2.58570404e+001, 0., 0.,
          4.14213568e-001, 8.90027428e+000, 5.76855125e+001, 0.,
          5.85786462e-001, 4.55634928e+000, 7.85786438e+000, 0., 0.,
          1.25441561e+001, 2.02964649e+001, 1.91593800e+001, 0., 0.,
          1.64020195e+001, 2.73380947e+001, 2.92205658e+001,
          5.03931952e+000, 0., 9.95836926e+000, 1.86396103e+001,
          3.22725792e+001, 5.71294441e+001, 0., 2.92893219e+000,
          7.45584393e+000, 1.06152239e+001, 0., 0., 4.68629169e+000,
          1.49116879e+001, 3.16817875e+001, 1.72023296e+000,
          1.75690022e+001, 2.91761646e+001, 2.89949493e+001,
          3.12598839e+001, 0., 5.49221916e+001, 3.34503937e+001,
          1.24264069e+001, 8.20100975e+000, 0., 0., 6.10050488e+000,
          7.45584393e+000, 8.44365120e+000, 0., 4.14213568e-001,
          1.16862917e+001, 7.04163074e+000, 4.39583702e+001,
          7.89949512e+000, 7.33502045e+001, 3.46081657e+001,
          7.87005758e+000, 1.17157292e+000, 0., 1.42713940e+000,
          5.72860599e-001, 0., 0., 0., 0., 4.10050488e+000,
          6.62741709e+000, 1.38764277e+001, 2.39565039e+000,
          1.92280350e+001, 3.30734787e+001, 1.24264069e+001,
          1.33310204e+001, 8.94105721e+000, 5.58429413e+001,
          3.12575626e+001, 5.38477612e+000, 1.52886763e+001,
          3.52260437e+001, 6.90314407e+001, 1.75543442e+001,
          8.28427136e-001, 5.31256104e+000, 1.92732258e+001,
          1.86420357e+000, 1.00647287e+001, 3.31370854e+000,
          7.40652466e+000, 1.35083485e+000, 3.75159760e+001,
          2.59987431e+001, 2.48528147e+000, 5.51287556e+000,
          2.14871235e+001, 5.24452629e+001, 4.54126015e+001,
          4.14213562e+000, 7.17062807e+000, 3.38293724e+001,
          8.13035355e+001, 4.64538231e+001, 2.07106781e+000,
          9.36375999e+000, 3.28078117e+001, 0., 3.34314585e+000,
          8.69848442e+000, 1.19583693e+001, 0., 7.29346180e+000,
          1.67359753e+001, 1.03553391e+001, 3.17363071e+001,
          1.28789167e+001, 3.63225708e+001, 3.40500107e+001,
          9.94112587e+000, 1.59554605e+001, 5.77308311e+001,
          4.21608467e+001, 1.91822987e+001, 1.65685427e+000,
          1.04347057e+001, 7.35652924e+001, 0., 1.75735927e+000,
          4.14213562e+000, 1.01638842e+001, 9.36621308e-001,
          2.87324262e+000, 1.89846210e+001, 4.14213562e+000,
          7.27910233e+000, 4.17208977e+001, 3.46458473e+001,
          1.25257244e+001, 8.28427136e-001, 2.45345116e+000,
          1.65465488e+001, 1.01379757e+001, 1.07909565e+001,
          2.48528147e+000, 7.21667433e+000, 3.53691139e+001 ]
      - [ 0., 2., 7.41421366e+000, 8.17157269e+000, 3.41421366e+000, 0.,
          2., 0., 0., 1.44732666e+001, 1.52526350e+001, 1.38599710e+001,
          9.50375843e+000, 8.30120659e+000, 7.28457975e+000,
          7.41421366e+000, 0., 2.09195938e+001, 2.19250755e+001,
          1.53202896e+001, 2.26553020e+001, 3.33239326e+001,
          8.98303127e+000, 5., 0., 0., 1., 0., 2.20815639e+001,
          2.85939674e+001, 3.24468493e-001, 0., 0., 0., 6., 5., 1., 2.,
          9., 1., 0., 2.01005058e+001, 2.28284264e+001, 1.11715727e+001,
          6.41421366e+000, 0., 3., 0., 0., 1.01715727e+001,
          1.68284264e+001, 1.40267487e+001, 3.02461815e+001,
          1.91221123e+001, 2.11907444e+001, 10., 0., 0., 3.,
          5.74143648e+000, 5.38589935e+001, 3.49853554e+001,
          2.08284264e+001, 2.58578634e+000, 0., 1., 0., 8.58578682e+000,
          7.41421366e+000, 1., 0., 1., 0., 1., 8., 9., 30., 5., 3., 1.,
          0., 1.29502618e+000, 11., 3.35147171e+001, 3.24852829e+001, 6.,
          3.35005474e+000, 1.41930628e+001, 0., 2.26120377e+000, 1., 9.,
          1.34142132e+001, 1.15857868e+001, 7.52823591e+000,
          2.89508705e+001, 0., 0., 3., 5.58578634e+000, 8.41421318e+000,
          1., 0., 0., 0., 5., 1.44142132e+001, 2.16862907e+001,
          1.83137093e+001, 2.58578634e+000, 0., 0., 0., 6.89832032e-001,
          4., 6.17157269e+000, 1.12426405e+001, 1.58578646e+000, 0.,
          2.76250038e+001, 0., 0., 0., 0., 0., 0., 0., 0., 0., 1.,
          3.41421366e+000, 4., 1.51715727e+001, 4.14213568e-001, 2., 0.,
          0., 4.48206043e+000, 6.70065928e+000, 4.83584356e+000,
          1.59222631e+001, 1.16449594e+001, 1.18284273e+001,
          1.55962172e+001, 0., 1.91805816e+000, 1.12247133e+001,
          3.04171619e+001, 1.15822020e+001, 1.34436512e+001,
          1.02356815e+001, 3.88072586e+001, 0., 3.76785970e+000,
          9.65803623e+000, 3.04634380e+001, 3.29274011e+000,
          5.85786462e-001, 6.00207806e+000, 3.00755920e+001, 0., 4., 4.,
          1., 4., 1., 1., 0., 0., 9.63780689e+000, 1.44192677e+001,
          1.57615395e+001, 1.34879417e+001, 6.66772842e+000,
          4.65685415e+000, 5.51121998e+000, 0., 9.45815182e+000,
          2.88477826e+000, 1.76558437e+001, 2.92892246e+001,
          2.75594020e+000, 2.08963108e+000, 2.69403095e+001, 0.,
          1.33610392e+001, 1.41421354e+000, 1.59348202e+001,
          2.53855572e+001, 2.41421366e+000, 5.81418180e+000,
          3.06472893e+001, 0., 1., 2.26120377e+000, 6.64916515e+000,
          1.00896311e+001, 0., 3., 1., 0., 1.76624889e+001,
          1.08022861e+001, 9.45037746e+000, 1.17146091e+001,
          8.44694042e+000, 6.82842731e+000, 8.70546246e+000, 0.,
          1.76132622e+001, 4.20167303e+000, 4.48453236e+000,
          5.16579437e+001, 5.89170313e+000, 4.26120377e+000,
          1.24080515e+001, 0., 1.59881821e+001, 1., 3.50634837e+000,
          7.14580307e+001, 5.44983530e+000, 2.58578634e+000,
          1.22552414e+001, 0., 0., 8.24264050e+000, 2.34314585e+000,
          7.41421366e+000, 3., 2.41421366e+000, 5.85786462e-001, 0.,
          7.34314585e+000, 4., 8.80555534e+000, 4.11689835e+001,
          1.02545977e+000, 2., 3.19074368e+000, 0., 3.87484245e+001,
          4.99692440e+000, 1., 1.24253740e+001, 4.89500332e+000,
          4.52661324e+000, 2.05917335e+000, 0., 1.36883059e+001,
          2.46763420e+001, 3.19609404e+000, 2.84819965e+001,
          1.59572620e+001, 3.82842708e+000, 5.91036892e+000, 0.,
          1.13725834e+001, 7.45584393e+000, 1.17157292e+000, 0.,
          1.21888638e+001, 2.56273708e+001, 1.90538235e+001,
          1.83015156e+001, 8.28427136e-001, 7.83619595e+000,
          4.10094757e+001, 2.31959591e+001, 2.27113895e+001,
          3.22469826e+001, 0., 1., 0., 9.20538044e+000, 3.37946205e+001,
          0., 6.85786438e+000, 9.11269855e+000, 7.02943707e+000, 0.,
          2.61203885e-001, 3.60281181e+001, 2.19533195e+001,
          1.75735927e+000, 0., 0., 2.80172443e+001, 3.35513000e+001,
          2.67776108e+001, 1.16538477e+001, 1.93245173e+000,
          6.92541265e+000, 1.86396103e+001, 3.40378418e+001,
          2.64646816e+001, 0., 5.85786438e+000, 4.97056293e+000,
          1.17157292e+000, 0., 0., 1.09583693e+001, 1.07695522e+001,
          5.27207804e+000, 0., 1.62929773e+000, 2.94884510e+001,
          2.48528137e+001, 1.15954208e+001, 1.54340162e+001, 0.,
          8.02943707e+000, 1.44974747e+001, 2.32679691e+001,
          3.82051201e+001, 0., 5.68629169e+000, 3.72792196e+000,
          5.85786462e-001, 0., 0., 2.70172443e+001, 1.82253971e+001,
          1.75735927e+000, 0., 0., 1.04436512e+001, 9.11269855e+000,
          1.83908634e+001, 4.10527878e+001, 0., 0., 0., 0., 0., 0.,
          6.27207804e+000, 4.97056293e+000, 1.75735927e+000, 0.,
          7.35683918e+000, 7.91523886e+000, 1.73969688e+001,
          3.09540443e+001, 3.37690854e+000, 3.24016838e+001,
          1.41130362e+001, 9.52691174e+000, 3.84974937e+001,
          4.64608727e+001, 3.31456070e+001, 1.31975384e+001,
          3.31370854e+000, 1.71082115e+001, 3.92349358e+001, 0.,
          5.27207804e+000, 4.55634928e+000, 1.17157292e+000, 0.,
          1.86215630e+001, 2.48515244e+001, 1.57401152e+001,
          1.45255928e+001, 2.61203885e-001, 2.91470222e+001,
          2.27402802e+001, 1.98822517e+001, 3.40102577e+001,
          1.32201900e+001, 3.43545914e+001, 2.93611374e+001,
          1.61543293e+001, 4.01819115e+001, 3.19480305e+001,
          7.83611596e-001, 8.14532089e+000, 3.72792196e+000,
          2.34314585e+000, 0., 8.36961746e+000, 2.54466171e+001,
          1.94680367e+001, 2.19321175e+001, 7.83611596e-001,
          2.33629646e+001, 2.47669792e+001, 1.69827557e+001,
          3.16425877e+001, 1.12447147e+001, 2.45870533e+001,
          2.39571037e+001, 1.90538235e+001, 3.51306343e+001,
          1.12713881e+001, 0., 8.92893219e+000, 4.14213562e+000,
          3.92893219e+000, 0., 1.15285749e+001, 1.89445133e+001,
          1.40832615e+001, 7.21262264e+000, 2.23102808e+000,
          3.59984703e+001, 1.63446751e+001, 1.65685427e+000,
          9.75994110e+000, 9.24005890e+000, 3.18356686e+001,
          1.15074768e+001, 5.38477612e+000, 1.73070335e+001,
          2.59650459e+001, 0., 4.68629169e+000, 7.45584393e+000,
          7.85786438e+000, 0., 4.20641756e+000, 2.55093117e+001,
          1.61543293e+001, 2.04978390e+001, 8.63210297e+000,
          7.14445257e+000, 2.90859947e+001, 1.90538235e+001,
          2.80690193e+001, 3.96467094e+001, 0., 0., 0., 8.66102600e+000,
          4.23389740e+001, 0., 1.75735927e+000, 4.55634928e+000,
          4.68629169e+000, 0., 0., 2.38873024e+001, 1.57401152e+001,
          1.13725834e+001, 0., 0., 2.25735931e+001, 2.65096684e+001,
          3.49733276e+001, 1.49434128e+001, 0., 1.75735927e+000,
          1.53259020e+001, 3.11495132e+001, 4.97672272e+001, 0.,
          3.51471853e+000, 8.28427124e+000, 1.12010098e+001, 0., 0.,
          2.34314585e+000, 1.86396103e+001, 2.70172443e+001, 0.,
          2.27804394e+001, 7.73428011e+000, 2.77523079e+001,
          4.67329712e+001, 0., 5.40133972e+001, 1.54302521e+001,
          1.78111839e+001, 2.07451668e+001, 0., 0., 1.17157292e+000,
          6.21320343e+000, 9.61522388e+000, 0., 0., 4.68629169e+000,
          1.69827557e+001, 2.93309517e+001, 0., 6.95127258e+001,
          1.16588497e+001, 5.79898977e+000, 1.40294371e+001, 0., 0., 0.,
          0., 0., 0., 0., 5.85786462e-001, 4.14213562e+000,
          1.44436512e+001, 1.82842708e+000, 1.03643188e+001,
          2.23514099e+001, 1.20121937e+001, 2.59802990e+001,
          4.29177952e+000, 5.94236221e+001, 1.90910969e+001,
          6.21320343e+000, 2.77050152e+001, 3.15670624e+001,
          5.30450592e+001, 1.88838711e+001, 3.72792196e+000,
          1.03444834e+001, 2.79986610e+001, 0., 5.68629169e+000,
          4.97056293e+000, 4.08194208e+000, 2.61203885e-001,
          1.10242043e+001, 1.93483791e+001, 9.94112587e+000,
          2.57998867e+001, 1.28864050e+001, 4.52139664e+001,
          4.72296867e+001, 7.04163074e+000, 1.46006622e+001,
          3.39140549e+001, 8.26872635e+001, 4.73421707e+001,
          6.21320343e+000, 7.34848452e+000, 3.64088745e+001, 0.,
          2.92893219e+000, 6.21320343e+000, 1.26600389e+001,
          1.19782519e+000, 2.74898100e+000, 3.17241077e+001,
          1.53259020e+001, 2.07983189e+001, 9.40269184e+000,
          3.19429531e+001, 5.08438454e+001, 6.21320343e+000,
          1.11517935e+001, 5.18482056e+001, 4.56375809e+001,
          2.94629230e+001, 3.31370854e+000, 8.52897263e+000,
          7.20568161e+001, 2.61203885e-001, 4.49615526e+000,
          5.38477612e+000, 9.85786438e+000, 0., 2.93702817e+000,
          1.79208355e+001, 5.38477612e+000, 8.89035416e+000,
          4.08670044e+001, 3.97105255e+001, 1.66326180e+001,
          2.48528147e+000, 3.25656724e+000, 1.49150057e+001,
          1.72866192e+001, 1.68138847e+001, 3.31370854e+000,
          8.79488945e+000, 4.17908974e+001 ]
      - [ 0., 2.30387092e+000, 7.69612932e+000, 2., 2., 4., 9., 1., 0.,
          1.13431454e+001, 8.82842731e+000, 9.57524776e+000,
          1.84247532e+001, 11., 7.41421366e+000, 1.58578646e+000, 0.,
          1.01546593e+001, 1.47407084e+001, 1.25471554e+001,
          4.20478745e+001, 6.65249348e+000, 2., 5.58578634e+000, 0.,
          6.15335884e+001, 3.53057251e+001, 1.34593325e+001,
          1.65394707e+001, 6.01956654e+000, 1.04142132e+001,
          4.17157269e+000, 0., 1., 2., 1.01715727e+001, 3.82842708e+000,
          0., 3., 0., 0., 7., 2.12426414e+001, 1.07573595e+001, 9., 1.,
          5., 1., 0., 6.75735950e+000, 2.18284264e+001, 1.93431454e+001,
          2.58284264e+001, 6., 1.24142132e+001, 1.35511236e+001, 0.,
          9.17157269e+000, 1.88284264e+001, 1.58350954e+001,
          3.05157394e+001, 2.61447124e+001, 4.31613045e+001,
          2.28578644e+001, 0., 0., 4., 2., 2., 2., 6.41421366e+000,
          5.58578634e+000, 0., 7.66352320e+000, 4.33647680e+000,
          1.49720058e+001, 2.83711395e+001, 4., 7.41421366e+000,
          7.17157269e+000, 0., 5.41421366e+000, 1.24142132e+001,
          1.73431454e+001, 2.26568546e+001, 5.75735950e+000,
          7.93662119e+000, 2.71150990e+001, 0., 7.03426838e+000,
          1.02426405e+001, 9.58578682e+000, 7., 4.17157269e+000,
          1.05038443e+001, 3.32560387e+001, 0., 1.31963897e+000, 0., 2.,
          1.41421354e+000, 2.17157292e+000, 5.29617023e+000,
          1.10391426e+001, 0., 7.75820398e+000, 1.98385544e+001,
          2.12765980e+001, 1.10553102e+001, 5.75735950e+000,
          3.53187466e+000, 1.15598516e+001, 0., 5.85786462e-001,
          2.21694660e+000, 3.79040360e+000, 1.57843614e+000,
          2.77551556e+000, 1.60776939e+001, 8.81859131e+001, 0., 0., 0.,
          0., 0., 0., 1., 9.29121113e+000, 0., 7.34590828e-001,
          3.02789831e+000, 3.77666736e+000, 4.41051865e+000,
          4.19912958e+000, 4., 3.58578634e+000, 0., 7.10337734e+000,
          1.29469967e+000, 1.70530033e+000, 0., 0., 1.73459077e+000,
          2.65376377e+001, 0., 1.03077662e+000, 7.91738176e+000,
