%YAML:1.0
_0218: !!opencv-ml-svm
   svm_type: C_SVC
   kernel: { type:LINEAR }
   C: 100.
   term_criteria: { epsilon:9.9999999747524271e-007,
       iterations:2147483647 }
   var_all: 576
   var_count: 576
   class_count: 2
   class_labels: !!opencv-matrix
      rows: 1
      cols: 2
      dt: i
      data: [ -1, 6 ]
   sv_total: 65
   support_vectors:
      - [ 0., 1.75735927e+000, 9.65685463e+000, 5.75735950e+000,
          4.65685415e+000, 7.75735950e+000, 1.41421354e+000, 0., 0., 4.,
          1.28284273e+001, 2.20819416e+001, 1.95038452e+001,
          3.58578634e+000, 9.82842731e+000, 6.75735950e+000, 0.,
          1.51005049e+001, 3.81792603e+001, 3.30556908e+001,
          1.55934753e+001, 3., 3.41421366e+000, 1.15857868e+001, 0.,
          2.28393021e+001, 5.15791168e+001, 3.52493095e+001,
          2.16568546e+001, 1.47573595e+001, 2.28284264e+001, 7., 0., 0.,
          3.41421366e+000, 6.34314585e+000, 8.07106781e+000,
          4.17157269e+000, 2., 2., 0., 4.14213568e-001, 8.91805840e+000,
          1.58393011e+001, 1.43963699e+001, 2.10178432e+001,
          1.64933662e+001, 9.74927425e+000, 0., 9.43493080e+000,
          1.38222897e+000, 2.75745869e+000, 1.48714218e+001,
          2.53323689e+001, 3.44109116e+001, 3.51100502e+001, 0.,
          5.26562071e+000, 1.26120389e+000, 0., 1.66487026e+000,
          5.33512974e+000, 1.95388145e+001, 7.41383667e+001, 0., 3.,
          2.41421366e+000, 7.73879623e+000, 6.67541742e+000,
          2.17157292e+000, 0., 1., 0., 1.17157292e+000, 1.60118942e+001,
          2.01596775e+001, 2.87279224e+001, 1.42188520e+001,
          8.12429428e+000, 2.17157292e+000, 0., 2.92611027e+000,
          2.17398167e+001, 3.23267326e+001, 4.52877159e+001,
          2.43530540e+001, 1.13435097e+001, 9.44884968e+000, 0.,
          1.72784481e+001, 3.60344505e+001, 2.97422810e+001,
          6.66221924e+001, 4.67809639e+001, 5.47059822e+000, 2., 0., 0.,
          9.82842731e+000, 8.17157269e+000, 3., 0., 0., 0., 0.,
          1.65147190e+001, 2.33137093e+001, 1.73431454e+001,
          5.41421366e+000, 2.17157292e+000, 4.14213568e-001, 5., 0.,
          4.95367622e+001, 2.93808651e+001, 7.60434961e+000, 3., 0., 1.,
          4.15412426e+000, 0., 3.56614799e+001, 1.23416195e+001,
          3.01015258e+000, 2.41421366e+000, 0., 2.41421366e+000,
          7.71186161e+000, 0., 3.58578634e+000, 1.08994951e+001,
          1.11005049e+001, 3.41421366e+000, 0., 1., 0., 0.,
          4.16465797e+001, 2.55058556e+001, 9.51471901e+000,
          1.82842708e+000, 0., 0., 0., 0., 3.06910515e+001,
          1.53850174e+000, 4.14213568e-001, 0., 0., 0., 0., 0., 0., 0.,
          0., 0., 0., 0., 0., 0., 5., 8.58578682e+000, 1.14142132e+001,
          2., 0., 0., 0., 0., 1.82349510e+001, 3.14446716e+001,
          1.70066681e+001, 8.07106781e+000, 1.58578646e+000,
          1.41421354e+000, 3.58578634e+000, 0., 5.07029266e+001,
          2.44272308e+001, 7.86591196e+000, 2., 1., 3., 7.38796115e-001,
          0., 4.14213568e-001, 2.58578634e+000, 0., 0., 0., 0., 0., 0.,
          8.34314537e+000, 1.12426405e+001, 5., 2., 0., 0., 0., 0.,
          3.17157292e+000, 3.66831055e+001, 2.90742531e+001,
          1.30710678e+001, 2., 2.41421366e+000, 1.58578646e+000, 0.,
          1.82756653e+001, 5.64884453e+001, 5.01383324e+001,
          2.06503811e+001, 2.41421366e+000, 3., 1.41421354e+000, 0.,
          2.98945332e+001, 5.82272949e+001, 2.84816151e+001,
          1.51798697e+001, 6.92893219e+000, 3., 3.43556523e+000, 0.,
          1.58578646e+000, 3.82842708e+000, 7.24930954e+000,
          1.01649046e+001, 3.17157292e+000, 0., 0., 0., 3.64495969e+000,
          2.84590282e+001, 2.93389397e+001, 1.50490208e+001,
          1.82842708e+000, 4., 1., 0., 1.78207378e+001, 4.45038452e+001,
          3.91405067e+001, 1.52737055e+001, 7.58578634e+000,
          7.41421366e+000, 7.17157269e+000, 0., 5.81999893e+001,
          7.29393845e+001, 2.52146473e+001, 1.08284273e+001,
          4.17157269e+000, 10., 3.82842708e+000, 0., 1.51005049e+001,
          5.38477612e+000, 7.51471853e+000, 0., 0., 3.05735931e+001,
          1.82253971e+001, 1.52010098e+001, 0., 2.87324262e+000,
          6.55165863e+001, 3.14802303e+001, 1.21299419e+001, 0.,
          2.24264073e+000, 8.29339828e+001, 4.43208504e+001,
          3.02413216e+001, 2.61203885e-001, 0., 6.85786438e+000,
          7.87005758e+000, 5.27207804e+000, 0., 5.22407770e-001,
          1.96075344e+001, 1.65685425e+001, 3.96414757e+001,
          6.66003942e+000, 5.26410818e+000, 1.41795425e+001,
          1.44974747e+001, 6.28045235e+001, 4.42543526e+001,
          9.36621308e-001, 6.57809734e+000, 2.48528137e+001,
          9.19227829e+001, 2.07096882e+001, 0., 1.00294371e+001,
          7.04163074e+000, 2.92893219e+000, 0., 1.71254385e+000,
          2.97605438e+001, 1.57401152e+001, 1.97605438e+001,
          2.02625227e+000, 3.46602297e+000, 5.18649292e+001,
          2.19533195e+001, 3.46591377e+001, 1.30565901e+001,
          1.40611219e+001, 6.44414063e+001, 2.31959591e+001,
          4.75833168e+001, 2.97181988e+001, 0., 1.22010098e+001,
          5.79898977e+000, 0., 0., 2.61203885e-001, 4.07560387e+001,
          1.94680367e+001, 5.51471853e+000, 0., 2.76040955e+001,
          7.31410675e+001, 1.57401152e+001, 6.51471853e+000, 0.,
          3.21523666e+001, 2.77054958e+001, 7.45584393e+000,
          1.06354799e+001, 4.05081177e+000, 7.83611596e-001,
          2.02458248e+001, 5.38477612e+000, 5.85786462e-001, 0.,
          1.48716011e+001, 6.34299126e+001, 8.69848442e+000, 0., 0.,
          3.19029083e+001, 1.50970917e+001, 0., 0., 0., 0., 0., 0., 0.,
          0., 2.61203885e-001, 1.60403118e+001, 8.69848442e+000, 0., 0.,
          3.85467935e+000, 4.99909935e+001, 1.86396103e+001,
          4.51471853e+000, 0., 5.16380386e+001, 3.70482559e+001,
          3.72792196e+000, 4.58578634e+000, 0., 1.68564343e+000,
          1.31435657e+000, 0., 0., 0., 7.83611596e-001, 1.81747570e+001,
          7.04163074e+000, 0., 0., 5.37708712e+000, 5.56817856e+001,
          1.15979795e+001, 4.34314585e+000, 0., 2.66046543e+001,
          8.79983749e+001, 2.11248913e+001, 5.27207804e+000, 0.,
          4.82865906e+001, 6.48433533e+001, 1.20121937e+001,
          1.07682333e+001, 1.08963096e+000, 6.75417423e-001,
          1.01824465e+001, 5.79898977e+000, 2.34314585e+000, 0.,
          3.54866004e+000, 4.77112236e+001, 1.86396103e+001,
          4.83930111e+000, 2.61203885e-001, 6.19782495e+000,
          7.88488541e+001, 3.02375908e+001, 1.47157288e+001, 0.,
          7.80217505e+000, 1.21474953e+002, 3.85218620e+001,
          1.26786022e+001, 5.22407770e-001, 0., 1.75735927e+000,
          5.38477612e+000, 1.48578644e+001, 0., 0., 1.25441561e+001,
          1.82253971e+001, 3.28347969e+001, 2.39565039e+000,
          5.22407770e-001, 3.42227592e+001, 2.89949493e+001,
          3.99538651e+001, 1.30601943e+000, 7.83611596e-001,
          3.04762726e+001, 4.39066391e+001, 5.15722733e+001,
          2.61203885e-001, 0., 2.34314585e+000, 6.62741709e+000,
          1.37682333e+001, 2.61203885e-001, 9.36621308e-001,
          1.26786022e+001, 1.44974747e+001, 4.25508232e+001,
          5.33647680e+000, 3.15531521e+001, 5.45767899e+001,
          1.20121937e+001, 1.99755249e+001, 2.68823395e+001,
          4.72329063e+001, 9.16838303e+001, 1.57401152e+001,
          4.29133654e+000, 2.05180931e+000, 0., 5.27207804e+000,
          6.21320343e+000, 1.32086992e+001, 1.30601943e+000,
          2.61203885e-001, 4.66772842e+000, 1.65685425e+001,
          5.44577103e+001, 1.04481554e+000, 4.71422863e+000,
          1.34867811e+001, 2.19533195e+001, 7.21271515e+001,
          2.27185211e+001, 9.28932190e-001, 2.31299419e+001,
          2.11248913e+001, 7.94266510e+001, 6.23895874e+001, 0.,
          1.75735927e+000, 5.38477612e+000, 7.85786438e+000, 0., 0.,
          2.18162346e+001, 2.15391045e+001, 1.66446609e+001, 0.,
          4.49905396e+001, 5.27546234e+001, 1.78111839e+001,
          8.18244648e+000, 2.61203885e-001, 4.42204018e+001,
          3.39806099e+001, 9.11269855e+000, 5.68629169e+000, 0., 0.,
          2.34314585e+000, 9.11269855e+000, 1.25441561e+001, 0.,
          1.65105171e+001, 4.07199287e+001, 1.49116879e+001,
          8.85786438e+000, 0., 3.88664551e+001, 1.31335449e+001,
          4.14213568e-001, 5.85786462e-001, 0., 0., 0., 0., 0., 0., 0.,
          3.51471853e+000, 8.28427124e+000, 8.20100975e+000, 0.,
          1.47309864e+000, 2.27573490e+001, 1.98822517e+001,
          2.13648930e+001, 5.22407770e-001, 4.68811913e+001,
          2.47045937e+001, 4.55634928e+000, 1.04432440e+001,
          1.41462040e+000, 2.61203885e-001, 7.38796115e-001, 0., 0., 0.,
          0., 8.02943707e+000, 7.04163074e+000, 5.40652466e+000,
          5.22407770e-001, 0., 7.10050488e+000, 1.69827557e+001,
          3.81408157e+001, 7.75922477e-001, 5.62976885e+000,
          2.56717453e+001, 2.48528137e+001, 6.69909897e+001,
          3.85467935e+000, 2.41029644e+001, 2.66838322e+001,
          2.11248913e+001, 4.92598839e+001, 3.82842708e+000, 0.,
          1.75735927e+000, 5.38477612e+000, 1.62535152e+001,
          1.60434961e+000, 4.14213568e-001, 5.51471853e+000,
          1.32548342e+001, 3.63757668e+001, 3.44046593e+000,
          2.61203885e-001, 2.65550308e+001, 2.94091625e+001,
          4.83789520e+001, 2.39565039e+000, 7.83611596e-001,
          6.56356506e+001, 4.59777069e+001, 3.33418274e+001,
          2.61203885e-001 ]
      - [ 2.61203885e-001, 7.38796115e-001, 1.36995447e+000,
          6.49167681e+000, 1.16794281e+001, 4.58940446e-001, 0., 0., 0.,
          0., 1.19074357e+000, 1.80925643e+000, 2., 0., 0., 0., 0.,
          9.66155720e+000, 4.39971399e+000, 0., 0., 0., 0.,
          6.66140413e+000, 0., 2.58462429e+001, 4.57499084e+001,
          9.46366119e+000, 1.44212437e+001, 6.15976000e+000,
          1.44845610e+001, 3.42360992e+001, 0., 2.73879623e+000,
          2.34180713e+000, 1.06600819e+001, 1.08785372e+001,
          2.38077712e+000, 1., 0., 3.41231441e+000, 7.73895359e+000,
          1.92501163e+001, 3.08745403e+001, 2.40554790e+001,
          3.23303080e+000, 3.33578181e+000, 1.09978354e+000, 0.,
          8.21714211e+000, 3.28436928e+001, 4.12716408e+001,
          3.79743729e+001, 5.79769468e+000, 2.46040559e+000,
          2.32458258e+000, 0., 2.23424206e+001, 2.57074623e+001,
          4.00074158e+001, 4.09171257e+001, 1.24274502e+001,
          1.34442196e+001, 1.38624086e+001, 0., 3.26540923e+000,
          6.19074345e+000, 8.45842171e+000, 6.76504850e+000,
          1.58578646e+000, 1., 4.14213568e-001, 0., 3.00294380e+001,
          2.60710678e+001, 7.15300989e+000, 5.43277693e+000, 2., 0., 0.,
          0., 4.97412605e+001, 2.13441658e+001, 2.75735927e+000,
          4.14213568e-001, 0., 2., 12., 0., 3.23343391e+001,
          1.04033394e+001, 1., 1., 5.85786462e-001, 8.44467163e+000,
          5.55766907e+001, 1.04890835e+000, 7.37627697e+000,
          1.12544374e+001, 6.85119581e+000, 4.69181597e-001, 0., 1., 0.,
          0., 1.83245831e+001, 2.22426414e+001, 8.75735950e+000,
          5.41421366e+000, 0., 1., 9.17157269e+000, 0., 3.08578644e+001,
          3.41421366e+000, 3., 5.41421366e+000, 5.85786462e-001,
          9.09989643e+000, 2.15138149e+001, 0., 5.85786462e-001,
          1.28284273e+001, 1.53431454e+001, 5.43238678e+001,
          4.56652374e+001, 2.82042141e+001, 1.46289682e+001,
          1.44053531e+000, 5.41421366e+000, 7.23924017e+000,
          4.78214502e+000, 6.07992744e+000, 1.95507205e+000,
          3.52940154e+000, 1.55946469e+000, 0., 1.03431454e+001,
          2.48475971e+001, 1.32753487e+001, 1.31196938e+001, 9., 4., 0.,
          0., 3.28942680e+001, 2.58445263e+001, 5., 8., 2., 4.,
          1.37573595e+001, 0., 5.06000328e+001, 7.49871750e+001,
          2.03340397e+001, 1.77650490e+001, 3., 5.41421366e+000,
          4.58578634e+000, 0., 2.82986212e+000, 3.94606042e+000,
          5.21984434e+000, 6.43482876e+000, 2.98082924e+000,
          3.45902896e+000, 2.41707158e+000, 0., 4.88978148e+000,
          9.04309559e+000, 3.16195259e+001, 2.20277615e+001,
          4.00841045e+000, 6.35504007e+000, 2.82439256e+000, 0.,
          7.07187366e+000, 2.17139130e+001, 3.99095802e+001,
          2.38723221e+001, 3.18310189e+000, 4.14893150e+000,
          3.04961514e+000, 0., 1.51571226e+001, 4.00812035e+001,
          2.54503975e+001, 1.29688644e+001, 1.26120389e+000,
          2.49473882e+000, 3.82984376e+000, 8.95594418e-001, 0.,
          3.11356688e+000, 1.00535641e+001, 5.76977444e+000,
          6.30944967e-002, 0., 1.10440564e+000, 0., 0., 0.,
          1.60095584e+000, 4.39904404e+000, 0., 0., 0., 0., 0., 0., 0.,
          0., 0., 0., 0., 0., 0., 0., 0., 0., 0., 0., 0., 0., 0., 0.,
          1.20507526e+000, 7.75260115e+000, 6.28110170e-001,
          4.14213568e-001, 0., 0., 0., 0., 0., 0., 0., 0., 0., 0., 0.,
          0., 0., 0., 0., 0., 0., 0., 1., 3., 1., 1., 1., 4., 1.,
          7.60947418e+000, 5.97631216e+000, 4.14213568e-001,
          1.05917335e+000, 9.40826654e-001, 1.62044942e+000,
          1.37955058e+000, 0., 0., 0., 8.42532539e+000, 6.57467413e+000,
          0., 6.10415554e+000, 4.89584446e+000, 4.54141617e+001,
          3.68579178e+001, 8.69848442e+000, 3.89414406e+001,
          3.00879955e+001, 1.00318127e+001, 1.18971195e+001,
          3.31370854e+000, 4.17157269e+000, 5.85786462e-001,
          3.29878197e+001, 3.98700447e+001, 4.55634928e+000,
          4.83682203e+000, 4.74896431e+000, 3.87910233e+001,
          5.75815582e+001, 9.94112587e+000, 1.00888891e+001,
          2.59740186e+000, 3.38741570e+001, 6.69420776e+001,
          1.86396103e+001, 2.87674789e+001, 1.57766771e+001,
          2.02625227e+000, 1.52458258e+001, 4.97056293e+000,
          2.75735927e+000, 0., 7.83611596e-001, 4.69199257e+001,
          2.11248913e+001, 1.17157292e+000, 0., 3.44046593e+000,
          6.15057106e+001, 2.44386005e+001, 1.30928164e+001,
          5.22407770e-001, 1.45133996e+000, 4.26369705e+001,
          2.69238815e+001, 5.17003441e+001, 3.22874603e+001,
          7.34857750e+000, 1.71661415e+001, 2.89949489e+000,
          5.85786462e-001, 0., 5.22407770e-001, 3.68379822e+001,
          2.31959591e+001, 6.44365072e+000, 0., 0., 2.70172443e+001,
          2.98233757e+001, 2.49365444e+001, 5.22283459e+000, 0.,
          1.92304478e+001, 2.73380947e+001, 5.65453186e+001,
          3.58861389e+001, 5.28369331e+000, 1.22310247e+001,
          3.72792196e+000, 5.80249882e+000, 2.95486045e+000,
          1.71254385e+000, 3.46184082e+001, 1.94680367e+001,
          9.20100975e+000, 0., 1.87324262e+000, 4.67297859e+001,
          2.60954552e+001, 1.23015156e+001, 0., 9.68669796e+000,
          1.06105148e+002, 4.01787148e+001, 8.02943707e+000, 0.,
          7.29812479e+000, 9.45923424e+000, 1.24264073e+000,
          6.40014410e+000, 3.59985590e+000, 2.81576900e+001,
          2.91854553e+001, 3.31370854e+000, 1.02531080e+001,
          4.09003782e+000, 3.35939713e+001, 4.18496780e+001,
          5.38477612e+000, 6.89456797e+000, 6.27700472e+000,
          3.68113937e+001, 4.49043350e+001, 9.52691174e+000,
          4.75449848e+000, 2.00286078e+000, 1.11286840e+001,
          4.87131596e+000, 4.14213568e-001, 1.43236995e+000,
          1.15341651e+000, 1.38763714e+000, 1.61236286e+000, 0., 0., 0.,
          0., 0., 0., 0., 0., 0., 0., 0., 0., 0., 2.00286078e+000,
          2.99713922e+000, 4.14213568e-001, 1., 5.85786462e-001, 0., 0.,
          0., 0., 0., 0., 0., 0., 0., 0., 2.61203885e-001,
          3.08194184e+000, 3.72792196e+000, 3.66772842e+000,
          2.61203885e-001, 7.12219775e-001, 2.87780255e-001, 0.,
          6.08718729e+000, 1.29128132e+001, 0., 0., 0., 1.79376411e+000,
          2.20623589e+000, 1.66826649e+001, 1.40746946e+001,
          1.24264073e+000, 0., 0., 5.05675430e+001, 6.11481857e+001,
          1.15979795e+001, 1.94401093e+001, 1.72461815e+001, 0.,
          2.58578634e+000, 4.14213568e-001, 1.08110800e+001,
          1.51889200e+001, 5.11878586e+000, 9.63857365e+000,
          3.31370854e+000, 2.78180008e+001, 3.81109314e+001,
          1.89888740e+000, 1.47163363e+001, 1.32548342e+001,
          4.71312752e+001, 4.29986649e+001, 1.25274658e+001,
          4.54603424e+001, 1.82253971e+001, 4.06676636e+001,
          5.31191330e+001, 7.75922477e-001, 5.56722307e+000,
          2.89949489e+000, 1.23693981e+001, 3.38796115e+000, 0.,
          3.31593781e+001, 1.82253971e+001, 9.50702953e+000,
          1.10819423e+000, 9.92574692e+000, 9.66356506e+001,
          2.56812401e+001, 2.75735927e+000, 0., 6.58523560e+001,
          9.62359619e+001, 1.57401152e+001, 2.17157292e+000, 0.,
          2.65726113e+000, 7.51431179e+000, 2.48528147e+000,
          6.11620760e+000, 1.22693837e+000, 2.35083485e+000,
          3.58796120e+001, 1.65685425e+001, 9.20100975e+000, 0.,
          1.47437410e+001, 9.80308609e+001, 2.15391045e+001,
          5.68629169e+000, 0., 1.60626431e+001, 1.16236477e+001,
          2.65096684e+001, 7.09153214e+001, 2.88887157e+001,
          1.53680134e+000, 7.80634451e+000, 3.72792196e+000,
          9.41478729e+000, 4.51414537e+000, 0., 9.78679657e+000,
          1.57401152e+001, 2.44807777e+001, 2.99231076e+000,
          1.04481554e+000, 6.59602356e+001, 3.47939377e+001,
          9.20100975e+000, 0., 2.61203885e-001, 6.24006996e+001,
          4.18355713e+001, 2.99801178e+001, 1.52240777e+000,
          3.11105514e+000, 6.06051779e+000, 1.24264073e+000,
          6.79720783e+000, 8.78857899e+000, 3.55184507e+000,
          1.03770876e+001, 4.55634928e+000, 2.63097057e+001,
          3.32050133e+001, 4.86530304e+000, 1.46494160e+001,
          7.45584393e+000, 3.78279610e+001, 3.22014771e+001,
          5.60790682e+000, 2.93504620e+001, 1.36690474e+001,
          2.48338375e+001, 1.85387459e+001, 1.58877528e+000,
          4.11224782e-001, 4.14213568e-001, 4.78943110e+000,
          1.27963552e+001, 0., 0., 0., 2.59037256e+000, 3.40962744e+000,
          0., 0., 0., 0., 0., 0., 0., 0., 0., 0., 0., 0., 0.,
          2.63984895e+000, 7.36015081e+000, 0., 0., 0., 0., 0., 0., 0.,
          0., 0., 0., 2.61203885e-001, 3.66772842e+000, 2.89949489e+000,
          1.91036904e+000, 2.61203885e-001 ]
      - [ 0., 0., 2.33505511e+000, 9.33475304e+000, 1.13301916e+001, 0.,
          0., 0., 0., 0., 0., 0., 2., 1., 0., 0., 0., 4.27537441e+000,
          2.26120377e+000, 0., 0., 0., 0., 1.53469908e+000, 0.,
          2.58048344e+001, 3.78569374e+001, 1.51369495e+001,
          1.40200520e+001, 5.58999157e+000, 7.78727913e+000,
          3.53296318e+001, 0., 0., 5.01077473e-001, 9.04940891e+000,
          1.77837162e+001, 1.66579664e+000, 1., 0., 0., 4.75735950e+000,
          1.70332870e+001, 3.79910011e+001, 1.97491703e+001,
          4.46918154e+000, 4.14213568e-001, 2.58578634e+000, 0.,
          1.61578236e+001, 3.72879066e+001, 4.59715729e+001,
          2.71744614e+001, 4.06701756e+000, 1.51907659e+000, 0., 0.,
          2.40227070e+001, 3.00677185e+001, 3.37286873e+001,
          3.71818657e+001, 1.32580881e+001, 5.94685411e+000,
          2.41421366e+000, 0., 1.58578646e+000, 5.45194721e+000,
          6.30541182e+000, 5.91805792e+000, 2.17157292e+000,
          3.08194184e+000, 2.80986404e+000, 0., 2.55595341e+001,
          2.97836113e+001, 6.17157269e+000, 6.24264050e+000,
          2.17157292e+000, 3., 1., 0., 5.40112038e+001, 1.90829620e+001,
          1.75735927e+000, 2.41421366e+000, 0., 1., 1.18612356e+001, 0.,
          3.51277809e+001, 1.01907434e+001, 0., 0., 0., 4.51471853e+000,
          4.68021011e+001, 0., 7.71254396e+000, 7.41421366e+000,
          3.56722331e+000, 1.26120389e+000, 0., 2.61203885e-001,
          1.34375322e+000, 0., 3.00886097e+001, 1.39180584e+001,
          4.58578634e+000, 1., 1., 0., 4.17157269e+000, 0.,
          3.67510185e+001, 1., 1.58578646e+000, 2.41421366e+000, 3.,
          6.58578634e+000, 3.20269394e+001, 0., 2., 8.26120377e+000,
          9.35565948e+000, 5.03031845e+001, 3.45566330e+001,
          2.43717690e+001, 2.19952888e+001, 0., 4.33881092e+000,
          7.50232363e+000, 6.24654198e+000, 8.01189423e+000,
          5.85786462e-001, 0., 1.58578646e+000, 0., 1.47573595e+001,
          2.56568546e+001, 4.91805792e+000, 8.73879623e+000,
          5.14718652e-001, 3., 2., 0., 2.88578644e+001, 3.08994942e+001,
          9.17157269e+000, 11., 1., 4., 14., 0., 5.73725815e+001,
          6.19705620e+001, 1.27573595e+001, 1.64142132e+001, 4., 1.,
          3.17157292e+000, 5.40970922e-001, 2.10880160e+000,
          6.38858843e+000, 1.10968132e+001, 7.79905319e+000,
          1.80456901e+000, 2.61203885e-001, 0., 0., 1., 1.15007229e+001,
          3.20956802e+001, 2.99435425e+001, 5.36622000e+000,
          2.50804996e+000, 1.58578646e+000, 0., 4.97723150e+000,
          1.31742926e+001, 3.51866188e+001, 2.29122505e+001,
          4.15367889e+000, 2.16585588e+000, 1.01630220e+001, 0.,
          1.04685450e+001, 4.15053406e+001, 3.37533264e+001,
          1.20893211e+001, 8.28427136e-001, 2., 5.85786462e-001, 0., 0.,
          1.23899341e-001, 6.26659250e+000, 1.06095085e+001, 0., 0., 0.,
          0., 0., 1., 0., 0., 0., 0., 0., 0., 0., 0., 0., 0., 0., 0., 0.,
          0., 0., 0., 0., 0., 0., 0., 0., 0., 0., 3.42212224e+000,
          2.66999078e+000, 1.90788710e+000, 0., 0., 0., 0., 0., 0., 0.,
          0., 0., 0., 0., 0., 0., 0., 0., 0., 0., 0., 0., 0., 0., 0., 0.,
          0., 0., 0., 0., 1.02220802e+001, 6.53527927e+000,
          1.24264073e+000, 0., 0., 0., 0., 4.14213568e-001,
          5.85786462e-001, 0., 2.04481554e+000, 6.71254396e+000,
          2.07106781e+000, 2.75735927e+000, 4.14213568e-001,
          4.15067520e+001, 4.89368973e+001, 1.15979795e+001,
          3.01926956e+001, 2.37656727e+001, 7.68250895e+000,
          1.02464237e+001, 2.48528147e+000, 3.24264073e+000,
          1.34314573e+000, 3.23086510e+001, 3.29634247e+001,
          7.45584393e+000, 6.27207804e+000, 0., 3.93598213e+001,
          6.83559113e+001, 8.69848442e+000, 3.80587029e+000,
          3.77991629e+000, 2.80812168e+001, 6.40781631e+001,
          1.78111839e+001, 1.70673428e+001, 1.19620943e+001,
          1.93662131e+000, 1.11638842e+001, 4.14213562e+000,
          6.72792196e+000, 1.02943730e+000, 2.08963108e+000,
          4.86555367e+001, 1.57401152e+001, 4.51471853e+000, 0.,
          2.39565039e+000, 6.29231071e+001, 3.31370850e+001,
          1.35441561e+001, 0., 1.19782519e+000, 4.37483521e+001,
          3.14802303e+001, 3.92336235e+001, 3.33399696e+001,
          1.30601943e+000, 1.80371265e+001, 2.48528147e+000,
          1.91036904e+000, 2.61203885e-001, 5.22407770e-001,
          3.59090500e+001, 1.90538235e+001, 3.51471853e+000, 0., 0.,
          3.21888161e+001, 3.02375908e+001, 3.20184326e+001,
          8.55516148e+000, 1.03712642e+000, 1.58501749e+001,
          2.27817459e+001, 5.91580811e+001, 4.11728706e+001,
          4.30781031e+000, 1.45500546e+001, 5.38477612e+000,
          1.75735927e+000, 0., 1.50804985e+000, 3.09234085e+001,
          1.86396103e+001, 3.66772842e+000, 2.61203885e-001, 0.,
          4.83898277e+001, 3.10660172e+001, 1.15441561e+001, 0.,
          2.08963108e+000, 9.49742966e+001, 4.26639977e+001,
          5.27207804e+000, 0., 1.46438923e+001, 8.94189453e+000,
          4.14213568e-001, 3.91036892e+000, 1.08963096e+000,
          2.45290947e+001, 3.13998375e+001, 4.55634928e+000,
          1.10475941e+001, 2.46712494e+000, 3.18878384e+001,
          3.32126656e+001, 5.79898977e+000, 1.28721828e+001,
          6.22832251e+000, 4.10581169e+001, 4.91428909e+001,
          6.21320343e+000, 3.06337857e+000, 5.22407770e-001,
          6.75444698e+000, 4.83133984e+000, 4.14213568e-001, 0., 0., 0.,
          1., 0., 0., 0., 0., 0., 0., 0., 0., 0., 0., 0., 0., 0.,
          3.94265461e+000, 3.05734539e+000, 0., 0., 0., 0., 0., 0., 0.,
          0., 0., 0., 0., 0., 0., 0., 0., 0., 0., 0., 0., 0.,
          8.28427136e-001, 6.15213108e+000, 1.50194416e+001, 0., 0.,
          1.24264073e+000, 1.75735927e+000, 0., 9.47493839e+000,
          1.14539938e+001, 2.07106781e+000, 0., 0., 5.22945442e+001,
          4.94922523e+001, 8.69848442e+000, 2.63548584e+001,
          1.41598606e+001, 0., 0., 4.14213568e-001, 9.77513123e+000,
          1.88106556e+001, 0., 6.85786438e+000, 9.11269855e+000,
          3.13217735e+001, 3.37076645e+001, 4.56239510e+000,
          1.91238956e+001, 1.15979795e+001, 4.07605247e+001,
          3.99552040e+001, 7.37466288e+000, 3.72699966e+001,
          1.57401152e+001, 3.58316002e+001, 4.97836227e+001,
          9.36621308e-001, 6.40652466e+000, 4.55634928e+000,
          1.22230568e+001, 1.87744796e+000, 4.14213568e-001,
          3.52304459e+001, 1.28406200e+001, 1.22535143e+001,
          2.61203885e-001, 8.92893219e+000, 1.06946175e+002,
          2.27817459e+001, 3.34314585e+000, 0., 6.41436844e+001,
          1.05915192e+002, 9.94112587e+000, 0., 0., 2.20592117e+000,
          1.28945837e+001, 5.79898977e+000, 4.83930111e+000,
          2.61203885e-001, 6.75417423e-001, 4.73418274e+001,
          2.02964649e+001, 4.68629169e+000, 0., 1.68659992e+001,
          1.03251747e+002, 2.19533195e+001, 4.92893219e+000, 0.,
          2.50302792e+001, 1.48275843e+001, 1.24264069e+001,
          5.07654610e+001, 3.89502678e+001, 2.60855484e+000,
          6.32037735e+000, 3.72792196e+000, 1.38841171e+001,
          1.45902908e+000, 2.61203885e-001, 1.86260986e+001,
          1.24264069e+001, 8.70444775e+000, 2.98184371e+000,
          2.61203885e-001, 5.25722733e+001, 3.72792206e+001,
          1.28873014e+001, 0., 2.61203885e-001, 7.21164322e+001,
          4.80487747e+001, 2.35735931e+001, 0., 1.20203054e+000,
          2.38375592e+000, 1.65685427e+000, 9.11558914e+000,
          1.56417694e+001, 0., 1.75735927e+000, 4.97056293e+000,
          3.49552650e+001, 3.73168106e+001, 5.46573353e+000,
          2.15637035e+001, 6.62741709e+000, 2.81237450e+001,
          4.12193985e+001, 4.07784891e+000, 1.64368687e+001,
          9.11269855e+000, 2.77927818e+001, 2.65797997e+001, 0., 0., 0.,
          4.84941006e+000, 1.21505899e+001, 0., 0., 0., 0., 0., 0., 0.,
          0., 0., 0., 0., 0., 0., 0., 0., 0., 0., 0., 3.15018654e+000,
          2.84981346e+000, 0., 0., 0., 0., 0., 0., 0., 0., 0., 0., 0.,
          0., 0., 0., 0. ]
      - [ 0., 0., 1.98791087e+000, 7.71206188e+000, 1.03000269e+001, 0.,
          0., 0., 0., 0., 2.61203885e-001, 1.89180577e+000,
          2.84699035e+000, 0., 0., 0., 0., 1.00439348e+001,
          3.41142488e+000, 0., 0., 0., 4.51471853e+000, 1.94431043e+000,
          0., 2.12867699e+001, 3.28334122e+001, 1.25730591e+001,
          8.28569508e+000, 5.02126884e+000, 1.07845812e+001,
          3.43663254e+001, 0., 3.85952830e-001, 4.31643820e+000,
          9.90269661e+000, 1.52498283e+001, 1.45084053e-001, 0., 0.,
          6.38697922e-001, 2.64947987e+000, 2.48374310e+001,
          2.83740482e+001, 2.75684433e+001, 2.73755836e+000,
          1.19434142e+000, 1., 1.41421354e+000, 1.74699039e+001,
          3.11900043e+001, 3.51785927e+001, 3.11405602e+001,
          4.77829742e+000, 5.82842731e+000, 0., 0., 2.74555550e+001,
          3.66253853e+001, 4.13275185e+001, 4.09664726e+001,
          6.26890707e+000, 4.14592791e+000, 4.10050488e+000, 0., 1.,
          8.42988586e+000, 1.24279785e+001, 4.65685415e+000,
          2.48528147e+000, 0., 1., 0., 1.32493095e+001, 2.23669338e+001,
          1.82899189e+001, 5.58578634e+000, 2., 4.41421366e+000,
          4.75735950e+000, 0., 4.52002869e+001, 3.29891243e+001,
          9.08194160e+000, 2.61203885e-001, 0., 6.41421366e+000,
          1.23981142e+001, 0., 3.71106567e+001, 8.48528099e+000,
          1.58578646e+000, 0., 0., 0., 4.84880905e+001, 0.,
          4.75735950e+000, 1.54852810e+001, 5.75735950e+000, 3., 0., 0.,
          0., 0., 3.19157085e+001, 2.48661613e+001, 2.58578634e+000, 8.,
          2., 2.41421366e+000, 1., 0., 3.86743965e+001, 1., 0., 1., 0.,
          5.18775177e+000, 1.85475349e+001, 0., 4.14213568e-001,
          7.58578634e+000, 5.02802849e+000, 5.35693855e+001,
          4.32870216e+001, 1.86837788e+001, 2.45513840e+001,
          4.14213568e-001, 2.75735927e+000, 9.50804996e+000,
          7.75315380e+000, 9.56722355e+000, 2., 0., 0., 0.,
          1.32085867e+001, 2.84462948e+001, 1.64291039e+001,
          7.43425274e+000, 1.23912120e+000, 0., 1.17157292e+000, 0.,
          3.03718624e+001, 2.79712849e+001, 7.32037735e+000,
          1.08284273e+001, 2.17157292e+000, 1.08284273e+001,
          9.34314537e+000, 0., 4.23540192e+001, 5.76645432e+001,
          2.48607407e+001, 1.66431046e+001, 1.25780973e+001, 5., 2., 0.,
          2.67409825e+000, 2.28994632e+000, 9.07771111e+000,
          1.18762026e+001, 2.34324598e+000, 7.38796115e-001, 0., 0.,
          4.57409143e+000, 1.13996935e+001, 2.95233192e+001,
          2.17035294e+001, 3.45457721e+000, 5.43883657e+000,
          1.67962277e+000, 0., 1.04362621e+001, 2.35825806e+001,
          3.07724152e+001, 2.61888504e+001, 5.81470203e+000,
          1.47059834e+000, 1., 0., 9.05877304e+000, 2.66113396e+001,
          3.93938484e+001, 2.15432644e+001, 9.22475040e-001,
          4.26120377e+000, 5.15300989e+000, 0., 0., 3.48039746e+000,
          7.18550110e+000, 4.33410120e+000, 0., 0., 0., 0., 0., 0., 0.,
          2., 0., 0., 0., 0., 0., 0., 0., 0., 0., 0., 0., 0., 0., 0., 0.,
          0., 0., 0., 0., 0., 0., 0., 3.47698975e+000, 3.52301025e+000,
          0., 0., 0., 0., 0., 0., 0., 0., 0., 0., 0., 0., 0., 0., 0., 0.,
          0., 0., 0., 0., 0., 0., 0., 0., 0., 0., 0., 7.78418732e+000,
          7.80159903e+000, 4.14213568e-001, 0., 0., 1.19373238e+000,
          1.80626762e+000, 0., 0., 0., 4.86882114e+000, 1.10601110e+001,
          2.48528147e+000, 3.81612587e+000, 2.76966071e+000,
          3.77613449e+001, 3.55107346e+001, 1.07695522e+001,
          3.70628510e+001, 2.48955193e+001, 1.43536520e+001,
          1.28179207e+001, 8.28427136e-001, 7.38796115e-001,
          2.61203885e-001, 3.40433502e+001, 3.50571556e+001,
          4.55634928e+000, 4.41421366e+000, 1.92893219e+000,
          2.62511482e+001, 6.48077240e+001, 1.32548342e+001,
          8.31972504e+000, 3.36656618e+000, 3.80125618e+001,
          7.73894577e+001, 1.36690474e+001, 1.21043844e+001,
          5.82454729e+000, 2.17124891e+000, 1.85150433e+001,
          4.97056293e+000, 3.34314585e+000, 0., 4.75735950e+000,
          4.24730873e+001, 1.40832615e+001, 8.42508793e+000,
          2.61203885e-001, 3.02625227e+000, 7.30204315e+001,
          3.10660172e+001, 1.58873014e+001, 0., 0., 4.37746048e+001,
          2.81665230e+001, 3.87039986e+001, 3.33548775e+001,
          2.87364936e+000, 2.10552826e+001, 2.07106781e+000, 0., 0.,
          2.80986404e+000, 4.76926613e+001, 1.61543293e+001,
          4.34314585e+000, 0., 0., 3.27746048e+001, 2.77523079e+001,
          2.31901951e+001, 6.28289318e+000, 1.03712642e+000,
          1.28207378e+001, 1.94680367e+001, 6.16716652e+001,
          4.00024338e+001, 3.23854780e+000, 1.57908897e+001,
          5.79898977e+000, 2.17157292e+000, 0., 7.90485001e+000,
          3.75266075e+001, 1.78111839e+001, 2.75735927e+000, 0.,
          2.65685415e+000, 4.78751068e+001, 2.85807362e+001,
          1.58873014e+001, 0., 4.58578634e+000, 9.35197678e+001,
          4.05929298e+001, 1.43015156e+001, 0., 1.18493500e+001,
          8.49379635e+000, 2.07106781e+000, 3.51185775e+000,
          2.07392859e+000, 2.85914059e+001, 2.89233131e+001,
          3.31370854e+000, 7.08988571e+000, 6.08168697e+000,
          2.82782898e+001, 4.47511482e+001, 7.87005758e+000,
          7.00000763e+000, 3.10049748e+000, 4.01925430e+001,
          4.36653214e+001, 5.79898977e+000, 9.36170864e+000,
          1.98143685e+000, 7.06471682e+000, 4.52107000e+000,
          4.14213568e-001, 0., 0., 0., 0., 0., 0., 0., 0., 0., 0., 0.,
          0., 0., 0., 0., 0., 0., 2.92926049e+000, 2.07073951e+000, 0.,
          0., 0., 0., 0., 0., 0., 0., 0., 0., 0., 0., 0., 0., 0., 0., 0.,
          0., 0., 0., 4.14213568e-001, 6.81059694e+000, 1.17751894e+001,
          0., 0., 0., 2.86544108e+000, 2.13455892e+000, 9.36879921e+000,
          1.55601330e+001, 2.07106781e+000, 0., 0., 5.01931648e+001,
          5.26646996e+001, 6.21320343e+000, 1.92211666e+001,
          1.27077656e+001, 6.79622769e-001, 3.20377231e-001,
          4.14213568e-001, 8.15421772e+000, 2.04315701e+001,
          1.31411529e+000, 3.44324398e+000, 5.79898977e+000,
          2.79146481e+001, 4.05290031e+001, 2.61203885e-001,
          1.76971664e+001, 1.53259020e+001, 3.06626644e+001,
          3.90530624e+001, 8.47660255e+000, 3.76827774e+001,
          2.02964649e+001, 4.42515640e+001, 4.72925911e+001, 0.,
          1.75735927e+000, 6.21320343e+000, 1.53007011e+001,
          2.72873569e+000, 2.28745627e+000, 3.13572044e+001,
          1.94680367e+001, 2.17976704e+001, 1.08963096e+000,
          7.81755304e+000, 8.97144089e+001, 2.31959591e+001,
          7.01087427e+000, 2.61203885e-001, 6.15547333e+001,
          1.12533577e+002, 1.57401152e+001, 1.17157292e+000, 0., 0.,
          4.92893219e+000, 4.55634928e+000, 8.25351429e+000,
          2.61203885e-001, 3.48528147e+000, 4.04020195e+001,
          1.40832615e+001, 8.02943707e+000, 0., 1.89917850e+001,
          1.15611244e+002, 1.78111839e+001, 5.85786462e-001, 0.,
          2.58904724e+001, 1.80384598e+001, 1.57401152e+001,
          6.36242371e+001, 3.07067146e+001, 0., 2.75735927e+000,
          2.89949489e+000, 1.73280659e+001, 3.01507950e+000, 0.,
          2.47157288e+001, 1.44974747e+001, 1.54664507e+001,
          6.32034588e+000, 1.19782519e+000, 6.02925072e+001,
          3.39655113e+001, 1.50294371e+001, 5.14718652e-001,
          4.14213568e-001, 4.75614014e+001, 3.93502884e+001,
          4.05396500e+001, 2.13444638e+000, 2.53328180e+000,
          2.46671820e+000, 8.28427136e-001, 6.19278669e+000,
          1.79787865e+001, 4.60688639e+000, 7.15047264e+000,
          2.07106781e+000, 2.62840328e+001, 3.58875427e+001,
          2.94749546e+000, 1.27387962e+001, 8.69848442e+000,
          3.82814331e+001, 3.43337898e+001, 6.31239986e+000,
          1.97881050e+001, 8.69848442e+000, 3.97385750e+001,
          3.04624348e+001, 0., 0., 4.14213568e-001, 5.37010670e+000,
          7.21567965e+000, 0., 0., 4.14213568e-001, 1.07106781e+000,
          5.14718652e-001, 0., 0., 0., 0., 0., 0., 0., 0., 0., 0., 0.,
          0., 0., 2.91949534e+000, 4.08050442e+000, 0., 0., 0., 0., 0.,
          0., 0., 0., 0., 0., 0., 2.17157292e+000, 8.28427136e-001, 0.,
          0. ]
      - [ 0., 0., 8., 5.58578634e+000, 6.41421366e+000, 1., 0., 0., 0.,
          1.13431454e+001, 1.24142132e+001, 4., 8., 11., 17.,
          5.58578634e+000, 0., 3.42643890e+001, 2.09180584e+001,
          6.58578634e+000, 3.41421366e+000, 7.58578634e+000,
          1.73562126e+001, 1.85727196e+001, 0., 3.85028229e+001,
          4.75157394e+001, 2.09881058e+001, 1.27506905e+001,
          3.32037735e+000, 8.32160378e+000, 2.01638718e+001, 0., 0., 0.,
          1., 9., 2., 0., 0., 8.28427136e-001, 3.17157292e+000,
          1.08284273e+001, 1.09289322e+001, 2.38994942e+001,
          1.96862907e+001, 5.65685415e+000, 1., 0., 3.34314585e+000,
          9.33227158e+000, 1.97454643e+001, 3.57445221e+001,
          3.22517052e+001, 2.24959984e+001, 1.05830479e+001, 0.,
          6.07353115e+000, 1.36511021e+001, 1.41249228e+001,
          4.30247116e+001, 4.54748001e+001, 1.04587355e+001,
          1.85254593e+001, 4.14213568e-001, 1.58578646e+000,
          4.41421366e+000, 1., 6., 1., 4., 5.85786462e-001, 0.,
          8.92893219e+000, 1.66568546e+001, 9., 24., 6., 7., 0., 0., 9.,
          2.95857868e+001, 22., 3.04142132e+001, 6.17157269e+000,
          7.41421366e+000, 3., 0., 1.45857868e+001, 2.82426414e+001,
          1.91005058e+001, 2.85013809e+001, 1.63270454e+001,
          2.72426414e+001, 1.35857868e+001, 0., 2.58578634e+000,
          1.04142132e+001, 2., 3., 1.58578646e+000, 1.82842708e+000,
          1.58578646e+000, 0., 1.25857868e+001, 2.94142132e+001, 8.,
          4.82842731e+000, 1.75735927e+000, 2.41421366e+000, 2., 0.,
          2.56862907e+001, 4.35563507e+001, 1.83431454e+001, 16., 3., 4.,
          1., 0., 2.49289322e+001, 3.98994942e+001, 2.09289322e+001,
          2.76568546e+001, 7.34314585e+000, 1.72426414e+001, 4., 0.,
          4.92893219e+000, 1.53322716e+001, 4.49615526e+000,
          3.41421366e+000, 2., 0., 0., 0., 7., 2.87878170e+001,
          1.95553284e+001, 5.65685415e+000, 3.17157292e+000,
          7.41421366e+000, 3., 0., 3.30700493e+001, 4.45791168e+001,
          1.92349510e+001, 1.28732424e+001, 9.06337833e+000, 3., 0., 0.,
          3.65136986e+001, 7.08742599e+001, 3.42906418e+001,
          2.44852810e+001, 9.58578682e+000, 8., 0., 0., 4.82842731e+000,
          1.04142132e+001, 4.75735950e+000, 4.67541742e+000,
          2.15300965e+000, 5.85786462e-001, 5.85786462e-001, 0.,
          1.88299580e+001, 7.11980629e+000, 2.41223106e+001,
          1.32140541e+001, 5.17157269e+000, 1.41421354e+000,
          4.33894062e+000, 0., 2.60697441e+001, 4.35547600e+001,
          2.87484112e+001, 1.91107426e+001, 9.70097446e+000,
          7.73459101e+000, 4.58578634e+000, 0., 1.54270077e+001,
          1.95076447e+001, 3.20860100e+001, 4.63858452e+001,
          3.61912270e+001, 2.66826382e+001, 5.95806551e+000, 0.,
          4.34314585e+000, 1.08994951e+001, 3.75735927e+000,
          1.26120389e+000, 4.05917358e+000, 1.67962277e+000, 1., 0.,
          2.36523361e+001, 2.68539734e+001, 1.73329926e+001, 14., 2.,
          2.41421366e+000, 0., 0., 2.67557964e+001, 4.79416122e+001,
          3.84361649e+001, 1.70398407e+001, 4.36099911e+000,
          4.69179964e+000, 4.56370354e+000, 0., 2.12235279e+001,
          5.66892929e+001, 4.88033295e+001, 1.95984879e+001,
          3.78230381e+000, 6.19245672e+000, 5.75135088e+000, 0.,
          2.41421366e+000, 1.24142132e+001, 8.08194160e+000,
          6.08963108e+000, 0., 0., 0., 0., 2.22535152e+001,
          2.57573586e+001, 2.58578634e+000, 4.82842731e+000,
          3.58578634e+000, 3., 2.17157292e+000, 0., 2.79044209e+001,
          4.77685318e+001, 1.79601116e+001, 1.31834669e+001,
          2.58578634e+000, 9., 4.58578634e+000, 0., 3.46361427e+001,
          5.68965950e+001, 5.14292412e+001, 2.78068619e+001,
          9.05856895e+000, 5.41421366e+000, 5.17157269e+000, 0.,
          8.20100975e+000, 6.21320343e+000, 5.85786462e-001, 0., 0.,
          1.92304478e+001, 2.36101723e+001, 2.16369724e+001,
          5.22407770e-001, 5.22407770e-001, 4.61811295e+001,
          3.64507942e+001, 2.66341839e+001, 3.21148777e+000,
          4.26889277e+000, 8.52214355e+001, 3.76934357e+001,
          2.50020523e+001, 2.81418180e+000, 0., 5.85786462e-001,
          1.24264073e+000, 1.17157292e+000, 0., 0., 1.74730873e+001,
          1.82253971e+001, 1.93015156e+001, 0., 9.36621308e-001,
          2.78796120e+001, 2.52670269e+001, 4.38877487e+001,
          1.80289898e+001, 5.65685415e+000, 3.00588741e+001,
          1.57401152e+001, 5.02694435e+001, 5.02747154e+001, 0.,
          4.92893219e+000, 4.55634928e+000, 3.51471853e+000, 0., 0.,
          2.34020195e+001, 1.49116879e+001, 9.68629169e+000, 0.,
          2.61203885e-001, 3.83712654e+001, 2.89949493e+001,
          1.03725834e+001, 0., 2.61203885e-001, 4.36139030e+001,
          4.05929298e+001, 4.27483521e+001, 7.83611596e-001, 0.,
          9.61522388e+000, 6.21320343e+000, 4.17157269e+000, 0., 0.,
          3.09461765e+001, 2.11248913e+001, 4.92893219e+000, 0.,
          2.61203885e-001, 5.91580620e+001, 3.18944435e+001,
          4.68629169e+000, 0., 2.61203885e-001, 5.62585640e+001,
          4.14213562e+001, 1.90588741e+001, 0., 1.30601943e+000,
          2.17944851e+001, 3.72792196e+000, 1.17157292e+000, 0.,
          2.76504850e+000, 3.97374763e+001, 1.94680367e+001,
          9.02943707e+000, 0., 3.94749546e+000, 7.36849747e+001,
          2.65096684e+001, 8.85786438e+000, 0., 1.97374773e+000,
          1.07675964e+002, 4.59777069e+001, 1.13725834e+001, 0.,
          5.22407770e-001, 1.59212427e+001, 5.38477612e+000,
          2.91036892e+000, 2.61203885e-001, 1.29878063e+001,
          4.53847771e+001, 1.20121937e+001, 9.35402012e+000,
          2.61203885e-001, 2.34249229e+001, 7.28349609e+001,
          2.07106781e+001, 1.66939812e+001, 3.33545661e+000,
          1.45400553e+001, 5.79624710e+001, 2.52670269e+001,
          5.57434387e+001, 1.74870071e+001, 2.61203885e-001,
          1.68393021e+001, 4.14213562e+000, 5.34314585e+000,
          4.14213568e-001, 8.02378845e+000, 5.27213783e+001,
          1.44974747e+001, 3.75735927e+000, 0., 4.28283653e+001,
          7.44731522e+001, 1.20121937e+001, 1.33060198e+001,
          2.38027215e+000, 6.60702438e+001, 6.88881226e+001,
          9.52691174e+000, 1.28612785e+001, 5.65343952e+000,
          1.56722319e+000, 1.97048550e+001, 3.72792196e+000, 0., 0.,
          1.56722319e+000, 3.81068764e+001, 1.94680367e+001,
          5.85786438e+000, 0., 9.32539654e+000, 7.16207809e+001,
          2.48528137e+001, 1.19398060e+001, 2.61203885e-001,
          5.19490509e+001, 9.53108368e+001, 2.11248913e+001,
          1.84807777e+001, 2.13444638e+000, 0., 0., 4.97056293e+000,
          8.02943707e+000, 0., 6.75417423e-001, 1.94545250e+001,
          1.49116879e+001, 1.54359617e+001, 5.22407770e-001,
          2.40374637e+000, 7.42287216e+001, 2.94091625e+001,
          1.09583693e+001, 0., 1.10117455e+001, 8.57212296e+001,
          3.47939377e+001, 3.25364685e+001, 9.36621308e-001, 0., 0.,
          4.97056293e+000, 7.02943707e+000, 0., 0., 3.75735927e+000,
          2.11248913e+001, 3.71177483e+001, 0., 1.55953407e+000,
          2.19846210e+001, 2.48528137e+001, 6.62258301e+001,
          1.53771973e+001, 2.71244049e+001, 2.37334595e+001,
          1.20121937e+001, 5.00589790e+001, 5.30709610e+001, 0.,
          2.17157292e+000, 4.14213562e+000, 4.68629169e+000, 0.,
          2.61203885e-001, 1.23540201e+001, 1.94680367e+001,
          2.49167385e+001, 0., 0., 1.21299419e+001, 2.85807362e+001,
          3.82893219e+001, 0., 2.61203885e-001, 3.19276123e+001,
          3.31370850e+001, 4.93866425e+001, 2.28745627e+000, 0.,
          3.51471853e+000, 5.38477612e+000, 4.10050488e+000, 0.,
          2.61203885e-001, 1.40403109e+001, 1.40832615e+001,
          9.61522388e+000, 0., 0., 2.26740990e+001, 3.14802303e+001,
          2.28456707e+001, 0., 0., 3.10466805e+001, 4.22497826e+001,
          3.74423332e+001, 2.61203885e-001, 0., 5.92893219e+000,
          5.38477612e+000, 7.68629169e+000, 0., 0., 1.33725834e+001,
          1.61543293e+001, 2.19506798e+001, 5.22407770e-001,
          7.83611596e-001, 3.18904858e+001, 2.98233757e+001,
          3.14577103e+001, 1.04481554e+000, 5.22407770e-001,
          4.10806236e+001, 4.01787148e+001, 5.09570503e+001,
          2.61203885e-001, 2.61203885e-001, 5.25351477e+000,
          6.21320343e+000, 9.01087379e+000, 2.61203885e-001,
          1.23764172e+001, 2.57240887e+001, 7.45584393e+000,
          3.16368637e+001, 9.80678654e+000, 8.33491898e+000,
          3.59960327e+001, 2.11248913e+001, 4.27665329e+001,
          1.57776232e+001, 6.18569088e+000, 2.72873974e+001,
          2.36101723e+001, 7.86668320e+001, 3.82499084e+001,
          5.22407770e-001, 7.99231100e+000, 6.62741709e+000,
          6.59666061e+000, 2.61203885e-001, 7.83611596e-001,
          2.66894760e+001, 1.90538235e+001, 2.95283699e+001,
          2.94471717e+000, 1.48155966e+001, 4.14859200e+001,
          1.53259020e+001, 4.80908318e+001, 1.62817497e+001,
          1.90352020e+001, 2.86510887e+001, 1.28406200e+001,
          4.94462013e+001, 3.40268860e+001, 0., 1.75735927e+000,
          5.38477612e+000, 1.13354568e+001, 5.22407770e-001,
          1.04481554e+000, 3.41856308e+001, 1.40832615e+001,
          7.68629169e+000, 0., 2.13444638e+000, 3.89538651e+001,
          2.65096684e+001, 2.74653988e+001, 9.36621308e-001,
          5.81030655e+000, 4.35500832e+001, 2.65096684e+001,
          6.13565559e+001, 3.97733879e+001 ]
      - [ 0., 1., 2.58578634e+000, 4.14213568e-001, 1.90743566e-001,
          4.98082924e+000, 1.32426405e+001, 5.58578634e+000, 0.,
          6.61883783e+000, 9.12345695e+000, 1.19590492e+001,
          1.62658482e+001, 1.71990681e+001, 1.16492357e+001,
          9.02420139e+000, 0., 3.41578650e+000, 1.44343204e+001,
          2.38507786e+001, 6.22687569e+001, 2.64920635e+001,
          1.09453030e+001, 2.77452421e+000, 0., 0., 1., 7.00360584e+000,
          4.12219276e+001, 1.10356712e+001, 7.38796115e-001, 0., 0.,
          5.45842171e+000, 5.86616087e+000, 0., 0., 2., 4.50804996e+000,
          4.64495993e+000, 0., 1.01681385e+001, 5.04980898e+000,
          7.83798885e+000, 9.23968601e+000, 6.72220087e+000,
          1.02213831e+001, 1.23209867e+001, 0., 8.45706463e+000,
          1.30328293e+001, 1.27821846e+001, 2.47989902e+001,
          1.62720776e+001, 1.78284264e+001, 1.41715727e+001, 0.,
          4.47824240e+000, 7.10843945e+000, 1.65434532e+001,
          5.13723297e+001, 3.00273457e+001, 3.61760292e+001,
          3.34244804e+001, 0., 1.75735927e+000, 6.75069046e+000,
          3.49195004e+000, 3., 3.20377231e-001, 6.67962265e+000,
          2.17157292e+000, 0., 5.17157269e+000, 7.82842731e+000,
          4.58578634e+000, 3., 3.58578634e+000, 2.01792622e+001,
          2.21638832e+001, 0., 1.46862917e+001, 9.65685463e+000,
          2.58578634e+000, 1., 1., 1.38994951e+001, 4.60767174e+001, 0.,
          1.11788492e+001, 3.82842708e+000, 4., 1., 7.38796115e-001,
          3.72985115e+001, 1.08428795e+002, 0., 2.58578634e+000,
          8.28427136e-001, 1.17157292e+000, 3.41421366e+000,
          5.75315380e+000, 1.26610594e+001, 5.85786462e-001, 0.,
          2.14145718e+001, 1.27231712e+001, 2.45524025e+000,
          2.41421366e+000, 4.58578634e+000, 1.24878454e+001,
          1.74839840e+001, 0., 1.14120779e+001, 2.58210964e+001,
          1.05104084e+001, 4.24264050e+000, 4.60152769e+000,
          1.89536762e+001, 4.93715019e+001, 0., 3.97190514e+001,
          1.57228699e+001, 2.16239796e+001, 1.33510418e+001,
          5.67549419e+000, 1.50291958e+001, 4.00479507e+001, 0.,
          7.17157269e+000, 1.08284273e+001, 0., 1., 0., 2., 0., 0.,
          1.45147190e+001, 7., 1., 1.41421354e+000, 1.07573595e+001,
          1.15038443e+001, 1.44250879e+001, 0., 3.19722443e+001,
          3.13656864e+001, 1.31394091e+001, 6.56722307e+000,
          2.16736746e+000, 6.05596828e+000, 2.33886547e+001, 0.,
          1.81776085e+001, 1.08067589e+001, 0., 0., 0., 1.84909773e+000,
          3.10826826e+000, 0., 4., 3., 0., 1., 0., 3., 4., 0.,
          1.61054153e+001, 1.21025782e+001, 1.46302235e+000,
          1.00710678e+001, 8.51471901e+000, 1.18284273e+001,
          1.33920546e+001, 0., 1.61812191e+001, 4.19718323e+001,
          8.97208023e+000, 0., 3.20377231e-001, 2.26540923e+000,
          4.02336884e+000, 0., 0., 0., 0., 0., 0., 0., 0., 0., 2., 4.,
          3., 1., 0., 2., 5., 0., 3., 1.58284273e+001, 8.17157269e+000,
          7.41421366e+000, 3.58578634e+000, 1.65857868e+001,
          1.38284273e+001, 0., 2.20531712e+001, 4.94731789e+001,
          2.27871037e+001, 1.91551533e+001, 9.80943966e+000,
          8.35357761e+000, 9.47273350e+000, 0., 5.65523005e+000,
          1.61384659e+001, 7.33453369e+000, 1.76770020e+001,
          3.66874528e+000, 1.09414434e+001, 3.55067134e+000, 0., 2., 2.,
          0., 0., 1., 5., 1., 0., 3.58578634e+000, 1.64142132e+001, 13.,
          9.08963108e+000, 1.29808292e+001, 1.29295397e+001, 1., 0.,
          9.04012680e-001, 1.97175426e+001, 3.95511932e+001,
          5.92739067e+001, 1.11319008e+001, 1.21602402e+001,
          1.26120389e+000, 0., 0., 0., 0., 3., 0., 0., 0.,
          2.61203885e-001, 2.49615550e+000, 7.04163074e+000,
          1.74173985e+001, 7.83611596e-001, 6.75570345e+000,
          2.35163746e+001, 8.28427124e+000, 2.84990997e+001,
          1.19445505e+001, 3.23345604e+001, 2.51801567e+001,
          9.94112587e+000, 3.08372803e+001, 1.97068748e+001,
          8.11848259e+000, 9.22466278e+000, 2.07106781e+000,
          9.06240559e+000, 1.55233812e+001, 6.75417423e-001,
          9.25351429e+000, 4.55634928e+000, 8.42508793e+000,
          1.08963096e+000, 5.41524029e+000, 1.66141968e+001,
          1.36690474e+001, 2.35049782e+001, 2.79653740e+000,
          2.41821671e+000, 2.45695896e+001, 2.94091625e+001,
          3.53418274e+001, 2.61203885e-001, 7.36123514e+000,
          2.36976395e+001, 3.93502884e+001, 7.45201797e+001,
          1.20706558e+001, 8.28427136e-001, 9.10050488e+000,
          4.14213562e+000, 7.01087427e+000, 1.91805816e+000,
          2.61203885e-001, 1.23540201e+001, 1.94680367e+001,
          3.48719215e+001, 1.04481554e+000, 0., 1.92304478e+001,
          3.10660172e+001, 4.77035370e+001, 0., 6.75417423e-001,
          1.55255928e+001, 3.93502884e+001, 1.15185753e+002,
          1.92629471e+001, 0., 3.75735927e+000, 2.89949489e+000,
          1.29334364e+001, 4.40970945e+000, 6.38445091e+000,
          3.12307720e+001, 9.94112587e+000, 2.02840290e+001,
          1.41596222e+001, 2.94471073e+001, 1.84107571e+001,
          1.28406200e+001, 4.23259773e+001, 3.19755383e+001,
          2.81241512e+001, 6.45499496e+001, 2.15391045e+001,
          3.85115471e+001, 3.32752495e+001, 0., 1.17867966e+001,
          7.04163074e+000, 1.17157292e+000, 0., 7.38796115e-001,
          1.55627193e+001, 1.82253971e+001, 2.92752628e+001,
          1.19782519e+000, 4.85893326e+001, 3.67832527e+001,
          1.36690474e+001, 2.83115063e+001, 1.16468630e+001,
          2.29985504e+001, 9.00144958e+000, 0., 2.62108254e+000,
          4.37891722e+000, 0., 4.51471853e+000, 5.38477612e+000,
          4.10050488e+000, 0., 1.08958292e+001, 1.69620342e+001,
          1.44974747e+001, 2.55998459e+001, 1.04481554e+000,
          5.49810181e+001, 1.51905556e+001, 8.28427136e-001,
          5.84925795e+000, 6.15074205e+000, 0., 0., 0., 0., 0., 0.,
          5.27207804e+000, 6.62741709e+000, 4.10050488e+000, 0., 0.,
          1.70588741e+001, 2.19533195e+001, 2.24653988e+001,
          5.22407770e-001, 7.85021439e+001, 2.83557186e+001,
          1.03553391e+001, 1.87727528e+001, 9.01404476e+000,
          2.29874077e+001, 1.00125914e+001, 4.14213568e-001,
          6.67361307e+000, 1.39121733e+001, 0., 2.34314585e+000,
          4.55634928e+000, 4.10050488e+000, 0., 2.61203885e-001,
          2.15550308e+001, 1.73969688e+001, 2.10742531e+001,
          1.71254385e+000, 4.19512787e+001, 3.45928764e+001,
          1.15979795e+001, 2.20809097e+001, 1.07769547e+001, 0., 0., 0.,
          0., 0., 0., 4.68629169e+000, 5.79898977e+000, 4.10050488e+000,
          4.14213568e-001, 9.69062424e+000, 1.81672401e+001,
          1.24264069e+001, 3.24438210e+001, 1.22719069e+001,
          3.18564248e+000, 1.06722221e+001, 1.32548342e+001,
          5.16467323e+001, 6.52405701e+001, 0., 1., 8.28427136e-001,
          1.30151987e+001, 4.61563759e+001, 1.04481554e+000,
          1.28130493e+001, 4.97056293e+000, 1.17157292e+000, 0.,
          2.42885327e+000, 3.35589523e+001, 1.53259020e+001,
          1.46853981e+001, 1.00008936e+001, 1.19373238e+000,
          3.25808716e+001, 2.69238815e+001, 4.69954948e+001,
          1.30601943e+000, 1.95870399e+000, 4.45732574e+001,
          3.27228699e+001, 5.84936676e+001, 3.12514973e+001,
          2.61203885e-001, 6.66772842e+000, 5.79898977e+000,
          5.27207804e+000, 0., 5.22407770e-001, 3.73943329e+001,
          1.86396103e+001, 7.44365072e+000, 0., 2.54866004e+000,
          8.37995377e+001, 3.27228699e+001, 2.92893219e+000, 0.,
          2.63276653e+001, 1.22049973e+002, 3.76934357e+001,
          3.92893219e+000, 0., 0., 4.10050488e+000, 6.21320343e+000,
          1.06862917e+001, 0., 1.86112709e+001, 4.31044579e+001,
          1.20121937e+001, 6.47661495e+000, 7.95462847e-001,
          3.58961258e+001, 6.63048859e+001, 1.03553391e+001,
          1.89264851e+001, 1.35171661e+001, 7.35834503e+001,
          7.43038559e+001, 1.65685425e+001, 2.61406059e+001,
          1.24035492e+001, 0., 6.44365072e+000, 4.97056293e+000,
          5.85786462e-001, 0., 5.22407770e-001, 4.65659027e+001,
          1.82253971e+001, 1.16862917e+001, 0., 5.99115944e+001,
          4.01178436e+001, 9.52691174e+000, 1.57225275e+001,
          1.17211227e+001, 3.00363407e+001, 1.35494461e+001,
          4.14213568e-001, 0., 0., 0., 1.03725834e+001, 7.04163074e+000,
          5.85786462e-001, 0., 7.51094151e+000, 3.18910789e+001,
          1.69827557e+001, 1.76152229e+001, 0., 3.53199539e+001,
          1.46089783e+001, 2.89949489e+000, 7.16891670e+000,
          1.20026560e+001, 0., 0., 0., 0., 0., 0., 8.02943707e+000,
          6.62741709e+000, 2.34314585e+000, 0., 5.22407770e-001,
          1.75364666e+001, 1.78111839e+001, 1.31299419e+001, 0.,
          3.52149429e+001, 2.81576385e+001, 1.15979795e+001,
          2.38289375e+001, 3.72005005e+001, 1.68623466e+001,
          8.13765335e+000, 0., 1.03518095e+001, 2.16481915e+001, 0.,
          5.85786438e+000, 4.55634928e+000, 5.85786462e-001, 0., 0.,
          6.85786438e+000, 1.53259020e+001, 2.53572044e+001,
          1.45902908e+000, 2.61203885e-001, 4.66772842e+000,
          6.62741709e+000, 3.67768364e+001, 7.66668167e+001, 0., 0., 0.,
          1.23176658e+000, 1.76823342e+000 ]
      - [ 0., 1., 1.64852810e+001, 8.51471901e+000, 0., 0., 0., 0., 0.,
          1.29289322e+001, 2.83137093e+001, 1.45147190e+001,
          1.12426405e+001, 1.58578646e+000, 6., 2.58578634e+000, 0.,
          1.65857868e+001, 4.96568527e+001, 2.75147190e+001,
          1.62426414e+001, 6.17157269e+000, 1.41421354e+000, 1., 0.,
          2.43431454e+001, 4.70710678e+001, 3.51715736e+001, 18., 1., 2.,
          3., 0., 1.58578646e+000, 8.07106781e+000, 1.11005049e+001,
          4.24264050e+000, 1., 0., 0., 0., 4., 2.38284264e+001,
          1.41715727e+001, 18., 4., 10., 2., 0., 8.58578682e+000, 23.,
          6., 5., 2., 3.37464867e+001, 3.18393021e+001, 0.,
          1.55850382e+001, 11., 4., 7., 2., 1.49592228e+001,
          6.19657021e+001, 4.14213568e-001, 6.17157269e+000,
          1.32426405e+001, 3.92893219e+000, 4.24264050e+000, 2., 0., 0.,
          0., 2.58578634e+000, 6.41421366e+000, 8.17157269e+000,
          1.86568546e+001, 1.01715727e+001, 1.18284273e+001,
          5.17157269e+000, 0., 0., 1.41421354e+000, 1.46862917e+001,
          3.68249779e+001, 3.29936752e+001, 3.65618324e+001,
          2.71628361e+001, 0., 4.25455475e+000, 1.65080490e+001,
          2.30250378e+001, 5.61395645e+001, 4.21785431e+001,
          1.05517998e+001, 1.44300871e+001, 0., 1., 1.12426405e+001,
          1.19289322e+001, 1.82842708e+000, 0., 0., 0., 0., 2.,
          2.78994942e+001, 3.14436512e+001, 1.74852810e+001,
          2.17157292e+000, 0., 0., 0., 2.75147190e+001, 5.43137093e+001,
          1.29289322e+001, 1.53137083e+001, 1.35147190e+001, 3., 1., 0.,
          5.05897865e+001, 3.86928329e+001, 2.01901360e+001,
          2.32426414e+001, 2.58578634e+000, 2., 3.40391040e-001, 0., 0.,
          1.32426405e+001, 1.33431454e+001, 2.41421366e+000, 0., 0., 0.,
          0., 1.58578646e+000, 4.54744072e+001, 3.76971664e+001,
          4.24264050e+000, 0., 0., 0., 0., 7.50527191e+001,
          5.29373894e+001, 1.24264073e+000, 1., 0., 1., 7.38796115e-001,
          0., 1.03931856e+001, 5.66213310e-001, 0., 0., 0., 0., 0., 0.,
          0., 1.78284264e+001, 9.17157269e+000, 2., 0., 0., 0., 0.,
          7.58578634e+000, 4.41421356e+001, 3.24436493e+001,
          2.82842708e+000, 0., 0., 0., 0., 4.00468559e+001,
          4.35005455e+001, 7.89331484e+000, 7.91805792e+000,
          7.34314585e+000, 6.75417423e-001, 7.38796115e-001, 0., 0., 0.,
          0., 0., 0., 0., 0., 0., 0., 1.16754179e+001, 7.91036892e+000,
          7.41421366e+000, 0., 1., 0., 0., 1.01715727e+001,
          4.33137093e+001, 3.10108738e+001, 4.08963108e+000, 0., 0., 0.,
          0., 4.22390137e+001, 8.07725601e+001, 1.73011875e+001,
          5.67541742e+000, 3.67829370e+000, 2.06050229e+000, 0., 0.,
          5.51702347e+001, 3.88102951e+001, 1.73879611e+000,
          3.41421366e+000, 2.17157292e+000, 1.41421354e+000,
          1.15857868e+001, 0., 1., 1.45080500e+001, 3.07773662e+000,
          3.41421366e+000, 0., 2., 0., 0., 2.92720776e+001,
          3.83137093e+001, 9.58578682e+000, 2., 0., 0., 0., 0.,
          3.96152229e+001, 6.05496788e+001, 2.11596775e+001,
          4.67541742e+000, 0., 0., 0., 0., 5.76862907e+001,
          5.48994942e+001, 1.37573595e+001, 16., 1., 6., 4.,
          2.61203885e-001, 2.03540192e+001, 5.38477612e+000, 0., 0.,
          2.61203885e-001, 3.93418274e+001, 2.19533195e+001,
          6.44365072e+000, 0., 0., 6.14487000e+001, 3.68650055e+001,
          5.68629169e+000, 0., 0., 6.68212814e+001, 4.26639977e+001,
          3.51471853e+000, 0., 0., 1.66152229e+001, 5.79898977e+000,
          5.85786462e-001, 0., 0., 2.70883121e+001, 2.15391045e+001,
          9.37258339e+000, 0., 0., 2.26740990e+001, 3.72792206e+001,
          4.71100616e+001, 9.36621308e-001, 1.94062448e+000,
          1.96329689e+001, 3.31370850e+001, 6.38222389e+001,
          1.24670839e+001, 5.22407770e-001, 1.86786022e+001,
          6.62741709e+000, 1.17157292e+000, 0., 0., 1.09583693e+001,
          1.73969688e+001, 1.76446609e+001, 0., 0., 1.27867966e+001,
          2.07106781e+001, 6.31239319e+001, 3.03785934e+001,
          5.17926216e+000, 4.05364685e+001, 1.73969688e+001,
          5.46015816e+001, 4.12857208e+001, 0., 1.71299419e+001,
          7.87005758e+000, 0., 0., 0., 4.31177483e+001, 2.11248913e+001,
          1.75735927e+000, 0., 2.61203885e-001, 6.89864883e+001,
          3.56223679e+001, 1.21299419e+001, 0., 3.35396919e+001,
          7.60217056e+001, 2.73380947e+001, 5.10050488e+000, 0., 0.,
          1.83015156e+001, 8.69848442e+000, 0., 0., 5.22407770e-001,
          6.43526993e+001, 2.11248913e+001, 0., 0., 4.93836937e+001,
          8.22609711e+001, 1.07695522e+001, 1.58578646e+000, 0.,
          9.49046707e+000, 7.09531927e+000, 4.14213568e-001, 0., 0., 0.,
          1.91299419e+001, 7.87005758e+000, 0., 0., 1.30601943e+000,
          6.42259445e+001, 1.94680367e+001, 0., 0., 5.34358902e+001,
          3.76646156e+001, 5.38477612e+000, 6.57809734e+000,
          9.36621308e-001, 0., 0., 0., 0., 0., 5.22407770e-001,
          1.49212427e+001, 4.97056293e+000, 5.85786462e-001, 0.,
          2.35083485e+000, 6.58379822e+001, 1.78111839e+001, 0., 0.,
          1.31926899e+001, 1.05197136e+002, 2.36101723e+001,
          4.39565039e+000, 1.60434961e+000, 3.43518257e+001,
          4.80796318e+001, 2.15391045e+001, 1.10294371e+001, 0.,
          9.36621308e-001, 1.39212427e+001, 4.97056293e+000,
          1.17157292e+000, 0., 1.30601943e+000, 5.63975143e+001,
          2.02964649e+001, 0., 0., 1.72023296e+000, 9.16990280e+001,
          2.85807362e+001, 0., 0., 1.56722319e+000, 8.54256363e+001,
          4.55634918e+001, 6.44365072e+000, 0., 0., 1.75735927e+000,
          6.21320343e+000, 7.02943707e+000, 0., 0., 1.60588741e+001,
          1.90538235e+001, 1.98873024e+001, 0., 0., 1.54730883e+001,
          2.94091625e+001, 3.21177483e+001, 0., 0., 2.62598839e+001,
          3.85218620e+001, 3.22182541e+001, 0., 0., 1.17157292e+000,
          6.21320343e+000, 1.26152239e+001, 0., 0., 5.27207804e+000,
          1.78111839e+001, 2.29167385e+001, 0., 5.22407770e-001,
          4.10095558e+001, 2.48528137e+001, 7.61522388e+000, 0.,
          2.25817680e+001, 9.19796295e+001, 2.98233757e+001,
          7.61522388e+000, 0., 0., 5.10050488e+000, 6.21320343e+000,
          7.68629169e+000, 0., 0., 1.11299419e+001, 1.98822517e+001,
          2.49878063e+001, 0., 1.21097116e+001, 2.23339386e+001,
          1.82253971e+001, 6.52436600e+001, 1.40872946e+001,
          2.23689766e+001, 1.56604605e+001, 1.44974747e+001,
          6.43158646e+001, 5.11572227e+001, 0., 5.85786462e-001,
          5.79898977e+000, 9.61522388e+000, 0., 0., 1.17157292e+000,
          1.82253971e+001, 3.66030312e+001, 0., 5.22407770e-001,
          2.33943310e+001, 2.81665230e+001, 2.89167385e+001, 0.,
          4.69581528e+001, 3.64438667e+001, 2.89949493e+001,
          3.03418274e+001, 2.61203885e-001, 0., 0., 6.21320343e+000,
          1.07867966e+001, 0., 0., 1.17157292e+000, 1.78111839e+001,
          3.10172443e+001, 0., 4.50460625e+001, 4.87285385e+001,
          1.98822517e+001, 2.34314585e+000, 0., 1.58005743e+001,
          6.19942522e+000, 0., 0., 0., 0., 0., 4.55634928e+000,
          7.44365072e+000, 0., 0., 5.10050488e+000, 1.90538235e+001,
          2.68456707e+001, 0., 3.78643456e+001, 2.56503735e+001,
          6.62741709e+000, 2.21453209e+001, 1.71254385e+000, 0., 0., 0.,
          0., 0., 0., 0., 6.21320343e+000, 1.07867966e+001, 0., 0.,
          8.61522388e+000, 1.82253971e+001, 2.78981762e+001,
          2.61203885e-001, 7.36832523e+000, 3.34062767e+001,
          2.85807362e+001, 2.36075344e+001, 1.03712642e+000,
          2.64708691e+001, 7.01615982e+001, 2.44386005e+001,
          5.25351477e+000, 6.75417423e-001, 0., 4.10050488e+000,
          5.79898977e+000, 5.10050488e+000, 0., 0., 2.48162346e+001,
          1.65685425e+001, 7.61522388e+000, 0., 0., 3.08751087e+001,
          3.18944435e+001, 1.99692440e+001, 2.61203885e-001, 0.,
          6.16202736e+001, 4.76345596e+001, 1.87451668e+001, 0. ]
      - [ 2.54035187e+000, 1.61000264e+000, 7.21988678e+000,
          7.67342186e+000, 5.21531248e+000, 3.85467434e+000,
          2.54521418e+000, 2.34113550e+000, 0., 5.92812729e+000,
          1.23625288e+001, 1.22274628e+001, 1.13956499e+001,
          1.33431454e+001, 1.89387856e+001, 1.18108978e+001, 0.,
          4.07220078e+000, 7.16532135e+000, 4.95120506e+001,
          6.31562157e+001, 1.79532108e+001, 8.24264050e+000,
          1.19739974e+000, 0., 0., 2.69690782e-001, 6.30551291e+000,
          4.43716927e+001, 2.02083454e+001, 7.84475851e+000, 0., 0., 0.,
          3.17100883e+000, 1.20257702e+001, 7.21058893e+000,
          4.02584314e+000, 3.26728845e+000, 2.99500585e-001, 0.,
          5.09439421e+000, 3.74526644e+000, 1.39168549e+001,
          2.95981197e+001, 1.62254906e+001, 1.11784706e+001,
          4.90844440e+000, 0., 2.16223545e+001, 2.92544441e+001,
          3.03852596e+001, 3.71058693e+001, 1.45471067e+001,
          6.93662119e+000, 7.49587202e+000, 0., 6.49893713e+000,
          1.07138767e+001, 4.04447556e+001, 8.93015518e+001,
          4.05197296e+001, 1.64722195e+001, 4.61000013e+000, 0.,
          6.43686819e+000, 1.59512053e+001, 4.19771290e+000, 1.,
          5.85786462e-001, 1., 4.14213568e-001, 0., 1.50512590e+001,
          3.72099457e+001, 1.52349520e+001, 8.76925373e+000,
          9.06163692e-001, 6., 2.75735927e+000, 0., 2.21787853e+001,
          2.62020302e+001, 2.10633793e+001, 2.03508358e+001,
          1.44775925e+001, 1.25038443e+001, 1.09386101e+001, 0.,
          1.92355156e+001, 3.19300880e+001, 1.08721094e+001,
          2.33590927e+001, 1.41104879e+001, 1.69668827e+001,
          1.91414070e+001, 0., 3.35072231e+000, 8.27559090e+000,
          4.45142317e+000, 4.24264050e+000, 4.17157269e+000,
          3.41421366e+000, 0., 0., 1.99226189e+001, 1.51908474e+001,
          1.94361782e+000, 1., 8.50785923e+000, 2.27106953e+001,
          8.92832947e+000, 0., 1.46529350e+001, 9.05529499e+000, 0., 0.,
          0., 7.55765629e+000, 1.29987011e+001, 0., 0., 0., 0., 0., 0.,
          0., 0., 0., 1.08963096e+000, 5.32458258e+000, 2.75069046e+000,
          5.32068443e+000, 9.58948421e+000, 7.23912048e+000,
          6.85806513e-001, 0., 7.29229307e+000, 1.65608940e+001,
          2.32505741e+001, 7.38856888e+000, 3.27556181e+000,
          7.86471987e+000, 1.73076134e+001, 0., 1.67147541e+001,
          1.07422419e+001, 7.84633112e+000, 5.13224602e+000, 0.,
          1.82659471e+000, 2.26220264e+001, 0., 0., 0., 0., 0., 0., 0.,
          0., 0., 2.26120377e+000, 1.15550957e+001, 4.18370008e+000,
          1.41421354e+000, 2.87840056e+000, 5.38700867e+000,
          1.32037723e+000, 0., 6.92893219e+000, 1.84303131e+001,
          7.71182251e+000, 1.57467937e+001, 1.23537111e+001,
          1.00233765e+001, 5.38663244e+000, 0., 1.94644871e+001,
          3.51660461e+001, 3.38900681e+001, 1.93761482e+001,
          8.23843575e+000, 5.58578634e+000, 9.86772442e+000, 0.,
          2.44127522e+001, 2.55322418e+001, 1.35101223e+001,
          8.05261898e+000, 6.05557537e+000, 3.92893219e+000,
          2.06459308e+000, 0., 5.22407770e-001, 5.39737940e+000,
          6.12093544e+000, 6.56722307e+000, 3.95720053e+000,
          8.19573212e+000, 2.39121154e-001, 0., 3.94071412e+000,
          1.60057831e+001, 2.52188129e+001, 2.58650341e+001,
          7.75735950e+000, 2.73459077e+000, 6.26181126e+000, 0.,
          5.00790358e+000, 1.88239613e+001, 5.91094894e+001,
          4.21943359e+001, 6.99660444e+000, 8.01039982e+000,
          3.91227007e+000, 0., 2.20481202e-001, 1.79068432e+001,
          3.55846443e+001, 2.08576393e+001, 1.43039107e+000, 2., 0.,
          1.01917064e+000, 0., 3.17747736e+000, 6.73289156e+000,
          2.93662143e+000, 2.81100821e+000, 7.67427301e+000,
          5.64855766e+000, 0., 1.32458258e+000, 1.06737118e+001,
          2.19083214e+001, 2.89402218e+001, 1.77389488e+001,
          5.58930588e+000, 2.82490754e+000, 0., 0., 5.02152729e+000,
          4.22605896e+001, 3.71134872e+001, 6.26452875e+000,
          1.33986664e+000, 0., 0., 0., 0., 0., 0., 0., 0., 0.,
          7.63786411e+000, 9.94792271e+000, 1.24264073e+000,
          7.38092995e+000, 5.79064322e+000, 5.37021160e+000,
          2.39018669e+001, 9.52691174e+000, 3.47917023e+001,
          1.04093065e+001, 4.09450455e+001, 4.91848984e+001,
          1.40832615e+001, 3.06709137e+001, 3.11588335e+000,
          9.80020809e+000, 4.78557825e+000, 1.65685427e+000,
          9.89832211e+000, 3.28590355e+001, 5.00318480e+000,
          1.27541742e+001, 1.65685427e+000, 2.30729365e+000,
          6.27849293e+000, 1.38741989e+001, 2.43268108e+001,
          6.62741709e+000, 1.23614559e+001, 2.88101177e+001,
          4.06395912e+001, 5.53187752e+001, 1.36690474e+001,
          2.72934189e+001, 4.07916355e+000, 2.63843021e+001,
          5.55324364e+001, 2.27817459e+001, 3.64781456e+001,
          4.18233681e+001, 8.99908733e+000, 1.73440590e+001,
          2.48528147e+000, 2.17157292e+000, 0., 9.16388416e+000,
          5.23802719e+001, 1.24264069e+001, 7.02943707e+000, 0.,
          6.32396269e+000, 5.64506416e+001, 3.02375908e+001,
          2.97706318e+001, 4.21717501e+000, 3.03489513e+001,
          4.06388550e+001, 2.11248913e+001, 3.78431816e+001,
          2.90441208e+001, 6.46262074e+000, 1.02947388e+001,
          2.07106781e+000, 6.64916515e+000, 5.22407770e-001,
          2.91038990e+001, 1.64818859e+001, 1.24264073e+000,
          1.43785782e+001, 2.77929935e+001, 2.40737953e+001,
          1.32693501e+001, 1.65685427e+000, 6.30152035e+000,
          2.76984806e+001, 0., 0., 0., 0., 0., 2.40652442e+000,
          7.59347534e+000, 8.28427136e-001, 1.18101053e+001,
          7.36146784e+000, 1.74142303e+001, 3.62720604e+001,
          4.97056293e+000, 2.34295921e+001, 7.91355371e+000,
          3.79063950e+001, 1.30225382e+001, 4.14213562e+000,
          1.13781166e+001, 3.15508156e+001, 0., 0., 0., 0., 0.,
          6.86636734e+000, 1.07194195e+001, 8.28427136e-001,
          5.23139620e+000, 4.35439014e+000, 5.25032997e+000,
          2.76075344e+001, 1.07695522e+001, 2.37682343e+001,
          1.60434961e+000, 4.04738808e+001, 5.86560631e+001,
          1.57401152e+001, 2.53523102e+001, 4.77763224e+000,
          5.88539619e+001, 1.79033966e+001, 3.72792196e+000,
          1.37665882e+001, 3.74813056e+000, 5.90103674e+000,
          6.27053642e+000, 1.65685427e+000, 7.72080612e+000,
          5.45076656e+000, 1.03215055e+001, 4.05657959e+001,
          1.15979795e+001, 1.49628735e+001, 2.55184507e+000,
          6.17786903e+001, 4.94933891e+001, 5.38477612e+000,
          1.40288353e+001, 7.31431055e+000, 5.09331779e+001,
          1.26526079e+001, 2.48528147e+000, 4.70444775e+000,
          1.22448432e+000, 4.40938520e+000, 6.17640114e+000,
          1.24264073e+000, 1.07707329e+001, 6.40084028e+000,
          9.15635777e+000, 3.34588661e+001, 9.11269855e+000,
          2.48140335e+001, 6.45804453e+000, 5.50748291e+001,
          1.15109558e+001, 4.14213568e-001, 3.30395746e+000,
          1.06960430e+001, 0., 0., 0., 0., 0., 3.80446792e+000,
          3.36710501e+000, 2.89949489e+000, 1.41447344e+001,
          7.78419781e+000, 6.77773046e+000, 2.18374939e+001,
          1.24264069e+001, 3.31190681e+001, 3.83930111e+000,
          1.79672384e+000, 5.13220835e+000, 5.38477612e+000,
          5.93472023e+001, 7.23390884e+001, 0., 0., 4.14213568e-001,
          9.46651363e+000, 6.71192703e+001, 7.95462847e-001,
          2.04537153e-001, 1.65685427e+000, 1.57727842e+001,
          1.15703611e+001, 1.92445793e+001, 4.75542021e+000,
          2.89949489e+000, 2.36590538e+001, 4.24414520e+001,
          2.34462624e+001, 1.89973869e+001, 9.11269855e+000,
          5.22108002e+001, 3.62328491e+001, 5.75590181e+000,
          1.37588167e+001, 9.94112587e+000, 7.37576218e+001,
          1.05786537e+002, 1.08963096e+000, 1.15966606e+001,
          4.97056293e+000, 6.66772842e+000, 6.75417423e-001,
          7.83611596e-001, 2.71036892e+001, 1.65685425e+001,
          2.16075344e+001, 9.36621308e-001, 1.27621622e+001,
          3.98114319e+001, 2.48528137e+001, 4.54839630e+001,
          2.08963108e+000, 6.03865662e+001, 3.79149475e+001,
          1.69827557e+001, 2.98651848e+001, 1.88505440e+001,
          1.35504019e+000, 5.23074627e+000, 3.31370854e+000,
          1.35966606e+001, 1.50384462e+000, 3.58489952e+001,
          1.85946560e+001, 7.04163074e+000, 1.26936817e+001,
          9.82103729e+000, 7.15786057e+001, 1.15929699e+001,
          8.28427136e-001, 0., 0., 1.60922074e+000, 3.90779287e-001, 0.,
          0., 0., 0., 3.51471853e+000, 3.72792196e+000, 1.22394562e+001,
          6.51790333e+000, 1.87941818e+001, 2.25489635e+001,
          6.62741709e+000, 3.34545250e+001, 4.57491255e+000,
          8.50206528e+001, 1.29793501e+001, 4.14213568e-001,
          7.54070234e+000, 8.04508400e+000, 0., 0., 0., 0., 0., 0.,
          6.34314585e+000, 3.72792196e+000, 1.13245821e+001,
          1.60434961e+000, 1.86555350e+000, 1.47496700e+001,
          1.20121937e+001, 2.70819416e+001, 5.29064131e+000,
          3.80700340e+001, 2.33736172e+001, 1.24264069e+001,
          5.36275826e+001, 1.35023584e+001, 5.52256203e+001,
          6.36016750e+000, 1.24264073e+000, 2.25032005e+001,
          1.26683731e+001, 0., 2.75735927e+000, 4.14213562e+000,
          1.27751093e+001, 6.32539606e+000, 4.80258179e+000,
          1.35405645e+001, 5.38477612e+000, 4.46504097e+001,
          1.56216698e+001, 2.80986404e+000, 1.64622135e+001,
          6.62741709e+000, 4.05230522e+001, 7.65774536e+001, 0.,
          5.85786462e-001, 2.89949489e+000, 1.49941740e+001,
          5.35205460e+001, 2.02625227e+000, 6.97374773e+000,
          1.65685427e+000, 1.29660587e+001, 3.37708712e+000, 1.,
          6.34314585e+000, 6.21320343e+000, 4.22353096e+001,
          2.82083397e+001, 0., 0., 4.14213568e-001, 1.19645662e+001,
          7.86212234e+001, 0., 0., 0., 0., 0. ]
      - [ 1.35504019e+000, 9.06163692e-001, 1.42506380e+001,
          1.14839525e+001, 2.85119557e+000, 4.14213568e-001, 0.,
          7.38796115e-001, 0., 3.48491454e+000, 9.81751442e+000,
          1.24258623e+001, 1.67213669e+001, 1.66612377e+001,
          2.15841637e+001, 1.18168612e+001, 7.49373138e-001,
          5.31246853e+000, 1.80764999e+001, 3.56911774e+001,
          4.00296364e+001, 6.72814131e+000, 2.67390680e+000,
          1.73879611e+000, 0., 0., 0., 4.75479364e+000, 2.49657211e+001,
          5.27948523e+000, 0., 0., 2.61203885e-001, 4.82842731e+000,
          3.91036892e+000, 3.39917397e+000, 2.94426942e+000,
          5.54145575e+000, 6.90195513e+000, 2.21314526e+000,
          1.57611589e+001, 1.34487000e+001, 1.94873524e+001,
          9.95084286e+000, 4.92982721e+000, 7.73741055e+000,
          4.11282396e+000, 1.75718822e+001, 0., 2.24273682e+001,
          3.09111843e+001, 1.41629658e+001, 1.40796909e+001,
          1.38253574e+001, 2.97480354e+001, 1.92734241e+001, 0.,
          6.73479319e+000, 1.10242796e+001, 8.71890831e+000,
          3.27503471e+001, 5.69284554e+001, 5.10241089e+001,
          1.35400724e+001, 0., 1.04374638e+001, 1.92254579e+000, 0.,
          8.46990287e-001, 1.15300965e+000, 2.96669126e+000,
          6.48752499e+000, 0., 7.78573465e+000, 1.52240777e+000, 1.,
          7.97326994e+000, 2.61951332e+001, 2.40952473e+001,
          1.62391243e+001, 0., 1.48165598e+001, 7.90816498e+000,
          2.25844574e+001, 3.83718605e+001, 1.75745220e+001,
          1.68165283e+001, 1.31279240e+001, 0., 2.22961159e+001,
          1.71955528e+001, 2.70370140e+001, 3.13054924e+001,
          1.91763878e+001, 1.18921213e+001, 2.98688145e+001, 0.,
          1.32332153e+001, 4.45615292e+000, 0., 0., 0., 0.,
          7.34590828e-001, 0., 2.43180618e+001, 1.59671793e+001,
          8.41122437e+000, 6.24264050e+000, 2.17157292e+000,
          3.41421366e+000, 7.13314533e+000, 0., 1.65440617e+001, 1., 0.,
          1.90743566e-001, 8.64885807e+000, 1.32842979e+001,
          7.61232424e+000, 0., 5.70741832e-001, 0., 0., 0., 0., 0.,
          7.79164195e-001, 0., 1.18825054e+001, 8.19575691e+000,
          2.38784885e+000, 0., 0., 0., 2.32037735e+000, 0.,
          2.14899960e+001, 9.26222420e+000, 3.75796676e+000,
          3.26120377e+000, 5.85786462e-001, 2.92533445e+000,
          9.88437748e+000, 0., 0., 0., 0., 0., 0., 0., 0., 0., 0., 0.,
          0., 0., 0., 0., 0., 0., 7.14399147e+000, 3., 1.26540923e+000,
          4.14213568e-001, 1.58578646e+000, 1.67541742e+000,
          6.63334751e+000, 0., 3.67335930e+001, 2.43163204e+001,
          6.70370245e+000, 2.20203042e+000, 2.32037735e+000,
          5.85786462e-001, 2.70947480e+000, 0., 6.13711452e+000,
          2.86662412e+000, 0., 0., 0., 0., 0., 0., 0., 0., 0., 0., 0.,
          0., 0., 0., 6.19292450e+000, 8.19083118e+000, 4.24692917e+000,
          5.01427460e+000, 4.14213568e-001, 4.14213568e-001,
          2.91036892e+000, 0., 5.88070154e+000, 1.64267559e+001,
          3.20222092e+001, 1.59893513e+001, 1.00737724e+001,
          1.98675895e+000, 3.41421366e+000, 3.52951258e-001,
          1.12454529e+001, 2.37564011e+001, 1.42101707e+001,
          1.50361414e+001, 3.98882657e-001, 0., 0., 0., 0., 0., 0., 0.,
          0., 0., 0., 0., 7.70025444e+000, 4.55326033e+000,
          5.15300989e+000, 1.67541742e+000, 5.85786462e-001,
          3.82842708e+000, 2.49195004e+000, 1.42088234e+000,
          5.44316578e+000, 2.67020321e+001, 3.16689892e+001,
          1.84512234e+001, 4.14213568e-001, 1.61624408e+000,
          5.28325081e+000, 0., 0., 0., 2.36328244e+000, 6.63671780e+000,
          0., 0., 0., 0., 0., 0., 0., 0., 0., 0., 0., 6.18244696e+000,
          2.07464848e+001, 2.07106781e+000, 2., 0., 1.55320988e+001,
          1.73968334e+001, 3.72792196e+000, 2.68636951e+001,
          2.94794502e+001, 5.20019073e+001, 2.91696644e+001,
          2.07106781e+000, 8.98976994e+000, 5.76759005e+000,
          8.34985161e+000, 5.65014839e+000, 4.14213568e-001,
          2.29064465e+000, 8.29514217e+000, 2.90267992e+000,
          9.02625275e+000, 2.07106781e+000, 4.35010767e+000,
          1.16498919e+001, 2.63164959e+001, 2.14408627e+001,
          2.89949489e+000, 2.51871223e+001, 1.61560249e+001,
          2.22412643e+001, 4.61313171e+001, 1.07695522e+001,
          4.07470703e+001, 2.51107960e+001, 1.14276743e+001,
          1.98444042e+001, 4.97056293e+000, 3.70961761e+001,
          9.86611862e+001, 3.73110700e+000, 9.44046593e+000,
          3.31370854e+000, 7.63297319e+000, 2.88174534e+000,
          2.14532065e+000, 1.03693981e+001, 4.97056293e+000,
          3.77104416e+001, 3.58042755e+001, 6.53277254e+000,
          4.09697533e+001, 2.60954552e+001, 4.18476372e+001,
          8.55438519e+000, 8.38270092e+000, 5.84335327e+001,
          2.19533195e+001, 4.31476974e+001, 3.90827522e+001,
          2.91805816e+000, 1.84250870e+001, 2.48528147e+000,
          1.17157292e+000, 0., 1.74554443e+001, 3.42602844e+001,
          1.15979795e+001, 1.09955759e+001, 6.69071531e+000,
          2.54291859e+001, 9.67131996e+000, 7.04163074e+000,
          1.90737705e+001, 9.78409386e+000, 1.48767400e+000,
          5.12326002e-001, 4.14213568e-001, 1.98110855e+000,
          2.60467792e+000, 4.05568933e+000, 1.84590282e+001,
          3.72792196e+000, 2.75735927e+000, 0., 3.33836212e+001,
          1.53026695e+001, 4.14213562e+000, 1.18754778e+001,
          7.29609537e+000, 0., 0., 0., 0., 0., 0., 0., 0., 0., 0.,
          2.38027215e+000, 9.89180565e+000, 5.38477612e+000,
          7.80217505e+000, 2.54097104e+000, 4.76317596e+001,
          2.67113876e+001, 2.48528147e+000, 6.17157269e+000, 1.,
          9.25381184e+000, 1.74618816e+000, 0., 0., 0., 0., 0., 0., 0.,
          0., 6.29104805e+000, 1.32236710e+001, 3.72792196e+000,
          3.75735927e+000, 0., 2.80919876e+001, 3.15943050e+001,
          5.38477612e+000, 7.34962463e+000, 1.05793076e+001,
          4.38214798e+001, 1.19358797e+001, 1.65685427e+000,
          1.07106781e+000, 5.14718652e-001, 0., 0., 0., 0., 0.,
          3.72063971e+000, 1.50367193e+001, 2.07106781e+000,
          7.17157269e+000, 0., 5.70098953e+001, 2.15758896e+001,
          1.24264073e+000, 6.55953407e+000, 1.61203873e+000,
          3.13140774e+000, 8.68592262e-001, 0., 0., 0., 0., 0., 0., 0.,
          0., 6.75417423e-001, 2.32458258e+000, 2.07106781e+000,
          1.71453209e+001, 1.78361166e+000, 8.68134689e+000,
          1.78333721e+001, 5.38477612e+000, 2.74499950e+001,
          2.96505108e+001, 2.90198803e+000, 8.78430367e+000,
          4.55634928e+000, 2.72035255e+001, 6.15538330e+001, 0., 0., 0.,
          4.47483683e+000, 3.05251637e+001, 2.42479372e+000,
          8.67571163e+000, 4.55634928e+000, 4.90710068e+000,
          7.43604517e+000, 2.77323399e+001, 2.35397377e+001,
          6.62741709e+000, 1.39060001e+001, 1.41945047e+001,
          1.63728218e+001, 4.91713333e+001, 1.65685425e+001,
          4.59656525e+001, 6.92164993e+000, 1.05032969e+001,
          3.31119270e+001, 8.69848442e+000, 3.44160309e+001,
          8.32702637e+001, 6.59666061e+000, 1.81606979e+001,
          1.24264073e+000, 1.15300965e+000, 8.46990287e-001,
          1.67905293e+001, 2.69668312e+001, 3.31370854e+000,
          3.26181908e+001, 1.33107395e+001, 2.12722130e+001,
          3.13430099e+001, 1.73969688e+001, 6.37746048e+001,
          1.02132034e+001, 5.71557159e+001, 4.16310806e+001,
          1.53259020e+001, 6.50434952e+001, 8.84380531e+000,
          7.03086424e+000, 1.94838543e+001, 2.48528147e+000, 0., 0.,
          2.83914661e+001, 2.62237587e+001, 9.94112587e+000,
          1.51824465e+001, 2.61203885e-001, 4.98069763e+001,
          1.07077417e+001, 4.97056293e+000, 9.73110676e+000,
          1.78361166e+000, 1.26531811e+001, 1.34681845e+000, 0., 0., 0.,
          4.04481554e+000, 1.52272625e+001, 5.79898977e+000,
          2.92893219e+000, 0., 5.43602982e+001, 1.43970623e+001,
          3.72792196e+000, 6.99231100e+000, 5.22407770e-001, 0., 0., 0.,
          0., 0., 0., 0., 0., 0., 0., 6.75776625e+000, 1.49995928e+001,
          2.07106781e+000, 2.91036892e+000, 2.61203885e-001,
          4.38326912e+001, 2.00962429e+001, 3.72792196e+000,
          1.11158829e+001, 2.22726250e+000, 9.40414906e+000,
          1.59585130e+000, 0., 0., 0., 0., 0., 0., 0., 0.,
          2.70166969e+000, 1.26414757e+001, 2.89949489e+000,
          7.14839745e+000, 2.60896182e+000, 4.45101595e+000,
          1.30637026e+001, 5.79898977e+000, 3.02910328e+001,
          3.43952599e+001, 1.12605534e+001, 4.32523346e+000,
          8.28427136e-001, 8.72980213e+000, 2.98559837e+001, 0., 0., 0.,
          0., 0., 3.51194048e+000, 1.18312054e+001, 4.14213562e+000,
          6.25351477e+000, 2.61203885e-001, 2.64147592e+000,
          1.34590292e+001, 4.55634928e+000, 1.97852879e+001,
          4.35578575e+001, 0., 0., 0., 1.92105269e+000, 7.07894754e+000,
          0., 0., 0., 0., 0. ]
      - [ 0., 5.79376411e+000, 9.88585854e+000, 5.49195004e+000,
          5.24264050e+000, 0., 0., 0., 0., 5.73879623e+000,
          1.01200886e+001, 1.41016197e+001, 2.66691589e+001,
          1.53703365e+001, 5.78361177e+000, 4.21638823e+000, 0., 0., 0.,
          3.46177369e-001, 4.26316757e+001, 1.30221481e+001, 0., 0., 0.,
          0., 0., 0., 0., 0., 0., 0., 0., 1.58578646e+000,
          9.65685463e+000, 2.92893219e+000, 2.82842708e+000, 0., 2.,
          2.58578634e+000, 0., 1.33431454e+001, 8.24264050e+000,
          1.04919500e+001, 1.53550406e+001, 1.16677284e+001,
          9.24264050e+000, 2.58578634e+000, 0., 3., 6.98685789e+000,
          8.40850735e+000, 4.11583138e+001, 5.40287971e+001,
          1.74175224e+001, 2., 0., 0., 4.14213568e-001, 8.54378605e+000,
          4.52371292e+001, 3.96087456e+001, 1.21961269e+001, 0., 0., 0.,
          7.41421366e+000, 4.17157269e+000, 1.34142132e+001, 1., 2., 2.,
          0., 4.22048140e+000, 7.24264050e+000, 2.97573586e+001, 26., 5.,
          9., 1.24323380e+000, 0., 1.33468513e+001, 1.41421354e+000,
          7.75735950e+000, 2.14852810e+001, 1.35147190e+001,
          1.79924355e+001, 1.84507790e+001, 0., 2.04469948e+001,
          1.22426405e+001, 2.17157292e+000, 2.11606979e+001,
          1.55966606e+001, 1.58994951e+001, 1.78719978e+001, 0., 0.,
          3.24264073e+000, 1.10294371e+001, 1.31421356e+001,
          1.58578646e+000, 0., 0., 0., 3.03082800e+000, 4.41421366e+000,
          6.17157269e+000, 9.82842731e+000, 4.58578634e+000, 1.,
          7.68761873e+000, 0., 0., 0., 0., 0., 0., 0., 6.44999087e-001,
          0., 0., 0., 0., 0., 0., 0., 0., 0., 0., 1.90743566e-001,
          6.35432005e+000, 1.17722425e+001, 8.85426617e+000,
          2.82842708e+000, 0., 0., 2.43709660e+001, 4.33730173e+000,
          5.85786462e-001, 1.41421354e+000, 2.58578634e+000, 3.,
          1.47730803e+000, 0., 0., 0., 0., 0., 0., 0., 0., 0., 0., 0.,
          0., 0., 0., 0., 0., 0., 0., 2.32037735e+000, 3.67962265e+000,
          2.65624666e+000, 7.03800726e+000, 1.43057461e+001, 0., 0.,
          2.38431988e+001, 7.84206343e+000, 2., 3., 1.58578646e+000,
          7.24264050e+000, 6.35861778e+000, 0., 2.95514755e+001,
          6.56903315e+000, 5.85786462e-001, 0., 0., 0., 0., 0., 1., 0.,
          0., 0., 0., 0., 0., 6.75417423e-001, 3.38375592e+000,
          5.29586697e+000, 1.32037723e+000, 0., 2.36646175e+000,
          1.59673119e+001, 2.99080896e+000, 0., 1.49477959e+001,
          1.63953495e+001, 7.10050488e+000, 8.01189423e+000,
          8.53675270e+000, 1.73322849e+001, 5.94749546e+000, 0.,
          2.61935978e+001, 1.91281223e+001, 1.74718800e+001,
          1.96830769e+001, 9.20757484e+000, 1.88360157e+001,
          1.94607162e+001, 0., 2.38052559e+001, 5.52865486e+001,
          2.81868401e+001, 2.36399193e+001, 4.64560795e+000,
          2.94339919e+000, 1.11243606e+000, 0., 1.75735927e+000,
          5.82842731e+000, 2.41421366e+000, 5., 2.67962265e+000,
          3.34096456e+000, 6.33865786e+000, 0., 7.34807587e+000,
          9.29117489e+000, 6.99687862e+000, 1.19603453e+001,
          1.06441040e+001, 2.31174297e+001, 1.19755640e+001, 0.,
          1.35738916e+001, 1.24972887e+001, 1.58177948e+001,
          1.68453674e+001, 1.50019388e+001, 3.56232719e+001,
          1.57898588e+001, 6.75417423e-001, 1.68181121e+000,
          2.77843189e+001, 4.31013641e+001, 5.93044014e+001,
          1.60155373e+001, 8.28414059e+000, 1.15300965e+000,
          2.70166969e+000, 1.67419815e+001, 4.55634928e+000, 0., 0.,
          2.65685415e+000, 2.78873024e+001, 1.36690474e+001,
          2.27948437e+001, 3.99195337e+000, 0., 1.75735927e+000,
          1.65685427e+000, 9.34269428e+000, 2.62430916e+001, 0., 0., 0.,
          0., 0., 0., 1.21005049e+001, 4.97056293e+000, 2.92893219e+000,
          0., 0., 2.21593800e+001, 2.02964649e+001, 1.85441551e+001, 0.,
          2.88029599e+000, 1.19065008e+001, 2.02964649e+001,
          4.82837982e+001, 3.56329384e+001, 6.08705425e+000,
          7.67030525e+000, 5.79898977e+000, 3.08570766e+001,
          4.05865746e+001, 2.61203885e-001, 7.59666061e+000,
          6.62741709e+000, 3.51471853e+000, 0., 2.61203885e-001,
          3.32413216e+001, 1.94680367e+001, 1.05147190e+001,
          5.14718652e-001, 1.36885204e+001, 1.66840630e+001,
          2.19533195e+001, 3.13716068e+001, 1.63024902e+001,
          2.00132256e+001, 2.41167164e+001, 2.48528137e+001,
          4.12678986e+001, 1.74934614e+000, 0., 1.22010098e+001,
          6.62741709e+000, 1.17157292e+000, 0., 3.10884619e+000,
          1.90921631e+001, 1.11837664e+001, 1.28476696e+001,
          9.76755333e+000, 0., 0., 0., 8.74623656e-001, 2.12537646e+000,
          0., 0., 0., 0., 0., 9.36621308e-001, 6.57809734e+000,
          7.45584393e+000, 1.10294371e+001, 0., 3.27932320e+001,
          9.37834167e+000, 4.14213562e+000, 5.68629169e+000, 0., 0., 0.,
          0., 0., 0., 0., 0., 0., 0., 0., 1.29833031e+000,
          4.70166969e+000, 1.24264073e+000, 1.17714033e+001,
          9.98595619e+000, 2.58040104e+001, 2.24680672e+001,
          9.52691174e+000, 1.22010098e+001, 0., 3.53794403e+001,
          1.16205597e+001, 0., 0., 0., 5.85786462e-001, 4.14213568e-001,
          0., 0., 0., 2.28745627e+000, 7.29833031e+000, 8.28427136e-001,
          8.46464920e+000, 1.31211376e+001, 5.81664085e+000,
          2.76564465e+001, 1.07695522e+001, 2.34645691e+001,
          9.29278946e+000, 2.46401024e+001, 4.78329849e+001,
          1.78111839e+001, 3.78037415e+001, 1.29119873e+001,
          1.01287552e+002, 2.22982311e+001, 8.28427136e-001,
          4.83452129e+000, 6.75126505e+000, 5.22407770e-001,
          9.06337833e+000, 2.07106781e+000, 8.77273750e+000,
          3.57040811e+000, 8.18445015e+000, 1.89160557e+001,
          4.97056293e+000, 2.81156502e+001, 2.18132820e+001,
          1.04332666e+001, 3.31819572e+001, 1.32548342e+001,
          3.11891651e+001, 3.89407768e+001, 6.17678108e+001,
          3.27469063e+001, 4.14213562e+000, 1.49616585e+001,
          2.43814869e+001, 7.83611596e-001, 9.55953407e+000,
          5.38477612e+000, 8.27207756e+000, 0., 2.61203885e-001,
          1.65255928e+001, 1.24264069e+001, 3.84023056e+001,
          1.43844919e+001, 0., 0., 0., 5.70911551e+000, 5.02908859e+001,
          0., 0., 0., 0., 0., 0., 5.68629169e+000, 4.97056293e+000,
          5.34314585e+000, 0., 0., 1.93725834e+001, 1.69827557e+001,
          2.84468365e+001, 1.19782519e+000, 0., 5.10050488e+000,
          1.69827557e+001, 5.10286598e+001, 4.88880768e+001, 0., 0.,
          3.72792196e+000, 3.87122345e+001, 6.15598412e+001, 0.,
          1.75735927e+000, 3.72792196e+000, 1.59923105e+001,
          5.22407770e-001, 1.48414838e+000, 4.61635685e+000,
          1.82253971e+001, 4.58456726e+001, 1.82842708e+000,
          4.21538696e+001, 1.92187119e+001, 1.69827557e+001,
          3.20774384e+001, 1.56722319e+000, 3.89513626e+001,
          3.82790833e+001, 2.02964649e+001, 3.06894760e+001,
          7.83611596e-001, 0., 0., 4.14213562e+000, 2.25966606e+001,
          2.61203885e-001, 4.21312141e+001, 8.62614536e+000,
          8.69848442e+000, 1.42829523e+001, 2.61203885e-001,
          8.83121300e+000, 1.16878664e+000, 0., 0., 0., 0., 0., 0., 0.,
          0., 0., 0., 3.31370854e+000, 1.97230110e+001, 4.96328068e+000,
          4.16735649e+001, 1.00837936e+001, 2.89949489e+000,
          3.34314585e+000, 0., 0., 0., 0., 0., 0., 0., 0., 0., 0., 0.,
          0., 0., 2.89949489e+000, 1.67940788e+001, 3.30642629e+000,
          3.54642143e+001, 2.39083691e+001, 9.52691174e+000,
          4.10050488e+000, 0., 3.99629517e+001, 8.62283421e+000,
          8.28427136e-001, 5.85786462e-001, 0., 5.85786462e-001,
          4.14213568e-001, 0., 0., 0., 9.36621308e-001, 9.16388416e+000,
          4.14213562e+000, 7.82073784e+000, 9.36621308e-001,
          1.61203873e+000, 3.01036892e+001, 1.20121937e+001,
          2.48130493e+001, 2.45902896e+000, 3.22579308e+001,
          4.93572922e+001, 9.11269855e+000, 3.23424034e+001,
          1.79296741e+001, 3.60875244e+001, 1.30840492e+001,
          1.65685427e+000, 2.08551464e+001, 5.33164253e+001,
          1.96605861e+000, 9.13444614e+000, 5.79898977e+000,
          7.57809734e+000, 5.22407770e-001, 1.13973608e+001,
          2.48036499e+001, 1.07695522e+001, 2.35508327e+001,
          9.47860432e+000, 8.10091209e+000, 4.30290298e+001,
          1.69827557e+001, 3.73231697e+001, 2.25641327e+001,
          7.83611596e-001, 4.97374773e+000, 3.72792196e+000,
          3.97909203e+001, 9.67238007e+001 ]
      - [ 5.14718652e-001, 3.24264073e+000, 4.24264050e+000, 3., 3.,
          1.65685427e+000, 6.75735950e+000, 3.58578634e+000, 0.,
          3.75735927e+000, 8.41421318e+000, 1.30923986e+001,
          2.88083553e+001, 1.42708187e+001, 4., 3.41421366e+000,
          4.14213568e-001, 5.85786462e-001, 2.91710567e+000,
          2.07968254e+001, 2.38996506e+001, 3.86418134e-001,
          4.14213568e-001, 1.58578646e+000, 0., 0., 0., 5.09776640e+000,
          7.57821989e+000, 1.32401383e+000, 0., 0., 0., 1.78143942e+000,
          6.95077419e+000, 6.42434883e+000, 2.00998044e+000,
          4.33619547e+000, 4.53990507e+000, 1., 0., 1., 6.82842731e+000,
          2.02720776e+001, 3.52132034e+001, 1.76862907e+001, 0., 0., 0.,
          2.77232480e+000, 8.94612598e+000, 6.05326605e+000,
          3.26519661e+001, 5.84486656e+001, 2.83748322e+001,
          1.13343973e+001, 0., 0., 5.85786462e-001, 1.91328371e+000,
          4.78582001e+001, 6.23858070e+001, 2.91292458e+001,
          4.12767649e+000, 0., 1.33431454e+001, 7.65685415e+000,
          1.94488370e+000, 3.05511618e+000, 0., 0., 0., 0.,
          1.39289322e+001, 3.90710678e+001, 2., 2., 0., 0., 0., 0.,
          1.46134558e+001, 8., 2., 1.15224075e+001, 2.12983303e+001,
          2.25934753e+001, 1.15160093e+001, 0., 4.68604088e+000,
          8.28427136e-001, 8.49615574e+000, 2.35230160e+001,
          3.88559265e+001, 4.42737045e+001, 2.33563213e+001, 0.,
          1.05606155e+001, 1.28284273e+001, 0., 0., 0., 0., 0., 0.,
          3.50168533e+001, 2.14387627e+001, 6.92759231e-002, 0., 0., 1.,
          2.03044847e-001, 0., 1.25149097e+001, 4.14213568e-001, 0., 0.,
          0., 0., 3.17237163e+000, 0., 0., 0., 0., 0., 0., 0., 0., 0.,
          1.43141499e+001, 1.87995255e-001, 0., 0., 0., 4.14213568e-001,
          1.49195015e+000, 0., 5.77741861e+000, 0., 0., 0., 0., 0., 0.,
          0., 0., 0., 0., 0., 0., 0., 0., 0., 0., 0., 0., 0., 0., 0., 0.,
          8.48888904e-002, 8.37082195e+000, 1.55442886e+001, 0., 0., 0.,
          2.41421366e+000, 2.58578634e+000, 0., 0., 1., 0., 0., 0., 0.,
          0., 0., 0., 0., 0., 0., 0., 0., 0., 0., 0., 0., 0., 0., 0., 0.,
          0., 0., 5.04304600e+000, 8.28236485e+000, 1.29197371e+000, 1.,
          3.58578634e+000, 2.41421366e+000, 1.54424280e-001, 0.,
          1.42034369e+001, 9.33438778e+000, 1., 3., 0., 4.41421366e+000,
          1.10751581e+001, 0., 1.17038908e+001, 4.41421366e+000,
          2.11245012e+000, 2.83306046e+001, 7.55694532e+000, 9.,
          1.42810011e+001, 0., 1.09075089e+001, 8.77653027e+000,
          7.23805380e+000, 3.45700455e+001, 1.55350447e+001,
          9.17926216e+000, 1.19943256e+001, 0., 1., 2., 6., 2., 0., 3.,
          4., 0., 1.00185633e+001, 5.56572104e+000, 1.25090418e+001,
          3.32076492e+001, 6.71758747e+000, 1., 5.23074627e+000, 0., 0.,
          0., 3.36489081e-001, 3.00058002e+001, 6.57709777e-001, 0., 0.,
          0., 0., 0., 0., 0., 0., 0., 0., 0., 9.34314537e+000,
          2.89949489e+000, 9.72023296e+000, 1.03712642e+000,
          9.84101295e+000, 1.97031422e+001, 1.15979795e+001,
          1.57165108e+001, 1.61413536e+001, 3.00404072e+001,
          7.54537916e+000, 1.65685427e+000, 2.34314585e+000,
          4.14213568e-001, 5.89341021e+000, 1.10658967e+000, 0.,
          4.56690520e-001, 2.54330945e+000, 4.85919952e+000,
          1.18981600e+001, 3.31370854e+000, 4.32172441e+000,
          3.60720778e+000, 0., 2.02304478e+001, 1.94680367e+001,
          1.33015156e+001, 0., 2.87822175e+000, 1.24943609e+001,
          2.23675327e+001, 7.98781815e+001, 2.53817043e+001,
          2.61203885e-001, 3.49615550e+000, 7.45584393e+000,
          4.37097168e+001, 7.40770798e+001, 5.22407770e-001,
          1.95070286e+001, 4.97056293e+000, 0., 0., 2.61203885e-001,
          3.77560387e+001, 1.69827557e+001, 0., 0., 0., 1.96446609e+001,
          2.48528137e+001, 4.47597275e+001, 7.74279594e+000,
          1.09681902e+001, 1.37181015e+001, 2.85807362e+001,
          8.41360092e+001, 1.95969677e+001, 2.09270334e+000,
          1.52798796e+001, 6.62741709e+000, 0., 0., 3.38549576e+001,
          2.49318371e+001, 6.62741709e+000, 1.91036904e+000,
          6.75417423e-001, 2.11738567e+001, 8.99771690e+000,
          8.28427136e-001, 2.22999287e+000, 4.77000713e+000, 0., 0., 0.,
          0., 0., 1.58182974e+001, 3.76748919e+000, 8.28427136e-001,
          2.58578634e+000, 0., 4.36809969e+000, 1.63190043e+000, 0., 0.,
          0., 0., 0., 0., 0., 0., 0., 0., 0., 0., 0., 2.05273743e+001,
          3.47262573e+000, 1.65685427e+000, 3.34314585e+000, 0.,
          5.14718652e-001, 4.85281378e-001, 0., 0., 0., 0., 0., 0., 0.,
          0., 0., 0., 0., 0., 0., 1.17230921e+001, 5.62005329e+000,
          3.31370854e+000, 6.08194208e+000, 2.61203885e-001,
          1.27144728e+001, 2.21433926e+001, 9.52691174e+000,
          1.50188532e+001, 4.59637070e+000, 8.53612423e+000,
          1.85227489e+001, 2.40243874e+001, 3.04215698e+001,
          5.49516821e+000, 1.36990547e+001, 2.84308872e+001,
          1.82253971e+001, 3.90709457e+001, 1.45737143e+001, 0.,
          5.27207804e+000, 6.62741709e+000, 4.10050488e+000, 0.,
          1.03476963e+001, 1.81253910e+001, 1.28406200e+001,
          1.19376726e+001, 8.74861908e+000, 7.75922477e-001,
          4.98143673e+000, 2.48528147e+000, 6.02903032e+000,
          1.72832894e+000, 0., 0., 0., 0., 0., 5.14718652e-001,
          5.17157269e+000, 6.62741709e+000, 5.68629169e+000, 0.,
          9.36621308e-001, 1.27496700e+001, 9.11269855e+000,
          1.61094627e+001, 3.50915489e+001, 4.14213568e-001,
          2.17157292e+000, 4.14213568e-001, 6.32387924e+000,
          4.06761208e+001, 0., 0., 0., 2.07160544e+000, 1.19283943e+001,
          3.62929034e+000, 1.95649600e+000, 5.38477612e+000,
          1.05843182e+001, 2.44511867e+000, 0., 1.17157292e+000,
          1.82253971e+001, 5.63418274e+001, 2.61203885e-001,
          6.27023315e+000, 1.72444859e+001, 1.11837664e+001,
          7.66214600e+001, 2.36800537e+001, 3.81932402e+000,
          5.10960817e+000, 7.87005758e+000, 4.64566116e+001,
          7.17444000e+001, 0., 1.19583693e+001, 7.87005758e+000,
          2.31018901e+000, 1.86138391e+000, 0., 1.38873014e+001,
          1.07695522e+001, 2.34314585e+000, 0., 1.43870716e+001,
          3.82575874e+001, 2.23675327e+001, 2.69429913e+001,
          1.04481554e+000, 4.67635307e+001, 1.80232639e+001,
          2.19533195e+001, 5.64685822e+001, 4.79130077e+000,
          2.17366171e+000, 7.09841633e+000, 3.72792196e+000, 0., 0.,
          3.85156364e+001, 1.31706562e+001, 3.72792196e+000,
          5.85786462e-001, 0., 4.15384598e+001, 8.63311291e+000,
          8.28427136e-001, 0., 0., 0., 0., 0., 0., 0., 1.87302322e+001,
          9.19869995e+000, 2.07106781e+000, 0., 0., 4.96408796e+000,
          2.03591204e+000, 0., 0., 0., 0., 0., 0., 0., 0., 0., 0., 0.,
          0., 0., 1.35460405e+001, 5.79710484e+000, 1.65685427e+000, 0.,
          0., 0., 0., 0., 0., 0., 0., 0., 0., 0., 0., 0., 0., 0., 0., 0.,
          1.21642380e+001, 4.42154837e+000, 2.89949489e+000,
          5.51471853e+000, 0., 3.86298828e+001, 2.71569138e+001,
          7.87005758e+000, 2.34314585e+000, 0., 4.13753510e+001,
          3.93403778e+001, 1.40832615e+001, 1.03742695e+001,
          2.18267403e+001, 4.09306297e+001, 3.47556648e+001,
          9.11269855e+000, 1.54270973e+001, 3.87739143e+001, 0.,
          4.68629169e+000, 6.62741709e+000, 4.68629169e+000, 0.,
          2.22726250e+000, 2.02163887e+001, 8.69848442e+000,
          1.56018162e+001, 3.32560463e+001, 0., 5.85786462e-001,
          4.14213568e-001, 2.96037745e+000, 2.80396233e+001, 0., 0., 0.,
          0., 0. ]
      - [ 0., 5.50921059e+000, 3.41421366e+000, 0., 2., 1.,
          2.24264073e+000, 5.34314585e+000, 0., 1.80812204e+000, 0.,
          3.81236047e-001, 4.51144562e+001, 2.50430679e+000,
          1.24264073e+000, 5.07773638e+000, 0., 0., 0., 0., 1., 0., 0.,
          0., 0., 0., 0., 0., 0., 0., 0., 0., 0., 5.71083927e+000, 4.,
          2.58578634e+000, 4.41421366e+000, 0., 0., 1.27612782e+000, 0.,
          4.41421366e+000, 9.82842731e+000, 1.27333012e+001,
          2.22570572e+001, 1.11784248e+001, 9.41700172e+000,
          5.23074627e+000, 0., 2.75594258e+000, 1.65907993e+001,
          3.30909500e+001, 5.65795860e+001, 8.64624310e+000,
          9.48528099e+000, 7.14941359e+000, 0., 6.49615526e+000,
          8.80184174e+000, 2.07044125e+001, 4.25406952e+001,
          2.85124626e+001, 2.54180355e+001, 1.45114355e+001, 0.,
          6.36605120e+000, 1.02923927e+001, 3.70207503e-002, 0., 0., 0.,
          4.72669512e-001, 0., 2.21431408e+001, 2.09577351e+001,
          1.73879611e+000, 1.26120389e+000, 3.58578634e+000,
          9.65685463e+000, 1.09481030e+001, 0., 4.25401268e+001,
          4.00311813e+001, 9.48528099e+000, 9., 2., 3., 2., 0.,
          3.45843010e+001, 2.88341541e+001, 6.75735950e+000,
          2.15857868e+001, 7.17157269e+000, 2.36568546e+001,
          1.16180573e+001, 0., 2.57244468e-001, 1., 0., 0., 0., 0., 0.,
          0., 8.91246986e+000, 5.81536150e+000, 0., 0., 0., 0., 0., 0.,
          5.22306204e+000, 2.26120377e+000, 0., 0., 0., 0., 0., 0.,
          1.39493465e+000, 1.60506535e+000, 0., 0., 0., 0., 0., 0.,
          5.85786462e-001, 0., 0., 0., 0., 0., 0., 0., 0., 0., 0., 0.,
          0., 0., 0., 0., 0., 0., 0., 0., 0., 0., 0., 0., 0., 0., 0., 0.,
          0., 0., 0., 0., 3.32948297e-001, 0., 0., 0., 0., 0., 0., 0.,
